{"bias": [[0.4943628369845284, -0.026474824290696315, -0.06580783588069296, -0.23359778831078565, 0.29771892886776985, -0.417895850775919, -0.6959771761222926, 0.006668432212165138, -0.513781646089972, -0.016966320289505312, 0.04095678245735667, -0.04148790726878635, -0.3365104856558029, 0.033448885029283094, -0.05311652438374013, -0.16765263994013943, 0.12533643057800106, -0.4635960111413969, 0.044107250207915304, -0.06046960386599853, -0.020845426559434176, 0.023912177943577674, 0.31174498463249944, -0.10752441913116358, -0.23027157595136744, 0.12201918054879236, -0.12581338380090637, 0.18586905643760407, -0.13873101538563928, 0.12419202406153132, -0.04783368017547537, -0.5449382629696149, -0.31321317986442565, 0.2902899715280957, -0.04264525161096077, -0.4032185270938282, 0.282658989875776, 0.07649574597995784, -0.14961772150202846, 0.16201597846377241, -0.22057191128463777, 0.019820025488893524, 0.029707022497077695, 0.11892853799262068, 0.22861316277866786, 0.03179879285504548, -0.2933072152577146, -0.16741519621180442, -0.16132736177624007, -0.20554239598714613, 0.2720464562448153, -0.06544909249955827, -0.07782335627457325, 0.013649639283374445, -0.03245608609603623, -0.25594536388262756, -0.1417915644644304, 0.18572976105508357, -0.032840011406664496, -0.3109971492384454, -0.14995639464499316, -0.05799401972735429, -0.10562035277595057, 0.08207866072703893, -0.5188012184549866, -0.1871981138583102, -0.11563382697172025, -0.38233457601777016, -0.405042866919626, -0.17346712519632698, -0.40474071717740423, -0.06832815999017397, -0.27554699702382696, -0.03007964039189403, -0.512598120119015, 0.3202924341263181, -0.09778768981270733, -0.08221809918252176, -0.25852367643220114, -0.06967489721960053, -0.3526055323837696, -0.3433910390728778, -0.0626985991352862, -0.10961986804921524, 0.3695751980986327, -0.05673368620963807, -0.32582894190905437, -0.10859394979066418, -0.04314996015519122, 0.055611455306108386, 0.2532155038125785, 0.039396777988054466, -0.13102719921523814, -0.33728531638312675, 0.13729054281721112, 0.37091306565169696, -0.04606229886445213, 0.09107081683787503, 0.49900937558332, -0.5053024026802834, -0.06152702677290937, -0.022307154009598852, 0.040340602760547815, -0.4520195309035892, 0.19827627364506378, -0.11855718851468287, -0.2755834208270071, 0.029155165417463862, -0.40725848915200924, 0.09390563195887151, 0.11727785946875978, -0.22319824523473328, 0.13428703341976378, -0.03185966829434172, -0.2488229080070524, -0.021383928892037756, -0.04361749828579583, 0.11979889065341391, -0.13512678851719814, 0.05878566097071166, -0.02175057285477842, -0.16801020091052873, 0.20829608621905257, -0.11397906977849492, 0.07438185400672429, 0.10252900844119672, 0.13871450076196784, -0.21808162649004018, -0.2396381213329351, -0.07407846381091047, -0.2313725193790248, -0.1793937302631497, -0.14267999758774505, -0.04554821081313043, 0.26721007674528346, 0.2402263690895445, -0.15620632759419875, -0.12301238949861369, 0.16052752147210536, -0.06866788168464055, -0.050800604091503006, 0.3879936573415215, 0.2446793527726473, 0.04745545517616383, -0.18833425778564442, -0.10889231668536035, 0.06051041426671685, -0.030160884743699618, -0.1451875041275989, 0.27596742311531114, -0.27043757442350885, -0.15717484899334036, -0.27932590540002683, 0.2564751880639218, -0.4846648887320002, -0.019213179003559375, -0.04730799237091278, -0.14920117215626202, -0.026214150595964873, 0.2580312202025616, -0.43272137084346757, -0.21913929647747352, -0.2095673084117368, 0.0810003440370316, -0.2719163177928977, -0.08652178542331451, 0.12431868854172277, -0.23315995037320655, 0.10355889998678247, -0.11107711456887155, -0.0709163095922503, 0.0620416567099627, 0.020927196276648498, -0.3842059496222872, -0.5479838520812701, -0.20890450491457438, -0.030183599539784268, -0.27462437560466213, -0.24236095317629894, -0.32134846434890724, 0.5158204832507307, 0.0001719146477911177, 0.13528230580330136, 0.2499533007684135, 0.030811930976926402, -0.3590996839958955, 0.23943268979895377, 0.1559126945573191, -0.0030954560240323854, -0.308949422799718, -0.2104494268355458, -0.12429379262453741, -0.02054381007268129, 0.2507472685303982, 0.1392633691520994, 0.0881805704457652, 0.4996578136477919, -0.06988410051712443, 0.1717954012695392, -0.07915512031763947], [0.22664083278599287]], "hidden_activation": "relu", "layers": [200, 1], "output_activation": "logistic", "weights": [[[-0.045149392668295894, 0.01147711529828579, -0.01036370859551027, 0.04601640338863324, -0.06932413814944799, -0.09052815587627265, -0.025462222094282647, 0.11153407382190036, -0.16180374202784661, -0.1281693968743392, 0.011221796419037337, 0.10836349967112949, -0.09044359592679567, -0.02525259439978174, 0.02587871380529313, -0.04959320779777029, -0.15793034668160139, 0.059869365172331705, -0.10938199723348774, 0.2085255534794129, -0.021093995060511656, 0.07946631876482857, -0.11166250691768768, 0.22529000426631313, 0.0469312189479171, -0.1773690821539407, -0.13709212251167704, 0.07846642585868098, 0.02537238087300696, -0.009274435650913019, 0.0025423197329697824, -0.08285041136614124, -0.2523306210615593, -0.08690958463543001, -0.011987436736444446, -0.0483818084857288, 0.023661387281071422, 0.020322723761191205, -0.07038346079760778, -0.061072862979850435, 0.04145593108518215, -0.01953295554540049, 0.039987169437651265, 0.03217344644199265, 0.0990474714299148, -0.006678887547961255, 0.05116994717315703, -0.22030693684773847, 0.04210547206280296, -0.03062571760183695, -0.042446265828615694, -0.11521555928387155, -0.011039300236902845, -0.04288119476220251, 0.10985629816731292, -0.1427677488686003, 0.06481604275389719, -0.06286935711938042, 0.07104729943224476, 0.015708929220353475, 0.07071689218434173, -0.10325292001024061, 0.07052146727848191, -0.08450307304883892, 0.09367135291277469, 0.08180964350392678, 0.1959726420814552, -0.20248734888907036, 0.007705876668865121, 0.02752444834410831, -0.08614740236280558, 0.058745425885176936, 0.05434623417531163, -0.07559750407382161, 0.013591487792411533, -0.049260239761980906, 0.04223495152528007, 0.10981518561731222, -0.10642007039722849, 0.12034143374177363, 0.045768047144070345, 0.01814907166548313, 0.21360714479618287, -0.007672425232640296, 0.013874062557823016, 0.06915115644532513, -0.09700447226071304, 0.09096551907891692, -0.1510708503889903, -0.08367362170673037, -0.18892597545278286, 0.08667788207938808, -0.06358832466429534, 0.06779340539785551, 0.01178561586506362, -0.06079300643138539, -0.13312227530004156, 0.14315291552160916, -0.22352901564115757, 0.055763173066705016, 0.08855120332922461, 0.022912310545135577, 0.04618223216889274, -0.35324421057834604, -0.02332278222288352, -0.05174913213913692, -0.05070251866813589, -0.14592209539563647, 0.026661685564772525, 0.04828211633775691, 0.05703445735317711, 0.10334554982879891, -0.11814417027232556, -0.10897793228746172, -0.19477750217879677, -0.05235871517481161, -0.020532180331189788, 0.09123391845831433, 0.11413870172590611, -0.03418632623751953, 0.017797028105611668, -0.21706135037978336, -0.0036937514774864066, -0.01468295384465812, 0.0031208922124888257, 0.11149836715864378, 0.0952986141967465, -0.12115386718352095, 0.06627546099175098, 0.33904975467272064, 0.0678630029638187, -0.008905207743201941, 0.0009623511927942465, 0.08645958239584772, 0.03700032663457047, -0.08362935983922928, -0.24672510346910023, 0.04239077109713504, -0.08013885399630748, -0.12974246664126307, 0.20619128362422265, 0.033181470169259104, -0.09219623563085186, -0.11753433163416661, 0.020820063682680016, -0.07145941928424658, 0.18802882287225584, -0.18871810275920534, 0.2340398305412305, 0.044767428281263094, -0.01830982956692843, -0.02028713023468358, 0.021397722701489996, -0.12309219000805838, -0.17423498346513358, -0.07605038668349104, 0.004700560566959979, 0.016307961885404166, 0.08122702408997559, 0.04770993248574576, 0.06422122196878012, 0.07841760047675551, -0.05876371909291402, -0.17655001667387227, -0.05996664084696381, -0.07769053455511218, 0.0057265691948328624, -0.03720862537462886, -0.09821123490553169, -0.08844905846416379, -0.2003622041873089, 0.13781935530009265, -0.24803773589916464, 0.16863403729205134, 0.019541146673344313, 0.034481309645299454, -0.07502335219003627, -0.05865886168035998, 0.001524924530990093, -0.2689830600538559, 0.02608702401210082, -0.048495609944948566, -0.010853165961971094, -0.035587160315386834, -0.1939098023734172, -0.14694186814962282, -0.13654497431715484, -0.03303408777126779, -0.07804428222140132, 0.1766034902677388, -0.021470711763540862, 0.034018598107445785, 0.1516691106896856, 0.013953562261375788, -0.0064235274193496375, 0.009601616686656508, 0.04059544023465081, 0.03368065306345529, 0.07984276100012626, 0.15688489915842918], [-0.09631812346771675, -0.13987925717716063, -0.05190006522687584, 0.13682381657403134, -0.06629620858411416, 0.012891236972609466, -0.02199077009862799, -0.05244152488609816, 0.07986045389146672, -0.0142406061288481, 0.0505623239482459, 0.0856423364168529, 0.24431441359688247, 0.1453056251291101, 0.07037775738695663, -0.03010114662344517, -0.08201321872605705, 0.11417817761342569, 0.10541102190675788, 0.27576330081506384, 0.07586821926928175, -0.12220994114342962, -0.13716426324692718, -0.00597645355235754, 0.0999131969490879, -0.09824530395387614, -0.06961799499614323, -0.10966109399705387, -0.07268326643355828, 0.01318852384006189, -0.21732275321193523, -0.2452342788129739, -0.11959954063857374, -0.1111542477514612, 0.048527226239063595, -0.17190217798035512, -0.05356023446459932, -0.08026240711201696, -0.26081531507589867, -0.08862624966037758, -0.12872060131044155, 0.10661373206856338, 0.05035173157322447, 0.06270009556905519, 0.07680548943722432, -0.22539523988418214, -0.14389179721122594, 0.01563275183793966, 0.06196814668573346, -0.14388479514117802, 0.10742695144718922, -0.06963236679187539, -0.03037714660967827, -0.018451653189955442, -0.10206147637150821, -0.07912507287917185, -0.01759994797950489, -0.06782211436277027, -0.0022935814257656053, 0.03484381805451516, 0.18335187294291422, 0.12307655119101883, 0.02387556848891265, -0.183788782808366, -0.3496289192079526, -0.0892236249749318, 0.058790841887928005, -0.094309421050999, -0.3219407912185576, 0.06556042697642002, -0.10218962563795839, 0.060396643404782006, -0.03085227156834011, -0.041233957196696265, -0.07118899545762977, -0.0331420251015364, 0.0952057208265109, 0.05645355467792451, 0.010113292364259723, -0.08567228216239087, 0.22580211599244562, 0.12212930930801866, -0.06457266851445213, 0.015526531947095301, 0.09281609760714737, -0.05195333432654841, -0.19413062482873422, -0.08165928859820225, 0.16393835638940019, 0.07171932874835277, -0.1219765866513249, 0.020817907576495463, -0.04412407839433512, -0.28063188862088156, -0.0012776339650846856, -0.2163848344788924, 0.07757234180636045, -0.17218562726300823, -0.08942409416105035, -0.07971558724198469, 0.02271109678047346, -0.015705235761978346, 0.20222317957232325, -0.36866613610711874, -0.05460710543603125, 0.14583047518273087, -0.10699212039206764, -0.058826024528218925, 0.05136209093441621, 0.06209104101052067, -0.004149388855698941, 0.2299305480866931, -0.005155162412835686, 0.15044646619524676, -0.09252470926246581, -0.1535726592489912, -0.07315029001040786, -0.09901392294013962, -0.07885157337226693, -0.18384131329317646, -0.11585595747237473, -0.206348026199199, -0.006953939782915435, 0.038230367227100784, 0.08134888243569402, 0.045019208577747966, -0.023429105144161702, 0.1756711834285513, 0.14559391198509722, -0.15102950911828703, -0.0027228396244952423, 0.03688701458743011, -0.0012817213208164207, -0.158594137577677, 0.05418011911879984, 0.0858647235621467, -0.20255437683824373, 0.1354593631705583, -0.04683078198346792, 0.050771851094651016, 0.030012506562166336, 0.1050781244692255, -0.17379556621817963, -0.1215845450429285, 0.20984806328522826, -0.03227211761095337, 0.026533307664346747, -0.1828099413943216, 0.1401764839313641, 0.10908412000436833, 0.003938528140495559, -0.0832377259217097, -0.10934131561968785, -0.04912586091960782, -0.2211047330328324, -0.10404321856988415, 0.01921395842280634, -0.08012372182606216, 0.020073088736129133, 0.12859707266794757, -0.02893866908440847, -0.15653076523518403, -0.2330665282689055, -0.18853621904315657, 0.07839007362592612, -0.05237352494297895, 0.00838539368288244, -0.1727914619364373, 0.11419725998155496, 0.07997385761218863, -0.060997901953451214, 0.1368281873099805, -0.055264101188283885, 0.04713952681273846, -0.011395962961072325, 0.025639697460802975, 0.10389112976835674, 0.05108461972485541, -0.010062695141818564, -0.1365191792549122, 0.209461869664867, -0.08136370990959642, -0.08854002071795752, 0.12011224566099443, -0.13674521668326073, 0.0803264473810011, 0.12835617593152615, -0.13060726792866797, -0.05853258850074645, -0.2525961325705405, -0.09347056152689634, 0.024402475812656407, 0.06327661992364751, 0.0610999557539233, 0.02650049377856796, -0.08972541149986553, 0.08047130361058902, -0.03315965464510785, -0.06528377732961799, 0.0681004602191916], [-0.2784831979201761, 0.004739618669572955, -0.12178057334799075, 0.2406027101063861, -0.04873267677722355, -0.057235147710585826, 0.04500062973703634, -0.2269917779299576, -0.04058821853176946, -0.01817601352412141, 0.000262805671917072, -0.24798127845949694, 0.3475235572346221, 0.047094730292230644, -0.2003544238311114, -0.09599002333317613, -0.05453457828095753, -0.07962399841905264, 0.002384952787923587, -0.09425375737726048, 0.10795527649926326, -0.33235423755191185, -0.18528045265162546, -0.08537406714736769, 0.07350893538594115, -0.047745487866124994, 0.2806237764433898, -0.07057658795707006, -0.3031430991567226, -0.37224400996646084, -0.16356662027360466, -0.23402085452492175, 0.02383997239982421, -0.05529831694243208, 0.012494363204394282, -0.10137505654433378, -0.06470784398693473, -0.01771230274315499, 0.05812331870449516, -0.13795087070193937, 0.028870266047257093, -0.17561439629756995, 0.14889343972966465, -0.22017345760104276, -0.10463338275739115, -0.266259988639062, 0.018577793250143068, -0.23076173811538564, -0.16384866085632593, 0.2125339028575329, 0.012920855336666424, 0.14171462799843096, -0.20803801512608278, -0.01734343727320388, -0.38133968891705844, 0.08499926965545493, -0.02312778549453277, -0.026098540397057727, 0.07702303933970965, 0.04267951119841938, 0.0006450665497672182, -0.03785387458070147, -0.18376303117246187, 0.11640417403455519, -0.5381832435526199, 0.09632927778626596, 0.07473707583928522, 0.04361859385768013, 0.20481978412348945, 0.0486992558976618, 0.02821596511060137, -0.015530536727340264, -0.2211415953712724, -0.1298816136413984, 0.008106059022401017, -0.2650510167162919, 0.07493407324431534, -0.10241611974233873, 0.09065598349038523, -0.291868205746868, 0.007215922425789635, 0.032669747030407675, -0.12013107783992454, -0.17792145677371837, 0.12230740123317549, -0.1883640922279488, -0.15791616124839572, -0.2973443259114163, 0.09262526736153621, -0.011795189080177355, -0.3517961875098603, -0.006738727598435858, -0.09777535502896045, -0.39140027114584525, -0.05817327532670636, 0.11272559514255039, 0.20991004704569746, -0.4103812234441211, -0.06383606560178644, -0.12387667484139263, 0.06552752783251208, -0.13181595632272625, 0.020533953542155585, -0.31345174193825487, -0.009028105366629267, -0.10912689978014978, -0.0015292046782000052, -0.23313393944056407, 0.054878931432292846, -0.22656174119750866, -0.0971684133525052, -0.07845847601032596, 0.008690041803774813, 0.128745751477993, -0.07078752507154876, 0.03333950060903294, -0.10101418808827198, -0.11798512893900408, 0.19826668218978097, 0.23970961399741533, 0.16972514435413255, -0.1264667186926196, -0.07680898600928644, 0.070503396230843, 0.16706468466049607, -0.014961661893616146, -0.1925030461250662, -0.06840853403807037, -0.01444027538929574, -0.18273410705394322, -0.17902458708993169, -0.07430416901568096, -0.10798505164102522, 0.057242025050636865, 0.011394412500322734, 0.25661083229989345, -0.1893999551155335, -0.2044463759144035, -0.028362506544518006, 0.27330830251180027, -0.1281064845705985, 0.1245070867836141, 0.2651736844163996, 0.05928619520475748, 0.20611263303926644, 0.057363818771713634, -0.031921484123477416, 0.01591940448947104, -0.08616746869261993, -0.06155787850503524, 0.02314420195698094, -0.05175091263024425, -0.13768696163500554, -0.1613357129335115, -0.2512019642089123, 0.06734852392867191, -0.1324957149645034, 0.23605724531637812, -0.37546388876952924, -0.19052190112083825, 0.07245232654617005, 0.11790371730771333, 0.08162083768096524, -0.059608091093277096, 0.19760535840259455, -0.04635720665834331, -0.21815286234688674, -0.16373010233784635, 0.26616767843769673, 0.06261383025012429, -0.032790866202000675, 0.11303962319739884, 0.02991070228647314, -0.028876262565503744, -0.012226257370027305, -0.0961736472937224, -0.14280739740059165, -0.07540371847332127, 0.057475986062182835, -0.2900986498995128, 0.061065932754199824, -0.20262431751659263, -0.1075029325765473, 0.1977644240898122, -0.10474048976373572, -0.1648929155129345, 0.2396478024094264, 0.058116676955579746, -0.006100401775907422, -0.006206804862677292, -0.13668331159411462, -0.04199085823163032, -0.09492408668258417, -0.101838511930126, -0.0800277950908538, -0.2668424319229083, -0.029360872875466362, -0.08043354067413602, -0.002377313078401038, 0.04812792041791858], [-0.23385133528087387, -0.0029342588067595246, -0.14671372972932809, -0.08572200404775536, -0.05831333011939484, -0.0700139893559211, 0.19121578113270307, -0.00031066987809558265, 0.14899890381493372, 0.03995555613786403, -0.09006953472661368, -0.27155732386894504, -0.14594332659292314, -0.1811585070020908, -0.16144011019040802, 0.06940362510727818, 0.17316946897687188, 0.007612006778151376, 0.06194556573362842, -0.12490353515683404, 0.1578394551498759, -0.11582538462921414, -0.07030253459415234, 0.10989008888708175, -0.2241616742079028, 0.06892846086252906, -0.0811935193899502, -0.11884985158841174, -0.06820208312173728, -0.09553214555355379, 0.03859397333537773, -0.009583828192490911, 0.04001813908469857, 0.005419200735028705, 0.06346541684126975, -0.03702650594541104, -0.137351410590807, -0.11189919507731422, 0.3542068420122392, 0.20156967002165893, -0.3102549651084494, -0.08484949160379929, -0.04377752809369731, -0.06112211275156068, -0.1462674591656167, 0.1388563328000582, -0.19121695775332126, -0.18949565933788198, -0.23792698555545044, 0.2922237139721555, -0.10788042331197563, 0.17185346195883153, 0.028478759348640283, -0.019222278409782443, 0.04106806174452281, 0.11432715195024487, -0.2387936457427307, -0.020310573629573093, 0.2833570562901724, -0.06447083956658863, 0.019624966155551184, 0.010167961677410981, 0.09232784568516578, 0.14680001445111046, -0.06676411820824063, -0.1887222763752187, -0.17477690690587488, -0.0786107098309539, 0.3437840966655245, 0.24211687529275494, 0.17894706305564748, 0.15433704932199357, 0.0020484177470991224, -0.13639412487750166, 0.10563823094259045, -0.05664301801365797, 0.030560396645466236, -0.1587171431610002, 0.19967347930168128, 0.15761667113282427, -0.18490485073850996, -0.041452754240862144, 0.03801202193084474, -0.0370111246046395, -0.06269150729228971, 0.21458355509387472, 0.05675495598829978, 0.04464032626274505, -0.025389245512968853, -0.23460279923975572, -0.04140907460149225, -0.079197812858856, 0.0505839914778912, -0.2351694343577007, -0.19537760085061637, -0.12132120444612922, -0.08243798957979372, -0.09820098301428926, -0.002292018413171401, -0.00587779984369939, 0.13760131096526756, -0.3118469677801607, -0.08828208171020427, -0.04011367250381617, 0.12220440165565673, -0.13839498107153614, 0.18834620257154386, -0.004853309368950853, 0.20973830058057905, 0.1764165209963154, 0.05665347197475056, -0.01757654439556279, -0.2638603762530618, -0.10829343796809605, -0.00381981237693567, -0.04459380904765817, -0.015735285340091384, 0.07974788297800967, -0.008441128962702693, 0.11919569691534931, 0.0018333307555153102, -0.011582002936767187, 0.08240482628460032, -0.14534431258874214, 0.060575153211724464, 0.10806969602316849, -0.15976146493049564, 0.05340647972782912, -0.03657072887405088, 0.09377891218808007, -0.058261867148258734, -0.061575615615282554, -0.02691516815499843, -0.011598883759714948, 0.18913082280837004, -0.18564376670650531, -0.02267870386084968, -0.05423704994151603, -0.16491086664898694, -0.018274563856927196, 0.031708623294871556, -0.02521621243617799, 0.0254253202326718, -0.17759685015108237, -0.008606187560759157, -0.14157780930245445, -0.22440438590224576, -0.12869890584468885, -0.3931569916074662, -0.13014572929742715, 0.14418368911827237, 0.08916974307036625, 0.02676122045752258, -0.03006275879047659, 0.037603957926928874, 0.002369791161560513, -0.18932723610318158, 0.1366694842209612, -0.0480999688662172, -0.01958742507096459, -0.017716835649511303, 0.020759669632850114, -0.2139707270121824, -0.006099038780581997, 0.16542088456139314, -0.0713753922336, -0.1076112335230532, 0.24129955902137165, -0.2309735993250946, 0.10899270859930536, 0.14634168018732824, -0.023733769964392484, -0.05136696190292293, -0.06474696689243431, -0.08557731346228642, -0.22582187180302546, -0.2646970570717202, -0.11617324023560749, -0.011670791882353234, -0.14003513718034613, -0.013539861380630598, -0.08425553954280117, 0.05689216103475402, 0.01816566328538664, -0.035062762266829764, 0.1294948764201872, -0.18245613095746835, 0.0010235010742760424, 0.09009558214957414, -0.11941207859049009, -0.002787490615886956, -0.27409323623702414, 0.29984151765701894, -0.13406648803198262, 0.14075157409265515, -0.04376953512916702, 0.16037071544284354, -0.012735729372030087, 0.08512009647642121, -0.2423860923107122], [-0.10555498338684015, -0.19563537501456502, -0.10015655093990572, 0.3001299321671373, 0.14671067108374017, 0.042890277687764586, -0.05801138321626415, 0.04881896326537958, 0.4458015648189592, -0.05863901820522318, -0.15354609588446344, -0.03428262455136113, 0.029294318082163307, 0.03869157366127153, -0.1866404821993903, 0.32213952758108705, 0.108991577772153, 0.16906841926569824, 0.2282304675754492, -0.147325981822704, 0.003223872797200987, 0.18246660647959712, 0.21105226483130782, 0.0533120947927046, 0.005108146690471662, -0.11842295264801583, -0.0032254416892220587, 0.03411859200894352, -0.006602949036333744, -0.19387209035180702, -0.1327945604445309, -0.42371887684777554, -0.023020100867217674, -0.010675629093329997, -0.2126733450094675, -0.23762320280410007, 0.12916822323942148, 0.056179014688917346, 0.19092795671374027, -0.007711976319419244, -0.2674718635508494, -0.12915900173371328, -0.05375593526075303, -0.023597393164396623, -0.18498067832790854, 0.07005529689701052, -0.019545904813934437, 0.047294858518331595, -0.2971140659439971, 0.018834499828562022, 0.10818557232707024, -0.03935322664564698, 0.08306628937235304, -0.11929704186027726, 0.04173828292848619, 0.042657320939242425, -0.11179207375533384, 0.1252267296730783, 0.08888244415152184, 0.12599120608896444, 0.12338610079219194, -0.11827512856766591, -0.02908435931543531, -0.15437005343371762, -0.03519969282411351, -0.19298620291437868, -0.10503256976290305, -0.06681478785877851, -0.16134123882763585, -0.0020626578705141086, 0.12109922418568698, -0.08638059012003628, -0.07546222664894323, -0.09446789073003702, 0.33507742269116647, -0.1130534213169942, 0.01704989197963134, -0.15895236609991967, 0.10266912118488042, 0.10427563632565488, -0.15215468729933643, 0.13419874201492624, -0.10856105935031198, -0.3717905080941762, -0.0347600717102431, 0.16256641920912882, -0.042061887879647125, 0.132433028302546, -0.06935802758682928, -0.3403740158522664, 0.09586706045135288, -0.06903529882083716, 0.034693832482757654, -0.17719503174910595, -0.05103508165467322, -0.184030644808433, -0.27150650000728466, -0.15501445406558878, 0.11750298075656926, 0.3966963365980641, 0.02820637368844619, 0.15241272882370321, 0.06920747633536901, 0.30656465415561945, 0.022751985660204338, -0.058924831781567835, -0.06013470551909782, 0.28147816993594527, 0.1744248607201264, -0.05017755895338402, 0.006522926622158263, 0.27365542551123206, 0.005901050271661089, -0.07792097134662357, 0.1732546432546363, -0.19519177406113652, 0.3734360861435507, -0.03466911444025919, 0.14136956215302074, -0.07486165538668088, 0.17327657228116286, 0.18994353763540642, 0.014453871160950359, -0.16929397303822424, 0.03229151315855387, -0.2729921238778917, 0.04278638355502384, -0.16730640823906331, -0.1566234147643127, 0.15847618824588766, 0.03335339901608543, -0.10626062042227157, -0.07223567642460556, -0.10860474879664886, 0.18753415085115338, -0.1480970900962284, -0.29663232048923094, -0.34028820254110964, -0.2164520189435115, 0.09724780254008578, 0.006462331986463799, 0.016612174708695554, -0.15834707906698356, -0.027950380171468142, 0.05179351761955265, -0.1476892816908676, -0.01634707660181188, -0.04615020243788403, 0.08427970380701671, -0.10210651356239418, 0.36308059642122775, 0.06461992099214221, 0.05271638912508852, 0.003938003651611792, 0.1953009681602322, 0.04268334629849682, -0.07129901379207426, -0.13642826685122153, -0.13941597327210212, 0.0445427735455928, -0.4356371115486517, -0.02498688714964008, -0.05112876041688701, 0.011065650771583302, 0.1227169723318767, 0.321499093487847, -0.07277178995216795, -0.053687342233068695, -0.0013039096570690175, 0.04683904279184786, 0.06362093324114242, 0.07392586182399054, 0.27411238273916205, -0.21113359014770994, -0.5285962332895353, -0.06266892943305219, -0.3370596962057193, 0.12195993007037273, 0.0009405458082947756, -0.08953351794681472, -0.004654866999438239, 0.18191040109017453, 0.002181771743741862, 0.06800609526080896, 0.44648092120115906, -0.27606084227356203, -0.13444280127719763, -0.21600714677357846, -0.2758522884213055, -0.23013927286042873, 0.17559809519382588, 0.02071857995608541, 0.3121815386122553, -0.08970841069629823, 0.13493299209412465, 0.08356926074910467, 0.20639624632804246, 0.09795652701394775, 0.021814933955435163, -0.04264355183535432], [0.17171973775229527, 0.09444903541655186, 0.14101827779404624, 0.048787906713285034, 0.1027716678783437, 0.016310501239816193, -0.051141475386453736, -0.09660345638206949, -0.12902467016951452, -0.08731649297437141, -0.01501481174967591, -0.32706931708234566, 0.28152416602557156, -0.0985074856892916, 0.2584811476774716, 0.18455770710727307, 0.03529640911969059, -0.08925896823825578, -0.02010837637722863, 0.020538804671144113, -0.16220603890504565, -0.040416581743447526, -0.091114670884997, 0.1156360847202969, -0.10544615836553464, -0.056090137409181555, 0.21106864519720608, -0.10743999742675331, -0.08051366293793724, 0.08728755191184598, 0.12729052124489906, -0.04975865315451263, 0.10300328016029217, 0.006109225669318911, 0.11566870616172356, 0.034450280612779126, -0.24590077814345876, -0.12376024122541578, 0.13329408516421318, 0.08915408097471605, 0.0880721669763883, -0.09936125945561618, -0.03184651942229371, -0.03567845740620102, -0.07242133491521457, 0.03901155861600434, -0.027537231678855776, 0.10401184208179434, 0.04459382416155899, 0.12933977294293916, 0.1045204659604334, -0.03620239924242661, -0.09413538404611059, -0.13152051062099007, 0.10806245000200143, -0.0805892797528903, 0.07218161063003628, 0.0032428050761002616, -0.013686509537708497, 0.16108072235611942, -0.2415527845452092, -0.13282801544272674, -0.011566530566643163, -0.0029624184045164742, 0.42115311212732087, 0.05667077528665916, 0.06875342377335712, 0.36195675989787046, 0.08598326422036001, 0.013729963761166062, 0.08923661591834853, -0.04561044780273893, 0.027004111803436853, -0.06768835291312522, 0.015822217906010436, 0.14278317972713275, 0.01351704136199972, 0.03207477259426598, 0.010176258090546586, -0.009577287671782503, 0.01955753086072018, 0.07809789563006606, -0.09803473352961839, -0.3046646461015907, -0.2709361604813458, 0.010360418454673859, -0.019035936712433893, -0.06500204947512253, -0.21239098235016332, 0.044496762771332764, -0.09236782598895565, -0.11474201428568223, 0.09187359414414085, -0.1646829932394648, -0.0037177977142980882, 0.006524433484428176, 0.06557825695266661, 0.18051696053617616, -0.10559172191971261, 0.30703645039982225, -0.08757607086820998, 0.3220678081643082, 0.1091797838672722, 0.44874323468072724, -0.014812896156590896, -0.044999421357217885, 0.001449232151086286, 0.11157979233331433, 0.035897881176554, -0.06915056671514376, -0.07617306168079156, 0.003311487462306319, 0.32416058912805445, 0.2930788180571361, -0.1618883563776458, -0.0744985660246616, -0.1926332893480428, 0.039506952084004565, 0.14028007620465424, 0.03886193754606775, -0.03443320152867398, 0.07972483590228169, 0.09804955788933707, 0.036227809094622566, -0.012164436965822168, 0.11499061784866467, -0.23167724064665057, -0.2486030559649419, 0.021218326855349228, 0.1940302965773874, -0.2700232836137011, -0.06626155733243225, 0.045951816853893546, 0.03242530210272953, 0.12261640559532934, -0.22399866122813883, -0.34606659781582216, -0.07117969049929314, 0.08115695408396863, 0.21100665722245932, -0.0578393260344337, 0.00019382249478297, 0.04360374196107127, 0.0511375906860027, 0.09922001704434093, -0.04158243963652498, -0.11905353421809575, 0.1394251253088543, 0.41322043602437236, -0.055737991829014365, 0.213375168926306, -0.04088455649775649, -0.034057728005841365, -0.03416651622013537, 0.21435293555608867, -0.13209005616026037, -0.21834755060563088, 0.10442034301584617, 0.003416408148613398, -0.06475156606798795, -0.2671597718003105, 0.06397367381234391, 0.3139027388201329, 0.04259057623133495, -0.022719316866763355, 0.2881400818895399, -0.17882820305233724, 0.02960213495535299, -0.15121921708542602, -0.0684646277947796, -0.20249803542133363, -0.15728764746919616, -0.19730292497263818, -0.04078611017317777, 0.1444236064190334, 0.17118247159722674, 0.1579448205976744, -0.07700624368813329, 0.10569103271814266, -0.20082501345193196, -0.018244169817910175, 0.20277847785549238, 0.005822836864729832, 0.07209161318762265, 0.0357279835747618, -0.21510243766209902, -0.05149898712823757, 0.11535058956742078, -0.036798820441295184, -0.12205083515312214, 0.0160815512913966, 0.024275630692566812, 0.22254356179986892, -0.020622314633077374, -0.18863177197102005, -0.039918089697317596, 0.02565067395069732, 0.037242682448606235, 0.08984650243306928, -0.06915465322452777], [0.0710738488469767, -0.07983411112622507, -0.1523269122026557, -0.1000908207304939, -0.009705393116959714, -0.13910560779746262, 0.06278514282647156, 0.09524714597705829, -0.06936305302477834, 0.04951193845140568, -0.26364691236947346, 0.10080318248544216, -0.13881382009533388, 0.041206511060935355, 0.09804909679495243, 0.23824865763783637, 0.04731333875567804, -0.24309753722350727, 0.038284353735541087, 0.18366009287728982, 0.08616261194154093, -0.1119110316996377, 0.02986557954139521, -0.05200448338974154, 0.03995989811155589, -0.0610251516468743, -0.008392596875996439, -0.029948037567149265, 0.12615417349259586, 0.06298564956808539, -0.0698794237587098, -0.12984563476363717, 0.42538107061969166, -0.00039324957428793196, -0.2033251797787998, 0.3076042608335645, 0.1961854565836088, -0.07144319270178301, 0.19966138624751317, 0.011097544927276905, -0.08276359026107487, 0.23426625693981487, -0.04650148161151997, -0.04933947084066853, -0.2677297784301703, 0.09336341445372874, -0.09069712687962857, -0.41057777424009734, -0.12770784989280237, 0.38592620227673247, 0.16730992238410555, 0.02450183418474011, 0.17811335588871086, 0.04032377479322358, -0.11134443940687112, -0.1825646126570846, 0.036981999287616765, -0.04313317461721318, 0.141410095763606, 0.07316017292672831, 0.12670503539198366, 0.0016082327862697197, -0.005196969323260962, -0.0408773882430332, -0.002028615922101735, 0.053790506227365475, 0.2991934778006234, 0.07260259196725115, -0.12041277847480573, 0.26524577015645057, -0.07675560920325399, 0.2001517594368485, 0.0024397351901036092, -0.22605149613517947, -0.2513259111248086, -0.10095264496054272, 0.0002209804118779887, 0.09546971756850665, 0.08217254854704022, 0.041701308343623573, 0.1618861568001537, -0.026549983678816183, 0.042679650222518364, 0.1966990089762798, -0.0496019375172763, -0.14792757740060974, 0.03973738832729896, 0.11172626139931288, 0.27539515132442066, -0.11005936164724547, -0.08703740580388573, 0.20944661850525378, -0.036505818206142834, -0.1665117342241655, 0.0078035732650504185, 0.060889016532590115, -0.11033320055864027, 0.1082284624705948, -0.04922445453406135, 0.1513087839326185, 0.09246353163539663, 0.011593946189869626, -0.0137303982880585, 0.0943187077738391, -0.04437725423358813, 0.07591920635156471, 0.012603150851015389, 0.053215438728537005, -0.21743375167484735, 0.24090168525915573, -0.04733235108533295, 0.2531082681791271, 0.011311274356835628, 0.29833790925648784, 0.0966459101356889, -0.002601660590002397, 0.20840704250876155, -0.2716988627898631, -0.09555951627953346, -0.19455725548050032, -0.010066560764928331, 0.09170558854431243, 0.3345049675638608, -0.11511935018893789, 0.257709643992939, 0.05575197934606768, -0.24871753923876155, 0.11029884510617195, 0.04940352622407523, 0.19970287389688934, -0.029791605839686378, -0.0740212080813024, 0.018254164502057958, 0.17311547505678798, 0.12195308521141988, -0.06001604284497775, 0.13567011372348267, -0.048352544400989364, -0.15308871424332374, -0.04668204390053419, 0.05757718649097012, 0.23807582226690238, -0.2799173640546462, -0.03926805798933202, 0.0919308289293155, -0.05141511380583259, 0.08576267875721745, -0.01404350322788391, 0.019504346889188715, 0.08451667304703327, 0.022098191251707845, 0.0013278497175766351, 0.012668150284492582, 0.17580465666219192, -0.0030936191693617353, -0.042276406387266464, -0.03339111513109259, -0.07123034817225268, -0.07095225441267657, 0.06904084514622842, 0.03963825409109446, -0.2177694610452005, -0.21876012488591234, -0.2348608366406018, -0.15057020369230767, 0.3076002564733249, -0.12144245045488927, 0.07909461153531312, 0.16792038894158853, 0.23286628858068079, -0.27456146038315554, 0.2110480943395736, -0.16101762656826032, 0.20785734597968927, -0.18901827221624828, -0.059652320683026505, -0.45278897590735545, 0.09597836799231199, 0.18802445259716216, 0.1268952490043123, 0.22915282099039164, -0.08168486060847313, 0.03652772279149485, 0.005863624812514261, -0.029369883015722246, -0.05684541316832881, -0.08437823258100767, -0.21216911720043888, 0.05212131288720458, -0.2554284757447281, -0.1815910154011303, 0.1270054685226964, -0.061826221213730014, -0.10524340376083018, -0.04693074026900933, 0.15212122027095826, 0.2043492339892193, 0.020661231474282962, -0.03984683878215543, -0.03431794673037238], [0.00015256536677695268, -0.052499500714770816, -0.04885419015285989, -0.3320322207635313, -0.049212762022256204, -0.02791918450729325, -0.13901915386059013, -0.2415039909647349, -0.3184774397588016, -0.14992288016771374, 0.0722099210752107, -0.14862533579293857, -0.168068670588872, -0.2234197299682503, -0.12787827919016637, 0.20999661929598526, -0.051291444470156135, 0.07789106601033555, 0.03890283171876778, -0.1674966745886694, 0.04888280094213539, -0.10940153290088678, 0.07963831215956164, 0.09203385528443335, -0.050525257357668364, 0.18451808375976964, 0.010638629981544415, -0.07930914098543786, -0.05616897753219265, 0.07296105440307342, -0.17664636819814017, -0.23619089262476892, 0.045905194819507146, -0.1449799156234069, 0.14793411941849924, 0.15077636903354957, -0.3568889363432872, -0.12314317931219593, -0.3660027882844967, -0.3186450209561773, -0.038362869019411085, 0.1590324925115041, -0.030133967638122414, -0.16052275049098969, 0.028241512820054486, -0.10175561782831016, -0.16868699769675322, -0.10190962583917232, 0.018427040708201402, 0.22718307362322201, 0.12780797838594843, 0.22107454451096664, 0.08689823591443276, -0.16882039479008007, 0.21358624186963876, 0.06808465095882084, -0.17279621660625658, -0.16989007225282832, -0.07335530636141722, 0.23593655700578206, 0.0029530253933749157, -0.179842205829133, -0.1410538851872962, -0.39936222762066403, -0.0019463898271175205, -0.055613387538207076, -0.44283607605626535, 0.0587555717276886, 0.040378894954960935, 0.003213845873364569, 0.18626819064500652, -0.004993442816301301, -0.11587233924244293, -0.03008790112183583, 0.19116872126226173, -0.20422427782653554, -0.04321225572469751, 0.2975573154498704, 0.05481417818805049, -0.296146554680103, -0.014473042540851001, -0.06741242625648462, -0.06755535799311281, -0.016883759953233195, 0.04922617187040373, -0.26463609124388815, 0.043851485678949385, 0.2702123514999723, -0.12659616647569918, -0.37017808301868277, 0.1051297765818705, 0.4277573400634414, -0.37027771017047745, 0.22253834866008135, 0.13439289073959734, 0.34616213231077547, -0.2646054080727614, 0.1407722267449018, -0.2294469577699329, 0.0453501947376866, 0.020076520619705072, 0.2923784024240067, -0.28495111785692334, 0.14719774522234624, 0.048335772231340036, -0.017205298842904185, -0.0628851108147717, 0.14734886855988327, 0.10728495502370826, 0.3067009064507329, 0.2321584097543416, 0.1011033062580795, 0.08425737564428606, 0.3195937315443707, -0.014151801455859325, -0.013666433013521368, 0.07965898010344435, 0.007982726179363058, 0.3061402544294512, 0.024339934279656052, -0.04778817881431456, 0.051674858909264376, -0.04073582535042946, -0.027696184784199645, -0.19921441472732454, 0.17966717179433353, 0.12932532557581364, -0.10645486456372645, -0.17887354760645094, -0.025251669828749077, 0.05210153789460429, 0.02606310376741502, 0.01927348070407676, -0.17102425870124452, 0.028766102635097216, -0.03181039131835614, 0.1190415266353903, -0.06637306593070028, -0.1251916459380889, -0.1715355336793939, 0.021896126110342584, 0.06336885175577903, -0.013013486763681267, 0.0821520816652662, 0.23511869748620198, -0.18227385481916641, 0.0002457928295336825, 0.18570912636371142, -0.049715102351279315, 0.009434606068914123, -0.05694670850764289, -0.007797244107532787, -0.1890047533147905, 0.03870858917639407, 0.05613717730149531, -0.15399054915427202, -0.029073528518195786, -0.047561061593251304, 0.02576321947142045, 0.11242451866131006, 0.3138009485459969, -0.4040244297060319, -0.17368870457164365, 0.07560567029378079, 0.11174542005988243, -0.07594519029905764, -0.2595598800330385, -0.0812802961646509, 0.1844492665198389, -0.14394784108025135, 0.21634510023460068, 0.1341371005512899, 0.15257306097834092, 0.0719760970884834, 0.26205629164934136, -0.011858753687484014, -0.033852116898728676, -0.10698194387469018, -0.06461179843975012, -0.010537232325234078, 0.09408682539848906, -0.007410788063591974, -0.053570552807632094, -0.17119801014363895, 0.03729805258971049, -0.17489758583746737, 0.21576884360666926, 0.16177897476395064, 0.016055144866613205, -0.011626147914118288, -0.21866533858892057, -0.1247077538761662, 0.13999817960873462, -0.04883027239020059, 0.027771014865501403, 0.12073824410972309, 0.2733385042230538, -0.015011633365807327, 0.3623143117288254, -0.07651396288121955], [0.10304914125319094, -0.08765359674568236, 0.07299344126939686, 0.18496196135609522, -0.09453375890956622, -0.17794535927600422, -0.06015505943717333, 0.004982902521328365, -0.11342874549591074, -0.030582928567070015, -0.22645794608243341, -0.03119779017014687, -0.1586313520414767, 0.040053077918332604, -0.2161301654465564, 0.00642716597882813, -0.01674441757484046, -0.00907495762264903, 0.15255031841306038, -0.06748339944474824, 0.2054475484936499, 0.02454748756337477, -0.023004660921260297, -0.13052989434063136, 0.08426662740339391, 0.058805312666875754, 0.13772936530531496, -0.19105038756702022, -0.11962095615767473, 0.05056325283712323, -0.024843608665764894, -0.2907248759565229, -0.5148377313057388, -0.11613974949953089, 0.04488393421398306, 0.5223376874930384, -0.20482979201051366, -0.13915964379078927, -0.13471828444879758, 0.1973798828273292, -0.10568425902187409, -0.017275043754055253, -0.16513795862604222, 0.0978081294089708, 0.03519708676531627, 0.005705331599566732, -0.32052792428280413, -0.04685335241242417, -0.22788155804533253, -0.020175872455341075, 0.27619229043528154, 0.18189553265743227, -0.14630409142004364, -0.1051402159434549, 0.008801761862878255, 0.025869546360615867, -0.06432286979378948, -0.18854102523273306, 0.17010612694900926, 0.4138307562957038, -0.1402467877048758, -0.18588093330861707, -0.12257660183179483, 0.0629009593283841, 0.1093978165428487, -0.025508406418576837, 0.1157984143091981, 0.20867985788552657, -0.3493038217017951, 0.11820815456554537, 0.019859691754632695, -0.15452262339774367, -0.22553583406590377, 0.07268685222200927, -0.07456078516030064, 0.3268781922013389, -0.00028803718592721367, 0.06183182466559967, 0.13411759659362263, -0.15076101760185584, 0.20378620333853462, -0.045110030302931384, -0.06645105232264005, -0.024209533970211285, -0.2879244675864408, 0.028175046908854473, -0.14517980045879808, -0.0803881256554424, -0.0531689850098961, -0.013173257985242335, -0.3272385051755288, -0.18530373615698423, 0.09622422649036207, -0.17920807475868336, -0.02646862580120328, -0.11826603701006333, 0.18869125990612234, 0.05631706601905089, -0.08876491532123057, -0.16224963925253275, -0.10289077791372639, 0.19517256525324994, -0.20675853101494282, -0.2884063568468179, -0.02794216688182117, 0.0635430211362247, -0.2808748978596278, -0.20896014521808634, -0.11875526607641602, 0.06624501353061457, 0.15138771695383707, -0.25369111284184576, -0.1015623091384272, -0.1476160505509159, -0.1605434412023756, -0.0391715391348094, 0.06907734735388743, 0.1001718357744971, 0.0884168249650839, -0.04530801211971266, -0.06575993598005046, -0.14996082070100564, -0.13605985282288977, -0.14891922452261358, 0.08731184244950264, -0.07150105567863399, 0.43384632015510516, 0.09316253379348126, -0.028394976035589357, -0.12000750346776352, -0.2633595041395105, 0.1874641095871454, 0.13059502602282444, -0.13828810028693658, 0.04998994720415521, -0.11278245246672688, 0.1573715478478942, 0.09024403972787585, 0.027370321038637815, -0.07569292893209184, -0.16158895855997715, -0.08082002288014666, 0.014590939717774221, 0.3204453614398079, 0.07682885907899077, -0.228700993884431, -0.04579137993841791, 0.1592925239668012, -0.3785677989598874, -0.042412253476098866, -0.052772911362431105, 0.022330157866154735, 0.2845987608689216, -0.04606356113391853, -0.014117605760374819, 0.21621549413162888, 0.02864074139011217, -0.013055549360521508, 0.3162852647098828, -0.024505060648595357, 0.11087290295232466, -0.10541436979392875, -0.05204599296622656, -0.004656002954087945, 0.1294481621736088, -0.03428209372300927, 0.15520054314511686, 0.04794664818093166, -0.18915687240531423, -0.07482006464840661, -0.38185891984223624, 0.24307677919327966, 0.09016096951457221, 0.16260562763389097, -0.12080705583894485, -0.08703535295323933, -0.043144018909308926, -0.03726607674628841, -0.18317593267513996, -0.020373012313247067, 0.015218135930057332, -0.17161484038394442, -0.058070138345877625, 0.27468224910221806, 0.16536905456472067, -0.16348755248499486, -0.20755214320183477, 0.2779686169990957, -0.02469879261053302, -0.27415170787722565, -0.12621716303431485, -0.24827783531480996, 0.27324802119123137, -0.04484267863501792, -0.11504769246079881, -0.25829350688067776, 0.2004118570692861, 0.07427729403676027, 0.06838020202390882, 0.2718216517533969], [0.08281483973620037, -0.10034696465133668, -0.1156609475982492, 0.0826833479257561, -0.09657362239016036, -0.08393990230106996, 0.21878915073217087, 0.23822640958696234, -0.020480482864554714, 0.07366296901383836, 0.14272659303226, -0.058889336033060354, -0.09521248697377534, 0.006726491455425955, -0.22034219858764384, 0.11059694161096242, -0.18130318977813786, 0.096102000950145, 0.1671960839707801, 0.16295382569366818, -0.1085519835217778, -0.175094542176523, 0.1397673429692694, -0.15166322969608267, 0.05129996510179063, -0.1056143169486157, 0.12825831905598664, -0.12969036304181428, 0.059704873293880134, -0.10985747862422908, -0.14997303612811308, 0.002990848008967392, -0.08829352066446261, 0.013652027493649297, -0.024221097613614233, 0.1091253479987657, -0.10388844206643444, 0.1785973699500537, -0.16721880573745013, -0.046489910588388764, 0.23471338018096957, -0.15287966510888476, 0.04664401235475252, -0.0033517752992787706, -0.09563658039723215, 0.028397925846870262, -0.14582422626138858, -0.0042329188223646525, 0.16596035339656226, -0.005083671484549263, 0.14517507389903025, 0.13049842937199782, -0.011703159568301535, 0.02953376530652405, 0.052599507973326486, 0.10398056909299354, 0.13305350008164973, 0.2641701771575739, 0.1788346288327298, -0.1455587353468764, -0.07587238367295364, -0.13147538538958617, 0.03215638152878813, -0.08904929522023082, -0.2071505802498934, 0.14243198953284225, 0.317266965462272, -0.15200962660595999, -0.4094030621261218, -0.22251552488120524, -0.2821497896218931, -0.19024430764574612, 0.07501160302208794, -0.04342816370822593, 0.1859986918470123, 0.022933422413807455, 0.07842310776689457, -0.09616044337955057, -0.08765270876763467, -0.06604680464999266, -0.14186365400561218, 0.019337458337302573, 0.0263085681207858, -0.3296267114160287, 0.020238728734997352, -0.2774106562963942, -0.13705876293090655, 0.012345252623343298, 0.04626432452785921, 0.07674764697487427, 0.14020988698030795, 0.037925542345402144, 0.10007606109427607, -0.23837459012993892, 0.10082623387598504, -0.19336248132793615, -0.05559496691074782, -0.09406487025549713, -0.1898913598718121, 0.2915671363516893, 0.02509531368264748, 0.07954785523004744, -0.36254104117583336, 0.09738424568975718, -0.029791557206828703, -0.08316515190334715, -0.15169051404150188, -0.14844429640317, -0.010381733387441966, -0.1937009981682196, -0.011423996530383415, -0.243750142883287, -0.16836445439319472, -0.11645645236662862, -0.08829353674458822, 0.10052993750221971, 0.06314816435518368, 0.19890305189228927, 0.011854786578000721, 0.005224095739085898, -0.14107375241237957, 0.09930526591214536, 0.1733566385285094, 0.014465399438278154, 0.017012429336200792, -0.10089171699291709, -0.024635673110669793, -0.0854653338339777, -0.07745303867056832, -0.0688261223634631, 0.13217790532014595, 0.026525258172391642, 0.07669104044667531, -0.10721583609258484, 0.08199403112703534, 0.054596109535690655, -0.13809759484122436, 0.21880830541933893, -0.07114922157404574, 0.06365618499608271, 0.20956538475299266, -0.026878260840696163, -0.11926375337822254, 0.16717221184804767, -0.1245486152798043, -0.15106094444595974, -0.050682085220686124, 0.17326862194876155, 0.05834273594582476, -0.04858043627271112, 0.11991346754645238, -0.012709988295060908, -0.04181244970937214, 0.2519418192130949, -0.03548568613744762, -0.004887341586470335, 0.04526794460487274, 0.03758956485660048, 0.04601501395767478, -0.1258561454082687, 0.20231319522101662, -0.2092599525776591, 0.026016638299529916, 0.10254200078424665, -0.012675313020105761, -0.03082614980890116, 0.003170935378156958, -0.05530575751449712, 0.2823677597971346, -0.3324019283393414, -0.20625924274397328, 0.24233411899803392, -0.20608563335211785, 0.12998119831512747, -0.2273421149628658, -0.09218282892813173, -0.022376766428304128, -0.08865308389415476, -0.07205270290756761, 0.07442743704804064, 0.3027810690420925, 0.1441685799847005, -0.10034505353319928, 0.33503497168013824, 0.16461846041192732, -0.26191923640929654, 0.017522344598208103, 0.05367569679848525, -0.10410823996534292, 0.027402771048577468, 0.013911012815800731, -0.08258787414879667, -0.15803994019974404, 0.06611655851231357, -0.14304268735540276, 0.15755322164366928, 0.017457752459517688, 0.07114084336576694, 0.07970472783591948, 0.24809636602101964], [-0.01238528556237999, 0.02983228286899374, -0.03070691853101069, 0.09645370986643045, 0.06248995350331384, 0.20078586425091186, 0.06311249232351725, -0.08589365778923704, -0.10329850034094383, -0.08970266558909863, 0.20054688550198474, -0.2947510554642024, -0.015204358136353676, -0.04949853901313837, 0.2407080394040615, 0.27130216683102454, -0.028486676788469164, 0.013245378496614514, -0.10727117261626927, -0.022994075613990948, -0.043185075505889695, 0.06533542212685245, -0.016716577572827056, -0.25156215918502717, -0.26135759938691755, 0.057010855281495354, -0.12905722144416404, -0.21585254743532753, -0.15280146302259864, 0.021345415948309212, 0.056925258124248694, 0.37472836544684646, -0.1950935954864049, -0.018361253531011566, 0.0818695228494978, -0.1481856009377129, -0.2798325914036104, -0.05778068131594486, -0.012733019381179187, 0.10969317150062081, -0.0035216403758077343, 0.24544270979163363, -0.14533242257508477, 0.07851586653106807, -0.13006544521655364, -0.048222724169756204, -0.1206000802423795, 0.026245976114613614, -0.12259348401849401, 0.13493632377305279, 0.00682388472816169, -0.06495217691542393, 0.15196775115899885, -0.0149111207332677, 0.044097844425100376, 0.1062144612391595, -0.022854369367378998, -0.11458611039720354, 0.09093721443229433, -0.07413378803653349, -0.019148364631486912, 0.09009959211443959, -0.006118235654559552, -0.15217836071133828, 0.1368761101059671, -0.09775381909336398, -0.026034702040576063, -0.25484027786041413, -0.20022316048444774, 0.1560031408694987, 0.04414330693530954, -0.10138938073135222, -0.1816082442787466, -0.10904130754166373, 0.0005430117060664142, -0.1188406611297885, 0.11651637866902285, -0.18520501814849694, 0.050331541314848884, 0.12859700827149778, 0.04028688815317429, 0.22485259667402668, -0.05315059794537217, -0.0013159846807889676, -0.21780253925986295, 0.08534438642277284, -0.04696328449383097, 0.07854986510608858, -0.15258670431415286, 0.06179855182417204, -0.09191324553263942, 0.045659419065325876, 0.0077615696472799825, 0.2603338478901625, -0.1230324240865398, 0.08100410499261307, 0.15258165964061673, 0.09223641054218112, -0.10799855364029706, 0.20639742834074218, -0.1538462395590969, -0.07329418693557982, -0.02467133241271978, -0.12258141830277033, -0.0606895912129256, -0.26137496244244757, 0.0635416587927015, -0.031069562043354863, 0.039772164992930834, 0.17047388159506133, 0.005957054997518697, 0.18885951329143355, 0.10374354105229652, -0.1550720128888802, -0.34159135725726403, -0.08429465822745612, -0.15063145425656677, 0.21950813820310935, -0.032615602896951444, -0.20422127007808788, -0.27769807168862276, -0.08855282300046657, 0.11337480458250718, 0.01586380888126507, 0.01579662833456007, -0.13745251670300654, 0.001609416478376816, 0.21639863240285578, 0.14997572933658046, -0.07024871381127541, 0.2749523526402232, -0.0003298784747352765, 0.13940405303662462, -0.041610480231795366, -0.16578042134638832, -0.053433652975026114, 0.1698603444068907, 0.2297157298984729, 0.0003809539422506313, 0.1508802279298224, 0.009787867215845528, 0.014641920036806196, -0.14374065583272178, -0.022684959971807143, 0.09609218915963444, -0.0322291036228274, 0.013796455344847736, -0.02038614334918772, -0.05347119784299969, 0.09192458031096258, 0.003931736401582723, -0.06165564945685385, -0.008416630711825027, 0.008568319300778808, 0.03262675633042695, -0.06328374954759977, 0.16254629298734072, -0.06331562305869777, 0.06713623864256764, 0.02882550598101917, 0.1773292931221018, -0.19346449900499949, -0.04119152008382807, -0.08390029323031406, 0.19633851865189345, -0.02530010861162945, 0.08419357227257107, 0.06509499786014758, 0.059136305760532366, -0.10550421974164359, -0.0367858592077589, -0.13427064839545752, -0.1495447539567997, 0.06816817725314894, 0.38398559582904956, 0.07192725584812783, 0.09815991840249928, -0.2278011014260625, 0.05552397867433513, 0.030693110759509354, 0.023992440440446496, 0.0408300229620534, -0.020520677180245032, -0.12743416564200064, -0.0635788230251978, 0.002191178766567508, -0.1402734923435798, -0.08728275567944224, 0.1898873057393033, 0.01476031233576145, -0.015347458006787674, -0.06729932920389418, -0.019320360300640084, -0.01416008982858304, -0.09875913193472463, -0.003603691057320838, 0.08123434812059446, 0.034462174097635204, 0.12850861206530764, 0.04108786737371908], [-0.059538254429418444, -0.07671461199012738, -0.01672768659775988, 0.03363031526684705, 0.11351136520034648, 0.012210119784493028, 0.09538379500561668, -0.03307650672903593, -0.1321618863558863, 0.16656963537824596, 0.2846555624913546, -0.28561665418676674, -0.4217741500653443, 0.12560401091919998, 0.34676531555056506, 0.26152560239128375, -0.23286666962155309, 0.2771795753231446, -0.08096405572015185, 0.02785829686944361, -0.12169079888697576, -0.14110435557908513, 0.06163636857416429, 0.08110400879351654, 0.11535918062876616, 0.016758818775875522, -0.1149378021607294, -0.17866472878138848, 0.014610389055566657, 0.07214586863901648, -0.07452045092028306, -0.29104415956422824, -0.012623917413263496, -0.07820166207953314, 0.02596269547486021, 0.13004005524048778, 0.09324042129870812, 0.07209828006990002, -0.00234273826252282, 0.009381995585570383, -0.0009403955141846003, -0.1946394948498719, 0.013353571761800884, -0.07471271408464426, -0.26621325664109824, -0.21397959224802, -0.1926544275507585, -0.22455420979475305, 0.055393441346216064, -0.02068236813869875, 0.022089899112463472, 0.01229041958073316, -0.20549701826991768, 0.141148641218528, -0.10854583513036165, 0.1886382430164717, -0.1833078893930887, 0.0056716044740880555, 0.15587375780867085, 0.0531994419289591, -0.08852651009606674, -0.13308214705115468, -0.01230116732208612, -0.003013661664609179, -0.011763484250550703, -0.0803052529015928, 0.1594664157024533, -0.1785035013987343, -0.28055489651410703, 0.09351984912181749, -0.1727350758837155, -0.058069761671050865, -0.20811312535374196, -0.10451801013808605, 0.15113943310196434, -0.20162926801006084, -0.007171574535025247, 0.25251762046477216, -0.03810022100681687, -0.2508749692229442, -0.04438702651375269, 0.1738038477244891, -0.24842936477863284, 0.2559416732290309, 0.02054711723139243, 0.07865873143975265, 0.06371419757448853, -0.16537511371426283, -0.04370728265451636, -0.10481084207732665, 0.06111791547958524, 0.09734832496851986, -0.14005071023008658, -0.03787171936147278, -0.029573344242781824, -0.27542942838464013, -0.09567974951757352, -0.0984990219120391, -0.00022011351884231912, 0.006357673577912672, 0.05180465010197175, -0.127694517245669, -0.19090686463541512, 0.09836898132331534, -0.05883120236090732, -0.17738502843731954, -0.04653429634696571, 0.2801351179834295, 0.13817130763391255, -0.0015563274056410498, -0.11422790000314823, -0.0834013240055646, 0.1050920927482826, -0.17585673892834994, 0.09117579969924884, -0.03939591165323146, 0.15060185507019305, 0.022775328458227106, 0.13498893761288575, 0.005413571383140954, 0.29376917795473173, 0.15357690794249199, 0.03888688785897084, 0.100308650548046, -0.0559819036786724, 0.20839092999462946, -0.002268948119492167, -0.24142004837971734, 0.05015153570114977, -0.14491346644872977, -0.06606975975297483, -0.17114329879475698, -0.025504429740591954, -0.30609162685769703, -0.1949414655727334, 0.16601908866148654, -0.04353204409360936, 0.17723893137887095, 0.0075238518515823504, 0.10381039239430864, 0.13680893405640535, 0.061272714699482235, -0.03862130314406439, -0.164394041972156, 0.005632469753619339, 0.4190332559555463, -0.1598322662557025, 0.00430067843312191, -0.006990611306387332, -0.11246410385683536, -0.0004804424207716999, -0.06310677831619373, -0.007764679105850309, 0.3575759694197656, -0.14387952390571804, 0.005041895294865634, 0.180333096144138, -0.07897376312169689, -0.11907047209069167, -0.27892096829347046, 0.3014542107962976, -0.009200584895766499, -0.16015125873461653, 0.012151927108351746, 0.01630520318069582, -0.015515087491814055, 0.05534242652896916, 0.05787648673850799, 0.15163250942384476, 0.1971842189716901, 0.01692863562059077, -0.09310590847427756, -0.44482899452004904, -0.11247932855451398, -0.0779913775450482, 0.019140055780976616, -0.19846632333966108, -0.08164866602515329, -0.17362002232727358, -0.04253222836858701, 0.26146589173393386, 0.2025555361238012, -0.12257919488192455, 0.21292745530730908, -0.09340579221372357, -0.09069989079591805, 0.31027233380539054, 0.06776937382527742, -0.1499186668147242, 0.04352323017887103, 0.0008393744181665937, 0.0354464639635068, -0.24288918636431753, -0.03733899529010682, -0.09377242554817114, 0.1541984519147081, 0.09576902598028256, -0.041007183838918417, -0.0625402856597193, 0.19709912588955353], [0.08790350801046458, 0.12601284760890052, -0.11284109753065617, -0.2484915900505951, -0.03590662579352156, 0.06253186002410627, 0.47211025390391964, -0.049762299067342176, 0.041331986681772556, -0.09301322000531406, -0.11447062724339142, -0.06626678240027828, -0.1764839745126632, -0.022819842148250294, 0.015256857916299901, 0.22179750567460035, -0.05550910733972549, 0.3593426456423121, 0.09337339653766795, -0.058699032520636546, 0.004519912237515187, 0.29986449074983684, -0.04151067301285144, 0.08602523937649895, -0.3792421796734372, 0.09166641253178832, 0.12154333025282955, 0.0164665242290474, 0.2439492396329176, 0.39357382889969345, -0.004041746769927277, 0.07681560269968865, -0.2195106963624684, -0.09267645555216314, 0.06998454439575917, -0.04795277487913801, -0.29340605592089447, -0.2103381620084748, 0.14857671169593153, -0.04808733256358009, -0.1260922730154575, 0.24148387674999186, -0.1327266658405111, 0.12619893254784784, -0.06855469684401623, -0.15293871760803576, -0.06788082356563555, -0.27928886937327346, 0.08258805379453481, -0.14114083968574895, 0.056983618655904136, -0.022690126742854273, -0.08946876890252434, -0.06373694283605477, 0.21907522036657004, 0.368987525845467, 0.016113287877291285, 0.007949191047124004, -0.13963778135181057, -0.03150960508213246, 0.05098082644983116, -0.02840027151377025, -0.05243796217549792, -0.003955071584036374, -0.02650743246396738, -0.03845334847302079, 0.239246112387104, -0.15317027637018538, -0.25755947920049815, 0.1985782096995663, 0.0468116224437283, 0.11462256607123121, 0.1609914152250246, -0.1827742345266078, 0.43878892901596805, 0.061353751217255593, 0.12404103222855768, -0.05861821571012373, 0.33419851851525784, 0.3469594774696458, -0.06770596911952684, 0.12296942297614699, 0.0653369316155392, 0.3838042504641404, 0.021988489679182578, 0.25183938018003243, 0.10981549820256666, -0.14260377733407162, -0.19468403557366393, -0.16697970076308588, 0.11208806996724953, -0.10607578670549862, 0.241077504155365, -0.016992969241749475, 0.06945670998697141, -0.0248942710780946, -0.06480594268851834, -0.04351484290469904, 0.3446536864446976, 0.20213581027603997, -0.12140784215412559, 0.06430792230545418, 0.21568196348702867, 0.0945877039488159, -0.17038412213125081, -0.1247297839735753, 0.12067732751493582, -0.1763270178792938, 0.2761761025738962, 0.12017854225857788, 0.024690889975483618, 0.19834180552654368, 0.132363382066381, -0.16252463650285834, 0.09084505108527434, -0.004271491265216047, -0.006618843512260004, 0.02822834983796164, 0.12312137254522482, -0.06688632853637903, -0.13633402298773759, -0.06045753390994401, -0.27643955993779035, 0.267781744997394, -0.09464550357671851, 0.24772733798880892, 0.05452192121274674, -0.22547662576463415, 0.31540690732615956, 0.17800131831493013, 0.11840109103903732, -0.1725046804702897, 0.03849189761098596, -0.0556777878405715, 0.1754958866358094, -5.73954804022226e-05, -0.1125142420123148, 0.18450433070293795, 0.004321262874488365, 0.12656120669133097, 0.26610634812347245, -0.22161942698098777, 0.01974320326324913, 0.07830209400167902, 0.1734891734067042, -0.08092304866677304, 0.050089027886797664, 0.08129835957225096, 0.03056379851938323, -0.26122164265728587, 0.20264567120391544, -0.08144148186056521, -0.00774551439166222, 0.24954119047367715, -0.06077221020145053, 0.03347047314722974, -0.003222992210003259, 0.07029772736565752, 0.1621166240672727, -0.3967811344249093, 0.12140093104225971, -0.16538920988381636, -0.18483242778544984, -0.21937259069828768, 0.11334164952095727, -0.090221135622789, 0.19804173119049837, 0.14629271031498742, -0.16300815941746827, 0.13545610489139148, 0.21305737625889062, -0.21810496701315882, 0.03420276512678985, -0.03765505550327004, -0.19690165393326697, -0.05539470136537622, -0.28823814259768427, 0.0007110654104243906, -0.0870462361352043, 0.08391052091131104, 0.09496519733348693, 0.0422804170276951, 0.22501942948908654, -0.012527239637078538, -0.17565203898030118, -0.11896393882897847, 0.11136455770444505, -0.28261792375359995, -0.10846397618248219, 0.048197374850789024, 0.025549010598270937, -0.07537950995801043, 0.13083453219819782, -0.23837708908568697, 0.10118252099666523, 0.09441698179246329, 0.10769874914754662, -0.10462621794362457, -0.1269075417375123, 0.16345001105024043], [-0.000673749743527862, 0.060126432400215715, 0.1381622791697826, 0.17619467367825625, -0.14428456542085683, 0.08060643851339501, -0.09473034119240169, 0.05900671033766338, 0.1769408146299468, 0.002895086134887556, -0.028698660486767606, 0.024281507114850796, -0.05321114932469245, 0.13439517963452932, -0.13838841283326117, 0.14211045561844102, -0.1610327992410615, 0.05148790643916504, -0.12092116300863681, 0.10424326263737528, -0.110806585691264, 0.08920074171634232, 0.09706192907943995, 0.27240362195245565, 0.035440284618052896, -0.007756702977531007, -0.08065160238668719, 0.16549781396018204, 0.050002054888787804, 0.0005783828303000805, -0.04814889065963985, -0.04657343882249121, -2.218824056509593e-05, 0.0756115929136312, 0.00021304612287874127, -0.11998406934539504, 0.11687012155596475, 0.0011547671072921913, -0.03796644945319311, -0.061182884870373946, -0.0586793939895249, -0.06534141824017316, -0.03156593061282597, 0.13296427341198205, 0.14687510640582904, 0.013991385646693779, 0.0030131930748545257, 0.30479346545371394, 0.13442912083557534, -0.11292289574705164, -0.136279614679829, 0.13090774672812697, -0.024796544220496982, 0.001729549762196711, 0.03406194586617898, 0.16467537946979088, -0.11186972634283968, 0.18341786217560288, -0.14345967842393134, -0.06558044872268333, -0.062108295000159665, -0.04528655872897552, 0.023120621415994094, 0.09433503304968861, 0.26561615073880185, -0.1172458861161135, 0.13196443337463307, -0.13054194092605165, 0.3704313880732832, -0.08038341223336282, -0.08358878689819964, 0.012087421326998546, -0.0792801357246818, -0.010345804064172785, 0.030197642857988035, -0.16232903698273743, -0.0007228893792576558, -0.057107211422720155, -0.1655997241538937, -0.03898508421288042, 0.051614206685881445, 0.06235288821319772, 0.08624873895947646, -0.1308131663097315, 0.1318463743384713, 0.11137893294659118, 0.01366987199853535, 0.03630776142679495, -0.11233405710245944, -0.35817152864909285, 0.14849466299001532, -0.1703909728887318, 0.1736254504505207, 0.12102704748202518, 0.09481644698659282, -0.03651596975327545, -0.08216335158839597, -0.09982876380501161, -0.2454433524345759, -0.03760198272893357, 0.03723205934627182, 0.07908301619272987, 0.07006739926567303, 0.27870584852195934, 0.05360117069512133, -0.2876201506727305, -0.016842313862013403, 0.13482972231304266, 0.08770693178391555, 0.049216231883790554, -0.04456275337408453, 0.23388220201897542, 0.05451410271843603, -0.38438603895345996, -0.15382814701173664, 0.20646056657383507, 0.052912990055439806, 0.2486755461702262, -0.028004891679018665, 0.2023160589037384, 0.03518300632051839, 0.1560025446555635, 0.07271515534224485, -0.008807485805642183, 0.044907040838946304, -0.02471564847042597, -0.08215853727495706, -0.14896536309715674, -0.10380818265174391, 0.1280619291702637, 0.14904883554078252, 0.008000526439858985, -0.14179894414845903, -0.04561921548768533, -0.026475749389176618, -0.14033339902651643, -0.04721159062823745, -0.08563545276609826, -0.018802190361819685, -0.08394677975228702, 0.16293237872700742, 0.1591083413504941, -0.08314085483597669, -0.06000140581812549, -0.026090991093213774, -0.06707262201528548, -0.1420888363003017, 0.06868753646600358, 0.32123987955537214, -0.00704854774142465, 0.020656866001425158, -0.018730898527427778, -0.1114346500099446, -0.00033406978653463337, 0.13037141392911575, 0.1514658789539358, 0.044346374228668765, 0.09271685176262051, -0.06716776173401125, -0.09711980092506879, 0.3513413198380003, 0.11223938008327049, -0.03477992669682935, 0.09030581254209348, -0.034339418894876426, 0.015657706054659947, 0.06380382630945709, -0.060121695229377686, -0.13133106504116235, -0.11968080004262623, 0.14786983284192773, 0.18497120539423567, -0.23488141871243678, 0.16715493557483097, -0.136211953508552, 0.03110667323840862, -0.09467692055488545, -0.15194969894978647, 0.15836067815650925, 0.01256569993693168, -0.28487041549579706, 0.08780460934258408, 0.00547765971917185, -0.18174070049136787, 0.1196523353388055, 0.2018782400227925, -0.002111564082333721, 0.08248646873315027, 0.15378943606678097, -0.09290133805766325, -0.13353460856857963, 0.0520349293915667, 0.01758025140064419, 0.13280830824680034, 0.09526838279519438, -0.06321826687100518, 0.016311231674553995, -0.09997395467922558, 0.02924184775968292, 0.0691659383963243], [0.0012175914543698053, -0.060779888496367236, -0.16523536341203468, -0.4259415167970434, -0.13028392853533907, -0.04871682757775743, 0.1992056841700218, -0.12198868461622951, 0.28323855035508405, 0.014005617180431022, 0.24095265212143172, -0.10348618799859707, -0.027749541524866174, 0.07179671252006876, -0.20231902285745706, 0.07845935373648223, -0.07793003297302484, -0.005697432465551073, 0.1433127950276076, -0.09723924859446735, -0.03394691875763587, -0.10181740793946509, 0.2563975513930038, -0.014205466134958971, -0.15075793030551776, 0.20606445528921918, -0.0837517884096842, -0.20786045219090318, -0.27108821215027584, -0.09719454807803929, 0.06563090976182695, 0.06525816716206413, 0.07488818154136112, 0.12280203829903713, -0.13599325996440445, -0.052263843589435054, -0.047476326161245724, -0.06452800998279168, 0.09472087965610101, 0.17417498403281587, -0.06380369672013805, -0.030731748229386308, 0.2643464666358748, -0.044718162737091616, 0.19448445379444806, -0.07145314003402924, 0.17272475667997567, 0.2596396290896391, -0.10215763713362375, -0.2554565747299544, -0.07248953852457247, 0.1904134864253735, 0.04606638572451558, 0.03786692069174678, -0.2392567848917764, 0.13783632370622684, 0.014373843398614711, -0.03671569336670854, 0.15426286975213943, -0.0974132314630881, -0.13315902685770917, -0.21066423626862457, 0.07246074758774718, 0.09632962036790627, -0.012300603143584672, 0.08921908037823702, 0.0527044201362529, 0.059434159870795644, -0.05411155409294347, -0.2614416032193538, -0.08086519257917528, 0.13721676295596186, -0.06642691909916926, 0.12275595727260807, 0.0492695782659801, 0.17382189430205133, -0.148337776038292, -0.06243947866890055, 0.048988084270927504, -0.26611626166091423, -0.14321611822999913, 0.065633405811858, -0.22336004534000084, -0.29036401249350585, -0.2095092013061746, -0.10574016290879858, 0.05896049896501276, 0.00575237042742481, 0.10114665332136849, -0.3667194366661342, 0.2489600466651119, -0.00965878416808731, -0.01702361131127807, 0.04051598684340592, 0.006408980607664454, -0.026861608472194015, -0.14222818202980891, -0.17283988730671046, -0.192994480962552, -0.3889260595384611, 0.15271551985112614, 0.025956776740554705, 0.2850496465792205, 0.43338634508091706, 0.10166405319483965, -0.289831517266083, -0.29601807183157597, -0.02993474011511718, 0.07291305587961525, 0.11809015596334893, 0.028432896883031564, -0.4868177821971324, 0.04812412895474829, -0.26985780654763314, -0.020687400483273794, -0.20580215701638666, 0.14587961244268255, 0.005348997303271362, -0.1597636340571634, 0.03543239546237627, 0.07655796985892474, 0.2159883702964427, -0.25312678157416285, 0.012772007850306643, -0.06871651343879538, 0.04140268664273606, 0.08730064427460607, 0.10232019766613872, -9.072922672407843e-05, -0.2242714802283821, -0.007289351124768491, 0.17347940055275332, 0.03447611131082661, -0.06596096232775886, -0.02302004127769055, -0.032297236193031195, 0.08640421794549288, 0.18415803120655624, 0.26310526668327183, -0.05510527939902409, -0.07921055097282927, 0.020510554158125242, 0.19245249246527854, -0.004959328045189147, -0.018986220853115996, 0.2338576489712319, 0.21003679349896212, 0.10094576163704579, 0.01687104988231352, -0.1629587577818264, 0.1653114883113415, 0.013224426535422345, 0.1645793275469791, -0.09187291787206414, 0.061309138958363214, -0.006358117468165996, 0.022293419356491487, 0.24013692449468163, 0.10316993385382596, -0.16544800246308206, 0.025970171877477646, 0.16764985055072015, -0.38106370664755274, -0.07462936168747068, -0.2670623782125477, -0.02798655487354584, 0.18166365536495319, 0.0771673112746525, -0.24873496003383064, 0.13065066582621343, 0.03956981039621587, 0.35769928349151253, -0.008798542626016627, 0.16187205234788538, -0.1523206118811622, 0.4321402016770808, 0.06032408472273484, -0.08452129201184108, -0.1005735284431225, -0.00969161489646096, -0.17514309655103563, 0.018463424376494345, -0.19554322885791342, 0.04152218172121858, 0.28760897565843135, 0.18038847392442592, 0.2396696227354499, -0.062228435063052784, -0.04246119049772686, 0.11774082218296086, -0.07948169878741052, -0.13982540314221897, -0.04625823775748026, -0.026923137707317604, -0.28686445409559735, -0.040616127320746674, 0.008110485597609046, 0.12371577122776721, -0.009879680607766035, 0.02246624807859274], [0.014204250894774883, -0.09157878043635559, 0.11923881137692198, 0.08332204921428925, -0.029549318591187673, 0.047333149667246, 0.09491952014343893, -0.15159429112276523, 0.3849020787552846, -0.04435140160210233, -0.2273366120522411, -0.37458300574393816, 0.15103774007151843, -0.01140521517230475, 0.27262022199863717, -0.01401307939962145, -0.09835469448359338, 0.13600320447586028, 0.033218845950031224, -0.2018778741748728, -0.007502044652505826, 0.09897949176025568, 0.10419419171028028, 0.10495377034203622, -0.14557721283837974, -0.06433027344249721, 0.20817601050473247, 0.03688685127982861, -0.10372320693395723, -0.03034683035713707, 0.0041996139180008355, 0.022615902602105657, -0.15215452843574617, -0.06103865227820761, -0.24471376977007941, -0.025714683349244337, 0.07008525949810034, -0.11943331269399957, -0.0025765983727458423, 0.3380443870592327, 0.032114986631391555, 0.06366447459593974, 0.10396187865018659, 0.11165345646287435, 0.19759109289131413, 0.14445999771791865, -0.16416296191718568, -0.18115330025318835, -0.06183554937981931, 0.04377366229969171, -0.13038022500543414, -0.13164371905926103, -0.12834295633386372, -0.09567707956147777, -0.13917913437501894, 0.06388856127399994, -0.11772343626116173, -0.029414489338146263, -0.17087200909328654, -0.16476950937107213, 0.15428861949093442, -0.16961001481655671, -0.04489642540990516, -0.14012989492821395, 0.05776772055794052, -0.41707283495903286, -0.29281342656562087, -0.30225815939908923, 0.10598705667143453, -0.05587997061817745, -0.05914524079323411, 0.05150790905673713, -0.07104121834747044, 0.27972867222194836, 0.09153433957499538, -0.04282305301719561, 0.033497854573600876, -0.09565389256299724, 0.11557030384364433, 0.15821368162869784, -0.01559596327149742, 0.0925412399412229, 0.011176799391239832, -0.051953538340240156, 0.04858344955788817, 0.07461425437066005, -0.09676750820240572, 0.031982559843142015, -0.05175214633551041, -0.04433395646711398, -0.30398543199524575, -0.17535296109228915, 0.2611343983781893, -0.06584457709554606, -0.14248047734283273, -0.2417953797859609, 0.12101325596403587, -0.0609965990388655, -0.16759498072352474, 0.11421362869386971, 0.01732138006552281, -0.07917925414341588, 0.25081534513647075, 0.13128448063681752, 0.04280962488806873, -0.08327765235766797, -0.0025598091084764714, -0.04609883781416472, 0.1931092043361369, 0.2681385710921271, -0.1281388031870114, -0.10314572750349517, 0.0851218044538671, 0.12937388379999293, -0.15202050842575315, -0.021981845585549553, 0.1232443143575789, -0.06857199326631802, 0.12111078062378411, -0.05635918002115319, 0.12219238684526539, 0.2647124435721163, 0.00017491285191595458, -0.009374451453379755, -0.05803258092989099, -0.14074645853771875, 0.09779478176927066, -0.26344649013223126, 0.076218864121273, 0.04380067418401947, 0.3168762738622385, -0.14508242032110413, 0.0683007313445208, -0.16406129414908083, -0.13037994217561502, -0.18599556348689664, -0.19091343577641473, 0.10541857010300881, 0.05079303206713567, -0.03792669753129254, -0.11497657934181198, 0.2159379677994294, 0.03262726543317606, 0.05331509128186693, 0.13860670513943885, 0.029246620654456334, -0.17199105590205038, -0.02783641283774826, -0.16976690265680552, -0.05424659093745225, 0.09729715737742102, -0.04802765353855531, -0.23910014632974622, -0.06577293508798493, -0.034631273504371375, 0.17335835131001118, -0.05779402487683686, 0.19428542550755715, -0.15043613071432962, -0.09029106898497803, -0.143091721545555, 0.053244499785881506, -0.1324506176725359, 0.30936349544346997, 0.09536720661812907, -0.008857963739841542, 0.07189932062387197, -0.006544204354768924, -0.42344857394205887, 0.15959319862439836, -0.30009768950987115, 0.06046612139108757, -0.1602238003818033, 0.05090135996330454, 0.10839417292409301, -0.22176225171141084, -0.11695488999490253, -0.135965996582423, 0.13744873245216796, -0.3357323643144642, -0.06371017100107221, -0.11353536593289584, -0.03574607947341464, -0.014063902573363455, -0.11862683944709189, -0.10767538792565834, -0.3376527203429609, -0.06218554521059156, -0.2872144629811578, -0.016148964462909674, -0.16208672421401313, -0.05434617145547399, -0.1603295138143437, -0.0889241917117991, -0.1737818527241462, 0.1747521986533651, 0.12367565776375677, 0.04845746548346643, -0.11258808597657392, 0.09043567895225531], [0.002412902827282941, -0.01069059639401051, 0.11778554456146148, 0.07515497997291244, -0.03093996590750131, -0.0882263793271936, 0.11602689462389917, 0.10123726163661703, -0.26743441283001096, 0.16435395949870024, -0.09910241002097625, 0.021780616115767353, -0.48193651793257714, 0.09395412770265923, 0.10782796702907181, -0.014355189881796793, 0.1649714378328726, -0.19281677550053591, 0.1591552732140368, 0.08915722061706689, -0.0762725686225983, -0.048948221945848504, -0.04867693527738202, -0.2261295338201924, -0.1185002534125818, -0.10470010594212421, 0.08658756775757251, 0.10424687876362244, -0.0780678898968765, 0.1111230022078665, 0.19165065673873818, 0.11919239868739459, 0.23965490595891162, 0.07195920308124684, -0.06062749383365812, -0.056669536893632265, -0.14910986812218083, -0.020035498936013727, -0.051786578982785034, -0.22934377158784108, -0.1476104939055828, -0.013518144899370988, 0.2174380075601969, -0.025686147205864967, 0.20323048119583853, -0.01571323331367942, -0.18772242733581151, -0.17653239672461, 0.012583025756583923, 0.1394726991802133, 0.27800332507342773, -0.11655407357500511, -0.10115035943595051, -0.006275179843053899, 0.041483141280576986, 0.054503827117772484, 0.05092294911182282, 0.03904997578430152, -0.23108710501717078, -0.1439015021359622, -0.04162894480330582, -0.18582703386038354, 0.10120094074852483, -0.0070442770938675585, -0.4022778621248082, 0.01703954973048762, -0.24035623081442797, 0.1393467894934311, 0.001351086289277041, 0.01787862583657407, 0.008891063559579046, 0.1285302512881305, 0.1720530996729839, 0.14232851071539804, 0.014707218469231715, 0.02118824482264404, 0.06670865982080573, -0.0012672973667773933, 0.04287706964207038, -0.2229254573966826, 0.14873232803467798, -0.23170416069466662, 0.026813985034726328, -0.06589754367104743, 0.09380146687961267, 0.11244089205554601, -0.15238116464388174, -0.15006785110343868, 0.2397197322386447, -0.12512089304920906, -0.14571690407043364, 0.03936074924840412, 0.16526157810697292, 0.017437617383027872, -0.0582670692730541, 0.04470968843813817, -0.2551734944576879, -0.1686281433378606, -0.2594765540939867, -0.20444421695553502, 0.08379091430048584, 0.12554043610753654, 0.06001892528554245, -0.1259873589512124, -0.02338125176346978, 0.1088192188486117, 0.05815188471646196, 0.08693059288542758, -0.080127377859379, -0.03696320066310346, -0.138314018402226, 0.13149219289021719, 0.03409685813527254, 0.17428870097726826, 0.08798914096869906, 0.02907880103230514, 0.11406245365522062, 0.033185197511837294, 0.16155204662568337, 0.05446338315798286, -0.07183307874259393, 0.004033804312108188, 0.21361769530885147, -0.10074183438904095, 0.15622163097291172, 0.007457428940921141, -0.04718480567759845, -0.10210975822746668, 0.07611356417578605, -0.19385206040900244, -0.24610487896153177, -0.2416729604045508, -0.02062917912989416, -0.06722592930713421, -0.04248737693258949, -0.043791782454600504, 0.09161035533882346, -0.003261432459214033, 0.10658835007703088, -0.09608343813955904, 0.3420619472580581, 0.4144115524880131, -0.0028057759371484937, -0.13263137637313047, -0.04653709966648243, 0.11609351734005152, -0.13639135344696438, 0.02644530445070739, -0.08292056094837127, -0.04214292292248028, -0.012870463046243265, -0.21156337840657574, -0.0826745166580334, 0.38107353968697066, -0.016033077704974003, -0.11731876277222818, -0.01555062831390856, -0.10280360001560697, -0.22313516072173872, -0.13618440380269595, -0.00014313681286854025, -0.1826317389755861, -0.01597404558531047, -0.11803944661563938, -0.19190587933421122, 0.2262341587003278, 0.0523975093981013, 0.03432473547106026, 0.12507570042579488, 0.17178405333127394, 0.33399965773649887, 0.14203632352704176, 0.263204910525268, 0.007731263548649895, -0.31221325020695606, 0.13372941820725562, -0.14349730257364582, -0.012502150740966233, 0.21723066840789168, -0.05235421903414885, -0.06342997739979438, 0.012241545589333132, -0.1670460455229853, 0.020658114016965975, -0.05400682784013798, -0.3206233430108094, 0.25150308565892526, -0.15460766541303197, 0.12756613635376005, -0.47783391744051806, 0.040489210272979914, -0.048773994785288155, -0.13994376180353646, -0.028688154565141587, 0.08608227122183644, 0.08899324671791942, -0.06222621057037046, -0.05880708057557669, 0.2276858499323845, -0.09841025404372601], [0.07809856401793865, 0.06612236433435371, 0.09159003804399465, -0.4788981005339257, 0.017058313714700925, 0.08923134083545006, -0.11325836340333476, 0.0019656391275498144, 0.1095940515514043, 0.03953933534392605, 0.03687735902727092, 0.0377308636487231, -0.12606797565897454, 0.014948594357699215, 0.2466594321705851, -0.0617590657491895, -0.042775887100758726, -0.014961331089675256, 0.263828901268456, 0.08895372364984405, 0.07580482617798569, 0.1956726625421334, -0.13076813372495547, 0.03366746334300258, 0.00783075712216021, 0.1661418775695441, 0.2632365255039715, 0.22271982830583054, 0.09133617978366754, -0.031308761545914505, 0.1280668647569138, 0.04582429856901779, 0.0261127749646578, 0.07048492017651108, -0.06333412681099894, 0.5697437344451761, 0.17608254441994206, 0.15077951713559787, 0.27991557006813145, -0.1416069546800905, -0.21938439681092387, -0.02741542652463941, 0.11481997864192178, -0.10687083058300974, 0.1531151687081236, -0.3328493435726632, 0.1530596285884163, -0.09447317106577027, 0.04507037426926642, -0.09677492778641722, 0.006373224690906175, -0.038047879886799425, -0.044432779184129544, 0.06269417255228532, -0.12291439034585906, -0.2504569426296573, 0.03988065521027823, -0.025215553916262498, -0.017290889590517333, -0.25501947757648175, -0.2060616004558286, 0.118256379568865, -0.05450403419751751, 0.03053273561484428, -0.06118135259866217, 0.24081171423218314, 0.166937575640986, 0.18036435943424098, -0.022919771663483465, -0.17653683227259548, -0.19445397396616068, -0.20347094617104147, 0.0753531249506127, -0.00559886741440287, -0.028029278767768288, 0.09024535154749343, 0.08478546474597581, 0.0949233767155339, 0.02172377607004878, 0.07350590372906346, 0.17620887424670176, 0.10087676919190582, 0.028995960134245997, 0.006378714680336155, 0.13535284761411556, 0.2519522090075368, -0.07422125325444155, -0.002191097266283055, -0.2379189268577564, 0.2814317512946403, -0.3114771241448771, 0.07845298566151143, -0.3071959893393176, 0.14840003174800928, -0.04860199467997835, -0.13762450182145866, 0.09504117075139881, -0.19251966582069843, -0.07107378925376891, -0.29115431754129945, 0.03434750970360289, 0.10349419474015209, 0.2669697878463968, -0.03384874683859009, -0.05416873776123853, 0.05156197501589165, -0.10775579355126383, 0.30026406836675196, -0.25511910254220926, -0.13436929261807443, -0.010531984600298389, -0.20050971424512176, -0.048380252530461285, -0.07913206706321362, -0.017447283758951715, 0.09835713743891336, -0.01401530808849444, -0.027290781695622237, 0.1779941198118539, 0.15793634300076617, 0.08682181800272029, -0.24458291178389205, 0.07996215849413395, 0.061435976722187445, 0.00024340945606600683, 0.12717965710777118, -0.2148537763132095, 0.13989643560762363, 0.11116404099748627, 0.006246822433017318, -0.12090681971047232, 0.04410490754634526, -0.18091481280555605, 0.06852128612415943, 0.02216859114530126, -0.12450433857791947, -0.16303174943645415, 0.23203064121915842, 0.17657055986360312, 0.08563592341239476, 0.06596351256728984, 0.18152030616467088, -0.09834007328363778, 0.13552412709454562, 0.09149993482141881, -0.04770017217710976, 0.2632506539126632, 0.07163445194843755, -0.28290345258058197, 0.15826875840207827, -0.09642352268382086, -0.06546163110389877, 0.23423115148266357, -0.0077053129209805685, 0.27906902648072845, -0.15068262694363715, 0.07182357934358401, -0.059033671923212794, -0.06101456323476609, 0.14666522341238977, 0.024400980453111603, 0.14325647705070954, -0.33649835514433996, 0.2353151558699935, -0.0026178007545570076, 0.3205978435002738, -0.07171094270370615, 0.24910340197312011, 0.2067520964585082, 0.23103207795014288, -0.12436264562839437, -0.32221720702552226, 0.09707526999982745, 0.13660851379454558, 0.2006175435799084, -0.16367135641893987, -0.13100945844128384, -0.04450590963660471, 0.28519599944833507, -0.11864218879994072, 0.024832541553535484, 0.02396603514615978, 0.2661705404224314, 0.06455618539312366, -0.048789329689756, -0.27823340748136904, 0.41295866824287997, 0.1492651639872732, 0.03112584334554323, 0.06549286343899315, -0.3325718476484407, 0.1506379422998503, -0.1940858952365419, 0.010844388171450578, -0.017557762227668337, 0.2151668105246883, -0.13684890714734188, -0.13781923549646233, 0.1517944179747776, -0.13424012336142066], [0.21547306196532984, 0.1570203785940216, -0.20873471182650044, 0.4468671011129399, 0.008463041430340882, -0.3233501710510535, -0.012312191146494175, 0.0481490219609747, -0.012427547413263481, -0.13481023678246243, -0.01463673525188588, -0.19410415368093226, -0.37556350755568035, 0.007824876818421584, -0.0345281035990169, -0.19903091398989473, -0.00538058696329986, -0.14402902226431397, 0.011196330897140675, 0.06307996760474675, 0.005557015128649597, 0.1819454389886588, -0.03580833084618826, 0.06675661566895065, 0.06149281937122483, 0.37238326289048435, 0.07795352352062768, -0.051267086921396365, -0.005529068588542381, -0.20471909997629098, -0.009405358016709244, 0.3066439931561625, 0.21051336613770985, -0.01765871799106507, -0.1570177073485935, 0.057687563184912694, 0.1925148152058563, 0.1503356863188329, 0.029813075077436788, -0.22387438569922688, 0.2063072039546729, -0.04705978988062458, -0.26850042448304273, 0.23039226133251464, 0.19322893308330322, -0.04103420510960038, -0.3273551144648521, -0.15395564301340392, 0.036428453151788734, -0.2626245654840325, 0.036083350822445036, 0.19667584106705183, 0.0581359285325885, 0.010328039690765782, 0.146506280139952, -0.0068959539824091625, 0.12451112490715195, -0.0080323853128417, 0.15323162965543669, 0.17613402856379193, 0.1886835671566131, -0.0017545932593421448, 0.14404881528099261, 0.13123782710077717, 0.26227968732469154, -0.02623175587859164, -0.07887989199662081, -0.03021434283502962, -0.04590175760191763, 0.052792902843067806, -0.2445069803075496, 0.06659493494211824, 0.019044309336789897, 0.17879389585116773, -0.16461963006958324, -0.12398427096326406, -0.0987387483989855, -0.1662989818114365, 0.075664601135567, 0.2776726207456589, -0.16733795699282508, -0.06718174757435375, -0.12495985980350634, 0.032711958808661595, 0.06652067439475404, 0.11570347438794322, -0.03396166865176958, 0.005327093946814796, 0.27355139590728755, -0.00257500402221449, 0.2553165456484894, -0.32769947108206454, -0.10691058566791088, 0.0814245471229588, -0.0007580159929710148, -0.11796637602804026, 0.026515771322050654, 0.12392677344195684, 0.030775692979277805, -0.3921843640843216, -0.2638085733694788, -0.12769279534008438, 0.057015257457799375, 0.09492537743735689, 0.03644689568907238, 0.10477991675750573, 0.12313998545528687, 0.11250871510360816, -0.1916166250895232, 0.053496308547573604, -0.05539512527098645, 0.1131924406213677, -0.13286938075621446, -0.03155995509430732, 0.2983311175902709, -0.2066530138212362, -0.047654285114398676, -0.13724951911290076, 0.08371818442605564, -0.06011270188495836, 0.197092476573155, 0.11290482106580788, 0.012080690492914834, -0.1521058068971905, 0.0985333771616954, -0.15471707280475308, -0.031937580721973044, -0.197162177610949, 0.027152203205756335, 0.22444499231480228, 0.1743572195407896, -0.07987089238410477, 0.05966314874495475, -0.01812171581742085, -0.04396837951815429, 0.1426186227775582, 0.11143805493687411, 0.27873414200261154, -0.20912378865979028, -0.13148796785592387, 0.12770705318463232, 0.3902704839052681, 0.02494213382578525, 0.04713236323202918, -0.216558030666429, -0.0822177333349884, 0.0742536482543168, 0.13361001797947103, -0.07650032314581172, 0.03430512168609725, -0.2025742264890153, 0.05187935813420009, -0.16325348007708562, -0.14371689359317033, 0.009576003885709505, 0.028282550124325984, -0.1720137249258052, -0.01578336173516636, 0.02943906091526128, 0.10430811025830135, 0.220866740182248, 0.22744494820507571, -0.06465699789590847, 0.01675550569767915, -0.24634063009072263, -0.02996847114706111, 0.33871104148159026, 0.04450470862243472, 0.13625303561024363, 0.13457059489166362, 0.24393572999221708, 0.10145198895336681, 0.02586990638691645, 0.11144928657704534, -0.07576499423266307, -0.32640961263329554, -0.04108836874895749, 0.025245476223937753, 0.041747174824301694, 0.20400105669655566, 0.13393648278580036, -0.019953993028201267, -0.15902449407948518, 0.025343190497674868, -0.04636425973676396, 0.15521914252040311, -0.4219220026991324, 0.06883379121433475, 0.08248769915712709, -0.07338185536488168, 0.2423786370155871, -0.0022918227622043285, -0.2773511439645058, -0.0010184355370441544, 0.06369737818358963, 0.19119857574457363, 0.04598384205648838, 0.1198227874339738, -0.07510107316864462, 0.06518600778981049], [-0.16254118570014103, -0.053544518557726586, 0.009255687928584855, -0.097490160153246, 0.19972944436650036, 0.32463875158664685, -0.0897527858061047, -0.003937722265239158, -0.024958119166432063, -0.24005097950561669, 0.12713249880359673, -0.07459733298923406, 0.42613744096020706, -0.11115482189793695, 0.030122458915303144, -0.19693244258162854, -0.1992462729559685, 0.0794491892927413, -0.1418995359486982, -0.11241422106757099, -0.02323621158360309, -0.014243183979650319, 0.005399179088565693, -0.16177013477975913, -0.4002661414865074, 0.01168842313951583, 0.17637895493726588, -0.028581136030951408, -0.009280000715252732, -0.03836317477323547, -0.007829402970129067, 0.14924552282049885, -0.1028957353874419, -0.0738708568350481, 0.07585644255815883, 0.05983976672793004, -0.007266467445078314, -0.10724729863588967, 0.10912278491085954, -0.09049501434394074, 0.007249442607387789, 0.1382002403199906, -0.2521251244232232, 0.1029307544547576, 0.13797538079546479, -0.0603960553503649, 0.09036808636557833, 0.008354758623713569, -0.06551479269997683, -0.15488964420582116, -0.1880465724980025, -0.12437695731937273, 0.041078428401200066, 0.051181828444872644, 0.18982387132832226, 0.03711578352647867, -0.1653806636627952, 0.03099248822544189, -0.0298543545703895, -0.0633458056277943, -0.03511247931451159, 0.019359397944396044, -0.22584024775374797, -0.003137988488444253, 0.12217110110493744, -0.12235698569128657, -0.1741338479163265, -0.04221896697835472, 0.08814171226329631, 0.05342200391328928, -0.3018226581847641, -0.14242685460802204, -0.04129071548057634, 0.20106056279717915, 0.12130475470100112, 0.39011629143307874, -0.03369697602243248, 0.05284850900077574, 0.05308483652868825, 0.19343020595911836, 0.15042037010204198, -0.02764838645609154, -0.15462276937045238, -0.024834850311668898, -0.19848704224660882, -0.05837334142854662, 0.004330812362061285, 0.1095532575163909, -0.15629809675539943, -0.20558539860448174, -0.11949075293765088, 0.006925022070199619, 0.05039287409209759, 0.2993629627163732, -0.10948325199956332, -0.08471302868796265, -0.024120883549803664, -0.3279114567871895, -0.13223001717544663, -0.10819751467935408, -0.185816636394402, 0.23958947206966125, -0.01520317904649481, 0.05203265814471782, 0.0020200419648163754, -0.060512098918717165, 0.03460703099549124, 0.35997873539042935, 0.12921390611539987, 0.1831780213443804, 0.015905861335205867, -0.25145078562918555, 0.06381444045870152, -0.007071010455644046, 0.0011666496506419332, -0.1972085070340067, 0.05093529770384107, 0.16618170059527487, 0.2529144755074811, -0.13548384054752055, 0.13955934493407987, -0.20929225026397996, -0.21075012108832392, 0.04864323466051004, 0.06763052375920453, -0.061902395153394664, 0.2411886238578181, -0.1959753392512575, -0.07994767638667309, -0.037124369958039055, 0.11306879869309866, -0.35305200768760003, 0.0452668277269815, -0.0130852290338102, -0.05974914300012039, 0.0071614387398942405, -0.20134646356758026, -0.20453835208231236, 0.19674761229128984, 0.051908011167486626, 0.10097719278609846, -0.22459273899529242, -0.05184535176066242, -0.114473485058721, -0.025128514473415117, -0.33475179107944475, 0.20494860842274001, 0.0477551048542975, 0.27129321619144653, -0.05262651995936384, -0.13409194409671596, -0.010799050892846804, -0.016263319206969006, -0.2364060267668326, 0.1590081563588352, 0.24019598786686427, 0.29559374786621656, -0.025925273523822324, -0.06330822075079348, -0.1140874177565784, -0.11704212874977056, -0.004130330054178124, 0.11523763191597844, 0.13505573985601407, -0.033245537364283366, -0.07165130218018415, 0.28750945988305565, -0.007954762273509879, -0.16299206040087136, -0.15940062659428725, -0.1016749839791117, 0.08784920701076034, -0.20670922804965783, -0.16025338777044923, 0.14360496072805823, -0.3648905232152685, 0.11127010663466635, -0.25769601021881094, -0.10333248146570022, 0.10495055253711179, -0.15740271792307567, 0.031442132880751004, 0.06282429455843795, -0.2405956290576081, -0.22843587098733595, -0.10361586488760073, 0.035921503218592804, 0.016731380875635856, 0.16515544224786857, 0.05442023501745471, 0.10257879094275144, -0.12410766790976023, 0.05443698727068975, -0.021325112219909324, -0.03173458621294409, 0.11451484661984347, 0.003432875147827277, 0.08417650095245487, 0.15568974938618602, 0.06901432616095562], [-0.011823685250149204, -0.03268435216286023, 0.003638821391953295, -0.2204567891485427, 0.11825567165647978, -0.1880440254094656, 0.1104590464501154, 0.03843270336096246, 0.12335245916431986, -0.21398527250450178, 0.004680245691131494, -0.25795862393519425, 0.28716103707708657, -0.19922821855509876, -0.2497965213688887, 0.03966803025083879, 0.1059962737982611, -0.2661651480195804, -0.19988825590936007, 0.031468419637616596, 0.16371243298233906, -0.12040042640030967, -0.17067655747596946, 0.08798546444301994, 0.03887010322239288, 0.14171971770956487, -0.04163924561800582, 0.07994722915913259, -0.12396780199204763, 0.32915877806181176, 0.09173465042225276, -0.05602725992985098, -0.03798941982192486, 0.09999303938319919, -0.28462231373698804, 0.05319220828234125, -0.29350369979985846, -0.29388253890981886, -0.022829254349050136, 0.003202084189641485, 0.21817345058230697, -0.01744048874511848, -0.05409732331526232, 0.027127024332810227, -0.08027850812943757, -0.16145147268810145, 0.11717050979219437, -0.013588995927017402, 0.09622938494906182, 0.08093093484298952, -0.3034871463994439, 0.11574393182849751, -0.13350416711498275, -0.04992573189126874, 0.2941339185525268, 0.03700318848169724, 0.030488087206043357, 0.2821412626857797, -0.13286008994611367, -0.2274472204888443, 0.11691256102556147, 0.09698228716241186, 0.18027227256702227, 0.002535246527047568, -0.17104227855887433, 0.1908672874150096, -0.2285616938836202, -0.20473395535569724, 0.29036185660726677, 0.029379127632810694, -0.04729737213590882, 0.019113801004490887, -0.06920330330614106, -0.04043975720082339, -0.1654914488481452, 0.014551618554817977, -0.07375435143209898, -0.07254263560226631, 0.0240933095594161, 0.09482074859664859, 0.17733057232298843, -0.013001730548328956, 0.05334589261791678, -0.20521469406489903, -0.01423737661739878, -0.17081850830564688, -0.0678479195685936, -0.054999949767960576, 0.22583449561126945, -0.0894609058240707, -0.21110426317302364, 0.0837227129246709, 0.06823901647402178, -0.17550746696505704, 0.17486201771038246, 0.012107404468897097, -0.10842055504584916, 0.008099457908932555, 0.04698009250465243, 0.0019526132400542733, -0.06242173265346561, -0.15625692554685686, -0.027534954902979105, -0.002951765188228368, 0.04093051379915749, -0.21053791322982868, 0.1618479722739604, -0.3218560200990183, -0.09851398907477282, 0.1286173387683361, 0.034258631397090664, -0.12383222945464852, -0.2748975370257798, -0.08957472393189587, 0.1205585512848512, -0.024082566393632078, 0.07555286625326085, -0.14889692140253544, -0.04688857398597598, 0.13257556363228828, -0.2561799297979573, 0.3334222529092668, 0.03906048441212911, -0.12522216169635642, -0.04238282534971227, 0.16823648735186802, -0.2265572690146325, 0.2150640574389227, -0.07568858410208823, -0.135105630554247, -0.08744896078025606, 0.005499910346779492, -0.015340116455648888, 0.021613183155373247, 0.06148912805342951, 0.016274685183478105, 0.19027758584564633, 0.40195698644195016, -0.03518742907975443, -0.03709608216720557, 0.009872650584734546, -0.02221480332598318, 0.06585527818969042, 0.03492928235366816, -0.13558374411538565, -0.07609193632526494, -0.05794576198248182, -0.1158636555727889, -0.2515678256320843, 0.08820557579530948, 0.2217508913625134, -0.054542069955209695, -0.28338225016155677, -0.09170883886810097, -0.16653489548345127, -0.06841354863549294, -0.018314682489023446, 0.04507250935797166, 0.26060897917618053, -0.005326527458734188, 0.043726637997700143, 0.02342830483681064, 0.2071455351237732, 0.34165563010520517, -0.09592716259578692, 0.05849390643720889, 0.06537549778341833, -0.1910953207453618, 0.16258098667625426, -0.12700497836224417, 0.16703048244328195, -0.05925411521476094, 0.06324938802974223, 0.22710697588488046, -0.2161357483600831, -0.15069530216594143, -0.04685311512305736, 0.15158079575244618, 0.3492954555267148, 0.26453479217083786, -0.05486345656180434, 0.22248204201856278, 0.012617715170063127, -0.1125203970096187, 0.0670269686232964, -0.0782652094163341, 0.23204111892342993, -0.20937731189205475, -0.04494147486719631, 0.1280627212843959, -0.03196747025973832, -0.1961167968388076, -0.017189928396933684, -0.03825770332650073, -0.02757120016313275, -0.08221015816780221, -0.012510518633670585, -0.15166953065184613, -0.10641983326890436, -0.0024043436101750327], [-0.042572397221761635, -0.008862844871812754, -0.008710437320854908, -0.07135482377557593, 0.01533671431885447, -0.02681199514153501, 0.11552776971419174, -0.06718531176453653, -0.05658560855458489, 0.037064453326738314, 0.05749246816965708, 0.012875368956924035, 0.1578393182424795, -0.0014139561404228882, -0.35589909948060344, -0.1400235245796251, -0.06346308672590596, -0.02534077412800752, -0.038912971896848766, 0.05552406179930739, -0.10627639190946965, 0.010713914076820413, 0.03426570962512571, 0.07232215258818242, 0.1809291602517358, -0.13779493144342797, 0.3271613591075792, -0.05701091969593808, -0.14622157245186607, 0.2065306707921674, 0.09602462058334062, 0.03683509016106937, 0.1058936047129236, 0.062495133659837145, -0.06400413429567856, 0.12622172009123594, 0.042849172324963325, 0.03148950117534162, -0.3974705621248316, 0.10231318802361887, -0.11581851009954443, -0.019009356639769364, -0.13018610205514836, 0.11302165106183866, 0.1458762055562753, -0.07982597993871933, -0.20798331935699227, -0.16059089320853426, 0.11633957541646785, -0.02913212278224256, -0.0506618764458645, 0.23482265392044466, 0.05583158314956983, 0.061789266663287594, -0.10876989332860824, 0.050259249323705485, 0.011206942545031765, -0.04059661830941212, -0.08479847639630642, 0.05273347489604781, -0.10608840091799769, -0.0959218715015126, 0.3666381784212866, 0.055004589436688574, 0.023492863015625694, 0.020254917705839433, 0.4751645503855529, 0.19398950120756506, -0.022379618609155758, -0.1938011518690551, 0.07408008253235188, 0.17775199040017187, 0.2558032633036185, 0.2060270939896324, 0.10739474667604128, 0.19873728620186354, -0.08411540518080612, 0.13190167700263739, 0.03175067330968901, 0.24315171044466688, -0.1994830468752651, 0.0682015188212425, 0.07936145747601644, 0.1243860276722315, -0.12279211259693176, -0.1163377344183906, -0.10944443859244542, -0.08187972296496826, 0.06364374032549723, -0.2923192101826943, 0.059303423345870784, -0.01032600225137493, 0.08534100147311736, -0.1260477956306149, -0.06104697118278978, -0.23671822775853527, 0.13186506558597172, -0.05784951860084474, 0.10325271449258691, 0.22337197763892194, 0.19698348076944158, -0.10361498191341187, -0.052765910708622445, 0.13360566698472462, -0.04958908163647849, -0.07186472625806863, 0.09835783171847369, 0.10875771349829048, 0.11206852071972098, 0.04550508118260792, 0.24569650845788962, 0.1726821539987991, -0.11075367700514495, 0.0451273309475752, 0.2667550962962816, 0.1914538704308495, -0.14678302454724834, -0.20475018658788183, 0.31905066256700704, -0.09247605501556776, -0.09587029905383089, 0.201072668793548, 0.132701194574181, 0.06247621427988512, -0.00965786298169523, -0.027189210013791643, 0.00259992957702306, -0.20954656199902716, -0.04061437911495997, -0.013756868791561247, 0.004488531319349918, 0.11281045949540482, 0.008689011554275922, -0.08193049420692157, 0.14254071651062547, -0.19825369362445497, 0.05104538825405208, 0.17779102386507442, 0.16216716660355052, -0.32171325367556963, 0.14087840148779446, -0.2020524442997935, -0.10524463906146642, 0.28539522464283706, -0.14171971700907066, 0.14076844331824886, -0.13324510149200475, 0.01794281091394749, 0.1846587114200208, -0.14275170671436518, 0.09606280168233915, -0.06296593289907197, 0.030504864315068485, -0.028346081447856303, 0.04399219323066426, -0.11933437413039649, 0.08764974489128016, -0.18318472505931616, 0.5048661500186508, -0.23763649544733004, -0.16433187353147055, 0.007437395272493136, 0.4087459442729319, 0.06480361428225244, 0.010432710360312654, -0.0006875620896267912, 0.07839485841487305, 0.04602474773460912, -0.22781787542918436, -0.06743659288394041, 0.17757305777388138, 0.14480060660378097, 0.08993169552777844, -0.12654363051763343, -0.09784204851457835, -0.045232008167187865, -0.1811774616030276, -0.008302047256836441, -0.12399124300818787, -0.14966463625744267, 0.3555445909549366, -0.035793862971540795, 0.10379005625710372, -0.06553645978629412, 0.17183611396533954, -0.18130226267731764, 0.07513853553371165, 0.036472329986883836, -0.29280289471292076, -0.03756414639522671, -0.05179896042209156, 0.1936258592228924, -0.04512661758919063, -0.09210904243559326, -0.048203768674952525, 0.30313216366153944, 0.08487791931361131, -0.08536777829514096, 0.19248274775042123, -0.05483800661050313], [-0.04595771887593515, 0.022058727706603106, -0.01115943987969249, 0.2495180002821235, 0.11114694540129405, 0.044610590023098695, 0.31840132898630996, -0.020236946038727693, -0.3236851543014026, -0.06128899783091537, 0.09177923659257653, -0.14040651987521238, -0.20572225902272762, -0.05828912458162627, 0.09782031334081438, 0.015291166111650965, -0.022852808300432414, 0.01475040602919917, 0.03548925183799458, 0.1561298566593065, 0.17155206728393574, -0.03676125248172078, -0.2310157397762686, -0.035569324168893045, -0.13063717557042387, 0.3450140994856937, -0.12835404843693532, 0.1586203814668511, -0.19739174858068323, -0.14282706143532742, -0.022835118605469718, 0.15070244126267288, -0.2745944122963952, 0.004668062916443345, -0.10548826381185707, 0.17775146451827278, 0.04910593058795224, 