{"bias": [[0.0631612214923248, 0.07853748175203651, -0.2615027941305618, -0.01765709495166852, 0.3375035478934042, 0.024692993441709304, 0.4702858982002215, 0.16765206331029894, 0.5548143852130188, -0.009181768418007072, -0.25261965683009785, 0.5415862633444877, 0.021549705634705832, -0.2530930106466645, -0.1456489126525733, -0.21440713928640615, -0.3315397112565213, -0.3461006887861927, -0.2618730273353313, -0.6420759654427821, -0.03974538122545537, -0.6038452726014432, 0.7251788669532858, 0.30988805138830555, -0.3134884433692221, 0.2673182232732338, 0.7394924181617284, 0.5983871700382871, 0.5721953847674839, 0.48126698205365326, 0.21931588815461336, 0.6631692923125033, 0.15560453418805015, -0.0421163802192251, -0.4301139867814723, 0.27711183641883974, -0.08322405947509517, 0.22020645828263652, -0.4013561003028298, 0.28375176373584854, 0.06141853166423099, -0.2612475928677146, 0.2778521508177438, 0.046437923862989526, 0.05575320872353847, -0.24226523606355335, 0.667341824280947, 0.5881790761261684, 0.2889739387211063, -0.649208086902394, 0.4934677919517662, -0.20171220403340195, -0.7758245728481705, -0.8298065530353693, 0.37796764145488854, 0.23016102836404717, -0.018234639681094122, 0.14312787234828833, 0.04514863140268391, 0.03242227103909126, -0.9489843564375481, -0.3445897523733199, 0.3848880936126512, 0.5460335193099586, -0.5033750374495279, 0.3300883315468512, -0.0019194801080403571, 0.1935390950002715, 0.3805503787753006, -0.368301682452795, -0.3013299489717459, -0.11043077057412558, 0.3612976289482996, 0.8254265442903679, -0.05568579283234431, -0.42797594074029444, -0.29176112076203503, -0.03981169276981969, 0.3232684190117522, -0.007366927635114782, -0.44053520276358155, 0.4956067194155195, 0.28948239865133507, -0.9309598202214193, 0.3424852623036119, 0.7468926288763278, 0.7783092689100235, 0.4269873177415018, 0.20402708634620892, -0.29428866062474535, 0.45103289968262233, -0.531292083046874, -0.20846185083859567, 0.3835129332372614, -0.7647925439883086, -0.34517047977177684, 0.5157856248162879, 0.20282818427495813, -0.47068481108148863, -0.5850982958980186, -0.6078574273680301, 0.37572720658396525, -0.08001173497620043, 0.12163451356215833, 0.5240218785135532, -0.07138375407860759, -0.09432733707068015, 0.25341926229740414, -0.9127348627805167, 0.38837304165008046, 0.7697540792708131, -0.04533219935402957, -0.3131443948550399, -0.35592143503353807, 0.2591019633025594, -0.2220269669671016, -0.41091258615682363, 0.04775294653470337, 0.20635995543455474, 1.469110160073174e-05, 0.4171196660367287, 0.11285501784087694, 0.12880679702341563, -0.8703187355951361, 0.21063583228451654, -0.7601937729564238, 0.13022956927319387, -0.005836998060982279, -0.03153736253658595, 0.0976110354388662, 0.652893060698898, 0.014285601887827928, 0.28250843374143497, -0.38160763526162084, -0.15466700302207026, -0.7592078624025002, -0.1671317154584839, -0.8353702156047269, 0.2091790334054634, -0.07280348935732787, 0.3558943784265546, 0.2538290019457023, -0.15405148319712472, 0.5747313091410474, 0.1376174111104369, -0.2539344537560241, 0.2609853058924237, 0.07646085961156895, -0.24310667063283936, 0.1361818392843553, -0.09041591905721379, 0.43820634995221647, -1.0401246814999627, -0.3070101656684896, 0.2204221356287177, 0.7565124622287676, 0.2274929356925892, -0.5082493420084085, 0.1289672584438253, -0.47456980250242664, -0.0324608848653513, 0.04125104400052298, -0.2944696615118412, -0.3837088936685233, -0.4236998162876626, -0.08988967401842475, 0.5088289540085769, -0.26217720309667863, 0.7008239465824853, -0.023295501620172885, -0.5789548339534554, 0.20858457770433675, 0.1646756902074469, -0.09030087112792547, 0.20194547998250287, -0.4731233677368932, -0.6462351580249768, -0.03294290503569256, 0.09877743739222798, 0.22117113223419627, -0.09308781778385052, -0.11671850632648789, -0.12205267301620112, 0.4433490332696468, 0.03814514432325001, -0.04628080282077137, 0.4388516859131854, 0.2654625683600871, -0.6400326438605133, 0.7478302008305532, 0.0026116433264884837, -0.39240729411491687, 0.17770372263352532, 0.08202089658624208, -0.3587122706655806, 0.6581010229210739, 0.9238860628382007, 0.4599982851848323, 0.4627049344154225, -0.06577256152108828], [0.04003869296845011]], "hidden_activation": "tanh", "layers": [200, 1], "output_activation": "logistic", "weights": [[[-0.2268734614269906, -0.01814271004609014, 0.19038994775952484, -0.02210952705009676, 0.002352823120879886, 0.13871982475879338, 0.14034853196845046, 0.2045454823079102, 0.05592534366626951, 0.3572843156699433, -0.7405362410007074, -0.2798416305817144, 0.26099043411682743, -0.459220780155684, -0.06416678843176718, -0.12785873505349452, 0.2131477391110998, 0.15961798323728663, -0.13220095020674516, 0.11047986335749628, -0.0012077475505374979, 0.27477818837173534, -0.2616260657841549, -0.04767649089171011, -0.07264189090020515, 0.1609025714165217, 0.3601626097350858, 0.271907855694696, -0.11153609548425886, 0.24681240583555394, -0.3006278415863497, -0.31648823744706056, -0.1632805266220919, 0.05424973869050785, 0.21050153500815313, 0.016970575269645023, 0.1814259449741419, -0.22154594535410738, -0.06407170467941048, -0.48194506332990494, -0.5280613439083377, -0.026301916510921286, -0.022324341315378898, -0.18814257730523076, 0.17837106481486265, -0.10345828038109782, 0.27491579319959786, 0.1173473527240333, 0.033000549129173516, 0.32022292001185687, -0.22992475895439926, -0.21376078941234083, 0.04668328506112435, -0.21262642230874904, -0.357483942821049, -0.7000264716784665, -0.35558854480923224, -0.2008519294173166, 0.5128457785968966, 0.05514221662077637, -0.1729515192207217, -0.23022114508834213, -0.07349886882310101, 0.2373779954407402, -0.1092670326900837, -0.0651184719161895, -0.0024174247820565996, -0.026222390268414244, 0.17360175563558183, -0.05657849349489744, 0.11124930493497226, -0.11573838647454959, 0.16525491919315008, -0.10494384340531442, 0.2589603198711528, -0.6883977331399391, -0.07697335762035801, -0.03402999324609348, 0.2099287900291441, 0.13139015629305156, -0.26671210318373495, -0.42331480743714844, -0.24844881224050558, -0.2857040393274433, -0.22864871944134327, 0.06022265982249223, 0.30326361899080306, -0.13214916055016435, 0.44408631676850785, -0.3173227709946497, -0.11993474664837368, 0.20510237388086608, -0.14523538372680223, -0.31803930077683834, -0.1583590700311007, -0.057081315317272195, -0.038112891263604357, -0.09234966993248708, 0.32481566831034564, 0.0009085900595517956, -0.14624987309541665, 0.12076298447943838, -0.11563793049666099, -0.021867001161194975, -0.11108871557484784, -0.30811069634936183, -0.13009113091001406, 0.16665579883567158, -0.02178393972983816, 0.09810725901387643, -0.08637742966216602, -0.1773682290962344, 0.25246853135363834, -0.10689006305308366, 0.46713285665740256, 0.1322626139486339, -1.0388444143838806, -0.025140076872466607, 0.23503809286413646, -0.05345027761881192, 0.08320706751407678, -0.247549299347479, 0.1865190050091435, 0.08579547575583256, 0.0029986031511952953, -0.38681240719494164, -0.0011585576998224029, 0.2074196955158539, -0.2818906081196487, -0.16041573044859686, -0.16679302315214276, 0.030847500264984756, 0.14499077144623618, -0.44580042385528446, -0.02861888834146477, -0.29925863471136227, 0.2169369093619887, -0.07015144434603109, 0.18749377185586347, 0.38200107325488264, -0.09455787685778157, -0.15851583008550912, 0.6591691784206157, 0.002853874325537574, 0.4166261916127366, 0.16977090470728262, 0.17758382802630918, -0.1026390148809707, -0.18435383181470855, 0.10190626463355719, -0.5042084689644399, 0.028157170975772784, -0.4666185192251853, 0.301405886810782, 0.14297855588013114, -0.09684743684425165, -0.18096262127800922, 0.13004292083424826, 0.33661476384746397, -0.13512967380031712, 0.002444756019475241, 0.3841266834790771, 0.17315293921915742, -0.3117236751173629, -0.2330643449960729, 0.28237409114873896, -0.08563026265670562, -0.4442325423428863, 0.3572980014686217, 0.46710624938509204, 0.08448661116100306, -0.1055358682827712, -0.07247614045265574, 0.04575490693582186, -0.23429322691860333, 0.1269969153810307, -0.052119758416373625, -0.297185200771627, 0.5241970635158021, -0.07721933640779949, -0.04345119913945731, 0.34026622386592104, -0.1717268727589491, -0.021864319672187053, -0.2222879379166014, 0.1729830464096038, -0.14904825175423983, -0.08230512925771404, -0.11450713472446152, -0.29456361230554157, 0.09877945614977135, -0.3675541001255333, 0.007331996842566146, 0.13779158006121592, -0.1428467630336462, -0.4188815229268384, 0.05981416916124553, 0.03853942531657813, 0.13393398954667948, -0.1916379698817364], [0.38746716224751093, 0.18168038905850575, -0.37624097600071316, 0.3227313132070974, -0.024205660236707175, -0.09549957838364644, -0.13957514256878753, -0.05766082196618406, -0.08127732807608083, 0.10955538041662209, -0.49571006955558794, -0.23338551923680645, -0.13697282311194445, 0.31003729115591133, 0.014793637631972306, 0.045946700994117864, -0.2936243993836014, -0.19247084337225356, 0.05618790984971442, -0.10516357797632314, -0.036037259653402515, -0.07462345773247417, 0.09458322957877985, 0.18379754315833094, -0.09990727951006147, -8.562266804414413e-05, 0.46650966486088435, 0.1977868086918687, 0.32726751046364666, -0.08331324904939262, -0.05411454274446451, -0.23908563224782742, -0.17141901497288176, 0.3044535302261951, 0.006744649260251926, 0.16531352860746, -0.15801483440010278, -0.10952513876797701, 0.12402483692929807, 0.04470021555507353, -0.49943671001255385, -0.23920064658956702, 0.34662786284625485, -0.9746253170928826, 0.2423027890144402, -0.08492154116401233, -0.017902128819573322, -0.0010236643915577217, 0.07700338104057605, 0.06430854621776676, 0.20080780831516584, -0.38364641742846484, 0.3131075772952023, 0.18572591886437836, -0.0721941902433244, -0.3225655113835012, 0.260185893778328, -0.29217086209872845, 0.02665065202366193, -0.3238482076712162, -0.07814040130267813, -0.2108674397310118, 0.23725989462821115, 0.5109111907841871, -0.0461305776366519, 0.011632170501673469, -0.03702186566763982, 0.013769497680495252, 0.33424370046579677, 0.08841560141732449, 0.03132151281709478, 0.2909404952864073, -0.28140453331592347, -0.328874578825598, -0.033378850883377824, 0.021282120606438328, 0.3102467930563879, 0.12242377821068434, -0.08719710204832476, -0.1874986630840124, 0.00514296663247543, -0.4432767253771385, -0.16359034991522023, -0.02709424602304887, 0.08068117318407889, -0.2887847655202898, 0.17406481324293055, -0.16736539582721116, 0.0780702055801502, -0.38417715416902276, -0.24265056532394744, -0.1104169206934375, -0.1564495514550825, -0.18830955758786597, -0.11363480254848064, 0.14780719484704738, -0.32004466504617285, 0.0048563259760011695, -0.0003006640647965555, 0.14831364090766155, -0.17946915647005235, 0.3976558643840769, -0.2826288729591442, -0.025384526240867813, 0.23980684133719785, -0.11229801858250542, 0.12550668858593605, 0.14760100380609925, 0.2914186036931069, -0.10155333517081742, 0.35681918458555995, 0.055721201297674605, 0.4657154084163584, -0.15599973686983243, -0.2382331855176711, 0.1536992602086426, -0.12931050779801448, 0.01468560784307251, 0.15647785811773288, 0.0014244181466079898, 0.00791058318885041, -0.6109451834592026, -0.15186813409898903, -0.05227352360704664, 0.20901653413356222, 0.01908071827093858, 0.3609249591651514, -0.06751425332587395, -0.0783723456084473, -0.004901370661307538, 0.04739166830886302, 0.16579048021891438, 0.12119971729520766, -0.1134926707521959, -0.07786102817247383, -0.060472543347900365, -0.15525913417338646, 0.14597123757253685, -0.16026105490818798, 0.26195238144538435, 0.1409702983382196, 0.017902859194041835, 0.10064475722704352, -0.25826344336161505, 0.25545133374640244, -0.05307846991443048, 0.06340742055436933, -0.24496097110801945, 0.14495521148821308, 0.09686301334256531, -0.040314427682948434, 0.012416398223121999, -0.12645781491692543, 0.019979607004782754, -0.21143251526835743, -0.09669673206266027, 0.08295389714839205, 0.2252859488319269, -0.1210652585968135, -0.12968028267733708, 0.1103560399923243, 0.1655873388202628, 0.45837698834266605, -0.4592452062164885, 0.03911993246262176, 0.5421049896445531, -0.030480223975696486, -0.14209251044033083, 0.34960789488859995, 0.12365178372244748, 0.18056406071377176, 0.013759023113678577, -0.15200562391523914, -0.24431168295452219, -0.041646129978614735, 0.16414898572174264, 0.08978974105237829, -0.16711978746084458, -0.21068521751424246, 0.08315323833398199, -0.0929043516885594, -0.08195433665376889, 0.21028308937393783, 0.1475577915428579, -0.1583730811424558, -0.0933364019570078, -0.1360991861583305, 0.22379111265332383, 0.08916956375324693, -0.03645486870183113, -0.5689465552592061, -0.3290440857808774, -0.005299089686928966, 0.16772013544566206, -0.2861712477575184, -0.319716089571178, 0.2736580659825269, -0.26316174051774693, -0.5561507452408221, 0.051473544089917306], [0.3653035121257967, -0.12726536030931232, 0.1268710206502952, -0.058381005803362154, 0.07616031880996449, 0.01205079852973517, 0.07342688392810724, 0.044271727925871314, 0.05296501924012709, 0.6970820089672607, 0.07510965258809922, 0.480040865749667, -0.1887804373693654, 0.5975473361105598, 0.5415779825199212, -0.12662729151012653, -0.1817555210393518, -0.1548428536566088, 0.0655134823569688, 0.035506505686803816, 0.21501386110529422, 0.15831775210861448, 0.3803044790059096, 0.5156447324461402, 0.18021233816450763, 0.22736065516269396, 0.13364081208501763, -0.18205473210289702, 0.1167108245350346, 0.07901348972393876, 0.549707778159996, 0.1554306251459964, 0.003271537893018711, 0.3259759399155692, 0.05414636177800632, -0.10836402700917945, 0.082694059695501, -0.049219160556604385, -0.015327921663909493, 0.15789916254241693, -0.48472849057416467, -0.028346338834583575, -0.10681143197795025, -0.260782969821065, 0.45822920065697526, 0.04020623884587558, -0.07136545511009831, 0.33281015656450175, 0.3004541316951159, -0.36627488722761437, 0.32715077458369823, 0.11133776156831372, 0.00023321812817160946, -0.4961426990394704, 0.20272912565497359, -0.1537780884589242, 0.029987072707019537, -0.32503741635164773, -0.8675050732894861, -0.14148623397694132, -0.36713964310231534, -0.06768678935758683, -0.23042338890073855, -0.1260042697979127, 0.1866186680221564, 0.2823482084358335, -0.07428190362486162, -0.06033774588524717, 0.13696653503499145, 0.44094942113772173, 0.18065970728152816, -0.047522918696957295, -0.1068176320063672, -0.21645799410276348, -0.15658153260954097, 0.6625004951980145, -0.09682584260526221, -0.4288428913556974, -0.4367566342870443, 0.2412098802358519, 0.2875040569206873, 0.470891416961407, -0.003280946569372849, 0.35364908784474514, -0.09677121330817007, -0.47854606741766853, 0.27419919619959066, -0.08715532941033582, 0.014157845546156313, -0.3344644311892608, 0.641395349393017, -0.4997772614325399, -0.1680585082620617, 0.20876304089633035, -0.22082731528302857, 0.16855884629277496, -0.35684559103399804, -0.1157581911474236, -0.5652009041467202, -0.3918250804889395, -0.28979672896010084, -0.10631256149744693, 0.06813862685113968, -0.23693671482499443, 0.2786276808517539, -0.29748293523879527, -0.29243414763499154, -0.1320036977515657, -0.14636596157859305, 0.09754695196177436, 0.05668449912094595, 0.403458932257255, 0.13862626161116162, -0.491395005296272, -0.27369565341839003, -0.13811549230306827, 0.2627500959990019, -0.2081267267801027, 0.16677605346085558, -0.07849942558881348, 0.27303351987179336, -0.4625318486158705, -0.002528707311251421, -0.2616676873376549, 0.4649325919863911, -0.20507958289073644, 0.19293110928171506, -0.6309910849495973, -0.23234435051828245, 0.568199633855915, 0.42387735836534063, -0.21663158747004346, 0.026173371299270533, -0.08283364913089847, -0.2789188848686942, -0.4353599663309875, -0.2876341958356172, 0.029180507516243046, -0.3283560052504931, -0.43599771763472167, 0.1940593624175465, 0.18092321857385538, -0.22031134384612736, 0.10454552891124409, 0.16485994016809288, -0.20984675364102007, -0.049912155196058954, -0.15013278965330903, -0.04827132676340495, 0.16560600006959342, 0.10931589349496298, 0.15700597836148705, 0.1645014415949091, 0.06260027733973059, -0.20257505009201734, 0.013451865068784059, -0.4685700714577366, 0.08132241072253604, -0.06632648489387409, -0.391395281690724, -0.07772682463501522, -0.499608940131402, 0.4064005952408868, -0.1455616729984557, -0.011722997526579206, -0.27232522615717275, 0.44486794998242934, 0.15253627368068895, -0.4118392322365149, -0.2634771310021024, 0.08197266458385097, 0.4630033480483292, 0.04690832531398292, -0.05024689302125775, 0.63149221374143, 0.04144785730031896, 0.04330341121317852, 0.054701367765639684, -0.018752468603022567, -0.4157085657756603, 0.21020598961760217, -0.2789979860148976, 0.5934035970415338, 0.04929773356793088, -0.252799923414197, 0.3155264696589113, -0.26346783992330264, 0.3057517194004461, 0.023899195427300898, 0.0738584577610034, -0.3749744859548593, -0.41185287734323905, -0.11634340844200396, -0.2999062935779863, 0.011148027869001643, -0.0414512554742496, 0.10053107909505248, -0.4284303813117432, -0.7547456793302934, -0.10094304528508334], [-0.32723804097883163, 0.6085333364648297, 0.6874941366458689, -0.655088132660051, 0.23451367977840742, -0.06406092264856289, -0.334397226983874, 0.5894846527791695, -0.016693593865542557, 0.821976091439602, 0.22477958137718207, -0.24465957897544482, 0.6718218555658871, -0.7207609923995552, 0.39900760056712753, 0.21115402183243817, -0.3225527734843266, 0.022208790263909425, -0.3868600529499396, 0.33625988184610384, -0.24455933055001491, -0.07790921472238167, -0.6183514220672914, 0.4816782339828636, 0.2582778402621832, 0.5863143022499017, -0.20104676242170913, 0.29049811148480287, -0.5701353032636142, -0.580418401624764, -0.46081027050306617, -0.1195521203250787, 0.4094407332277407, 0.6639866107211752, 0.15356894792197617, -0.15229528338494075, 0.12859708250656918, 0.45319052795709974, 0.4262206627587938, -0.16618171496570341, -0.3838433217476281, 0.40696043725388836, 0.10493727854176792, -0.2713555863172726, 0.025362571288171883, 0.16824122258564878, 0.11289679015073577, 0.2288665146010734, -0.2717823606135842, 0.0172247195139064, 0.19269738665733382, 0.5168117896755747, -0.19943073414643955, -0.33839056128789324, -0.4304358017767257, 0.4554652985108467, -0.47960524719603154, 0.006418367475495779, -0.6119414874701942, -0.3604481367379923, -0.2785637347363236, 0.12845298606960065, -0.048502943773844856, -0.0745555463734698, 0.2568532689803807, 0.019902834016089974, 0.0526332438696216, 0.36944848325848173, 0.18732469531643345, 0.7450495392007918, -0.493172973390902, -0.44548469701977167, 0.04446579247861402, 0.1635180421150673, -0.0908036432171474, -0.6525735450458628, 0.19887620555082433, -0.07387743576144316, 0.10953179709870889, 0.2742229568749324, -0.24321475224703762, 0.10305129943077894, -0.027330560918978664, 0.3295508038508125, 0.15911678575147023, -0.264571559624521, 0.16622215203871346, -0.14728557048034313, -0.42671357780442193, -0.039648745410009775, 0.30667010644969783, 0.46386118596054626, 0.22843208926764286, 0.04496783176670507, 0.30842939643237754, 0.2682142499768717, -0.1792269998345813, -0.37310665189369446, -0.21170167042504767, -0.06938734924817777, 0.0759607500006335, -0.27542764251286656, -0.09656548778432254, 0.12376146872520644, 0.14246989474122151, -0.08785719347511721, -0.8660570379662551, 0.43047261028397543, 0.017101350107675068, -0.40116294090971377, 0.4464133763554803, -0.03007081231440241, -0.5382804513087296, 0.4492513406633162, -0.1772318310216749, 0.15212401562322914, 0.3197372729393244, -0.5157843363196974, 0.0596883391565815, 0.11865599767703806, -0.21992781508639, -0.1383716743598248, -0.11039858815771007, -0.6670868508033124, 0.5919228152373522, 0.07808372270694086, -0.3340476517460864, 0.259003763710247, -0.5002655179344055, 0.254336982492363, 0.35209604028686997, -0.3410475984970747, -0.33251831310335805, 0.34255384633192054, 0.14014917192198023, -0.08993393709866972, 0.32993950720460674, -0.2408845412910883, -0.23853901793031548, -0.20196667907500052, -0.24999711332770824, 0.14023098671017775, 0.2785225219325817, 0.09319370499344096, -0.20850539802646567, -0.10788684724845356, -0.042022493260382536, -0.2739806011142646, -0.22888968825602446, -0.0016236264443002595, 0.5775056364249983, 0.4548331282385021, 0.5575371439522124, 0.6906456259526559, 0.21830037540109948, -0.3493935830633611, 0.0023916727408718843, 0.12735880346660305, -0.22238125490203495, -0.2449855629187529, -0.021212710763079273, 0.148157064481155, -0.16907813068218083, 0.00027546468253692813, 0.03987397723601144, -0.1430001676932269, -0.07936844641752533, 0.18715886044187466, -0.060274828787135165, 0.6496781287352669, -0.1215503674766108, 0.17909410454505725, -0.41022181760870796, -0.1363631988291948, 0.47543995805086275, 0.3131633136266019, 0.16046844482695108, -0.19251928590862247, 0.03920335462411382, -0.27359804730141263, -0.7474769847384636, 0.28519095014657875, -0.04697341366175144, 0.3870505268800638, 0.0819690433044384, -0.4686597445048686, 0.1583761703765998, -0.08713753069497943, -0.21489896961850274, -0.655136765080389, -0.17189165360690356, 0.337783445974065, -0.30249197253387156, 0.08506916302835774, -0.6948899816909124, 0.14222958737164432, -0.08133735868903216, -0.7170159016651768, 0.01633912482548294, 0.0350372714088646], [-0.6907110053594083, 0.4600773779066411, -0.08499367012712467, -0.07065185235973045, -0.1572622663467131, 0.1658104303190635, -0.29418639843679484, -0.1530918179959784, 0.3866592108445652, 0.12299125956589328, -0.33146086992776147, -0.023233390650592527, 0.6512646818124892, 0.2942080857747197, 0.16816611436366435, 0.07605216087396496, -0.275989488462134, 0.17143036388824376, 0.202915813921455, -0.016138434064060434, -0.5468165112005988, 0.08047564269270947, -0.5289009257483277, 0.4556339234126615, 0.19450995214881278, 0.2584380299131819, -0.057330872420661844, 0.5920553314095091, 0.4035915245880392, 0.40191122956147984, 0.09994776298291197, -0.1231566708403785, -0.38882177398423284, 0.11785488618812556, 0.15585223843192053, -0.0773631146808532, -0.10365455515945815, 0.20160058313088552, -0.4773664159347781, -0.45739614581941307, -0.5469691710446845, -0.08671701940875616, 0.31176417585494054, -0.1823033901558035, -0.5525050697391545, -0.08890937174582438, -0.2400191857243492, 0.031781064318329555, 0.07112092095059015, -0.07737570025949686, 0.15451123762684044, -0.30422268511563627, -0.49172534019041153, -0.4645264692666238, 0.6449351475882352, 0.5398108769741743, -0.1396737733422058, -0.17640131276655874, -0.13824022676068495, -0.41877231334570625, -0.2634491741282011, 1.033582613911116, 0.19207133052000439, -0.33320051686186875, 0.5914941593664041, -0.08974346553934925, -0.26249162027659734, -0.132014305790039, -0.3130291105304483, -0.05248162713318617, -0.3516646724076475, -0.339078498200695, -0.0606725989471896, 0.5442110517001582, -0.5311784099457133, -0.04578836831856654, -0.03557331137562094, 0.2825123195591563, 0.4007889688884489, -0.04360415870775582, -0.13550003054650547, 0.15245912016145716, 0.4137984789145005, 0.5864590913032461, 0.14425816915350376, -0.614811288789175, 0.252283695103116, -0.12304443389913709, 0.4595720169382789, -0.4996380494754338, 0.43213200217391295, 0.5934505767670498, -0.6753106527386254, 0.18470487928985288, 0.07285929038319183, -0.26385500208695023, -0.16444035947802788, -0.4530201517494733, 0.12174544928918876, 0.5934619477849913, -0.20789060707286156, 0.22599728557793078, -0.3151228292114558, -0.15359640903351834, 0.2675284052965025, 0.0850848453176964, -0.16852209860035677, 0.14813725845585154, -0.2998289806967789, 0.32769161031332517, 0.41380995493422035, -0.43395841450009603, 0.5701213691603298, -0.28955850348740847, -0.2864242418085896, 0.006669517335416732, 0.06483327846225326, 0.09746493702957162, -0.4099365513745352, -0.3413826011251684, 0.37611710733370196, 0.006482162106241191, 0.1287156531809586, -0.729302319341275, -0.14561063297747467, 0.6232238544416424, 0.28917874610609795, -0.23861191738786208, -0.6439207364669814, 0.8511434650918244, -0.12364782212896626, 0.3101038248259504, -0.16621933710461692, 0.46733191491916015, -0.283893429712616, -0.09737425790951468, 0.16124204841199824, 0.42690735513854555, -0.02753283106273876, 0.5804423606471133, -0.0016303380921697298, -0.11121129744056094, -0.2241518745122516, -0.5525211865928932, -0.6010971782937767, 0.2328006042830992, -0.3087177323830109, 0.17127541865599166, -0.03090535745320054, 0.1682514128954897, 0.5015807388810455, 0.002357144553707619, 0.005358242054618046, 0.21658885582704607, -0.08032905687554588, 0.43674688598731093, 0.7063735442781889, -0.47701778089098973, 0.24762127520802044, 0.31693756067611945, -0.3954753840279866, -0.7408524178388042, -0.04316913068540287, -0.3016246421697023, 0.25966658247936164, -0.5235229693741348, 0.2847165662425348, -0.26511347353888304, 0.003917374525737157, -0.17563994447489256, 0.26043131956044707, -0.2939479703052827, -0.06500561733294949, -0.21089424360058331, 0.33445350009554004, -0.6361344103205216, 0.28169880050860774, -0.0958429676691149, -0.5711053776086197, 0.3447827102465084, 0.43343372113392403, 0.15289338438882, 0.1097121354021063, 0.13119874613979976, -0.1683325616801587, -0.12767252267545512, -0.5712088674669368, 0.6812267096969575, -0.3221136953201978, -0.11956137473767224, 0.22117315662614073, -0.25551982789527133, -0.433849627561311, -0.13635922781032517, 0.037001084609388224, 0.16081957207703437, -0.26772431340692415, -0.47756148462133186, 0.14657414468515392, -0.25374647614181056], [-0.2390951701538155, 0.12392560714893729, 0.08822188546051021, 0.20170221208535852, 0.10006913515936908, 0.3119596845466779, 0.5006469397988023, -0.2623136281640305, -0.08264677980213657, 0.010779680967676866, -0.04307051097820145, 1.1483963994849347, -0.2471474920458465, -0.16467957160018587, 0.5218033519613688, -0.3838396042024039, 0.376638475542666, 0.12376136444938382, 0.15271004019244494, 0.4786936667722882, -0.22860355333310092, 0.6828198727933458, -0.6533350403181506, 0.0691290482551431, -0.06982712092308158, 0.2074248919572093, -0.2289790580824973, -0.4037269883524551, 0.23386501225582018, -0.2758978724733259, -0.43190479389276937, -0.15417573039397206, -0.5144487355710384, -1.0204022145817526, 0.08464475780424935, -0.17686033699944279, -0.5319774693671899, 0.1840223009145469, -0.9758770763876286, 0.27708325501798325, 0.1761110940967796, -0.1727089323995421, -0.36629541765904067, 0.44283425962041373, -0.38689535967247, -0.33276797999781305, -0.4504357264460205, -0.16455651854905962, -0.5978586672825151, 0.1718378036477043, -0.6477054493527171, -0.6805401232661872, -0.06662031728486889, 0.5569155858989131, 0.71670171948076, 0.1155189349323224, -0.07546756948649193, -0.08680376707624611, -0.5108161228726796, 0.07091561578484251, -0.2996049434555497, -0.24643974699113425, 0.2247662091245328, 0.29627347990071407, 0.08570728545635715, -0.06131503290390239, 0.18975499835785398, -0.0899436946031053, -0.7781235928752374, -0.005001856007684208, -0.703938632140564, -0.47795482571658743, 0.47371858227866176, 0.48839355601724366, -0.8346838893945013, -0.07982829657035509, -0.5709761375304054, -0.5237412065679129, 0.0738806478987933, 0.6606544765129917, -0.18340536241722263, -0.376949086879683, 0.017239411669370673, 0.2800243329507908, -0.33503264297057156, 0.22045034731168572, -0.22964615849326175, 0.04847778598732091, -0.036291967403697445, -1.1159400992524862, 0.4213033493050648, 0.16189708130760372, 0.15605757284752694, 0.6434703378777493, 0.5095410205600843, 0.197539510727144, 0.1018807627727259, -0.7092998865804775, 0.3520212088429114, 0.1134088135434542, -0.2996225776994289, 0.3853757438898374, 0.07396870455385701, -0.4170650483220147, 0.32027901660381625, -0.302896735869326, -0.31917979759221077, -0.09014060055201127, 0.32679088861575517, -0.124225065901076, -0.28667583325507184, -0.09696439766550603, 0.15631106860587057, -0.21203832384923474, 1.009722939630369, -0.18239778508649024, -0.37877740368815604, -0.3305285396849929, -0.35228082928385357, -0.5373229547068854, 0.08473811865301488, 0.32533920634251656, 0.18660932296698532, 0.4615117034167596, -0.46517092343462874, 0.26241513717218645, -0.33554364614964277, 0.07840360183268831, -0.43112658092902145, 0.11628784297642489, -0.31237607533632866, 0.26075338514440954, -0.08699899374307976, 0.5143469176324299, 0.40629945381302246, 0.41150595014302793, -0.10547349651824862, 0.3378035264362068, -0.19566235378120808, 0.08332471530440204, -0.12060930435730734, 0.4174406466637642, -0.04098974071217919, 0.6097710826808989, 0.15877825569178927, 0.17489766492189346, 0.09606342930643488, 0.6302193410094008, -0.11316007658893076, 0.1733521017732925, -0.17781663601727413, -0.03791675660094756, 0.15319537802874947, -0.4358122369406412, -0.4889782582852012, 0.25215076609375936, -0.1502968220117536, -0.6004830842416071, -0.5580851789041353, 0.1557404979680302, -0.35901474174124587, -0.44884995026230584, -0.3264417973143297, -0.3572738174114401, -0.04825339458042718, -0.3067037634511149, 0.6828086902280918, -0.0032086136915151337, -0.2944577431834416, -0.12877816520628294, 0.5615043995782045, 0.02086746033657046, -0.2510043431358432, -0.10690465232808183, 0.22752697222543447, 0.48731799464935666, -0.5851521483088671, 0.16516508298155133, 0.9170010660921092, 0.07396775697054721, 0.481837315339244, -0.011258673782874507, 0.5188008362183941, -0.4757080754337164, -0.021645577596901663, -0.618655496471289, -0.5110987286663345, 0.5107814641912722, 0.04477480988353193, -0.715271663653561, -0.03865225288378652, -0.17272696536920043, -0.3212588639718862, 0.15193773125560864, 0.7173834575911094, 0.858238792127324, -0.3573403063080559, 0.2704363535219602, 0.37800128172874203, -0.10636107346708525], [0.298824516443958, 0.35372534599469935, 0.31910839368964666, -0.5223037356684801, 0.23797922397904855, -0.030186159924003773, -0.2683063887739775, 0.0266049618298734, -0.01881801354919135, 0.3457575643828753, -0.13181919858088392, 0.6429577251066587, 0.5607014560063729, 0.16302296278417447, 0.6082760960254165, -0.42595865056237, -0.7780326665852307, -0.564403452637286, -0.15758156151312472, 0.0403822276219872, -0.1507667745384595, -0.14746546125571638, -0.4924152700530169, -0.13518577072266025, 0.4304866828886775, -0.22618040189084845, 0.4461292089732296, -0.1185269957823116, -0.0016507185546163785, -0.10716940548440819, 0.02935434364830307, 0.41916101518732335, 0.10131192780493678, -0.6909678694942559, -0.32069508561804794, 0.3153958834470785, 0.389415707482833, 0.16524472296281936, 0.0029684586440476245, -0.5218145857902404, 0.27083143642754565, 0.6528973842297726, 0.28452252597786865, -0.6169654416498637, -0.35405618658181764, 0.3865091858759086, 0.4160644806155958, -0.31607932922340076, 0.34515794927210497, 0.06895798012713057, 0.0772935739081971, 0.14266588254215387, -0.042903230126295364, -0.056746950101251824, -0.12188518022231323, 0.44587816589301565, 0.24485781121963604, -0.4280438775166298, 0.4155919077785674, 0.4445869597353765, -0.22442462054889367, -0.43097001140681623, -0.26816840034878386, 0.010164558883030028, 0.47852538075813705, -0.09033832464638497, -0.43699496521153897, 0.03815614678494257, 0.16088741751299152, 0.11232280598826239, -0.1349051124082772, -0.45621593529678234, -0.32924601401494663, 0.03174578948968773, 0.1549091249886233, -0.2159725868818008, 0.183552589418567, -0.1393126557468881, -0.38630425722531697, -0.3566110921901076, 0.3719909045990438, 0.10732857102224898, -0.19731596705039336, -0.4471946466135405, 0.06363600474961097, -0.5187067904972853, 0.2863196588636914, 0.17247521528842447, 0.3902377643161883, 0.26821253385374927, -0.4011563473568728, 0.09244461081083395, 0.06868165260345623, -0.36941320954038065, -0.007262073320811557, -0.04662950107598337, -0.3956169572195804, 0.43755576195050444, 0.07971133313421437, 0.008116445449624773, -1.0574692539817099, 0.10902946334624805, -0.049256319464518056, -0.435808507415904, -0.5197940573077868, -0.5148144389955092, 0.1553183580061911, 0.14267321947943845, 0.004210113820265498, -0.7834688537370501, 0.3654531863250676, -0.054130712714753226, -0.5722520883455594, 0.06509586384088012, 0.4352339818485068, 0.3500021646239777, -0.11463498230210652, -0.17929972570020367, -0.36579750630998065, -0.39408621174008934, -0.07573468073654824, 1.1360434691337415, 0.32583630690654714, -0.20728618616850367, 0.28035880127836066, -0.20726539385076678, -0.35005389333133063, 0.1837992958958115, -0.7129533111226363, -0.06662886979685254, 0.29833573690292353, -0.5477205155611296, 0.8528267114494424, -0.3161115041856729, 0.017485684399604864, 0.2887364419850021, 0.5299972885143963, -0.41189003200001, 0.361682092778534, -0.001070849546573755, -0.09155561647321704, -0.42930758978933203, 0.02654058754633288, -0.2026033188542012, 0.28014371971132124, -0.11179032164958055, 0.23519090579016658, 0.15354522294323456, -0.21842395522481858, 0.1881675350025126, -0.14950235584478827, 0.39550920508523824, -0.18427194491907115, 0.3254337688511649, -0.4316462523784153, -0.24423183434881876, 0.3352349811016887, 0.17428687234942342, 0.5130141494129357, -0.08036663956515729, 0.6547296831817713, 0.28957675015103024, 0.15981121286371397, 0.07057327187520802, -0.0240104435941617, 0.3363278242480732, 0.26346153848372794, -0.07127969567158661, 0.6299151192135186, 0.17885183810371202, -0.8529052621789053, -0.19548033186876956, 0.22788828821977103, -0.27218848154317504, -0.27450762208830176, -0.40002219380634946, 0.14427308460055924, -0.6637204937548656, 0.5114826701807399, 0.32742972143371374, 0.06804613430576359, 0.020074599611789173, -0.265364844640105, 0.11340592735549981, 0.181654085747062, 0.21458676516538608, 0.5386308816841343, -0.5363165376620864, -0.4544093042296567, -0.17568241424661393, 0.1938085583189623, -0.013778414221353832, 0.7398086472417283, -0.0404811986275366, 0.5212458620595438, -0.08923190369582444, 0.017733351550545343, -0.5477784773453175, 0.005510508119056871, 0.9824386246519743], [0.40616467728496936, -0.4219854852765428, -0.19851391579887345, -0.07576806850653293, -0.018530064906423366, -0.22563432239856981, 0.03054214369338263, 0.13728973945378153, -0.32522870571649243, -0.1065049465444306, -0.00913373560741735, -0.44746926271443505, 0.4172932449982956, -0.13121281431546958, -0.10953915489482209, -0.6042357691166003, -0.6780242362882469, -0.03740446144437281, 0.07352663806956329, -0.2707729604629725, -0.19261971760179342, 0.4507543345572369, -0.06110410303550575, -0.5981919819713349, -0.4290880003527142, -0.2659816209342141, 0.434665755053671, 0.13229363769069158, 0.27967369625642574, -0.2868980124353427, 0.40415592152397894, 0.6327638658652632, -0.03346042723867522, -0.10270670050653412, -0.2121514801186907, -0.08997594345860105, -0.1049118665300698, -0.34966795063574035, -0.06714581855338708, -0.7117966517703237, 0.27789063723873164, -0.5373750322121724, -0.2185065436649023, -0.0449988667536727, 0.05640422037659643, -0.3701872655906035, -0.25195223678823564, -0.11734724147175864, -0.12498492859622005, -0.059748676378361926, 0.2505025313313959, -0.0673211608023142, -0.549765741694982, -0.36510697578459433, -0.3697943368598558, 0.5375917413171957, 0.17446623184946067, 0.19042581262085326, -0.1156227396165353, 0.33783752362341, -0.2774657438079974, 0.08221079943718528, -0.20511447043473852, 0.11026148299457586, -0.1281443085507373, 0.3759578734309596, -0.7459644543717958, -0.4455956534308545, -0.31599677664927334, -0.41199004782646664, 0.41488249430929913, -0.3563147139137045, -0.23994538526024295, -0.24862404934935942, -0.8442254129719645, 0.11383906243811556, 0.05797958931143497, -0.679931050097564, 0.16231751417333257, -0.40273606328931133, -0.4236798801495754, 0.2968284084569027, -0.010505306559316505, 0.393919559816748, -0.09735904127995856, -0.4574008125643149, -0.5326297341019068, -0.10907769799679645, -0.2369312357547081, 0.1521859649732317, 0.09260663752958492, 0.4374531050333124, 0.3042967444908574, 0.6488550330341496, 0.1078043577020224, -0.3622501919605169, 0.42838983906552286, 0.04801088920886776, -0.8021638188690134, 0.49000846695861905, -0.05793052008774311, -0.3905191315480495, 0.44722982182504734, 0.05217155520538149, 0.2189479193784544, 0.4343011857343153, -0.11750707793244813, -0.08011052321451104, -0.12055797834010439, -0.07240962907837081, -0.20662959695844232, -0.23583760207231666, 0.21105128312886617, -0.08351140161877324, -0.7030372559424981, -0.048560206322352535, 0.24481562013468813, 0.7699258571939409, -0.27732213736743305, -0.4412578278623939, -0.06718844234537528, -0.49607923047773184, -0.2693456956280917, 0.2065269086381974, -0.22935435936765852, 0.2658133417246822, 0.17554368812330925, -0.11453812097210604, -0.03888723950603389, 0.864288729410889, 0.16370856668933167, -0.2122691001121119, 0.019196506666289605, -0.5648077940616997, 0.015440102704430626, 0.12675129109812372, -0.1192758696699175, -0.505097588701551, -0.019442939653048958, 0.8251315613394244, -0.1591799083244515, -0.1785791653750845, 0.018223718173428053, -0.020146669218726647, -0.34164119499548945, 0.0039059078817546776, -0.35638281869249744, -0.19998791077158934, 0.1719110022700492, 0.1879602239386991, 0.9038655524968157, -0.3712775733503169, -0.47988320721219124, -0.5442124294299082, -0.6234566419682029, 0.3122170350654083, 0.7925295790274807, 0.5711783510252575, -0.525509374993676, 0.16968966925393292, -0.09094363472013359, 0.3725526271773381, -0.04754097002935299, 0.3988336003443992, 0.29382152486638274, -0.29809844452126066, -0.09943145758109467, -0.007288737704010252, 0.4295466349826041, -0.06958216280026568, 0.4185615005245513, -0.3794272782830675, -0.5533268637413705, 0.12136099729606854, 0.16212170763039607, -0.5409051842596377, 0.8394265209972254, -1.1922240573551257, 0.1127278001704672, -0.07875702233716693, 0.08316706791201313, 0.2521072773262176, -0.20215112027011814, -0.5471718268776445, 0.7008971937879066, 0.039902874373445536, -0.13878308603172065, -0.004814925049899959, 0.15036019017586577, -0.003094236315284276, 0.4260119427768478, -0.24198127680542847, 0.6044778752798398, -0.7729337779371461, 0.28158973182774955, 0.13384118689367816, -0.13773174158371534, 0.4021212658232677, 0.06864540450081397, -0.5918848963960429], [-0.31345971063842987, -0.3464344676042122, -0.4026960601044978, 0.11859045713361019, -0.03688284633597841, -0.1005045039843247, 0.46479998889103197, 0.43466110752889847, -0.7162094054960343, 0.3959311578921004, -0.14084145170008344, 0.2656869915984534, -0.11378980502389713, 0.04682646864836495, -0.34016130915919107, 0.22862567693652733, -0.5876379330861895, 0.27591559958516276, 0.5374008925444853, -0.24692930333283175, 0.3896179276755171, 0.020193862522257147, -0.023269628841832122, -0.5080202392277385, 0.00039792772154243616, 0.06332820763300388, 0.0159652725235901, 0.3937222066741112, -0.5305481796494453, 0.27968533685137004, -0.6182897828305912, -0.17853889917206994, -0.10862209925337761, -0.12467140316955853, 0.43123766077741404, 0.5783934091251445, 0.07473641451376924, -0.3705207895772147, 0.6049277431604736, -0.13259400835256668, -0.45994798133907816, -0.653152106383228, 0.23654871868461244, 0.26772869370920843, 0.49224424837478353, -0.11409811902852177, 0.6286887585122846, -0.2826210212876336, -0.008390974045601903, 0.32809388869940515, -0.7437017739466393, 0.3797734170650975, 0.39946466574836276, -0.12028568024911582, -0.3373381911436035, -0.027315220407692666, 0.09109449180426087, 0.5391172472802269, 0.2681589730891736, -0.2869854402331667, -0.32878013747423096, 0.4251508103090164, -0.0072823675506488925, -0.16414990039208802, -0.044976433656525386, -0.5001439080170557, 0.6106478111053735, -0.4065929342407215, 0.42121822040901585, 0.027913254147472293, -0.24485892706033027, 0.22855715188039477, -0.09340486887514701, 0.05361006684998979, 0.14124655433464847, -0.04293178977465101, 0.4352768892695388, -0.45964872136940527, 0.22963850594305052, -0.2485641079567269, -0.29322722798819867, -0.3544875984752435, -0.2863100583368026, 0.26455387405009767, -0.05426757570013777, -0.23829432005019405, 0.27683295407986724, 0.06040915681908222, -0.10245278927663307, 0.02060711637760664, -0.08453057112372149, 0.41541557290546766, -0.5670629926885472, -0.0034335427145572176, 0.06375902646540543, 0.572104605028616, -0.5634536030350927, 0.4540122868019894, -0.07477801397383603, 0.2989974707053067, -0.3411752755136013, 0.19968908203507452, 0.21286103918324567, -0.41471669506009445, -0.48861236054774737, -0.08177041224962049, 0.19203415158242032, -0.23334471033945667, -0.0669427445741557, -0.23485311861773464, 0.03538499334191742, 0.41309476709933357, -0.0022061893763909014, 0.0035128939754817306, -0.17353094468263458, 0.25162640238900896, 0.11219259568337132, 0.1823096288259483, 0.5025297609408825, -0.14136704611562062, 0.21576311751737096, -0.028044248623901043, 0.12299709837689005, 0.09341932471465554, 0.6523540389120641, -0.21399338048013689, -0.13696361399250379, -0.046519523815724606, 0.000584693718960771, 0.11331654094338778, -0.7464310293218326, 0.5341157775582966, -0.022374959579220317, -0.23176853501466604, 0.10513788024084796, -0.20813744716844576, -0.016092560486705924, 0.03904030227488895, 0.12050376550988001, -0.04613760276329116, 0.314340786514203, -0.02005862618631452, 0.06438921230081666, -0.18665444640830417, 0.19726200342880496, 0.19471316873910066, -0.07672288036992309, 0.5704378961508327, 0.08522404764235272, 0.7698134182846237, 0.03314835774735017, 0.379973004775377, -0.3024502626751351, 0.13043303773245543, 0.23094380437323386, -0.09396373686830987, -0.8117415152967113, -0.2652582881677902, 0.5039321479123817, -0.27356617214512435, -0.21227981330451368, 0.6934464037139074, 0.3049887096434768, -0.36187464349835874, -0.431279280187447, -0.3925372710985572, 0.17178157860575352, -0.16724679293403416, 0.7270438363491085, -0.12497782117939066, -0.13813240653883968, -0.2537590931293955, -0.4425840606326616, 0.2716282956264374, 0.5861216320570372, -0.22177689154830035, 0.1498189421062863, 0.7450396203239799, -0.1788949683450419, 0.3831545997659025, 0.34004440269654634, 0.5691264388364173, -0.5521931652374891, 0.3129873501562236, 0.1783624521794075, 0.4648127675666279, 0.21119725535510978, -0.008517575483362813, -0.17845369942987954, 0.12256201237357074, 0.12604432868472668, -0.7520099569797655, 0.4386653431706866, -0.44786992105468093, 0.0017321966810303078, -0.09282546119169172, 0.22540567913642998, -0.08306411180584941, 0.1758570568461526, -0.2302655091472266], [-0.48150234797720387, 0.03248771905503924, -0.03125209798047427, -0.18102739341244484, 0.3851740726963081, -0.06221609491285482, -0.2585656383139698, 0.14860822316722924, 0.377181584126666, -0.34157357115821324, 0.11882379384431911, 0.3160200068057146, 0.05881754526443378, 0.0846994232799003, -0.3192181904587903, 0.017783367630527527, -0.5185618124577754, 0.07350835956407843, 0.8303972705834329, 0.6832831485599834, -0.21127608355746383, 0.7716891745866375, 0.8297859088934487, -0.5773910882948261, 0.27286239579375976, 0.0368156151375667, -0.5264695809653644, 0.011293284371356287, -0.3803747016098802, -0.4377037678385713, -0.2498371311032289, -0.38671016465570135, -0.13882429127612075, -0.39125657619594945, 0.5999292012025247, -0.31260751131614695, -0.4150072428862876, 0.07757028397089137, 0.5965869500128227, -0.463301471615797, -0.09639913283255674, 0.23920225462170489, -0.08004603809854391, 0.04082663611125218, 0.332018793136314, 1.0942045799235652e-06, -0.3012243556477916, -0.2630798081836172, -0.1420432832316701, 0.2123465705340051, 0.45738067065802024, -0.28164536090188325, -0.27151110102554643, -0.0970450349146133, -0.0068499741702558615, 0.025428096772278214, 0.26992529334091864, 0.27776935601112474, -0.37600170390031296, 1.0142264639102059, 0.2485463694494636, -0.17696741972072963, -0.17314099378975473, 0.36960468151577375, 0.2956596731066167, -0.12609064418283616, -0.008910604220903657, -0.30363610226344456, -0.17456729434192475, -0.2007773965589938, 0.17021270974758043, 0.18188181449151442, -0.355571393972226, 0.3048290701752366, 0.022429136975447617, 0.3750030375236423, 0.5326982809419492, 0.07616166884691083, 0.016148267551970956, -0.2399066808969602, -0.33633481802777426, -0.1570352151917725, -0.1039355948523936, 0.26942643926515814, -0.3203514068584948, 0.25784178192609536, -0.08726874004252949, 0.02750005891644105, -0.37331196407793993, -0.7223249782669514, -0.19173441744621483, -0.12683518338254735, -0.2536182971019733, -0.26314744397805, 0.8735422689974288, -0.2973903383702955, -0.6126501667946445, 0.06235856130328493, 0.03945558778903719, 0.35136263985658334, -0.5520339027402493, -0.008881723364827709, 0.2580941899125147, 0.0332139332893839, -0.10784175815310368, -0.1428328933674748, 0.05215250815644138, 0.1056642229706719, -0.05621166992665545, 0.03741819606212375, -0.21077698169153147, 0.15239190728003654, -0.7198357851350312, -0.4558511361812482, -0.06970780892064549, 0.14957261266405228, -0.35866534446414533, -0.445310076340015, 0.03929445381141754, -0.15112349325153948, 0.0931144159985842, 0.29802247722326586, -0.2951446985727264, 0.07100495649563845, 0.5787347498822388, 0.3460116747207397, -0.7633466844703731, 0.20856629533532853, 0.05682074228518543, 0.49629768552503983, -0.3803274588639602, 0.001887498133428764, 0.3690338089608812, 0.34247957962549624, -0.39260196077489473, -0.38544598547886194, 0.02454527672781677, 0.32948546021089914, -0.4831045426942552, 0.35320862948090875, -0.15405839137972716, -0.4308552231706495, -0.44816267714900665, -0.20494694134219615, 0.48408552022651347, 0.05015951989744617, -0.40578650151581247, -0.25338795411337933, 0.03265120089097483, -0.025058917312105224, -0.2390096383308001, -0.2472731351963184, 0.5764761245995956, 0.547103335422397, -0.29318497832258283, 0.3186849405226399, -0.30340570424640445, -0.41910821830723, -0.4399862801728949, 0.020825132456429262, -0.05701427424845525, 0.3418392610569703, 0.2974133503475665, -0.011647677885734781, 0.3666893371143986, 0.05716912094847534, -0.2729563481114686, -0.5509334424426813, -0.5971791498946495, -0.10354336705558548, -0.07770626092939154, -0.4219415851850315, 0.11543890156900338, -0.41357985685853477, 0.5913335983937305, -0.14440242290055155, -0.45774463395895887, 0.6000335037661747, 0.4589565810649328, 0.19618703334027163, -0.21647215136643655, -0.17716607889664468, 0.6672537200921657, -0.1815475320107217, -0.16528612763752362, 0.5427099799776127, -0.23172991730308487, 0.5348931879164551, 0.2339769625516749, -0.12344272124791666, 0.27895919779098616, -0.3246276512109628, 0.040483039416193085, -0.02605671545710461, -0.2018807493761402, -0.34981584206305594, 0.0406172842980929, -0.24098317340158334, 0.312360421697252, -0.12019745050889977], [0.16952537347149188, 0.04050836568781166, 0.47274986277708797, 0.031066820701884965, 0.08081254230122134, -0.12217012119515142, 0.40455843974944067, -0.9714310399764086, 0.1018477353041382, -0.2297723553669213, 0.05594367853718403, -0.39789400107733136, -0.13731999399604983, -0.5237105147446928, -0.5587404990009542, -0.4351956122254524, -0.7909584385033192, 0.10965753909455304, -0.02131018111214405, -0.08419322135132717, 0.41019183189281955, 0.4636419215796383, -0.013844532110789731, -0.4537579770283741, -0.47985904984807465, 0.09512409138601823, -0.41765009973925415, -0.3055655717692852, 0.08937454155533371, -0.20888369031547346, -0.4488721996080598, -0.3483322417542748, -0.222784611869855, -0.3321473775285405, -0.0612252055496483, -0.47923936899546143, -0.08792242053782814, -0.06892074705708222, 0.11296571548034837, -0.1706130481853339, 0.5809652500412269, 0.31126229782122905, -0.4500636497425899, -0.0231166831712883, 0.11481576574374248, -0.2605859274458047, -0.1023724429318616, -0.19687386515720529, 0.06299552383823476, 0.6084233337268907, 0.6487625812780413, 0.13356060847722367, -0.6498200458195907, 0.08574667057802161, -0.7324197835215859, 0.7072511062420279, -0.2992633726758761, 0.22166223954104258, -0.6195935079721295, 0.28847735559415033, -0.015246183924223913, -0.18826531601003266, -0.2753456152320995, 0.1457020613013618, -0.4030856476786261, 0.33031948541463535, 0.5063017061733381, 0.26294044125889926, 0.5055418251489562, -0.5555128813317652, 0.414726907654851, 0.3998955133146036, 0.3954637958961939, -0.061900659432067975, -0.8081425368031218, -0.007335109622143785, 0.12448010622449442, 0.26250903330578973, 0.4441334462551628, 0.6395972324922926, -0.5235203951509324, 0.27717178628525596, 0.3472816731199581, 0.7402777513001976, -0.35863177383236217, 0.47144915605256665, -0.4655971801241064, -0.02443137764541471, -0.17164069872240809, -0.19603292528672434, -0.17118654877631526, 0.04955773715742773, 0.6964730922800321, -0.11539755544697648, -0.01748866993505663, -0.0037111404194320875, 0.20617453014933343, -0.7347854847333487, 0.8632298640538753, 0.1904236551712997, -0.2331120833086515, -0.04965365027232979, -0.027332301341598555, 0.009227334962061729, -0.027172578773603018, -0.3399706141563611, -0.16505924627548607, 0.054959848194689756, 0.15879118808734988, -0.1468837332243936, 0.11294054960322213, 0.01096549062595167, 0.07235951953302326, 0.09531876833941397, 0.6775183898436993, -0.1337611624593948, -0.25188340129700465, -0.6958266169447216, -0.14499823596595646, 0.019397291635621858, 0.3774824096643468, 0.28526687496368824, 0.17885820398507524, 0.18207720908786332, 0.2856037769397777, -0.009516048164742639, 0.5419836569687998, 0.3462937573597795, 0.000107117826833764, -0.2231698590492522, -0.2354852559139861, 0.2981708965908942, 0.8795426832836271, 0.73628405131832, 0.11773675278194647, 0.31307513516260405, 0.25860423071555694, 0.41843918748651265, -0.18830621711994555, 0.06590968737017425, 0.0616597203451267, 0.6470839303244001, 0.0016041716600044234, 0.16613434847451866, 0.04791179674714406, 0.2684927955849976, -0.5874668589295178, -0.347123761911446, -0.19499629166307275, -1.0678825729792725, -0.032475485181133315, 0.27218796733217593, 0.6263798300487562, 0.3474569210593898, -0.30751409576269784, 0.34135837930156376, -0.2564570757433996, 0.13817581963934994, -0.7494218736140956, -0.3060050563770875, 0.24233919587150513, 0.26711000905568455, -0.23374135775915944, -0.07003530136642434, 0.42457966076215553, 0.07307655946733271, -0.2845045704567553, -0.23940865928379648, 0.0055888428591839906, 0.13589843128976062, -0.43738112823889636, 0.10569605402557991, -0.4553071717937588, -0.25465586415462066, 0.09650599568664985, 0.33452057694362164, -0.5223658073212958, 0.46334714458223314, 0.48672828761584314, -0.4444321393055432, -0.3900204177152868, -0.21169303609198997, 0.32618982675194824, -0.22686047289288366, 0.05545947767531688, 0.28621309994090943, -0.07123668523420483, 0.55242744994721, 0.47379726581455556, 0.029685124297226754, -0.01774102507556159, 0.014121848595937327, 0.11538970251558735, 0.8065112100719014, -0.5500304949169286, 0.26607413841138805, -0.4438476006672793, -0.484201677677597, 0.2892017821946593, 0.015041661716128751], [-0.33262962079185765, 0.12940562940166894, -0.16775140031965596, 0.3032453811145392, -0.28424248184411016, -0.06331087547973213, -0.6519164256268218, -0.2784552769790889, -0.3447591526230184, 0.5440386591383276, 0.3103607518167879, -0.14228099082239645, -0.08692400488065, 0.24937783045874054, 0.21660659808295712, -0.026357131060389616, 0.11785087237168204, -0.24374912601776563, 0.18791082064551354, -0.4931111186003729, 0.4530495532141462, -0.5036163322398663, 0.7279729704492205, -0.1133775904971838, 0.21284351998770074, -0.0444997678878106, 0.2417560748510085, -0.47615988752504784, 0.3590882655934912, 0.2980068125215705, -0.21306921910273893, 0.3111061411074977, -0.07795681237896873, 0.12078548378534423, 0.8927854938898406, 0.550082723257529, -0.0046742394535914345, -0.2901797393455564, -0.0014668380779271296, -0.8623544795926358, -0.10899740511551259, -0.5518418331625843, -0.13313697100415953, 0.35852693397421603, 0.6801700182422188, 0.15328223173682806, -0.19177784193501193, -0.39584309938031587, 0.20254769366876596, 0.8080750525608461, -0.1494591539723756, 0.5556356733986152, 0.39665361599752835, -0.2990503571387179, 0.02624505698951324, 0.7300708587964975, 0.46889790631814243, -0.02043742781283072, 0.1311725820928131, -0.4162245908632584, -0.2171497254677072, -0.32421065863443843, -0.4612545595341849, -0.325883821067226, -0.3865630846539913, 0.6083460605738283, -0.6635160965962213, 0.39597992621080996, -0.030216311264296126, -0.240747147235851, 0.06325592437292968, 0.11914140327718337, -0.13343821887027169, -0.23873591103705222, -0.19198581229231385, -0.17004867658740538, -0.2321170071763996, 0.3793613861032205, -0.2881186698301692, -0.0892260460239949, -0.0026544740909511906, 0.10469291436420222, 0.06322057070942748, 0.1600150411860104, 0.28569811924156524, 0.7305411821124784, 0.447138498289876, 0.2206936190283826, -0.33484233050376494, -0.11734350494350328, 0.3483968324920756, -0.08854838474604279, -0.1576959635092882, 0.6309235558885848, -0.15543059597901274, 0.04598297636831116, -0.7635476096448651, 0.035802499188327244, -0.524526299991691, -0.09514685483969865, 0.3184767007756253, 0.3497086475955692, -0.8226839482692169, 0.3235476849996181, 0.1075318976393765, -0.3147095761833819, 0.026142597015307772, -0.0013639113495955814, -0.3390293693886126, -0.6238826019346824, -0.20943554727282596, -0.22131036595536374, 0.22156779185223005, -0.18422068698104585, -0.6678801061439621, -0.02360119902723832, -0.07912710344443598, 0.21555247865847357, 0.11492281792624247, 0.1497426519851656, 0.20079087706972257, 0.006255875595290898, -0.4477960580796459, 0.2817773597579594, -0.5145198586361133, -0.3147107996561676, -0.27431787088842297, -0.020978886359865934, 7.831336616994738e-05, 0.2353290898366355, -0.8596571247961656, -0.11660589938847224, 0.40911582983436173, -0.37689822995423033, -0.4602410290233018, 0.06065423916292262, -0.27459028209181896, -0.11796496550140224, 0.36007254159568447, 0.379915417013851, 0.037593750735953085, -0.36786197588028635, 0.24520275954790569, -0.4470044261276217, 0.2218543077854947, 0.16512994800674693, -0.07018996848938139, -0.5615939167353245, -0.14259709338413756, 0.4082851181611033, -0.33090995554096675, 0.013384083364692623, 0.36254670927262983, 0.09486434704735754, 0.16809177734862568, -0.5007519950978764, -0.5628772612108293, 0.3161220732762489, 0.29922664104416524, -0.2205147827508606, -0.1861464632525248, 0.042269668453735046, 0.38593232425622986, -0.1686492647466306, -0.2940529784593803, -0.06064178329693463, -0.6128327302887602, 0.31106892559451893, -0.27032939584965776, -0.7189787044351693, 0.2331656357783794, -0.008521169375159565, -0.19756443495704934, -0.09475793178655574, 0.2729453196079628, -0.3000476941231446, -0.287473355473483, 0.0847293601391928, -0.9804765807043117, -0.09157324879380459, 0.21012855898627472, -0.23106595557549184, -0.11230740142544807, 0.06091473899694556, -0.2173650259082339, -0.08159030124501819, -0.1012358372116361, 0.052841357364854104, 0.21298152806759546, -0.7723344134669183, 0.6396757395474699, -0.27515652379906524, 0.35037424618591434, 0.009472160046152948, -0.13181052222400916, 0.20805109718651252, 0.0579099872248671, -0.5738317422364804, 0.011384906263352269, 0.275825474198102], [-0.138238894905768, -0.6189155134753309, -0.06745923049468253, 0.3162185985102125, 0.3997436038130879, -0.13321255456380449, -0.32820624611150545, -0.5726039993830552, 0.5390614054446526, -0.32912732448973314, 0.5270214000293172, 0.030830162788332473, 0.06806822252025291, -0.1743325217607657, 0.061960743322457795, -0.43871966444487853, 0.004397398643608808, -0.0022063493129883677, 0.27087482936880247, -0.2570892986915774, 0.6511394823744376, -0.2640502564957574, 0.17237591243540176, 0.3750914965385408, 0.37824471008495153, 0.02154020710753105, -0.22485556692414332, 0.037916876138023504, -0.15455623404143196, 0.07487727460056628, -0.07608784087988832, -0.191514436345644, 0.24760025124092735, 0.18957870967606366, -0.2908468984051898, 0.5240090694778987, -0.7582217097518823, 0.2756532796269332, -0.08330165307157579, 0.4059138613777541, 0.1041210943481514, -0.263534373421528, -0.03136834006066616, 0.005564146519556993, 0.09511094624377595, 0.17336731875185385, -0.3638589482458932, 0.016506541544521917, 0.21945282636587476, 0.18446461792725266, 0.43873105030688225, 0.08599351428204388, -0.43237762405552244, 0.43971195844171035, 0.12141556381468736, 0.8157972817994296, -0.1576524196527016, 0.5205806140338346, -0.17094497643057865, -0.4106874312505773, 0.4226322037405825, -0.3658812713344859, 0.3890991297703917, -0.03300287025218996, -0.045618699546748895, -0.13747494815728276, 0.2129230812494166, 0.1539465941439707, -0.26545337716090545, -0.0009504141770944192, 0.4345208201999806, 0.2342993632005939, 0.2174067053148951, -0.2174293365123608, -0.5260512119543491, -0.27756442822713123, 0.4693078134273588, 1.1737597931488613, -0.23351100895846122, -0.08873203501638614, 0.13197763170719148, -0.32844725148224563, -0.04108079480552292, 0.3733222544975126, -0.018208127630237006, 0.531146119897166, 0.07059097575682248, 0.13897039028554628, -0.7692436506561632, 0.09768623285496413, -0.22948774540709999, 0.025488974388330185, 0.012018369908869833, 0.1823301558887143, 0.7765980419679366, 0.22501889948741396, 0.6586017124449933, -0.08297343756657677, -0.4342849383998488, -0.6908604551511668, 0.08145187753767591, -0.07663856661812561, 0.37449201700523554, 0.5297013034667741, 0.45823929153446585, 0.39811002803018375, 0.25742860396958644, -0.5151367624173403, 0.2899875067814523, -0.019537902351056444, -0.022688219060094796, -0.36260728583613183, 0.1224929553826348, -0.25501787813141064, -0.0035702743109843394, 0.017463682358517522, -0.4849891045135776, 0.05745663281006474, -0.32958215043174255, 0.8965623309840172, -0.6184425682400314, -0.6400276189975361, -0.1307212967533843, -0.04024044571734259, -0.2924875919592757, 0.27640903465291583, 0.2930217513274945, 0.10851142885010832, -0.3305868653988512, -0.02982927760373724, -0.43450407907171973, 0.5746181167709198, 0.25490607834079204, 0.2350090902401256, -0.31007169747666474, 0.2939522668747275, -0.0657905355750897, 0.22983086432253141, -0.21658290345110312, 0.1022889569236977, 0.06196826024760339, -0.12717932595621662, -0.21386322112877043, -0.5441789812228903, 0.4162955236995219, -0.23607442003245616, 0.13117943786982872, 0.49435207363461287, 0.06266200056683865, 0.08288064332660115, -0.7110627080722137, 0.04959233503570731, 0.1793248862802728, 0.09092654036187757, 0.45936255113982943, -0.09203077262099227, 0.046620310125186464, 0.15908734010135825, -0.5539062080220291, -0.16280220797364386, -0.23848717923387475, -0.17732707436333767, 0.1423623787016882, 0.06856580553903914, -0.17231418056287917, -0.31154195724874145, -0.1302529071451418, -0.08108688171729463, -0.0871046561868754, 0.19844480960685323, -0.1330651925278223, 0.19265398333774708, -0.6185997033881055, 0.27176048755424087, -0.06435728793274079, 0.3283053615174419, 0.12967517138039772, 0.029741997340664402, -0.9489719289308579, -0.16167916013110292, -0.32445103663583313, -0.14198779926560168, 0.1261908067282107, -0.061614799157685446, 0.34078015753881474, -0.4950410590373598, 0.07362882996375812, 0.2008160808026719, 0.5397148467480296, -0.8064007766595405, -0.01613455267871122, 0.006555590715471546, -0.2105994883164718, 0.8640268993963897, -0.4018426854268049, 0.4583091796930324, -0.4633796128000765, -0.3142924063714807, -0.2711994240877801, 0.3214318140040037], [-0.010770179187387298, -0.044661059982746214, 0.22271733750288494, -0.4763247294666183, -0.01917726917842278, 0.2995697094653106, 0.2662210845398227, -0.14994871606451785, 0.006476556949489139, 0.00034140097811520055, 0.3000535357365109, 0.03119318809286113, 0.19420830393284733, -0.46868390421950196, 0.237896155095132, 0.08257914938951229, 0.31722703947721753, -0.05299339559260368, -0.057868197738932564, -0.07520075627321592, 0.5024265182351768, -0.301449053418201, -0.48371829953876533, -0.03762610162391593, -0.2089656243939166, -0.1674272340545145, -0.2995939645606371, 0.15487259627908198, -0.008734221505889775, -0.1590157306745714, 0.013752656108095895, 0.2240130288649074, 0.23309487119367983, 0.7407682015595769, -0.5098024601373459, 0.21133797433645715, 0.37782629972573384, -0.23860419561596022, -0.21384512906915693, 0.48898525199895587, -0.000998963230524472, 0.24019308568883516, 0.3878586269788091, -0.38426617637456945, 0.907778473063136, -0.08175510022334899, 0.27626379988470434, -0.18702008098565936, 0.0032841463705105814, -0.22600101831066122, -0.006545320632429073, -0.44295600685044284, 0.31733217515290874, 0.32784768633847133, 0.41219535591950635, 0.5309600154844673, -0.3132917044764825, 0.25707280555487405, 0.21153293578263357, -0.2701938271959599, 0.6381683398241204, -0.15441088455772467, 0.2651802195193959, -0.1658421017726886, -0.6669132159143528, -0.8523450432931381, 0.4103142529361892, -0.4782709460669428, 0.13790825247080152, 0.8909093114739827, -0.48589053592050113, -0.7104618312357736, 0.7145637044035946, 0.5131222901629461, 0.23313805967243179, -0.5203994359985542, 0.6044688977883323, 0.20588944378920226, 0.4635141132152688, -0.5255194593902875, -0.5811761080312352, 0.08339740904727806, -0.4139078887161433, -0.13318392823293843, -0.2652886403899854, -0.14543167606953422, -0.4807720705068489, -0.11159909594884472, -0.4392100357888838, -0.39295574904828695, -0.20126673618254284, 0.1732786220035301, -0.400487665105701, -0.12045914300333548, 0.0065321753008915, 0.2423599322072901, 0.6667641181565691, -0.18095643075681267, 0.6301342782076935, 0.5153958173630931, 0.5718016090140394, 0.3046822946242493, -0.12178300093012276, 0.403493290343475, -0.26811505134280356, 0.3322609576674316, 0.2495757491723364, -0.4596825906170359, 0.3007404603381781, 0.015263084094527622, -0.23802140090191926, 0.12507407741156587, -0.08314788858686077, -0.348401978070727, 1.1105918929620298, -0.3615844977377823, 0.2937694151637494, -0.04801356205090868, 0.9209214716268482, 0.3009585850302719, -0.016736419025219114, 0.5120976311981489, 0.12822280214851822, 0.09386226940949538, 0.09856290415567291, -0.47875034469231303, 0.42840627904176704, 0.1863678051855309, 0.5312761886276959, -0.8233662458950181, 0.19098857151510698, 1.09698719894891, 1.0026909437212947, -0.25113445186356465, -0.3336275485371726, -0.07924825316179257, 0.7419161219127716, 0.15238812491640424, -0.18154726536263738, -0.3043258964380163, 0.14705735402902712, -0.1576156128763408, 0.14286190364560314, 0.4582964052129878, 0.29155822723423375, -0.2518667250748221, -0.7318105911172295, -0.3797549205345513, 0.43533123966480525, -0.10596439211739382, -0.4217064890594657, -0.10406834808534583, -0.007399937989731526, -0.34322782764514626, 0.006452336013672309, 0.42520051174421186, -0.4908320694067357, -0.6532610491143253, 0.2757968009714662, -0.11315423439284786, 0.07517836316874094, 0.3532751605830656, -0.2402924071726472, -0.30849111590733225, -0.1458907641552076, -0.19856309151738583, -0.16767635407397713, 0.1360371252602585, -0.06652955129556189, -0.2848201464050396, -0.12824449033844254, -0.34109894632728366, 0.09650982545907488, -0.12805463874952078, -0.21839670214718554, 0.3792264149065563, -0.07112626821676608, 0.9085601319116003, 0.5614429922167576, -0.3364388646339226, 0.43178078180889157, 0.13609356520404717, 0.013933262244971831, -0.047316443067224954, 0.15508410771793055, 0.5571654545395799, 0.6132155298253508, -0.02684012384051176, -0.5289219625519436, -0.42049491032753633, 0.8330631235226664, 0.7007485983550945, -0.10964417090225123, 0.06597040002383682, -0.08065713346880674, 0.0400467784247446, 0.7676934492718698, -0.33805800510378237, -0.03695685181079554, -0.27959942410312566], [0.6810885505384754, 0.20901607412647816, 0.06555293475787476, -0.41390720604899556, -0.05339966509995755, -0.17628928708600075, -0.31833900649102187, -0.010552843550652299, 0.2014881378441781, -0.3165225126521009, 0.9271421170479105, 0.04044895495341108, -0.019189525061145962, 0.17509644907684818, 0.34655071594567327, 0.03035818061830565, 0.002180211599206789, -0.020007980334168948, -0.5059336501529906, -0.35045867283462595, -0.057760014540950255, -0.38454251844882203, 0.20539889962810445, 0.2809901415228112, -0.0827480330481496, -0.05315483190385472, -0.2863820373171008, -0.5964437056802024, 0.5834410766535568, -0.9614525074421932, 0.909787719731238, 0.38407699568692377, 0.0471756761650508, 0.2197446349948078, -0.25548765382356053, -0.05798486580989758, -0.515794293313299, -0.12084156541164803, -0.06484591709388512, 0.040775483181025106, -0.05797352999521948, 0.08499809626945685, 0.17296207995839072, -0.16993522302362088, 0.25540338762652465, -0.22060094142696043, -0.13091757757626332, 0.3917318775446489, -0.053629262467387105, -0.15409073403881937, 0.04236794456113017, 0.16191275873625421, 0.055892576294340114, -0.3304968967203369, 0.28363916779833415, 0.15924382747105276, -0.15303660654799753, 0.2192657064081754, -0.2866847489435741, 0.06712565524293343, -0.0960966093967569, 0.09841446984258745, 0.048752297546134846, -0.3851894453851852, -0.021041947598580826, -0.3340683763647875, -0.017529256252068, -0.3367364935398267, -0.0964878639218782, 0.039168830408853966, 0.1372423413683494, -0.5894313330445895, 0.11366638336027049, 0.042805867118989135, 0.04961517805085028, 0.07731659939128743, -0.11287162048782551, -0.0894952246872679, -0.2796092185510784, -0.016257939851967013, -0.06308361818923922, -0.05337657587030046, -0.264279047315414, -0.46732053743751084, 0.2292386014795082, -0.1985604713903328, 0.4313464328099041, 0.19018377819183122, -0.8116039387314957, -0.2194425466814864, 0.2137889578472176, -0.43070386298430824, 0.8922334911690754, 0.1737452808676908, 0.015301646664259842, -0.5230306376412377, -0.154263767534992, 0.038917293207243006, -0.3097543006048565, 0.08269060766785506, 0.09249889560308942, 0.36527629578555265, -0.2981011455814198, 0.04866305895130551, 0.17157227563088787, -0.10220721497859311, 0.5185679001486844, -0.29927323891810154, 0.271935621011326, 0.2817037596346778, 0.18881069517818191, -0.002075942311990081, -0.49023840300509625, -0.3268568717394419, -0.16990530974266374, -0.4981008394707985, 0.5348510662616093, -0.2701525051313371, 0.10180342430874516, -0.1384011797983862, 0.10126795120475812, 0.37706008849931194, 0.24916920159046574, -0.04647782965742059, -0.03697583259665708, 0.10348693222746469, 0.09297978818543652, -0.0965400717371904, 0.16697167838948176, -0.06673850270107613, 0.3786121302617988, 0.610511371325191, 0.1692549101418486, 0.33736382477839155, -0.08553966722218533, -0.33105482532239594, -0.15340753891523132, -0.14606002351483233, -0.2823531027091472, -0.4824454604877272, 0.6047400888412713, 0.08088698473685337, -0.5633345356114906, 0.23729186147890036, -0.14392564829673177, 0.13203126604569992, -0.027708199941162668, -0.2391653618546671, -0.18942187028638036, -1.0837842673124516, 0.08956790075856724, 0.14425505928218377, -0.1777016175297699, -0.35187801414663356, -0.1418492532386293, -0.1455664291879429, 0.06059071245287905, 0.012018036008651672, -0.09288072223636126, -0.34724773162125294, 0.24382738865551754, -0.04964008494675856, -0.049432215755432475, -0.02032691506833185, -0.4380098288055801, -0.12161225095968231, 0.33945782647793543, 0.6242990273622678, -0.24554053543218796, -0.08506214073762593, 0.08667827880313014, 0.04260172148342374, 0.2443236763906924, -0.17543519941777921, 0.14814728893471138, 0.19757249176127062, 0.15022581545068633, 0.13016340003957158, -0.37086026205376604, -0.07108642009777114, 0.3805299916509637, -0.6017814885736458, 0.5745033937175569, 0.09266697182909495, 0.3085840125598351, -0.06456700377292872, 0.5889517316093894, 0.14957630635087915, 0.5925341046280074, 0.1818073517969292, 0.4303932817160814, 0.034944898574878584, -0.4061868010215948, -0.21866299920164226, -0.6416416761383417, 0.25360560413050987, 0.10140235064330248, -0.17460753979076366, -0.46983934282261086, -0.2801881888288527], [-0.5104243754501187, 0.4403917140614827, -0.35606742117807383, -0.0073630847475179804, 0.3565200013229929, -0.1495449987685829, 0.12629240973614472, 0.12250239946603689, 0.3712050238679514, -0.08656792777233893, 0.11285255321036564, 0.042296135289261134, 0.13346854674133632, -0.04961070989496718, 0.4893937822835835, 0.03974987685711862, 0.25380918362841975, 0.6254688852948374, 0.17941845891056676, -0.12262564868282672, 0.26973601692765015, 0.06827877243142981, -0.10730538949606287, -0.31485388585140284, 0.18884364766779455, 0.23652620969340415, 0.30333619259514844, 0.42367895287053753, -0.3669771929860624, 0.2413434714732557, -0.43194777151146513, -0.05098793328428492, -0.14816574860865547, 0.48911266517673246, 0.1295330885399019, -0.39072388854380974, -0.4277744418079076, -0.03847078312006105, 0.12471371345848281, 0.1157539117760674, 0.2666764699862823, -0.20975720310287388, -0.32821629231481864, -0.03552562833517755, 0.22067182379982492, -0.8224226104287375, -0.2645371537350007, 0.11240775878671486, 0.50646542090127, 0.2959045245877615, -0.34135892535697815, 0.8089768993842995, -0.6006223383129752, 0.16658473265368945, -0.4426163630598707, 0.4464366442430817, -0.12483526999482322, 0.7297530550460899, 0.486522608259895, 0.0486751566963504, 0.16696302645316874, 0.1573254341541527, 0.31935746762229206, -0.7068101879707479, -0.055863859992263364, -0.026431927358230915, 0.20404343544877618, -0.4162657951204033, -0.1261282458132305, 0.6310317225567106, 0.7798967654780831, -0.17119821630775883, -0.06127142799609672, -0.9347925101460377, 0.04907246627236033, -0.1543196221077262, 0.12225937743017763, -0.32626546025031744, 0.6311695664898177, 0.3059482476827445, -0.7664355778284071, 0.40510761257764194, 0.07566765637808838, 0.21210069424880565, -0.5080606198276421, -0.07289610277985427, -0.1212522733102801, 0.0065976235909432, 0.3758774204846963, -0.7014950605487879, 0.24773314666455945, -0.12357487703197223, -0.011134345822766064, -0.03524679963081466, -0.030340805274459516, 0.4138449988129801, -0.10346867993521806, 0.12073753313270222, -0.4416314182562952, -0.1488891576389675, -0.611814731831992, 0.2875001105531333, -0.4545855203548843, 0.30795077336918847, 1.1592255566367302, 0.0703393334836888, 0.2674743070965233, -0.6267437869200889, 0.6899078473847832, -0.4472649388293264, 0.3424961699606428, -0.5724237572858384, -0.044664993400502034, 0.33270933151170984, 0.059082669317941455, -0.1520763884717993, 0.06434467942648392, 0.25408075619324044, 0.16171869596652047, -0.3750087366387775, 0.38530834283018733, 0.022742270928895962, -0.4456126751989036, -0.060741500088882794, -0.3056515461023976, 0.10222273891595995, 0.05260196826661956, 0.7073013003325442, -0.1582247681532439, 0.3254961123455815, -0.49871749951464517, 0.4628845280695243, -0.4375495954441177, 0.08590339806341253, 0.5239688733550654, -0.14430571550271076, -0.13214588087724155, 0.2290868973610487, 0.24782193109157621, -0.6465061051113097, 0.3245948842389992, 0.6150306334026042, -0.1697674608711321, -0.07350468698637974, -0.1960020610661821, 0.06901158813333587, -0.19839474194461054, 0.31809327382485325, 0.045131626111149035, 0.2989170276657091, -0.9812726883693941, 0.4025332956559397, 0.1573879627254882, -0.8960221781275033, 0.7455148344884606, 0.5796303600385735, 0.09833772061263489, -0.04032109856824262, 0.4644940692531042, -0.11632890226389916, -0.24634274057784095, 0.22490329741040896, 0.25946796760945046, -0.22876576367880225, 0.04718596952549587, -0.336048468422661, -0.07107472707492588, 0.31267279620465044, 0.2945222359607721, 0.03418078302359409, -0.03442250202187911, -0.1812194470949284, 0.14302089862455633, -0.6045295673197097, -0.1264252205575193, 0.1742757076202104, 0.29373426233167316, 0.340627537744314, -0.07663899205410565, 0.09773625731587507, 0.9165773463621548, 0.040430858924815426, -0.10493705437364417, 0.14849103532419589, -0.16843750842049268, 0.2770673698673981, -0.3179446303889255, -0.13930020791474207, -0.14138744125265523, -0.14481430625434566, 0.23547446993829527, 0.07495873734736917, -0.2637637044892978, -0.4650870688432856, -0.01621435613698628, -0.2773177007141551, -0.5234757367662524, 0.43352621904273336, 0.5912493337093956, -0.26380484040807217], [0.5056187897136079, -0.05827265632558699, -0.5820195307405138, -0.03170083600638409, -0.10983432399394417, 0.01506811876579908, -0.1999712291831502, 0.10932397060457547, -0.22021385918237046, -0.1836035496012713, -0.3192989971457196, -0.23382486473337696, 0.3970324974361194, -0.21679540182838025, -0.08593038636311988, 0.0020863836757065877, 0.1092318532565522, 0.012519009741578248, 0.05228778005461073, 0.13375412341064372, -0.11480748677848437, -0.15763961243994867, -0.2750068468499242, 0.008601427761186812, -0.22569905175160332, -0.13910432249641153, 0.4389511536056466, 0.0370138655110116, 0.07856441664399162, 0.12260338615081211, -0.03940579497977844, 0.06253267598560922, -0.2036050620667572, 0.34116724632024836, -0.6444247535104201, -0.12179262723117924, -0.6879290559401643, -0.23172854175559887, 0.014211982406325265, -0.21349415530051466, -0.08309940195655424, -0.023873384065036567, -0.0017891072024812933, -0.08944041335028591, 0.5761560931818558, 0.08771161021563542, 0.09724981113595318, -0.10941404889191127, 0.18231292102344676, -0.09315088404949044, -0.25082406465656554, 0.47461594618038233, 0.4418669400953057, 0.27837208886466824, -0.7959778134132294, -0.35477526632595846, -0.28023103145496997, 0.7109572605435132, -0.29253057868168814, -0.0027121571558020893, 0.0003484722281316783, -0.15425299422236033, 0.07154798513779442, -0.12875219522042108, -0.23054234228747922, 0.24349702651225816, -0.2760951267341126, -0.11879196011544788, -0.353154898652191, 0.3330289999806374, 0.6964762168450076, -0.0013183354963217859, -0.1594645123842071, -0.09907410461850595, 0.21683097582869634, -0.15114661254485565, -0.05470107735422989, -0.09222667536270024, -0.12381644779458952, 0.4349365820115924, -0.17684847234866594, -0.6575914919859505, 0.4693942215024688, 0.04557423376082601, 0.19135027247878755, -0.09343316305508312, -0.25065004047418843, 0.17946614074852635, -0.12126034804564545, 0.0528911229529107, -0.20825662955060179, -0.049195556071149636, -0.16259336938092744, 0.14171018432798996, -0.24363918150021008, 0.3164812577827358, -0.012586421765419624, -0.5360328562940738, -0.7327830358263808, -0.22796122043599232, -0.32937200911480047, 0.28907264908589536, -0.4953073103619816, -0.18560432306007862, 0.3392785101174163, -0.3874212927745489, 0.10553200873097188, -0.17267609557326685, 0.3388903915150816, -0.31032566446684523, -0.26237114726204736, -0.28221304958559196, -0.13650092296994895, -0.6516544457111575, -0.252691278845128, 0.12321171764699115, -0.4879977311970746, -0.5429643539600246, -0.24586199179014856, 0.26132825013774286, 0.16735993273598462, -0.509351330690989, -0.13322818609962314, 0.6689886805956528, -0.48887196419140216, -0.4528727490006378, -0.263772757577447, -0.012644605554636425, -0.20316209521357803, -0.2586902706280857, -0.10041779750780579, 0.479528859763137, -0.16185726317386567, -0.12507214241968054, 0.26034873619938714, -0.7654683937160112, 0.08155645269987472, -0.026551623561893323, 0.14834054375357875, -0.272390751195241, 0.5808629305652652, 0.21361481670395732, 0.18780970585575213, -0.19904983166706652, 0.30452195611071653, -0.09656418890721483, -0.07944630568624891, -0.3251087456861015, -0.3566259962216773, 0.7446953432326268, -0.38497746912972985, 0.37282445140557186, 0.015109814802154163, -0.29284369403940097, 0.20670681804738877, -0.215646130247512, -0.02121705071369082, -0.5783345672599196, 0.6260778188447652, 0.5318564403909739, 0.05864007049639401, 0.02416677869468577, -0.16727432985050486, -0.16637203612768275, -0.02546944447575234, 0.4290629273173024, -0.14088555762726404, -0.28901552002646314, 0.13496161704777482, -0.4222720112176795, -0.23252575261022035, 0.38781553420139614, -0.030050719065078443, -0.4171060251606259, -0.06470975140227177, -0.3384825667993406, -0.022810341665898067, -0.04780337858487665, 0.04289663212822704, 0.23779793613688946, 0.15375950493537802, 0.4252741888373086, 0.07871080339063961, 0.05561043603568701, -0.4482969020647059, 0.2911758462940957, -0.20605716272103394, -0.37086094048907353, -0.6577775392204617, -0.08843564637493098, 0.03562568638520372, 0.14893856921982437, -0.09505714671618727, -0.21788308164216558, -0.5574893243066436, 0.04419138119874809, 0.18883422329267405, -0.23730369739532767, -0.40145212669745944, 0.0748570194341809], [0.31770076767005534, -0.08005588548622854, -0.16522782473172326, -0.0467888087743062, -0.8383000292236777, 0.24793573192875862, -0.09785051784465544, 0.5458642660410311, -0.4435789503418648, -0.07049024853775357, -0.049294456798841424, 0.35375562236042113, 0.1557717741553965, 0.26612247480870715, 0.06918813501946029, -0.49219181237885656, -0.148178409519701, 0.2964278812837349, -0.18104687905313827, 0.40254914004865766, -0.07697935085651889, 0.307615944408419, -0.09743353219552174, -0.028150527087916752, -0.021283042977428602, 0.054206244820338076, 0.4001542610327341, -0.11717784563855874, 0.16019680875843376, 0.4613797115111039, -0.2732836644034321, 0.15730818195971255, 0.5816140725611222, -0.40625246667035203, -0.14216186021879001, 0.21801509416110748, 0.501577230422536, -0.5373193402098393, 0.30715532645673055, 0.16984516769720767, -0.1893524668395913, 0.3561322931837915, 0.057863529516204014, 0.176631779436705, -0.15655707363546656, -0.062287973065067996, 0.005282227738490119, 0.09524098908832522, 0.28218534094434516, 0.09959565408081089, -0.19382753273842263, -0.6360054655383883, -0.7118766570043954, -0.121135204664847, -0.11939735228175373, 0.3643081515893105, -0.3628936597739071, -0.19977532145703886, 0.098196916077467, 0.10655545689122875, 0.20873241497271572, 0.46012487155657894, -0.04138895439574321, 0.35020431833547144, -0.5582879669457217, 0.06585927178945555, 0.4121020431747926, -0.16543676339014268, -0.08038817415602215, 0.8010271996041162, -0.026963889774344097, 0.16065090352555453, 0.12856213721958443, -0.26272574867878173, 0.5677117591385632, 0.33013838507113774, -0.10725163535728797, -0.5560805386289043, -0.2370365164054902, 0.26272012427410985, -0.11637069555820082, 0.170679117373116, -0.734735216382797, 0.6019387647145616, 0.06864230456050319, -0.6392593489802126, -0.26488967459503404, 0.32007284883724285, 0.23961533777307656, 0.1340356205435779, -0.05071215858168095, 0.35821683316295166, 0.10457014903230293, 0.28007311202275836, 0.3874083368699467, 0.21009755903927718, 0.18895845872185849, -0.008173485044460799, -0.36234679592136976, -0.04722004754786629, -0.20824125442262167, -0.022374409258292687, -0.2776046870099774, 0.032372175421325915, -0.3661967364259108, -0.6642692464738355, 0.24214274603702374, -0.34649841015006755, -0.15285410318689743, -0.49358047519179177, -0.3725925320858838, 1.0399424882860688, 0.0019598622787050527, 0.448880275990059, 0.07348533751072084, 0.39549215446698965, 0.17182620786916536, -0.12134053759375454, 0.09202368098395487, -0.49456947161162995, -0.2301837956607361, -0.06100869567644151, -0.2758386525385577, 0.3518150081587234, 0.09295046692075569, -0.10598021621295753, -0.31096684213242454, 0.11780855999361842, -0.023388656607384914, 0.19984397972969062, -0.2885024103398562, 0.1100756156072084, -0.07962214357302379, -0.14171353223983774, -0.051265547325018083, 0.10358325395340276, -0.16857021262443184, 0.28355824326929435, 0.09264988888644436, -0.543143451928842, 0.5154757466659805, 0.24478252599083095, 0.21697190837798097, 0.07111314799308996, -0.01786751769392356, -0.09840160599996821, -0.14457283937046211, -0.3785208509426651, 0.5029419087701976, 0.6712567294104304, 0.30316516272488686, -0.3504870190262862, -0.7244703988356459, -0.26936544115386646, -0.020760273703138998, -0.019426130316473576, 0.09305341604712088, 0.01777486688309578, 0.20959760323026222, -0.3085905340833535, 0.29577391186247576, -0.4529859538614202, 0.2447525823587451, 0.035563589648788654, -0.08886788926315939, 0.35170539201925055, -0.3725138882687497, -0.7314204562363398, -0.18866578903588782, -0.23145587793864297, -0.8101122923525779, -0.2996568339689094, -0.09945298309767411, 0.39021680676811027, -0.6574539734522156, 0.8386717721318029, 0.02629083482948361, -0.028999872772388094, -0.28539903022778423, -0.05356947399100877, 0.3316235243546107, 0.3074355588276333, -0.1623433322994544, -0.06566646445614177, 0.01870559039511449, 0.12335918453786213, 0.5208388758069905, -0.4625313461227964, 0.12333150521246632, -0.18906379712709526, -0.13611593611059022, 0.37226698777661676, -0.5364326576924647, 0.03433056495512309, -0.359406944033765, -0.7499758404136988, -0.3776005739580313, 1.1100815705835065, 0.4358105665219472, -0.06636182764703155], [0.166009289810151, -0.08584801846942769, 0.3257729188906024, -0.3641134579761403, -0.08117208027399125, 0.33756538292670285, -0.015473655178570555, 0.2928048822926591, -0.5347301570549273, -0.6168166383882752, -0.09757805416886856, 0.09915631888771517, 0.2204717368544033, 0.35819322852715013, 0.02860240022996613, 0.2748297078801231, 0.3299684754355868, 0.28559920913138714, 0.7235243442809738, 0.13904329197023568, 0.004680167282266754, -0.6678799100409722, 0.3669720756672905, 0.3409699051445098, -0.5160884178849561, -0.5158665597984188, 0.4983998496156067, -0.3014992986848431, -0.3860819435698651, 0.07069913550575187, 0.5763229809868, 0.43100632071316836, -0.0061984184804838565, -0.048511601762443894, 0.3807298171439463, -0.06844768708244431, -0.03437724350584973, -0.6155091884349266, -0.26669383524198614, 0.5057585212191317, -0.06963890093198918, 0.3612882412546872, -0.4835667728586655, 0.04230453534950707, -0.060155142131614284, 0.2003873031720273, 0.42745054794379417, -0.09682426483945653, 0.5860650188224152, -0.5766290202180906, -0.1890714942767865, 0.32385129189412065, 0.8276585727766512, 0.31634867591965815, 0.013289861883271904, -0.5275353943109523, 0.2735746727982737, -0.10792104736495181, -0.04085769739649913, 0.06896806657517625, 0.15745023130017488, 0.27631196525612256, -0.303835526232413, 0.05710679308696124, 0.0496207634225676, -0.12844977917772746, -0.02524697465191103, -0.1650239017784356, 0.20004423483923126, -0.010869011409134996, 0.09536291091834055, -0.26026760905784524, -0.13922574139790567, 0.11906285320930722, 0.31645665506629844, 0.38660075586997455, 0.9200230074021744, 0.25211356881559516, -0.11546503396232598, -0.22427967851492034, 0.2203112507719165, 0.39052685974911233, -0.1536704229184355, -0.3665197163683524, -0.03769252777995211, -0.09024141990244958, -0.09682038327521483, 0.14929664393001935, -0.012468239393879678, 0.11259027731725571, 0.08164833502269236, 0.09670285043481823, 0.1493364902150498, -0.10388236805142867, 0.24954203008785988, -0.18481600403226386, -0.20995559799108396, 0.5086912693122801, -0.18558332538233152, 0.09251507418533966, 0.6226533052964854, -0.2533998122915231, 0.14552648172945853, -0.24791718345801936, -0.6789782881450671, 0.6044871975902152, -0.03613644064993231, -0.3061383647038092, 0.3034996473297117, -0.07603171600285516, 0.1144363935296544, -0.09654524524014105, -0.07090885142153705, -0.3961882062082146, 0.16695518959235375, 0.5671763159373739, 0.15340140929335824, 0.3148903398744104, -0.01760424944506063, 0.06985051830327822, 0.13750582084202037, -0.37385214705035075, -0.007965590565270976, 0.4146362934525593, 0.7541533817027976, -0.3152868062345482, -0.3185138355496553, 0.1069679769177515, 0.4590627007688943, -0.47515115346429815, 0.4565919041173838, -0.2099489658988969, -0.1452852809844091, 0.4852274443851159, -0.6974548403445745, -0.6384472388689371, -0.11599084133327901, -0.24726592681565937, -0.17336510453848034, -0.20189901790174428, 0.07195769172339359, -0.45215506995424576, -0.9105257014027291, 0.41053834625537966, -0.12210458232587582, -0.17961457367702766, -0.4635181035042629, -0.18004712426666697, 0.4577524280237463, -0.046662548635138745, -0.2255578668300014, 0.235534280175173, 0.02485091720685571, 0.3112250069030706, -0.3110008903350761, -0.18189336543846124, -0.029706638051556253, 0.37193474338530474, 0.270899766734387, -0.3260036563773314, -0.12405321118883937, -0.5140787979746875, -0.8567959588005695, -0.3053852247906341, -0.4505784741211263, -0.5097531941856742, -0.3157521591944864, -0.0698651014824979, 0.6467073265037738, -0.09185994569427271, -0.2587203828897289, -0.046464299442827595, 0.48501865357238894, -0.06018272853425525, -0.3998099573655654, 0.010581457977041579, 0.7888768893777894, -0.11698672072112978, -0.5484920192603759, -0.07621196744222392, -0.4962039119845281, -0.5884802675345007, 0.34620850944509396, 0.18973381763583644, 0.0347143672922343, 0.24295358449733795, 0.06899129351272808, 0.12951762022397245, -0.3255116938198101, 0.32499367267356233, 0.5382973439512139, 0.194433635929765, 0.2243515523655686, -0.18165453517855878, -0.4128427101994588, -0.1863909378024327, 0.14581541536731027, -0.3731316773813854, -0.2884626703742479, 0.23079949254658502], [0.06216358874956838, -0.11386466642300043, 0.7457713781623068, 0.038936206131835197, 0.17201040887498462, 0.28180742286737825, -0.24363353604136376, -0.29985307592987953, -0.010723853202076467, -0.2843773766231545, 0.12403214407834168, -0.006494758636727532, 0.40194618121556824, -0.18415133344603088, -0.6275764578780318, 0.2474361535145826, -0.3230064262895639, 0.42201676923839215, -0.014142845730804973, -0.26095517815682717, 0.40764868628964374, 0.3930479470802075, 0.2707637113298651, 0.4761509698296735, -1.1868550173709063, 0.34574337091397594, -0.06373971147705473, 0.19517245973061673, 0.015250490669647995, -0.21961956042340317, 0.3672587700629141, -0.17819903503425819, -0.2678805130766502, -0.29000347745809507, 0.22607845296101334, 0.050189543214254125, 0.3853584453095343, -0.4921160519873123, 0.17580899018412768, 0.3769108043962169, -0.3091404441893507, 0.3901190848198775, 0.2418190620189169, 0.05349196511355599, 0.16313086361050375, 0.4442586373781172, -0.13134752828668, 0.411294112894801, 0.012728061324361302, 0.44749525979593296, -0.3936870271960952, -0.19785495357911817, -0.7731272003491086, 0.28120438696948885, -0.4297092869333767, 0.30917707489699525, 0.05845339661679007, 0.20628119332904785, -0.14670525567127476, -0.3565189170975404, 0.219310569374758, 0.21547720919313165, 0.28638537953571963, 0.31318030599125274, 0.0764834611260547, 0.18734316124484565, 0.4404504869930421, -0.3632059001355287, 0.057028539706904524, -0.1938534189435102, -0.10415013916161833, -0.43741094769784183, 0.4298429272092851, -0.5333839246737331, 0.14701151689421527, 0.3778071954355075, 0.131276924487367, -0.014414694387277837, 0.1253139684501907, 0.608099444920668, -0.25838503737364615, 0.8420849739170214, -0.2250267668143884, 0.22189085093857577, 0.38643895889892765, -0.2460007384560786, 0.4550299981649425, 0.2134153343312732, -0.42471185364883046, 0.07512301863121715, 0.4308664233413706, 0.285962694943974, -0.47095393847489564, 0.04939861661963763, -0.03055756780087271, -0.46633321105917364, 0.41636809227699995, -0.17013007483936166, -0.331461371605389, -0.49196767272294517, 0.10331631624113634, -0.34514250497236987, 0.07582633668169728, -0.1770908847766231, 0.09960463221949394, 0.22748433542205657, -0.4674694694153256, 0.3186612248490974, 0.03857956232386564, 0.25590683000525444, 0.018456045365066225, -0.31711583863468357, 0.9709766414134425, 0.12171972848954157, 0.5046895637901668, 0.1288925993439974, -0.25764754164179215, -0.3284010305009731, -0.3178106894805065, 0.3314630245885195, -0.1281309956553253, 0.051133970151882334, 0.4067538515674563, 0.39868841443275466, -0.19670816827846296, 0.11938646471384042, 0.536761152782045, -0.144469295610059, 0.011309400206330648, -0.05983129561476738, 0.10897282186115295, 0.41208781950055406, 0.8312049990559429, -0.26159050403204204, 0.3769104025846169, 0.43927783234620377, 0.3899444443028192, 0.273982807864781, -0.025047451004625493, -0.4788791516564067, -0.04701488051676198, 0.06084860767118873, 0.0006220583022209806, 0.9480716913191042, -0.013469078553366964, 0.2606049208637648, -0.7679079947117894, -0.2109605597647727, 0.27663855883018235, -0.04003372372858772, -0.19303037764959832, 0.4090960013611207, 0.19364227866486292, -0.332639801956229, 0.021427062466348283, 0.7581149187557183, -0.007953660529174133, -0.1492303772407167, 0.07322261834459366, -0.1386551451192478, -0.009046141452549736, 0.22176094204348487, 0.6403240656403093, 0.41215675771583776, 0.034715180801681914, -0.12796157109871822, 0.4670840508141416, 0.40572315756554217, -0.056482772982058775, -0.3923395230911645, 0.012428242367070526, 0.17600962754916147, 0.24605866485768588, 0.21109206175074868, -0.3900169590030736, 0.002899903286389267, -0.06886952093958998, 0.5935846425118975, 0.28963758594874217, 0.015020415371425712, 0.1920718681465066, -0.09677582797576877, -0.1235012903096555, 0.469563064206086, -0.3542035233275437, -0.654560618233708, 0.023863302640968392, -0.05516544194448481, 0.276423253245062, -0.28214427099157857, 0.04309987956774887, 0.2973411385165582, -0.34326164347802207, 0.35883396746929036, -0.4494999777744218, 0.622970279473952, -0.30010335689580586, 0.2784737050229519, -0.5647331170795997, 0.5988559855186932], [0.11489293283136619, 0.5259157341580822, 0.055136962708800336, 0.23495280390255444, -0.5072933582683502, 0.04013595621091932, -0.21181940399096388, 0.8014210284692131, 0.39380128247308244, 0.07554600038226475, -0.3054876478747892, -0.12642819859172474, -0.06567939348709567, 0.036677218143108176, 0.1406891349641571, 0.07176923232409496, 0.856844384198816, -0.12139898288708613, -0.26749203309720654, 0.010193936134611337, -0.11882084533213629, -0.5761456857498487, -0.057776157134779293, 0.48127456180927936, 0.18002791599496307, 0.5791909779151049, -0.05201869927486384, -0.04198966527884008, -0.9733027353444265, 0.5221117855241054, -0.46087745985639744, -0.6755071193640751, 0.18476853619981842, -0.18980187476632512, -0.38864791799343584, 0.11736389974848979, -0.30094819273882384, 0.3401909270162102, -0.2771719808864033, 0.82401109795435, 0.05020335257250324, -0.46544000513332523, -0.28917476601167824, -0.4533749726950807, -0.18774778772406248, -0.3173793613731832, -0.4670752748712111, 0.6834433668794935, -0.026165360771969157, -0.12848428752244934, 0.5084328996266009, -0.48783836293727273, 0.8981423179059005, -0.07576862817010489, -0.26286021582972513, 0.1307418645271086, 0.37047961482600306, -0.06893824347316337, 0.1697628214127657, -0.1523130857803025, -0.3063246307487078, -0.5597729785834772, -0.7041970836710857, -0.47635333936387675, 0.24306034346031843, 0.17272276624856997, -0.20405655398185554, -0.16856907301641436, 0.05708499174753471, 0.42695072436771897, 0.08680357448213995, -0.0436180385388336, 0.11942627971007318, 0.24973113101838712, 0.2319186111797627, -0.008700022077229553, -0.018684377568121736, 0.2313340226573322, 0.11677064786699012, -0.642060451973559, 0.07947075245594475, 0.38036609308318686, 0.28082198871171954, -0.0006932391607395729, -0.46554593281533857, 0.18660031466054203, 0.07996091472337596, 0.609455002059992, 0.23472523684478738, -0.3783278315154815, 0.4247317573942025, 0.34826267380809245, -0.8601154966625651, -0.48910915490998497, -0.6123352147077423, 0.3438096396869176, -0.5612682278695339, -0.26024822026113104, 0.061088164598320324, 0.24606783942246002, 0.2005766876072657, -0.46318295294564543, 0.3085545335926835, -0.2760089088518549, -0.21584684922888125, 0.10062659403975091, 0.25636041163854634, -0.06641728961923159, 0.04856700412643237, -0.10918403372099081, 0.28248510904211577, 0.32853253750103184, 0.494029326068977, 0.031671031162712956, -0.6578698512826782, -0.23686087913360268, -0.169868991859669, -0.8516062369485627, -0.03233481922329465, 0.16502075232607755, 0.0265541828314194, 0.3570263603913035, 0.8593269821207581, 0.2627153602253155, 0.37061537481651585, -0.3443482676453276, -0.515738925590298, -0.18801019900558022, 0.41342474999186135, 0.8406326259280106, -0.5528695303644054, -0.5791427543066097, 0.4573464691927881, -0.16839527596859963, 0.04805636481728164, 0.02115816745825757, 0.5412792298765768, 0.10742902077309999, -0.18149458686829567, -0.28685204383271556, -0.34952668304752355, -0.13552530264032522, -0.08160484491429898, 0.2555144703962329, 0.2511681842986031, 0.2240106112250349, -0.33048900060524117, 0.39427170232139297, -0.049766737355399215, 0.1071699779385391, -0.662303514383587, 0.12238775382595261, -0.2807437921248317, -0.04612447945084455, -0.056494455068074774, -0.2616203749821794, -0.0941489317047898, 0.00445511653915195, -0.19845125993458293, 0.055825572489305066, -0.5293733625027374, 0.06040978686961331, -0.3223116764445183, 0.344668669267062, 0.1873042211704529, -0.06982168276230591, -0.09146724536371477, 0.22966507937352026, 0.05435224419032729, 0.0764920166034933, 0.18379690015020503, -0.40145014439818955, -0.13376777969995723, 0.2313997957824322, -0.7334943360804265, 0.7003769275228819, 0.1726094259839885, 0.12531233623947977, 0.6255344103971456, 0.27802328314637503, -0.2321352964248314, 0.08936204995322887, -0.14412666029490234, 0.016341850475209824, -0.4468540328819125, -0.21416110564920215, -0.24449229540876866, 0.24746009337605657, -0.4436299390456288, 0.13311825468521296, 0.4022451553462175, -0.11933556282783252, -0.383146579212448, 0.09826266185558308, -0.09921496726710352, 0.2790912842340182, 0.2201470433037106, -0.6492575427001087, 0.44148075434997874, -0.2766521969501003], [0.08144495698746686, -0.04398700933242625, 0.020189420442205855, -0.12163682007078293, -0.0700047417618182, 0.007417936522828222, 0.057831847458951424, -0.3809846236087352, -0.05351927727946077, -0.06564151337070818, -0.3562114407869335, -0.0746119042581874, 0.09377602272294908, -0.46511574729625965, -0.46669057892774973, -0.09418231605730767, 0.06935535982006853, 0.12845455348714188, -0.2756758340303564, 0.21152239497760192, 0.0737736447098645, -0.23185681843855394, 0.3291308960178588, -0.5299830464681962, -0.20637683675608182, -0.03693582237250622, 0.29814348120222584, 0.14401505178379678, -0.35121558533878855, -0.5397974273260292, 0.5921431311738832, -0.3887487215460487, 0.28490885351657474, -0.04380745966739653, -0.6155522233322072, -0.2391187845348051, -0.32946107687332776, 0.17007621741235524, 0.3677447769924389, -0.1304543921028641, 0.2320833847220903, 0.11391191102574386, 0.1723257490359891, 0.06641934307947031, -0.44077020277974943, 0.20648866762806517, 0.07607166059216627, -0.2848789877021058, -0.02041070144384714, -0.38807949683758597, -0.28721754788902193, 0.16473179825186623, 0.06484251435759317, 0.5361297506992183, -0.3746314668344354, 0.3017117561172911, -0.32377213217689504, 0.36622177627559355, 0.2777981609639862, -0.2505048216133604, 0.17355164866879627, -0.023011900527927065, -0.3933476365364066, -0.5624507226211847, -0.1533366609851939, -0.4203554278244861, 0.14299609201992317, 0.0014311066592253368, -0.11845365880889513, 0.19202675231185465, 0.13279609643396495, 0.041572732519155164, -0.11904579815846109, 0.3668843142902515, 0.02494811515069835, 0.13907088956146557, 0.09411337889561837, -0.22821909763624776, -0.30086175246946906, 0.3144841127609072, -0.09685205277281587, 0.08156216211419516, 0.5635808792954126, -0.27369038048025074, -0.031852551862472656, 0.26986473048047976, -0.2513717458306986, 0.030524392509025857, 0.3587669334345169, 0.4638676550693879, 0.04405395838645321, -0.10279932962866738, 0.008356365610910958, -0.0024588820440875673, 0.03866834978747023, 0.2608708245340698, 1.2521656674675783, 0.17618346318391345, -0.45573281819675304, -0.22041253366979108, 0.49908762868082485, -0.5337892852626906, 0.24713318603198445, 0.40014431275416174, -0.027101487946221612, -0.37039880185818225, -0.3499840494779174, -0.009764937691044952, 0.42878026329381697, 0.3617991925411571, -0.2692664023445105, -0.045900678023256876, 0.11125051906479394, 0.2344409560913426, -0.3017445905409167, 0.27679019860704007, -0.022117031735415658, -0.29826446399451817, -0.4224380487915941, -0.06265437553605342, -0.3407560224387373, 0.10050779669700677, -0.09814245110700663, 0.11671486838472361, -0.08532140070536391, 0.5240978463969647, -0.1774540098723868, -0.5206648733255519, 0.02783330227514424, -0.09880110059367339, -0.22265496638887639, -0.17688002128453165, 0.3314107075368198, 0.16339474065005255, 0.34890134668897044, -0.35944523190129485, 0.0451168018748977, -0.06429796828252003, 0.1972778363608147, 0.10223618652852223, 0.32042024757377796, 0.06425521259271609, -0.37675703786764886, -0.31638171091024525, 0.05630538300593908, 0.30667550749863515, 0.05332827543279158, -0.029030847545192844, 0.17374195926526673, -0.0046212169269819, 0.24897986354971233, -0.2477692806191252, -0.46630641862028305, -0.2865826617132781, 0.019059287187095715, -0.21048411255936256, 0.17893002376775557, -0.015469841632007448, -0.15536442595564215, 0.45898277687482364, 0.0610527006019802, -0.6099962285019265, -0.5145765604889916, 0.27587331174294616, -0.34214584538510284, -0.0638062171417953, -0.1502851547414719, -0.4224211085363086, 0.08883600661583581, 0.17340771407339667, -0.3851460414551299, 0.2224772093276604, 0.39211126543852726, 0.32238129114357533, -0.09085346140677357, 0.6206575493730744, -0.11180617476046219, -0.17622971200660875, -0.25783931447456915, 0.11835143724216599, 0.11194084178736369, -0.03381113788490112, -0.03474158155510749, 0.025026347166699957, 0.08073142192657638, 0.27074361981833645, 0.3935956821233722, -0.0043354439880053395, -0.13349024690274897, -0.17511413983730897, 0.1254083975212807, -0.35628638207083596, 0.4369598135226211, -0.6886278791334247, -0.4389366446099895, 0.20540203212625696, -0.19002914817946032, -0.9781363544526729, -0.32619251426384466, 0.07097070589588528], [0.22593753507890926, -0.3249661402748665, -0.18844160482504535, 0.0792044551882661, 0.25212302660507224, -0.12558076832978676, -0.18675127531974586, -0.2810479524666179, 0.2797838022919439, 0.246834271304264, -0.867481748103573, -0.19418389254449392, 0.20165304776727463, 0.06423821441627868, -0.7325412363735901, -0.00770596822225742, -0.6288934172025334, -0.07406157772061189, 0.036396221628396494, 0.007196297703856773, -0.19904642180743273, -0.33613171619911353, -0.26368029642699947, 0.3794870936871992, -0.13597417524367417, -0.3192058271253786, 0.6562699240825411, -0.5686115941480366, -0.21246732843336766, 0.10134938263653066, 0.021187931841037885, 0.6243292663878421, 0.23577435473543898, -0.29585048275934633, 0.3565418328994252, -0.6786959344973448, -0.5054410359991204, 0.25147540733794765, -0.26571450222541465, 0.0585662345919881, 0.16926136037279177, -0.09402919240614582, -0.3164327630152906, -0.3338889586350138, 0.058743318687974194, -0.06184072782854413, 0.09715034715974101, 0.7304256677975947, -0.49423324850535266, 0.05634957283154174, -0.32266846488258916, -0.2525474511879366, -0.10525942395024798, 0.49695660582444723, -0.48650718746845545, 0.1901983570691692, 0.2591264372596158, -0.13922920301682423, 0.2171560832609649, -0.02706505138411242, 0.04221607852686983, -0.1395716060005001, 0.0718538058170189, -0.16449990704500853, -0.3423505459303307, -0.25341324241590213, 0.46620039191957174, 0.4110356890770687, 0.2503233615115186, 0.32460863259890865, -0.6311751575798772, 0.6546629903484293, 0.08635971780657138, 0.20970155063062396, -0.0692930438965656, -0.442449252458804, 0.25266419384096067, -0.6451730410131271, -0.22617920220040588, 0.06479390276170674, -0.29934061377106097, 0.2208534499898318, 0.03473467626423205, -0.4740567871042754, -0.17882590370559648, 0.23988099011185254, -0.43473248789129826, -0.7628713384316788, 0.6071033071135826, 0.2655992678488212, -0.19638947374273327, 0.12454507288363005, -0.041756358112775664, 0.10657213248006324, 0.2618282572004604, 0.2168898656153132, 0.12277139202764537, -0.35167928543393057, 0.19880855451270968, -0.11042665274348659, -0.8272271781534206, 0.11033325102969951, -0.49007829365131633, 0.26542726086372204, 0.6255684379263167, -0.2534910921602919, -0.3759586196555082, 1.5260107449520055, 0.17932538668912007, -0.09501983521215288, 0.015411915921979326, -0.20490601130736233, -0.04788172050402558, -0.38667037199673693, 0.3104687320963549, 0.24449116593694337, -0.7440009840232443, -0.05156371418198721, -0.16034397712124682, 