{"bias": [[0.1539291547606075, 0.7536140565590389, -0.622204029723818, -0.514811650918307, 0.5361670241167174, -0.043840935599817776, -0.4957038616499795, -0.082971135717213, 0.07964053527006626, 0.12621786463409793, -0.8272934020227459, 0.3467323347911861, -0.080103965118802, 0.37722867394502163, -0.03341953934257643, -0.017313806349383287, -0.021939064618769558, -0.09565696757318512, -0.5580432847512421, 0.5761150855028055, -0.7299985531672153, -0.1759825718946819, -0.4021171664405683, -0.12547790942120707, -0.16812859905001734, 0.2011284315936085, 0.23426376562409967, 0.6532513058900165, -0.01200786775325521, -0.0033622530360976244, 0.23933769112493614, -0.013367638005337596, 0.30267650881617886, 0.4699255706680285, -0.1510023115342245, 0.030711208649743055, 0.1331960240235059, 0.7995093417962106, 0.2859883651144517, -0.08391862441085064, 0.5192694201967534, -0.7084804435268717, 0.03478664940262269, 0.15389562288056224, 0.5088771656753865, -0.001044018488381278, 0.05293709246713368, 0.27596043814784504, 0.0862168080394266, -0.5788354076180123, 0.014478205030344702, 0.6024704222850487, 0.5703213148487107, 0.5571921607252783, -0.05531024488651561, 0.14523808288922513, 0.07693624214280549, 0.03139643042401934, -0.41266435212608904, -0.2424033405893345, -0.3323221751448026, 0.4124515658714474, 0.35823208103897847, 0.19979230720874286, -0.48369678470476923, 0.00202758133171114, 0.5629375004845951, -0.00020443790743278448, 0.026388703054877415, 0.7840346583258908, -0.14841029974348516, 0.14994436267810385, 0.4298792171368995, -0.43762751380832643, -0.1619812035827539, 0.2684840448783674, -0.141042467593274, 0.2048278572940663, -0.06258005760146042, 0.12329850490503039, -0.17362867482516, -0.08037718656798831, 0.18856808794808655, -0.009149632868201548, -0.15204603162863892, -0.4246399889297639, 0.03118292946203098, 0.18210623582923144, 0.4495938991543953, 0.4197578683046618, 0.006814337362509328, 0.7247188733109948, 0.3662853906921176, -0.2918388968712243, -0.3452424104211157, -0.21926290930365827, -0.5044865631151314, -0.6806101782157942, -0.16135784032578007, 0.5561813921147745, -0.3240677366908161, -0.14023999991865954, 0.621913550008451, -0.47204329519717614, 0.5531321502336736, 0.0024886579548186426, 0.7073680274729879, -0.02419503197838478, 0.18263538958690917, -0.39926568243551813, 0.11352381246983542, -0.25150522616238874, 0.25447493947703764, -0.3941156850814318, 0.2689623438882557, 0.10373653481031579, -0.5163544964533793, 0.4888446278812659, 0.5528935810632685, 0.5731995414039477, 0.19193292640693627, 0.3124072662890988, 0.17942954963080962, -0.06708639420820518, 0.4310442341059107, 0.7076436816011531, 0.37756322328490294, -0.6485533402238225, -0.0014911682316858697, 0.12508144770378063, 0.4864308779576792, 0.12803598046251477, 0.007811932897465188, 0.3584546671523914, -0.30925764788291754, -0.6174398143854303, 0.0012760535926586666, 0.2696590981805389, -0.009676386604340692, -0.13259682466884065, 0.13548415184547233, -0.6989006887527514, -0.20843684616389782, 0.3067859241940094, -0.08609123513369138, 0.40439211356236904, -0.11218210346246206, 0.11517954070273366, 0.6199923864801736, -0.1151759617093122, 0.13005158614567314, 0.4912486520132667, -0.050249290680301095, 0.07810821823949173, -0.469171790569364, 0.29830704784198037, 0.02838643995749956, -0.06839439885470237, 0.33229150029722127, 0.12382718166038069, -0.6660491111525773, -0.519850555503693, -0.007247926917499556, 0.3308418841774701, -0.7048968036906292, -0.5126089311717279, -0.4547617436550221, 0.25400065132870614, 0.0032485466162819106, -0.060879155497892315, -0.5937842965852064, -0.5382855594555043, 0.902875382446712, -0.4729866562226881, -0.6570706388656768, -0.396085769146431, -0.39136606632478976, 0.1173320361788312, -0.7314554193236893, -0.19908193767251037, 0.2883032014585136, 0.2924796631114191, -0.5354591888596024, -0.40699859629269297, 0.19270303024627683, 0.26031019959235124, -0.26864402961252776, -0.31769157686388705, 0.32923460578606734, -0.15510942804800357, -0.056007710757945806, 0.06151172171881137, -0.37320922246303195, 0.32770023303510076, 0.47089061555412953, -0.6382932656312104, -0.007004713045297015, -0.24725026671525924, -0.10250056789439906, 0.59022081675293, 0.5178616066978959, 0.28007889292220106, 0.22160323908018761, -0.40745438166137604, -0.3141082897587924, -0.2110022713825574, 0.3489141347413087, -0.9917658699677767, 0.6571645195454939, -0.2783204332040929, 0.0007890875188582975, 0.2682326617525908, -0.36682707192076863, 0.10850629145013767, 0.17378811707561378, -0.03932349026720625, -0.2845139863924923, 0.14810775220793576, -0.7472212907097566, 0.21718884878446792, -0.08039611116553838, 0.3512714844187869, 0.22353061701952012, 0.04696142888210505, 0.0034456296276376922, -0.04648951833476915, 0.16274558922563956, 0.2912362831822582, -0.548369480807734, -0.19502491678767392, -0.11823808703437937, 0.09361709395102619, 0.4278515818443772, 0.5336665219082937, -0.3250946668817823, 0.29346464316249976, 0.6941240510565763, -0.15876139203634224, 0.1755394589929676, 0.341777138063963, 0.3850356319072689, -0.3812467704135993, 0.2012683102958348, 0.24259074860112825, -0.14014769012588993, 0.18616977954989164, -0.3577335571049384, 0.4294978567061442, -0.1558341212439284, 0.6262027207025151], [0.12727213436818877]], "hidden_activation": "tanh", "layers": [250, 1], "output_activation": "logistic", "weights": [[[0.0611672126730366, 0.1866515749609648, 0.07687234160515068, -0.058316056338907636, -0.21930276578432922, -0.07141539968340897, 0.11048558904780996, 0.25162107657013766, -0.027144376854120415, -0.19272568364983297, 0.1487753192781505, 0.17268175668460622, -0.4695205248288424, 0.14044374147064284, 0.0013222164790602272, 0.12876148067051396, 0.16411650900513627, 0.01998935349239372, -0.056467788249965366, -0.09417115293468732, 0.04927758507151858, -0.1141233271703388, 0.06983601277778621, 0.20451308603874715, -0.34803250650781625, 0.06759357156307695, -0.12329945389727939, 0.08204696746506278, -0.07038129421082841, 0.17306816900888286, 0.11528126193901887, -0.10571346046179961, 0.6216978620261564, 0.13888584128305204, -0.08050865701679741, -0.2789169965680035, -0.12307177215099045, 0.09785679504359514, -0.36797743212036504, -0.12784175064473474, -0.061115946227804724, -0.029201979658767002, 0.048186633316128685, 0.08504360401669012, 0.10004891287418781, 0.0008087566365269355, 0.08988891019028637, 0.08472417180504627, -0.3679068249694415, 0.26832038137763614, -0.06674794396725091, -0.07754213042219169, -0.09197881585982995, -0.03763333503603141, -0.11242839973154704, 0.1340760391074718, 0.15403805227605183, -0.09544840464018142, -0.07650555692510669, -0.18209067581629512, -0.014524345194598495, -0.09696525268868124, 0.05955297155545472, 0.35126868511869425, 0.056316877586472164, 4.938799353668924e-05, -0.2347817168526149, 0.16818508472590044, 0.1318844776859195, -0.26804775439692213, 0.01810578783692746, 0.0002974021210806546, -0.16460730709097715, -0.06924504804547527, -0.0029351283423300198, -0.09031052807426826, -0.04221355809384226, -0.03517169274303194, -0.12952488709267793, -0.054505956348949856, 0.051837346987443654, 0.00021662269560119887, -0.12257084694760596, -0.18319186643750787, 0.06026518007323636, -0.09635745828012943, 0.10975821248137428, 0.2461491597660209, -0.06042869449638842, 0.14405338239466556, -6.550844791018345e-05, -0.019215249701453427, -0.024518916492131157, 0.20799894401469593, 0.09974123381821595, 0.23516975065207305, 0.03400357843721576, -0.10864873231545885, 0.047560222396661675, -0.014031146790079902, 0.03312075844611663, 0.15690789487174145, -0.07308257574942457, 0.2738865077956616, 0.2485255057446369, -0.1153301283771509, -0.044338669197227676, -0.01925316257412317, -0.09945119088772797, -0.10265971226196327, -0.1706493327093786, 0.13161893114064324, -0.31792416475802626, -0.25848341033784583, 0.06263594892524695, 0.0216081821273738, -0.086008260793218, -0.08229058525801171, 0.2905490597954295, -0.14176478785439742, 0.14688253165545792, 0.0761677235293653, 0.02692642466472565, -0.051842082004617734, -0.008490932116603758, 0.33329309828502396, 0.004290247249680846, -0.23995757643487248, 0.0001550094235909944, 0.01566490062971659, 0.3205559125362683, 0.19705649472568051, 0.22582541793617397, 0.05287820852990159, -0.11131808630059095, -0.16197886159477135, -0.00013306037825076543, 0.08839399031366268, 0.06770719670610909, -0.400272143415958, 0.06281304417728312, 0.162620571642906, 0.11633495215494138, 0.06366540804756435, -0.15449021249131656, 0.08761708500740957, 0.031807845005768894, -0.15336305497651187, 0.005571672761705473, -0.06266236246799174, -0.2100399048398115, 0.19939393584081846, -0.09723672522105602, 0.0002355783521312005, -0.30004499348713354, -0.026869394579853878, -0.15447899397998222, -0.11168897619848991, 0.004594663249303156, 0.07949976847503319, 0.020963308394397775, 0.11211592808090572, -0.13064879555727105, -0.08731295902699096, 0.06643532294387333, 0.04820390995679687, -0.2042218942569456, -0.12089870228336949, 0.0010016593009019364, -0.016322031131691818, 0.12362458877847178, -0.12573224372588548, 0.26172862522081397, 0.10272872470695742, -0.2160175240710571, 0.026015096669142552, 0.1265248445952537, -0.25424894462074993, -0.0821683093977915, 0.19607812908972133, 0.018862515315260377, -0.18165767404054783, 0.08465777379894228, -0.05609052280324642, -0.30351811633484893, 0.01082790922746748, 0.17206494910167774, -0.07770548978816173, -0.022785599830336865, 0.08687875423805126, -0.2569905980039415, -0.012235295669772949, 0.1649073160932795, -0.13276512142006175, 0.08204967522751241, -0.0299139101151699, -0.0005658904602877239, 0.034231153321546276, -0.29294229589727916, 0.3048817791465741, -0.11199531515801714, -0.055555965318430746, 0.02588628606990493, -0.0903992154602443, -0.06711574435725473, -0.24278566124945583, -0.044047802334662434, 0.25230272120408076, -0.04562272715230548, -0.15762983237878517, -7.507701046146004e-05, -0.09712999068975485, 0.042993109862430476, -0.19450905569905996, 0.11406860713903251, -0.2912100429467674, -0.10343385244917003, 0.1291182121835195, 0.1335090148225079, -0.03668326245861349, -0.25315772090715977, -0.3419947835144729, 0.03926707821466495, 0.06002859729455731, -0.29745494917569754, -0.07990508510830717, -0.062389429331087404, 0.1764709295059265, 0.06813192372829656, 0.0750821326868477, -0.07504602750438367, -0.2812872149003675, 0.052960844376120864, 0.007681854711007622, -0.02208196060493942, -0.15456687032499541, -0.10049977245457131, -0.059000497429138786, -0.007116641751797617, 0.07851825255528766, -0.3259343545476072, -0.11445331246786056, -0.0018257810933026983, -0.0185203183183992, 0.2562596520378757, -0.08292036326322022, -0.19597624155516938, -0.033771168277269455, 0.07538237767179726, -0.088613745487364], [0.2772269156938918, 0.1326893108927221, 0.44773067325906324, -0.1703939755381975, -0.1579956411783062, 0.12059374673009282, -0.09203968016731508, 0.10356386916486864, 0.008393969338428503, -0.2000672226973832, -0.19708752360647053, -0.028021737664655617, -0.14468518385547452, 0.18206814482356976, 0.0005162767286337548, -0.15669929372055477, 0.007276123295460216, 0.31585860576418134, -0.37411846080027716, -0.1702254057774945, -0.06923693268912133, 0.038092837779110655, 0.11818397635047873, 0.02565735834117239, -0.49049086679641096, 0.09735102515558493, 0.192329427021588, 0.13167147379965038, -0.27929293027401575, 0.25595538335048734, -0.023949614893875672, -0.03989097714157349, 0.5043133153463953, 0.28640819839162857, 0.023853429547201876, -0.18366253564207977, -0.16698333519607572, -0.045503545361074225, -0.1994205952700666, -0.07575350546369235, 0.010288857531286758, -0.025828964376988173, 0.2706584461068256, 0.26556986882591616, 0.2660962326413376, 0.0007308393010432394, -0.2666216810146627, 0.0463901906348842, -0.21903948106624985, 0.04256735398320201, -0.13271964114998644, -0.02240902347230835, -0.07073115842072268, -0.24631694113695504, 0.008036072516944598, 0.40395439850716464, 0.11248085613169863, -0.01246407237023355, 0.04710498281488565, -0.09570118412031094, 0.016099497688438786, -0.2309249264329509, -0.14699011594215539, 0.26339249712995294, 0.10827106212205764, -0.00013825618455197262, -0.2987939024199156, -0.07993140141153489, 0.044002118596043804, -0.01801629262140299, -0.0025144461871173134, -0.0003631931319898515, 0.018023341129031176, -0.23455347575396032, -0.0833569106895196, -0.023163015185366242, 0.03847116900346722, 0.31666627230214606, 0.09199914986042981, -0.13450880005093496, 0.2218720805667471, -0.0003381333482650763, -0.04588296873312333, 0.051255938907522725, 0.07961869170143118, -0.033270968627565484, 0.11472239107960533, 0.08238316539411586, -0.20002221395324538, 0.46547389040960063, -0.00019940829813095773, 0.33148814527393017, -0.04370340888004145, 0.12068943734611585, 0.09069165664683175, 0.6685705235617342, 0.10209968169930927, -0.17462180467845315, -0.25438564676216824, 0.04282231108159862, -0.026416942012002575, -0.20652437163460424, 0.11032252438220348, 0.30115183251208694, 0.12717076597913834, -0.02042675881085663, -0.0015359997125109122, 0.008090716629816589, -0.266076775566363, -0.08422228331688171, -0.05549980774402347, 0.027637579156071897, -0.04851216830230749, -0.4170190430811706, 0.06363796794690091, -0.25760771141649824, 0.12244998041637435, 0.10186478282414439, 0.15156900135381438, -0.1888962715018778, 0.21094493113044607, 0.24676398058329924, -0.03093806763736759, -0.023844929384528417, 0.034315568408681475, 0.26455441564920057, -0.21951784215636488, -0.6954139841244503, 0.0001976362718525165, 0.12108115613945804, 0.19098862786214804, 0.31517282428230387, 0.14786909782256807, -0.15282084123205356, -0.1006300024683842, -0.2572698724015998, -0.00015943791882429818, 0.28341101833314297, -0.09015919897670026, -0.26991105246251484, -0.15071268261163218, 0.2876047482198256, -0.0034841307112806544, 0.021982958559681267, -0.24423582127491072, 0.32142205562997955, -0.00023217662768133414, -0.359238396734786, -0.04261512794246348, 0.16583284147820562, -0.15927259585598127, 0.25791472863849274, 0.018386323029279953, -0.00035181254398559774, -0.4444594306703675, 0.20462029884363594, -0.17984440718061684, 0.09932705174853101, -0.023103864774897346, -0.03119471459149679, 0.13232403870681642, -0.10143245449138898, 0.145790305134161, 0.0635500320138464, -0.08096553927226928, 0.03900167481297701, 0.009117775913836775, -0.16830032708803602, 0.0004042418952828748, -0.3351584541144488, -0.11286050957162323, -0.14411376648335428, 0.12144256377139857, 0.09648048544839653, -0.1380686494377848, 0.11779528865982414, 0.12580919051411, -0.0661487431057562, 0.2326116148628156, 0.32400605677382627, 0.5040671597487905, -0.1983292196353087, 0.145458983514513, -0.21684940344049525, -0.22799402913784872, 0.27772788595887665, 0.04043817658789222, -0.37503011977438433, 0.21547812507915617, -0.19344884573396678, -0.054021194060850944, 0.006729580552022764, -0.098052478330905, -0.03552673525693989, -0.04767592517540443, -0.29624392919008663, -0.000215403368629497, -0.02657065108833871, -0.1980763232713289, 0.21642910009738403, -0.19184144911917234, 0.05373790075917309, 0.2952619378311399, -0.04453939152005884, 0.12553577981209102, -0.12480737315416932, -0.08470582381442292, -0.03073004205894331, -0.16066939887431733, -0.3233002887870896, -0.00010428913405233429, -0.23029345891007938, 0.20729550759452808, 0.03369052917713354, -0.08138255379296248, -0.22010182997326855, -0.24179676092247265, -0.07708770112534294, 0.08983699251931976, 0.06945736554783735, -0.038006706293815286, -0.33605943386510373, -0.047904006146203486, 0.16355092295543458, -0.11009226893698416, -0.3136278906746684, -0.1849538624502541, 0.19472081118486143, 0.17985631472008182, 0.04143425395582343, -0.09682632782507176, -0.11748857501870422, 0.28574935638214916, -0.16607070092131723, -0.0008153805912946848, 0.0023337891739910193, -0.31841111746623046, -0.28174071630632663, 0.004765807598119983, -0.009637025551291882, -0.19607315528012406, 0.04344482027821112, 0.0038943847052767453, -0.11851121337045549, 0.34160504773357303, 0.1033051678757603, -0.12425299671676121, 0.0688199590909103, -0.0053000609679670465, -0.28315982527740796], [0.22355286345877923, 0.10692682594261789, 0.2035217230600787, 0.02203952431131804, -0.22346658968962205, 0.2374161014025003, -0.15221910069583955, -0.2570055131856215, 0.1022287560949816, -0.11132085675727167, -0.10133504178282562, -0.12825104477557825, 0.703158686179407, 0.15509750091027028, -0.07003431535759663, -0.1768378422985636, 0.04241762028004856, 0.13591150916300007, -0.5387914185508114, 0.1656979460515639, -0.26532628026779326, 0.023684356486528772, -0.13600126448268318, -0.15732382125754868, -0.11841674351095392, -0.12730269265100636, 0.18441916565565283, 0.35594766573454667, 0.16878674659296575, 0.12043642212882673, -0.09798253436826365, 0.06974697370400738, -0.203678728508093, 0.1112958576397693, -0.09262538437851221, 0.028816195990237607, 0.20499079395670058, -0.36804930209321507, 0.2058224658475833, -0.11697283256152341, 0.18306710308046303, -0.03920221662036169, 0.025040285924112348, 0.4600751701747202, 0.12952688300568246, -1.3911146824045058e-05, -0.28720890839562263, 0.13757128257947107, 0.1807039513331561, -0.13665294390394486, -0.0878927495166151, 0.01526265807884242, -0.16197075079139392, -0.28235091144689134, 0.01659815262156047, 0.06981807818492308, 0.0033891382661965794, -0.03499140893362396, 0.05489766997040626, 0.18794280931248522, -0.1778974184792901, -0.3330246787243936, -0.16197373221887626, 0.3014391104859027, 0.29209924891713845, -0.0004431765601323928, -0.08359117514511981, -0.015395828948759729, 0.20267289240746816, 0.4321675435476203, -0.12734886863011569, -0.0011485552961513488, 0.1443266883062423, 0.2093417190446069, 0.08352414859831862, 0.47990657575356993, 0.13230699965165987, 0.2639613736678098, 0.07364477047493682, 0.03541485745874989, -0.10042298841712918, 0.00018384418835357195, -0.018766316207854284, -0.014934618943394122, -0.02369218970620336, 0.05363612515519291, 0.014069246787503743, 0.11613196160300114, -0.12682959041801048, 0.5905117385280552, -0.0002750826570032041, 0.45691492720292665, 0.24884078530834564, 0.13618639470311197, -0.07570631657927812, 0.17512103812150506, -0.15864521118677868, 0.014315997496152543, 0.03552799586791698, -0.1403589760216046, -0.07187057281028907, 0.1063883570134458, 0.04155740680062589, 0.03353334490005798, -0.0028714139753403464, 0.2603315755246786, -0.020627678101724015, 0.0016259857980178952, -0.1669391866816141, 0.3553440626375354, -0.16804458348921716, -0.21088867422407057, 0.07245495851983227, 0.008788171326311659, -0.02765155281877226, 0.15119352780960119, -0.09713215243439109, 0.22507278049399812, -0.5069809284937752, 0.08186359097525787, 0.03046568566656367, 0.25295110948502864, -0.037463252373410846, 0.15433702761616339, -0.07868114586069473, -0.10579016404815934, -0.2466577322463165, -0.27433942502958725, 0.0001639551910186253, -0.1456035221739356, 0.27569713978287175, 0.08505464000252667, -0.20037539898993306, -0.7308842637410425, -0.129940651075089, -0.043092020320896214, -0.00010738825937335317, 0.013217666986485426, -0.10032155421540534, -0.12903783712010722, -0.001244242973687828, 0.12980924849750947, -0.1625031622355287, -0.2217826606125246, 0.11841378957297324, -0.001801686630476936, -0.02180235943272896, -0.35405219100032737, -0.0710890863428306, -0.014031686327519947, -0.3621654158770543, -0.33477145702934274, 0.10425409025905742, -0.0009413150739384201, 0.054703379034516934, 0.3943182756656048, 0.1858224770977574, -0.23946162081025493, -0.057548151000609706, -0.09133002931973593, 0.0890321552003846, -0.010560227177217286, 0.09025270467591151, 0.19099805959672267, -0.17549176771760375, -0.10196180109076092, 0.16802705133384285, -0.5215903025879837, -0.0010179717694760648, -0.08255882063874864, -0.11774058098275943, 0.23799453742405693, -0.30079411529459643, 0.2577753843931596, 0.24951515771839347, 0.10563865502686795, 0.5681654316299442, 0.018748141980229942, 0.05328083726852715, 0.3394683739818131, 0.2772379185412749, -0.07494751448085091, -0.20800294897606625, -0.18184631231960346, -0.18399691302028492, 0.2868113670778948, -0.41330901347410165, -0.2313475082724488, 0.13222041365373716, 0.06018439469779538, 0.2597543048878133, -0.02523463174036417, -0.15792955605671397, 0.15456566514573009, 0.0948759592041882, -0.004003492562794604, 0.00025766710252328505, 0.017673818151920023, -0.3091205509984809, 0.09874163965661525, -0.21794926670595471, -0.012886475161449857, 0.004170922476736541, 0.12191198731058116, 0.19965897072632693, 0.03686386761845928, 0.12643304764456384, -0.3257226847734984, -0.5967218213618547, 0.31550389415033675, -0.00010869439209141938, -0.4379920553828933, 0.10307127010767987, 0.20126773707594633, -0.09022954175179787, 0.1250473836204167, 0.025282816539579055, -0.339207764404302, -0.24507012741514317, -0.0711600519669256, 0.00312697859826643, 0.1464385286178372, -0.1296666423969655, -0.45925619395773365, -0.030000840213695118, -0.3615989499383487, 0.01918292443842239, -0.18724646625481575, 0.2620469792595837, -0.0075411592811839324, -0.17078740518835414, -0.35398879403299754, 0.378153777545478, 0.31017851328278007, -0.026472701364850828, 0.22687399721536994, 0.031656995152401765, 0.06756389050347292, 0.004528090535038581, 0.001302165575331682, 0.0846804132329531, -0.17525978697891462, 0.0023362536151624704, -0.3340770655510038, 0.1830933362130271, -0.30599748978808056, -0.023892700227240257, 0.06096775823662836, 0.010297432120744996, -0.09911117241374166], [-0.14701976752074783, -0.1181226671752834, -0.18490721963342874, -0.0564621935684857, -0.22399844710699657, -0.02256303809803172, 0.217132652624712, 0.14551332484801405, 0.039349137235811744, -0.3580712346286233, 0.3229230167228794, -0.1677160224878175, -0.04810016066472667, -0.02446731513843371, -0.12077672255174637, -0.38129181528369077, -0.2731224484577332, -0.24133012936782708, 0.2236571169642357, 0.2641886386531561, 0.09733468283901775, 0.16314096009456217, -0.550841510294842, -0.12984450751543708, 0.19404781871652724, -0.017757427128931073, 0.027553490311472258, -0.20334990194534014, 0.05280235287843477, -0.329444503783384, 0.08366084402139395, 0.17294215554116027, -0.0470455669866968, 0.06291356722305688, -0.5322579996760454, 0.19883221693206113, 0.15724631727772653, 0.027599946931990308, 0.2541667405604122, -0.284307381291165, -0.03849548563881128, 0.03856545498192793, 0.09922986352756953, 0.5198427221815456, 0.05744713002457349, 9.014221502932942e-05, 0.11872991281998427, -0.3006796598485085, 0.034137355774557746, -0.0675410107353908, 0.2345587540970456, 0.017306098405528228, -0.24180215233618157, 0.2574278130700166, 0.15534665779482246, -0.16290670029521787, -0.038627492207745855, -0.17305670958142533, 0.0452364400776539, -0.04154235949579589, -0.05373903622380582, -0.11878686135115185, -0.010731142143740725, 0.18495704950897682, 0.26729173679345614, -0.000256751408216554, -0.07367945796135533, -0.041618985724151146, 0.39925892470113244, 0.30319615074206135, 0.008426022497847763, -0.00020171871411839718, 0.0516316050044805, 0.18715971785411378, 0.05945260419262709, -0.11253372246386703, 0.12389366103125668, -0.540307623101915, -0.02084796510412003, 0.05376020283197952, -0.1992966184347498, -0.00040461279903117585, 0.18096564774097212, -0.03282399085238463, 0.1489087827149676, 0.10205724074373598, 0.05657032958544971, 0.15403069671568467, 0.30170286753665804, -0.3130679281087484, -0.00010715593969662642, 0.12902651321834702, 0.36177055126435076, 0.1961609997045553, -0.20153573697018656, -0.538975647934506, -0.271531288241127, 0.02960139021718364, -0.004934979377665492, -0.053689462654526766, -0.14340530554493078, 0.43415886650579905, -0.25995258359406836, -0.35276931889948615, -0.2645335318917977, 0.19308019717372035, 0.1526148970804472, 0.01696140157356365, -0.15462014345485836, 0.1758278856606178, -0.18951753645649314, -0.41628605447752726, -0.3617750669716571, -0.10919253526576901, 0.05814837012714877, 0.1403500580374626, -0.32434794389152016, -0.03491078586753059, -0.16412806428646703, -0.027082552844780033, -0.06931868273819752, 0.01871478675096919, -0.041692965133571305, 0.1615063980781091, 0.01982486598248064, 0.09964304171418857, 0.20056370674303273, 0.4116957216854242, 0.00011752004350145492, -0.7591214347045843, 0.1378828776762181, 0.06255904359317505, 0.09078117432968268, 0.16723762784550325, -0.5094285161481321, 0.04487898175482159, -7.531551642457233e-05, 0.23994542017949821, -0.07906459450153017, -0.4123767019705464, 0.10640288678746243, 0.0821201369281331, -0.05062663955345815, -0.32425819094988195, -0.4999285385391492, -0.11578546390869249, 0.18098806169330092, -0.11523286622904226, 0.017609958248547757, 0.00868055435208542, -0.4392323255486734, -0.20626023115809922, -0.3290803083978382, -0.00014169179300507398, -0.1909001180023265, 0.4146452277227601, 0.4765365243426215, -0.07886763582233086, 0.09713815089102218, -0.1436091440017268, 0.13450578341208144, -0.18873489142570932, -0.12727244992279083, -0.06277296264826608, -0.011110865345069294, -0.4564837563628429, 0.03483114917679949, -0.3637659935000851, -0.0004875714709738075, 0.08998113283742283, 0.06903782690582216, 0.11923640290236429, 0.2972832697652883, 0.001818435626674398, -0.2708838718182975, 0.06218425334852649, -0.01087293628534328, 0.20317167767791597, -0.06994908349572247, 0.20474306694359268, -0.4326491989336669, -0.07323759504794299, -0.16400324891629112, -0.4181677010716243, 0.3652582439694734, 0.22970180173768398, 0.07007289874561583, -0.06064083645104424, 0.009667256924707355, 0.31768408342589355, 0.08186516678777284, -0.031261047348333175, 0.040451326082152454, 0.21289018559041362, 0.020563977288838447, -0.2820430475923785, -0.00013628357843656068, 0.07507469091347281, -0.1568580509658846, -0.20855542426136348, 0.03512799776119164, -0.11861138396499017, -0.31363729527778755, 0.2657261175129974, 0.12269328550962222, 0.1406952105816651, 0.2660845947701582, 0.15160533251917388, 0.006751306797077124, -0.0317138669678917, -7.294045386074248e-05, 0.005158995553574582, -0.07719188702660816, 0.24376277921637313, 0.09389501029783823, -0.293382426908735, -0.1525652652486817, 0.23805535305432307, -0.19864552382067596, 0.1224018519939411, 0.47827885516296914, -0.004726207947409535, -0.12125208036899612, -0.6142667784714648, -0.5110771559850812, -0.1368885241354526, 0.02139261607803474, 0.11369450620598812, -0.09019405040466605, -0.092222598890338, 0.13046460724070805, 0.21544457694008315, 0.26189678098835806, 0.04743800797725068, 0.12980052282594637, 0.378984567615851, 0.041873031980339565, 0.10626026535761288, 0.00769135889176781, -0.16672456542353695, -0.1502294678957644, -0.12179601742289525, 0.0041738690918770045, -0.19976344790239764, -0.15658235177076033, -0.1841607166287226, 0.10095972242775865, -0.032669954778000915, 0.1952958472733831, 0.32520100768379695], [0.09538783039486645, 0.2650982760816181, -0.15491248803315763, 0.002548111308805121, 0.020832488124293218, 0.3778483578907667, -0.1682748841080225, -0.003606360881387466, 0.0476872112103266, -0.2703439591007974, 0.12664060199473567, 0.17263064987432336, -0.033311837283908276, 0.2943709331767768, -0.0018813355440562272, -0.3782257084204453, -0.04759448256831776, -0.28422872526915954, -0.08772451504590514, 0.20271146935076262, 0.14883293468548478, 0.15716503421953562, -0.043435263881139344, -0.5269307913257101, -0.10213397881739947, 0.23658065559808245, 0.1379968255588571, -0.17937284364309145, -0.07416631730495156, 0.06679207329640749, 0.028284756646804934, 0.08638543953673743, 0.08200931274932176, 0.24101439379689818, -0.41357487359888445, 0.3644878694466698, -0.21158231831627666, -0.23236809065455216, -0.05535006028507994, -0.3666195540701618, -0.02967922244598199, 0.12575157215351115, 0.0626534631625889, 0.31254058649697697, -0.055882518275146724, 0.0009616792612040404, -0.13716103064742682, -0.13491949097059758, -4.919654208704376e-05, -0.0128541315248832, -0.06812041703861776, 0.01410491772095289, -0.1425786909175509, 0.5048174091644471, 0.19514640582642492, 0.3010571387254874, -0.17456863569054684, 0.061744672027518294, -0.1614620082289692, 0.14126389116516522, -0.31980139691159043, 0.023741379167685064, 0.18201408714203837, 0.19753072239138983, -0.020933992993131024, -0.000578038561878727, -0.43463673902944977, 0.037684828558559876, -0.21143072241647295, 0.20106146358538932, 0.09265831824438522, -0.0005806973907960717, 0.07947029115192672, 0.0363994222721244, -0.1109113155360488, -0.06951880221000376, 0.06367824081410034, -0.07006050052987432, -0.3495683406138285, -0.12876556412175655, -0.15418043189835715, 0.00030466669862067806, -0.022160181030343968, 0.04594043096257633, 0.08087819910447071, 0.0015138344765653555, 0.06541014526142694, -0.29676057166537634, -0.13253183033785956, -0.20878056738322634, -6.645479862126863e-05, 0.30987584387003025, 0.16981663651231413, 0.017845626226178683, -0.11306683402165676, -0.29050241581588765, -0.2757934965871897, -0.054892922791022314, -0.36829037464831227, 0.10983844478751845, 0.016333247066520822, -0.1425597268645329, -0.16739420650192013, -0.0518036378069042, -0.1428642885520263, 0.08922507249041238, 0.28718093498852215, 0.008555370957731862, 0.07266122363542392, 0.0008803859914478939, 0.12734707747191432, 0.030722927316842813, -0.06335839973129043, 0.18512947568569002, 0.03646960011749851, -0.13726531870381342, -0.3453134788043185, 0.02755565780121532, 0.2388319873212978, 0.32394361639502417, -0.04979328541112487, -0.013570349569818138, -0.0305097592609747, 0.07975004148637371, -0.02115990274661048, -0.15439003523103728, 0.36279298382149106, 0.081737787936552, 0.0002472305404508798, -0.32923060649016617, 0.07562209625253195, 0.2974785322583716, -0.019731155194446782, -0.007742697964974445, -0.23334599649201038, 0.033485531413247664, -0.00013573947642249917, 0.2213750740431219, 0.1536955009880759, 0.1608696447466609, 0.23434004521330098, 0.35548049893183753, -0.1964442065963963, -0.17757595090038267, -0.5853175625252431, 0.15750731464228812, 0.006470785749920679, -0.07017711631445898, 0.20081510550272752, -0.08034120210531068, 0.10397487724935915, 0.5779754784181581, -0.45791369793845554, -0.0004459183064308268, -0.2863644216157302, 0.18902255792841283, -0.23204360463893323, 0.5662696531819579, 0.026554646256478187, -0.18747864688827834, -0.012333638551306777, -0.2877016248667344, 0.15992022720434987, 0.08911526831847263, -0.041400877518436824, -0.24233046795958094, 0.27429850765550845, -0.314457977997585, -0.0010385464962589766, -0.3389385952643982, -0.12001021763005051, -0.006023547647575575, -0.035274231732187876, 0.03342420513305031, 0.5937333656880868, 0.14570923455716597, -0.1175124107554085, -0.2791219132596694, 0.16337375386041267, 0.08683215033769662, -0.0017046637425398743, 0.3212398770733471, -0.07184377755535236, -0.1531408270356895, -0.19664913906289014, 0.1584919542657964, -0.061795840115625014, -0.14400314714210977, 0.1313334100269049, -0.03323050648803846, 0.10785261106153356, -0.009399315904997431, -0.09279705879043149, 0.0312000815661158, 0.057284490625573656, -0.2458185135712653, 0.00033089260813418933, 0.3200455297258118, -0.1363772715250579, 0.24232043311525345, -0.13613265725831059, -0.05982354729360536, -0.376691576556957, 0.06609425193677305, -0.02820444541053974, 0.17707883300884436, 0.21114505945291695, -0.0014126663674768585, 0.1249807203589463, 0.2358055863391107, -0.00016282253223991582, -0.11749387073580018, 0.2638455381234785, 0.20137575190058193, 0.21195168148049573, 0.14312154981869218, 0.20913800991090964, 0.06262923205036491, 0.1863686850700768, 0.014279513038838282, 0.0610309021664379, 0.2041479612249081, -0.006779106827025694, -0.04707601311903503, -0.10660735307910038, 0.12165007230204866, -0.19974498257591683, 0.23138470981260614, -0.16382664861714966, -0.03964608381483919, 0.07749918424407175, -0.08320906775988997, -0.012352678152013682, -0.3026158861421187, 0.13081786170444204, 0.2799347349763416, -0.11121005241374157, -0.510461261267693, 0.003071596831966994, -0.11751681674240712, 0.14351849434445713, 0.05539312522030819, -0.0005187642656488803, -0.6032229726594699, 0.059012468334405904, 0.15493439466488543, 0.006550643592011541, 0.08854805633166725, 0.1824226707170437, -0.4600603488363827], [-0.19194677708613156, 0.09891083169311535, 0.16567775202496168, -0.10237186807897303, 0.17576981949837617, 0.3342286355700886, 0.0627974001878146, 0.09754783789185387, 0.061582470058545107, 0.002434097087004268, 0.38873130058412525, 0.07181732374190315, -0.24121096870811065, -0.05505922066450303, 0.07035263244322423, 0.060467039405054365, 0.11457304302676528, -0.4464811639934987, 0.06596449652749645, 0.1940213401149616, 0.03456405030065468, 0.10007585053969033, 0.5815281646786136, -0.23592234700634407, -0.21562176185255533, -0.06662365009809534, -0.03894393282503957, 0.03131235109314641, 0.10058376503031877, 0.037350653258373105, 0.1323364883170213, 0.03607111138414929, 0.037555066108430575, 0.12331500381392371, 0.2019740256503843, -0.29536387703443695, -0.25267966867677194, -0.40634536675835425, -0.07869866764201525, -0.2850770966908804, -0.34566983637510146, -0.049790023267036604, 0.23323555983443886, 0.12354076979374476, 0.011876721704752466, -0.0017247685070829139, 0.1296703047410044, -0.02665569997909332, 0.14759180182104475, 0.25197535850926805, -0.0546002878814898, -0.10051536592385535, -0.36252867445079207, 0.16573301717134875, 0.03453714332068239, 0.14551625759340028, -0.2593460669715608, 0.1409352902059602, 0.23925716953030501, -0.021884439661789577, 0.18151304556874068, 0.07379329531194949, 0.35358780980965854, -0.0882739105763578, 0.19510561585439795, -9.497750087338694e-05, 0.17398487816851602, 0.03345867017000167, -0.07567492999456853, -0.27469506071399563, -0.0012681705799567414, -0.0001127048975369001, -0.1171369875674344, 0.320554370424934, -0.14000864707889027, -0.040412632108745586, -0.1237283823144711, 0.11228493728499768, -0.15161490484390674, -0.11242396257328145, -0.3890203105502361, 0.00026235247275640237, -0.10318603627811349, -0.05259261407492218, -0.2164673766505651, 0.03582829274208838, -0.013998203752551161, -0.2613285196062521, -0.6631286137506752, -0.22486267343937694, 9.508328731617415e-06, -0.0270768776502722, 0.47907563928054636, 0.22219511875020367, -0.07581099941937386, -0.5227849884781803, -0.02601626370846708, 0.14950997091170046, -0.03423523249044314, 0.22132520722142765, -0.27841460911568766, -0.13395958715218975, -0.07681755633016328, -0.04026955241719429, 0.038815936211632464, 0.04172378862741028, -0.116133608277134, -0.017721764648510174, -0.007689869592219287, 0.1619690436193425, 0.09077461135115397, 0.09015582047126788, 0.21128252832477623, 0.029186021139873217, -0.023599631097449492, 0.45218935367505436, -0.10267118624395583, -0.08849690967803422, -0.1234696150941229, 0.11944325504036518, -0.2213592518406542, 0.05558920200790853, -0.04273382130301772, 0.24779440697542604, 0.1897092808290176, -0.3037126034679759, 0.10397705634947005, -0.04116692979738393, -7.78032480755379e-05, 0.3996810845975371, 0.2536188913365979, 0.25103789095349244, -0.037925889040683454, 0.27195103647458885, 0.23501997702294544, 0.07674660334319679, 5.988157071860202e-05, -0.09190117066509063, 0.012957913904632967, -0.11261696719839127, -0.1175745428055417, -0.17756415697342437, 0.022083258181571815, -0.044444530011196436, -0.18021437196924533, 0.29056121939788554, -0.28739101517986315, -0.0786810480493717, -0.005406989999288609, -0.16402826368815532, -0.1550695319767195, 0.42136892067801196, -0.18925085976548103, -4.8447675306723903e-05, 0.13433372972058816, -0.09584900567592058, -0.09297718386193823, 0.2158246678037787, -0.1371792415678335, -0.08538386710187619, -0.08437723237600599, 0.36331990881402276, 0.19915796031997704, -0.03177809239938986, 0.047107860320174895, 0.16046757619252563, 0.3880722713731823, -0.3137382062396162, -0.0011355014222518298, -0.06104446074331996, 0.17006308059345504, 0.3371191231469475, -0.5288802786440181, -0.12162059342525902, 0.7132411217263619, 0.1704066152894931, 0.38212047068561467, -0.2552410097341575, 0.1196681990131719, 0.02318905931686214, -0.1546051012519316, 0.2838413782857797, -0.22491489915691937, 0.0037111357054302563, 0.055597744903673134, -0.13436862393994004, -0.4677278336223823, -0.09335966441766234, 0.14489201164315615, 0.2864698549256094, 0.044172381094365686, 0.09548574796210657, 0.20802422475310034, -0.11612862738478197, -0.012180692910146508, -0.38902018396106486, 0.00015914033197399492, 0.1804837287635117, 0.04079721656695021, 0.5572473738645447, -0.11323004549955866, 0.1717215111367805, -0.23355960321697491, -0.1587008821408056, 0.010406109940793952, 0.19299815224673658, 0.26387301376371175, 0.01854201787402772, 0.5266101468114855, 0.11296499792146124, 2.9417618300210503e-05, 0.14521306466720912, 0.19513581940943647, 0.0538461281676659, 0.0050909900038727625, -0.04481538963742368, 0.27768996973346755, 0.23030886508572457, -0.2874384570596452, -0.05679535335911664, -0.4829652648853318, 0.49408866789397743, 0.062424656661152565, 0.2219545446950822, -0.07085182560072069, 0.19536041161826423, 0.030920122493149477, -0.16743263366539413, 0.053707517997157624, -0.1379654699051033, -0.04902328447156327, -0.6071884388188956, -0.2197404081965976, 0.017113326706341966, -0.04704752882324478, 0.06120303979472762, 0.13910675497822889, -0.1576291701203042, 0.0004308354328595206, 0.049275032215723866, 0.1329526265704308, 0.1795709441443203, -0.001980036772089282, -0.2211676405189046, 0.26443159639799463, -0.24953308175701666, -0.028754428324025135, -0.0338783349823773, 0.39647438029383036, -0.423761594386476], [0.2738180421309728, -0.010266434062575965, 0.06797429622642871, -0.5440214478349836, -0.1696516504222422, 0.022275780553624214, 0.3759204257523799, -0.38504041392311444, 0.03825048796894333, -0.34104771515307103, -0.11429124303600963, 0.16099920673474952, 0.2569233100782552, 0.17512729657930254, -0.2504349849930946, 0.2681186034353049, -0.11238966072868486, 0.24657494671685176, -0.4214341693701345, -0.05086191670851489, 0.3585435305911315, 0.06671648612914644, 0.4827497125867041, -0.16203662997652427, 0.12885542438506664, 0.3577175913933097, 0.038954083756738235, 0.16461549376157358, 0.4599241525904249, -0.12157545576576366, 0.09330846152366042, 0.291687293137674, -0.23960485806957768, -0.2518929876456779, -0.4472127748379874, 0.04379133648289624, -0.1571816979178275, 0.14850830271190277, 0.01860255456806902, -0.1352699867468937, -0.016384721610120816, 0.02543841821170091, 0.5018073900013021, 0.047581139173535826, 0.20515296130518346, -0.0020432252279071372, 0.22638568041885906, -0.1976986494901424, 0.3107647000295385, 0.08595385145685468, -0.19101145296599886, -0.25872280934791164, 0.07634401678204202, 0.4136790069138216, 0.3077817025584881, 0.1847818209457954, -0.49471661810569906, 0.3998069033124719, -0.09351036274945226, -0.44589229466301195, 0.37564764668387834, -0.040795349890505456, 0.17998207341784395, -0.15008229697412764, -0.07925854556302245, 0.000624646002155649, -0.2675995236171011, 0.4346654509357189, -0.03602400216132424, 0.02893562458527956, -0.09276824753516245, -0.00017938133493756675, -0.11123026134953344, -0.15801315088419324, 0.11416226825383852, 0.1250804902823366, -0.27712787770918573, 0.2291772665362598, 0.45822123836701484, -0.07570263314558567, -0.07139022788400883, -0.0006456949631082242, 0.1428109419126983, 0.21384734276151543, -0.3942885301588253, 0.5112551786452968, -0.024569065213156896, -0.11289095955914212, -0.3007733244724137, -0.38513304290650324, 9.026857640658976e-06, 0.06683919241063276, 0.3611236293741368, -0.018545187805311655, -0.04800748350920526, -0.04210823137436437, -0.36821333679361995, 0.2609896788966476, -0.059057899109862214, -0.03642916033888787, -0.2485515880157742, 0.03810870666576689, -0.10283819321830705, -0.31286352314349974, -0.17398257122836558, -0.3238596217819754, -0.16690119392402197, 0.019612445669722003, -0.22914577473244357, 0.3786986359926095, 0.1040829668955559, -0.12485497369714367, -0.20582359194640343, 0.05134529489801673, 0.08419587093260687, -0.1876606755962353, -0.2708025275019098, 0.08906405748311298, -0.3095855469299272, 0.4196982644829431, 0.17768084958539332, -0.07105919119204651, -0.0028506841023991786, -0.003607872176296764, -0.5815091610973793, -0.029375228946558186, -0.030425795044751063, -0.07904487892563053, -0.00041244406254177, -0.6099116446922559, -0.3904810036578329, 0.16743815202218523, 0.32461513748643284, -0.09874970874955645, 0.2399465664846422, 0.15124831792297844, 0.000264923687420029, -0.10320618704441586, 0.363992819296364, 0.21150575433518395, 0.10036597995711674, 0.1810294420990985, 0.2512737164664827, -0.6698363505344292, 0.21690557992681628, 0.26052816247032723, -0.15809951373666756, 0.21214951528333076, 0.2733633900812511, 0.6199752418570345, 0.4356500318636249, 0.09649791147344333, -0.03679491101545744, -0.00017580813170767854, -0.49694505526573446, -0.1535815864389118, -0.19871450762224854, -0.1731457601401029, 0.03480035992292519, -0.1748123255494392, 0.00038683847952541224, -0.1939583380070384, 0.04365684008233885, -0.19578223146499704, -0.01029182338742716, -0.2721356226316258, -0.024391596370808354, -0.44836573665263313, 0.0002434704201981276, -0.4782946632096392, -0.03313438337970711, 0.03528386552451377, 0.20602829428031064, 0.5253551232421697, -0.3721942224377585, -0.08188333418115148, -0.055298042605293446, -0.025000642399307365, 0.11325035545821895, -0.2715213857899061, -0.24066142104136115, 0.2657015521865901, 0.13561277897406965, 0.02635373022440301, -0.20794341248000464, 0.05304843840865545, 0.16479485348044365, -0.26462576925169284, 0.29865257634762304, 0.07927667349400264, 0.15053488323152048, -0.025536923240867503, 0.14534291705401928, 0.01774100538244894, -0.2343085836984405, -0.10794006897579454, 0.0011401949033665577, -0.3104496369235968, 0.21203338675974798, 0.1406185443498078, -0.004317174438646311, 0.20523168387455273, -0.011845697739336976, 0.045816568835281395, 0.05562645719536816, -0.13491392166233696, 0.07412097960851274, -0.015124378394767544, -0.32045164494526646, 0.5476848443921283, 0.0002561739265210814, -0.051219171923508354, 0.07262782573456115, -0.06600967869661378, -0.014897548297284374, 0.15110523713045532, 0.07130138148108912, -0.05385763580750652, 0.26232789774992477, 0.13775056337964792, -0.05914291682107783, 0.26520335338097395, -0.015254266893064259, -0.3547418452245681, -0.5909515009190938, -0.2990337341641028, -0.1556823479536133, 0.17044697200874562, -0.2840174461664865, 0.13101038558377637, -0.061660739783541814, 0.16456787475123769, -0.002553174663355814, 0.45741435291751487, -0.028749030676941362, -0.009227444011039377, -0.15012071500886262, -0.5411172395139172, 0.013224159471479901, -0.00173041400768965, -0.09136520093564593, 0.5714448676323408, 0.006362028724438488, -0.45032708900893276, 0.1825965135826865, 0.21120969479801596, 0.07841508253668442, 0.18118960106330653, -0.267036387856109, -0.3448015939849376], [-0.13874342735945727, -0.09708172074916063, 0.30263535191922886, 0.23285162591835054, 0.11472675294609447, 0.12658724876092683, 0.5375673904189047, -0.45043706685637286, -0.1690717803595382, -0.03383887714241729, 0.46048366435472504, -0.060064847086290944, 0.19081301079108987, 0.19134038431614428, -0.03974025962993171, 0.39681343449289663, 0.2918993395810904, 0.07996336054269408, -0.5148664891597128, 0.34573672303129754, 0.46528630256393416, -0.039620208794817695, -0.61220692981064, 0.4827849646573749, 0.3640307252554884, 0.12756465310940168, -0.43007136369243626, 0.11241281463884016, 0.07550777566566849, -0.6242055465313123, -0.11656781506725274, 0.059005172165773084, 0.09882549068239886, -0.06944017838049102, 0.16112341657023352, -0.29150301358358083, -0.14645431241856846, 0.17363734968089448, -0.6001731249466612, -0.14164318614446966, -0.5887917619034716, 0.12168157204940538, 0.002621394968087276, -0.006263919513911655, -0.041454206961757986, 0.001748267497965187, 0.2564481498181232, 0.07527002766328478, -0.3222736241463128, -0.08750767703805279, 0.3921829793571062, 0.09087071767891199, 0.21230363971573576, -0.21110853836772647, -0.2489177236721353, 0.2968155973443371, -0.640816811632716, 0.16839185371879123, -0.06856936704664993, 0.12057581945273357, -0.2956476024821966, 0.05803217528359624, 0.3997206162094884, -0.4399014146273172, -0.05210329079194253, -8.188410233781989e-05, -0.2726541508666398, -0.03804142907405603, 0.14863508996685326, -0.06261684970031069, 0.12410983600187665, -1.9961243922545876e-05, -0.08975836443425067, 0.05921183960542166, 0.03198984634088769, 0.24207827198216894, 0.03891326016611888, -0.24176161970236926, 0.04710141545237294, -0.01695638827238896, -0.036851352629706284, -0.0006539404330965652, -0.19540835379634508, -0.4482772274629217, 0.2781968428978007, 0.33428765416599343, -0.13500909327185498, -0.2022416875628662, -0.37106129296830404, 0.08800196464806864, -4.8102808974131046e-05, 0.24648576498710517, 0.1585406848361859, -0.06604634725916605, 0.02571575236053356, -0.2225724416330675, -0.3256254169382804, 0.40511943617131607, 0.13634180490418218, -0.43291824652523236, 0.17259686197518043, -0.300345980757965, -0.30428754177731476, 0.4938670231600417, 0.18118289521825873, -0.12449759583220679, -0.2317575335634733, 0.01050550377135971, 0.0990256351127044, 0.28232783814423995, -0.09594299175559944, -0.20554300216510937, -0.12237241463638283, -0.004141067099096005, 0.04168899437842936, -0.48951844913561504, -0.06101920651174862, 0.20793917102438447, 0.12032806589055181, -0.04490881374609755, 0.08654304218602964, -0.06346705596299605, -0.02320745110372389, -0.1758095199673973, -0.05568067480126332, -0.2113231880379269, -0.15266191997901335, 0.3585544750492921, 0.00011112513577159647, 0.06492354717590978, 0.1355580290182147, 0.024603601096654402, -0.028678407350943885, -0.28002580389840787, -0.25179420192656626, 0.2037535855220266, -7.600962899879319e-05, 0.09800785707059093, -0.05371433204681411, -0.12552885367229707, -0.26713586779256804, 0.16188962789871952, -0.11007641964192756, -0.3335717350818259, 0.2955398986094958, -0.08564813355260602, -0.28611695503080214, 0.15087733287743543, -0.0587476832540166, 0.5065557820241878, 0.548757348223212, 0.05774345401328024, -0.22318120198936758, -3.604686422053807e-05, -0.13590014622892077, -0.009953993069855607, -0.406658485918642, 0.07875335335629823, -0.27024819129868694, 0.05158506161968892, 0.06386113650520214, 0.0035583174848221157, -0.07763668518681957, 0.14746320892482356, 0.3346508934382337, -0.13302306530108057, 0.15146603269722936, -0.22131354409752865, 0.0004965835252062985, -0.07944992517257199, -0.01421801188033096, -0.257028247603183, 0.11804706679059367, -0.39212360912690936, 0.14591872925640978, 0.001980489406764914, -0.04059068586295799, -0.3017126406932941, -0.03366941528232679, 0.30334551326354814, 0.05565129131368922, 0.2822466002732093, 0.13473542178394085, -0.08790094072403998, -0.30477466218126525, 0.15041551404523093, 0.4008414701471505, -0.43971186263873147, 0.09608728337898165, 0.41622369808656984, -0.0072749257808201176, -0.14397783454161, 0.426013780416755, 0.07852595604535796, 0.04052765803823294, 0.5237580395751295, -0.0002575784227972115, 0.14329766976024338, 0.3098387587533381, 0.0014115348669733907, -0.18046632543321792, 0.01784637445631182, -0.16545811259422274, -0.00609935772621385, 0.31778878017133727, -0.25135515888065263, 0.2582710244617932, 0.35237997666219206, -0.2260943303294824, 0.4504372255189896, -6.772108420718374e-05, 0.38501710482623963, 0.10758377116135855, -0.0760129933397244, 0.05716296005601001, 0.1426701796956344, 0.002320871468442382, -0.36066232572993906, -0.12152167961400892, -0.036684654036014355, -0.28817950614908083, 0.17062813977065183, -0.03928501274533529, 0.19255586151046064, 0.12301170751414912, -0.07163279239454808, 0.0890361403351267, -0.5057475826010159, 0.0023171751779081286, 0.06787303654641456, 0.08053920395871474, -0.20037658115827114, -0.2814940451411812, 0.2829354385470061, -0.19394898759163734, -0.18564105065383546, -0.07236578128973689, -0.07237928720574337, 0.009803224795496807, 0.02709620650404771, -0.023292600701062663, 0.20917657506097043, 0.005115885853301122, -0.2937607047976537, -0.1618413643418167, 0.17174204248422498, 0.08151424574242053, 0.1234929540410794, 0.021428433576777296, -0.3451160557323528], [0.21886742456227326, -0.058785584997720325, -0.04371207449542087, 0.050000447700651714, 0.1611580402667924, -0.13973683949206245, -0.2242110945456697, 0.2574325467386588, -0.1334900075237585, 0.019097237304545454, 0.004355647635423319, -0.3409646052030357, -0.3215743443113169, -0.14892301084990936, -0.32898800466024825, -0.43212757421930814, -0.13056379019358114, 0.4543244322375445, 0.053993243959918294, 0.17589236087901589, -0.3584642801742695, -0.06750338878885241, 0.3062356028565725, 0.5172904744719435, 0.08892095643159235, 0.5009387476382299, 0.17901958215014568, -0.13024296213182635, -0.682676175888983, -0.3070392711129461, -0.07026946749903697, -0.11719130090120114, 0.1823278579496955, 0.18862799790063547, 0.26820528253024445, -0.40808333924003537, 0.11687998976183642, 0.011828595543838218, -0.4462561883231623, -0.11725412592830674, -0.07835066723551574, -0.0632206080836908, -0.25359675505509144, 0.2524779360653161, 0.020775389744618282, 0.000262514650889442, 0.17992362794437974, 0.12883377290702921, -0.11712878057549138, 0.19401846710234846, 0.04662755614771176, 0.3799817598081132, -0.11582067123891295, 0.041704568659976855, 0.07745350920386981, -0.3009687641212071, 0.20697141737400723, -0.06950119744611195, -0.4352031565684485, 0.10802432867889693, 0.42537740003238117, 0.1354223809292696, 0.18425370571017796, 0.103742728057349, 0.17772264088826425, -0.0002126781907574149, -0.5651880810763164, -0.018875821129624184, 0.17332772634023644, 0.44796113129134046, 0.26054734228221993, -0.00034898456709324914, 0.09917438809621917, 0.15653578187842468, 0.06315788558181498, -0.3086377038491982, -0.2492381080010295, 0.09631555821032954, 0.17869709951716356, 0.1572030543739588, -0.002497052126170358, 0.0005310129856135407, 0.18741950832877746, -0.08342737903667337, 0.20883229737676604, -0.11042699227200514, -0.05297087875128213, 0.15654573080543352, 0.21798099916008415, 0.096789703417713, 7.810630937332463e-05, -0.23680685645634839, 0.24846999265646608, 0.17618336497378334, 0.18404388144347186, 0.21646612555541855, -0.01902639593347389, -0.11624364136185227, 0.28658738720183685, -0.014674025218532144, 0.10810648579900292, 0.19198495209427913, 0.10532681767613292, 0.1751736767334708, 0.05559741840419191, 0.06345444445430715, 0.10575448658179872, -0.012270788862110422, 0.2622962697050061, -0.23498179190177795, 0.06899929308406536, 0.1293779716229522, 0.21181018773210816, 0.11368948443930249, -0.029145406928210424, -0.2479116880033844, -0.04499479635419922, 0.3003063888073105, 0.3239644082758202, -0.011600983816821868, -0.21801119475017552, -0.06857687683141904, -0.0015554519833488917, 0.023030313227901632, 0.010485354784567144, 0.23660901087278613, -0.05552273958785742, 0.18774698361882827, -0.0001363737456799147, -0.034027579559216994, -0.2954210415895792, 0.11192584958417762, -0.10109087826475546, -0.007546713080977072, 0.1319787000724326, -0.12476296112402814, 0.00012796176109276187, 0.054489108222165274, -0.44565538267480526, 0.03156731065489428, -0.18080308746711016, 0.4745146545846006, -0.11873516627077756, 0.25324723681240935, -0.1809112858382183, 0.016244071921314825, 0.12912539127366793, 0.04839728296989618, 0.021775875058515567, 0.09057577786240562, 0.2911651796501603, -0.06597611236183297, -0.05336691047700171, -0.0003317923096691486, -0.10897561924462618, 0.4686826106231962, 0.18983932094120387, 0.22483250776072425, 0.13215308213322888, 0.1479741940899223, -0.10875894801054492, -0.4108887891994717, 0.29675309189514787, -0.41641991045870175, 0.25659957916904924, 0.1743233219883378, -0.23083802985235835, 0.16655173664253606, -0.0014140269066662543, 0.45234697643619, -0.044053887229575615, -0.14899194054354326, 0.30356292707124544, 0.25432274009798334, -0.5300552247470803, -0.06648135782709079, -0.26940410723732855, 0.0954809875451413, 0.05601427532338826, 0.49073007311869504, 0.183757088942401, 0.05150804198133069, -0.09864806091680543, 0.13155454401587402, -0.3899163822411348, 0.15254279578120256, -0.21583412048744283, -0.2301237810422508, -0.05776741941506361, 0.18922967979526698, -0.3550207399280225, -0.018092294483483425, -0.22141952007725219, -0.1308730641198325, -0.07049365361653029, 0.1633342588975438, 0.0006483604573580935, -0.3942525983647454, 0.09489225403294088, -0.31432473632162605, 0.003596528447544222, -0.1671354134251165, 0.21691148760580123, -0.43427773748290455, -0.11062302978153794, -0.061550244918856196, -0.26824357482473954, -0.09000213142454577, -0.20660151905957022, -0.18180529500506304, 5.5837286772840325e-05, -0.34227932361067476, -0.17013163245050258, -0.08040133089296689, 0.3158795401337121, -0.15674687994939002, -0.38257913635167634, -0.17616643042141047, -0.35392418544921983, -0.11006442505927479, -0.050244073030204874, -0.13495856531274253, 0.1651503530651679, 0.26241202363098876, -0.24396814922774443, 0.09329742758484633, -0.35224314786266386, 0.14419583982818782, 0.33716184735777227, 0.29430157003549356, 0.2597680296260881, 0.13023149304970102, -0.09222591200967749, -0.163006436445219, -0.26866586573842605, 0.14555745006291604, -0.5329032647905171, -0.42490169882814294, -0.00024232785756200462, -0.1615939038326395, 0.10858640078707198, -0.10311916079618963, -0.0015529508497860464, -0.2413470481183666, -0.2642048401206214, 0.4930189303829555, -0.04554629543263033, 0.13433491239805537, 0.06443021121565645, 0.09960292336577599], [0.08084310706860702, -0.043382838539892346, -0.12077896487065627, -0.26319784421248166, -0.011042355386346644, 0.1620945383382478, -0.055231683218290584, 0.23269548202374474, -0.017600048488520398, 0.16864137251868178, 0.0634860019981022, -0.11522547760970757, 0.19445621220471562, 0.006754674673846206, -0.4805240477708572, 0.4111753426877114, 0.14448606294472816, 0.29500354810532026, -0.17023468377960033, 0.2458240983248146, 0.12276018426549137, 0.0497684744670892, -0.45937603452694953, 0.12376539151155272, 0.2301720494494252, 0.01809005278166741, -0.1642336171355434, -0.146234892648026, -0.4377623897438704, -0.6464288563089131, -0.04653463647861262, 0.016667891500242848, -0.1156877385608148, 0.1384343314988089, 0.23112546482985433, -0.10548333450721054, -0.2126435947914989, 0.008312557008858957, -0.06611285277248835, -0.5532314939438625, -0.03984743620849535, 0.11798841119897988, -0.17538211156407027, 0.18703760969967514, 0.2203474469047535, 0.0011216141593380822, -0.11073592866970135, 0.005087557005881874, 0.11275394331905791, 0.0619460804357474, -0.04196015526157996, 0.014987014517190443, -0.10006633429340353, -0.20556949734919264, 0.09745041185486232, 0.09649644411500692, -0.04305612396411108, -0.17314090848261182, -0.1518149037925107, 0.02308285241364432, 0.1071488627568632, 0.11250487520620918, 0.055690452078766904, 0.23054143670587932, -0.1834912130631272, -3.1232119804223727e-05, -0.21643316028723622, 0.033571727366997005, 0.07463285236106389, -0.2597236481518237, 0.013022528320369974, 0.00020470891245943503, -0.03168292219740696, 0.030989627640306775, -0.109096409177392, 0.05217906369393142, -0.3427287786388423, -0.01983844654763174, 0.05186168102638268, -0.06876238588328464, -0.09970036834831272, 0.00021415196930061787, 0.0025592193429920893, 0.053353835974383985, 0.19121494143169898, -0.18062298871980062, -0.09289928594251512, -0.0698773905110241, -0.04658450668415794, 0.08286465771307211, 7.63179439446134e-05, -0.033164387263986475, -0.08145624317331551, -0.16546845912663818, -0.09745916232619953, 0.2652836670772045, -0.09922038742140361, -0.20387625076374302, -0.2070314828753041, 0.1277112283655965, 0.06335900200164107, 0.04319432622326913, -0.21641404913325968, 0.1651159746464636, 0.2499526362027583, -0.5730167675460958, 0.454271126860953, -0.009287745633039494, 0.16739795059028967, -0.10231005068734102, 0.06324765085885144, -0.4706457066501187, -0.24587383317626368, 0.06527652950852243, 0.0061957489621567345, 0.1420517813696104, -0.14015734371519925, 0.03379066216507292, -0.10118488362861158, 0.641304240965792, 0.17093881107875372, -0.1917255061044058, -0.029081308790637448, 0.0256761083246307, -0.3314459243647162, 0.01539510627449716, -0.042349578962693236, 0.22525633126818762, -6.244233263290672e-05, -0.04567581430478234, -0.2427054720305599, -0.2674556337829663, 0.015409893102475885, -0.08762289716069636, 0.05046138400079349, -0.00016441953197398804, 5.5257470117318395e-05, -0.26979389683641686, -0.27245124685460337, 0.019803470735650107, -0.08574941046089346, 0.45920850116769407, -0.11955530293809645, 0.20123427349644396, 0.2743696061076866, -0.22393406537894212, 0.23195373935773542, -0.2588975472147742, 0.0809824129484193, -0.14652420353388268, 0.16564585184794636, 0.4209474388411953, -0.061114800317138604, 0.00019225208760305606, -0.2154036235038699, -0.13903978141156115, 0.19056982481850954, 0.31435571406782353, -0.1845937010610398, 0.005551546195255358, -0.2120440751521314, 0.052434328577415146, 0.20740939077511392, 0.20438924344857076, -0.2690025048250651, -0.08111311697109784, -0.06627287075886266, 0.12030438151106713, -0.0001528662261678995, 0.22572493685835598, -0.08170979374164877, 0.1030389688756107, 0.10946767328248835, 0.557597340476497, 0.10604381722111886, -0.25106019303803073, 0.14413575531652575, -0.0828706905902647, -0.07672020671156202, 0.2554852554284586, 0.10976021759139945, -0.181435655461832, -0.13956995049844173, 0.14475288407994005, 0.055845859936152945, -0.07050604869718007, 0.10131359689353167, -0.18266795205306322, 0.008906565944590678, 0.07431421090172917, -0.28101912877409024, 0.03821883163292862, 0.04169210471345084, 0.060586431431330565, 0.19263198464251094, -0.1652850884285579, -0.0005523420761661949, -0.26433363873024635, -0.09265914940053172, -0.16387209726766544, 0.08983397299423188, -0.14565833922262203, 0.2611627263347325, 0.1073761418367455, -0.2612167672061039, 0.21255656186690208, 0.04586590583975993, 0.12265608193640747, -0.4897854647789187, 0.15741987722225773, 2.5156556509194305e-05, -0.3306643655071029, 0.059867564481681956, -0.019387879295848422, 0.0712513189054545, -0.18738258019860124, 0.2686677852716383, 0.46849351517522436, -0.2530710735985414, -0.14539551620805954, 0.16184955055473507, -0.07740979362968942, 0.11500123756464826, 0.0996198700301828, 0.212489988909531, 0.12998837979622177, -0.09584011287023117, 0.13839542371640381, -0.10979545100141469, 0.01263511538558797, 0.030538199313534516, -0.20073271576663387, 0.31750747068802965, 0.350651141841364, -0.12548988787912477, 0.12422192057646778, -0.22826789742931505, 0.05499476550945585, -0.0023825760289714966, -0.24997197226425227, 0.28977781945210573, -0.5762376617296158, -0.0016603433792482766, 0.057566826450503636, -0.259442324504919, 0.2904714479710608, 0.03437418145573074, 0.014006862600802293, -0.08914633851283474, -0.1873417055320465], [-0.0950862972492081, -0.11664959730755488, 0.05119361234964304, -0.17582335105918184, 0.28201890987039935, 0.12425046224856992, 0.2188362423826291, 0.43750671184591594, -0.04104827312841209, 0.016954730819601235, 0.5814927730913273, -0.052910569690734356, -0.31074979745958, -0.26449015019765876, -0.3154750855486639, 0.31826162143510256, -0.033893751297922735, 0.07901984897954968, 0.1199373649687123, 0.24846674551624037, -0.06892902864745301, 0.127210164103268, -0.05620044342210986, -0.25430729227214477, 0.04496171346987422, -0.15859740697560415, -0.08530272572811108, -0.276115884506682, -0.07550181207254525, -0.15121880845859703, 0.18372795824782148, 0.1551051506965598, -0.06715442795295389, 0.33558535389185806, 0.2364438239770834, -0.11932801946122511, 0.03857628134936134, 0.24096060861282328, -0.26283217157468575, -0.13093467194161704, -0.0899025040803746, -0.09947566034118993, 0.2459343940189034, 0.07062092776393014, 0.1082569674171697, -0.0003645754112211112, -0.3266741196066581, 0.013793676080391917, 0.25648596526652684, 0.28072980621195254, 0.017590046434317334, 0.019102213118806628, 0.028392025356205945, -0.12447681641119228, -0.08613693278337867, 0.1967050362129196, -0.027080347341588054, -0.0353312068100797, 0.10947042001269817, -0.08248938686206933, -0.10122949255710045, 0.1465474139906223, 0.15524877269010073, -0.06698146330746271, 0.10930205841152821, -3.374260323873277e-05, -0.06739902561227515, -0.06392275150957558, -0.033309494900151414, -0.1374786693033985, 0.12706225916008443, 0.0003751336125653052, 0.01642571487184552, -0.11214999560232318, -0.12815609941560463, -0.29508980275318836, -0.06708407873693965, -0.581428911074847, 0.15726245343021225, 0.059179920008547555, -0.14547232478743952, -0.0007616155155811036, 0.1770661136751027, 0.026279637153447444, 0.5877827005305204, -0.6807478161079523, -0.06700209866971622, 0.03267450195603797, -0.26174552459555617, -0.183045675593418, 3.950441083196462e-05, -0.006676831272408753, -0.33896888653479595, 0.20296775515019616, -0.20379307916460812, -0.12399195537130486, 0.025044180241143667, 0.43731851479076617, -0.41324463024489466, 0.6072982397079284, -0.20260075961106921, -0.4113151382391485, -0.16224856070025973, 0.09940378870156127, 0.5368624916229852, 0.02488536704256086, -0.16348356825324822, 0.007284000239749368, 0.14383989354605078, -0.11644230589946002, -0.031153380665237148, -0.14670257043066026, 0.007317887182469857, 0.08931582065995562, -0.06435774270100825, -0.027624729003203348, 0.05361876912563604, -0.04664982055760379, 0.1093817682442873, -0.13005960806365502, 0.14911488365824463, 0.06557730409942619, -0.06194196542526795, -0.03238588739393952, 0.3459887415017058, 0.10660782056235739, -0.16795626920132178, -0.0545703446123249, -1.0130083394506922e-05, 0.04032275533578144, 0.18197214181732796, 0.05522009227918589, 0.12686762017342865, 0.33071607969346273, -0.12610649750535619, 0.13742446001389286, 9.164348019583777e-06, -0.002570321070657723, 0.08327099973209529, -0.10298865704971412, -0.3561979184974422, 0.12676733757986516, -0.04072268882780827, 0.1746035198896059, 0.04460670589228277, 0.005706012491858387, 0.008193102748018733, 0.16935577457557918, -0.10912240355286261, 0.2556360353002178, -0.12637992360187547, 0.007511782824321909, -0.07859796679397667, 0.00033058717837896733, 0.1678063077303387, 0.18427844398479737, 0.11773559021318997, 0.2983458723668057, -0.28253324836424415, -0.10086275679481278, -0.014728491421941598, 0.08967891519172744, -0.1314655087132013, 0.44175070061203847, 0.1407742670192654, 0.05661139979042864, -0.08781557846767518, 0.14871116651207517, -0.0002935247907895442, -0.19593018299447532, -0.0533992613873893, 0.09074986092984143, 0.20834343302061029, -0.5743778773822147, -0.12967242265602336, -0.13131336062274862, 0.056510248725276165, 0.26698980784719334, -0.18107735257430885, 0.11852519650470136, -0.04318532560938971, -0.40920154396990327, -0.2515782186847601, -0.1339907845024465, 0.0654803129816331, -0.11544882325621884, 0.2947126683710129, 0.1419100002546514, 0.20983481576863341, 0.2987352142492277, -0.07323540708955066, 0.12412149588109923, -0.013858658935933073, 0.18973425271946895, -0.016460104251939913, -0.20473592858615855, -0.0008679758542034015, 0.26892394718853735, 0.08852322438076461, 0.07809674263856119, 0.0467399602442521, 0.09869535463475668, 0.26478064708249727, -0.0042706908423930465, -0.006217370653956678, -0.07983176730430783, 0.14771419824627613, 0.03411287876178296, 0.30352262786672457, 0.035781757441376044, 1.8224193212106315e-06, 0.04435523272300098, -0.007011231829843635, 0.09333641870376568, 0.21765141638957272, -0.17658886826409342, -0.1686702224717192, 0.5016541500490382, 0.17018819399242308, 0.009945542183031217, 0.06408026203468765, -0.3545917954959639, -0.0407053845141922, -0.11905951363893641, 0.3154488207053111, -0.07800127157788149, 0.21253466191460668, 0.0467473099849393, -0.10702051927729875, -0.5161214673756909, 0.19891706814574153, 0.022619273755479057, 0.26544564305412705, 0.19713809904865787, 0.0015335278511214663, 0.06943770389516023, 0.32194515332514567, 0.10475231814285227, 0.006754214668637004, -0.12832790325397112, 0.11762865608056797, -0.56134881911461, 0.003276707056106482, 0.035003770022162956, -0.15096508092849106, -0.31954001386274555, 0.36393156632861795, 0.05871014112030293, 0.08774187037684417, -0.30726882117026205], [0.3382615755496367, 0.08663150717876276, 0.07103317279467274, 0.3591980201427138, -0.08588770703602591, -0.07796204567126384, 0.4190094227110347, 0.1262916393018206, 0.0181996740676697, 0.2715484733034591, 0.21981584016127853, -0.0358104804027315, 0.08473144381282596, -0.25394077546521004, -0.2969383545195792, 0.04454847592168376, -0.1549304491597932, -0.177952599113818, -0.12978441002552876, 0.04294330597217182, 0.6780004136481221, -0.08546027370804755, -0.1883655470299797, -0.08796107731407671, 0.3733986413928567, -0.3802790654649541, -0.17557873707003743, 0.10240905322343115, -0.053339590119500575, 0.038802071855012235, 0.3538722370101901, 0.027475653705970448, -0.4771898999000009, 0.06855899991422618, -0.02314131418366469, 0.11542068288027332, -0.19164908437601363, 0.05643670899773355, -0.07348964747116855, 0.07669630903133058, -0.1383641246920156, -0.0741036025236722, 0.14356465833993162, 0.13102385122398044, 0.07936266159816222, 0.0009079200990423234, -0.13738672600222784, -0.13462404352336987, 0.26873864154625265, 0.21973317216380095, -0.274444094325954, -0.2786741487099856, -0.3568275115040431, -0.20597140866273383, 0.02904054970230157, 0.15834005434327258, -0.10199061977916098, 0.010215986004341496, 0.3710859589745753, 0.09655513104273472, -0.3778995767165542, 0.05619506164038613, -0.05795215212551278, -0.09191682878083068, 0.21180849749410763, -0.00010170845695143869, -0.3947232374141409, -0.2316610616084965, -0.12595605304957458, -0.06159524796609093, 0.08878138622987596, -7.263129845531884e-05, -0.04786307272384727, -0.30616708754644223, 0.01837243011993873, -0.2662883449521418, 0.2671050371026036, -0.2782138903428192, 0.19710675251541224, -0.17663885783562586, 0.09061728392318077, 0.0002768704810788565, -0.0553953065164889, -0.13445127084318972, 0.4706749742287013, -0.040640290790282044, -0.08011661427995403, -0.13184650714611298, 0.036386739593313434, 0.062039464315741095, 2.2948087753613303e-05, 0.09089585924552186, -0.6092620586886408, 0.1334372448688745, 0.08395159780492284, 0.29184183262866076, -0.13858414704392236, 0.29425669704012763, -0.11409742813931355, -0.0025649656685280153, -0.015036371821097932, 0.0905982202637805, -0.3403941145630549, 0.02805960563082886, 0.07034559567270093, 0.007326660472937837, 0.2896934327326512, -0.0023837539683168076, 0.07428709482503922, -0.03154904965429149, 0.22776733838276697, 0.37643146557334206, -0.12020529349919198, -0.4944882061654729, 0.043320467179381324, -0.25826036677873737, -0.38501447015278845, -0.032592222525144925, 0.44207055664759115, -0.28600014230176696, 0.28018916006418054, -0.11663127938366227, 0.02972236033967309, -0.06636953646550946, 0.042679261275637995, 0.0710671324316305, -0.09453422404575695, 0.48719500049195535, 6.975607944640804e-05, 0.19253929527933408, -0.11127126757484869, -0.4251520129196071, -0.006277602118117104, -0.15466234308007507, 0.21672888181454816, 0.2034328124768275, -4.092869563859726e-05, -0.1489784008723897, -0.23075922666964946, 0.004294559379953512, -0.2636140488330259, 0.22648660855894098, -0.05499709382721106, 0.17833353822077974, -0.16325862957996562, -0.22961580231392045, -0.035786504111357954, -0.1024517406026269, -0.09724792928824356, 0.26218302957243816, 0.07257441970490082, -0.34048977916845624, 0.06726049956096221, -1.5378419890533673e-05, 0.10435539398115659, 0.25771422937074784, -0.1955613223066441, 0.4116590718923701, -0.2755675399422478, 0.07393124231008777, -0.2679502428196037, 0.28174977754492275, -0.2665393980565457, 0.28353834437604664, -0.17450107289629682, -0.3487576991980516, -0.16104901491267232, -0.38833364404989906, 9.69246439141071e-05, -0.43624819864711895, -0.010733896051072172, -0.40339333088356855, 0.03959552616641797, 0.2865582328049395, -0.34160832213386083, 0.20563654094727943, 0.019050555964724915, 0.16547401621411706, -0.7357993995707998, 0.32635252675000476, 0.1576966877540518, -0.04970486026930396, -0.0011530856883084288, 0.08250329366122912, -0.6937967610108429, 0.3414268214315061, 0.5114537735718442, 0.07812070130253759, -0.10208187054140622, -0.058427977666678524, -0.14529408570833569, -0.005714807665193783, 0.094526172456172, 0.05586498559165123, 0.15653334895121895, 0.021640474811784997, -0.00021123088267656898, 0.03021547624617931, -0.11070485551082294, -0.44522695560110165, -0.18246581395572156, 0.014701408223730806, 0.16513961331511043, 0.06423743801250743, 0.23297167228572005, -0.012106280976494525, 0.04078254687809205, -0.2904631878890471, -0.19582533943562555, -0.4005040323197106, -4.795990350401746e-05, -0.24656323086140375, 0.14283265668664685, -0.0730588725188064, 0.43365086767689126, -0.1462537309069227, -0.09481247730806053, 0.06584361770144967, -0.2630481881835439, -0.05886000708159894, -0.11723810496451868, -0.5050211839796753, 0.1611224335634983, 0.04938062163817608, 0.5425129662895846, -0.13486017739493458, -0.055885205504657406, -0.39042791241085945, 0.010271050693803505, 0.20204956250516334, -0.2851397062268419, 0.4357591783972508, 0.12724569244491435, 0.1316312159813978, 0.17586876195059653, 0.2265993157752194, 0.02628071624732182, 0.4271126224132238, -0.004806131792530138, 0.22505096238399508, -0.2766312224621507, -0.0871864586182703, 3.891988418251208e-05, -0.5017069494000661, -0.19796417892791918, 0.037630162480911986, 0.045258409820165324, -0.1370231176690225, 0.047780909165584716, -0.018292649283281927], [-0.18542595279481, 0.20968864004717627, 0.2960416831191763, 0.1795464067100959, -0.03048516875096676, -0.03695972107877618, -0.03891325574385112, 0.5610210828185163, 0.07216327819867882, -0.12103471740270617, 0.3770865805073349, 0.016752584400547395, -0.3666463304110661, -0.27995543908482917, -0.1021612730547051, 0.040304539889436136, 0.12712167888042905, 0.21297914172796198, 0.4643313091948585, 0.035594758278298715, 0.24594192518584218, -0.07282760209293854, -0.18348911003764395, -0.31128540871333976, 0.23769369440798016, -0.40963323031550397, -0.05192225855023369, 0.06550345089978973, -0.13916099670749177, -0.11031203959795201, 0.4254845343970863, -0.07967814846313602, 0.10874943262315045, 0.597384414922559, -0.28887997191426834, 0.2333648043425408, -0.06783785003883484, -0.5596895281885469, 0.225058739779334, -0.15614526772903115, -0.37968148750157277, -0.024993735884228933, -0.1695600400357832, -0.11905793549535205, -0.045550063213975645, 0.0005882852974955183, 0.09510851133717303, -0.06519359725706815, 0.00098760373957268, 0.15786402093063256, -0.06907194357731315, -0.25564963079268155, -0.31785512953454, -0.29936232383124656, -0.04298307678550437, 0.08881333921079347, -0.2590464009679422, -0.13955107654545015, 0.08947188100120075, 0.08647586700179527, -0.012442642587505104, -0.07212408540555158, 0.29357899704678186, 0.09444600743178495, 0.23550176691670346, -0.000173414397228953, -0.3042693997027394, 0.09311036367403185, -0.14694158006561245, -0.27587115944577745, 0.03510707839363212, 0.0010017103677438302, 0.0036105605146211626, 0.01606831927518655, -0.0033311290355809743, 0.11140107513622234, 0.015499377618191493, -0.5078191484089003, 0.04617686958403641, -0.08410244337613064, -0.16369075397297422, -0.001168264117547457, 0.16439049231593167, -0.2516876830472987, 0.24392963831488804, -0.4507978888149212, -0.11402072645025718, -0.2558006218156316, -0.09452870344114253, -0.09381563946123823, 0.00017158499556864525, -0.24890512076864207, -0.3318945558881184, -0.07679758785732048, -0.08412727690515272, 0.2573818064366815, -0.3787951346982375, 0.21094288029053437, 0.07422763747889248, -0.013352103787532136, -0.019601382643184936, 0.14430366232040107, -0.149794369759081, 0.36990791035892623, -0.07979195903225936, -0.4192226281707637, -0.13397667758353332, 0.014538805174065732, 0.011329824289923674, -0.29652074251214156, 0.02809842193509678, -0.14996854858101322, 0.13612697147991332, 0.12161053013231111, 0.03740687640725839, -0.32120639243939025, -0.01361351154477624, -0.16193169657591694, -0.02144765076295366, -0.03377578576440291, -0.11986987538379923, -0.2781132744574327, -0.0037956992287504895, 0.072370138278227, -0.024376496312073632, -0.14373234566765553, -0.10572068971515496, 0.10226372795936849, 1.8079623399066876e-05, -0.0870547191186336, 0.22931805496093027, -0.21473756512817316, -0.22889893777925224, 0.23299990678475338, -0.061742678093242555, 0.1732122250498127, 1.23659350045594e-05, 0.23958013976938114, -0.10467647791639749, 0.23248867705239698, -0.18782648004573355, -0.0073700740317667645, -0.0879546076970581, -0.02802171617633837, -0.5471021486125633, -0.4132927014684942, -0.1602612912835906, -0.11867597173564332, -0.1694716054408814, -0.18807987838714288, -0.11458715086864908, -0.06196830559731637, -0.015571840622649703, 0.0008936030154788223, 0.14230005197625467, -0.34697298068197713, -0.05791100877356944, 0.40418166685971, -0.223950259213156, -0.05916672990147102, 0.041712485587847, 0.3195249812772545, 0.15751849524981262, 0.377090101940432, 0.20708367996959998, -0.5946007887872945, -0.061225206265348935, 0.10496448859225922, -0.0004671003123795961, -0.1842805169125887, 0.22182204389782414, 0.02288110521340446, 0.1864713044261862, -0.1952488016225258, 0.21473906177306523, -0.06289452455105461, 0.3069632931024485, -0.14229214188309275, -0.22228706274182017, -0.021647864922505016, 0.07032099934794801, -0.16552828033867087, 0.11054508923902721, -0.01908144350101479, 0.3389902715032443, -0.027118748864005202, 0.333863930558412, 0.021521481688388928, 0.019989409047328627, 0.32391085085973215, -0.04278957515855154, 0.04871546119064856, -0.0030081385714987746, 0.19927589252332042, 0.15768751367333125, -0.6226879307202592, -0.000650394950474908, -0.14522399390222476, -0.27130678938916536, -0.03715362648880817, -0.22903688638334863, 0.01368501509443139, -0.014272916182265574, 0.1278823107153083, 0.09820909944775826, 0.011371192236409398, 0.2955455430047403, 0.2758177675443002, 0.049416721563984606, -0.17012051743875892, -2.5157357766949797e-05, -0.0011962023326003272, 0.03217995187390145, 0.09248424131916956, 0.07447913874075304, 0.07307134160604255, 0.40691906248574117, 0.21411750539553065, -0.020204300569566135, 0.07690912684011492, 0.060635863453152666, -0.06540821543714806, -0.06634648318192901, -0.08090403940352042, 0.11689794844290147, 0.04734315277864198, -0.20714950335896903, -0.06423167611906767, -0.1445739902184381, -0.030799826825486546, -0.007371643245056554, -0.032585996967767775, -0.23252706719585947, -0.014181951110630892, 0.22822150916126854, 0.6556060578817101, -0.23900043985217712, 0.2332294107750491, -0.001285375716807361, 0.01963997986251924, 0.08465841877981241, -0.34369683822116315, 0.0051505418551425096, 0.30357185843874757, -0.24995779141009714, -0.13432093884301588, 0.08387225042044229, -0.18375085290401807, 0.26961664412755587, -0.11928119548947552], [-0.21159306003919517, -0.09091076627780957, -0.07434240784214372, -0.11112584670162665, 0.002409265488792008, -0.15561322326013888, 0.16931994293053707, 0.16156229989234727, -0.039852946609487475, -0.0685517045550669, 0.004758707816576329, -0.1415684631256729, -0.6770323143450453, -0.09459071412497837, -0.031279234046603155, -0.15702720956937735, 0.09148413611861078, 0.10971222823398553, -0.07064718746161093, 0.06424643709039429, -0.05178353716724002, -0.12044962607115445, -0.20355266311652012, 0.10744937876723823, 0.31878343335395753, -0.13710706617747542, -0.22534947298210312, -0.28555078289376845, 0.3219189026003639, 0.13463081821492104, -0.05679945856238063, -0.07859915927827646, 0.13590996160781982, -0.1913064372971106, 0.11437006579411374, -0.06507674471728622, -0.23043680527694693, 0.2795604327883883, -0.018647069944607585, -0.06601638135515649, -0.0707593457590347, -0.09354000631100416, -0.09893980480722837, 0.03813114982323035, -0.24435038652967392, -0.0018480365645982828, 0.520598351006217, -0.05182961661863706, -0.13681486720209474, 0.23706849725310167, 0.45567431500331357, -0.09432915914891125, 0.05194056524483579, -0.18484304641333715, -0.08559214062482619, -0.19565817926719029, 0.09679045776827289, -0.1770369918581479, -0.4169439080828044, -0.12481339863896024, -0.19206528562503047, -0.04546434388787786, 0.24531944631886685, -0.07603348044475461, -0.1023485711940741, 6.391294424779365e-05, -0.14419982256195105, 0.1136057414900915, -0.1140266574974894, -0.0016437074306717028, -0.126938427010909, 0.0010579617294689042, -0.031260849848346886, 0.1626004584333722, 0.15641767132240314, -0.3878900660762967, -0.34905555466259147, -0.26937802963823254, -0.2998713346322215, -0.0845817036978036, -0.017746096420711385, -0.000993423915034708, 0.4730995042945261, -0.20263510389575753, 0.07185390537145132, -0.36898341776885174, -0.11938025364767012, 0.0448371930577101, -0.06365384150209287, -0.11134285531985194, 8.917191110889505e-05, -0.2355279516102455, 0.05228842886870952, 0.26842279043431166, -0.1495789448362314, -0.2170044540499428, 0.11909728244173604, -0.16666340516347175, 0.23384189787751555, -0.043912169349988685, 0.14241560594156905, 0.12075031370636491, 0.017161653970572746, -0.16407121570871236, -0.0718436237973175, -0.25915281851259275, 0.12172614739124812, 0.004812572700692986, 0.10766746553934102, 0.11348475102484454, 0.06883811868275198, -0.18676733703988005, -0.4691504564418546, 0.18700955566639657, 0.04002079926427024, 0.515172810680571, -0.27339821905129696, 0.01566358409014491, -0.03264950498352807, 0.34173210757506634, 0.020752861467900667, -0.18134877944959396, 0.03269898372993585, -0.029650506550463845, -0.11682242648240646, 0.05473174090596325, -0.033589930142119515, 0.361095688959162, -1.9604632343707057e-05, -0.27064893659009526, 0.12156688568825473, -0.1939590996477681, 0.21990018964658137, 0.7279235327584215, -0.3010364905595989, -0.027993340691453986, 1.0790310719685633e-05, 0.07716172092008036, -0.14157713749624465, -0.5209937236007123, -0.05359360872334607, -0.01537844935402381, -0.021888236949020454, -0.16717303928531851, 0.1939929934281994, -0.14272000900983106, -0.07695596480808738, 0.18494875546767622, -0.030626001541579958, -0.3021437417392931, 0.25641722035484776, -0.06489566238283388, -0.07973946123637797, 0.0008355012818616883, 0.11200786471549433, -0.21053739673631605, -0.2423383755157792, -0.3665150922068149, 0.049938042472436654, 0.16178574630447534, -0.08266405234995583, 0.16220856481891313, -0.5608781001956399, -0.08690722550051179, -0.0778181999648068, 0.05409785835693532, -0.06776385027461009, 0.45414285631054135, -0.0002893719219188714, 0.10085176102395572, -0.01587120616267573, -0.13893637466319483, 0.11002438396907796, -0.27904847244907177, 0.05541152064681225, -0.2028664673657399, -0.25652645936825985, 0.0009739770723183582, -0.22168205847368005, -0.24413810861231716, -0.16682818341327166, 0.18401156745771516, 0.18755317820632902, 0.11850108966499466, -0.2445195486497114, 0.18528219141878532, -0.17376059200198266, -0.033880555528984266, -0.08199557712984923, -0.06070738562305433, -0.3928000655198606, 0.008815813157119967, -0.06928414028233391, 0.03359031492543547, 0.013361334539547801, 0.03844023716159902, -5.047142943797532e-05, -0.2978640017839033, 0.0244138190542111, 0.09713001878924056, 0.2035545582569446, -0.04910891967058787, 0.056774706201152346, -0.191739672171111, -0.11171303368491235, 0.07588186509191133, -0.032350036711557985, 0.013256318321225301, 0.21852493382487378, -0.07848306917893745, 1.6268400007071114e-05, 0.4482367276310226, -0.02302442801503724, -0.1455918760894666, 0.20193331656249938, 0.1285417875336879, 0.01805853929670783, 0.25280835108505584, -0.32447373470414487, 0.014778986280164863, -0.09464639144130214, -0.29507428630368615, 0.0006054585692135935, -0.2618670552085118, -0.04779055500756546, 0.2554860615256811, 0.2245271651400676, 0.15033223488298147, -0.09345027121049573, -0.12470268966619508, -0.015582163530138039, -0.1369933090962995, -0.12913839264744592, 0.06434706156285047, -0.016625276903887137, -0.020357332454897764, -0.07423724632629485, 0.032371492886390234, 0.0028276907799848175, -0.17717999165837267, 0.08808929515982587, -0.03994790503476471, 0.004428250483406041, -0.24953871768108452, -0.12897198912737065, -0.10761375715445741, 0.17136853372706856, 0.0029456110823993147, 0.06091186007204313, -0.12937842984593423], [0.17272370902899642, 0.4361334545928029, -0.024800249841473134, 0.12843510170528585, 0.2596113329482627, -0.0014986275930300146, -0.014420535980369414, 0.50892298769561, 0.053222387391723656, 0.12286991191935324, -0.18416839528964637, -0.2993295762183474, 0.02789274808865103, 0.07474622334191246, 0.13516036325550104, 0.1037167877295679, -0.357634969931095, 0.010069901437836034, -0.16737790586442447, -0.013023746199022697, -0.05540642582071926, 0.2875475549855921, 0.4068786383044065, -0.1772994176206268, 0.3218571427616684, 0.184768483130922, -0.19709423064510573, -0.10165610060760025, 0.23124636356173733, 0.12312420726809577, 0.26620855451722897, 0.08967493763779297, -0.6940379444140765, 0.0982971144252271, 0.3033894389180143, -0.347568826298295, -0.0909884889696276, -0.17233091797260197, -0.003988709446907567, 0.268540810299761, 0.10926190553386425, -0.015448227621651463, 0.1366646442357912, 0.4792444778589964, 0.11268945310841127, -0.0014530197709488567, -0.05815844091407718, -0.13296811310848275, 0.3702736756228425, 0.3213813757110168, -0.21002609889010326, -0.019609920562377255, -0.1061746227034799, -0.00521818985829986, 0.0669082046787249, -0.5751458247930596, -0.10190432473430316, -0.3457820520616942, -0.47034214168505317, 0.13024714768784912, 0.3011442917495586, 0.1726649545654406, -0.07749970977179789, -0.2260263934060833, 0.27437448174240603, -0.0004042416564848638, -0.008149187287851405, -0.287506397083214, -0.42167185442135996, 0.24024582482924028, -0.17815143364493083, -0.00033867978153786794, 0.14248959572261824, -0.21068318557821647, -0.0032471310982739015, 0.01239770214418785, 0.2524523030200486, 0.03139709265091886, 0.23531555743067598, -0.003564750482279883, 0.117337244533382, -0.00028750157072732533, -0.032860774476216756, 0.2629041162522906, -0.20700294754263449, -0.344765149686472, -0.11512277461412981, -0.17531509715995688, -0.4766158243324561, -0.02337034995893889, -6.458674547672994e-05, -0.18406690932586736, -0.1869262862151608, 0.35939256431031325, -0.15805059818626824, -0.21377676039548532, -0.19325775246258597, -0.17215802492855317, -0.45197117155788186, 0.1370944086970748, -0.1115090687538437, -0.3375820964433485, 0.06565697384638337, -0.17165837121350716, -0.2123246532498136, 0.2081429124566992, -0.02339219396931866, 0.0075511581969340815, 0.26450156028102034, 0.11238791383388835, 0.2879317037128391, 0.06446959890077332, 0.24078193229538072, 0.02990711847240271, 0.019553923407969392, 0.06088143649502261, -0.1717896597120146, 0.15148794819971753, 0.14431927814609588, 0.24104725862726117, -0.022885896073122372, -0.32127226366203865, -0.09508769628622958, -0.2346863367239438, 0.14419251322448193, -0.06918777702181031, -0.10462555904055977, 0.05575737994572769, 7.226068463566564e-05, -0.1057442124332618, 0.11495734537174662, -0.07839435136920091, -0.005135628989421647, -0.2113882470081209, 0.008177415612049651, -0.01917007869780288, -2.8682811916913043e-05, 0.12923057648381409, -0.40137362066339116, -0.07402074890246114, -0.16232514753782104, -0.33687348362558495, -0.37066718516942343, 0.12758504869956575, -0.3042078586902774, -0.20048739915830185, 0.18920649724224226, 0.18753304233877355, -0.09219971063529513, 0.4736982479536744, -0.2068060919389308, -0.1302283218401611, 0.1893871009035444, -0.0003482013358165314, -0.05666042775160562, 0.1415388106004764, -0.32755783121780274, -0.2013192014575022, 0.1736738822063439, -0.19107398432505698, -0.18330873985506047, -0.2172999319699968, 0.07422787562096794, 0.1379410427572462, 0.1284145044513122, 0.28381092578998934, 0.008789764534067747, 0.21276685051398558, -0.0016505877083172994, 0.06154758060524763, -0.0681172977903865, 0.1167422068633362, 0.04607758431851102, 0.05068450137298205, 0.28577127508333006, 0.0058274567573252225, -0.19156899266954677, -0.11767157182337766, -0.022679580019686157, 0.11447012984045737, 0.06887212036451222, 0.1746670519743202, 0.08225424629374956, -0.19780082124074208, -0.35639420739776884, -0.3007411488049317, -0.29832105906043244, 0.3676200447107392, -0.16082672888753188, -0.21394680798236437, -0.5734428497730737, 0.17154550053260909, -0.34445291232357444, -0.05117615116414859, -0.21140583521562223, -0.22410867575968868, -0.00011146728008609463, -0.15179971785457358, 0.23137763004664225, -0.1757084135615781, 0.25301047217019723, -0.3927100911515162, 0.2609054458064853, -0.817224549130188, 0.15192929234224894, -0.10352497352844253, -0.05973097777463948, -0.3720644841274578, -0.11344140351568582, -0.23415611061345906, -4.864206653092668e-05, -0.03240036981107385, 0.09690349715859287, 0.20398864816257115, -0.307780329091302, -0.07957866292237878, -0.058473993383011735, -0.3051859903566857, -0.117300082249893, -0.12773387579211512, -0.3883222547507479, -0.0905317360794391, 0.09009738956321957, -0.12295724951414598, 0.12525700918591018, 0.06654515323758496, -0.16894991705986465, -0.22477028312451383, 0.07570149638972706, 0.004356352894347621, 0.05755992088994366, -0.08825854124621188, 0.19275766563644642, 0.6539608321404172, 0.33413429512682985, 0.2651059142093765, 0.06507771772729883, 0.03288749643005483, 0.0069624827551417095, -0.16780864614302993, 0.26533016274368826, 0.14712612490083363, 0.004910693056126227, -0.8485290972738952, 0.12136344796811992, -0.24947404622208716, 0.08147311659108543, 0.023168879350209608, -0.16791582192929294, -0.07014353291861646], [0.35947375329054704, -0.3023431097309167, 0.22974969733024955, 0.45331717679126704, 0.47268968639686504, 0.08895726054610319, -0.028841958854316122, -0.15306102671522703, -0.010715004679412488, 0.295411183538902, -0.022365029901954103, 0.3844392256116429, -0.174933418295196, -0.08051279607954345, -0.2318964015923201, -0.684478087716699, -0.3305926686485008, -0.08893940280645346, 0.20365966942020602, -0.32107032733554, -0.21710998201300086, 0.010928409672543389, -0.03879480967322036, -0.26164398582443, 0.23614909114787808, -0.11304297168356485, -0.04614500397967467, 0.09387657505883452, 0.20043993700137447, -0.030393392554379617, -0.4421043557740983, 0.10303282218219728, -0.48488648972302106, 0.19446323114487582, 0.7876257297100294, -0.40974634265642285, 0.2778482681524932, -0.09845654984307689, 0.348461777933679, -0.2251313150079322, -0.11568468927821522, 0.31639689010143496, -0.27512511062858497, 0.24660832047265938, 0.3271081187026142, 0.0008808126763797633, 0.43714816176433713, -0.10249408384580307, 0.4282314786277168, 0.6700915837811864, 0.23387778113727162, -0.12635321806879707, 0.09480570068325485, 0.369697417450497, 0.03284982945827716, 0.019610614659959554, 0.24515515221860001, -0.4133791748116649, 0.5260077377059317, 0.10185504759859633, -0.2623238106362044, 0.08310703936411586, -0.41166439917824116, 0.1376445562352813, -0.09653113126037162, -2.3728644047541075e-05, 0.19999891969031885, -0.18731273914528632, -0.06298602087970273, 0.19887483247834858, -0.05910676258955089, -0.0008942787252047982, -0.025507787253697598, -0.1841500872482031, -0.06489126123797563, 0.33291551256488466, 0.2071605765219223, -0.012029902987426186, 0.0957326835813641, 0.12520202210224401, 0.20154556292501052, 0.0002097340464227338, -0.39671395055414227, -0.028055809334296442, -0.004779376033750074, 0.4883795900071725, -0.012280925653535103, -0.12262916546133201, -0.24043429966682414, -0.11788534322955103, -0.0002632105088817044, -0.020005479828519024, -0.03587610804713474, 0.030854727933991192, 0.22990522509725064, 0.20973357189292718, 0.1396109165495039, 0.2764828868392587, -0.017274231041888626, -0.05492598679468221, -0.05486904635019648, -0.07078646017195132, 0.042728883057780075, 0.09796125437342244, 0.05296902961897556, 0.3388768381099915, 0.09778558998995629, 0.006926047775610842, -0.03534385431226511, 0.34853064998800065, 0.35411047991591726, -0.48191932187447795, -0.1750135275302518, 0.23502646914382805, -0.020751816808514557, 0.20281631773828093, 0.18178389533095232, 0.028656971963549306, -0.1280428397975537, -0.14882302468786984, 0.10989767506896395, 0.13447519651872133, -0.013206158488356623, -0.2188866731921981, -0.23797049552730162, -0.016871002517988433, -0.02351301771231921, -0.19461808021142554, 0.00023963631808955363, -0.017596459395271612, 0.07927353755118449, -0.9018714648408078, 0.06738575490004595, -0.0764016140403329, -0.20985344140989842, 0.16352468797117173, -0.00020610109202522645, 0.38406291753287225, -0.29134830568308223, -0.10232657920944727, 0.16274191472052957, -0.0006414804900700154, 0.01587789843887788, -0.2010185817098777, -0.46109323517310874, -0.0024837760730744615, -0.07634498857088591, -0.11865161045041626, 0.28141695739144723, 0.043916415071468096, -0.11080029560913944, 0.282650043571914, -0.1832975436913325, -0.0007898011873661709, 0.10894340226518198, -0.31334137712085897, -0.6503863426681031, -0.05599021035527523, 0.30762497412572165, -0.20022125168058016, -0.013731643355560288, 0.01574932431858413, -0.3618464388963156, 0.031393722018524285, -0.08806853564530395, 0.16758036695751233, -0.513921774834031, 0.019636287777590997, 0.0011116793873632927, -0.33690520027485205, -0.014042585619628404, -0.03661549798288419, -0.17470763433719838, 0.23846654700466688, -0.04264412165093714, 0.36090633102774944, -0.39814325551867896, 0.04813651148518459, 0.2504287444273698, 0.23343225570423062, -0.5892315511050065, -0.27180331580387396, 0.17025022754869776, 0.03230888775952872, 0.05441996673671637, 0.24778295542958845, 0.2213595390051306, 0.12007916525020415, -0.08660435142739033, -0.21128678114385352, -0.11258277102028358, 0.006377378264377701, 0.17852639699253264, 0.07083674147780475, 0.09785827459450973, -0.21807614807279688, -0.0005980999959290763, -0.2366006926202821, 0.19373680865381737, 0.2895387215465137, -0.2645861458936151, -0.14208238591785216, 0.10327763575780946, 0.04486956009891366, 0.2397177879444233, -0.18499746212121845, -0.04607540594756947, -0.12105855919753725, -0.32233090805116044, -0.22062157100640828, -0.00011481291070650244, -0.11260937697069812, -0.17306772447258179, 0.06088084293491187, -0.00933507808552695, 0.24226270956918874, 0.13376998130475792, 0.0923286467537566, 0.052895149276900616, -0.3147672691052665, -0.09783684487785298, -0.2863692398138239, -0.034718873991924935, -0.020320935644174167, -0.03299325485274002, 0.11521636681818832, 0.21602498899028855, -0.46838138963563036, 0.2793734250272344, -0.03539149487592356, 0.19200859793014202, -0.03042618649994649, -0.18640871241158297, 0.10220531262232778, -0.18947959705126585, 0.38446780668723235, 0.2566358588718002, -0.4615833456610483, 0.002157919131139007, 0.17016394970432291, -0.3732579317448078, -0.06716416979456513, 0.0019371781913896007, -0.13669355247537476, 0.10295082803515088, 0.025870912900554814, 0.1249809866859228, -0.01008827330331239, -0.2922884463185657, 0.06790908086937794], [-0.17680863607854805, 0.5086588072038634, 0.05917000958809189, 0.21002403694774688, 0.10225499168561152, 0.18329209507616095, 0.009399020267221517, -0.12141002806117406, 0.028236196714401564, -0.4589164836205463, 0.23775050529803093, 0.07692828931851957, -0.04207860583311853, -0.4797809305076985, -0.3140269263741408, -0.280223514246999, 0.038601461778151346, 0.07519722744362774, 0.18253581310889125, 0.12425212619506093, -0.05805101476041828, 0.04063180362323254, 0.35975143630592077, -0.5256838113606027, -0.2452248945564512, -0.3673795771639969, 0.2852220617762395, -0.018189390195696854, -0.06087031163821783, 0.07186611732286888, -0.2517856428077585, -0.05028208188253425, -0.24164376282574354, -0.23215892455695825, -0.1064772181192011, -0.1931550124278583, -0.23544858996652207, -0.28308257526481856, 0.38906965558554935, 0.3004895117736005, -0.2833325749598269, -0.1863009581388084, 0.32908303824206786, -0.1230304762213456, -0.23926319520058745, -0.0032983938166718904, 0.021347983607881454, 0.01573331549503111, 0.10114191690011452, -0.11128348387408207, -0.17433957908885842, -0.07222464212527215, -0.3101287235872954, 0.26949035239276703, 0.04869938500253857, 0.5062647509350747, 0.03938995515571687, 0.1334222722876288, 0.27616806325590854, -0.18556735451451178, 0.06981609427387721, -0.10857544256697886, -0.03192743970285625, 0.10538201183256347, 0.2994366417570809, 0.00016018720097300308, -0.2350152592206685, -0.07365512010457605, -0.12172119683551363, -0.10976264495515939, 0.12533733806034722, 0.0013211228429419262, 0.01580623730577116, -0.1479509385003006, -0.058665035192750216, 0.03382832134448387, -0.33438966555708965, -0.0036412549785046627, 0.21335134140038153, -0.0032382117650949453, -0.04023237705570408, -0.00047628749084526823, 0.03003937551942199, -0.21339224217046135, 0.01560074138150364, 0.2740020661264847, 0.026409734083110953, -0.30696170387757743, 0.08969324637812766, -0.10698042417730243, 0.00020199798966895327, 0.14422932188328189, 0.07868616840910249, -0.18681706078890603, -0.04714683971833062, 0.19955765079036716, 0.18311823708721875, -0.0976449824437467, -0.01972656773692124, -0.0917095570064139, 0.13747459154508757, -0.04300581801561477, -0.0683298236488967, -0.17031876174580304, -0.5493212749896242, -0.21574591423545184, 0.0861879056295275, -0.002947606502207642, 0.08263910692650973, -0.2821292737087138, -0.08095545972358699, -0.28122198831287304, 0.059640305443660085, 0.02746859285052788, -0.052606571425680856, -0.2284419082532284, -0.26540108799217094, -0.1186115599746213, -0.5704109050614202, 0.3755581264174128, -0.21902173022849594, -0.17449890020012698, -0.009353821273033306, -0.0837076678644026, -0.2572983809890058, 0.15166128517915198, 0.20233454319692695, -0.039977274712173896, -0.0002213908165749674, -0.14811662330051067, -0.20295277889606902, -0.7641478468776858, 0.3270976581127494, 0.2098894105275297, -0.2982586178798707, -0.08764915254450421, 0.00016244543261476725, 0.4834907903000539, -0.25242356434018215, 0.07299827239392027, -0.13958231303875848, 0.2460910911180071, -0.06888045740588808, 0.02279981017400866, 0.03717813143308522, -0.2902983189399024, -0.2885098943240006, 0.48756342217898146, 0.037453681519266674, 0.2292108437143435, 0.1639288713005582, -0.17397967344607615, 0.34796786851754746, 0.0011091359894511543, 0.42475779862953156, -0.1342465531150776, -0.1488417384729005, 0.37182960296090023, -0.13180703025860083, -0.09438525355410027, -0.013909312053411038, 0.19575747630620122, 0.10963795076191675, -0.04604794923257586, -0.02407948550520153, -0.447835598509695, -0.39185490329090206, 0.2466388534726219, -0.0009739115371379133, -0.4016623536139649, 0.02987765170426663, 0.20820771540626223, 0.25340518595036704, -0.16420701419503472, -0.07835434288316538, 0.058782199280291304, 0.5075526918596397, 0.273090266340032, 0.42142221636566385, 0.025407699760755027, 0.13406279770995855, 0.2963619668893148, 0.11118041333287529, -0.17310229586386533, 0.06392812413044721, 0.22884294936984712, -0.1903574879489172, 0.2640221560144287, 0.2046332658111342, -0.0014280977941783328, -0.01069565301287931, -0.12587035391074242, -0.12143017311813459, -0.03931002501903426, -0.04288343050456991, 0.10295845788584525, 0.0015677717190329995, -0.48903904982268315, -0.1990057920266441, 0.5414720725751857, -0.1187320179701411, 0.25396234126617107, -0.1990497356845269, -0.009403146442367939, -0.20797741291748367, 0.23143968825530403, 0.17288507916527107, 0.03338562917486987, -0.10569125737605789, -0.05827731669648873, 0.00013854702318130194, 0.050489491509483744, -0.050285732837151785, 0.0998227723784841, -0.0014064677653984315, 0.4443202142038303, 0.016273893718739326, -0.0051142573151800735, -0.298305884953765, -0.011174728267032792, -0.20362505662936428, 0.3474258421961225, -0.07687221178874844, -0.0641967286390331, 0.042581806654196704, 0.290825797259081, 0.009658984222183408, 0.07376769372603303, 0.26182015815706955, 0.16082758470601405, -0.04996579355437388, 0.026840167610086174, 0.07947540780244274, -0.1148035678930814, 0.16028131133654674, -0.006878123946931857, -0.6291070949668108, -0.061130774538735076, -0.0033179838533684103, 0.07112232423195497, -0.25392384133375395, 0.31750931253496206, -0.0010423781242735993, 0.19218089481160316, 0.38304092663634265, 0.03597024131429101, 0.054424590257080525, -0.052887325353751076, 0.11929388602516458, -0.46468832134256943], [-0.44129852193527197, -0.167845215567203, 0.023356352013483867, -0.429460840027982, 0.13191118136177324, -0.430602525792957, 0.2526072989554618, 0.12980981295677266, 0.04186827365026528, -0.010717292679892947, 0.3016291672506988, -0.011428983579449695, 0.13288162911797263, 0.0518593057672991, 0.07429459763525838, 0.38708762664679996, 0.01611691336555937, -0.05499717176624023, -0.04382805054238457, -0.32194038957099175, -0.3901291476378488, 0.10970557816876919, 0.3835875933294025, 0.21415234976094719, -0.12235614836420415, -0.08581472329116127, -0.22019592284449385, -0.12284592354468869, 0.5350312865536205, -0.4323238640493626, -0.18978511410167564, 0.210286516085253, 0.11592337410197227, 0.13823276582971789, -0.1546045047929333, -0.7668279966377112, -0.09303410850004369, -0.3127829444287185, 0.2381941510972239, 0.31632509003910536, -0.16365093278884413, -0.2911765716590494, 0.21613837320528853, 0.06489086640861919, -0.11460215449881905, -0.003434173862244526, -0.315280884171419, -0.15078444902475605, 0.11778996714882901, 0.14334441834791942, 0.5071955649892422, -0.23234190364864724, -0.1760402830248086, 0.19349690981253612, 0.20173435502170797, -0.2016998247826346, -0.12901209753234186, -0.20152984153195425, 0.3417728897450427, -0.1848061555352594, 0.13213815302545937, 0.08337676911298472, 0.05431166107139286, 0.0496905842688302, 0.5800561643770044, 0.0005735680713771553, 0.026463380141901822, 0.25622350122754667, 0.1479485047966892, -0.22545759005987465, -0.031008769855735096, 0.000851148243937337, 0.023501014039754353, -0.20956204680256538, -0.056115125143764495, 0.07331046567234283, -0.03102734749609909, -0.3780040674411291, 0.3919494670936107, -0.028254738891170195, 0.13535126601274688, -0.0009600428380597219, 0.12347070387416803, 0.08551892817414647, -0.04249601516395068, -0.298050892195242, 0.008204235309120653, 0.09042545847011872, 0.04117205109025996, 0.05379857270043268, 0.00010532834141898144, -0.12406559562726753, 0.15057522693308675, -0.07841415895634046, -0.13866514330288748, -0.21495339204581163, 0.2417457431010287, 0.13545552318540252, -0.09375074699446882, 0.3028268961644204, 0.08990365783622523, 0.09502450965488782, -0.10435650133371585, -0.49706651261825735, 0.11851350705468942, -0.0171711639217852, -0.11531681164140534, -0.001657568197935503, -0.2598826956915626, -0.1559310099414827, -0.12113074770025696, -0.30868418962916594, 0.08753489633264137, -0.10760136978603162, 0.0772252131630439, 0.21456667682043906, -0.06511582955047657, 0.18001375288670338, -0.25586586423674046, 0.21176575037737652, -0.019850822116327514, -0.10282232122659064, -0.046213043085569186, 0.178736696748927, 0.1485555248451453, -0.00995212404688106, 0.03377692798344082, 0.005067591962421209, -0.00031717488226096815, 0.30713900649535036, 0.06639209345875968, 0.2081425137801754, -0.07290591265301259, 0.06092968795758103, -0.20823388572014573, 0.10047581833107495, 0.00019895305983195613, -0.24535174760791123, -0.2753291517656302, -0.12848309332689492, -0.3245415602595444, -0.1817524013215736, 0.16369872466267196, -0.13018306052931747, 0.4939544274567208, -0.03153162785337271, -0.24010823659105585, -0.017594627279273863, 0.1081608187268602, 0.5226486849915464, 0.39949038507227913, 