{"bias": [[-0.4602015457061254, -0.16120713114399104, -1.2222861123920108, 0.47766030595521325, -0.5708466897312234, 0.12789822244572174, 0.2992836143229649, 0.34181897952283535, 0.23838708258485686, -1.4606805428100171, -2.1833122295824383, -0.9387334161679523, -0.8256027499557391, 0.8256244335451332, -0.7074666037335396, 0.7281490887250083, 0.3864585698828165, 0.08154164125087998, 0.4765169884910063, 1.2914974477612156, -0.056482827497788296, -1.3943545768003776, 0.2526367039153521, 0.11754141578892124, 1.5965187937718222, 0.04235472194142858, 0.17332412289857613, 1.2423918661606603, 0.7817670680964152, -0.29131346970819955, 1.8662508089675491, -0.13301671916602137, -1.7788123841593926, 0.2694609551821123, 0.6206121615651135, -0.7660246510320832, -0.9499406589100973, -0.4485849844430745, -0.7061658190710913, -0.07855209469599579, 0.9213981244160434, -0.6914346453952145, -0.016495426481030973, -0.8738666323441767, 2.1566761491549244, 0.013985440816391298, 0.7222395249800474, -0.8736384203248281, 1.2473774837403988, -1.64696165565149, 0.33740138886575216, 0.6561344266463447, -0.14293239379722286, -0.5417729210330715, -2.4293660362824694, -0.02302638914814925, -0.6134401068901261, -0.3402137646687789, -0.39976891523895436, -0.7008043672875381, 1.9837611616094493, -0.8950695571549487, -0.9383675945169718, -0.09547404653298863, 0.12390081734608825, -2.2620677518066064, -0.08505624218189096, -0.0005785354605578998, 0.0021494901441996925, -0.7755125385141911, 0.21590831395284885, 0.4236512465174104, 1.6019091958408633, 1.4037005468296577, 0.964229271086576, -0.20342879885323317, -2.0237083752404965, -0.2878548044146664, 1.6951386853686026, -2.2103404456871596, 0.4712859350609221, -0.4835561944082267, -1.2472513098789388, 0.6265982972760787, -0.09521087782194716, 0.15774294677089903, 0.22793047471348554, -0.8494688289500656, 0.6388151294755429, -0.6659450339034005, 1.1079968165698708, -0.6942260227173089, -0.44316681251544354, -0.2774470717074951, 1.1178253097538287, 0.3055931655426944, 0.44964506533425574, 2.0288174837274617, -2.028892552263417, 0.5981796455511659], [0.18959858546857597]], "hidden_activation": "logistic", "layers": [100, 1], "output_activation": "logistic", "weights": [[[-0.33550064882646957, -0.299646317839051, 0.07856630391870038, 0.16339078252798783, -0.18668537575300603, 0.22668038865833628, 0.0771821603377549, 0.36371185951633106, -0.06497259780570601, 0.23171275336692723, 0.004804580226419018, 0.2111978361540882, 0.4516048316224698, -0.3610453053527632, -0.13800594124222407, 0.4693087261849617, 0.5624981083260953, 0.18743601560956674, -0.49627286950938937, 0.13586958098227891, -0.9043514248246799, -0.22971477096891157, 0.5108715716746917, 0.3153882841598504, -0.5957853953385179, 0.4115637314436552, 0.42555592074679677, 0.46672212272741403, -0.2744102683979954, -0.492687913638885, 0.11356682657598079, -0.3641759804146242, 0.07937986806748834, 0.7565110689929161, -0.14581916318070903, 0.11581680728829191, -0.038522483187466094, 8.280244330371051e-05, -0.2512210668280109, -0.5271486614238274, 0.24199871351341928, 0.021357044697519995, -0.15271306751742195, -0.3016538465108913, -0.13553435268811617, 0.5751620404050148, -0.18448301280166535, -0.47885099969868283, -0.05635378810871865, 0.14262049234140592, 0.1962389784482855, 0.047827238981501034, 0.28919457947511507, -0.11536287877371405, -0.22436992166926303, -0.3388373914532342, 0.05547267303653402, -0.3526209331865661, -0.20228582553505023, 0.6511666567821363, -0.23556971864388104, -0.2740452917863857, 0.48399072666067766, -0.19589048611299378, -0.2666010524086281, 0.2870319250286187, 0.0938893235551626, 0.33566131832101054, -0.013368648590836408, -0.3540216101455201, -0.0626500754587196, 0.7299833670156319, 0.38719967391327875, 0.34833209662768216, -0.06906819652875376, 0.05161147135726939, -0.02098630372792168, 0.34923813916857827, 0.35793868040934235, -0.5465643963874862, -0.44211812497429437, -0.23742631306998616, 0.051671797403918196, 0.36618853403809226, -0.3641407278411048, -0.23406551510372814, -0.13655754381580598, -0.5866636314300975, 0.6478383140915152, 0.5684754368774866, -0.6042506267420653, -0.29827899637240834, 0.6461906158698009, 0.4023693436018479, 0.12183640630756423, -0.5785514318909498, 0.22342920132480887, 0.03838298393273069, -0.09107032041647993, -0.4542682554605709], [-0.3976296379706249, -0.3536273689959799, -0.9511724099487254, 0.6544904558776766, -0.1779472695092374, -0.09572199769820797, -0.10976000346408224, 0.10858224784077009, 0.013256757085285741, 0.47444299608934026, -0.7534815801693122, -0.12375686817125651, 0.16257088953542703, -0.13235832049302307, -0.15490445182741336, 1.1067927494399525, 0.6062726643797522, 0.46563061323702537, -0.471562700112686, 0.18260369336510204, -0.4083024484160751, -0.6376869701689574, 0.4130673756801465, -0.41788005729974115, 0.03949922924494905, 0.18151983180113948, 0.1722592563872473, 0.31462486952530944, -0.530791936961744, -0.4956379335625904, 0.5759776092507061, -0.4739550405411322, -0.4082713413471942, -0.08494275233789148, -0.274613982322749, -0.6130383534064467, 0.10462343373246388, -0.07443471020631766, -0.29714328735232043, -0.7327392481827376, 0.8187003349144366, 0.14204356420446068, 0.00016007218413282198, -0.3019922085221341, 0.449740280704208, 0.08512499913554603, -0.21325650310132924, 0.13807255732868293, 0.2622690450588688, -0.10983155365853262, 0.15214038072343083, 0.28991941293673323, -0.35356043837515533, -0.16486094067587287, -0.2976431794655162, -0.4020083858752004, -0.12411366040425403, 0.6925405004247158, 0.4509537490144161, -0.13539436243065125, 0.5644127076749788, -0.19009993756695612, -0.31835196825836143, -0.5926483332551014, 0.2900394134962541, -0.6060035020607194, -0.10387744810688056, -0.027798271536332516, -0.14316899416843906, -0.7477411764489348, -0.4703757674434918, 0.4361886372878061, -0.5004057883695171, 0.07799167676683506, 0.4688352484584068, 0.363541362001106, -0.5094760005203746, -0.16319593989905432, 0.5922232305628584, -0.37006056374022284, -1.1051181132538896, 0.21601271806034097, 0.1811310146329738, 0.6052027468230927, -0.14651599013073646, -0.11999686140266227, -0.07318240296680849, -0.1843521590539516, 0.9812424377175458, 0.045036707006386664, 0.0776784084742729, 0.048305190761324515, 0.8319858211174008, 0.3264873011492087, 0.352640796579819, -0.5060567106557182, -0.027618068403312487, -0.14654619358879248, -0.19872141799841733, -0.23214493421295312], [0.46980776241407074, -0.6363424355175584, -0.9296774835888538, -0.16719089924883979, 0.04296419862558037, -0.17314690709285396, 0.710369831393658, 0.8537621212093418, 0.07029415342450054, -0.4317081725580151, -0.4791793717078052, 0.12356654324885252, -0.13122608006998573, -0.0990517802611552, 0.127110462965933, 1.2294543888751082, 0.9173485104573808, 0.1976304352145576, -0.5528170769265411, 0.05795037928954041, -0.5876059956363829, 0.9293525497665637, 0.7521809209145094, -0.7382533621995617, 0.37453497742623065, 0.7019771062327722, 0.2799662697860732, 0.8050634567404417, 0.2822908724125917, -0.3789173103762653, 0.5256009177849856, -0.22109865844046267, -0.034069327575629284, -0.42189358146597244, -0.15414787710543335, 0.0298962536632668, 1.3395494437576725, 0.9018824379586663, 0.2156941391562076, -0.36930005779416875, 1.1175859396890595, -0.05959183404314798, -0.12469719566138893, 0.5103853798504046, -0.16763652648558228, 0.6707565928500873, 0.08805552151039371, -0.3733855094090285, 0.06149578338648257, 0.5429618515673436, -0.14659816773071407, -0.26731551731282366, -0.1003562846643175, 0.5215502885839077, -0.9231790546422057, 0.20459902079353157, 0.34711629894267026, -0.2632464440231562, -0.09656291569719426, -0.6771065882277434, 0.7545707975656014, -0.5341035656532834, 0.2687909678880269, -0.7160494914850499, -0.9047633350996243, -1.4744067570339148, -0.38974535847223035, -0.6696048045381696, 1.0532668607902915, -0.48767191473455773, 0.17570083185282562, 0.4866438858517554, -1.016830728696932, -0.4009857607615579, -0.2406264045705756, -0.1971098148767949, -0.349354099410086, -0.6549075160322189, 0.2513439225999261, 0.2121434422162482, -0.3441820749130767, 0.6132993184737873, -1.1640979216605916, 1.1995670883122105, -0.6093305115281392, 0.05803130441156062, -0.08343155423317372, 0.5073605368573214, 0.769506297942208, 0.022140818063384155, 0.44182806525802765, 1.2458514559143135, 0.3095718693257296, 0.5557287017557091, -0.040584443956627816, -0.2587056655931109, -0.703306075696906, -0.5511849117630513, -0.12073652492226873, 0.11998160108636556], [0.21475673062761033, -0.5355216826301322, 0.2585032135446143, 0.2548588797845966, 0.04556490601331989, -0.28999970150588045, 0.012556336319738797, 0.0589349205440204, 0.19525704048246553, 0.43008424495344477, 0.09490415033452149, -0.008263662805150436, 0.10236490974278717, 0.8373575755680964, -0.022500660417168413, -0.014079943165533874, 0.42068365120918366, 0.7204468755022303, -0.05756621290203693, 0.2805768954113923, -0.5095547343054446, -0.43363409794028085, -0.5297867440650236, 1.1722647920437628, -0.05873357481202124, 0.24970134779775338, -0.05577221785700984, -0.17803205806336841, 0.19752306872068615, -0.629173450626997, -0.2389031844327713, -0.21591688644160267, -0.43345678312341795, -0.2416077428363012, -0.21083241476549922, 0.4774400791712779, 0.599962900313674, 1.3721664298712715, 0.2666577181510412, 0.6573413190028504, 0.009789209829713881, 0.277087749916704, 0.2432327081762234, -0.06414391185878754, 0.1375466908995755, -0.23991811120350623, 0.018937606900483357, -1.1200326932260998, -0.1616792478547588, 0.5396262000153558, -0.01919043394156322, 0.18538572131514858, 0.8701621133250739, 0.3408720209740468, -0.5603127095646226, 0.835588386693829, 0.9238085887628935, -0.48086405459493287, -0.8801971574211189, -0.3201034580722585, 0.13452426101561618, -0.19029130784138584, -0.7238474941605704, 0.046643962129540036, -0.5143463852111906, 0.7548479991789632, -0.2337954516753803, 0.47990899031264256, 0.6099459448043151, -0.13715466185856937, -0.12978668087107068, 0.08751595746102502, 0.1802373487502617, 0.19554685394340723, -0.2951005581143614, -0.5963687723277719, -0.044166716693179287, -0.029972313479516146, 0.3881649832067439, -0.6003153748919849, -0.06294768038235134, 0.07677242304492198, -0.9533472649181925, 0.03991936232756291, -0.21402155417294605, 0.41615103153109884, -0.18855873923090744, 0.08452634929437, 0.16454102903968573, -0.571232895166897, 0.43057417595975567, -0.13697325074327554, 0.5395758931913356, 0.050410182396336975, 0.14456037670137625, 0.11170212714060349, -0.328880516206452, 0.0010708312877923125, -0.9286240353049637, -0.19649320200767875], [0.6019741846273302, -0.41161308105926087, 0.24747187823258684, 0.3694796850846179, -0.0214819326069428, -0.1814970018185877, -0.33752733788955475, 0.14268996273138537, -0.04710232576192468, -0.05908892846994961, -0.3711986606866079, 0.23117519293285496, 0.10208530314415437, 0.14697364906114133, -0.08668684279666616, 0.5164794487472932, 0.3689893044183728, -0.04483996976196193, -0.21157779681116576, 0.7298201932123294, 0.7197940695532131, -0.08311421892530328, -0.050948769219246764, 0.03752543478054721, 0.35488636825609854, 0.14101730929271772, 0.10779446814325058, 0.04335404901932792, 0.26183042925361183, 0.19888367260633164, 0.3297523244812807, -0.40633998010394423, -1.1205046077375274, -0.010432337539061346, -0.18729097853006593, -0.24704631436234198, 0.10322680008077745, 0.14923899374372787, -0.015084142802458567, -1.0516806054553287, 0.36967547278186536, 0.4255237061336067, -0.08879369833536106, -0.23404451431897955, 0.3764789712130506, -0.03826961266614967, 0.2592621018330303, 0.10877171845103914, 0.156276400855761, 0.4375217740584952, 0.10301266765329528, -0.5604444225546455, -0.09873066609276403, 0.022134188319479543, -0.6819195267580979, 0.44814511787149475, 0.6008961770666998, 0.9790131750842804, -1.1534001417654052, -0.1459396298244682, -0.01648372740007249, 0.3499531776244039, -0.2059977804633276, -0.34041009526888, 0.7832319667469958, 0.2892722584083189, 0.1500778264245885, 0.21101153535670433, -0.8364077100732745, 0.15485423757557543, 0.6945798735579388, -0.14489403698528658, 0.10043041750919082, 0.053490409468552026, -0.11110180228799062, 0.25415510203522595, -0.5380005409299093, -0.2636421941054788, 0.5188502750554647, -0.18874564429460178, 0.3621876939077103, -0.21080773754770102, -0.03788159538545447, 0.6226461639303867, 0.5777422688977578, 0.10877681093295799, -0.17301670378438058, 0.1496625785331026, -0.3641092402040182, 0.15367428595402283, 0.4196328814960891, -0.5006373729957119, 1.366311830026351, 0.2584226269533801, -0.04207284601097368, 0.2611649550813705, 0.488640274579792, -0.0876781244873916, -0.4458881683695549, -0.16481974690029563], [1.9592715876543343, 0.02956006886160894, 0.12999665528460785, 0.24386267206187573, 0.09288069700604944, 0.1796834606303724, 0.6463725414121109, 0.3446878181265256, -0.4505595109056402, -0.6232006426796665, 0.28967190484072874, 0.4349024852184054, 0.9189149382351793, 0.5618646127526536, 0.21010385759259786, -0.14011599819374954, 0.26289785467237103, 0.149653596009186, -0.042953661041076535, 0.4558896647022085, -0.4962827940643084, -0.7863209272678755, 0.06730341100178237, -0.5494371393742591, 0.4023980083808415, -0.26761165676516024, -0.2892072337381491, 0.6602047079506529, 0.8902188245008618, -0.4312037761684823, -0.3458603914382834, -0.31785231857334, 0.044493684583170864, 0.38299368126356825, 0.32978959015038295, 0.21657922708743052, 0.4747634934022112, -0.5631862085308889, 0.2739710833259985, 0.4886027342518496, 0.26327863790337924, -0.1141518515740017, -0.13841900348259334, 0.6025670265334915, -0.09398584728314156, 0.18141371045742055, 0.10702367306381746, 0.38357579896258787, 0.19147810375913038, 1.2069925129626369, -0.1496777751109442, -0.9883668282873874, -0.9110063430323999, 0.0016276507514888167, -0.11871630777362555, 0.9035998357565915, 0.8657446424980583, -0.4912636893053156, -0.3628020612518426, 0.485250032937285, -0.07340395835904974, -0.11342474282361628, 0.022807062639447782, 0.4734328018579738, -0.13788293170405833, -0.1413570938154619, 0.9722463312813141, -0.8256783441541559, 0.9539191536512746, -0.07476009256742525, 0.5590487943765401, 0.6133311149871266, 1.0205129224508196, -0.6704921635418338, -0.4514345866100665, -0.0030926972453050134, 0.17552212226767416, 0.36744919368124274, 0.21441331613418216, 1.1368882844608583, 0.44521753746373166, -1.1171828037076579, 0.11793251873240741, 0.46527933268988636, -0.31204149932234904, 0.06834413059057858, 0.09236804396622642, 0.0983262885851483, 0.7879287714399462, 0.7110848386148679, 0.3942373549934543, -0.34532518102022847, 0.6257751036344518, -0.08147923827038284, 0.023770451373520067, -0.3377940745617618, -0.38859074498418983, -0.23049608807362393, -0.038555156571071114, -0.46786479298980954], [0.9903069204656659, -0.20586149339620677, -0.1425647350853539, 1.2141008013783385, -0.13276525534041583, 0.7342608520099321, -0.839822933166954, 0.7238004533500646, -0.1471719305358174, 1.2416534666460193, 0.50673506334493, 0.2845205677457241, -0.10194351673076547, 0.09690297692059073, -0.21329665895944724, 0.9618202979540815, 0.2717700919286766, 0.030876352197140102, 0.08848288552973993, 0.02840906889870815, -0.6791030627858627, -0.9741508408825525, -0.9496257765490403, 0.2970182495418203, -0.3954592404410964, 0.3431843195139747, -0.3036459672274761, -0.6095587097841129, -0.17169375120490232, -0.2439809510296073, 0.1465903766175568, -0.4986916718690331, 0.5514024920295919, 0.7856401463621332, 0.23051600274169493, -0.5140253137599847, 0.297104011971375, -0.39038592881861967, -0.41919267873029803, -1.0301566868490908, 0.42202709638851194, -0.3087816295489156, 0.11925732140024455, -0.7337384022591893, 0.21743690365873927, 0.1772565315094325, -0.08926631965933161, -0.5977545016496768, 0.1711628964944716, 1.017351580354347, 0.6455847760961262, 0.15935733070768215, -0.7737134375423828, -0.12885672479581245, -0.25837386856119615, 0.19287335187900642, -0.003859358785591821, 0.27525319011972565, -0.9008071595548034, 0.8768495321371867, 0.25148182553533877, 0.9236351584683229, -1.2898820754635254, 0.27562185403345413, -1.0630728177955824, 0.11873831600160077, 0.2262937793717302, 0.37303771639497185, 0.7550755068579085, 0.6059134405505567, 0.4216430734381567, 0.5597821578019613, -0.7893028237226948, 0.12917977124964067, 0.30743255240620526, -0.3782002445103734, 0.19012888991026355, 0.4734095625722488, 0.5842288760027705, -0.39786701453495, 0.10169610803150553, -0.34803381617643603, 0.13650151855055412, 0.16639850910587897, -0.20712766825618195, -0.14932914937387656, -0.33287898225912876, -0.25735287506914034, 1.0782166604186003, 1.062028380741852, -0.5018545415888152, -0.011357501730953226, 1.36328232897601, -0.19457189459621382, 0.28707778412149776, -0.10334815909297126, -0.004645314810571398, -0.19970441120547197, -0.3331132239446521, -0.7204898633070024], [0.4697609500254906, -0.0011495537734470887, 0.571164199508863, 0.1014363509944688, 0.14309674656131535, 0.9515298930099809, -0.35123054242412766, 0.35159066016854734, -0.23301130016167823, -0.4817130983983364, -0.0632211610945853, 0.08676668198701704, 2.1072313102478866, -0.9206573977873993, 0.20345963433436162, 0.9349392372531237, -0.006705841967175348, -0.3827223648220476, 0.1155139982513797, -0.1833186348656473, 0.5190802018359278, -0.19855712068251669, 0.23198210555425025, -1.5037014709090395, 0.21799990227464106, 0.9904796453135355, -0.6519081420285764, -1.0892236686596515, 0.6207659202516038, -0.1712414165657935, 0.9108502806130426, 0.09944269613255867, -0.3766277375178577, 0.013209495497281265, -0.47468331419439524, -0.4727114951844401, 0.24184051553883784, -0.1980523672361783, 0.20521543207104273, -1.0113093640922717, 1.1319099423426922, -0.7906042265522358, -0.3129949914567627, -0.23113870114379118, -0.06191673574159024, 0.02825085633803642, 0.3845245876193971, -0.6893528554818781, -0.07616823251811894, 0.843966248387569, 0.10932598875638544, -0.10784011806104653, 0.34543598420681987, 0.27607994876450886, -0.09481829398529974, 0.716824510091382, 0.13256217381860572, -1.1153070833174916, -1.3203206663210603, 0.2257333945264352, -0.12611492642345132, -0.6379167877923521, 0.8216205598749597, 0.529980579233702, 0.19714804395963165, -1.2417877086272562, 0.316193953000494, -0.8761397836813007, -0.630301077053617, 0.23622550560758984, -0.8877739993003537, -0.19449485721868776, -0.26157606437214825, -1.0095422258146365, -0.180192448722548, 0.32358247269216295, 0.06247130991582726, 0.8549147925849072, 0.5933225428826038, 0.40210358093529036, 0.0506788497393556, 0.04815867816836665, 0.747957070517982, 0.5337753182538437, 0.31524062297953764, -0.20038864595376824, 0.12501596242277196, 0.3633009155741404, -0.5287725130066229, 0.6086113021403521, 0.7274668035688165, 0.730648836950792, -0.039504375048453395, 0.3874652937178478, -0.3535827739185978, 0.09096091641002033, -0.09666734673958084, -0.22715989140098908, 0.3890329175225661, 0.19125338489941485], [-0.6390500139364909, 0.5285923025820274, 0.018412049084851348, -0.22644703537025337, -0.2605294046259108, 1.824001365890625, 0.5611821321340033, 0.7514196434748989, 0.08730575423578632, 0.025391279863599417, -0.45171808933788704, 0.10799642854818109, 0.19465899254908867, 0.5312684693291013, -0.14971640375338238, -0.31416543674506964, -0.6419816394093154, 0.6724945906173295, -0.2667185460781148, 0.23726295295917363, 0.3415132185833862, -0.7308100494307896, -0.5000179320110156, 0.018713381255440767, 0.8802409849981471, 0.3405916159424542, -0.237244083136199, 0.3689007747539685, 0.085885898399885, 0.05154486806298441, 0.5000888327314611, 0.14260778023391937, -0.5919381247716822, 0.12756281725844934, -0.3624922126086848, -0.3923824617468432, 0.3149666929616352, 0.010923578344433362, -0.4145932310084704, -0.2631344472504641, 0.33938567149588117, -0.2903682274763982, -0.010233248605261184, 0.7920836760493501, 0.4102161923989268, -0.0406635308497997, -0.19000344175425793, -0.45798195011799625, -0.3311109602005398, -0.06369424108274084, 0.02994010201380456, -0.18489929089020668, 0.07228373078017523, -0.23647622677442284, -0.2547196115892628, 0.2011329688918025, 0.16643472361641498, 0.5942962297338715, -1.3037799096907479, -0.5408128766035369, 0.13764014192086454, -0.09628928067520605, 0.056898826980095, -0.6035718726022733, -0.23137302613261096, 0.09062350107252182, 0.2231969458195943, -0.06975554125185092, 0.9860770226280678, -0.19305149982742476, 0.6711505184193084, -0.21348291578926815, -0.05334090047478716, -0.22087190607513232, 0.509601686520189, -0.29316403935189905, 0.14055716549976605, 0.6494252992737046, 0.7262592167212301, -0.9599855984597068, 0.602885350540543, 0.21739376946635322, 0.3326670480585117, -0.5131852234368341, 0.8430891170150518, 0.5353251158695007, -0.09683794101501046, -0.2715380751434139, 0.891570575604369, 0.6377438693265782, 0.68431823184111, -0.3157233911651268, 0.6808071275150623, 0.18548314786346098, 1.3275208750825045, -0.19429264428109347, 0.11849547947324068, -0.4333950128129058, -0.40322884565881584, 0.4635578563408521], [-0.09613181724949359, 0.9123306277360714, -0.24267939461194468, 0.5276318716958033, 0.0018951834356262045, 0.32924809885283485, 0.7859081056102827, 0.16556382516022958, -0.05753263183573145, 0.027608650769287993, -0.32110740574216284, 0.5165050364413728, 0.3284189750234347, -0.6543778814281394, -0.08943866885216668, 0.03899775688307432, -0.503115148087418, -0.41487692479223165, -0.026058384581153997, 0.02337135629679026, -0.07750175974925036, -0.06328409033036095, 0.49790255190425137, -0.8387066265196567, 0.2971905541191475, 0.1726743885965286, -0.7700599954127181, 0.707739355363063, 0.09990512761056862, -0.4520898146872239, -0.25311535070105196, 0.3974342127390639, 0.2684685812564865, 0.2084482734206965, -0.2696075370742022, -0.589165757506681, 0.26072979271711333, -0.05453016503273296, 0.05853665149876574, -0.8483248529464482, -0.4808590840444721, -0.33101900062559303, -0.24679590069671242, 0.9902215448319668, 0.7950596838000072, 0.19706537790259832, 0.41082188365422295, 0.536721402959673, 0.34901199449253223, -0.28222246803261675, -0.007648682343226244, 0.24757604558710047, -0.001369505400658198, -0.15716304126719818, -0.18854759940706345, 0.3509461592228032, -0.7874825773175085, 0.20482385874224487, 0.9459060707163018, -0.05675926943624415, 0.5778937217054282, -0.49425163541263073, -0.12396325808310457, 0.10006414500218498, 0.7565409460483351, 0.2501871683749134, -0.2216337565401557, -0.1181680652119628, 0.3283460610583635, -0.13459033135586598, 0.41642556629714605, 0.03699043099285382, -0.771505706576685, 0.11753683041453447, 0.7595200888393486, -0.311829741137351, -0.4493654143202836, 0.25010039702909825, -0.2104142910374616, 0.2609497391138124, 0.026389118174976745, 0.774839553267987, 0.2988044445066776, -0.21198004910153231, -0.4102580624399504, 0.208457917401452, 0.16704413618078537, -0.6518780557590864, 0.01865132088270021, 0.5470261352529621, 0.5070277759660022, -1.155831097542122, 0.38690054035039945, 0.32526048321511686, -0.08368672617925904, 0.17639884198316624, -0.1318482208761437, 0.19321738861835497, 0.4493356679690412, 0.9078830408350025], [0.8236837178771825, -0.3049544118611388, 0.5008264464043846, 0.5291300519085341, 0.21238501878958965, 0.4108811609991944, 0.48634552236477907, -0.5528305590092155, 0.008104731349186161, -0.947069999259174, 0.060744810103035375, 0.7685384252611374, -0.23571252754181304, 0.29060599374830093, 0.11250807192935368, -0.946746708641026, 0.06364590978661351, 0.33349119412006456, -0.2160643297086674, 0.36028216555268644, -0.3584488988342606, -0.8100515739084103, 0.4709908121704394, -0.29734729646820995, 1.101046713305542, -0.4772100467694641, -0.21481697326152488, 0.8353607180617064, 1.1333374781872518, -0.30547732028745356, -0.7036412158811058, 0.09783494638146206, -0.20208916149714498, -0.23715728901657387, -0.11953587949883801, -0.5232010069884421, -0.3616459476447334, -0.5912983926130102, 0.27635144470829426, 0.7035981475485755, -0.19899981081109122, 0.016638218698439032, 0.13556339073477217, 0.36915899567464866, 0.5350691648067515, -0.24583961117144496, 0.6268023760663052, -0.41910560046964, 0.28076677882815404, 0.7398684914376886, -0.28058596014346177, -0.3551127287741794, 0.051481208214478595, -0.6536578875380399, 0.0957324877767247, 0.191056997312054, 0.21406724362756502, -0.1359104408037507, -0.4149967848111285, -0.535074480205978, 0.5118279945530348, -0.6957914979491985, -0.4740155687502453, 0.4279676799569716, 0.3036312350906956, 0.30431919825623305, -0.22115838956256234, -0.09683238222786136, 0.24113971167149248, 0.2589956766402911, -0.6239842590589894, 0.015596917293443854, 0.18303462836448642, -0.3859045653223435, 0.21739000898307928, 0.13678728810622726, 0.2976025285094807, -0.2841886695113951, -0.03996586806481195, -0.15433777248107716, 0.07949750468310479, -0.42268809148446995, -0.21922607577350248, -0.17490449150714, -0.2616550980988731, 0.17897292365883394, 0.253343365546817, 0.2856144755524149, 0.4416756069568309, -0.18810170461227932, 0.23797383595854188, -0.7138398488942689, 0.4581968791479255, -0.21707058678215943, 0.36701520870090587, -0.12944335441618968, -0.2713570334383882, 0.18419577407272422, -0.45715346655054456, -0.00908413270952054], [0.5300208964539478, -0.26469914216776497, 0.7423268366956355, -0.0014961758926031487, 0.016378816621465054, 0.46403604314104446, 0.2736853979646909, 0.27749082266663244, 0.14265206582598794, 0.559441589900495, 0.3562537566597982, 0.07264862179837965, -0.6070944173971715, 0.3858736555368071, 0.26213232011913523, 0.6159701896326245, -0.013204232653151248, 0.13674007184329942, -0.7765997021323012, 0.017992224223513435, 0.4903228803829871, -0.34835186190966105, 0.12692217391506638, -0.4084700441123084, 0.30589655077251626, -0.22699531184194838, 0.7584455614932425, -0.004793445335616853, -0.5067019030479497, -0.20955635122030325, 0.3710720277994362, 0.13958853026842397, 0.1343223934973046, -0.3606147964498227, 0.7424283327761221, -0.05454811188906632, 0.17655235118056753, -0.08036567496848258, 0.1982455001484892, -0.6854205867595622, 0.48528112529076994, -0.15113485297612508, -0.14607764990071087, 0.562131875534749, -0.4381220119334202, -0.06448478807081583, 0.16799602710512904, 0.2116756190784477, 0.6032893419760419, 0.864917700161135, -0.014481614957859067, -0.7920262629364694, 0.6007515627443824, -0.1810636129797862, -0.29311732196497925, 0.8070938285785682, -0.224379518948302, 0.2906348736269605, -1.3606989152543116, -0.9825626749542636, 0.6015604891578578, -0.1739728603945924, -0.41043124728413033, 0.13454192905694654, 0.9130759561491628, -0.27615562943179395, 0.22198651538076916, 0.8816585316238084, 0.7607681086083846, 0.29541429206614594, 0.4420893182741958, -0.07243804135156233, -1.427612866143123, -0.06723294875370929, -0.3265592359314357, -0.3993662414779659, 0.39200597311263097, -0.21883760311210348, -0.10876831883426721, -0.6334705520024306, -0.13249815350250016, 0.4789972054849963, 0.05923864640603325, -0.7167915437839207, 0.09096254303840604, 1.4443055735541346, -0.0680241628442079, 0.19975363225148557, -0.2961117325793436, 0.09840579669016868, 1.0576402184981393, -0.1929079048555232, 0.10999630310540247, 0.6681217608833308, -1.0394862736157628, -0.5437530217457373, 0.5336334507555004, -0.24834291708776565, 1.061507500761925, -0.8660224792348533], [-0.00114975881467919, 0.45773144550059436, 0.4857838910817053, -0.3310150519052789, 0.21191180659437078, -0.4084941903911787, -0.5092720168249842, 0.2352508840021755, 0.423264713339223, 0.03754297962627075, 0.523536545758583, -0.48280269077404214, 0.4034852677887346, 0.4287072624272406, 0.3464502953989774, -0.32812202918025624, -0.18748186264822803, -0.2249348859933284, 0.23578610872237502, 0.20834565034509442, 0.28959275794372114, -0.18998988883791287, -0.026617589660336144, -0.5476603460858304, -0.53503596765633, -0.15569888788877628, -0.13047188161279852, 0.33470072396472456, 0.021684842448840332, 0.1469089658264094, 0.30319274920931005, 0.2562897522261711, 0.2885086208457568, 0.6622918892198074, 0.5569406433964075, -0.6489931574564143, -0.017171498025600047, -0.23282475056684215, 0.11004638420387594, 0.7969658472672654, -0.4628835792244104, 0.4695437655499082, 0.31009341845064864, -0.1596492674114159, 0.6050760484990334, -1.1369587841011901, 0.18937700586345826, -0.015463658721264716, 0.4498075468250339, 0.8793447778971776, -0.4735068577555121, -0.8495908877057583, -0.02206693167610916, -0.14830024950409348, 0.6534336239399375, 0.7273150636312401, -0.2877340075089809, 1.286118570604929, -1.4275207684438571, -0.31385332851029973, 0.08101343408485012, 0.4684350535455683, 0.3983706084674801, 0.33486717670493815, 1.9615775778544426, -0.5873401066783018, -0.7537025716518345, -0.12148757631201303, 0.4034162164132815, -0.07157934541186087, 0.1621417686867324, -0.2394388781495686, -0.7362677258864129, 0.3741747112576013, 0.3845765796262287, -0.03446501644427321, 0.6161396462511324, 0.5257142525482096, 0.10756497978879372, 0.7005313410957025, -0.15537398684911052, -0.589026757055196, -0.4752164959867362, -0.07122012232607565, -0.38075903096410324, 0.4002170380085766, 0.3382267332210309, -0.004597652695152144, 1.3823221295549957, 0.5706116039056328, 0.05211824748507806, -0.9771893906036998, 2.3901931961813356, -0.4315845780048886, -0.4438553165828502, 0.048690858692302275, -1.06380358946702, 0.4191112352190083, 0.8803767220382976, 0.24898770423241004], [-0.3006166462763145, 0.4533227330162306, 0.3055813017472605, -0.051099727850570174, 0.058939528951438044, 0.6888858179851709, -0.20644267295376897, -0.09044174870394624, 0.16798706967391025, -0.13446113640562085, 0.8564521291327183, -0.46241361077774906, 0.6657726356969549, -0.3353167289609318, 0.0442220726529479, -0.11430911711289851, -0.017309416922167118, -0.006500588629748597, 0.2834973829361925, 0.08977481928745186, -0.5134605194853318, -0.028820671129989362, 0.6058568488610844, 0.5653841539928127, -0.3687284235741489, -0.4973374581573855, 0.4556527218053397, 0.821516307723351, -0.04312459308229539, -0.16534519225987374, -0.26096739484216125, 0.2778587777437239, 0.15569367661835196, 0.3346423093957737, 0.06634805267487111, 0.16197026997770575, -0.8081488507503984, 0.06708101867098447, 0.05048741590017458, 0.0952083003844574, -0.03085025269441368, 0.01764876120546361, 0.026333306235711073, -0.030565463670228762, 0.09828311189201243, 0.30777944706679883, 0.12680611659210225, -0.21988019852273888, 0.11297534632795744, 0.11043712482112893, 0.2161328400308024, -0.04910960188131536, 0.372848852220293, -0.8881766907258846, 0.8048522924200827, -0.49055837607934455, 0.199994860713421, -0.47091768135499285, -0.30250632114063686, 0.5892300647277724, -0.6309769667661669, -0.1714930377178687, 0.37136513230057744, 0.4064642380728363, -0.2764551370980885, 0.40007388057024273, -0.18960846888576177, 0.3717585546487832, -0.28577370042099753, 0.29167473007632794, 0.7502252819678821, 0.21709163629558145, 0.6713796594014326, 0.4526079903009603, 0.421884063002099, -0.705466668905942, 0.5006100941653109, 0.22282690918537604, -0.3250151767542275, -0.4348392343967363, 0.16652504684635325, -0.27912533904881587, 0.2102092564661229, -0.18336651425412412, -0.4702962863953969, -0.4567712279143256, 0.4875964252928051, -0.5729350339766961, -0.501905405725364, -0.45631244239221563, -1.024710296606999, -0.30587591238214745, -0.4422016031747945, -0.04670377888620603, -0.13514082759058596, 0.02053547104996765, 1.1071047152307318, 0.40980750934255805, 0.9375480542293432, 0.2664416852602187], [-0.6864210315026271, 0.2052364614133479, 1.0392219349868754, -0.6599606183674278, 0.07171370857650698, 0.6084202779992928, -0.6750124942315994, -0.25050538054030835, -0.27210403318430537, 0.02630148196371358, -0.5334793284399619, -1.424782569037882, -0.29231112248874636, -0.7578637448395017, -0.07867552719080463, 0.227231345761042, -0.2266948987938773, 0.5312201849825986, 0.73940834983356, -0.5799546757441123, -0.39176377451352773, -0.16627606100784756, 0.611519445436982, -0.6312706590302426, 0.9372431194930568, -0.5446449986222819, 1.2819488853553065, 1.179130287423706, 0.715766208696109, -1.171481748970013, 0.1453589268653221, 0.15212419753330397, -0.6355263217540813, -0.45562613708911626, -0.22510456402682993, 0.13510182292625925, 0.09378360702760527, -0.4111066304718541, 0.30622123373980037, 0.3359430056412401, 0.03640800874163563, -0.07168980647596167, -0.35293535854428104, 0.8243153402944632, 0.32626206823732834, -1.4005025059540483, 0.23535454717333912, 0.31695209852884054, 0.3296988548878117, -0.11599189165525253, -0.019232288979497397, -0.5799093636982294, -0.3062945523410572, -0.12956087641569133, -0.5142309066389367, -0.48710618396840555, -0.06372922985278728, 0.3590968606516375, -0.36759668346768504, -0.0556307031410176, 0.7190867637167458, 0.2777650734590389, 0.8389618320376709, -0.40571213659884914, 0.3776340281991639, -1.073962475355694, 0.35758402145130846, -1.1085558879711375, 0.587648453533024, -0.6734878310879824, -0.5310335224134166, 0.7227205914434455, -0.5159954479763436, 0.4186725349404197, 0.6342353336485319, 1.1430082138073054, -0.3270667534862093, 0.024988926336454758, -0.41597062543780416, -0.3402632173538105, -0.7330143950198698, 0.4412280803656347, 0.03231040800388803, -0.13106195949071697, -0.26139046910854813, -0.6907216215404013, 0.476237470601504, -0.5495253813390243, -0.0017295264582563594, -0.7556631314134181, -0.1642143080378917, 0.10430907789342733, 0.31935755612991734, 0.3743462838134042, 0.45188234120399795, 0.20543885605438184, -0.7364976038175666, -0.11814068917790317, -0.16840988553360062, 0.5095227681329217], [0.02278434605513511, 0.5176344353765142, 0.6023181028999992, -0.34570423374765813, -0.005243167820574655, 0.13427600472433332, 0.4604532182271293, 0.9315937965651382, -0.16493294669088415, -0.36427692037311626, -0.07818467188473269, -0.7259713691946443, 0.09474259412055669, -0.36393848176251725, 0.1582644819522044, -0.7491817658518224, -0.39349159553895074, 0.8028214288042388, -0.1450826093620038, -0.40966393799820805, -0.15488856763820896, 0.30059794787274696, -0.9048701856586361, -0.6335800178064155, -0.6981878449681662, -0.19333510185282446, 0.8883973395159007, -0.17052034154753812, -0.5304158622085515, 0.20786927947433148, -0.10348560596120163, 0.30443873443377817, 0.806772062637703, 0.06935234173465857, -0.44631078865648655, -0.4369255837302516, 0.13790848984930315, -0.4502458154561663, -0.08134119268562834, 0.4044825526905082, 0.055768254331676446, 0.30079190715888204, -0.12542659290584185, 0.4807220450838498, 0.27975867520918185, -0.6292446009826405, -0.07529262846234798, 0.7699380032290482, 0.29823003938447556, -0.21602165622571703, -0.2603136737667921, 0.6421037920758824, -0.6703547927140135, -0.10997048505265382, 0.1906183314782659, 0.15220144658438112, 0.26627327267860557, -0.6477223451638277, -0.20050658370528493, -0.7956341651439734, 0.510817912387478, -0.3448280533792295, 0.48639373502785427, 1.1470851218899782, -0.15383748640840927, -0.30486811925299523, 0.31168008005460446, 0.6203222845589844, -1.1027860339421942, -0.6045707286836214, -0.05468016135375593, 0.6289316865705397, 0.9618341746568589, 0.7310080924401189, -0.019517061952568027, -0.19871862863149276, -0.29929809422581527, -0.3993864578824513, 0.22664152548018265, -0.35545433180463964, 0.13056292418735663, -0.35129409479162677, 0.06405177393129502, -0.07375329292859888, 0.7828508661917363, -0.5047756702594653, 0.18515204486191808, -0.8600000529704267, -0.42191039326229973, -0.23369935396656394, 0.616470488037178, -0.2270724510595955, 0.012226391531985506, 0.3991128299922623, -0.2588670360982345, -0.2145493667642734, -0.15227176833325823, 0.9704581169398869, 0.24781220412359978, 0.9727582892650198], [0.47122880319205135, 0.4749665805456391, 0.32869080947961055, 0.206592609047959, 0.07340885742521705, 0.14754047226729103, -0.15916345877296714, 0.0459814486014311, -0.8166138139400978, 0.9046039454075627, 0.3239924034561061, -0.12066850735494083, 0.08550084948315825, -0.011125249916170666, -0.09727641006071695, 0.681794139600601, 0.29166293048160485, -0.7102257661837731, -1.0423307834646722, -0.05236873595101049, -1.4573243651114036, 0.6579209523171345, -0.4167193510612751, -0.21572632593396807, -0.16356145657801346, 0.5670922547495996, 0.38916548985258287, -0.6225455112878809, 0.3464159160613676, -0.4317612420872586, -0.4495984457914098, -0.08007894040358239, 0.14320634953509012, -0.1635734507944791, 1.3755503843271681, 0.2194369971187597, -0.5305316279169858, 0.29755512323179506, 0.2390469026389239, -0.2113596048053571, -0.16556828616670533, -0.7870818845664979, -0.31839616694088585, 1.7885938109367603, 0.4020493609217722, -0.10204314808876305, 0.21337141731095702, 0.04256506194034672, 0.569084419092452, -0.11119482060989788, 0.5614723982275248, -0.5480710209636688, 0.7596148533374337, 0.8376725923767128, -0.024385189612059505, -0.1602934721265564, -0.24863312056191375, -0.40319872221199066, -0.08661410242818515, 0.06853471040036814, -0.0049259200584597426, 0.8149947775548506, -0.10301439610791817, 0.6026359629202906, 0.045134742495674264, -0.16705002749041745, 1.3941828218539405, -0.8782432104403269, 0.08174187400524946, 0.25032675318061137, 1.4743322946137185, 1.072842385150144, 0.2573638422670112, 0.9252213100712545, -0.4638098551937466, -0.4928187927670241, 0.6158125444952532, 0.4716176799757104, -0.4420210810309897, -0.5934785010144724, -0.009832243462507826, 0.10145981523021302, 0.31964080342905943, -0.05589672968955622, -0.05506319276457362, -0.5288043661377195, -0.03103888430784064, -0.867450057373068, 0.13743395149252813, -0.3714691645451201, 0.21343871930844496, -0.6244109379072055, 0.3394033926224091, -0.06016328681679811, -0.23769990204890346, -0.6036859595865479, -0.664465692970647, -0.18735583629019864, 0.3430352953477455, 0.696009337504833], [0.8410135524822208, 0.3600551549379131, 0.7339829291925802, 0.6801423576939527, -0.07310676607121658, 0.1505292222384913, 0.9112368659472929, 0.5309506543599605, 0.3519722415023389, -0.9628468324612485, 0.062499084117173996, -0.18169779123320548, -0.4304576346589132, 0.41578772282053483, -0.16637161699941613, -0.2839102659891997, -0.33858338076441236, -0.3243925829714297, -0.9312295529817906, -0.19291483281765998, -1.5635286154684749, -0.784192106953889, -0.004134617676068234, -0.2692885080135966, -0.21025669182760914, 0.37582270959773867, -0.05828939148640726, 0.5368199983151938, 0.14804929667383168, 0.4490832089951365, -0.1635333384219969, -0.11822055070442893, 0.8918127109488392, 0.5127015402458375, 0.19074121650619918, -0.3447325879482789, -0.1332215431872057, 0.4529619770531895, -0.11083556786955098, 0.7453727609000171, -0.35615402617090713, 0.08412518221175255, 0.3019757629733625, -0.26738628950929616, -0.040753808489206476, 0.28361884835238954, 0.1580600397451075, -0.19423660723775119, 0.5350871235752428, 0.44990948311190837, -0.2229954725926777, 0.188339906995853, -0.5551140586386207, 0.8398510980234689, 0.4808189115053737, 0.2743589151328654, -0.09059584769332629, -0.4926610946542506, -0.30761399718999627, 0.015059428720893492, 0.8105869773822062, 0.29640104772562076, -0.6599743559206606, 0.07707129036093822, -0.2954927447231169, -0.9067548613337294, -0.32364025782996414, 0.2972845803988057, 0.8639839217340091, -0.5024634246210231, 0.6112287117722045, 0.3560523127155138, -0.17301560389795947, 0.2213367573482976, 0.4765621031199326, -0.03914328958005842, 0.07733159611790545, 0.0017743571716762098, -0.6509869536551957, -0.4566464637544896, -0.354561382046335, -0.04591734870669891, -1.000205664906788, -0.04521011218447026, -0.21827427949049555, 0.0825864503893073, -0.21028410974817, -0.027513484354440513, 0.1629528998341567, 0.15707628999454465, -0.11574529895481235, 0.8973011923335457, -0.2608132896541769, -0.10238500963924277, -0.06564922044218388, -0.924186228924907, -0.00028808045203380727, 0.06596088880527565, 0.26243248671277597, -1.1186615193449443], [-0.2615854341743252, 0.04355205907378822, 0.011872972686702456, -0.3621228615415169, -0.08355553722338915, -0.3229173781343119, 0.13057571448030122, -0.11440616262113394, 0.4496977343479524, 0.3923968617290432, -0.34353535613123415, -0.7683798888956613, -0.04938712354982483, 0.062490688235916914, -0.24729911286957668, -0.07072260339654422, -0.7205887262952029, -0.6614542248273731, -0.050261902121396196, -0.5917026498376138, 0.38304852090578445, 0.684032234163834, -0.7281117270298333, -0.5172543753198783, 0.28069524030715737, 0.15014156186484107, -1.05868081397672, -0.3921641088028714, -0.21364299858552963, 0.5409391450201131, -0.763912030618407, 0.2902019475043607, 0.45798506105810005, -0.416425204070679, -0.10664427690600325, 0.880760690304959, 0.20565765605169442, 0.5188146510550088, -0.10208082036830947, -0.9239697528131955, -0.3956271078640997, -0.028612875134560848, 0.09068113913458042, 0.39185559803829256, -0.3891133503643926, -0.22613676498161017, -0.2858222318419794, 0.09255685990921439, 0.5942903845060546, -0.6455681427901343, -0.07092123890965865, 0.43522144309107724, 0.35225515519100226, -0.1736459631732325, 0.5233624121077936, -0.1255403778702015, -0.7747991128960623, 0.16236440178052236, -0.5967996433615477, -0.03576669006827454, 0.4257451320100867, 0.4333250571539339, 0.23873598960290424, 0.029501916700132524, -1.020337870071166, 0.06585429797154728, -0.8314628520498323, -0.4555015313295227, 0.3561636439230566, -0.07012382037141932, -0.9190518112976667, 0.0486982046330646, -0.5426575513488682, 0.752162566255607, 0.17612984417425356, 0.3723719331093554, -0.14117653819728232, 0.14946737736915608, -0.5961073500400065, -0.20627671665334876, -0.5325920339914385, 0.3845365066101586, -0.4956693720629997, -1.03195939376189, 0.3460549532163258, 0.2455573278461065, 0.01883236408546533, -0.14158105100438767, 0.22380920173597532, -0.17526633464461933, 0.0751896628889113, -0.40605192909284044, 0.04755142256703102, -0.4094327633145666, -1.1080377866293911, -0.02157158008813308, 0.0009284713387942525, 0.6117416198806026, 0.7132728366476349, 0.09400998350873391], [-0.9037674552973051, -0.24308710558822821, -0.12186524330663913, -0.16615007402870266, 0.020166760393452016, -0.09052777685943764, 1.443776409558368, 0.2568331960328031, 0.3788247013877691, -1.3197701647825881, 0.017591979742298723, 0.5818562425551221, 0.3168650183843604, 0.34477821189134006, 0.0562745329600424, -0.39509942685246663, 0.054511522510388745, 0.45501777183585507, -1.2018611618845008, -0.34983855377070483, -0.0905476947902562, 0.08917076561943355, 0.37725664967926775, -0.7338407079619604, 0.36822919292248235, 0.2741900192139096, -0.2720491802514704, 0.8070301266359191, 0.41784458010085457, -0.6417500766676356, 0.07990075700771115, -0.334738089626094, -0.6829643931407536, 0.7474710774183071, 0.1924356475650677, -0.5437566468106343, -0.031264228080130956, 0.013889911670290536, -0.06343342279686201, -0.24234877481553307, -1.108520385638962, 0.5752185575974172, 0.27226143205853104, 0.019736493229718887, -0.20308210018647505, -0.9966144472533133, -0.1093722252966569, 0.10705604673291651, -0.042233533694051535, 0.10597225784149748, -0.47949562627968323, -0.665481991709927, 0.3047045172180178, -1.7405363379690026, -0.5324864726762883, 0.17561683729412686, 0.5776652369281468, -0.04393738052643916, 0.26387109574987655, 0.38406456378586856, 0.8976031532408602, -0.429642099023492, 0.06830735463730357, 0.5009598358329006, 0.16607368947821377, 0.43673329529724453, -0.39099244252418125, -1.0059801483513262, -0.6037499985716072, 0.16360419015627153, -0.1603046686491299, 0.021305053293343666, 0.5907938298251543, -0.4519195513725384, 0.8545719160695959, 0.20913770573905424, 0.5662445851428912, 0.22439638347029653, 0.0842928612914531, 0.5874352106347198, -0.25209101952539964, -0.6583005154634983, -0.37191075968082715, 0.21822118520025527, 0.11030059721139314, 0.8798851014709345, -0.12329500105392785, 0.3378364887272459, -0.7363397164094732, 0.19768460070630728, 0.33293404708538177, -0.5506936435292105, -0.3469633204175605, -0.46104926511959504, 0.007080335601769641, -0.7966078931238578, -0.31015502465416506, 0.5943791181017514, 0.24003547587551888, -0.4278371338095879], [0.8730934054893424, -0.1961594891982273, -0.7800703156588635, -0.2802236372608805, -0.22415835567422965, 0.008028238215124415, 0.01268285213604337, -0.6658604502332259, 0.29331347331812657, 0.8684787561712165, 0.6048788850730977, 0.10247001631468824, 0.5743280119885552, 0.2793858713184397, -0.3083110178658968, 0.5253020771714166, -0.21866107741275204, -0.17912830507404423, 0.5841615525753048, -0.2345689557888339, 0.3409044186565077, -0.1595131736212544, -0.0018816287840479737, 0.4732563606014724, -0.5357949901504658, -0.18322865577493555, 0.5105939518745688, -0.2967604185125871, -0.5679748715935828, 0.789481450864031, -0.09386521808317914, 0.02678030276462437, -0.05931365901689633, 0.38259258338470137, 0.16956649053816011, -0.07811878995791482, 0.15589508160827065, 0.688078333297449, -0.29792514267891373, -1.3940558456201741, -0.3021036998391316, 0.5321984499128137, 0.019030209131653323, -0.6262868920679266, -0.20498122965130344, 0.569057913953719, -0.2693746904128984, -0.1108364095172475, 0.04846477545532094, 0.16593715174879536, -0.05639408921330174, 0.6626512954788564, -0.048331700092971094, -0.6668544042784268, 0.6629794445684007, 0.297772255885746, 0.04206760080612096, -0.774708499690255, 0.1764677581292527, 0.17582043769139727, -0.22216464284533693, -0.5279050670461424, 0.49833580229913566, 0.3572865766639374, 0.20510052079569052, -0.09087932067223833, -0.4699866984631713, 0.9521833258197165, 0.10778104572750094, -0.37400002194205056, 0.45237856343619637, 0.2440697970001132, 0.8284303069818453, 0.9174199618956147, -0.22859895281351209, -0.31791167076493665, 0.5535425048678732, 0.04597117826332666, -0.3858587620323489, -0.03462547447103267, -0.9166456287255353, -0.4689458495923205, 0.42266415828474424, -0.45431250215130764, 0.05512105062881464, 0.3807074106443936, 0.13926158542989037, -0.6922913827977183, -0.3759489987833798, 0.31635267229383124, 0.4986541121329296, -0.1888623733389236, 0.04848150739111313, 0.3164527564092263, -0.1847945862206278, 0.26821703077935644, 0.20809473234714237, 0.28523451521193016, 0.9291270341404918, -0.397352760855294], [-0.35951664448677323, 0.20846117291619246, 0.08368542071456062, -0.5882200519087246, -0.16905073768739218, -1.1123658032993697, -0.3187248533443864, 0.9509781868152484, -0.039339491408646086, 0.9983183422752098, -0.05234547028797926, -0.07099362455958957, -0.7224788611358682, 0.31772649310874995, -0.11440256517903023, -0.005707181103141203, -0.3351559466809571, 0.06307846136769858, -0.050114543200709176, -0.46687584354408135, -0.2763461147508668, -0.6079368597553306, 0.029511666761938428, -0.5598338164997602, 0.2657646136490737, 0.7582498298950545, 0.9899959135323548, -0.12915381620515845, 0.28289666936538843, 0.6586358829344475, -0.6894249933351105, 0.2772550344350315, 0.6794763009652839, -0.03773606681126149, 0.2809795729403574, 0.28313279413390346, 0.08999106494462505, 0.9368575363348686, -0.2335191466435396, 0.8970920033057875, 0.6318844418039334, 0.059310874336076166, 0.0037375748413427477, -0.3048659397264407, -0.44663554556866014, -0.24826813853740104, 0.09500211763508819, -0.03427262521171466, 0.28098097357886587, -0.06833690235739213, 0.11030583663497019, 0.27645141656794264, 0.8350132901748811, -0.03786167700593095, 0.6791954257041388, 0.8358718016361767, -0.46896723925416667, -1.0853201442973683, -0.5832712324610274, -0.5269853055561595, -0.18417210525083927, 0.46580246679391013, 0.3181837726466853, -0.12679321199091664, 0.7059225054189904, 0.1559001245948415, 0.1554728497855854, 0.2395516411322833, -0.34390352232763577, -1.1054028358264647, -0.6402505813160326, -0.47352707211008216, 0.24817584753123972, 0.31983534456078727, -0.23110047294147076, 0.3032001106040881, -0.6145374786203002, 0.24771109033748454, -0.632082656129395, 0.8345794052400222, -1.4635423550227213, -0.2822563714130964, 0.39484932544682483, 0.004939757712593806, -0.08859730045406346, 0.3555342936220893, -0.16351137095750928, -0.1121496842464563, 0.5279940144805043, 0.5339003334127826, 0.10320816396509828, 0.1262629608826881, -0.1108494403697933, 0.027442625986624763, -1.080033403949745, -0.1059417462891551, 0.002946096043377982, -0.09823573727012609, 0.7095534094126522, 0.28208604181800306], [0.5150713227890414, -0.3828735605937505, 0.7813141934133555, -0.21710639930502634, -0.08190572477240946, -0.3872106997127521, -0.0716255486960635, -0.2812272200659694, 0.27142571850641056, -0.454958062614147, -0.025395024783249648, 0.37362066114154424, 0.15508056187200506, -0.026137346912558073, -0.10584820588429221, 0.16613626716952784, 0.2748744186163728, -0.01139873594488771, 0.5668393080972579, -0.4679515216899937, -0.869132588629837, 0.5734669032414874, -0.2990930174890492, 0.5117270798371706, 0.11249596380907932, -0.36682497724458746, -0.07455285935877873, -0.12007408139650583, 0.11896060981443446, -1.1998867359339467, -0.42479895056644923, 0.3080665840948484, 0.4126485898210764, -0.3270843329098272, -0.23533511457611536, -0.2372790683009245, -0.7944965341609753, 0.7737618223293532, -0.08491099509952926, 0.6240690271995702, 0.19408592697271093, -0.03012128822221729, 0.2105838670844642, 0.37750499716939323, -0.7128463504844166, 0.1102403288632949, 0.18702958210055168, -0.9000896111896156, -0.7087442758414364, 0.5545581797985789, 0.04632351697894642, -0.11185340928971668, 0.3044567808619303, -0.27488463641542094, 0.10352576575775171, 0.39054273247686705, 0.2743273841899901, -1.1222154999609193, 0.40221710501325414, 0.03458822214230579, 0.046635696629452626, 0.47637753883757156, 0.13489537908923144, -0.4113479449310045, 0.2593087039954194, 0.6067981646951517, -0.5494341558040793, 0.8902900860623756, -0.700831897274241, -0.0405629431236436, 0.14162389347826393, -0.2111133038160438, 0.1822812909248941, 0.7702607695979228, 0.0762233455643486, 0.8271039849698612, 0.14692002694497855, 0.5717250995232002, -0.3329520289590443, 0.0792498704034228, 0.38111822726618555, 0.007175854951219928, -0.732600123345889, 0.18297408619795277, 0.352111613192502, 0.23632291636918204, 0.11216131580361034, -1.0411790457480397, 0.5429464587940904, -0.3320302460160001, 0.2913841970023635, -0.5581842771859351, -0.21959684529254836, -0.11902089139560952, 0.21448630345111608, -0.10669654334899405, -1.4406494756689614, -0.09290799219838139, -0.10753365225720601, 0.19368033535119214], [0.6424401263614355, 0.13842958342317666, 0.9344750641996874, -0.27643282382493556, -0.3013195902545252, 0.10820072343152298, -0.6491785277978224, -0.23394614987184167, -0.044291086534447424, -0.37525867219308523, 0.6502676342678485, 0.13061025523569428, 0.44944803962363195, 0.15657269016049077, -0.17681071261661002, 0.536464387464666, -0.18004431447446853, -0.782734387010931, -0.13374490427024285, 0.40533109816806, -0.3336081107287968, 0.05405719604047632, 0.1857088296653947, 0.6700377297136789, 0.006277417242484303, -0.6131398328366038, 0.06933149472722502, 0.29348606063780447, -0.3497364831768439, -0.2591695942835664, 0.6038611087721406, -0.0506101022739692, 0.07456046936329658, 0.29870136681958226, -0.9285377086831584, 0.1874696445400041, 0.30131636853274046, 0.3541223494899441, -0.5174031945540369, -0.6498058866930675, 0.7585454310568348, 0.18616102258784892, -0.05111699834375067, -0.3107449859332164, -0.1175240500502422, -0.29577923511653775, -0.3452045584872963, 0.30586709550256813, -0.35959282961801897, 1.0833322179148515, -0.11741216272917479, -1.0468674590109286, 0.28541442006907586, 0.14335840030593994, -0.7985859224431492, 0.23822331873975597, 0.011959390146590193, -0.7055173620378175, 0.8560306743683058, 0.6120303133708208, -0.14285573014957467, 0.0690954645391228, -0.19052506285242254, -0.4541576437512402, 0.33697600778070513, 0.36884945101830474, 0.09390749303466457, 0.005454945292048785, 0.33324819850438037, 0.5143204090115852, -0.07058032295542604, 0.9046336190261163, 0.6966585836272241, 0.06801709874986918, -0.1868860694743727, -0.013751167983636594, 0.310940866285574, 0.2715733306593537, 0.4628427744274412, -0.4984672070022539, -1.0762432552117795, 0.07016063930337811, -0.2104571513011146, 0.014962475923400914, 0.4523349652993456, -0.01192859915465442, 0.279727064160329, -0.6387852887424427, -0.5410682577375874, 0.9099201148443109, -0.3534236973327757, 0.8694444365157128, -0.34937829452829666, -0.022560493033014505, -0.2892141626187625, -0.5487671667310234, -0.27934384371889137, 0.14460276762809865, 0.498534162556424, -0.7485937384910626], [-0.651949331636523, 0.20614349588051595, 1.014783626117267, -0.1206724980724426, -0.15231195623037727, -0.13882053983888984, -0.18117788760276038, -1.2931978316361543, -0.3377620415498957, -0.295851700153968, 0.41404136387572876, -0.0323203519841739, -0.2599039297574422, 0.37241060065996145, -0.291899555696925, -0.33978385392758703, -0.3480372242469762, 0.29630417834716616, 0.36315514069817034, -0.16120100483864172, 0.1014025104113939, -0.4928303459241364, -0.3029807391109057, 0.05565135010282959, 0.021972684166255755, -0.2849595776246446, -0.03471642332480749, -0.6843093592404992, 0.02193796873198808, 0.2821044643960548, -0.1362007128935624, -0.04293423619113153, 0.23463731614797115, 0.33131140551528254, -0.34562326548140854, 0.4407761469209007, -0.6745771403151921, -0.41650832424189194, -0.333057832005411, 0.01203651185251408, 0.6416950099580832, -0.021768995655814957, -0.19975034934585237, 0.6362476412970557, -0.09270805640201574, -0.5468174739650583, -0.09803032814091112, -0.22650171829757015, 0.09622764790811406, -0.3736995183251098, 0.23698502341223016, 0.13856196645671945, 0.3792488576803138, -0.2905737825356464, 0.12142307822006781, 0.16167195158350484, -0.08715906190906254, 0.5626696817329907, -0.4259215360809468, 0.25857905733755154, -0.5177131625897142, 0.21488339157705105, -0.2175184501077, 1.3659054374654251, 0.7085773193650198, 1.0604461669809122, 0.45792814876041416, 0.7626055401306341, -0.2537402567494009, -0.7746634848077609, -0.7377338025819439, -0.005821115785945896, 0.9429234593303729, -0.0324074532723778, 0.1866290701197502, 0.6946127273983763, -0.005818479670779443, 0.5903031998675831, 0.3090620286957013, -0.5126945997335275, -0.26360811450082827, -0.7715195038078455, 0.8646243485241019, -0.20361825617162646, 0.15615063652821415, -0.2823566976920359, -0.3877398670934763, 0.5481603706600965, -0.20067085845272947, 0.42059826698429886, -0.0350571515063378, -0.629804805348222, -0.21052040355626625, 0.12548446307950792, -0.10947168027813124, -0.3132473802443235, 0.38655240223405074, 0.5412951106693608, 0.05469860249106665, -0.42228781845313296], [-0.6244995647963476, -0.9562892045151651, 0.3795891843876221, -0.010560036537639008, -0.055365630162966355, 0.010628675834887899, -0.28405081584145725, -0.2587539961480806, -0.1821769566497041, 0.34953530596625776, 0.6167869395376272, 0.7808287086378736, 0.6842854892898301, -0.2911875606476382, -0.119940536126092, -0.23304444129590124, 0.2650555760137357, -0.31289269730072516, 0.6872269765769505, 0.18408860984242972, 0.022604963037955422, -0.14129297890416667, -0.3522872223764664, 0.8220280551203836, 0.41791122591262814, 0.12484120329256071, -1.0781535945121128, -0.3529041515625706, 0.30186104313868645, -1.0654501155984382, 0.6582748150479265, -0.24974154099456614, -0.5500983979144004, 1.050765677852323, 0.23873449076040026, 0.6326823079187989, 0.1329395976679375, -0.29742883034568407, -0.04753864442918937, -0.18748502665995295, -0.19205704532463763, 0.03241859506968488, -0.2704104174462817, -0.23737779738317832, 0.023885647829507098, -0.027163812223919385, 0.01914385985236005, -0.5820603012282894, 0.3228555780415508, -0.6802959611508398, -0.043686820309499844, -0.4013615938027758, -0.6756055233547127, -0.14803858075397805, 0.010747516622936621, 0.11167645516470977, 0.21290719565899824, -0.33783620773468537, 0.018977319287106345, 0.558708280503324, 1.0127006917497512, 0.09167050444769609, -0.9132206231346746, 0.9246112443395533, 0.13525681168633022, -0.4486168193448079, 0.5587520810031895, -0.3689496151253639, 0.337124491926621, -0.2529657819231812, -0.37985748999829905, -0.4978900235396713, -0.04660383543891522, 0.09976053407414263, 0.9565859429405761, 0.5459096193372862, 0.4154309526964515, 0.14846894443221714, 0.6383951510075391, 0.06966802164819796, 0.04243447765136158, 0.014437925117188756, 0.9103235647095378, -0.3215700945685669, -0.28585228129749163, -0.009347760855688482, -0.33388572467006766, 0.20523362114783406, -0.0173976431232516, 0.7276881188729232, 0.3144805848738338, 0.10423907523866732, -0.4781059361343708, -0.4026264669457381, 0.39251273014954335, 0.33257169476522236, 0.6300999347145384, 0.07549679626458723, 0.08101128532661692, -0.003129321325668288], [0.2511881669297563, -0.06480053337273727, 0.5012643460255666, 0.4211888789202236, -0.016217283394153886, 0.08163126731185623, -0.2242182892898511, 0.25754136719903736, 0.0658601284815978, 0.2602138051045911, -1.5110858438557642, -0.14951325979515687, 0.1292793004155613, 0.186785262765184, 0.032708451757864736, 1.070361232447133, 0.1682443050709341, 0.032062317040887106, -0.04089484072066691, 0.5795698370120108, -0.6269806084429979, -1.1619397164184877, 0.02973814812671375, -0.22010911168691674, -0.12680616067102318, -0.07072903426007149, -0.2518244406060053, -0.027167542895879165, 0.17205032131034603, -0.36278953645401746, 0.725834938240011, -0.1678318138389311, -1.1398430351358955, 0.5471848296189221, 0.2886321667730691, -0.4123251750099253, -0.09573544624146765, 0.09953457834560776, -0.03602496685284886, -1.161492168885578, 0.9080168920148778, 0.1601439073181731, 0.10431555225947717, -0.24544294213025403, 0.6560354619478663, 1.3546100181929899, 0.05318679651988034, -0.07994983410731668, 0.2503056817279851, 0.5488735021771316, 0.050607838127936663, -0.3703557223618991, -0.2531350849664211, -1.1196105257665085, -1.7779916254237922, 0.22289637906064283, 0.036102773388866, -0.26974278181688083, 0.01737056711416892, 0.1064303453937193, 0.2997286119677216, 0.07018394860841952, 0.02179882140174391, 0.3640419910239291, -1.7322742361024759, -1.163868032708516, 0.011505946083662443, 0.020167132283116052, 0.10645482431602744, -0.5805277865770477, 1.0196132563104516, 0.5053441616064386, 0.6170778850820744, 0.1474142828961529, 0.26551854752139975, -1.0678911539062588, -1.1705906905919827, 0.22142047235607926, 0.7947272329322065, -0.3198772081959309, -0.32708346750103656, -0.7808630002232925, -0.16054152408911337, 0.02864013356280419, -0.009303791854664002, 0.25615929893938905, -0.011603679578049272, -0.07058871307670024, 0.13390208143462573, 0.2083054792331441, -0.36409316969446864, 0.06537022631170175, -0.10606206951168688, 0.1500755384988686, 0.7141565785307763, -0.14267665175151306, 1.327638555097998, 0.0695547629717397, -1.3335952838952456, -0.14536813755334657], [0.4830777604968819, -0.06694892520287646, 0.3176449798960535, -0.3327250486810034, -0.17356542028455224, 0.012957279715680699, -0.328428360947641, -0.41511442382311925, 0.04367195660149389, -0.01591802038136983, 0.10247117000174741, 0.27816355102022305, -0.26543380088712965, -0.5308594400754334, -0.20399620954536976, 0.05062193193128732, 0.20445420510898102, -0.025453622805419532, 0.28812747419945073, -0.4481686029560097, -0.23320325761154004, -0.5346944090618678, 0.3038563041935759, -0.12422957067806373, -0.23159371181542854, -0.25895067829286306, 0.6838329658049064, 0.25283612192669497, -0.1875525603750666, -0.4159544803627453, 0.016317436971224748, -0.006598524387298233, 0.9850048042692079, 0.1066058307827014, -0.5437209952765649, 0.2407031549432256, -0.04633076049135148, 0.7108305284657732, -0.18095622915890253, 0.14056252833825736, 0.17289824741897028, -0.024741745692648, -0.29428370442774476, 0.46657109307694394, -0.13416506299869707, -0.08043395625569688, -0.20219733533626452, -0.02459592563006042, -0.5300162607473575, -0.10269090999805727, 0.07553972262803528, -0.06263621407377513, -0.24894339053068396, -0.0040095010544374384, -0.11459248664728952, -0.07592153069388907, -0.0413563241458692, -0.6379385247973294, -0.22331854183796127, 0.6097015888368685, 0.0980301633428442, -0.017095493900119777, 0.4650055221808535, 0.22870480176972224, 0.34556744058869365, -0.24630366524874828, -0.09482359579187102, -0.21014229344991606, -0.13630027816730408, 0.2427535970672558, -0.8477737733036157, 0.45761784455038096, -0.14485654001732368, 0.47671898182808314, -0.28112864437635804, 0.22103786514958484, 0.17973056524218567, 0.5169664681280952, 0.042140139197005606, -0.3912748519417528, 0.35164493603346925, -0.1693283025677427, -0.10360396926614021, 0.010933735555058768, -0.3723100870976418, -0.2726315063014994, 0.08274359610688901, -0.5630800438983606, -0.3453523618502383, -0.12243040218697837, -0.3717202223724949, 0.03157723564450906, 0.6616488735418837, 0.33870891780693363, 0.026334741474960437, -0.22493355788380268, 0.4035735548123347, -0.15520918992631255, -0.17667564676752429, -0.17391537831714202], [0.6491672325002623, -0.00997360365969922, 0.49914046330838224, -0.29292435937973954, -0.0678155939141785, 0.1648878282563284, -0.0734037545536534, -0.3200865813439943, 0.029026590960144885, -0.10384858027239817, 0.12308059779732264, 0.20769799064040162, -0.25250719779254643, -0.38310491615346354, -0.06937023626992335, 0.1885445538068471, 0.009124590952108425, -0.22128085180933463, -0.14757107858889837, -0.29256753118129647, -0.15571542122114002, -0.2518867570824264, 0.16798773610414838, -0.08233545533437533, -0.3048654638296895, -0.11580220724208248, 0.6696462566554741, 0.10505225744289659, -0.220328426776635, -0.607123267157897, -0.17223078840390887, 0.022788402556893884, 0.680293582036026, 0.009566948533413581, -0.536579183889436, 0.3322941440555012, -0.06981253913714205, 0.1292818693096446, -0.09070723065984042, 0.19220618754919425, -0.047203161820445066, -0.06075802265670825, -0.1456113881121476, 0.24575048632341492, -0.08659225827853938, -0.22457488945149306, -0.2218449761619497, 0.12191204618534203, -0.3600794035790104, 0.07438185499542074, -0.14415490636207254, -0.09459105443853576, -0.2273074108017964, -0.3828414853226946, 0.21790706615092495, -0.054704505824555286, -0.0598384202459319, -0.5258625780841499, -0.11087636907708544, 0.34817141871627316, 0.05358308318290257, -0.10334870849547388, 0.42895784581912894, 0.1044134581821682, -0.1029445848491055, -0.15997652514745514, -0.04854760609398117, -0.1842832261466814, -0.1416920624297498, -0.0439835718503971, -0.896978061689383, 0.21310630255161672, 0.09573448434203409, 0.05648960835899197, -0.14869386468675724, 0.13203625318768664, 0.11191220153188994, 0.7581694015558604, -0.09124258455103829, 0.11700405176944843, 0.20088733734712824, -0.36524127542659424, -0.11177854548832014, -0.0034135895299996478, -0.15348122671029724, -0.18125164618784936, 0.037653571428383534, -0.14805288624123383, -0.5662843773850885, -0.11303359339282802, -0.17567210767678754, -0.039656649516074574, 0.26125514171011355, 0.2974109019035773, 0.04994862558553975, -0.2813789782936015, 0.6625302461681022, -0.28526526178473727, -0.1668895151938668, -0.25133828948185905], [1.2460350690043402, -0.0004779207148294438, 0.5134798582197232, -0.006603827712684646, -0.11406744674975486, 0.20004206113960807, -0.2587542612042668, -0.03199005668193087, 0.0030894931207948364, 0.2264459056781749, 0.057967876020154026, -0.13931763278431875, -0.011305627280391226, -0.03543536382181099, -0.14165790351017732, -0.01802193344178543, 0.22144047990267954, 0.20749631371838703, 0.010501822666166113, -0.03497030506081898, -0.1175905107644984, 0.1358193069555405, 0.22780325825100028, 0.5048433384531311, -0.1579892404241196, -0.012536806070107934, 0.28147470468313857, 0.5140247906107132, -0.28658214956180533, -0.17937451963946544, -0.13153006429221387, -0.0780774911673222, 0.22126977888888305, 0.3929501866004657, 0.14396476409824957, 0.08777135013832191, 0.0856405741118293, 0.04621900827392538, -0.19942880125141627, 0.2782318014374166, 0.00454134549035413, -0.04596051269665213, 0.05689187543178009, -0.7442002477050299, 0.10912888825041893, 0.08626513629368142, 0.13687009081990759, -0.20803200232445315, -0.052084419004969726, 0.885044696268232, 0.17591747802886662, -0.7029858512355311, -0.15654189832428023, -0.23005034396652987, 0.68054516743006, -0.7887672094116702, -0.2834010144353323, 0.024646508503026337, -0.19112879280118797, 0.1776508397464862, 0.28734916057843213, 0.09935113391407378, 0.41978608156933434, 0.30624149155354996, 0.032743630350934944, -0.11977882607779318, -0.07333956734030873, 0.00804501070953583, 0.21702369405845953, -0.02981168713014817, -0.8427178047431969, 0.48812500284268234, -0.8902688393524094, 0.23328463311537176, 0.08428471408653253, 0.26148359653861447, 0.3802279183401601, -0.20196268158566866, -0.001424989589035277, -0.6831424512582361, 0.5534899411133835, 0.3655559734614138, 0.05115749036776749, 0.20163301487805604, -0.030327927071608994, -0.42923626096469947, -0.06991702635523706, -0.01258157906983628, -0.14230601542818658, -0.2890749295740431, -0.618994139214894, -0.6508224439729388, 0.31793067534811364, 0.16377575519930335, -0.1688227789609366, 0.1479313554199399, -0.007692812098093126, -0.4384221030910082, 0.22857827946567238, -0.04761497273336683], [0.301213679600601, 0.06461065605908273, 0.25148043582860996, -0.07657428929761863, -0.1317244119249107, -0.5444227252393048, -0.622116004802844, -0.38450058437755524, 0.22222033876187422, 0.4467945605962569, -0.3896370292357967, 0.4929959466595531, -0.1562678498778375, -0.25097721534420986, -0.09709867823705601, -0.1416190497981995, 0.05240345092513337, 0.014452605041095381, 0.5529686742247294, -0.13879657863024034, 0.2609058540509291, -0.5518989268997451, 0.12473196588725077, -0.33298349775958164, -0.04661794774206134, -0.30814866894536197, 0.1385239879284047, -0.15710141460851193, -0.19259608426634783, 0.06498609920206949, 0.3766133010498846, -0.06340085713811162, 0.42719891270377275, 0.42035073771393294, -0.34442753206771376, -0.20447667469701614, -0.422589112817209, 1.319912974127606, -0.23777058647780938, 0.11018869879761649, 0.35577202761828164, 0.26318266383065897, -0.024464498467103944, 0.8793015372613239, 0.2063339408833782, 0.07125219741746208, 0.015877031948546883, -0.21439029313378444, -0.32932454397972954, -0.17955670598876552, 0.0707498628096926, -0.06008906956089579, -0.7757014331600814, -0.5465479620266382, -0.5630889254663421, 0.02771664864137461, -0.09002779300409373, -0.4309237481856394, -0.4423254877190482, 0.54802000969105, -0.3285865332819484, 0.17811379647409586, 0.08900845262412034, 0.08739305345234961, -0.04215645340276349, 0.030399019138861963, -0.3309780537867165, 0.626175605077545, -0.4597126129741946, 0.17416462831867097, -0.424534597629166, -0.17931189368160277, 0.9189139238559421, 0.09292520218231941, -0.3036374058739081, 0.03746559369216851, -0.08122861004329483, 0.7753996850269519, 0.5380146134433936, -0.42428242964166246, -0.2179411407953779, -0.11017322382958847, -0.13468720980771465, -0.17202677708714317, -0.34455374612084794, 0.2664271160922354, 0.10366346174597084, -0.21283358816424072, 0.18174072278125153, 0.2694554864717352, -0.2596262222663051, 0.2602109218604968, 0.6493941440185678, 0.15767486474810435, 0.5113926936089361, -0.025144051602116274, 0.22421055118986752, 0.13777652102734508, -0.8776298564284072, -0.4446483899395255], [0.14976820565483198, -0.019097029372990435, 0.5361766432604168, -0.18606070880895048, -0.01409971610487566, -0.418031512051558, -0.270481303441023, 0.04472281151680611, 0.0739073607423376, -0.6075137802040832, -0.3920441272367843, -0.08068588357512482, 0.10439000652653445, -0.18384378458434508, -0.05052160535151161, -0.7088450015633316, 0.17374996030606124, -0.2434492806992478, -0.5107224933095057, -0.05427260516270151, -0.07092253177536463, -0.21431632187520544, 0.26636402805661535, 0.04111013965090733, 0.12080736195898846, 0.12001534913240708, -0.04746595031875025, 0.2285447439147487, 0.3540742207787762, 0.1264117768697917, 0.07014505980609115, -0.12601294250387335, -0.4852085335875322, 0.5078215263293354, 0.1135402714789356, 0.15859304990242162, -0.13085884995723387, -0.29857372086598777, -0.008055975058482214, 0.46173662731756815, -0.22936368292887957, 0.21457818975453533, 0.06087916079606806, 0.35586693427971905, 0.1542481227065642, -0.14707366956925705, -0.024145655038367596, -0.45330114045802006, -0.24147329120457175, 0.20027328692052038, -0.06076534831073841, -0.14441892661064232, 0.23367922389118892, 0.8574073430499781, -0.1867047006905911, 0.09610487237258852, -0.0009576883296751428, -0.10339347845465231, -0.01293523074875159, 0.6203094209970048, 0.05740220585643221, 0.6510280081989307, 0.313232734233668, -0.046726419764095035, 0.13420465260449868, -0.039528271082518954, -0.02378160083203568, -0.3691354498143484, -0.5290442112197762, 0.38387639392598005, 0.04448456296023037, -0.10365835367877696, -0.551731374213365, 0.2741542547509073, 0.059288637434313535, -0.36315996689187513, -0.4342601752793501, 0.057691573507602734, 0.11749888867178677, 0.12762263431825777, -0.01347659841698487, 0.5521524909665323, -0.19954445083667463, -0.22628973484344445, -0.13769739607360745, 0.1255581885454455, -0.00899020717287641, -0.18175911972308376, 0.002982138468733687, 0.513962465114696, -0.25667849960892, 0.46088253608883123, -0.29275554001508636, -0.13316485538195985, -0.0523521335587141, -0.04342118810906644, -0.01730537261296143, -0.2347872600439702, -0.09496709822711802, 0.4111402579079374], [-0.09490884543600883, 0.03565972200162352, -0.2849320992100808, 0.15820613460757108, 0.026458579679199543, -0.550553297299466, 0.20408510604810318, -0.2382677266741261, 0.17116637489380826, 0.5482165562830308, 0.4748981591018761, -0.06654717691982008, 0.2324767578682797, 0.22500521725020153, 0.01725271193788794, 0.01454926338373318, 0.09188417715178127, -0.5823585647365821, -0.12713061332058131, 0.07635787456885568, 0.026953467332658566, 0.20465271333817484, -0.2477139980512988, -0.1085285583877289, 0.075088489859026, 0.29741818558380606, 0.7708341999768774, -0.334110166289413, -0.021780633744358416, -0.051786892626088606, 0.3190812835521026, 0.06275769201338174, 0.3061223077376768, -0.29404697806672764, -0.4107540402607465, -0.40694662468887194, -0.4534620471711031, 0.1041166832856087, 0.02975402658921148, 0.313218696661313, 0.16831832625584395, 0.18001338189794616, 0.1470841190328446, -0.30121604946614305, 0.1511140425635004, 0.11105299643820217, 0.002532109557892733, 0.1075285177926132, -0.48908028786916996, -0.5612037648323386, -0.27054795865491116, -0.10624817945234952, 0.2465938533837041, -0.08957686324814636, -0.42242816940860345, -0.06769139099111914, 0.07883581242284338, -0.06306444949759604, 0.13142266796053828, -0.0032645678051976415, 0.16299541152594585, 0.09938523707057251, -0.2378698303638837, -0.8494159690112848, 0.0030324545022363944, -0.14743411960012953, -0.4984069735640278, -0.49013188901376054, -0.13823236189725596, 0.4904260871941955, 0.04830060427106153, -0.17430053572424967, -0.3202906372196901, 0.11721873615944789, 0.4174114638087974, -0.3338785547787224, 0.4127306882561885, 0.004568499258119282, 0.15747722664523583, -0.17601956661774373, -0.07867835703748702, -0.26443796172197925, -0.14920295335461986, -0.08816464390201016, 0.24213455129905329, -0.3996176971503531, 0.08252021004377671, 0.14607533100544565, -0.41336195229842204, -0.1806876386149746, -0.7847760941132336, -0.3721331352221775, -0.4682455460399265, -0.11789332415741353, 0.051005104099444566, 0.1962019696476894, -0.15482771410902704, -0.6866732236190979, -0.014642597993454905, 0.19658229088959156], [0.016029631869354626, -0.35412310054324075, 0.04243256006300354, -0.34600829358054147, -0.13144026367508826, 0.4799210184045594, 0.35330488045154507, 0.6155225927464708, -0.24540525806828759, -0.3987000180034384, -0.8555380396523671, 0.04384339458913806, 0.6464722663758372, -0.4957766206780688, -0.0819865247525858, 0.7337968757458544, 0.48508508356545244, 0.17635135680496708, -0.26780811146521905, 0.2634110961953853, -0.6175768389338887, -1.1675339110281207, 0.5829088768355466, 0.05239012217321977, -0.36703042325937035, 0.157487720430447, 0.5426489157924838, 0.41970894782433443, -0.13732008702517998, 0.28764174806806614, 0.4657196517079558, -0.19992177470219658, -0.8966972681087946, 0.5719104117902138, 0.16687100633340796, 0.1549635340349639, 0.2077811613625229, -0.3014189194894341, -0.11031175155111526, -0.041448465740458386, 0.9245920604184588, -0.40858084709972137, -0.28191694972119424, -0.16156864191970138, 0.8483208723079488, 1.2087352946552277, 0.007168965547853425, -0.4400066834404748, 0.1923257155396739, 0.08980094157697575, 0.45106276201246787, 0.011492532122077927, 0.3774951200932149, -0.7465880070750321, -1.33106002624303, -0.2761057909668649, 0.4065331975461058, 0.22651662870847844, 0.1178077323548889, 0.4438252272376338, -0.12764302235228053, -0.343587140957375, 0.6795548218270852, -0.10793331029218067, -1.1771112739176341, -1.17294279245861, 0.4046448012037019, 0.23115058933889804, 0.7415208255050352, -0.008140645130396584, 1.169217732656719, 0.7272061212425601, 0.33542881141404485, 0.16001470151269395, -0.16382153965319274, -1.4783017104422376, -0.860018844982303, -0.20910718968566344, 0.42983770844190505, -0.1918105436441893, 0.670407458397749, -0.408180162154616, 0.47627890216504315, 0.3756108325904785, -0.487725179820473, -0.28375080588746665, -0.0914091578019372, -0.1828058376067495, 0.17133454089027575, 0.23329299646065893, -0.6232352616577083, -0.5239989297193838, -0.29665652518813457, 0.38658621341779703, 0.40972532903059194, -0.2469033306105545, 1.5196059908020931, -0.5602125571285305, -0.7097929928882163, -0.16369767664835913], [0.24893691074976712, 0.16466259141170875, 0.16683335777415928, 0.09140058867243478, -0.04490759764946852, 0.2477682463320038, 0.45258990832156765, 0.08121862083490476, -0.08761408138992682, 0.09794756611710224, -0.08567958065369327, -0.06630494336203999, -0.49196912813867194, 0.23876908811357556, 0.017778227950773964, 0.5682317247208816, 0.00208728906993216, -0.38780897577204543, -0.1505871935929525, -0.03980812745541241, -0.2121862923513789, -0.4050530779912903, 0.15251488062900403, 0.26972437031165203, 0.03494413331967886, 0.2430504875380725, 0.05817903955919868, -0.09210226925093584, -0.13210372143535687, -0.7046624027636901, -0.3726521587054191, 0.0791654641661921, -0.15768893559267466, -0.011065685468483053, -0.47514251920656486, 0.2765652940596263, 0.03824545341742996, -0.3175580606261424, 0.1181508691338646, -0.08630873854371858, 0.05305965418489919, -0.05876027878560185, 0.0051217066358989856, -0.21149019680209913, -0.12890475479065586, 0.2836312030345028, -0.08016753630086913, 0.4958395785573536, -0.18011138440462907, -0.1816380922661134, -0.34106313713883485, 0.13629284276346545, 0.07140616382471608, -0.13117579574490087, 0.19508289123881392, 0.09677944718145463, 0.11697778787819861, -0.41276572168159026, 0.017600443867897223, -0.13099434491197012, 0.04114206758731342, 0.17700844035536775, 0.04449010688961467, -0.17397021781445232, -0.34967074384963986, -0.3741653347289508, 0.10804062158960621, -0.3752950144614722, 0.03098591348877465, 0.2770480630392176, -0.2663011919458383, 0.15718867301477624, -0.3482737873276904, -0.16148012181540988, -0.13030147522779006, -0.044406096782365886, -0.18972432693379898, 0.6627384923806253, -0.17972265231225798, 0.3007809056894932, 0.27368292766301, -0.006612084454544497, -0.2522490996770212, 0.03305412674913762, 0.028476782601451287, -0.15168775613924554, 0.06187563818492321, 0.20254783883260316, -0.2773796887567164, -0.8668367794795345, -0.09243798512843006, 0.35552740278827805, -0.14159611062020802, 0.07262546905132507, -0.05796763768677483, -0.22880118895465695, 0.49395366876143926, -0.37933820419516323, 0.2079094735590544, -0.03914512861590669], [-0.14045235001031994, 0.1001741115121666, -0.04584147383231247, 0.12560915973468673, -0.06082600546924459, 0.46789039668336585, 0.6485556357096829, -0.03423585134267523, -0.21558343431572982, 0.04129944244524682, 0.05605929039201031, 0.1620765665269148, -0.04087409615597369, 0.2668598265526299, -0.04903635329910225, 0.3645959319008304, -0.09884143091835709, -0.5974160379665563, -0.47334112128083683, 0.19404636647129891, -0.07397140010114221, -0.055072873149925476, 0.14538314695054919, 0.45057984646720683, 0.28287907562581127, 0.3619833259171627, 0.13656836263273237, -0.26973206008361034, 0.002464410138200657, -0.8162957771976516, -0.34060339490691777, -0.006418507568367717, -0.47674951612973576, -0.1097139495968769, -0.6026071901031073, 0.29887461933825465, -0.31127739026850104, -0.8393191595423536, 0.09129715501352094, -0.21284778426266882, -0.0953893292312239, -0.23602738323456546, 0.0077386524287236386, -0.6518133368927552, -0.1331776647462696, 0.0655943258835375, -0.08946633144425452, 0.46054380998054706, -0.17362584542312284, -0.06420463239102184, -0.32793354133880687, 0.11403689137768033, 0.23842295809381786, -0.43585715082042975, 0.2430006110240414, -0.007781246699724207, 0.17212712979453096, -0.40158267053501634, -0.10829742978281315, -0.395084164760045, 0.04329863584468338, 0.30087190388887713, 0.08018149899056534, -0.5155692810437444, -0.26654801556290375, -0.29756481854535033, 0.33156135493616784, -0.47475703107792677, -0.28528965876099716, 0.2673479388088324, -0.5058692797524251, 0.03266150656195794, -0.1241466504130474, -0.16955701678090496, -0.22857099499379757, 0.20004273944020892, 0.07786338655186217, 0.7974991690793188, -0.12295256221494427, 0.29912365349488845, 0.5696896881138253, -0.11758622794405633, -0.0005513522401606342, 0.02902995498397009, 0.13534977034959195, -0.15840844212054653, -0.1446005938373574, 0.3561277251700968, -0.4618248696097601, -0.4538755315845186, 0.3445973522464095, -0.037655339857606, -0.5177052460052319, 0.15235139285463356, -0.037516033301053, -0.18472463593074243, 0.6192900110175688, -0.8029465254830654, -0.027954979300535268, -0.08525264464887007], [1.1668097476486046, -0.19747306190692543, -0.1321782092574662, -0.12494688248285443, -0.0646772107496902, 0.13760858312275012, 0.07963130869434012, 0.12468489303066868, -0.13701868092882719, -0.05074736707915249, 0.11509831621018547, -0.24292656380852629, 0.12211496300422156, -0.10795749206114537, -0.016256534152335453, 0.30797239228568063, 0.16314858711794014, -0.2508216917915312, -0.2881539864764999, 0.022415021907367744, 0.07138141168188299, -0.2911213492644242, 0.09508269169221, 0.15076402482830065, -0.12985767118393343, 0.5220690985822434, 0.21876771894896654, 0.0984785652210994, -0.2943452928953094, 0.12385315939816977, -0.13069431557166436, -0.06300488505807525, -0.24242943953843643, 0.14361059861390457, 0.2973948665783323, 0.2785559298359863, 0.268999876420075, -0.27882305380062866, -0.02293426717355442, -0.010331167285511405, 0.5807100886640123, -0.3594307544175862, -0.09132793429726549, 0.05449207856353072, 0.22732675629063231, 0.9226233635078193, 0.18229249620310653, -0.16953289716686296, 0.5081124725608184, 0.6877689342097657, 0.24239217435937188, -0.8280756915515742, 0.4744761602121337, -0.33618875409435506, 0.30904648206009777, -0.8735557568144854, -0.0059799184500094645, 0.49782156946242095, 0.2743713992125951, -0.10518680561481843, 0.43526947668436156, 0.1434830374334182, 0.405244728234846, 0.2751587018068429, -0.2188594503845373, -0.1300274536267407, 0.08161529947672139, -0.4796291896117353, 0.06075924721982177, -0.1501428187452122, 0.6032132787857997, 0.41656322756312014, -0.09740755404917137, -0.1594268909901214, 0.300679049797188, -0.7917584428671617, 0.030988797208356938, -0.21442406902413647, 0.04594496514388361, 0.0021299687000693015, 0.7157290890960538, 0.07013018636998916, 0.031065845695225712, 0.1618529934425612, -0.17200786969935122, -0.35970886779165107, -0.03383451704448549, 0.21079152515681837, -0.2772305136262767, -0.31718518930175443, -0.6330248459872244, -0.21450765712723238, -0.44013326618235327, 0.13803627095504073, -0.12411474529542277, -0.12447153376578197, 0.08122222033295166, -0.812201548148649, 0.2153527167277873, -0.08813780687135163], [-0.7743357436614562, 0.07698300522577453, -0.5682110096151701, 0.028850558974574027, -0.0673631387725361, -0.34872232654533136, -0.008455275399821927, 0.8379087050319892, 0.12330893340932142, 0.1545274461166008, -0.05654711530406241, -0.226011556007971, 0.06052174630745173, 0.1677822282245207, 0.06043176526887476, 0.2911583596466741, 0.25622769208795526, 0.13541895719461663, 0.003028608745727105, -0.14722772921438976, 0.34427349185179096, 0.13104689608630699, 0.4438713881535614, 0.036540853936706745, -0.20981420969923803, 0.31714891084586666, -0.9640095066871589, 0.6312459815313699, -0.4828793327146281, 0.3994966582846899, -0.03386326179568057, -0.1955920528529439, 0.26788617465783593, 0.8990831175673022, -0.182398187091422, -0.2979602835411741, 0.3233705152569364, -0.05618007260870669, -0.11027654904449546, -0.13439397697999383, -0.2034322615190119, 0.2961448154329745, 0.1747424811240457, -0.16103304822866124, -0.13926674189703986, 0.24694692599804616, 0.1184793203450586, 0.03670938651294671, -0.3586789220907763, 0.0036834026106234027, -0.21466920500201053, -0.09271083283552342, -0.3840890329819393, -0.4473235961578382, 0.25569439322477455, -0.07892436376891704, 0.024231080662837218, -0.17208787323187458, 0.2562935503627015, 0.1301687147585198, -0.616835038706981, -0.12306109943169657, 0.1971726056740393, -0.6726452187579319, -0.2729138390725541, -0.07342217882055446, -0.2105861234291608, 0.9424430597630646, -0.2389587201640253, 1.0531639869502647, 0.07228782768650428, -0.35699403416350284, -0.07946985027007439, -0.7588570567212896, -0.1918410194243398, -0.10328664684101369, 0.007587968794446733, 0.5216648361149342, 0.1823109408397754, 0.22661146751430786, -0.1840224799418899, 1.0497116331137604, 0.20240031342983933, 0.4650947173968478, -0.41831161753371154, 0.8946943409252635, -0.013738418953411484, 0.6402070892644229, 0.8058993729814797, -0.03203481873088506, -0.15458179763210994, 0.5400874950062369, -0.3205539452212918, 0.06820210928390645, -0.011815864625653353, 0.05763075208832065, -0.5170837199434634, -0.39766899570165654, 0.2137662766897808, -0.5783206091764527], [0.25106309766065665, 0.12713532698716476, 0.242236728256707, 0.0033040399663963453, -0.10898388651140758, -0.291874786735003, -0.21591460323757475, -0.04451006992669587, -0.04314388273034213, -0.8030269046686097, -0.46822975383990806, -0.2727024684613155, 0.09746013214833256, -0.052798191710192226, -0.15716698398383425, -0.8985947975322903, 0.24536753271612277, -0.1766131282978023, -0.6273387353159015, -0.24603998942752855, -0.04998689370757859, -0.28745343909811555, 0.020737445934870938, -0.20476302461534057, 0.07415561363969213, 0.36130408776138884, -0.34202460386479533, 0.3822093206111466, 0.15958945494819765, 0.14296586262073877, 0.22156249248568957, -0.21501433057431793, -0.4529695702975714, 0.7920317953503844, -0.11450777444969877, 0.2675228889125553, -0.09094559466612263, -0.3794419019448546, -0.1641087003036337, 0.832578070113455, -0.09229002017977589, 0.3208464420982891, -0.0675086603369551, 0.15686708941189392, 0.22691755130596325, -0.5393630431567157, -0.1413094768342348, -0.4662523793113424, -0.1940632021022474, -0.03721214632087876, 0.06817543735985032, 0.12533585937632188, 0.31971853337766487, 0.8033761392784818, 0.026562123044290762, 0.26041920411278335, 0.24977623594965045, 0.2138384594440972, 0.08331581296326301, 0.5239017220418354, -0.043669094431294644, 0.8720352110141826, 0.024002158711956288, 0.21446544780034374, 0.2948873207731613, -0.298868808076798, 0.07046740208995046, -0.055756082618865055, -0.24736399756930721, 0.31639416210153304, 0.17787050417143338, -0.3262342781600126, -0.1299101675650279, -0.11129568944712977, 0.2656718098873737, -0.8029197315342568, -0.698601579384486, -0.0927420278022483, 0.19335129782479718, 0.010619633420620686, 0.05672404370428803, 0.34954141065256006, 0.17229832410069357, -0.19570839993095734, -0.11672779755298038, 0.045226353238361675, -0.17308362598695917, -0.0866194499320934, 0.17953242482480283, 0.36503130022515207, -0.08737932310949728, 0.601348797522203, -0.6933626301198602, 0.06653047652216586, 0.07299548528233335, -0.1384243443446109, 0.009600085874251174, -0.18666258050557338, 0.4812662915397192, 0.22533452945441093], [-0.1278627493625372, 0.17176411113853315, -0.5235808965049822, 0.034166007734963144, -0.005361155426152567, -0.9500954180324597, 0.15617160966316307, -0.6440926917373301, 0.10799792956444743, 0.20739622703389962, 0.6788637573963338, 0.09806356883449102, 0.16490791493819784, 0.4040147492355171, -0.009744811734924558, -0.5941335878264051, 0.11103287048961673, -0.2478251408616892, 0.10412066745889546, -0.015536770889767551, 0.18287345571286318, 0.015212474027965873, -0.4781756654500961, 0.21229820398042365, 0.6274928935646704, 0.33451338714161954, 0.5305934113672788, -0.6092697475988135, 0.07331163460303651, 0.02853839994195683, 0.21827138570621538, 0.053554338599808446, -0.18701499851816544, -0.4427547668315474, -0.012777768616114953, -0.33134810706953133, -0.49415946557799845, 0.2786257050315247, -0.040579467242647486, 0.6778009235973514, 0.04531329804050762, 0.0702466290308266, 0.15164753610384618, -0.47948741645619286, -0.050777251099058944, 0.027429038698348972, -0.06371673096692393, 0.17602168206054808, -0.35532863857612956, -0.4680006358335811, -0.2976530589711691, 0.03703971548606911, 0.3727915255712479, -0.09108824280546642, 0.30115808023588586, -0.184930939465131, 0.12577866302271104, 0.3310435865917559, -0.14050922681091232, -0.17606831591961017, -0.18311478912562976, 0.3174762226897471, -0.5742515526070854, -0.47194292932463144, 0.7273905149409993, 0.5853313908799949, -0.5502024516355264, -0.8053547053382206, -0.41709428770570334, 0.11074508164222435, 0.45159007434201365, -0.4500268483935315, 0.14455852700263846, 0.3358653771069647, 0.39529117412371834, -0.2422613935251083, 0.8995220563381269, 0.24636216926086654, -0.024815172617713044, 0.13581528388526712, 0.3294554482503496, -0.3054820807512153, -0.21035015998561654, -0.01122564458238134, 0.37869633212178744, -0.8301288623946345, 0.059488558929607825, 0.24199806873857338, -0.13743805079264215, 0.06541600261638532, -0.697013686299808, -0.1566580255017457, 0.3667932955325333, -0.184649201006607, 0.06856127774334035, 0.4290893744905424, -0.69029244201066, -0.42610836043029227, 0.29148438153979683, 0.16911729285641672], [-0.7042555265091062, 0.07628436747277599, -0.9381979219140133, -0.013118315788912404, -0.06987438295697773, 0.3201160461362692, -0.3588438883723662, -0.06324666496220534, -0.117799784612039, -0.36794286456866127, 0.15151737571814516, -0.22240207290261593, 0.05680925739683483, -0.1211731287117225, -0.038870984006500235, -0.14321060972243935, -0.5261502920458342, -0.6242162109973295, -0.170939020553641, 0.07360387360524971, 0.32782795145752947, 0.3288567886822471, 0.17356824045579025, -0.6891804772859419, 0.08076948826011485, 0.00452980989984028, 0.5358146496877835, -0.1737127759935802, 0.19454432634271296, 0.35049992302100397, 0.05693365632985588, 0.02986679665583682, -0.2507741321808315, 0.3691883570494169, 0.04577074069241174, -0.07241610248859966, -0.34582661807010834, -0.8075791137543227, 0.0003670338673517388, -0.2504410670193419, -0.26087352559029614, -0.1278355709569241, -0.1943704175042022, -0.24832239516675217, -0.09898865772534463, 0.2099791077751809, -0.0957004981317976, -0.029967697575981563, -0.5820249836210404, -1.1074707490562243, -0.011483787426706428, 0.43837961989041335, -0.09436496828904915, -0.8673869399699181, -0.4078675027851385, -0.04344348984272374, 0.1869046843679453, -1.3118271358492135, 0.6709539810340595, 0.06985538519028608, -0.3025782684018326, 0.049150923403535114, 0.08776166091332929, -0.26569569594222076, -0.8335112667791296, 0.3245218154162349, 0.20061075607053017, 0.21203891020560914, 0.0444237559699322, 0.5136127734135039, 1.0612372117307247, -0.006834240158945542, 0.6014659917620033, 0.20246325440453442, -0.3412319725427826, 0.04341047048931867, 0.3328649322492152, -0.13239387599173227, 0.0034072718980693467, -0.20758466020468297, 0.9139681661075063, 0.0020625922102669113, -0.07488690321474196, -0.3682261291423602, 0.19825855621527583, 0.023281294390003322, -0.12083765467825378, -0.013261337093917046, -0.3765318441502527, 0.7751322872385468, -0.014190599808896222, 0.9815863417522803, -0.19670505613933492, 0.1749074212001857, 0.5327898414342794, 0.15843566873906878, 0.5514350961188326, 0.26598430846214016, -0.40944714371089297, -0.14109365316667413], [0.46687775364744116, 0.022501495064575112, 0.4967603131987279, 0.0780636382830186, 0.027063168895383814, -0.6284690836930238, 0.34386063833403707, 0.13489699315107703, 0.12150096018859584, -0.17373796678553347, -0.01918400771073564, -0.28760497879934277, 0.2596509429070968, -0.8020912718942492, -0.021039411749182786, 0.24892075858482163, -0.05036265927017498, -0.1433327320066432, -0.019948637774071732, -0.0050525502591235475, 0.03781727266183986, 0.12509573400187368, 0.22053987764076083, -0.3579853485283523, -0.14750786624970605, 0.5374052135104498, 0.5052034910291424, -0.3763190796546709, -0.14392454569995453, -0.41530790549293006, -0.007606051894701456, 0.07662889271508945, 0.4990510120293275, -0.4824925510994025, -0.03969841224850671, 0.18622512425772433, -0.5662623648851399, -0.39162536098810297, 0.049942371494549304, 0.06197709515999935, -0.3163890837136433, 0.01610811741083364, -0.494924592792225, 0.4330985459015257, -0.039722424779805726, -0.23611584099085747, 0.044159445318298345, -0.12031727122308454, -0.199156918380537, 0.5300833762393413, -0.2560485638225912, -0.19321067358515515, 0.1681671348364919, -0.4324204611950972, 0.04189411640433453, 0.16246198545556345, 0.26516473325343404, -0.021039133049085484, -0.04124869366114236, 0.11830801867897175, -0.33728656154279135, 0.27190135338938115, -0.31399213428705014, 0.10064165975449293, 0.3812360183435617, 0.05438043515766258, -0.4290793179843612, 0.11278735049129812, 0.29389556419909485, 0.025194255607857804, 0.11141058248616365, -0.10196279036156432, -0.1448529868328308, -0.8102570728934333, -0.5290191489311191, 0.13110439828402062, 0.2755762014554907, -0.02472666814017054, 0.20771376053828727, -0.02581778862966241, 0.09124513280969587, -0.12643799498348066, -0.4479728564547417, -0.08324362650468221, 0.9541936610874898, -0.025599403053891467, 0.07747187992927922, -0.16448381118447186, 0.6679053425315804, -0.595737664286166, -0.17905986484703962, -0.44168157044272116, 0.3399766311515372, 0.4879319287802568, 0.5598726277690114, -0.17830974125268026, 0.039995143355247766, -0.3933980055706794, -0.42080023686777457, -0.03723976980962741]], [[-2.336337142952613], [-1.1280898250594984], [-2.3211630823142477], [-1.0279218908615408], [-0.437998805392971], [1.801295847060232], [1.6770695330429164], [1.4974363067733458], [-0.6214640753060688], [-2.1570554671768374], [2.2354822657017146], [1.6340605327826452], [1.6580758863375886], [-1.1600394587309466], [-0.5157614869798172], [-1.6961351624962724], [1.0519976016334383], [1.2381781104781489], [-1.5249656144347212], [-0.8855978788125022], [-1.6780093318348601], [2.2420189245858806], [1.2416917550871107], [1.8453249217616134], [-1.1814697156848537], [1.1726598594538398], [1.9171480674197288], [1.7992469275934517], [-1.091936199064491], [1.9152391687132018], [-1.181577664528029], [-0.6621139250941597], [2.304158216274362], [1.5993102009319091], [-1.2681782024628163], [1.3216552247076134], [1.3354115882023687], [-1.9108915761718257], [-0.6609098132519969], [2.632620873547104], [-1.4075995493898747], [-1.0396276534083906], [-0.5509546026382096], [-2.0008632448254757], [-1.1222031356436952], [-1.8178973912103795], [-0.5784815500304622], [-1.3635589517407973], [-1.0093777917455926], [-2.385385682472415], [0.727824993019783], [1.75986029740006], [1.645916873928218], [1.9307497265179139], [2.8668528138367804], [-1.2254204395286368], [1.0937592479441727], [2.1143019222630923], [-2.09564703678507], [1.5157849541780517], [-1.2162175176693764], [-1.6164821159364349], [1.5619377258425737], [-1.9536327104765252], [2.4983893378077204], [3.023496962958096], [1.3972126551060478], [2.0838658366684646], [1.76485319534709], [1.798046408105713], [-2.2060831417964035], [1.2666176542806107], [-2.2108404081499007], [1.5583323130777922], [-1.1250548764225838], [1.7726276068215845], [2.280712498121895], [-1.3311282202882835], [-1.1249644412403992], [-2.2164970332264566], [1.8944502505015663], [1.8033559333142177], [1.8569431279155741], [1.2046998277633936], [-1.0974303970162307], [-1.3039864360182185], [-0.6481905779892039], [-1.368397775486547], [1.9220102308178695], [1.73404332415938], [-1.280836465370858], [-1.8878090934009648], [2.1362336968015265], [0.9486694972390217], [-1.2484992979481553], [-0.9075274221701841], [-2.187862784969051], [-1.3983225082294757], [2.7460610066271673], [-1.4703180006441363]]]}