{"bias": [[-0.0964649034465666, -0.04365448985253721, 0.5200056028870714, 0.33073612241225236, -0.2096343247976139, 0.0033027441364423056, -0.11614626299951561, 0.21034241721009403, -0.20913917921568187, -0.5377242423688332, -0.2643301356490581, 0.4083242497009426, -0.506804713848078, -0.43381221036674356, -0.061303109070740415, -0.27102487757264354, -0.03294338897706098, 0.25401971200456624, 0.39859685879906154, 0.010056846614340753, -0.1015941949237463, 0.3188256658914745, -0.05487508100546711, -0.05948484717471848, 0.19936422966684023, -0.7616732942124186, 0.13900703480591614, 0.0010426901859640486, 0.5236158540488264, 0.0051690925534301786, 0.17807744215124235, 0.4737350757578041, -0.012355169293631356, -0.531835410309921, -0.6570225520619476, -0.19529754375447794, -0.2692796835539719, -0.031228916317893436, 0.3291678469543382, -0.01492306085317319, -0.5346186493264252, -0.7587689479608936, -0.1685595332984719, -0.8259233723605803, 0.1455361462663977, -0.08135800510197572, 0.11960777039629047, -0.23208231446865088, 0.01687933585704083, 0.6283002241396073, -0.34965506700517385, -0.31688207845346333, -0.26321609079370145, 0.24687268860193448, -0.9807714677943924, 0.0024637041376547697, 0.18343368371403262, 0.43748636310869793, 0.2936201289352725, 0.06253344960522056, 0.3682445103115869, -0.14721140730276347, 0.1869491391363218, 1.03842555069216, -0.9795661856732478, -0.6028744920989257, 0.15301955530525246, -0.8023481726128987, -0.14884758743714013, -0.6095876752626905, 0.41840859938147085, -0.3896938474876966, 0.496977845183565, -0.3559789038059254, -0.27145902440587544, -0.38851179913470557, -0.10244383129717789, -0.5521970364510548, -0.43027381364663986, 0.2433663302089583, -0.14787107153989815, -0.4255401092422315, 0.07545844121807353, -0.5024137165985441, 0.17583814790570992, 0.008443698574370417, 0.3310552461048481, -0.5170053301336243, -0.01960988193596204, -0.1834391962726366, -0.8819376816529747, 1.004718027253764, 0.4199713546547675, -0.7702825014799352, -0.5241327554324733, 0.40276968773415595, -0.3737489461289312, 0.40824272727936173, 0.4340036692319747, 0.7722265743296127, 0.3535053128036036, -0.25132782446883245, 0.4112535500117019, 0.10910075682641009, 0.05441934259448752, 0.39866127050527056, -0.7058757222333127, 0.5887116507457424, 0.06935727345329944, 0.1700907916913991, -0.4359106770487953, 0.03113814407148033, -0.19943311952299744, 0.34813136966175373, -0.4344309308236361, -0.32044157491500896, 0.1930747303231193, -0.1388808432805149, -0.25295117066545914, -0.12861479302787546, 0.343535205362943, -0.3887514908423254, 0.11457146868429338, 0.3944376585306974, -0.20542027696414775, 0.034789428880922686, 0.0006789127024647483, -0.6814242347441878, 0.42813590469549767, 0.2449629553414559, -0.531231506048398, 1.0386077954594968, 0.9661094127840743, -0.4735841475974562, -0.013229169518676767, 0.2474667128430262, -0.21593301587093988, -0.4046868990225273, -0.40928525138180955, -1.161533041089797, 0.6077483220541763, -0.13480957163247967, 0.14960617573410787, -0.5718783605740123, -0.2141780323377417, 0.08083342512549554, -0.5721957955654764, -0.33722381618371405, 0.6111322107736048, -0.13415435843993834, 0.3141730458991517, 0.1315779186559996, -0.15710280536530383, -0.050693693243815716, 0.4125595260830458, -0.7480812881979934, 0.3377519421849374, 0.023111837271615882, -0.8432357717677017, 0.35723861103007853, 0.03071075720623307, 0.5684536282357436, -0.533983246870603, -0.2478216079240849, -0.7200909486665752, 0.30546538403069534, -0.30473495412828183, -0.04974282240720634, -0.8154612313662137, -0.48338507452128054, 0.007683542917773992, 0.7707192286894737, 0.15352062938559835, 0.5740364176220213, 0.4823601228984375, -0.010453322102409344, 0.13247547632354081, 0.03579542972006681, 0.2514737638346787, 0.44219243490906546, 0.08590015296668838, 0.08845820197188455, 0.17343383507391336, -0.08852003512967938, -0.20659912553221121, -0.14102337286636096, 0.15167905708474602, 0.1437720647878301, -0.5958763085300396, -0.5456124011039816, 0.26922320158209184, 0.20944475418650946, 0.09783141929195621, -0.37662249222231187, 0.5137645056142622, 0.37841370168659033, -0.49714633826608273, -0.03360000337505796, -0.43962245084387236, 0.331233622098696, 0.7948436623667666, -0.20023683802006337, -0.13135966282739026, -0.0020692139540808255, -0.4351893021567811, 0.0022787212612371552, 0.04215916762919094, 0.206011608842533, 0.45105345890596416, 0.11541471055704429, -0.09776635059770523, 0.5107698031341676, -0.4187922167386101, -0.08861370662375247, -0.3181052353210145, 0.17421533810988707, -0.7349020886643439, 0.2089308284649916, -0.3655625540818426, 0.5411999702287056, -0.01061456235565019, -0.11466638704526438, -0.34414856453586057, 0.5926180981997989, -0.10772644616789374, 0.10358926821640352, -0.6579393097017708, -0.49025869970545044, -0.6380748100226309, -0.2377982517324629, 0.07447972259450851, 0.1945454885223836, -0.13833342941487908, -0.539055914729198, -0.015858094113029055, -0.4520699323217579, 0.04401739916624771, 0.5298458123519015, 0.04065567619712418, 0.012400344449737108, 0.23069480553710378, -0.30448860723335214, 0.44418504930862596, 0.23347404719877163, -0.3208153980444451, 0.8460737491035641, -0.9136898833735154, -0.2282973010105413, -0.42130388625796505, -0.5106094845400827], [0.14831042321457594]], "hidden_activation": "tanh", "layers": [250, 1], "output_activation": "logistic", "weights": [[[0.3883827442742233, -0.2953768198296364, -0.5273902937060092, 0.38880594538560004, -0.2930343307362946, -0.2991779713596433, 0.12157383768938596, 0.10192968090594287, -0.06943609906199429, 0.08924661060782127, -0.12197224763356103, -0.03556916569818802, 0.19042576402224232, -0.21784207356343785, 0.08016799585750038, -0.2104650156978903, -0.012452309207774603, -0.14718735774488476, -0.31016498444260265, -0.05910722377604885, 0.6687175950629574, 0.4320561538744111, -0.33075036870485147, -0.14282404905464655, 0.14025319816511944, -0.03231193797528089, -0.1835910668198106, 0.08280859466073233, -0.07039831294766974, -0.06749125693533609, 0.32237357259384825, 0.12732935789234534, -3.842652341059953e-05, -0.3252528297632122, 0.12932886243902061, 0.06278558371656585, -0.06953420441325295, -0.00010107799462867866, -0.4722554197631492, -0.3839690827343005, 0.0946717948622388, -0.07441843662110253, -0.037317714940474395, -0.05666764509290166, 0.2230835407256464, -0.14619562357919316, 0.42384856404126514, -0.020319029694410365, 5.502330521939438e-05, 0.18007594541528804, -0.18983993517060058, 0.07928856834687974, 0.2102778658647192, 0.3018647923698205, 0.2302166321478027, -0.08909114400074622, 0.1270258366603058, 0.21929241375859515, 0.06442009476378907, 0.3608145136175864, 0.1722824165110514, -0.24744239511412136, 0.19257988623925218, -0.013244876443847847, 0.17930149226744402, -0.16107008026920006, -0.310226974733559, 0.29828653100694724, 0.18690519752420834, -0.3092347532197996, 0.16679250504776416, -0.23860351640985267, -0.07688773413695152, -0.34032649309228874, 0.6690290787953495, -0.12626288398731272, 0.24076049242281164, 0.17455090424036976, 0.20344658408781097, -0.04069834281725406, -0.31898421790819537, 0.3468744373725398, -0.03879789485459117, -0.0764685849791756, 0.5821959565037526, -0.23698638506546243, 0.5424845160517978, 0.11586426720012759, -0.2073405967066922, 0.03602197515104194, 0.24273188026975304, -0.557238731438834, 0.13842016594487364, -0.3254438493851584, 0.1740490510153209, -0.30717423129269894, 0.19142981064304604, -0.17277782847456372, -0.029642425828020312, -0.21602211752140985, 0.29535784339180426, -0.10999849643986974, -0.09157073321399976, 0.039834811899829695, -0.20552937834230836, 0.17501461502298593, -0.1422120616312487, 0.38002661244555586, -0.12570000467667072, 0.20138135299416815, -0.25094938461520655, -0.028939846035576457, -0.4956938138416923, -0.16647038257504723, 0.10144743879814636, -0.15334856898537114, 0.08100583722082429, -0.19846030904980166, -0.011971269949558584, -0.4786775333242556, 0.3276820227465154, -0.34063572575763595, -0.1507234553729264, 0.0642718428914928, -0.21491773227515695, -0.2853538648651624, -0.03947240227527812, -0.04306200858969769, 0.163659692572571, -0.12672473268119058, 0.14628884681912122, -0.12661683932371684, -0.17481951304986282, -0.12863089065355918, -0.05999620513265504, 0.1391309501932082, -0.07375494928457937, 0.23830040133465738, 0.010536182717844128, -0.04235349538055303, -0.08511480930105733, 0.24123783564214854, 0.18649637421865103, 0.06940998152794253, 0.3953016367279829, 0.0006455412433944049, -0.47953144340993514, -0.2676567338671495, 0.2679261310801122, 0.26039927641311117, 0.2018899618443036, 0.09964140368154364, 0.08781616678304852, 0.20253972468462939, 0.03989388386022306, 0.32779038300664237, 0.19453250585931497, -0.25352188355522937, 0.28270078623774836, -0.0932409870068262, 0.4721940678053641, 0.0986111078170227, 0.050716434174309606, 0.1781957863887876, -0.3321325570712719, -0.30486153078198086, -0.014594167768248694, 0.24892483733612117, -0.020314383927449043, 0.0029492889546896316, 2.737570036673012e-05, -0.2825801574834003, -0.16201535825773572, -0.3728319785555092, -0.028304378801957852, 0.08740405245767924, -0.021331089525851568, -0.0023534830351590974, -0.061692028318813756, 0.8456072535558012, -0.1529932767020985, 0.2862186328136678, -0.2606054882383042, -0.18629371809809223, 0.04220428440884418, 0.29222222459405756, -0.33184358869134023, -0.11445096969342428, -0.40754672782932905, -0.036338858800052186, -0.04894110232906857, -0.22577555831713958, -0.34106812284555166, -0.03454127889947768, 0.0028558526216844247, 0.20545269048015907, -0.30490674442858, -0.18034971071458547, 0.03271732780421219, 0.04634555911282838, 0.6507421175513801, 0.10423773060640498, -0.13296674941208697, -0.21914875714588763, -0.20619737083989303, 0.008061685656821686, 0.0355868346206226, -0.39403251426067404, -0.16268856993968286, -0.1345022586653964, -0.31877422690715335, 0.0011561385146669865, 0.20666442004533675, -0.24450821617653887, 0.3939611978392806, -0.4595122564226281, 0.22890861463617243, 0.17754151415225053, -0.1737335748215015, -0.04196098468034017, -3.694704631181984e-05, -0.11396288441073456, -0.11309287610289087, 0.32665261997948697, 0.201066648474924, 0.3294386255088385, 0.06273880922719843, -0.1442038180667052, 0.1817757748856055, 0.32655175884384685, -0.3701821356899784, -0.08247150611744945, 0.1803347487124023, 0.11481462789913982, 0.1490393525674817, 0.17772646454825317, 0.206373432925199, 0.12148556950617038, 0.015052596135323911, -0.009873105832510103, 0.050185460966706764, -0.3995770993584746, 0.09889506359407542, 0.06451104297962616, 0.1428527093901425, 0.14506545004202157, 0.40821503112432406, -0.31318135826750965, 0.3040695800938194, -0.09034107234489644], [0.2204620417542156, 0.08291529294848267, 0.028992305757569763, 0.16676589271596223, -0.4059105578849276, -0.25453444248633733, -0.46188489611104605, 0.001403969850073598, -0.011899505232850615, 0.32745082459155017, -0.14376596624352486, -0.04549701827898682, -0.1304472167659125, -0.5726310653464091, 0.024374091168503788, -0.35538932567429404, 0.07444216978439473, 0.09863935277222109, -0.4256397956883992, 0.0715701555296245, 0.8918685028805786, 0.0776928053776243, -0.1999767466132208, 0.26836036012547854, 0.2276294729678429, -0.4461688427517671, -0.09278172680587365, -0.12050206912974076, -0.3061492381670154, -0.6293126259409234, 0.20856731283675492, -0.09095433714633025, 0.00018353724111758144, -0.4972110335207683, 0.07660972159248468, 0.5907879799618919, 0.1124490516199121, 0.00037516699355385287, -0.5980584697630628, -0.09136183009529521, 0.2593986197256939, -0.38409762094109867, -0.10241860904226405, 0.10471196667441349, 0.17040424016691677, -0.23495700362855165, 0.5558979026820818, 0.1664026820302826, -0.00022895217532124825, 0.15545670965373387, -0.5944636778197601, -0.1739230774839634, 0.3734516602843615, 0.5224900767175573, -0.15614308699077892, 0.20334513696495582, -0.15663996972542554, 0.16113873303729284, 0.020551318229290204, 0.28862533713499217, 0.29991031332338697, 0.056275831364734234, 0.21181865472478442, 0.06298411574680021, -0.19480076527805987, -0.09176651511743253, -0.0855838570807293, 0.021807000577714685, -0.08331126804278784, -0.531767039553011, -0.055608064542697525, 0.20505793685387388, -0.2963164403021325, -0.5450415881033018, 0.3366423147154021, 0.0807947658637894, 0.258259939551327, -0.13887604456853322, 0.2572585001995481, 0.270863288617164, -0.17196162171860535, -0.0848323965127562, 0.30849871761774, 0.25520441267887833, 0.7279601347891522, -0.48331226657227905, 0.47895646083475957, -0.17681445606292834, 0.03820888362063774, -0.1467998114467875, -0.08354572314075984, -0.4896351713743268, 0.5270604926484053, -0.19556427382128241, 0.17726031199932854, -0.10304391458428863, 0.2432583618276423, -0.3844689431874393, -0.04007586623602111, 0.03615016435128528, -0.05920620231212934, -0.31202051387578034, 0.38291588330231013, -0.015836688674297623, 0.14549279552666983, 0.3131984845131202, 0.09671327005839099, 0.050106149442285634, 0.274175258664841, 0.10265043249932373, -0.22038102199322235, -0.014293345589608897, -0.31208085103110483, -0.0886544943343735, 0.20738713662307035, -0.4434510423391776, -0.10272394266653984, 0.4558923395225453, 0.20359038999123066, -0.4098169016729821, 0.4344897162985638, 0.30277742943528496, -0.5849379630642281, -0.5761123229659776, -0.44949655331993876, -0.24831880812731033, -0.07836332885194959, -0.3230657791737909, -0.15123345424792084, -0.20640227956267548, -0.02738344893197136, -0.12559920161511903, -0.10822287782404375, 0.09234985759043281, -0.0603532299541617, 0.10807414405015425, -0.1734901172977601, 0.23474660600956612, 0.3878643331791217, -0.2084467681649064, -0.27007132686229374, 0.16481037854903896, 0.10365260871462263, 0.11342416640187006, 0.4457755665231913, 0.008864282297921886, 0.00876725087280219, -0.19610986838258496, 0.012544037357721229, 0.19330819296148824, 0.16909612133201601, 0.0008517184477654012, 0.04852857362266211, 0.127886888455587, -0.24588708136533355, -0.016400827834488603, 0.06419927325212225, -0.04469063026760436, -0.1389057900946966, 0.07921501890336967, 0.5554022852919409, -0.04225541126488027, -0.3008512917233435, 0.1333004284908872, 0.12081147679565998, -0.2968749411432817, 0.21175289353973695, 0.07903125433064329, -0.1384373805171892, -0.06744874169914801, -0.00010698821969161664, 0.11516183922336796, -0.4086602199286495, -0.5865370870530562, 0.7325624302843233, -0.34904164529221693, -0.38831998699197035, 0.01064575124331461, -0.052665613274362, 0.7191392038095048, -0.09552563915223018, 0.5348703340645817, -0.8572249435699681, 0.03734828588995476, -0.05559174774271911, 0.06980580735217153, 0.015882462646549512, -0.09058395266577685, -0.314768985769634, -0.6060876009974318, -0.4789792734036633, -0.14764942561425404, 0.08339933603817246, 0.24101397520401993, 0.06613860614066008, 0.5184337639809723, -0.13066154390994236, -0.16577181219029477, 0.4044888121293394, -0.16332660433610452, 0.5478098833307666, 0.1658822931165986, 0.06950720198304523, -0.07973171899751672, -0.11486915363198778, -0.5236057677532271, -0.3893684490473083, -0.5571259987474347, -0.2861750891000289, 0.03295983746987496, 0.0820192717562098, -0.14284566535332135, -0.07090637528834727, -0.5000736471225035, 0.16006295547330118, 0.036891894765231206, -0.22937305263073943, -0.042492948278882815, -0.04516090471162773, -0.09024840578096668, 0.00015531473153770765, -0.1238263187490708, -0.30898769760146894, 0.16146108134917292, 0.023650531117134287, -0.06586282158737596, -0.18686348790581941, -0.04698757970386181, 0.19914419290708288, 0.4152555961507541, -0.2124843128737308, -0.002476030070615735, -0.11756372453641376, -0.007327340367368943, 0.10979246462944289, -0.38777599102923377, 0.1516445473741992, 0.022707717245551064, 0.11096930566270162, -0.16940606930975177, -0.14865643356308875, -0.30214994881522567, 0.422681291948644, 0.23053543767866552, 0.14302701418593586, 0.2434888012031237, -0.15536531768803433, -0.40591546823947877, 0.17662028420576054, 0.13395596258475445], [0.15312155885941223, 0.08067482137853853, 0.16250506111801705, -0.33182403480758516, 0.23501924532056417, -0.3811315588958516, -0.2946684749313092, 0.048292588784926115, 0.06401544801197333, 0.4103876675429421, -0.23144747701368887, 0.21568335242169656, -0.21995655524136637, -0.3475645577592323, -0.3680590802562451, -0.18133898003204726, 0.23417670857242548, 0.08493277439916858, -0.18913323073490595, -0.2537533952189171, -0.18304107653642013, -0.15186286912636315, 0.018522329620582405, 0.24641995247984746, -0.039906852590268854, -0.1266546726623494, 0.09222366295777187, 0.10246632936645081, 0.35138120674258844, -0.7788721672148196, -0.18673801241835467, 0.19941410342525173, 0.0003214349921448189, -0.24232612009925808, 0.4291279447992457, 0.44170330435897776, 0.48006858191510937, 0.0007115262969375872, 0.1895625168774318, -0.05596624784840929, -0.13450656111991827, -0.30566475827218215, 0.08453711057074752, 0.20720351935867443, -0.10953248915465569, -0.13326972921514196, -0.11482460727397109, 0.22872401118094488, -0.0004120479145934537, 0.06969923044162366, 0.08078210874424682, -0.2895587337423223, 0.33575229225121617, 0.2862506668148285, -0.4335144080067857, 0.14885297438037026, 0.03960949327336662, -0.37213606723483456, -0.28753108037894415, -0.4856745291852295, -0.31315480720958677, 0.1790498644013855, -0.21024023072903858, -0.03725801205489316, 0.07767710703265975, -0.08406785031647983, 0.48709176144124694, -0.7071705154798991, -0.23829604965752266, 0.1037482437313398, 0.4668547873098836, -0.0003192054334003605, 0.24670755449419032, -0.13416032534764477, -0.17802700011103778, 0.03744675646746522, 0.505604069515562, 0.2516476099008607, 0.23517860879950123, 0.07736938099799144, -0.34849184327011146, -0.20275481479006652, -0.16361681344790027, 0.4212391538848045, 0.03437982344928397, -0.5422002433201801, -0.6300310048149786, -0.12354173711464646, 0.1219051445671468, -0.4197015714948853, 0.07410968566428108, -0.18587912654031577, 0.4888938435486993, 0.28373981465043274, -0.2741424775327941, 0.21422005381320447, 0.7001455120890081, -0.33141521283361003, -0.1969945746936368, 0.06743066126085934, -0.3583609354097458, 0.1271807463746793, 0.4288371804458522, -0.0676043043088505, 0.39402909310987305, 0.30532180493380745, 0.03396098355181967, -1.0125588340656366, 0.15743240658022742, 0.12019273247337944, -0.07476856665885274, -0.12606330660335544, -0.4485204729939557, -0.20753610526689048, -0.4009673037789851, -0.43856216926293257, 0.2940642116015408, -0.5352977722000385, -0.13163821793676597, -0.4062525588615003, 0.0494016465354532, 0.8341890251008794, -0.39059534885651426, 0.21977078920440035, 0.09481280824625071, -0.005331995083582694, 0.13063374727523647, -0.030036758583433663, -0.16391108718081265, 0.059123468455925886, -0.040603026463463726, -0.03364086725706874, 0.014297578624334482, 0.09092983129350861, -0.2833746857264639, -0.1129704497728342, -0.047356457097481965, -0.25408013471121915, -0.039599308353711234, -0.5208437503035686, -0.18313516534826002, 0.24889458424660343, 0.25454316490459705, -0.31115068820214276, 0.16799515688887665, -0.19434634843705287, 0.009377692361942446, 0.3521397629254188, 9.541262037447017e-05, 0.034892797765136235, 0.18823991373060034, -0.260133693934166, -0.060120125449134164, 0.09655146584234152, 0.10897593307679798, 0.1030044873803136, -0.0750042029920052, 0.47912295782739606, -0.5374310127787001, 0.30241245127901745, 0.008154824395412751, -0.13658128668330421, -0.530237136672585, -0.36133167799069205, 1.2128338166599197, -0.4089010458120125, 0.32775003171249456, -0.26888465808229195, 0.015485138632120898, 0.12954236686710724, -0.0001989201315764002, 0.16607630322052963, -0.27829825749012155, -0.043512974588675764, 0.8959764932989456, -0.2863992548014211, -0.39116891194326636, -0.2441299102695444, 0.0631784587461639, 0.011002552629998288, -0.2899284399098365, -0.05996581880780685, -0.5848005050911231, 0.20539816536499825, 0.2982910765390655, 0.3525312028740615, 0.33963256782794593, -0.2513569037201402, 0.24553365750621176, -0.28547489190502634, -0.16691353540899703, -0.005956829936874839, -0.22132543924934445, 0.05920599855671639, -0.13919414519347392, 0.8867032662384802, -0.39272719058017314, -0.004738658948852656, -0.5254970812326578, -0.39831142390030655, -0.1518435690106743, 0.030937814647220604, 0.03102894523689821, 0.34599760598001383, 0.04657709689415401, -1.094714997147835, -0.1870119834914507, -0.17636447025962848, -0.21241503102833487, -0.07832283120328111, 0.0063653824180597805, -0.19408980934851916, 0.05952113772443363, -0.07847870962813958, -0.2130830453639132, 0.11645992562635496, -0.05106981979431316, -0.1751505064659206, 0.4997792438131377, -0.04489226736979343, 0.00028036044380812177, 0.21236710593133, -0.5441075216995309, -0.09970960872820113, -0.32510189030231096, -0.11812135672202195, -0.3795578565548507, -0.11435583346883045, 0.5047686594777573, 0.060610137814044764, 0.3401141530524845, -0.38988538613563545, 0.03429618010218305, -0.16596162007303647, 0.0369750418394298, -0.061630404711603436, 0.03262006736608509, -0.09830166524208397, 0.2774179986703768, -0.14856747816904603, 0.2530353956861065, 0.3287394727232634, 0.24940026852869365, -0.11210755613517762, 0.09602190387389797, 0.33077947560503146, -0.27526820152778103, 0.0692667625097428, 0.24330004025121324, -0.31121745760689024], [-0.1336601554724797, -0.19419752095807596, -0.7908298275366477, -0.145552061210242, -0.24874776098139253, 0.29932108069482094, -0.301649041808261, 0.2206205298936587, -0.0927545604569133, 0.3990592679524821, -0.11481195647760761, -0.7424915795542425, -0.07400511531473902, 0.1904705384289329, -0.6533589525462977, -0.3578479550566623, -0.1754320554797678, -0.27825708641669356, 0.40501714435232034, 0.03759892613743629, -0.30135791450153465, 0.40995257639932786, 0.5073686186928393, -0.10063539615738926, -0.34462104617864775, -0.6661379846803852, -0.19479928560301119, 0.32573242798868496, 0.2127077371137296, 0.24451416456893843, -0.2224240814244401, 0.22413019520548805, 0.0002003377915130952, 0.048547763735787584, -0.08480324077128855, -0.2716420678930722, 0.15703192417413292, 0.000452771090586391, 0.46321493979466183, -0.04647165823429313, -0.06082868864786527, -0.5188712000232627, -0.4338358814097591, 0.0523431575650363, -0.042282528954390323, -0.06085718103673224, 0.3345707128567992, 0.03376373868487442, -0.00026378712329616345, 0.08251886357861493, 0.10190066739616359, 0.3932555878523259, 0.23246951137858654, -0.28150370440781425, -0.13590417502119234, 0.061402755576866384, -0.1377115134429355, -0.14366604818837037, 0.2764391838138693, -0.08776061629595333, -0.2698966009662526, -0.16257161798964279, -0.5795794201081546, -0.1791874370303264, -0.27964442913390253, 0.08236057483815648, 0.7192846665762654, -0.06517746196451432, -0.07790894933072796, -0.00029253436152303666, 0.1040439379141026, -0.5643268007333512, 0.41605777207163624, -0.05507166652396072, 0.2141589012983545, 0.3308000030618777, 0.2113508320760617, 0.43163724360641287, -0.385114160967666, 0.05506924871499647, -0.1796668982964685, 0.23522382427311567, 0.07071518512314191, -0.20144568645214075, 0.2622840585585443, -0.16175990529855566, 0.03611431006930418, 0.49151650886487785, 0.38476808019257297, -0.09760281150959146, 0.5729957042325841, -0.40677222875829866, -0.14495427472577563, -0.22685935847679484, -0.3549924454714601, 0.16709402965367076, -0.32184543718617914, 0.01893655573418491, -0.15263222764495776, -0.12845805662592846, -0.18311932511771076, -0.06595560289602535, -0.11537193655761292, 0.008684929637151046, 0.23319942001083369, 0.19519537804079137, -0.3946984850456972, -0.11293409526138957, -0.8727621507070874, -0.019485182899498767, -0.10791615553675211, 0.05956516252116604, 0.05851217984206206, 0.01182454379702859, 0.08423426791854507, -0.36391411462999823, 0.7521536121020085, -0.3425925252484317, -0.27187453675998347, 0.39134579187445157, -0.34885129435662493, -0.04963652606231189, -0.17976785101794143, 0.7415893076156285, 0.35297121366222894, 0.36149111686642404, 0.22564463878464264, 0.21267766924009193, 0.3490452072248873, -0.603601347434014, -0.05213328965387417, 0.31411760507544645, -0.26873078115560517, 0.020091292461603603, -0.5166877976683849, 0.22471320680581996, -0.3170680391559744, -0.13629707134356064, 0.02471586664289396, 0.1809218157181618, -0.15994370103774666, 0.34188578546941617, -0.3141593208736571, -0.3995019313734472, 0.19118206592956746, -0.8368389528746396, 0.07747908703893126, 0.584034915964342, 0.40054146470216534, -0.4334079896928027, 0.5427334108346934, 0.299888216143646, -0.6673211017522956, 0.27323591437281175, 0.010746794618509222, 0.769389744723847, -0.012906957220451784, 0.4888354381361231, 0.27304705919914124, 0.276417036263714, -0.3691113326657351, 0.08175617945389548, -0.11809720716131132, -0.017505573618151228, -0.053072737675780725, -0.4596716980268565, 0.2317024570566705, 0.07048883422625857, -0.1686255266968637, 0.08004535321299686, -0.00012209277901757866, 0.3865027125041016, -0.4324498797443312, 0.39092080809885377, -0.046234434796348936, 0.5200096575740698, -0.04659601668071394, 0.16849787698955593, 0.4162017612689952, 0.04624489637900574, -0.2815265192889198, 0.10306203445107708, -0.07188327918522962, 0.08173569935660026, -0.21384615312600955, 0.4486508632704366, 0.18105109031088032, -0.8307271844228461, -0.3638753052303817, 0.07422761805206769, 0.059111851286063354, 0.12451203865130868, -0.12521079024872755, -0.20504528058595942, 0.6363238008320636, 0.4652439460341426, -0.524476003303816, 0.1560741898829714, -0.553914904721862, 0.20846281833548796, -0.4664777415883812, 0.05615543842281196, -0.01747760026864971, 0.19077840777100594, 0.054804236993986274, -0.7215494697568201, 0.058048070388002644, -0.1640537382352641, 0.292049162207447, -0.1089480515354012, -0.13411942991180129, 0.21711538863914423, 0.40105558777705697, -0.2931385817570684, -0.14663836942752165, 0.23954744639703307, -0.023447611298651177, -0.29987639392590004, 0.3761561673625529, 0.5547915704145423, 0.0001714895060750097, 0.09603282037252385, -0.0701566379768763, 0.38260629113182976, -0.08673838359054696, -0.15166085925053452, -0.03451042506434991, -0.06308366208105849, 0.12302070412949778, 0.0026540713772363676, 0.6745466518147746, -0.5372163491619724, 0.18850580800223496, 0.275024530605505, -0.045550782452375496, -0.10125270064088404, 0.23250673446828654, -0.4722549417975204, 0.7956942975070026, 0.03462314238065908, 0.04167528561420163, 0.020235374692626866, -0.22467098886063006, -0.1674154220916988, 0.2543084027375507, 0.0970580657936368, 0.01388034306537875, 0.2697889252687553, 0.3545178751089051, -0.46796481308993865], [-0.06839320292413244, -0.36188748719373226, -0.26331608414265617, -0.4115991034887423, -0.14770656210716462, 0.1175322212692591, -0.21307113653414336, -0.011555151776835785, -0.01552513352434842, -0.08237118053102069, -0.3119568842422024, -0.6381200190999786, -0.33282029367663735, 0.25012921380388997, 0.1739666150564738, 0.08422905799636464, -0.22766925300024882, 0.21867629322048654, -0.4346351406374887, 0.05242369031962571, -0.09813541410126311, -0.5050179151737803, 0.19127313357246892, -0.08554859382285879, -0.231955764251768, -0.40764857394919596, -0.044736804097681666, 0.37058281592961384, -0.00458773936319147, -0.13855158471095141, -0.15294384265497754, -0.14176964870101633, 0.0002132520324993873, -0.3245647633298965, -0.4187446636744531, -0.20986845476332464, -0.024617251171633554, 0.00046767767142949306, -0.44806147564431764, -0.532461415346413, 0.6549323042446994, -0.4962178238861817, -0.9549785851766537, 0.3289552844376027, -0.05900856156836711, -0.2504261100478767, 0.1849540643504875, 0.050901419896612135, -0.00027703007625982755, 0.28818938543351125, -0.33761923569464736, -0.3306625639600624, 0.18255592977661445, 0.48728019856541344, 0.35597290504070533, 0.016999563806223535, 0.061096622791636315, 0.1740156973263729, 0.025946312678519896, -0.07701109678643304, -0.34983480777882703, 0.18331101317402473, -0.40894331926273003, -0.6570013104933512, -0.16697854921195013, 0.6946854649294506, 0.18005186311171012, -0.19865183869653694, -0.14627743546139035, 0.22628443666975778, -0.07539450464657838, -0.45608958767671764, 0.30537036662480527, -0.05850258917304117, -0.020588307483822506, 0.1878633129064723, -0.048954742642599226, 0.08420101151271366, 0.05558676126090935, -0.023117330716598158, -0.2515078735166807, -0.26051894882728865, 0.1300502295616452, -0.03392173459723104, 0.6805571803737261, -0.20864282974314866, -0.12749375178151465, 0.3892543278467454, 0.7981806703215273, -0.5968797681606216, 0.2331755493892978, 0.309862627356939, -0.026539013632343483, 0.6177225181186395, 0.15913291169547888, 0.15773729515891177, -0.12058484283315332, -0.16397472592369292, 0.1135314247203613, 0.08678874349069436, -0.3987735042227302, -0.4405184692791125, 0.009188517580438949, 0.027363390577376405, 0.24838268870485367, 0.30066585958226627, -0.3474955272521649, 0.05049182500553855, -0.19818607109246536, -0.06539928953379924, 0.04663057136378773, -0.32569176983631937, 0.013215233539079208, 0.011472911662932503, 0.6936545908447347, -0.15397179287618876, -0.2954942956854331, 0.26650126119059114, -0.04161350102158627, -0.010631732110309664, -0.07820181029170947, 0.036210245968010354, -0.0976921315598209, 0.4177028893138515, -0.44663629528544796, -0.029450330680089405, 0.025741878425176484, -0.17345178829624905, -0.07753771177358335, -0.120340945550122, -0.019132576335006694, 0.4310418755406584, 0.37374508579425453, -0.00620054178579459, -0.10044639964775896, 0.22300613738116784, -0.47723066235260375, -0.3112152449134961, 0.04507086586937499, -0.3525275920356198, 0.1662661654915775, -0.20689097742673923, -0.24629848167223062, -0.12444616157628413, 0.5227737656504995, -0.5009034652744946, 0.39376081200615637, -0.03467181875837289, 0.2712192296789886, -0.3732608451669308, 0.0674359435927941, 0.3065545843989187, -0.32768386190627946, -0.26322805590291354, -0.2832252460256436, 0.32325628287088176, 0.09250938439808203, -0.067354607805858, 0.4423155404751573, 0.05589622804326569, 0.3452520990953211, 1.0005302651066883, -0.09800738493441032, 0.07043956696809824, -0.13794468226254442, -0.37650877301750096, 0.13551023113300958, 0.18654150505516284, 0.19770183724726492, -0.22481888696619748, -0.00013261607778545267, 0.07910564307498898, 0.09976023179951882, -0.30147796567160057, -0.0612362022380894, 0.25098570813844157, -0.608608448326046, 0.1577503403926977, 0.12919043377013278, -0.5220671751557369, -0.01888829895942644, -0.00581423387482441, 0.04096973838349028, -0.44034939878252255, -0.009316397801549314, 0.1029587906255277, 0.34821269627987766, -0.506265520481182, -0.1282669332126037, -0.17764222865917623, -0.30155920698097416, 0.10097380577136934, 0.6042087586546723, -0.09447493344329559, -0.04566045671592837, 0.1528069216745545, -0.3381804111612725, -0.125200387388241, -0.13581742466941987, 0.299700557171028, -0.232304519039973, -0.07621503304371105, -0.28229473150902706, -0.3475194118428981, 0.12082372436734304, -0.0035225535368483716, 0.45641926428881796, -0.20094194334294083, -0.15184660984847462, -0.09344872977632225, -0.47948400981063427, -0.12967317603482406, 0.7938744241429552, -0.02562926209777466, 0.28195018293565577, 0.4137366657728639, -0.39890840171124775, -0.059989014795811195, 0.0013666909093036311, 0.14446333225823782, 0.0001838140176079206, 0.006562880123503271, -0.29129670243201283, -0.019562881871505445, 0.023049146371015475, -0.2100278646262335, 0.004726176651583676, -0.4140628070032302, -0.30669411549504894, 0.640169601913995, 0.793333497820838, -0.2542228459091672, -0.12829689803687913, 0.20929199072530252, 0.25103356151969725, -0.260703838519421, 0.3933877844662573, -0.03532337809432884, 0.4500228883593425, -0.18185550759603675, -0.11619831420289355, -0.04915678804956098, 0.013233656128022884, 0.20679353020429836, -0.061510580737372304, -0.37789613594480465, -0.12169984480862123, 0.12574470795322717, 0.04546922161464003, -0.24247435283432314], [-0.04243153242531893, -0.00220340844261208, 0.10496502807181253, -0.07436714766754422, 0.040059458107206285, -0.1472736741947503, 0.5817600881258224, -0.10936811718773354, 0.34702726478276014, 0.001600339674332099, 0.4574147317801307, -0.11185427148842811, -0.17437168626837476, 0.375070237640669, 0.12120871123593077, 0.17555331004999744, 0.5253292675480424, -0.3784612359842868, -0.6363051144986206, 0.20001126653541107, -0.08360139867337049, -0.5109657621307566, -0.20413148288450905, -0.39310384894654454, 0.04703395022735461, -0.492937189523142, -0.041297101212915674, -0.06562946756851547, -0.47003421404647966, -0.2415817438077545, -0.11470414257710056, 0.11594313841194154, -0.00018871477189788956, -0.08458370052618575, 0.16625899720344706, -0.45000131817945477, -0.12918291502053364, -0.0003432958904061713, 0.23457720756456077, -0.256096194801902, -0.3347555360890915, 0.04901456000844254, -0.2001521292163577, 0.25109761017560384, -0.0585422249691299, -0.0684219317001758, 0.061580402146745726, 0.18647442291752162, 0.00022396686358782143, -0.12301793033971568, 0.012605048882847225, -0.5561554164092805, 0.450340296517958, 0.2524753571155231, 0.05336083373975459, 0.08425447831461702, 0.14854693988163076, 0.1787827977660755, 0.026228304585696163, -0.26471241319813194, -0.8410279319853994, 0.20219227940628184, 0.22816558556051733, -0.5011934675800434, -0.20314322158077666, -0.33650131100005654, 0.34046069363861425, 0.07452471160507539, 0.0624106119705973, 0.26565946733129614, -0.1470884345555534, 0.1044242120055802, -0.08913189024639279, 0.025053460989591582, -0.1591160014187745, 0.09800034598080741, 0.15051716555735103, 0.4523130496822639, 0.32657814603985363, -0.3452849301374918, -0.36730075066659457, -0.16807880771132394, -0.4052162192293849, 0.22516819333713184, 0.06947631622554053, 0.3330783686498649, -0.15543824113127766, 0.02253630359675053, -0.07837214684083851, 0.014279021103899097, 0.43262827588086755, 0.3503404066644086, 0.03941946053210269, 0.4456484783642024, -0.2710225721340022, -0.2790545172571113, -0.3818438520722518, -0.005491306137832253, 0.049700779435053626, 0.21687135759809656, -0.06371606131969249, 0.056020383645285915, -0.1806712849640999, -0.08446385915945802, 0.2796513646291334, 0.043994257472664756, 0.14685736389948284, 0.3167654392345232, -0.15761047162451994, -0.4197482620013713, -0.04464890248518625, -0.19001394379739364, -0.2394693288181263, -0.12194801967460236, -0.5038419847057655, 0.3414539782278992, 0.3346685342393285, -0.9195933642830557, -0.06280929727167395, -0.4006851031621168, 0.5678419420087057, -0.8974516911719209, 0.17985055941316436, 0.10437145761774341, -0.4822283036630549, -0.08955377432985465, -0.22256176438115147, 0.4295289477964386, -0.7283918078416841, 0.6802341387725817, 0.5200245636456652, 0.006203021511363515, 0.16772960127427783, 0.20572627916629685, 0.13326770939798882, -0.2424222543799937, -0.8133185314850502, 0.15602490660723856, -0.31166721813452103, 0.02576451281305895, 0.4358658741200683, -0.1438689968779513, 0.05641287129475304, 0.3561172630412321, -0.295000003338059, 0.12115520654406037, -0.40276636644882746, -0.0014128817430080535, -0.401394785551527, 0.2015423905943858, 7.436156477541032e-05, -0.006965918891769556, 0.38162058924008635, -0.15173167376279711, -0.02670906983902614, 0.5635411163064906, -0.35236794993315473, -0.20564596784418387, -0.4070462186074405, -0.24693215964824763, 0.21981807718393434, 0.27583691986771686, 0.13881729295483178, -0.10450047251873437, -0.8396507170075651, -0.4752633978229962, -0.4473648342786612, 0.3882127923403934, 0.20291913949987495, 0.13968001949389988, 0.00010788666193370523, -0.13270713643800908, 0.4047809807239041, 0.024251290876393376, -0.32331498825763116, 0.0007291078976142948, -0.014785258667340855, -0.32378546285431586, -0.5847820106321837, -0.17565666437673086, 0.13793884200866727, -0.1539336304084206, 0.315094475067173, -0.055337320336803365, -0.09949456613472663, 0.5072197180597019, 0.03815395529141925, -0.14790346154044276, 0.29126612913632666, -0.4754925680062632, -0.16970013649744212, 0.07503080833755568, 0.286855808933083, -0.39990326043306634, -0.7495722998196397, -0.3976573169329388, -0.36494972178851265, 0.018920829154339718, 0.14798884431505788, -0.030191192858879036, 0.2955029039177568, 0.13734841729076766, -0.2966356501673718, -0.04900902940571039, -0.16931977191096506, -0.14666333340931695, 0.0954501277277136, 0.2176487305891514, 0.033996196311039784, -0.03651073170039174, -0.34057079982003724, 0.24508495979918857, 0.482654435822674, -0.22537178322611884, 0.06607178500952496, -0.11122502455602791, -0.07261732192656252, 0.07760229978742836, -0.311029204884279, 0.41674492175924793, -0.00018097765932309867, 0.2307995239739061, -0.04100305557659193, -0.20879500391572992, 0.034707055911285346, 0.07310714902953347, 0.39690868492451403, 0.0658668360106797, 0.07149299188338017, 0.3437223486106797, 0.09769063157685473, 0.22689137751957422, -0.2138946802787832, -0.3646741103004499, 0.00813523048399943, 0.4491201341507736, 0.845973977632238, 0.2150671258100836, 0.13907168022532304, -0.23992864280194523, -0.10248784164127886, -0.34081872667411395, 0.056619805747492376, 0.16716696216535853, -0.4631257131461131, -0.05294555627337515, 0.04600746649985497, -0.1771885093311124, 0.30595788634282495, 0.2063336498382416], [0.3124505663878289, 0.1351840336315021, -0.01728617329098702, -0.3925352501161175, -0.5694312844761409, 0.0437197789279259, 0.45148551477066157, -0.3294201464281232, 0.05311949120232257, 0.6023454305415055, 0.3352483173653176, 0.09330542903376698, -0.02286074938324282, -0.4868797904511198, 0.43229829195350206, 0.02649714167171531, 0.4573925244599638, -0.03079595334667228, -0.10231298668570186, 0.5665558595050636, 0.2618210044816996, 0.31817346083264053, 0.42263815247077696, 0.8726510141606861, -0.40772808795989185, 0.22063737747400475, 0.2990790305032404, 0.014984216775291598, 0.1324683693511978, 0.10588379710677602, -0.4282073429398788, -0.2892342603539461, -4.268464398689136e-05, -0.573294756651407, -0.4033925206819869, -0.09518180856553585, 0.04577947349676681, -4.951121405204573e-05, -0.5500221838907883, -0.5247807296077234, 0.3620093776683475, -0.2651458078532917, -0.145896941143354, 0.6267825139797597, 0.03271946179734467, -0.5886437903200652, -0.1853804529959966, -0.6685636965937048, 4.5489389264395183e-05, 0.24459634053987614, 0.049050645486421705, 0.22438033893651527, 0.20664581682914457, 0.2857944250073272, 0.03593823430174625, 0.3706957516484556, 0.03555261310576721, -0.47307250875372925, 0.6194563625781917, -0.7054470387142173, -0.3967922437197229, 0.4138600876421152, -0.054274802229251774, -0.6077521256921264, -0.14106150367402565, 0.7165701795494244, 0.5426209923310166, -0.07296206879056776, 0.10355793609725641, 0.15726032143556143, -0.6832777086805042, -0.3308225486329455, -0.48436609312277, -0.3611229462055312, -0.03965010957271781, 0.07687625103050819, -0.3190727924851693, -0.022163304951455902, 0.12061411792004761, -0.27209338583135095, 0.03931731759333249, -0.45835016678360513, -0.134705367469184, -0.055542582564804946, -0.34290192934257846, -0.4852276279448821, -0.558762341561593, -0.2142164504427389, -0.1886913809666379, -0.24540564338020968, 0.4791988484470272, -0.03854492251615234, -0.14102176331396615, -0.25680718332868674, 0.23352636473632252, -0.22591365604342023, 0.7443090423487781, 0.16079455848875868, 0.24562976762920494, -0.17355969674064842, 0.14421972834081329, -0.16663617539273162, 0.2538837737087006, 0.030303236172834397, 0.6665360864025417, 0.3111098734767184, 0.32940823304998645, 0.025401242739363096, -0.14635091571665704, -0.6456580825018101, -0.029353679710795458, -0.35931583662839117, 0.2809596941911054, -0.2527070000988926, -0.20966749726305403, -0.17746566544527795, 0.09249552960972861, 0.051694415265728336, -0.2802171280782774, 0.19762635234705844, -0.6902134118840832, 0.2093700129756482, 0.05594652210936231, -0.17559577853001265, -0.09834513694126447, 0.01474181599899504, 0.33031660621324715, -0.3153589369426756, -0.4919542218095057, -0.15456774332601694, -0.004171832562759322, -0.1573059194486795, -0.3137606564363032, 0.057929601247390675, -0.49237692610801426, -0.2876196728963741, -0.4111555022130093, 0.03923719965605462, -0.6857250887218626, -0.06257276979906236, 0.028601238271913142, -0.31834504138181324, 0.3636066501746006, 0.33472315304276845, 0.5091638940081111, -0.6053624655334912, -0.17678478259669914, -0.15875158572318784, 0.4455865349230138, 0.04911443536157864, 0.8517144950661852, 0.32538587963392407, -0.33119100350573005, -0.017807319567899358, 0.06818639701723535, -0.14105805445806555, -0.23768698356100257, -0.2401257382338529, 0.13720874906545713, -0.07552417225502409, 0.23294532025437972, -0.42548146786193125, -0.16455918445021, 0.4409794891488223, 0.23301016935578656, -0.004793374978521863, 0.29705311049753746, -0.4796564455637714, -0.5797712531039108, -0.4832491193245136, 3.0043477634034337e-05, -0.01891173279799056, 0.3274833498581949, -0.12840528675646148, -0.015549128668244833, 0.45334849813943956, 0.6078989790418071, -0.10681294281577627, -0.23948802646208053, -0.008139456894857225, 0.0731708534052676, 0.40502472495229697, 0.5091503227939435, 0.30655847714151924, -0.11270795602609589, 0.574694731792154, -0.015261579717548107, -0.16539626620818446, 0.055342319702343386, 0.1947640337764588, -0.9248299353745417, 0.7236821446552941, 0.15025105489475446, -0.0007631330371213803, 0.6981082938324097, -0.4875714374660913, -0.31489474559546726, 0.37547163477137574, -0.24597810577597776, 0.4140126965024285, -0.01573235851222776, 0.035434230397083225, 0.13173848410889577, -0.10436617012134249, -0.6408196619052512, 0.4140833274117211, 0.4457940945761935, -0.07416195222962009, -0.6925344824387685, -0.05000288553140832, 0.1753648178927408, 0.19913663887883148, -0.44794790697343595, -0.22556981301727574, -0.3821821770971761, 0.42008342960382744, -0.4688395251315548, 0.09802908935556215, -0.33234206033514313, 0.5104812641584536, -3.648637744584691e-05, 0.037618877716986014, -0.4783946907180505, -0.4827211700372021, 0.37156358007772905, -0.10453357689141025, 0.08495989070341886, -0.23504612412819842, -0.29541685367055387, 0.017139651527757115, 0.06723831651163409, 0.46469927109718434, -0.31313468011075174, -0.07247833271399093, 0.391616033571127, -0.08891913386428626, -0.1560799994069248, 0.2979027372735232, 0.34717957281734474, -0.23301479709498668, -0.7011076747290287, -0.3204446944185156, 0.33043899128805115, 0.6292333235827715, -0.1876609031068975, 0.45153398933800276, -0.0666623457710044, 0.09765082526021988, 0.4149725242711223, -0.40921501815847067], [0.32312393404874107, -0.21831897455454688, -0.3983688977729251, 0.12320430800077409, 0.16376799907730816, -0.3125483378053055, 0.09080338972894603, 0.38721065540253446, 0.038860596702278725, 0.23589717506334557, 0.027882338149596307, -0.12005664490394352, 0.08613803274838894, 0.11086664358871358, 0.45125571120446006, 0.03655147895159636, -0.5239446337758066, -0.023505928307894594, -0.48978097377211527, 0.40232897584888905, 0.3736239176484707, -0.17163738881753038, -0.5883327961521797, 0.40462482709061875, 0.2254116511939055, -0.10273138689263668, -0.34863950004689387, 0.3887106241099395, -0.13578790017143222, 0.44942708824772826, -0.20076807540647706, -0.2023380342126547, 0.00028038567745631454, 0.48833999339176243, 0.11051225340069751, -0.3386953255545279, -0.2521757848294829, 0.0005303615233538722, -0.7100115389235128, -0.12906269053664515, 0.35305572792044176, -0.12804181105552148, 0.28700561651881284, 0.014729918069882234, 0.19561355074073872, 0.18361159245435385, -0.6289253854730068, -0.40564716958018265, -0.00035091071809710593, -0.16684688919175483, -0.3636574533263786, 0.9392837695415285, 0.45254371610046024, 0.579430851457711, 0.47508426734641096, 0.3134653746921634, 0.10474708817544896, -0.3367099566347181, -0.058732499703269235, 0.037162977305805846, -0.029302733620113115, 0.12408021417966957, -0.5832557339428821, -0.5537390317343138, 0.31966459474041536, -0.019938863765929328, 0.16191416597356048, 0.21964951602387772, -0.07335603521523845, 0.24511747416050417, -0.17357581158526675, 0.6090896717579384, 0.5637528712315405, -0.4246091646409565, -0.20885950576531725, -0.14617555948316166, -0.49582041682936323, -0.06955273576090226, -0.08583371497682325, -0.49623570638619857, 0.43971251302875025, -0.5026843176693833, 0.3562100577539962, 0.5962098704588373, -0.4239833733289855, 0.3749488734833381, -0.07743585042307476, 0.2731049977275469, 0.16776934708192645, -0.00013094420053025093, 0.431481795027293, 0.3186952195161462, -0.25456427405906745, -0.07365336131048872, 0.013664702213474354, -0.8896540871896438, 0.0526111557209338, -0.2400659206031166, 0.22094264200889246, -0.35602227040588874, 0.05207929171568703, -0.12503330768319956, 0.11827354996958335, -0.0663111119512774, -0.12222733255362785, 0.024264599109860546, -0.7302349328008357, -0.16230665625270024, -0.5560600727710403, 0.6364262195629868, -0.056130763499807064, 0.03475181017200905, 0.23701258517941315, 0.37846626575149506, -0.19709261930267888, -0.12186604426221481, 0.5297601225482957, -0.9259268070285729, -0.020744505972643223, -0.16105443714775353, 0.5237217312752773, 0.2253443097053522, -0.5319513714124277, -0.008689588363600266, -0.06866630164231695, -0.6054238378927511, -0.49890304776836636, 0.014142202852166563, -0.27851564968215625, -0.5802497043895598, 0.4927434543962022, -0.1960866699029553, -0.138077711652733, -0.0898310474476954, -0.25143040790064886, -0.6447705586115927, -0.056703522527612286, -0.39593545140197006, -0.2920503447130635, -0.06667474342039786, -0.2600218399651605, -0.0598093671234375, 0.17548985381468618, 0.19791531421697578, -0.05591946764327923, 0.17073609970441014, 0.13859208056599456, -0.3498103500274679, -0.04767668383062686, 0.4160887160693726, -0.1275447004698124, -0.24567237504597095, -0.3013564068824575, 0.054023320054003086, 0.04555696872967786, 0.19610106564311078, 0.11352770871778917, -0.36031413885203484, 0.29287789659540325, -0.19732691951494544, 0.11881302021855661, 0.5245527603964648, 0.053434865084468416, -0.3767487934130895, 0.23605118295279623, -0.3858459749019906, 0.1657866902379448, -0.4847637772291262, 0.8869828080000531, -0.26609124765212694, -0.0001828273071724811, -0.2609188972075969, 0.7664104635507666, -0.5303391978788415, 0.4336214625970585, -0.49448760035876854, 0.15740813837472753, -0.3837915157386738, -0.6647831392366574, -0.05239745860331852, 0.5548207171903858, 0.10730789454314513, 0.040681941819874876, -0.0888147916713151, 0.27612292543765377, 0.28404426242629977, 0.1731312989624223, -0.43938564098203936, 0.07827803707286356, 0.2474145677471489, -0.435613831957471, -0.6297895759089372, 0.13924576005424433, -0.612172095194753, -0.340171883515269, -0.3517521473550943, 0.44298123320607363, 0.028540788779603653, -0.40790435812567344, 0.05607685564590443, 0.021344788112942582, 0.20329959091865313, -0.11571194360292182, -0.029118043914840824, 0.5234215450342887, 0.15093422312872903, 0.5474741131246449, 0.057805898204530165, 1.0250959995685565, -0.3250191294489062, -0.3714173037227509, 0.056286086860764334, 0.2327000621253807, -0.401566486062924, 0.2549155170755738, -0.5101856097743562, 0.028520863584146027, 0.20637803772197016, -0.39258723602401735, 0.09240733244769411, 0.00024429696037968286, 0.04247756078225923, -0.3428396391040838, -0.560446096089558, -0.1355263402897237, -0.06787307338220785, 0.28562260788867244, -0.42789787753777614, 0.3824424104027736, 0.03937426223877895, -0.5474254678426846, -0.4417885882857618, -0.0582167472638714, -0.18497394740897913, 0.1322277870333794, -0.14506608622474998, -0.3422955263998782, 0.2525600301963738, -0.3894223772241657, -0.021542306033029618, -0.23876696046345033, -0.24301861591246138, -0.21798116898366096, 0.49640660080438775, 0.19942517005988827, -0.17251785549801754, 0.22298877319134253, 0.26409741356886246, 0.08676734162702102, 0.15467113454509165], [0.15110033349373572, 0.06971662233802996, -0.246784174695636, 0.08921820091174432, 0.14493841827710097, 0.5256003901810364, -0.49359227564847324, 0.19405435129585077, 0.09092877268427957, -0.582184038794281, -0.3133957107697189, -0.4118144504129087, 0.12846008847485937, -0.3274199995355269, 0.6494892402025074, 0.01694607368266945, 0.024556395066794065, -0.10769749783493067, 0.3659868624908127, 0.1470015619862598, 0.1801071068511662, 0.18950123785907588, -0.697010406547285, -0.012747466321923303, -0.042180077702877156, 0.029681134760108134, -0.25679807108248137, 0.5219178160441498, -0.0827761169265743, -0.0050518716376674495, -0.272558798242225, -0.7360251819799657, 0.00024396758060222712, -0.0051515956083107075, -0.15534794110026523, -0.0006802735222381639, 0.16401920803181488, 0.000497078052695809, -0.643616865380637, 0.32217426194508275, 0.5984524923540531, -0.049583295091179834, -0.1458097407414004, 0.31708701165879544, 0.45117318367969594, -0.46820300347369165, 0.0450533131408536, 0.32367109948927436, -0.0003087467527755718, -0.06125374662822188, -0.126960929265803, -0.09830995336723586, -0.056369731512243955, -0.2972169407998148, -0.4722943867204703, -0.17108303257458063, -1.0713268687665387, -0.8466905717183266, 0.5661342969362061, 0.3791456839965808, 0.6112330777647992, 0.2270550213685531, 0.08329059092037958, 0.7122194650676235, 0.37995541034581226, -0.40390632946366894, 0.3697330025140532, 0.32936073724957154, 0.0033155414140065387, -0.5517266646591824, -0.029623042589404555, -0.25935081499018514, -0.09602846163271761, 0.2413459147288744, -0.09078969708086639, -0.18438145036400247, -0.4724903872629923, -0.06235673682139993, 0.042624839787830195, -0.3140344402992444, -0.3131607905808182, 0.004723134819120035, 0.041581529214129616, 0.009711823664479736, 1.0123830639376519, -0.04455209188420652, 0.1391618307675372, -0.17394805833316698, 0.0732076634905104, -0.03742940189904841, -0.1981246711222095, 0.38343345529744405, 0.27048824909022795, -0.6761596396262526, -0.6368855666875689, -0.18870508484050919, 0.23912171486872616, -0.03703196976610629, 0.41601978201775547, -0.5680616325736976, 0.31616177998204786, -0.12722217152469523, -0.028210870838194915, -0.0007442170484098063, -0.5934911033466588, -0.30204760386987733, -0.5931488090581233, 0.17282247260882383, 0.021994995010710353, 0.11490759397961815, 0.016013090993805667, 0.2464068923562311, 0.15352079466251026, -0.5166310379745076, 0.05344549229906491, -0.14024934954517096, 0.23916287698832678, -0.41363902829526766, 0.010557561107227144, 0.11505823716638625, -0.3853334803380791, -0.08571263337432064, 0.06007897673534798, -0.3568631730056827, -0.04944586008211612, 0.04779851604551213, 0.5304111292790001, 0.19360708984976963, 0.5631961579479167, 0.1193172838927882, -0.36972338458243653, 0.12140573843223144, -0.601142778644951, 0.15174351820703216, -0.45097197874482503, 0.15153170307574423, -0.0006631637674177672, -0.32490135276916454, 0.36145935563632553, -0.4706742112301034, 0.03721534513496096, 0.003669354058815091, -0.2087845742778939, 0.10127715208286674, 0.7368579092932819, 0.27038804263838256, -0.5134478736349513, 0.5042258434217584, 0.33500715266992936, 0.01983622327893033, -0.059483230893365, -0.3128351065260936, -0.3111000319923551, 0.19987488349020563, -0.3576117241980611, -0.11609192377028839, -0.061760551069279634, 0.0007065824777038193, 0.07104826762715401, 0.2763701741462636, 0.9108712456175913, -0.4567146104964631, 0.020382285467038352, -0.2109955123155025, -0.20129615275766263, -0.11516388349904565, 0.03215814511664219, -0.008968076636295348, 0.12708800742237952, -0.04463894987599896, -0.0001549085195159225, 0.058049533441695104, -0.19051746747581622, 0.30187454140861114, 0.3517142722675669, -0.26542642582851683, -0.18295656951671735, -0.14665216564352973, -0.20463241679682959, 0.08252638817043272, 0.09159731283502062, 0.14119400590535167, -0.088412064568827, -0.21174726615137984, 0.11483309181211249, 0.3661848724344299, 0.290637464374418, 0.12397488916697508, -0.4216998766795911, 0.224716455781346, -0.3164923478058473, -0.42318670493828214, -0.11351043128773312, -0.7664584499915701, 0.005866251881630024, 0.4846281267390778, 0.4471437244594862, -0.33118878495892523, 0.34572940055465257, -0.008243946520773805, -0.13004366151821467, -0.22748628008691588, 0.06630458801168464, 0.3869336236513231, 0.3246880670543646, -0.6824415094700131, -0.16829092904244325, 0.16964213937516692, -0.799626803359074, 0.10678817793833993, 0.3070293221204316, 0.35412830435462106, 0.1785486742708678, -0.7923662905655529, 0.754358709682883, -0.28510247062979016, 0.6446579773961821, 0.0616110309209448, -0.06624281478270773, 0.5034445141610441, 0.00020992249829158768, 0.26141591386234864, 0.22971009821501015, 0.4049579238542194, -0.47456708354349314, 0.2781568967386691, 0.3587166565800012, -0.6225929846815056, 0.25978930402448486, -0.10495134842079082, -0.05216421470353656, 0.07483480001557344, 0.07168993038948038, -0.17138268556053493, -0.3498516927689733, -0.6415791257803013, -0.41109712072117366, -0.06537636320331702, -0.4048064514141191, 0.13900810617901804, -0.0917818657292408, 0.15095783225546072, 0.011577253238463014, 0.12864367347819308, 0.44614391653280494, 0.21935252178851714, -0.11605617198708988, 0.16373247252176906, 0.07763951886258957, 0.11227009768338646], [-0.2830874538895175, -0.36335643623249586, -0.2684414326074287, -0.07752792900436745, 0.20683255341881182, -0.2702270700397392, 9.712469332733657e-05, -0.07628749326162348, -0.4326939083720606, -0.3978918054139049, -0.7275380937817254, -0.1746904230784487, 0.027280272243211286, 0.6848298619629154, -0.3797334301463098, 0.13900622907024554, -0.19858043657769794, -0.22183496994834762, -0.02176888799581169, 0.14465251699966875, 0.12261571890736096, 0.535543673429481, -0.11627307239248662, -0.14439697333086404, -0.15470453705639467, 0.24506518634002292, -0.01016666299278297, -0.006158963944260582, 0.406806736309398, 0.026805869082763917, -0.07317828868645651, 0.0077102986763621624, -0.00015992302158412955, 0.01067867855415966, -0.7972488466842473, 0.5316630853879977, 0.36422210222695733, -0.0002605444566779547, 0.24263706035925126, 0.10824539315257097, 0.6582122504599978, 0.08161778302074724, 0.056235122717050674, -0.11511466634477234, 0.17086945872904144, -0.15618361857625618, -0.30227316178250674, -0.21994330416071706, 0.0001968899841881101, -0.28621191730287593, 0.3471709097145143, 0.2986362153599939, 0.09935277117999121, -0.034854162988542964, 0.1950357039065094, 0.005148136514797747, -0.31597241173169227, -0.309382309432827, 0.16683958363295193, -0.007890886632014595, 0.3935816691995987, -0.06076106333913872, -0.3608002301839207, -0.11851415857226215, -0.4401871146275582, 0.11162097142262642, -0.04284564285746326, -0.10393906131716378, 0.003495501665926632, -0.4111259422901756, 0.6430220975228137, -0.14440941094226944, -0.1314946616828794, -0.28051307521485197, -0.16208928316305177, 0.10233940267201395, 0.0014206234067338686, 0.04248000223929005, -0.05539332761293466, -0.42764334744560745, -0.04151196365534411, 0.25246113309942503, 0.3312542352823308, -0.07822674320963552, -0.06207641109554525, -0.38109966388165195, 0.15363919806149204, 0.02222238704966612, 0.33872178779080475, -0.22834251919502474, -0.19515242499761767, -0.09380419789061983, -0.0028877309382178817, -0.13809362530666416, -0.05437269866256133, -0.0566216563933531, 0.5888026984475421, 0.009964749808061321, 0.24778599569759877, 0.40639895736203113, -0.08466303106180524, -0.23969070084132163, 0.14576489417359248, -0.018847280106027528, -0.287611546363632, -0.3371170293531871, -0.3527795131812347, -0.16809088077552306, -0.08913236281105516, 0.42401117661034105, -0.18876332077238386, 0.03185387425902927, 0.18854529023504416, -0.07170696175906263, 0.46768853234777236, -0.016275931242462762, 0.0885870744841243, 0.48359372157103464, -0.2155988251049717, 0.23384458726918628, 0.16010709277821641, 0.45086945303677134, 0.3243833643231731, -0.21586438104510003, -0.10160140695282374, -0.06853882268767816, -0.12808697823353574, 0.7878584425546826, -0.02621179170365314, -0.17794932640090866, 0.297938351407531, 0.4838430919792141, -0.13963410470806475, 0.1066100080424613, 0.06120648829272272, -0.3613132713337076, 0.10920284994631897, -0.1188133281301424, -0.10971682564406093, 0.2644328918026741, 0.05814014499383282, -0.21762100549264898, -0.16210612464144386, 0.10456921447818128, 0.5163828795562962, 0.21468338613167243, -0.10939353778097662, 0.422468990945473, 0.3779681002646731, -0.09616389498297456, 0.17620428679989886, -0.448146585798511, -0.12918356388476643, -0.18054800847438005, 0.6330945691476901, 0.0032101036310521525, 0.004411499525358227, 0.104709413960699, 0.3443463759905826, -0.06928902846384029, 0.11525405761665698, 0.5764731090769238, 0.07846703660283368, 0.058543635799983465, 0.688566774566584, -0.5229460412462981, -0.20892432215139906, 0.08058970164107147, -0.1322302248827095, 0.02146193967777573, 0.00011120431592254758, 0.16761322009416932, -0.26679940788873246, -0.16019164566880503, -0.033145761338781984, -0.029402692894119165, 0.13016859533438035, 0.05720572549922133, -0.15443103621357565, -0.6494633981612794, -0.3453396018276735, 0.31015769755471395, 0.26560280691363425, 0.029438467356229854, 0.0755403538539321, -0.3144029960713565, -0.2946380672409627, 0.3326161436877892, -0.48962594870713705, -0.16104387963558958, 0.3964703823398368, -0.19877568732273931, -0.21042287929676856, 0.06774259874510213, -0.2274082160487446, 0.011459124818496055, 0.5859957938131092, -0.4083360955159966, -0.1568775143366413, 0.03219360541491064, 0.01900551347479691, -0.06060472636751715, 0.01842234594994068, -0.10601473385593307, -0.2959454823265392, 0.27991720625115163, 0.1959545827231457, -0.10393834663487658, -0.5086983234509788, -0.12102157932445033, -0.23316029340299277, -0.058990061833869956, 0.20556077711345425, 0.09862374017421352, -0.16331780375759075, -0.3377369903091813, -0.09736118057801375, -0.06775991663040148, 0.29855432828611117, -0.24934461567337557, -0.00014751439545399476, 0.043246249336581076, 0.2747796547910666, 0.05777308617292888, -0.03472006206933437, -0.03196359817950773, -0.49424606138384203, -0.1191476390838446, 0.09268819997865108, 0.10258231482729009, 0.22354016951129688, -0.03597809254829512, 0.28968662677526225, 0.12777691318607742, -0.2521000546592263, -0.19210665770437596, -0.2876662687238944, -0.05401967839119372, -0.19178664481284746, -0.09562910689939429, -0.3721283921970986, 0.05877103656599912, -0.13945693412275806, -0.08393385641959393, 0.3472031862313266, -0.4828210556659629, -0.2099329064917034, -0.21230933500582808, -0.24702892657184308, -0.21884250294409935], [-0.21200390135450575, -0.12638704541139242, 0.06955996687745875, 0.18634458853071886, -0.2681872784701442, -0.09730761556428981, -0.17701106642146816, 0.14184382558922254, -0.4353281892345349, 0.15454566330819036, -0.33576707314155785, -0.3134557546850761, 0.31954398260517924, -0.08781661377437688, -0.6432607388190787, -0.09607746186485132, 0.236486966792809, -0.06563451119764696, -0.015084944607622486, 0.1824264676485669, 0.13109604103887024, 0.2087086041825497, -0.11041518306905325, -0.019713551019473814, 0.044345181538091305, 0.2016243483408379, -0.016242167460848552, -0.273107843001737, -0.05279795532719507, -0.04929253217070431, 0.3869960144085126, 0.03080715683888735, -0.000238096515784232, 0.06486529694290034, 0.06192409805928014, -0.20804607011806578, -0.4874765756717369, -0.0004209835503641295, -0.07843111346376837, 0.328698266427467, 0.3700131270891473, 0.12175615093117077, 0.29434189473085975, -0.13558143183380567, 0.17543740078542105, -0.5090042589444044, -0.32818290430616054, 0.19573598548609772, 0.0002907085961543703, 0.09237153470359714, 0.19667319499415742, 0.3715966335039677, 0.45230807103271126, -0.08391772490079577, 0.06680151664278726, 0.33379208626289775, 0.02083754456860021, 0.47818528889020273, -0.3986332699383156, 0.2636842386906963, 0.05034398907548288, -0.12348283155198984, -0.09164424550092584, -0.1797455103008079, -0.9060841229506919, -0.23359780196261046, -0.47408685011900575, -0.04909873429963335, -0.0910659258148797, 0.10595011358726754, 0.7550187510964183, 0.2564301270049074, -0.4019796352599237, 0.09325261578422796, 0.06939267804241563, 0.07893137406945977, 0.3715263326046087, 0.13087749501248094, 0.06106214662973679, -0.07469685946152388, -0.7851508459393804, -0.11179555265116219, 0.4020647990710572, 0.3035842832768245, -0.12555165324686982, -0.23311860654461022, 0.4487195757959138, 0.5853983963125217, 0.06469889045373971, -0.037809059878041715, 0.6944082245891972, -0.057327690489501176, -0.20676772980789124, -0.04424775821403436, 0.3137601649781528, 0.15742450546247327, -0.5877804757041214, 0.04097238501142514, 0.19967224831845315, 0.8275822310097709, -0.1426776602431819, -0.0804145170774512, 0.07264070694894942, -0.08643696529784885, 0.2350112457304503, -0.013398711793023882, 0.19930198505693308, 0.5919979206835216, -0.8562159721071537, -0.12965943208433886, 0.2640053734633817, -0.16397718696099225, -0.21684806830154887, -0.4037450187222153, 0.478266444624951, -0.15690566875091538, 0.49513354908309154, -0.3907158356461818, -0.3105267235072444, 0.2470048207459532, 0.5599381719145762, -0.46155034007219564, 0.11902546350658028, 0.1300007915040537, -0.01774082926665538, 0.002503886135533224, -0.3075391497877665, -0.14636143991745765, -0.31896678773369075, -0.10884415008970391, -0.17531661309595511, -0.2682341460429988, 0.3586186876022302, -0.057023015001296556, 0.38186259265705524, -0.2947990872966613, -0.006628573627122771, 0.3782133453215168, 0.11124628062577674, 0.516318565693498, -0.05140764665588457, -0.07148232799349731, -0.5493258598817677, -0.10457390617725706, 0.039023821411135064, -0.18323507514584614, -0.22913755914971223, 0.23590737189705793, 0.0020057115933873283, 0.04821144980702183, 0.1313891977335669, -0.17405331961673629, 0.023232631509691737, -0.007180167595078681, -0.1532089899458479, 0.5201798808675345, -0.16601609989526392, -0.0425431832989925, -0.1358678464438833, -0.07809954364912557, 0.4760272507120921, 0.19705385565835135, 0.3626170507499799, -0.2559771149593442, -0.29764105437386684, -0.3764722285157025, -0.6505869143132916, 0.5823491764314214, 0.006500432517142341, 0.050411031372636805, 0.00015256222126337868, 0.11067394237098245, 0.3775503503542443, 0.055487869951765044, -0.5533351148962639, -0.08300629513823639, 0.07080472199408415, 0.04107667511502165, -0.23520326547425957, 0.4297860050576543, -0.2988805416502512, 0.2382896527297986, 0.06893845994334843, -0.46396866556964317, -0.05741773402220405, -0.00444387914228222, -0.1780584932998704, 0.4072977404344256, -0.07113624403441328, -0.6109697613054832, 0.4618704874398453, -0.047967004245163265, 0.2653878092331135, -0.2833749600960605, -0.14720624954067843, 0.06907150576710551, 0.30805971016661726, -0.0891413599471898, -0.011138906830428421, 0.14083941690801166, 0.1617108458151949, 0.05511710187189718, 0.08046465637998551, 0.12450247544779315, -0.17693448197279593, -0.3066857528940819, 0.07766388606200847, 0.09151062073667815, 0.7657157704632055, 0.12101599484476434, 0.17860472692400495, 0.09455029097726846, 0.23583649791215097, -0.18967612046827903, -0.09737707830648967, 0.0411135559410951, -0.012078500275055191, -0.17861954579516445, 0.011241559516469572, -0.42817371950798966, -0.00021872192441999705, -0.10104806132911577, 0.1373248591528715, -0.2958322463767323, -0.2705188608657396, -0.18308369676622094, 0.2537420745289226, 0.08690657644781548, -0.18808207935872706, 0.02555918459362324, -0.08133544133122103, -0.21534142298673034, -0.15735294872724334, -0.030233716904823384, -0.5028224539412153, -0.2979811338374802, 0.2089315363534651, -0.21598991539090875, 0.16953478791641227, -0.06458109522590204, -0.6038552099818203, -0.18000314671376405, 0.06881148057441065, 0.35065299867058175, -0.058300386228312844, -0.1331759888451683, -0.12122202499337069, 0.13980590058808037, -0.19292569965984757, 0.4283266343929553], [-0.09136000394413901, 0.1679308964374509, 0.25097014839012427, 0.17381550142436275, 0.4458092559551236, 0.22168637328871996, -0.09763981582113725, -0.22578793660677368, -0.19951883701545592, -0.33974615874534525, -0.38946661556300616, -0.2914232000889335, 0.5529646691937323, -0.2705379497449235, 0.1576067023210545, -0.28903589460639684, 0.03785961738891782, 0.4574527041937894, -0.08607914360129994, -0.30637254421463606, 0.21711606764049285, 0.4995028798084779, 0.12646192941240625, 0.3672328120208361, 0.20950884588205043, -0.14004844155180865, 0.031845602662401315, -0.44840664113493867, 0.48606003779857265, 0.39278728828938103, -0.04625733892643049, 0.09884607915146953, 7.260351482986351e-05, -0.05632426185364668, 0.3913371847095621, 0.28534212432242295, 0.2073480977159758, 0.00017817443704393405, -0.6116632949694653, -0.9161374825994985, 1.0742745424108124, 0.32917378100727973, -0.6979412395730134, 0.015412707625458709, -0.3199493576389773, -0.09143731953271615, -0.9393114675022063, 0.2556673603972265, -9.88712619045421e-05, -0.4744485323810249, -0.08635054753224661, 0.3462284422174815, -0.015840416176467784, 0.29990196909434524, 1.1212070514759958, -1.988768130593944e-05, 0.6493714034030892, -0.27473533713124804, -0.5768274511071445, 1.1911066591028905, -0.28764792764320685, -0.043498410285495406, 0.5866082661950995, -0.062273496749000665, -0.32056250374096174, -0.02286510999295813, -0.5909722088251725, 0.028704446721287614, 0.014115500194167319, 0.7118615025849913, 0.17447027590475206, 0.19609603816169008, 0.24787930248431095, -0.6365207435977914, -0.6806437756764578, -0.07932851878288781, -0.17563842644536196, 0.4745110941771984, 0.3062145657784884, -0.4559115562083426, 0.13674713444766243, -0.4405240854133344, -0.04721653715224423, 0.015973868598955734, 0.51385305192424, -0.43667351253298203, 0.45383871770722467, 0.4132048823033929, 0.4985134772154047, 0.10321508150467527, 0.527994268185494, -0.25617590152746206, -0.5584798850419425, 0.03624944783100171, -0.10094888481747662, -0.07198306200437148, 0.2372222199946428, -0.6283124395608788, -0.6307840825886917, -0.09709457801838804, 0.1619885489895561, -0.03438601750671408, -0.12203353736475639, -0.019690564863415673, 0.29597517992948696, -0.00988565192135141, -0.4962379033001467, 0.04350874598112506, -0.13472280857085778, 0.11322389997615553, -0.08292546260911622, 0.0015266737374527474, 0.20864724097042242, 0.05988995839444476, 0.45302791710322876, 0.11241131816191532, 0.021096816406868626, 0.33509630045937205, 0.2599091755453024, 0.5094210417661762, -0.2900615710130708, 0.25090005756625966, -0.4507047190771723, -0.14566041369486907, 0.3661805538501653, 0.2508524830700342, -0.3058781811485128, -0.26389575771442564, -0.3894728571120284, 0.1180187322614563, 0.3918082360280266, 0.4352995999491831, -0.08654531979868309, -0.47535911462000974, 0.474911293937484, -0.17221632166814055, -0.0647546411952904, 0.35250844600035736, -0.43272560152113004, -0.12475603600637142, 0.4600267944722035, 0.07512841101772191, -0.16908239580124843, -0.14785234798884134, 0.8497402128385663, 0.19699915919507796, -0.05576468517515046, -0.6870332697226393, 0.03166334866090688, -0.05966855465168506, -0.10250654219132474, -0.3100760721890125, 0.3304750795641601, -0.007508662184882347, 0.4109313348353165, 0.41834265764874484, 0.25243661022319447, -0.27756988198886895, 0.46962996019585945, -0.03425447159150937, 0.34944616733812944, 0.4533938744965443, -0.3775048706894635, -0.19690525186259453, 0.044858773079169724, -0.1561994422566406, 0.0008819834112135188, -0.4078974119939852, 0.27617917849867024, 0.5474791458629923, -4.435403726975211e-05, -0.06509834206253334, -0.046988082192825666, -0.3949510862666287, 0.40407916615018946, -0.13046754855253317, -0.14618907352522148, -0.19890966934480847, 0.1893924695619521, 0.24217585308902942, 0.30485540009033507, -0.13336935469229338, 0.2647721015308111, -0.48096019547782753, 0.1547447836219653, -0.005894178652954588, -0.5523587318449766, 0.027181131245075783, 0.7783270108180356, 0.6676018213658698, -0.9318363224175579, -0.027876884422083213, -0.30001448890487215, 0.4711826654373463, -0.08684877702980669, 0.5811276743747447, 0.37969151945839363, -0.07927492183393514, -0.5551965691714978, 0.3410937856688927, -0.8178585229463601, 0.3845091856455356, 0.08878259071993036, -0.497299945511584, -0.02321915453605405, -0.3838151448433579, 0.019456493915027667, -0.4592752072918276, -0.556274251514526, 0.0948170828649042, 0.22853361828400587, -0.13822107454735183, -0.05551449315888473, 0.08958444895148107, 0.16336785997607212, 0.2258459263453232, -0.006434823259047913, -0.1518084043111661, 0.18627325359782154, -0.610147169940276, 6.186336481297348e-05, -0.14916261305483888, -0.19205112219905002, -0.32438602312769876, -0.1551719559419859, -0.07209716297030312, -0.3383990396064829, -0.3745393824234535, 0.32942195967042337, -0.46005642793556234, -0.621887981396293, -0.22899300947778664, -0.014310828649173334, -0.11827264752792455, -0.23796934911837558, -0.19881446278832982, 0.01743709196459857, -0.1357996222822458, -0.12560351312741044, -0.10869323882925305, -0.10166337094603961, 0.04515876594332498, -0.42318371562871326, -0.190524870542761, 0.025275832695807327, 0.08143368261951153, -0.018581215194345097, -0.12407891978297694, 0.24646596914545837, -0.2941446512962588], [0.26329284661126856, 0.42206347859882437, 0.05413798276587335, 0.11177631184883971, 0.3813005495581538, -0.11973021503776825, 0.2940961879640847, -0.12315194435664775, 0.08512388418497843, -0.257468746561389, 0.026113031210258972, 0.20454612042700432, 0.16125260209602818, 0.26996033539977304, -0.4127535766498234, 0.022852922763701194, -0.22689322370709883, -0.08878375957080438, -0.33216783201429606, -0.35077348479962156, 0.10618432707495529, -0.19125150164384644, 0.051507132461390145, -0.36652570719602723, -0.24117776668363225, -0.8102406834734207, 0.06219152297004869, -0.21629055757107465, 0.4429096377955421, 0.034565307954600485, 0.1758987037421464, -0.4274164721238752, -0.00023059798470402936, 0.05300206379540524, -0.07676379018976837, 0.34671538612343594, 0.08846368644704332, -0.0004634743004633138, -0.0018687103745376017, 0.13486572354097476, 0.052051875510660914, 0.6917969772512801, -0.9484678511262709, -0.24938499976096354, -0.042877376400655434, -0.003158981806555597, -0.566532916457443, 0.10186231871778455, 0.0002905161676445749, -0.10600795302314292, -0.3205158634880868, 0.40938260399604964, 0.4903588562185192, 0.19853477689200136, 0.9203057626108628, -0.18938554320376144, 0.03011861714008031, -0.04306534657294426, -0.4330925877184255, 0.16722621441732047, 0.030339279417579586, -0.2646224579315911, 0.37788232165656893, 0.027780475187169636, -0.6288801987897116, -0.15844844315289744, -0.4315599492474885, 0.27948798044157597, -0.1269832605628043, 0.38028098732981225, 0.15009496475955644, 0.14937157939773094, 0.014193587731193178, 0.30239973106208706, -0.024473884980069978, -0.018017205420331812, -0.27385420777891295, 0.05657734477505254, -0.24082627540091553, -0.15912236275115696, -0.13460484209380777, 0.023150253168996417, 0.2514453943567525, 0.0003120814650177829, 1.3306875247916155, 0.03381622268103947, -0.23778018007355, 0.4299526685297197, 1.3245359752374433, -0.188306612177672, 0.6643621183028378, -0.029654525336962608, -0.22037425965992405, 0.1346485184456984, 0.05564412765136653, -0.5454589635616259, 0.18220395382633642, -0.46681118208522987, -0.1328329737933442, 0.38784630206168497, -0.08379357368066263, 0.15248714957023995, -0.520398187033985, -0.00965906176423976, 0.3941875161981795, 0.19612841696274416, -0.7571760144404951, 0.22292078035008817, 0.3478220483879576, 0.17732564534582812, -0.029016847160767065, -0.05655869418106019, 0.12019034595915525, -0.041805190390077754, 0.262020139253728, 0.13678171779085432, 0.13070860630472392, -0.6653903289933772, 0.11732681418224661, 0.031073417906350115, -0.0016430952311861538, -0.2554998867546939, -0.1870835085666413, -0.433194309440669, -0.2756978219796678, -0.10906095897293057, 0.156178673836919, 0.3069089951176487, -0.08060983750650232, 0.058303507950551066, 0.5838003703674973, -0.12920960718656932, 0.016586042305668403, -0.5307496382984418, -0.05292159709190589, -0.5803504687301743, 0.24559020452250668, -0.7070543500254555, 0.011058840816294416, 0.6653915994414139, -0.28426890349229067, 0.0362860095953384, -0.05632821345950427, -0.015917053452588783, 0.3887193065697268, -0.20060352481503899, 0.42416128678648096, 0.07908303457951404, -0.19935841294421924, -0.311011617801812, 0.40263577394473044, -0.12101029489121091, -0.175075283938113, -0.2829535560315814, 0.6203450766090802, 0.4557471665143377, 0.24058432397238663, 0.2075677004539809, 0.1885792976472204, -0.03054000692637161, 0.10968680250474841, 1.2235228369582378, -0.145222388937536, 0.21340350274263975, -0.5813401763850311, -0.03461224677220489, -0.03910725147772958, 0.26309920329482844, 0.5068450372893413, 0.5333396828971233, 0.0001496544392561074, 0.1934309926020084, -0.15639785792299665, -0.34265132492405637, -0.21420329293969065, -0.03176488768005343, 0.030677805880257352, -0.032167388886908885, -0.04528268903271421, -0.06619179098536195, -0.2287119742445858, -0.4645972461186589, -0.14237061588289213, -0.038579793748980934, -0.012679213724994903, 0.03327726257200921, -0.5354524289451073, 0.17745305306172007, 0.4039172143640488, -0.5063483414786276, 0.08414877966610038, 0.03872209619189054, -0.02182948756287919, -0.4202192573525089, -0.009021114643276484, -0.3883123160124521, 0.03174171488140243, -0.16342518400838582, 0.19154916037314862, -0.20363297256062268, 0.13194378863642275, 0.045438517291588945, 0.26938583608915895, -0.1888861363464386, -0.07186816529265062, 0.4369674543296322, 0.009217856710821455, 0.24447482457817385, 0.033644554661733626, 0.1293587472713331, -0.23779634277386036, 0.08876714926007437, -0.31407610271155495, 0.0281947864850449, -0.032827020351571964, 0.16267937996279364, -0.35009650832555333, -0.2737343997337511, -0.09092048266097191, -0.6738434310522766, -0.00019893766458378188, 0.09787735398088784, 0.21527703842872084, 0.1670071967425841, 0.11963661526807823, 0.07184186533823086, 0.4187017273114066, -0.16096071070224754, 0.40661800848999413, 0.44691253492465455, 0.022375225765427005, -0.1982856192939412, 0.10342437655442308, 0.05135816445201344, -0.07152094303586559, 0.5778275868201903, -0.05976801848806519, -0.2638790413258229, 0.05930021288698521, -0.014782448368509647, 0.14430085633522383, 0.15680991875258257, -0.629695659723536, -0.3968575957879213, -0.01645555405750116, -0.324347170559711, 0.43590592880284806, -0.26683048156385203, 0.028296553397137693, -0.5173679819505393], [-0.15448688089267087, -0.27057945880509104, -0.6070432410618126, 0.14700021352718498, 0.1007317989623315, 0.09225326186940203, 0.2634861592592318, 0.5147739395965931, 0.07324790303460713, 0.06542082355236802, -0.25871023221231704, -0.14235282000206007, -0.20233349637666623, 0.46578791789943236, -0.48383583201584224, 0.07648659146630031, -0.25227483312815663, 0.20659254410017888, 0.27702383575275474, -0.13513317321392065, 0.5225788314482364, 0.33939676717277356, -0.15035054074637652, 0.20186310190701198, -0.5470812448802248, 0.7441719148892832, 0.021297738877155276, -0.1628691302037548, -0.00839247200434981, 0.2994881531175084, 0.28715553778354486, 0.6374974869973861, -0.00043457851385731236, 0.47021324485524885, -0.25765805951951315, -0.1750237588357503, -0.3753713558129921, -0.0008890256375954779, -0.17915452703215365, 0.7073564680851879, 0.056611475493180644, 0.02120993978388626, 0.08246834532557151, -0.33921685745582175, -0.08919115248583766, 0.07928558093734339, 0.3133920336750002, 0.03642486380408967, 0.0005575063516205952, -0.2313571625662854, 0.12289946150169884, 0.07673970492752796, -0.20729243958567659, -0.5821583837520143, -0.2707523494395977, -0.1042055315936333, -0.16911754891381592, -0.02630209455160246, 0.07585253942006574, 0.6392988804693281, -0.37429447911042724, -0.29593928396037467, 0.006676314897693297, 0.2666860242889317, -0.1763505632825831, -0.39546435023680065, 0.08164111987507583, 0.09824502141153403, -0.01787035445051535, -0.3771045606085114, 0.15473066245197914, -0.10491348746689255, -0.12520347767562512, 0.11454692628433441, 0.37454708312781754, -0.25989705148401243, -0.33289168305487693, -0.014074388563698208, -0.13175385432453426, -0.27963324140645957, 0.15119830042459942, 0.07713803068624933, -0.06643463979661128, -0.12742811181114605, -0.44758569899944994, 0.11811782718180422, 0.7579133528076247, 0.21868676941427534, 0.15990018962100802, 0.1685487244143257, 0.010312136880506037, 0.030930116219398784, -0.4164589794728069, 0.15512126249334954, 0.08542934995866809, 0.05996007017807146, -0.5998399657906726, 0.1353206795102598, -0.09450255105957102, -0.08877401402237807, 0.280700660288372, -0.039361119941144794, -0.4381053788805363, 0.020427056932238643, -0.1233087121763311, 0.27007773666343915, -0.15846350911960394, 0.8407249417067469, -0.3888276039931582, 0.1651337716940692, -0.18575140247756305, 0.11566764183024551, 0.09292605761837609, -0.07437841040098021, -0.5917880433165239, 0.10786453142629591, 0.21657970069032378, 0.08187810806470276, -0.343297572818836, 0.025863242000923232, 0.5227539285289386, -0.43507354648492774, 0.2742617726912119, 0.09796467657404906, 0.08889947983132006, 0.004276879332064095, 0.35191136972462994, 0.05375466998714912, 0.002241416755407732, -0.2773806145264838, 0.41125989265185114, 0.2856234973906627, -0.055402507093568115, -0.07394200767457873, -0.22780710977777038, -0.10759620125674059, 0.49600403702027784, 0.055732922377023104, -0.06574294005607978, 0.30836396807266864, 0.13716220570748597, -0.10449668900642739, -0.24133862908475356, 0.14031511933259833, 0.2639818989666219, -0.49476649515265525, 0.27825253277389433, 0.32841390220791966, -0.20584117103378663, 0.1367118905335111, 0.17195550270057236, -0.2793331487603253, -0.5075789706301551, 0.03780794771271099, 0.30358551756750224, 0.2565195167391369, 0.17167254169781468, -0.011865835516262715, 0.40928378814722777, -0.049634025997116235, -0.43243676005204384, -0.4900356738916577, -0.16481460778901164, 0.012742787463522883, -0.47336294398903217, -0.18969659556856572, -0.08492846911353391, 0.6691008966767052, -0.46214975546612075, 0.25548068221710446, 0.00028107399130694827, 0.1418724193501445, -0.023802040577341435, 0.25401216626405904, 0.10628272785661173, 0.25637990539385636, 0.4185503821102415, -0.254273367473256, -0.2528655304987954, 0.19162736274454253, -0.11747825027660264, 0.07001341178782114, -0.017714368925074293, -0.34313298379021656, 0.16158076750688205, -0.02264503192140865, -0.31370035693974396, -0.05166724185088679, -0.19506329244485013, 0.6988471751382158, 0.41652976534875, -0.12805828881949033, -0.2578262302625252, -0.5261687594558, -0.05075424649800472, -0.4168621650152223, -0.25593301856475426, 0.18947493702816912, 0.14547473827472654, 0.13581599487745202, -0.15940899019981558, 0.03420151468273123, 0.16984335177864318, 0.06849990527048043, -0.04515661976390053, 0.23478250125716366, 0.05984465830256774, -0.13179719747781804, 0.5525567502352728, 0.04382496207279698, 0.41792826968364327, 0.6919431137303873, 0.09764015216362236, 0.4838210338661303, -0.05782250895851588, -0.1176996863219833, -0.4604072410801528, 0.15852361582048521, -0.6025010847301989, -0.09370104691215189, -0.0003802577557313966, -0.6238586786787395, -0.1396427294193588, -0.01192027211145127, 0.065956790734466, 0.4204311183053203, -0.16592463974762042, 0.13051046197029173, -0.21178047488271629, -0.23082957852632405, 0.08138307363690149, -0.4127690196302299, -0.02164560620491396, 0.016491639499254477, 0.16058181488903225, 0.4415461052421487, 0.05202436245300481, -0.37988367440340826, 0.32418853066968484, 0.049916672995890976, -0.15677789649193838, -0.19313845761292903, -0.31864777778178366, 0.15529298851759474, 0.2562359019231739, -0.5117129028454385, 0.26396265822188514, 0.14784166477372604, 0.0915837210177061, 0.12119567324584041], [-0.5847054694433201, -0.5817648482407024, 0.38344418105563655, -0.651863678194464, -0.04190443246258634, 0.6797668966451124, -0.3379123485460721, 0.8450469684541916, -0.2825681827027203, -0.28296943268106484, 0.29531480660790266, 0.3732254741756528, -0.27425895134659917, -0.01197743010704947, -0.5203822400462521, -0.020206966115553976, -0.42627410474245075, 0.47511734597804617, -0.07418566674934028, -0.06497108099547454, 0.34526507057338657, -0.2907805877106422, -0.3566880444401649, 0.14111789085567467, 0.20328087377663076, -0.4083670091154509, -0.06628206082581072, 0.3192030494233282, -0.5672076004929308, -0.3428106739958881, 0.2929344604237963, 0.32584956102899165, -4.506921099667426e-05, -0.09189177876733638, 0.1696048817317101, -0.45882856981857745, 0.23058512733289466, -7.088632882278282e-05, -0.5851322729751892, 0.1472496901376656, -0.21574057878332686, -0.08520562933583664, -0.6160424636548626, -0.44868978261804315, -0.0033994365647865917, -0.553945105958764, -0.0988128317613298, 0.13313673587388064, 4.9517610660193263e-05, -0.05242074469828672, -0.055708901246846174, 0.006673595486211471, -0.1409905919777516, -0.6941839861202678, -0.21001834644160483, 0.2890365118700449, -0.16809579264055527, 0.08732145653037714, 0.2323307917096283, 0.14900516624515037, -0.22892493634831423, 0.36207783267488153, 0.25930500718498817, 0.02008260950001482, -0.3838672965072282, -0.7809781882599985, -0.3493289942544259, 0.1237599209770844, -0.09523168407822291, 0.43896837045419196, -0.3390982424540041, -0.15104389758099981, -0.17522543912511376, 0.3023520407014939, 0.7590531004010681, 0.3371559430699929, 0.3124935828895781, 0.0803970690075915, 0.4126670264119902, 0.7954349764268953, -0.04768421084693357, 0.0647869244533127, -0.047479592181967914, 0.4655812326176676, -0.03658181238562203, -0.3862607472629387, -0.042470781130297654, 0.06999380492398077, -0.3615759295615309, 0.037545903659453136, -0.22898842262925193, 0.034511391470411094, 0.016816679014666498, 0.4922489039018131, -0.1557193285300401, 0.674292534215704, -0.13303798088589833, 0.34666547901700223, 0.11125237198969401, -0.2044187607437058, -0.08591071956330927, 0.16121923595172435, -0.5197918451889815, -0.1669717279270325, 0.047317978364535766, 0.7475420363843921, 0.0025667481135917955, -0.363751387099586, -0.0743004608099313, -0.19501070564879286, 0.12669639143620087, -0.1931996613835488, -0.24364310165912767, -0.40139831628927175, 0.1206634997649319, -0.32231338951747257, 0.1440074675646944, 0.009397418810723963, 0.007858015825975645, -0.1198104891446301, -0.279542607716362, 0.45132972548319206, -0.975645067422888, -0.5881744992643902, -0.007448614648227651, 0.7426999644833004, 0.047404814655312905, 0.06741753091613105, -0.5526261287446995, 0.5791037211902967, -0.40996324465708883, -0.13264541003091507, -0.013989959780114972, 0.0006925006284517119, 0.391454384964523, -0.5650610435941951, -0.6587751754396468, -0.14143087735467805, 0.06303955155641712, -0.6599429275650482, 0.10093861772935259, -0.7664723393298206, -0.4075843629023316, -0.09523235707567966, -0.573172423617914, -0.5406034251802703, -1.360358552181478, 0.23631340736403506, -0.4276022460302977, 0.3827136092036346, -0.1704210808715335, -0.7669570366135523, -0.2836993663845136, -0.22121058321908968, -0.10849300234001001, 0.027749015672794558, -0.3483043428468904, -0.14283610769745642, 0.12545092055505433, 0.32039103181656675, 0.9469784577266167, 0.0665615337907854, 0.028482609945012304, -0.7029572715231576, 0.0036479998926144033, -0.1477038179542458, 0.4083709648540151, -0.22878670732634612, 0.04519145346400593, -0.308754256386014, 1.794371733731411e-05, -0.3769913597931864, -0.2398711341421741, -0.1736273830374603, -0.1422047400308461, -0.4903820903048287, 0.39612469653238425, -0.44594643058609623, -0.20833106779264202, -0.4201953207314929, -0.1214774341676097, 0.32598557589982785, 0.621793629683639, 0.42613637995277237, 0.5589784068435263, -0.027383795477239715, 0.36263084513666954, 0.4009581316112818, 0.3945389081341147, -0.08055343469176457, 0.22052696169721792, -0.35080829123445323, 0.06385764403303416, -0.047932270459703614, -0.08806494823878268, 0.22973853377857406, -0.024315946837161546, -0.08151783187196168, -0.07015818199258529, 0.38361116130726985, -0.5919073756731231, 0.3395989374287567, -0.018022540172472193, 0.02855549531275372, 0.1940362523644092, -0.5971120578696177, -0.5330587411200928, -0.04497833582901333, -0.3046316973478889, 0.04024984016712683, 0.14875471110542052, 0.8855888158465878, -0.5412013014773627, 0.3006809345172825, 0.12306177540617541, 0.5325926312003743, -0.11070025887507745, -0.22678724853125018, -0.01466123259313162, -0.10722933342690077, -5.366389398607438e-05, 0.13726419552370472, -0.11226375416162969, -0.47377049047568304, -0.3771757322341523, -0.5503341828028205, -0.260570603234754, 0.4870962752959582, -0.2669644504944348, -0.3192690610435302, -0.5689499319179527, -0.05943270060722815, 0.48382902546846335, -0.019089779557061728, 0.13646617753916213, -0.5262128389106151, 0.09314875186612934, -0.3906798531163204, 0.40327915710772205, 0.08487987526066645, 0.16860260807678118, -0.07611636895571187, 0.2254219894497423, 0.35522866573121886, 0.5281525191731719, -0.3362888897094794, -0.2990472013779265, -0.047888220430573225, 0.1210078191307082, -0.14218537208269108], [0.37889359872634626, -0.43480880814124645, -0.09693300085348684, -0.04029678651464972, 0.8472853719151486, 0.8228884416318993, 0.13952928986059351, 0.0073281820340995564, -0.3463337210088937, -0.35506683673984624, 0.3500847596982133, -0.578754661808767, 0.3058530493483479, -0.12520891671887707, -0.10276341085364907, -0.12049068281769809, -0.1546128296576277, 0.4403015964802786, -0.03945951994968118, -0.11930910371016044, -0.6366005810482748, -0.36349269124187605, -0.4036278455565897, 0.33484541766011183, 0.39405190890039155, -0.2735123879776852, -0.3410868428447761, 0.18886377725102452, 0.12240312187751207, 0.5855341967440986, -0.4799391045040583, 0.7224518316406722, -8.597766595544076e-06, -1.0644139565525341, -0.12834128836241812, -0.06856577120808592, -0.15332404522404983, -2.0282546929175702e-05, 0.3090762289413753, 0.5848607526416314, -0.43142761945809927, -0.08678878906811668, 0.2673327529846393, 0.5954565181148577, -0.24390289668797574, 0.057269297661215565, -0.7714024210951328, -0.5202990160261955, 1.6353686702845206e-05, -0.05003927627104894, -0.21246258502261678, 0.34035121722780703, 0.21584975265578388, -0.01224012765018016, -0.06862741112922344, -0.0073865865333048565, 0.07340412066388209, -0.13210595993658006, -0.12463906795201066, -0.07674236715875808, -0.026753999938889588, 0.6066720119707191, -0.08075723053326568, -0.47392433025921704, -0.3857752825358973, 0.2899531180870348, 0.013945854031531165, -0.1980422949039622, -0.024870712329164817, 0.4262611848312176, 0.15285424494256908, 0.057784585702702604, 0.4951598156343921, 0.43790933376853247, -0.3492531925144427, 0.16785944067192415, -0.26053036457172657, -0.35061370496901434, 0.10067571105878652, 0.2999045299749697, 0.3149795284590709, -0.6637020970455079, 0.040603459037521376, 0.06662929547088958, 0.18828741814300826, -0.2771038780841961, -0.2248245160149378, -0.15731791773447232, 0.23469804605889133, 0.14274198007394664, -0.4928907098135887, 0.4117547907942219, 0.4256103194311193, -0.13988751567357824, 0.4940230790637926, 0.1780628168523403, 0.3763853363514772, -0.31920200969239027, -0.3808267487993648, 0.2063613843166183, -0.4007468791697293, -0.4698646771908893, -0.17799723030454884, -0.00645639141185267, 0.28075225367288753, 0.23011600736239016, 0.3196610927014094, 0.019416274041646926, 0.3282896392865202, 0.04474169399273898, -0.10459567323126766, -0.07731920634549314, -0.40958322976201184, 0.122064767081578, -0.322855851199325, 0.4496328143597545, -0.7925411603519451, 0.6857947138179026, 0.6204317081057886, 0.06496164994907187, -0.3772353123418415, -0.1440531036746484, -0.1940594178807474, 0.481612794449482, -0.32856143809491256, 0.584275005954822, -0.0510010511003915, 0.12183759188210853, -0.24823053551434954, -0.7298296883045542, -0.17445303578948643, 0.3134549063293178, 0.45417989063274683, 0.4668446563829188, -0.26205521518135916, 0.5099601946294802, -0.10648693879650636, 0.08219995843444237, -0.42965205794763506, 0.18341541713660922, -0.01474933360513038, -0.4762954207992077, 0.3169798819261526, -0.49906248371498263, 0.3279825034412745, 0.028549683458758846, 0.05410971233792512, -0.4515946518713058, 0.5724488252355819, 0.03337662032324342, -0.5146688386595575, -0.0807233603857158, 0.2033898499175848, -0.10616729937070796, -0.7717384329318947, -0.5960587177720051, 0.03454883596203085, -0.799481957154727, -0.43826717394321263, 0.256576509507978, -0.3884234463874808, -0.3302592544028071, -0.4642156506504405, -0.20774556850845957, 0.021456222946406187, -0.020898403375880406, 0.2617018446829486, 0.09507963087976269, 0.6948493933874618, -0.016249935915568437, 8.718174346553631e-06, 0.9921316491933602, -0.5957727531395023, -0.04673451537804008, 0.035437323746311075, -0.33275961526768144, -0.49911115348659923, 0.026812354141703954, -0.048147530205468754, -0.31353811972567225, -0.3489129618548263, -0.41697880212808325, -0.4319026099281177, -0.49066186608681955, 0.3040246905386945, -0.30523111890471427, 0.3024406860034666, 0.09611737746240653, 0.8288047281758464, -0.09991681708589675, -0.19035433257220594, -0.3439286394801293, -0.1002763632367518, 0.5039509682386425, -0.23522576209759816, 0.07918080572031375, 0.26017451962043764, 0.5475394728246917, -0.3512104762597028, 0.16048005010601707, -0.352685660571256, 0.03558687805354304, -0.35746846421964606, 0.5549638764494762, 0.44808816992296663, 0.29247974405837524, -0.09125786610878603, 0.3923165252198986, 0.18538534981921617, 0.2857480216455086, 0.1565833007618994, 0.2508238582272552, 0.478193153194569, 0.3214490684815704, -0.26842971990064823, 0.10385997996785346, -0.24700039092308093, -0.2761435833411033, -0.4242603384120192, -0.2405162197371971, -6.3231311928508574e-06, -0.21968659815609334, 0.033161914530291166, -0.38381883522593885, -0.041855741679154415, -0.1392056928058868, -0.29754528844622663, -0.6620957339987636, 0.12139099109225303, 0.5240843268305693, -0.44569398523485165, -0.27063205437853805, 0.17228550710465956, 0.4746845008709901, -0.05923872701167887, 0.3212934533053675, -0.4284227859852885, -0.44055721204816034, -0.0691350824575773, 0.13633441097814042, -0.28133222690833964, -0.10733056463241908, -0.09349400366494803, -0.014897533502475677, 0.47476019590512464, 0.22633596729294925, 0.007815207501079138, -0.25854592155966744, -0.041492640191853516, 0.3226804568221856], [0.017128899836644007, 0.0996436176372938, 0.5416427129488972, -0.8812387053815727, 0.5334056469088521, -0.28692121604131726, 0.19947122554563926, -0.37476869730071405, 0.18030742236782715, -0.03164910351500452, 0.15871008690270086, 0.04709972829501578, 0.3538008002021005, 0.5124204058493091, -0.008246935395299354, -0.06846373854173447, 0.4584418939079437, -0.37637657798395974, 0.136657329404041, -0.3281455861724163, -0.1553801732894631, 0.21546913019439037, -0.11880549553589319, 0.3749648275629288, -0.13238790838999576, 0.2931319535834406, 0.08912757125465609, 0.008411114848792122, 0.5858392564780251, -0.2310493079130598, -0.23169282958967616, -0.30252853116136746, -0.00011358601478212528, -0.3215300956149712, 0.12171282691119883, 0.31428857558427714, 0.13880919406008382, -0.00016910581266997874, 0.6634304075035706, 0.7212080685088422, 0.23621504517236602, 0.15225623856503487, -0.4393568058002474, 0.39306443044387646, -0.17034530375382448, -0.025475126651004328, -0.2983396447841927, -0.19359829397683556, 0.00013827283401568238, 0.2776796619285999, -0.7458851392044571, -0.2193643474705081, 0.08352629400828776, 0.7160297994908976, -0.04073326782900048, -0.07148990854686295, -0.056006334131978405, -0.26363562155890913, -0.17738899531206587, -0.42428663125720645, 0.2411697335254925, -0.13657021652449963, 0.48353975836623725, 0.3393011208392707, -0.0393533641510622, 0.5681899599579447, 0.17396923190287641, -0.5177625973431736, -0.09671134249522692, 0.28575434930345156, -0.47071934438568835, 0.060243120187579796, 0.3734997417796504, 0.2910966066775127, 0.017302333225874322, -0.07823224570890937, -0.32315216046527107, -0.009753050130186068, -0.04173442783359724, -0.06353099770676852, -0.0943516771917659, -0.0925198403337074, 0.18145146676767468, -0.66811657770023, -0.14233762723504778, -0.001505054167467466, -0.29960425379396916, -0.12956821500274526, -0.007400659741424758, -0.3695300785565914, 0.15877041144735232, 0.9097460368989094, 0.2557628593556915, -0.4065241088330652, 0.002624909596834516, -0.15617037595412056, 0.4948220555220773, -0.12570494204151433, -0.17097260580095544, -0.2987413659781379, 0.1335512994722392, -0.1369403588985306, -0.003584269029651802, 0.01653126164666202, 0.9021231124414241, 0.2023274510520959, 0.037898590353034556, 0.28552946963481274, -0.08313608561890969, -0.450994074533633, -0.0013070090203007726, -0.15087168047143582, -0.4803770877918888, 0.07923329282714335, 0.42472366642939074, 0.26158700851851563, 0.13988253790263017, 0.12171359298594177, -0.25113098257182, -0.1869012983668529, -0.4223795835344083, 0.28680296589274934, -0.23373468115989696, -0.26585794333355794, 0.14383486631145237, -0.5000603229423952, 0.15194715677487075, -0.151974413297074, -0.13266052278875248, -0.23678968604944622, 0.3027342084500098, 0.4747013537972763, -0.22084722305905688, -0.09675165600603651, 0.3833170779112268, 0.03453957617235575, 0.6971051812203387, 0.23410944327745548, 0.2882950902068801, 0.295249461442936, -0.08221790497142666, -0.18128752337851567, 0.1671187241478659, 0.1636803027385086, 0.16977961265539515, 0.28509449432445017, 0.41667605157002363, 0.013468803013329178, -0.025397902239161326, -0.38441468614013735, 0.27539640898801643, 0.05288422907722807, 0.14488448759113648, -0.18038103596259453, -0.15875087069660795, 0.28841590631533937, 0.09692997477064087, -0.22827305790913435, 0.7081810444262672, -0.05377232063705762, -0.9499679818308048, -0.12712069619620403, -0.15578502165920957, -0.0821747625795651, -0.18318299762276355, -0.17565144681813552, 0.30970025481595015, -0.1235503181423416, -0.1671874897096801, 0.6104270869325006, 8.296709632008551e-05, -0.08656825652681706, -0.16208585358147404, -0.05118528572513165, 0.27823088327335993, 0.10525432076816942, 0.3998509727210158, 0.04251835536601184, -0.44903763357406684, 0.40516779576602424, 0.5540243413908779, -0.24115588915162756, -0.40749225209364554, 0.3353809623879736, 0.16676183946758133, 0.6264064769692345, -0.34165741684744166, -0.033908952464666936, 0.31830920462686946, 0.1329179293553883, -0.40734758854740405, 0.09327717239566524, -0.16424376605135702, -0.06347210936746288, 0.10242016860972925, -0.10470279930634328, 0.041828725142017076, -0.08694265209030082, -0.30159751922907424, 0.6514473319421616, 0.32405765665696734, 0.31073164486732513, -0.20658394066400715, 0.2617342921203722, -0.07189268781983325, 0.4725558542582927, -0.2772887654196867, 0.3135379582207515, -0.1170230825254867, 0.30795098385435127, -0.007823863170769765, 0.43461768432698533, -0.5159437939126812, -0.04445820710743344, -0.6640541143251327, -0.07738532604519711, -0.5868852402295486, -0.09590083979648567, 0.367608584923052, -0.002038480536062515, -0.0001119305070231175, -0.12091489001176081, 0.1484538840962238, 0.3211132066390029, -0.09786851025689566, 0.12425392443300173, 0.12239789687001307, -0.10437825698217952, -0.07836610428884914, 0.3057015656310073, -0.29500988148535245, 0.3428754557876937, -0.3736758035771802, -0.2789593305252057, -0.5170171193888677, 0.2354887262512221, -0.9120033601698521, -0.18735716486896833, 0.3303260352605011, -0.039597747291006534, -0.25865046445709877, 0.08807723608553865, -0.6386669014414637, -0.16709489143272768, -0.1526745416749042, 0.30059976595667276, -0.2431492354349684, 0.38885638099263103, 0.33848846711334013, -0.5166303654084168], [0.1031716260335359, 0.337973968993401, 0.029320908473045693, 0.21971332814221528, -0.29160656366829657, -0.42123045173296153, 0.14859837383785118, -0.28647367351536496, 0.09622185068876121, 0.7128123008765976, 0.3112636867540274, 0.5039769470733136, -0.24754937386449147, -0.13322454777799767, -0.6319358571740871, -0.0829478400320875, 0.7455477918497326, -0.2500341131969126, 0.15140520222497073, 0.24354076230726812, 0.03984236829912968, 0.29325063240744986, -0.7052229248270991, 0.2950865857588068, -0.16102059637702926, 0.6695030264539729, -0.12744458177950957, -0.4816690017392316, -0.28384852909685837, 0.5984374640455723, -0.22969982120070456, 0.15921698937049134, -0.0003851958749901161, -0.1208565793243368, 0.27619876460746984, -0.15594949481767897, -0.34546829253566763, -0.0007459709400063542, 0.37564567157097006, 0.3227401448366428, -0.02599402831637232, 0.31955219198258655, 0.3061831249955557, 0.7740890762746221, -0.10829779756148049, -0.45457033498695854, 0.17614442867564267, -0.18548882061638639, 0.00048676715076142275, -0.20219882293141997, 0.14811491222528195, 0.2719153490069851, 0.31637516080762007, -0.33963337243496067, -0.08237335131222319, 0.05148366711536021, -0.20022840488649543, 0.4196868786554145, -0.2316100365842524, 0.3193676100898234, -0.4554926452420124, 0.6213897931871852, 0.27650826756081553, 0.4828155394536665, -0.516429833054953, -0.32994910759465623, -0.036644638385942126, -0.058562537363658136, 0.12344701042922622, -0.08783848169165272, 0.17515243135018202, 0.4149053508527244, -0.1603190098463445, -0.20112458481025575, -0.6845149952265868, 0.1307125071382808, -0.23158593215835907, 0.15996625208820103, -0.09535782733213931, -0.41573936306778575, -0.28330680345475145, -0.524505047996511, 0.19244985767918582, -0.015676222454797065, -0.1035245024336497, 0.5137614001355857, -0.3171349697456897, 0.27677143997696263, -0.4501909898990604, 0.5881811955096828, 0.5906061841044984, 0.31801196064204124, 0.6053351617919477, -0.5084257053203597, 0.09668699337553958, -0.47441071657399936, 0.2536302898336614, 0.05325062443762008, -0.23024718605359426, 0.6020684786356421, -0.06540096748122358, 0.79261151369486, 0.11563558292501118, 0.05862039851106604, -0.4037975866270822, 0.10230197943905245, -0.008611800111196161, -0.11071493103877014, -0.35720856213215096, -0.023059904489405, -0.34894728547989756, 0.049817523568686704, -0.3648605543667565, 0.052863121383394766, 0.16684604195032565, 0.10482777113607501, -0.4683513896490398, 0.2519498099793346, -0.23197565513988122, 0.7536129383589666, -0.13760852819433053, -0.088563644554181, -0.4669099026399915, -0.17521263309132631, 0.31166166638592857, -0.08842876704713488, -0.04898380767217471, -0.39390370831539573, -0.23850707798457638, -0.8181417735173728, 0.13092252626285567, -0.289827753627045, 0.5419284795294393, 0.08398539223460058, 0.024524896701110212, -0.4870017411186594, -0.2374394781224832, -0.04746384481022698, 0.38063354366419216, -0.14703474917827564, -0.19723339338543092, 0.12449212411181329, 0.18720011152951108, -0.020563760131101852, -0.22354619830124162, 0.0998517989106863, -0.2732329713948244, -0.09006812712471117, 0.33988391131605084, -0.3822325964464778, -0.027075036105534418, 0.034861612988166084, 0.17868820873531963, 0.4231230828506577, -0.005776287675571711, 0.3682128375286003, 0.14093348355985721, -0.20804035147412428, -0.261881580536513, -0.3606404554747726, -0.2031344844514837, -0.25266880523087953, 0.23855672269073486, -0.04697702639807549, 0.15394118218205607, -0.16884889655103197, -0.4658403380141219, 0.18431024273769747, 0.2573766468168836, -0.02552316854432931, 0.00025568761028546864, -0.3670504614771306, -0.2915981069528168, -0.3267805884755493, -0.07678008041502467, -0.005953514965963525, 0.7592488045086541, 0.148335494332779, -0.2837037683923787, 0.8372724956708502, -0.03589883323595873, 0.015983356278905948, 0.21288657903059327, 0.5294460258903768, -0.2494717098518878, 0.27102788482354717, -0.3531093786535354, 0.12627279925655832, -0.5095951438690759, -0.4339639586572722, -0.014115349631703368, 0.026489768805987076, 0.18146296271251242, -0.07159864105721675, 