{"bias": [[-0.3413373412445289, 0.09414389106248622, 0.2922550634594486, 0.07860575973043275, -0.36361579523333415, 0.10262973061619794, 0.4072866908701531, 0.34399870705348634, -0.11192414048702883, -0.4141302494291008, -0.810134939280013, -0.4001665737843574, -1.0685660985203476, -1.1135891144934296, 1.3010096584875774, -0.013798893470583553, -0.2728946004818627, -0.8165503849504705, -0.5691522550420063, -0.4336543984915131, -0.22843012831191556, -1.3114636987375297, -0.2820098945186052, 0.13575524977304754, -0.24488400057520493, -0.5203207140416809, 0.7061060137733742, -0.3312646746160063, 0.6595802249938681, -0.057280467671519106, 0.6505620910606982, 0.5142611769058191, -0.11208199214598083, 0.014815193734981122, 0.1833644649099528, -0.7260114908114084, -0.18272503657905498, 1.0871723705801362, 0.814826082318825, -0.6746504727338861, -1.427954805395698, -0.5927176869021539, 1.2608035735508127, 0.6051868600784736, -0.36139190447424585, 0.7616407165112988, -0.2909002478808333, 0.07577784693079055, 0.758030955401946, -0.3156829817715951, -0.5089585038819348, 0.45258145364018243, -1.261363787887931, 0.7652192672974328, -0.6142630053862286, -0.36770280356845886, -0.7427374253892297, -0.40283413151497166, 0.29470650224334466, 0.2951835721097805, 0.3248666798516771, 0.35560266644122257, -0.09804167778390754, 0.8022702677991069, 0.5376089361597156, -0.529201533832534, 0.4171471283994559, -0.13171769418304527, 0.37015128853502394, -0.7080188511230295, -0.20249893724882762, -0.7717586879870181, -0.6392744843806659, 1.0791071033180617, -0.21875815906659887, 0.11369422752691216, 0.8482871938344825, -0.04616030738850687, 1.144629851359737, 0.1281724355680679, 0.21881364682598287, 0.8806771639207666, -0.01424477038007617, -0.33458278180597045, 1.6738611943666273, 0.7628957683907447, 0.14395044536345764, -0.6920561297640812, -0.6779960387829003, 0.869048022079814, -0.10284386437842441, 0.014094418324989524, 0.3548378536729086, 0.3687635857913253, -0.01707542079927891, -0.4368426448868663, -0.7277294914203627, 0.00892662870108477, -0.4069691223772037, 1.2371502495555535], [0.08818046939820962]], "hidden_activation": "tanh", "layers": [100, 1], "output_activation": "logistic", "weights": [[[0.66273000491768, 0.06973408288212701, 0.18727792391323067, 0.055712256542150757, 0.10903774536283098, -0.29339344359211805, 0.3960424132957473, 0.3135963645013672, 0.30845855752663315, -0.1621678518283175, 0.4425530311274049, -0.22474980329086441, 0.5911047392226891, 0.13264508119594717, 0.09529973725926978, -0.07547945348394862, 0.5732278950801525, -0.5592489538918783, 0.2345581014581944, -0.49233746727121713, -0.3315267512345696, 0.17024354156987676, -0.15865041081403125, 0.2174157459583127, -0.7994777317193738, -0.6532986775536198, -0.09679050528442933, 0.0663639925455101, -0.3824807363752104, 0.04769089171276497, 0.01595360946701536, -0.22864125375635455, -0.037251952523222706, 0.06777995554444005, -0.10873245880517142, -0.28212171976962114, -0.13611837422312073, 0.4065460198941711, 0.5081235663951472, 0.28821241586165336, 0.09923309369469126, -0.06580656303287047, 0.18361258937260344, -0.17324888137176453, 0.5759773697093011, -0.5970511076509714, -0.019396420710737973, 0.2533746379142947, 0.15375592982631409, 0.441507006451576, -0.29629283667425865, -0.3420431091443323, 0.4027961077036566, 0.45528148140542535, 0.041631537466752765, -0.23266850222298877, -0.3498756543966533, -0.2712186491970607, -0.10585411954803822, -0.1798059067239382, -0.0378817762820936, 0.11686002032314612, -0.027026965443715526, -0.13436133787892215, 0.26827677214845125, -0.6155091172330134, -0.22018950964121148, -0.3594011634138179, 0.3198570896278581, 0.4281073455416768, 0.467474114568201, 0.09412816367674769, -0.37523348262189976, 0.19605146465448836, 0.2592297837856111, -0.02535767201867919, -0.1994958162705852, -0.43749243170167257, -0.44717243660187517, -0.40089604226627673, -0.502648289274762, -0.051102269032189486, 0.1621533748419442, 0.10228648876825867, 0.3275772693878021, -0.49702588660492664, 0.40128752154551495, 0.02968876417578874, 0.29932699299252563, 0.022745322991133143, -0.3834227324845385, -0.22015948429041288, -0.10318750657600577, 0.17937970312679272, 0.19515013238325796, 0.39955177036633316, -0.19393515193398506, 0.19084082161619179, 0.4628030288188783, 0.2702675541483275], [0.8275988817278456, -0.030155074141944512, 0.07805702907639103, -0.11104689422129942, -0.09067423051907603, 0.4259346635650155, 0.05651893964573496, 0.35583988558458945, -0.1743592080599358, 0.3563391143501485, -0.034781181196536955, -0.24472147510414985, -0.11760335489086318, 0.5363803098049034, -0.09845667857935708, -0.2970656075651934, 0.5119821828032372, -0.4386060063347826, 0.5999879625662109, -0.11487471204109573, -0.7515608075141019, -0.11836023094270248, -0.21342288000453455, -0.43577012197587955, -0.5263515941091355, -0.7712569093095383, -0.3006360229552586, -0.6285683463139183, 1.0024473958324165, 0.06741575569079494, 0.16731102291103633, -0.11656222726627644, 0.10623003328480539, -0.09289723199303121, 0.21383546653382993, -0.007364526903588743, -1.8874039443904278, 0.2713287067969701, 0.06111646981906639, -0.09236779387578428, 0.20134734543423188, 0.2159364570650248, 0.25448473260752746, 0.1842223726627036, 0.557851056413411, -0.040643726821617925, -0.036553284208734375, 0.2811399448479362, 0.24740340217095905, 0.5062320108504101, -0.5623304185788152, -0.17749824280216575, 0.2103284315408305, 0.04453670077089662, 0.145208969346867, -0.0991377283084101, -0.4011908688000693, 0.36073490608116227, 0.3348766987936747, -0.3222673945207238, -0.04905053667269893, -0.2609483049796283, -0.3597256692567144, -0.03984489086033365, -0.2763395827274268, -0.28387904255677515, -0.18749115877639821, -0.05092700557912855, -0.025217548744187926, 0.20955086189992667, 0.5991808172715464, 0.19805466798326676, -0.9271041898559336, 0.008459208395795073, 0.29443739908808886, 0.7848365192925363, -0.3737825724353533, -1.0329119518109606, 0.4454807806023775, 0.25588638465643326, -0.3299791865825573, 0.34720745217289367, 0.9723219470830831, -0.18139732448158866, 0.8661046730149761, -0.29467896324085835, 0.0881590674846877, 0.12823040325588447, -0.22994587146206283, -0.1757494268352825, -0.6835862023280201, 0.12072156867371489, 0.025941103108641762, -0.08510037711612427, 0.25457940211658836, -0.1514841211968483, -0.5116495796093463, 0.3301150986456786, -0.05046301965050424, 0.46699118922275584], [1.058803757516216, -0.11928294859791187, -0.01676338099569696, -0.6436785644894297, -0.34408161519769315, 0.33128025087859053, 0.5898849384343966, 0.09616995051536105, -0.3970427839244435, -0.3901582604260785, -0.47233118670102503, -0.12587095939056825, -0.6940825357323819, 0.5075552907276428, 0.08677927229552847, 0.2506396801372733, 0.1526501038578807, 0.02544211130629745, 0.4281593857312815, -0.30269477283422513, -0.7523800826019637, 0.08690937522170199, 0.14273126537202382, 0.06386855434721188, -0.05350223467834573, -0.631787940357626, -0.7269379261922576, -0.12449204379514224, 0.9995599643771558, 0.6299600073380439, 0.2110840813616097, -0.42281069820700495, -0.12017628809957583, 0.278863459046993, 0.3266076190904412, -0.04407045168124284, -0.42429973463203524, -0.3143207678540182, -0.3812016409709102, -0.862720301103762, 0.5758202521329348, 0.5225011158458831, 0.028637550277586313, 0.23298510447913356, 0.1625445427268488, 0.07334655352377256, 0.6402797818141742, 0.20547668385472703, 0.2347156949475369, 0.36271362739779595, 0.15868860951587538, -0.9876564828102438, 0.12269449718264863, -0.23449619233115512, -0.10336879720655301, -0.1573216517964886, -0.0033583106824693803, 0.05290153465579081, 0.2896650593440115, -0.04937567363680146, -0.2342987428309602, -0.24050241547667062, -0.8344616479529511, 0.6777702945243453, -0.17445714377322227, 0.041796237533049826, -0.3390573970544556, 0.01644007556871588, 0.18825513256816592, 0.04212240632495771, -0.1533590133979713, 0.5978473619195014, -0.09935250688103733, -0.03919306393161016, -0.3199681193022685, 0.3758503057772552, 0.6013553937317424, -0.38365606472628755, 1.6799290706544452, 0.40333929496078746, 0.7984235318768921, 0.6812528794183151, -0.4322193228761777, -0.11055507941124748, 0.8732378110324356, -0.37401541494253254, -0.457968131251822, -0.026401499420759485, 0.10053904162587572, 0.7271862611007823, 0.5705300893630237, -0.3905288954743023, 0.4773815731431001, 0.30520645308005606, -0.08905412521891791, -0.0321024739603756, -0.500777705679187, -0.2541044129215151, -0.24799646922803306, -0.33020057958115734], [0.26982571499424063, -0.02865797847612481, 0.4870387696748135, -1.065296941010326, 0.03300333212832606, -0.9281202245195365, -0.2767196523530557, -0.04618816464640621, -0.9169996216214535, -0.3461763783908243, 0.27100321637722286, 0.006580711423051451, 0.4178586953255709, -0.11726377254639307, -0.04571350577829904, 0.09509375635648207, 0.5656588778496966, -0.12594678611978474, 0.5292903885011091, -0.01886309896808575, -0.021722176264890893, 0.04168022996939064, 0.03349395885488415, 0.35573973905242845, -0.5805220854944695, -1.1040995118194186, 0.42986134707404117, 0.4354392668807388, -0.587375222065111, -0.3581422006256854, 0.22180326841645467, -0.17157588394577827, 0.4475267937070023, -0.00834002998990762, 0.26661588071043213, -0.8162034095950476, 0.23678722014844428, 0.29363729842650754, 0.21228066338382168, -0.24028506957625403, 0.0385116864344818, -0.5746077919348979, 0.13197644888307733, 0.27481862924875755, 0.5637380295487135, 0.5228642564145112, -0.8564703905323806, 0.3658261129757093, -0.07127028720069635, -0.08433266993902427, 0.5669042641382787, -0.45713128260659763, 1.0598310112927218, -0.12403229544210943, -0.04513259125675313, -0.16219974775234597, -0.23959000685684873, 0.1858045250591663, 0.10974405941590006, -0.5981803129136325, -0.782129827984594, 0.5886633820572338, 0.32434343846865304, 0.7114221452431178, 0.13580853827949513, 0.6526768778339971, -0.18321040031918456, 0.17298277022340483, -0.42205900641238747, -0.20053797748239352, -0.6720535469874288, 0.3056443517687319, -0.30887457714765526, -0.004087575717198503, -0.2861721639832983, -0.37532355254572514, -0.12538365912276753, 0.3638833762358798, -0.0672572997552748, -0.08795622053133625, 0.18459883821219283, -0.13492530993770954, -0.3282089164798094, 0.20872408484263866, -0.3323296683379835, 0.38229747343582077, -0.4422490180286882, 0.6931771995924643, -0.019799242678404938, -0.40552316586335624, 0.18222206267280544, 0.6109162999923216, 0.4408292739051212, 0.5452272517395682, -0.4367315345753445, 0.541839405407202, -0.605036262385868, -0.12449529395467063, 0.3218964994873647, -0.07453356000957195], [0.26757101471552086, 0.8035352577711139, -0.021795693642397237, -0.6234657607623993, 0.5212907901234078, -0.43812640850798523, -0.3239499835012044, 0.42266117187909, -0.9919087885465437, -0.5231905301955165, 0.7737402817299907, -0.7376440297280422, -0.7467603091871828, 0.2157474639288424, 0.1467581169021406, 0.13663500227231984, 0.48261018103432707, -0.7326696954181332, -0.23801756724670028, 0.1847053270380055, -0.5744097537107599, -0.7778733957069444, -0.26326313649180233, -0.12672224381144767, -0.4193724190007544, -0.10499680443604437, 0.1044000586391199, -0.10123504847902375, -0.01579717423429063, -0.5119098327833599, 0.1627256753028271, -0.03785640000290017, 0.0005444740701352086, -0.3619545962554084, 0.2643144739770896, -0.022786836880599938, 0.2664879029874322, -0.12296300811251204, -0.7621995414587542, 0.018525449204884865, 0.3633188567895257, -0.33385184363666254, 0.23243617692156124, -0.11990825621111131, 0.28046141722921186, 0.28303145062647234, -0.9062152284445337, 0.2859384217170956, 0.15241518776636345, -0.09884451678183043, 0.15007493711113884, 0.23860419144384365, -0.2070292023689601, -0.29702581921418686, -0.5126427082997308, -0.11737003218108669, 0.16115735790400654, -0.2669530084295654, -0.2513632497712848, -0.023560615479199958, -0.07558305337471725, 0.4270016661417791, 0.07340296538441428, 0.5861412372903285, 0.062354717498008805, 0.3860223460289111, 0.5019287796103687, -0.7939313697774788, -0.7556288386747203, 0.32192352416602343, -0.5878342318764993, 0.024909903332434168, -0.7125833052637125, -0.10218867950588362, 0.5894204947736775, 0.43846681853985026, 0.18246778073132885, -0.3244985126406328, 0.2901632493757002, -0.15187863025754023, -0.15070268288726282, -0.5433465618531222, 0.8006801446211437, -0.23993492633196567, 0.5696023263468564, -0.36450215390613555, 0.0809774423340246, 0.22650728588337762, -0.1205571926416233, 0.42258634710936177, -0.770085140339273, 0.34296290037005933, -0.07875464535195496, 0.1706344373257634, -0.050808781695525704, 0.33433448360432194, 0.2153756475774627, -0.16700978707729472, 0.05285140441475795, -0.5707998175450758], [-0.6152784704489666, 0.35521851844824287, -0.23669904302986053, 0.055025401664017516, -0.11655650889526689, -0.031176434656375644, -0.08761881990475957, -0.3626764652330333, 0.16206199071290428, 0.12476504278547516, 0.06480639893409876, -0.7989751514291653, 0.7292093572294707, 0.1634876077814091, 0.6177248046413489, 0.2396036471469276, 0.7412989328437332, 0.06068377180747786, 0.43828621160284836, -0.12389723370660907, 0.22616862622273548, -0.2588204197676804, 0.7874992640005394, 0.16720847384711507, -0.5713725249206761, 0.22959012608974672, 0.36042174310479025, -0.10154815158203659, -0.6599774406066165, -0.07419033564059285, -0.3345537456046502, 0.273225399095565, 0.5807914840825311, 0.2070307697070188, 0.10580625004887967, -0.280835881434288, -0.2712788154583634, -0.605290080097092, -0.3955287087308944, 0.16088347334056421, 0.25874878566726783, 0.43337895432636836, -0.08225941917690723, 0.07582952809923728, 0.20746138739945622, -0.4383429315879489, 0.02733534889772956, -0.8543106955931221, 0.5204259175272576, -0.20944243998087878, -0.21004751300832786, -0.3888291657328493, 0.42176092485672184, 0.04809486717322031, 0.25457724887939187, 0.23980079867578546, 0.021271978801984226, -0.291650500680749, -0.03524555414728971, 1.0783510019577156, 0.07124645961989738, 0.38688500535126424, -0.3510138814877265, -0.4494428757343533, -0.17522954409558403, 0.15745049365959357, 0.4563245461920096, -0.49525953242633314, 0.5862393763458497, 0.6970978829292114, -0.28541668440379725, -0.251783561520847, -0.6217285847477669, -0.8533960287866915, 0.14122195699816914, -0.1551960209640233, -0.4730077048909077, -0.1695002399660457, -0.30230489446488024, -0.7938664364972313, -0.49566710213531445, 0.28223614325357416, 0.005985628092509354, 0.2908600579729388, 0.4065581386291251, -0.003114367037045522, 0.07370676078313243, -0.3106682594025946, -0.10717472613847855, 0.44252099924887534, -0.3495376008586822, 0.2879613143168798, 0.13105486697750982, -0.2952359694962157, -0.8984791048088379, 0.20995033728233392, 0.1847381167168904, -0.2609195192247257, 1.5775102167190553, -0.7076704611187462], [0.5029684116218095, -0.9580225684351003, -0.49676357357085066, -1.0374209224268203, -0.04537989107396819, -0.7862436557382131, 0.07167677400390327, 0.8091742224038477, -1.0215330307288997, -0.06696626631049041, -0.035678910239115284, -1.035924291675704, -0.8716020597074015, -0.13589613265227068, -0.3911384756608014, -0.013961171391734887, 0.2092475744390379, -0.8706730078953105, -0.7199902236387971, 0.46894686420190196, 0.09140933122612896, -0.3142895020639552, -0.3496274393232112, -0.5872154169698894, -0.5986761202850202, 0.801332214138047, -0.8093312604964826, 0.2158090630754419, -0.15867709787132947, -0.242008269345885, -0.578343486756001, -0.4491300835613544, 1.113939825266855, 0.2753000570460246, 0.06956579714483563, -0.953864491176728, 0.6451975555601688, 0.33073867934900714, -0.36913244071469364, 0.4952243573293477, -0.14024699486246583, -0.774887783388591, -0.05143615025769162, -0.1692139296192114, 0.3760953883050446, -0.04532588707055886, -0.1537010703938245, -0.7357208566015323, 0.45048150960733846, -0.3766771879411902, 0.1044255570131783, 0.24872139393768472, 0.0958206028027048, -0.7920104035036604, 0.7849712744935502, 0.7192277132225035, 0.6423675963567809, 0.43908937217150273, -0.18703836280053832, 0.11423907033031905, 0.05407890280968836, -0.5000665856648897, -0.29313321813416293, 0.33353734953939107, -0.039857047729747616, -0.3969183375948737, 0.44270582439830386, -0.2985928476470188, -1.0582492717307377, -0.5382180202881087, -0.33561363826424795, 0.2703560147129669, 0.2703155494367485, 0.09899313515723115, 0.09933273470005763, 0.056431800162317275, 0.18356842610244142, -0.6547988051050874, 0.3542779179131085, 0.08730063842699295, 0.35558226108884416, 0.026287079844991807, -0.9502413042331621, 0.8144904539047917, -0.008781275488483497, 0.06136212617028773, 0.044387306400859465, -0.3832414537936678, -0.3511098606283792, 0.4253786389311272, -0.8321594841291615, 0.45358567551688944, -0.18253153137535869, 0.41541131723783337, 0.557211257875101, -0.9229462457122567, -0.39003019664788324, 0.25510621622093965, -0.3356443639832773, 0.12660366651094845], [-0.35504261170755697, 0.9205267600283404, -0.7997972072250088, 0.518492489913889, 0.5787416020196837, 0.7725953424698712, 0.6663467210548312, 0.837128763214877, -0.9747310230277327, -0.9495089507973654, -0.0021684156597052834, -1.2099688040504846, 0.20387871053035464, -0.1873582498523554, -0.0980123867715226, 0.3908050067298282, 0.3260834843181913, 0.8518275889029511, 0.31663902339519107, -0.23636472293191724, 0.9208158869957245, 0.25522650904058525, -0.6724425563189681, 0.5205804428356663, 0.39830232966582435, 0.5500461099879077, 0.05631545495154143, 0.09859723264593159, -0.37170798199038835, -0.19885607078267487, 0.48423473977234877, 0.16866387662018786, 0.17677231230578985, 0.3486330844237964, 0.17990230342841546, 0.38332987647822564, -0.5094401242414157, -0.12085321629402399, -0.7328417741504448, -0.5059103898893755, 1.1576980690236152, 0.13444209484751754, -0.3777522731571313, 0.6754156717010416, 0.4557284129043485, -1.1739879126407033, 0.31412043919813465, 1.2407663408762146, 0.27575540170623225, -0.25936150781784456, -0.27304535945343056, 0.5312479817405744, 1.3756133721385617, -0.023833972857847073, 0.2553370902862398, -0.403352975016745, -0.41297408590032625, 0.890872979053234, 0.11569505953792425, -0.05466803497314483, 0.4884395308569448, -0.004476752971679345, 0.5566387020900813, -0.18134270972024175, -0.00137039214790368, -0.4992669524880703, -0.378418507947947, -0.18945744354530986, 0.052595583918772885, -0.1200942035366986, -0.18179424134511654, -0.6785384195375197, 0.7417366658847337, -0.10203606852424392, 0.2475551219289328, 0.2407763185417469, -0.385334137438023, -0.8994650561188594, -0.32670878708981355, -0.004719519907592484, 0.25337396058323625, -0.5394155284913624, 1.0725485227912617, -0.36364126287302867, 0.554726255081068, 0.46020235312640473, 1.0928973724529252, 0.5129764687767552, -0.11114625844608052, 0.8513811384305435, -0.6514516153182291, -0.46457634124246794, -0.5755812792526165, -0.29807850554486703, -0.37787063097510476, 0.21980680962398041, -0.15149686593873873, -0.7127815920785038, 0.3337073707638855, -0.18749164429621282], [0.3074809423995625, -0.014007632343724324, 0.49405754468656005, 0.12083482302328118, 0.1933539106698354, 0.038981617215116005, 0.43312906027497805, 0.04113959516515617, 0.0166198414791478, 0.9915182903160497, 1.1965250574790638, 0.8596523018216795, 0.13233950130251546, -0.16415240791489882, -0.443316709750423, 0.3794676761391844, 0.0846598469483251, 0.064861917444044, 1.273176695594277, 0.39753786024353055, -0.022239824203623734, -0.3738561686229912, -1.1246040732152134, 0.36265017405664435, -0.9298334839285088, -0.15270145869745697, -0.209778286429091, 1.0209849459466633, 0.04529962777990185, -0.471202983924216, -0.9407190245269947, -0.7677958132841103, -0.3657693869185566, 0.41437620536355696, -0.12037403972249341, -0.5577185862604808, -0.034791064336472284, 0.045873935729713926, 0.6550390925331799, 0.23631605543987866, -0.6077097986569707, -0.47286505728463196, 0.3287722127952543, -0.21813592620935415, 1.0478632727487491, 0.2618021031331647, -0.00361257721035831, -0.16461167006962885, -0.2704162380930109, -0.4922151499719572, -0.30004548898442707, 0.6495735004712466, -0.06742487623546284, -0.0888007931872616, -0.6067955338749443, -0.6629134437279973, 0.7407124361771877, 0.14613472402105998, -0.5044776987024631, 0.3090964482641648, 0.679033341001157, 0.15208877766453138, 0.03181382143604138, -0.14736300899247595, -0.13844452246344643, 0.5681717328489482, -0.7802580754282951, 0.6371383535875523, -0.12482935103379204, -0.7557831956670167, -0.04208273629902469, -0.6235922322886834, -0.32581703411012525, 0.5613624255223372, -0.5394414052228185, 0.3383194420415952, -0.26773396715134185, 0.3546557239661655, -0.2816362159549128, 0.4659619538710124, -0.13574816284537597, 0.07367265114939055, -0.16618570623759407, -0.1429503948572376, 0.21719185484685052, 0.8156198071193784, -0.2153236989069727, -0.039611499093637814, -0.45155598570670835, -0.19949430893749778, -0.8422313684082138, -0.11471751562185117, 0.1315242860881509, 0.33098616207063103, 0.21790281263283925, 0.6037181753989717, -0.176032287920195, 0.48130887582111076, 0.1952916373599538, 0.6475630030729692], [0.6191416382936847, -0.4507097019790232, -0.6125073555366851, 0.09686702794375006, 0.5405994424250204, -0.0043746779496364775, 0.45968236480214075, 0.12405929354599377, 0.39709666126887694, -0.21170675934262725, -0.10045357941488497, 0.06762041382938715, -0.5084019697613263, -0.2054964494295252, 0.6147570089050234, 0.09681423629498481, 0.05367160629678313, -0.9897776982564569, 0.6938092178692578, 0.21970506957719527, 0.20217845905381385, -0.6753044954773993, 0.46912886373857354, -0.7743018288012004, 0.401828176592804, 0.4345734338563436, -0.7242552174332448, 0.4094156159444726, 0.05323948600826246, 0.5276262761494518, 0.40341663766069835, -0.5950967624798273, -0.1120991689084515, -0.6515647210189982, 0.4060714937735132, 0.12729459413290245, -0.22137068821238326, -0.6470414739942679, 0.8197483891932202, -0.5370125181525476, 0.23697171611803564, 0.5119774320397248, 0.2356245566047763, 0.07487929617743898, 0.27654766903747585, -0.1312337741753081, -0.6137667368398408, 0.35724035497244083, -0.5220167717335273, 0.4396998608756106, 0.09898562388656204, -0.6586016956658105, -0.3262980297108171, 0.32838884145877073, -0.49614107204617525, -0.6804265261083462, 0.2990840299083485, 0.11389867275754692, -0.3300012374141417, -0.613054737860188, -0.12379712527062636, -0.2924811745549732, 0.0946646471142758, -0.262399963982082, 0.2722213737268158, 0.5295083494251739, 0.3028103106939524, 0.05036827105347809, 0.10703381981531149, -0.7090301630503378, 0.34024092439736825, 0.4735771469996406, 0.480577198575925, -0.4445207357503516, -0.09801538110422899, -0.2767267493258919, 0.4711276126165201, -0.039693748544839674, 0.1782563117222024, -0.6998172398149546, 0.4003978196987665, 0.025188942041778642, 0.016321721865474804, 0.21128412649456096, -0.21035408464317232, 0.8579270360303201, 0.11299461857913148, 0.25877528591597065, -0.47012439693690644, -0.09801783502306316, 0.09803596973028281, -0.0740289366739321, 0.3001792272361449, -0.18071190022169062, 1.05993544801202, -0.03586003007368665, 0.8271489564428746, -0.021989000939155404, -0.048527098233280754, 0.08396320659405042], [0.12976602798954678, 0.056753650690560264, 0.07129237455982758, -0.11364043204870143, -0.19106175074331894, 0.4502215528491532, 0.0901572147583167, -0.2882531398281794, 0.5529463288460295, 0.3468236863018608, 0.12470432372968272, -0.6800152247291676, 0.3211553659782099, -0.8518712517913822, 1.4564495445050836, 0.038100468784956015, 0.3967988817953501, -0.8599818748723864, 0.4068125004620472, 0.6983636765437776, 0.06244775873032716, 0.036242062516884416, 0.31922454876811973, -0.34335061615071755, -0.00024819264718545144, -0.23932683483642725, 0.38113590088156346, -0.924119547646233, 0.024360580784981593, 0.19931810606125863, 1.3182583300524544, 0.768810629263804, -0.6986687500004259, -0.17830204346492978, 0.35120066162996244, -0.10719070629990135, 0.13437954182417974, -0.023611920439986705, 0.30918418745046294, -0.2817377065683144, 0.06796832525579287, 0.33905211319502976, 0.5832657082695749, 0.08122228966410601, 0.34339170106335193, -0.17747818237228907, -0.16303985449523184, -0.02568705269122879, -0.020515304896801104, 0.7966860774110491, -0.36855533782150074, 0.17762308334217683, 0.9480002241697694, -0.6372933911573264, 0.395922998273342, -0.2793595335974659, -0.26837813776020786, 0.6747860602152093, 0.47958460835775557, -0.12412742622331847, -0.7001501080304124, -0.26701089873451234, 0.33110925054385315, 0.007042629485011514, -0.7325504684153374, 0.28246911723579843, -0.17772340597247363, -0.04751848644739066, 1.1713388871906207, 0.011106621103900559, 0.21181838174003192, -0.15068237978044047, 0.12018054355266679, -0.04704496491358919, -0.17585126240750715, 0.04291164619511129, 0.1566382030589988, -0.574982076067644, -0.14192299388110619, -0.8215251939028639, -0.7937235047229532, 0.13671084878045797, 0.6904057011993854, -0.5690432932088141, -0.49930376680643657, 0.1441863778073555, 0.11544369409595324, 0.9567348712395815, 0.04943135095096409, -0.3240837121774725, -0.057394722513773914, -0.3367169969468452, 0.34086247798309066, -0.4556484556115708, -0.26232816272533643, -0.327683145823064, -0.4984196771709489, 0.5022063883981505, 1.0202194656805008, 0.2133773005473306], [0.795555851668077, -0.017207578177303114, -0.22364480752141314, 0.3822455368521812, 0.7146219984350236, 0.3019362665673907, 0.0010435267378863205, 0.4968809877765509, 0.10804750739200937, -0.10198952218852436, 0.6469703932068476, -0.481550882081286, 0.04818379033222542, 0.11403376805356456, -0.3826963555935655, 0.6777418746524954, -0.8351036008619144, -0.19254192218388036, 0.772999012956384, 0.13726739083368572, -0.14282335677356922, -0.38812004149163193, -0.5856844572038356, -0.20353550960122144, -0.41589444064958814, -0.32010822775757225, -0.2479228209845879, 0.15496230946138936, 0.4231708261950955, 1.3281789631929253, 0.9336883047239865, -0.07959768814807733, -1.041549632417388, 0.7715278037823502, -0.0768866766461184, 0.5544910011721582, -0.0660584947869492, 0.4421826526988155, -0.8904759016348308, -1.1462821264832463, -0.05496189953798504, 0.8533075397357056, -1.2497847884171545, -0.058455478074579924, 0.1605137773835213, 0.28552389621588076, -1.3778131369694941, -0.007280846167612336, 0.5321495875002312, 0.49018285039391973, 0.002501483662771897, 0.15924592428789044, 0.10459861151550222, -0.9283248553371458, -0.7032284822396805, -0.22487559732025944, -0.6535168938508189, 0.12687133445217574, -0.23085276677430042, 0.7085699397198637, -0.03321066335222413, -0.030734151629278398, 0.9887619145931626, 0.2881363708793008, 0.23215438065440938, -1.0306886647373728, -0.2599434943940752, -0.3471784325782878, -0.7267882250294034, -0.17720405002333298, 0.45180084312394564, 0.05689471041996216, -0.03898173267812247, 0.3351384389666196, 0.42620097845256244, -0.17400052973487778, 0.8163542855380878, -0.2294552942224163, 0.01676459729545153, -0.028885313425358505, 0.18558231137107192, -0.0214639615439307, -0.021670084361229348, 0.3080493108627652, -0.3822644203077164, -0.23899444960847224, 0.20633372816687767, 0.9074309136451467, 0.147428918099789, -0.7094714811155515, 0.924748246100041, -0.2802515417043514, 0.666127271248733, -0.1344858293662337, 0.581427764479613, -0.34413434114253216, 0.5723029402447063, 0.14209020817385334, 0.14800855388424886, 0.02566859091089508], [-0.4353190601679601, -0.5805760891150987, -0.7712615581293764, 0.07218639851164331, -0.010160104908542474, 0.3258728940822657, 0.06061909456111613, 0.06386479237376257, -0.129661141576658, -0.3131301746057714, -0.9871108182938647, -0.26620625543213233, 0.05604311235482203, 1.079741207940392, 0.0073306844090995854, -0.29636413634076114, -0.12083921092074264, -1.1265313821980645, -0.20403998993154907, -0.5743301997868527, -0.4523924373862432, 0.2514271442594811, -0.15092548516029705, 0.07791403245632224, -0.3400139588100685, -0.06679031353149201, -0.12078714870967933, 0.4304233308914015, 0.4383486661719871, 0.03776265516488073, 0.6040787632676614, 0.09025325021508486, -0.7168138932861963, 0.40185462551372797, -0.37653016148033136, 0.45953404908567247, -0.3990849016925255, -0.1376005539865933, -0.5024824760915287, 0.14729809964434964, 0.6795909669394039, 0.0978975475993924, -1.0520348422554213, -0.15669696304974606, 0.3984586391839204, -0.38724167422375283, -0.8961727072823584, 0.40698054360713204, 0.4155463409336583, -0.1485872718529085, 0.47566529120128165, -0.3183955916957421, 0.9874539272877404, -0.125675722057341, 0.3140318000166936, 0.4084430861466457, 0.09364317350925434, -0.22455970262700134, 0.5693928850287453, -0.5102397242345631, 0.023193456541433812, 0.31248049944868594, 0.3062127415092051, -0.4451444387233391, 0.3497932017254636, -0.005825233776748703, 0.3425159691402025, -0.3473668194651937, -0.587760081693224, 0.09337207746386277, 0.2568349218444984, -0.3073090252064823, -1.829983948970461, 0.34497682599664453, -0.13279618319442058, -0.5080170979991248, 0.957961463898884, 0.009363972445315772, -0.4067462842487965, -0.25903768072655636, -0.41646507377450204, -0.3392418689930473, 0.7836373689205771, 0.29863435482610184, -0.3978599337364179, 0.45103274993659453, 0.8096424315941956, 0.5966891692209634, 0.437840840086381, -0.3378129785077681, 0.6802649278932845, 0.3705085447983197, -0.27180680142849595, 0.6479170836351477, -0.6951721989166049, -0.3171637622988607, -0.10775522573226118, 0.25335902243913777, 0.8695275528262577, -0.2751849314978801], [-0.10224996633723604, -0.3758884568335332, -0.05563055334900257, -0.6199586083471794, -0.08107098062995811, -0.15646253620586825, 0.08386145774295184, -0.2257809558426217, -0.5176846237717438, 0.04224558946726007, 0.21256335632526666, -0.35557189490636976, 0.07524892387545108, -0.44060788381873006, -0.19373073629741522, 0.8633576506569453, 0.013284656826762158, -0.566740820143541, -0.508204418563713, -0.30723248470016845, 0.11356524047992866, -0.011020600942546836, -0.6855194369492013, 0.5809331694621178, 0.9349167377212126, 0.6005828174078649, 0.8023638421565022, 0.4985400737586328, 0.31155854121295706, -0.017149144413837494, 0.0999530697628457, 0.3717128884585347, -0.3778945719880472, -0.41613166658065864, 0.44188236642884926, -0.2562196952572594, -0.2711512439037689, 0.1411213147027932, 0.7720211130199991, 0.8792460976390584, 0.35463277198623216, 0.1770825021131666, -0.5361069038259535, 0.1293330113517274, 0.5674907776230508, -0.09840851333670578, -0.1673797504187521, 0.29584474063383387, 0.2610705748047768, -0.6125941081247782, -0.3311880799527947, 0.17403677308371773, -0.08278012787876718, 0.13822590387152345, -0.17581104343356294, 0.037529634422501436, -1.806622217134602, -0.29859767170577983, -0.09882643546408627, -0.11023513359827763, 0.45813794657723944, 0.32427015702634887, 0.09774986165829291, 0.08447027794790576, -0.06716125749399433, 0.06590234302349637, 0.6265366706647207, 0.2522232681957038, 0.42817516154040314, -0.2517008992948681, -0.1878123062126029, 0.6840828488476194, 0.5906596000835171, -0.04449841390102789, 0.7314303798822485, -0.46574195411954, -0.05735618346899853, 0.195511339437701, -0.40047445480740573, 0.2572024225698297, -1.6683051996199705, -1.3078692550795308, -1.021093559853514, 1.1038321945632354, -0.26791658561053205, -0.22880563553087832, -0.3028255694902637, 0.10020762505182866, 0.4437334609931176, 0.4967430012790459, -0.1722294514158301, -0.4979562404172051, 0.12399333842308649, 0.5876932896515284, -0.6978816032647531, 0.1289587229545942, -0.1079168444361865, 0.6440967648734303, 0.2723371041210457, 0.19571794015233937], [0.42218003242864227, -0.07116137850058762, 0.054075426199842735, -0.35684067327783886, -0.8807355236004548, 0.49922109516806823, -0.701241980894379, -0.2804738427154195, -0.39731470032775407, 0.2239777221866801, -0.439393288852106, -0.4319478908339629, -0.03889196688811023, 0.3862050311625011, -0.40748433293377745, 1.0082571069413466, -0.3695511218749149, 0.5134049014722963, -0.04525299991342769, 0.20758937088579685, -0.0011910452435772224, 0.38320849406902047, 0.2815826962236159, -0.6961166873704802, -0.8335290553467907, -0.35029361804841996, -0.20797328420067607, 0.45521703432876864, -0.25672443957925095, -0.15430644520973946, -0.1549711528199578, -0.07693523487728315, -0.035217930534766836, -0.5221861279130516, 0.9408007926548062, -0.4949427563147663, -0.19893263184958615, 0.0621972722068843, -0.9980883367285607, 0.2594278501784589, -0.30738563075342945, 0.2226843293440249, -0.20123416460733473, 0.6104370827694242, 0.7467383768192716, 0.029830597043864475, -0.10151170891430547, -0.633952231874117, -0.11139956957453355, 0.19023371247240478, -0.4608580762267412, 0.13352208827222367, -0.20675971739459306, -0.06975334542390395, -0.06626805238280109, 1.1391667193109465, 0.22309745882239707, 0.4324787439429756, -0.1400794566706457, 0.6932825534916058, -0.46680311224882765, -0.03537842872779821, 0.02644954090920908, 0.019350981132243716, -0.03815913639349149, 0.2252240122183106, -0.3118791679282261, 0.33067353225168994, 0.1696219336587944, 0.2845780500720004, 0.7611509433339756, -0.6057650311741198, -0.06960512348204789, -0.3962087280322691, -0.0687082503163926, -0.9688400150700983, -0.20774510670632745, -0.2567842063322202, -0.1594893133074492, 0.6398065064765501, 0.24875800364178413, 0.36821091243903575, 0.34013535727358624, -0.43592263068849024, 0.7077089311975989, -0.40773622012514776, 0.2866004134722256, -0.17243389000674927, 0.20669567248662674, -0.06134140352188165, -0.07822446125585583, -1.4471171452609906, 0.2771767110471527, -0.6040445380988448, -0.25055853139764744, 0.14059142807332808, 0.1313526250800112, -0.07932789084197972, -0.8098970496488282, -0.4906264931948915], [0.24540641013498457, 0.13796232977815887, 0.4139636892289753, -0.11344313430526828, 0.22203777520454412, 0.344863312987324, 0.02164553584846658, 0.6898421774775136, -0.5697182709046288, 0.2384174932716908, -0.31056401633846115, -0.09100611250751246, -0.6549954366913082, 0.46675240074882757, 0.4382416691026139, 0.08674945331804032, -0.07919896615679467, -0.13963272597993254, 0.4221650395367089, 0.6386912881382961, 0.058912271843599574, -0.31634739450871807, 0.0921941199251292, -0.27355381258157, -0.2794404823322487, -0.2120653717699055, -0.5172695956052237, 0.3060671290262639, -0.2945390133601678, 0.9388201236458085, 0.9925807554519281, 0.10120668980894235, 0.1070056711502528, 0.1604847312216497, -0.3952147276155204, 0.014412237259370688, 0.028119903831380116, 0.004334923736721047, -0.3817968823051956, -0.6078966450439407, 0.0034906400812107384, 0.09421960526565125, 0.19984603272992063, 0.06581481137002834, -0.08386298020742869, 0.40418974656857326, -0.5201169030714238, -0.13903016037206078, -0.2883796645666699, -0.2680082670410329, -0.9489632320369086, 0.712364793692703, -0.42487643639631967, -0.14572680693746787, -0.2443700612250391, -1.0963616619919447, -0.769913231820758, -0.1848100434987552, -0.2538278914161007, -0.560524604948992, 0.4582351903454926, -0.6917272957872167, -0.06998944380340337, 0.5227389131812004, -0.22027433395851873, -0.35965695294018213, -0.0949217189599011, 0.25177157924448657, -0.559442599721147, -0.1797853412821383, 0.016057081026115198, 0.1858206337371157, -0.6799159105762265, -0.4014971871968511, -0.4643452372537874, 0.09100110152725713, -0.8515676379659023, -0.3854699619331266, 0.09171933170355906, -0.4245305453366157, -0.4066962644945491, 0.6444337344952199, -0.48339017111622423, 0.7561173674321555, -0.24960996448975198, -0.382550326410215, 0.007801161124136065, -0.06491210299954972, 1.032800709316336, 0.060398582303080664, 0.3774916856317655, -0.17381225817293514, -0.5611431659523091, -0.29561207549243934, -0.14807643908313864, 0.043362178210226435, 0.85883791595581, -0.7348246567497558, -0.8173841852371385, -0.23028659522297934], [-0.17232355697145404, 0.17856071561921458, -0.34161905117972496, -0.03020661398530096, -0.16265765696992077, -0.06654791604110114, 0.0713302608699906, 0.049794321095385834, 0.1757958514324009, 0.24767455659787344, 0.3211535800891189, -0.5651466726903583, 0.05881661677176492, 0.30301738069500805, -0.4915180942131122, -0.3380418747937656, 0.3804341750835312, 0.20655787496180736, 0.3974798638097798, -0.06377046713264713, 0.1230830730285602, -0.46408671220501607, -0.1515342454938186, -0.02117112641610817, 0.8096632563574245, 0.26359569891264656, -0.7077632896993467, 0.08367047898772573, 0.008089429729314881, 0.3765237642143041, -0.005814420191162714, -0.2130502959102762, -0.23035642813380933, 0.4121781724825824, 0.32402153985239557, -0.6029758017034043, 0.05813812546602477, -0.2889745958898981, -0.41292308264066535, -0.1471782117230168, -0.6367868858674609, -0.6416719723886105, 0.039253203373275806, 0.028718184487016307, -0.3963775271981733, -0.36641132983277874, -0.7442911762510633, -0.8757365081951552, 0.5819335059934082, -0.16641987079569914, 0.09236178575849699, -0.8548740599517617, 0.14213823275079376, -0.4296365774648914, -0.49933151636660417, -0.07058204484577707, 0.5048540639255263, 0.572761873394705, 0.44205275294815927, -0.5553567601084712, -0.005612615496504792, -0.0774477047565947, -0.10310708903308852, -0.08700296550428756, 0.39153359176684377, -0.03451174766772474, -0.0771788242976019, -0.8132819015235523, -1.0468081669226634, -0.0852484801291172, -0.38337925444312404, 0.33242245415503835, 0.2212674076101909, 0.05299640804910855, 0.29156954637899757, 0.4931137290164685, 1.0753875910496546, -0.1644025091599876, -0.3244422804822871, 0.030807909714008312, 0.15927840954627057, 0.1290006173752651, 0.23145673166745895, -0.17147627844418498, -0.635887254392949, -0.0836514792791927, 0.5215603206489611, -0.1718844565850906, 0.26847104559002377, -0.7172315903294142, 0.748421632113439, -0.12204084034706396, 0.41334450450175847, -0.11354726661044894, -0.4375521498789836, 0.2363862956010994, 0.5505798455017034, 0.33501822117894325, 0.2312746456258824, 0.6496902828768394], [-0.7601433559588875, -0.01909660433033819, -0.33036565661407197, -0.16849432040302165, -0.12280557465916014, -0.035900258845200456, -0.08917270936671966, -0.5484656347216186, -0.4549468359406825, 0.7729454036244756, -0.11885412231679572, 0.23736350008337578, 0.1664091953034434, 0.7979900045730305, 0.6987491767304352, -0.32541486085523463, 0.5765900489541819, -0.4618515877344976, -0.10893237861523991, 0.7438557948491794, 0.21249474950495664, 0.7374105026546516, 0.4088363357599252, 0.30979431888425374, -0.08286359073481174, 0.3687670912346792, -0.14584694721827957, -0.4557353760484819, -0.5727826005490851, 0.015948562143703958, 0.30204957786407355, 0.9139240772499019, 0.17550399519745324, -0.03937915741694771, 0.07281967895930752, 0.008116797337521034, 0.2652727406405434, 0.10708980432349495, 0.002335713975545526, -0.37601411070715746, -0.3339002045567194, 0.09783756240908305, -0.11415931848640884, 0.6294986988736886, -0.08146959964667985, -0.27580831319148147, 0.8058965864836808, -0.23023457360229968, 1.1556824725111194, 0.29918055066601945, -0.8605135218492128, -0.7239584889895516, 0.6200910995145292, -0.07981101251170383, 0.3833488975871705, 0.6714128014742571, -0.6267115247136603, 0.8729122713342814, -0.31493864327948934, -0.4532769414960986, -0.03717217378420188, -0.26345963920275317, -0.1702698623410319, 0.10644544766948803, -0.028637983725241817, 0.3471311312980684, 0.20084721785200918, 0.8193428779521345, 0.19190521322907766, -0.7589371114711798, -0.1895793189700127, -0.6078960388764322, 0.19046623410396993, 0.5290312918440858, -0.6373494972411066, -1.5271333194923367, -0.019105920588053115, -0.013805265675664412, -0.04974788610157577, -0.04922349902298098, 0.1947688316018835, 0.43047461837741774, -0.3292600011113195, 0.016545362256897612, 0.14381244127526996, 0.45776177946657587, 0.21113697077089108, 0.768619576634968, -0.3052663142369433, 0.7223005912386083, -0.2435329320684163, -0.48376081429778645, -0.04575838381951613, 0.07351024747738413, -0.32585790150632865, -0.9402495276794604, 0.3992884451010644, 0.0732233816978082, 0.4011855278507887, 0.40856403540753194], [0.24150781746784875, 0.535347812136555, 0.423080519225031, 0.10130165108579543, -0.06376901298564314, -0.5566343409916702, 0.45196214320699873, 0.35522637696051973, -0.8055024862302751, -0.702953689527697, 0.9762164366469915, 0.30693667336697067, 0.4420238449787288, -0.6368786172290689, -0.5310069871278917, -0.17799313725160978, -0.8324359088046831, 0.3322556338107645, -0.008456753946821195, 0.8084041856522308, -0.008583877488116166, 0.1734647502213915, 0.04716777150363403, -0.5176755332177494, 0.8100260871883865, 0.3573587354410742, -0.3237887586180813, 0.8408806899320576, 1.1000448344150264, -0.4318252114906206, -0.7633547374452095, -0.6300611878039363, -0.2353875695978984, -0.5974892755617253, -0.5852169782885699, -0.1676458941221643, -0.06273538189516739, 0.07688052683773705, -0.030995235960231314, -0.580271172214243, -0.16227169916605486, 0.29594086447619944, 0.49375497768085236, 0.9979553986237433, 0.4523133785489473, 0.6506212069987357, -0.46464260052570044, 0.18110842174425434, -0.2759473709372133, 0.05048854119666776, -0.07554938127469939, 0.036130769384640396, -0.8560969371758472, 0.3642748428673833, 0.37125394135506035, 0.8800691571728091, -0.11683448448170951, -0.06429403458993815, -0.5119016906574317, -0.14751671154597706, -0.4983763066938255, 0.8901091833505933, 0.49181872485594574, -0.38542498887353344, 0.2581118700901241, 0.686431750603585, 0.9056235654083686, 0.9624987568031941, -0.26409796751409115, -0.15955219890942504, -0.349864836505994, 0.0804844025958596, 0.4726640580320911, 0.031894223806185326, 0.25698642098912405, -0.02490386082583485, -0.438294694403178, 0.5968900898671636, 0.11368150403832111, 0.5332674164959832, 0.6500151073227901, -0.10983762248389736, 0.03684672818773034, -0.0035696532436478297, -0.30873427261664166, -0.27504596999119674, -0.0316121440168567, -0.6137722938396002, 0.1301429516912571, 0.1322934709500638, -0.230725491265238, 0.5998492760715831, -0.7327216250257926, -0.18824546317025717, 0.2501938348808182, -0.10748204803277449, 0.9861166636686324, -0.3681804121445004, -1.0184698418911573, -0.2933947258146509], [-0.755171217714397, -0.3347363730623178, -0.7455254962360067, 0.16399185658306656, 0.41972890761848625, 0.6096658266148314, 0.6229776621324218, -0.18326753739153365, 0.5418103568325963, 1.3066673516495173, -0.7372297818601454, 0.1607577597487871, -0.21423834926244933, 0.4870820300184485, 1.3020235384140257, -0.9921879908475455, 0.29196144282340125, -0.035431044672580556, 0.5827750151048061, -0.14135072024463574, 0.6749942128845404, 0.13740236536377648, -0.05202000575351522, -0.5340863388747601, 0.649547879073552, -0.28851396771439436, 0.8539818908807035, 0.002159738184107538, 0.09346229616047239, 0.11770786619542392, 0.6747215454917039, 0.26811286454511624, -0.32769161526802165, 0.10155775556993521, 0.35336126398504014, 0.33150061065636, 1.1547808089153084, -0.6087300060338174, -0.497157818824325, 0.1033799564371023, -0.021948271631962307, -0.011628263535474623, 0.003988462839453261, 0.2542030587182299, 0.5681818726273026, -0.21936797652443144, -0.25350401411369794, 0.4801826326392882, -0.42366517135408494, -0.8432844895275631, -0.6427134856883193, -0.8444308720847218, -0.3772622686338247, 0.42580000276715946, 0.2890522796945693, -0.6998006728641377, 0.001146782594628862, 0.260036433369911, 0.23730859502446383, 0.042842239896217216, 0.6972598403504917, 0.6640265639607937, -0.3108931452309556, -0.6923132463175664, 0.013105733409129497, 0.1866310275173992, -0.4903055939530222, 0.3874624304847768, 0.1726399545215604, 0.2402782668548244, -0.46280254082563055, -0.07287946973528886, -0.7726365964235392, -0.24092730464453713, 0.22624596881917777, -0.15786076224527243, 0.19309080070415513, 0.643624162786404, -0.10010991817792202, -0.4252139184462714, -0.16061886478482953, 0.26214712114091304, 0.10686811917949682, -0.6098562174829264, -0.14558390826588025, 0.6423911040902975, -0.0148646410630448, 0.14094908706410372, 0.01897304234447912, 0.0208403380434533, 0.2715361585068027, -0.28618630489017616, -0.24892094759297667, -0.136714505502286, -0.14574332231348716, -0.2226496648932952, -0.5284651113589722, 1.2224534657690838, 0.8241195830081303, -0.4477304853953389], [0.5331637167310306, -0.05359401844403532, -0.6920975473240316, 0.03037660847626171, 0.23783960329980913, -0.35730222336018685, -0.5744469386440225, 0.16016952798786985, 0.2987848747477838, -0.1808855633950731, 0.5082930965110113, -0.34013332365625076, 0.6150179496591638, -0.43075012698354076, -0.18642690421460872, 0.16922029401358188, -0.4107379134762735, 1.4879502531761117, -0.6624067782386344, 0.4369647024310337, -0.09275448306788239, -0.545621882914032, 0.6902381746477911, -0.2484935042432845, 0.8548984264014761, 0.2882559959924198, 0.19749226748731988, -0.14170958687745072, 0.03123619366893976, 0.06538088175210463, -0.45700336516124107, -0.32703737211094963, -0.4316828882687829, -0.42978792935018806, 0.2781686962620254, 0.08178297244043616, 0.36685752779031117, 0.4713359820433129, -0.1297630552430414, -0.0351133372468961, -0.43884937963600645, 0.43373123370976296, 1.0418189287436386, 0.503151947405939, 0.20730706913028468, 0.29386688346619116, -0.36445729274008143, -0.5420481246424247, 0.42038668846414257, -0.7365090745518302, 0.7197554304534253, 0.07880458011087607, -0.1555345700567984, -0.2871994257629659, 0.06413688997129263, -0.5194686809809401, 0.12906056741870536, 0.11617765935249086, 0.3364449360103985, 0.026693295184340535, 0.3204929949764475, 0.6862368818488026, -0.5452259650074227, -1.0530148601717977, -0.5894696594020402, -0.5053057490478192, 0.1993353826579568, -0.06091860201533731, -0.5825372616147734, -1.355501760185412, -0.06630498868341211, -0.3917966888567159, 0.5695178525897304, 0.3891022521255364, 0.15206547655967925, -0.4591963545797621, 0.3954169415853682, 0.04509952843258984, -0.7019230554940554, 0.13244975877977563, -0.5953740040443987, -0.306587856386935, 0.015811708886980597, 0.5252029315182305, 0.3920317902701228, 0.4138067384400753, 0.3513796099527351, -0.17186973433079794, 0.37442015529955547, -0.28545157624970763, 0.20183593058819388, 0.07307561892701392, 0.5269716385451737, 0.5335141821329134, -0.5182508176514596, -0.20669550942400955, -0.09931088064262798, -0.5301496737478387, 0.09364804020501455, -0.07996497180808065], [-0.4815555846416291, -0.055423566195676705, -0.22410651562948303, 0.5119235603701355, 0.8056574091520604, 0.07279791893447417, -0.22448468906745772, -0.47048908100791326, -0.09559891681335517, 0.7837846237167286, -0.5105627204846691, 0.34873991300351087, 0.6925860702513064, -0.09926754107373047, -0.7541995448013219, -0.48592049226693174, -0.4389767466331727, -0.08288837879202117, -0.7783931754474285, -0.38739311714694463, -0.6308307562083311, -0.2095416491851442, -0.39426212139980327, 0.5528980374160135, -0.5432475673776438, -0.1114670305746787, -0.17390557407872306, 0.14720663943734544, 0.14162853209857415, -0.09670194836647207, -0.4180893298934425, -0.8444531514521251, 0.6338529711205196, 0.8896118802176433, 0.045275148286417266, -0.1005870481478881, 0.19061998987751255, -0.8641416465836851, 1.1564990104391095, 0.6011220260854999, 0.048442515414176525, 0.783906122877047, 0.05892412491881075, 0.05139207515034989, -0.16904938088988483, -0.06256219090180318, -0.23697399624589868, 0.1152446239338238, -0.4968659162548687, -0.003304627588900952, -0.28626217718711366, -0.12148011314261158, -0.0980386932924688, -0.0019203218391891453, -0.26672287846234377, 0.16443278923535382, -0.08859857128151426, 0.24138472857675905, 0.4546495895347003, 0.09627184673078121, 0.08490825157017784, 0.34506575978627974, -0.2631941670386728, 0.027806502450828004, 0.7888047458937484, -0.662212851090398, 0.3609806222545939, -0.13861428019555905, 0.04569506425649067, -1.0816504807152332, -0.5782245261172483, 0.5397947090883344, -0.5005373945825923, -0.13048677645516618, -0.28672597055834276, -0.34440745236925907, 0.6578755830732593, 0.09646276549086688, -0.29881140924691457, 0.3198489579056036, -0.21460789297023783, -0.036693834031983626, 0.554596234875936, 0.12446030862856684, -0.054750364832315324, -0.42921723643591997, 0.09791563888541674, 0.0073093231637331516, 0.04850517098076981, 0.1268017509003103, -0.23524488609411456, 0.2647152962115511, -0.12045807591991925, 0.660235245279941, 0.5698178911766073, -0.9790502464956385, -0.5006043573156502, -0.6711599419263761, 0.7737165115556062, -0.7063528996382882], [0.8851580800929422, -0.7265640874252178, -0.6206192579792271, -0.10680436125157283, 0.08961548639375126, -0.8537429523973522, 0.3374911215474102, 0.09627839733294606, 0.15679606239789062, -0.18826665746015153, -0.22984777629726438, -0.1582336233286459, -0.598044298319447, 0.27737611209136365, -0.012579241019890205, -0.5431353134268486, -0.003974230165427191, 0.3200365389250728, -0.6257806606792858, 0.5963636699244136, -0.22792442722842882, 0.5035116217603915, 0.4884831228767102, -0.9781985291059595, 0.59808608432991, 0.28795172924267654, 0.25137883252183646, -0.42502298302864905, -0.06288051343285736, -0.43170459457952476, 0.049219483162352015, 0.9566313982158302, 0.9131262127857156, 0.09828244519525373, 0.22893000124375115, -0.4749449490382973, 0.24881479485604624, 1.1698666026799152, 0.22481891715619817, -0.4518858740827742, -0.24002590631708887, 0.04046777463802291, 0.3727079498892617, 0.23765651937703497, -0.6914177735874906, -0.15639919658520832, -0.5085855728189274, 0.31621115683859513, 1.0650030168270934, 0.49597104209263, -0.007310718327323428, 0.144836942864837, -0.07845236370842046, -0.03907044053586889, 0.016973219179493598, 0.4425522954616684, -0.11636006854565312, 0.35471828926016397, 0.3895686292517544, 0.07255459024415634, -0.2834499092361331, 0.9217554941662198, 0.37630674949508297, 0.36694163194780127, -0.24828474166876144, -0.4457105099385679, -0.8996706785565028, 0.5740742285532414, -0.45152137270694087, 0.41715415154228896, 0.2105543872053265, -0.5121456356623847, 0.5062554420473692, 0.08627202899628415, -0.3473474585586856, 0.30243060652531706, -0.6951934032101768, -0.5237136441648015, 0.37113414867410516, -0.21114797755856837, -0.037596217839272486, 0.04138587406289922, 0.2138625535844316, 0.7848136546300275, -0.7799528744437787, -0.21346100448902333, 0.2467343238671069, 0.9699003460749279, -0.26542039161650305, -1.0074382635977586, -0.09244945797194123, -0.7620116176161505, 0.1686557023559109, -0.337671849937697, 0.0017709858963862286, -1.1194557695653866, -0.31736311234032466, -0.06044977946908746, -0.2753867505155632, -0.42683264925301156], [-0.4817141967627632, 0.21444182583526883, -0.23508765114991925, 0.03704233340639526, 0.37804968719688836, -0.9033793321493728, -0.07876295156342339, 1.1161629336205001, 0.4600227471810328, -0.2608258235148818, -0.3028527238981782, -0.25670454501935247, -0.15416540267031864, 0.10903310426280834, 0.1915553839820332, 0.6795649776852732, -0.850187046059946, -0.2642100215104378, -0.057854748971602366, 0.4291056367532818, -0.5772558163339235, 0.22431493424879012, 0.2263973888361494, 0.04337893197428521, -0.10225181095583875, 0.03851005985308269, 0.25348616876533786, -0.4614935394970037, -0.1512404324950984, -0.02485741555360083, -0.1660000908056517, 0.4125819376720934, -0.39044076914249526, 0.10771994911628391, -0.10980994036247782, -0.909903190879943, -0.03568307053813812, 0.1941532620918484, -0.17541995141371197, 0.813347834957337, 0.6387006795376801, -0.3328273002896679, 0.6488957367219675, -0.5286017403626223, 0.19735257473366355, 0.015925091713259697, -0.2958504397046268, 0.10204663209045668, 0.7031371858254308, -0.2833327601038726, 0.12603206567686848, 0.07614756185385933, 0.5126849312907817, 0.15528874652491978, 0.5118815354184869, -0.3856767364598964, 0.16408223331128413, -0.2541782553993448, 0.35024749785166426, -0.017742583331215922, 0.4175293801055299, -0.6141427483771469, 0.7170370504647399, 0.41449696075473386, -0.594647747566847, 0.5602400704145658, 0.08663201024064446, -0.7216189016830328, 0.3975770203278773, 0.15644745765729373, 0.1603282107383118, 0.5377256394266188, 0.7587998690455884, 0.05315319517924385, -0.4852104588510926, 0.08643838649107835, -0.5023743603121261, -0.5347040304347329, 0.4209859064404959, -0.5175570655491653, -0.013236100009985206, 0.4405158746828617, -0.3601491162478239, 1.7037479879881408, 0.022820325999055445, 0.491981685419787, 0.3056741518780076, 0.9562876775931844, 0.2082820515996069, 0.2860136158218927, -0.09524176002546865, -0.1558438968901818, 0.7615970301234688, -0.33742387977839833, -0.5099641100279221, 0.6022504873380109, 0.16171748831040345, -0.2629826878369189, 0.06320644001629583, 0.049781116146686184], [-0.13694416689525465, 0.5564471716031494, 0.28880659894928323, -0.05839464488051508, 0.3910118223604369, 0.05528000418578266, -0.6449201631396049, -0.3347145018366571, -0.7476959562616636, 0.3401495487751864, -0.633261931134412, 0.4367689917515435, 0.4922698774800248, 0.1272043122679129, 0.0791776294566875, -0.19801800101597902, 0.0901278116200787, 0.048136778481261855, 0.3424310150734599, -0.08476626928410896, -1.393943915989619, -0.024358151123998466, 0.38166485778245623, 0.18919125855180793, -0.3262769226571596, 0.7395357342707508, 0.7917905001948966, -0.363074385462739, 0.6500117973699913, -0.5471501134392122, 0.3482822324065072, -0.3455226229092015, 0.2738223024768152, -0.4561742607687551, -0.15965858381980247, -0.12142767861846836, -0.41586740098289987, 0.25586491309453896, 0.5480845357300593, 0.10153057276288514, 0.25860564987365, -0.6836258639829472, -0.6063246314210292, -0.7775048681001795, -0.10319222004447115, 0.39580430701062724, -1.244055141848404, -0.7869123999667964, -0.10912216813377341, 0.013416018623181062, -0.2892967779017933, 0.425932390834392, 0.41773547057697424, 0.26646864996462727, 0.16141295828373997, 0.11891918408157785, -1.351159307026936, 0.10294009198397254, -0.029270158780012073, -0.28335234443134305, -0.558133414066618, 0.3968781940202614, 0.6203891128351114, -1.1061213014341653, -0.6213887865985244, 0.1802889663597233, 0.4009639926553908, -0.46844854437105016, -0.43039363450389667, 0.4581298083632406, 0.336189707328924, 0.03522274121985161, -0.17374657028258358, -0.10798750177580457, -0.18699071233570114, 0.39220698421144684, 0.1593605313867725, -0.6072883724120314, 0.12595133350422302, 0.2512581992805894, -0.7133185974429288, 0.39775020394862715, -0.2883767064508469, 0.3492184393430398, -0.6294987142124435, 0.12399643962283037, -0.08296990767063339, 0.41940524256352163, 1.3691457180336863, -0.733857669620348, 0.2728470432363431, -0.7434425644471153, -0.7716407637034514, 1.0008675430391012, -0.35420422127957973, 0.3986028198539161, -0.1611433689107472, 0.6398219804943228, -0.022634004352340364, -0.33724629295427383], [-0.1498852659542785, -0.5194132618174235, -0.6894616894168606, 0.6163597668290176, 0.337150907849024, -0.0988325401371863, -0.15492709743670097, 0.0766839886597697, -0.12987439813883594, 0.1601375444222711, 0.158630163300293, 0.15223499899779158, -0.15346048170771512, -0.7995030268851953, -0.10668942567397476, -0.6471830052938022, -0.7503454144713603, 0.23468759495422842, 0.5722507536759539, -0.013954391811479505, -0.8314969898810247, 1.0569447376814265, -0.04889912444703005, 0.41504642983782203, 0.5065318475801739, -0.49964393549091146, -0.11182962743688482, 0.2682523391978462, -0.3658137750484374, -0.0027376769966654725, -0.44660573328343567, -0.8260907563717211, -0.10888839662997511, -0.18392518669895, -0.21847827542820503, 0.4860251586389763, 0.17909380348583734, -0.10607933310355422, -0.6916360039962859, -0.11759204610037385, -0.21536445299311896, 0.21950213963827972, -0.16578136932900592, -1.0758944188741886, 0.38285144219907963, 0.7530611132824144, 0.9273011474043024, -0.1303974652245848, 0.4951938387238039, 0.5108309250894465, 0.3669909738440825, 0.5062850987971219, 0.5848193450578049, -0.01596165538224305, 0.6655112621359593, -0.614956783776718, 0.4147482004432852, -0.8303025481205709, 0.5410161877332538, -0.1609973705800433, -0.44626946736197504, 0.3030934259286841, -0.19949604830190024, 0.44593393249244645, -0.5057661936394062, -0.08187280103845493, 0.17656504971900255, -0.151796220497585, -0.41435643040062425, -0.4437393790364287, -0.5865595892677445, 0.30986534692189427, 0.28927198702809725, 0.07136694542759563, 0.34151526331521814, -0.28115799301907507, 0.16196720569706344, -0.16813604738966142, -0.13995528236834964, -0.3811473634330992, 0.6611200120975652, 0.17261144889663976, -0.06850449713252406, -0.33983994590250594, -0.11221333377372802, 0.5964734046140755, 0.874679142386531, 0.5578459621287346, 0.040819042426203475, -0.7123506899341093, -0.2865066788263616, -0.39985120090771525, -0.36163139492818114, 0.021283408331812463, -0.3234208639910435, 0.5210601890743438, -0.2611816975658603, 0.48273148640457236, -0.037527894964912004, 0.35516030779815233], [-0.19054892995084535, 0.028344384325651215, 0.20755309997106552, -0.030284049896775016, 0.03236172187836358, -0.038508758807062275, -0.092981678382939, 0.0863058019089711, 0.4372780920410768, -0.14125964100508964, 0.6717097547211773, -0.1805443547391162, -0.35400464301942824, 0.2518727167214583, 0.29575934817173255, 0.09232422914542943, 0.5754387235301257, -0.018220772554685134, 0.3809757291583154, 0.3129517983849941, 0.008414463792200946, -0.5195877960208871, -0.059246106880609856, -0.22717245496167088, -0.6366717808061482, -0.8619619244353853, 0.18027049031255973, 0.02068403643311511, -0.21998508684979626, -0.10915956624104133, -0.2680653734946652, 0.09651189169492409, -0.19323036686883618, 0.2302195414402542, -0.08305338979549388, -0.1442432306080421, -0.039251076189891945, -0.07671568960976054, -0.09025951870211713, -0.257311948104998, -0.022325437006015112, 0.10670716273732973, 0.3619212465423643, -0.3859656825508744, -0.058483411262457916, -0.36855036043876876, 0.342046076122154, -0.23803269171574262, 0.015680260575544978, 0.37459619612813727, -0.14292747389721547, 0.08988523796029184, -0.02262190209812112, 0.12593765220675127, -0.3585792154171258, -0.07736591164066733, -0.43936684595330333, 0.022671239223028557, -0.0661911018920464, 0.25451348036156507, -0.08232380783044917, 0.04746473080259714, 0.23077391359177407, 0.3129237803303632, 0.21834239176268672, -0.17026062422395813, -0.2009075932120055, -0.372424268445069, -0.006676870812992428, 0.10613736275508487, 0.07172430399767248, 0.3413763145717752, -0.2792663136005842, -0.06050566775527589, 0.9862429592563492, 0.35706949245493846, -0.5200703847305231, -0.10958880088019973, 0.41897155847243167, -0.4736483967476242, -0.76770790764472, -0.6413510724412717, -0.45933530846331855, 0.24808446994218544, 0.43261224776991897, -0.4370645841238192, -0.31919024348116454, -0.12236945357741486, -0.20829380160389696, 0.0015832347704248333, -0.26251799549482, -0.01223723134177526, -0.05475001976769204, 0.026840807921212056, 0.4397263804824086, -0.2161300756889691, 0.1394028562593359, 0.20968894149384906, 0.4923049909680896, -0.10595821798102444], [-0.11805575241707539, 0.13685573921928804, 0.1235439887640288, -0.5254427788464681, -0.7490005185926432, 0.14495558415232046, -0.09842624385882758, 0.3604583051610213, 0.595271756309265, 0.20235870150968052, 0.05123042921927056, 0.2947208847704235, -0.4211385164139981, 0.32186455289957006, 0.21722085171715574, -0.18198814872887834, 0.3072740253612076, -0.1320145015850746, -0.10775285268021176, 0.44053889634162563, 0.03181683617817967, -0.1733231676094559, 0.3994593106512886, 0.024043182937353115, 0.011141008603762034, -0.4921541527070814, 0.08557110684606953, 0.5626260820971644, -0.1264754085265632, 0.025511182994102852, 0.03642164191150337, 0.21927350381096236, -0.1595785592988896, -0.11732687502699761, -0.3554758058498318, 0.5646173523089193, 0.593878178002014, 0.3743768398661775, -0.0029473577754529625, 0.09008789429102107, 0.03598804788509125, -0.2890943983601336, -0.2111036619196092, 0.48527646009207337, 0.35561649358019026, -0.05096904053730236, -0.4203713980898914, -0.5637576125969985, 0.32341204717563937, 0.10985189167848174, 0.32808798911397286, 0.46199300214669375, 0.41763153197140424, 0.26190167294715555, -0.15893425221157087, -0.13591841892743486, -0.2815101466551917, 0.030561901023009617, -0.06489103489673148, -0.419570558818255, -0.3812144508904474, -0.3032086055117845, 0.49256238423249277, 0.7609183925184371, 0.4394514635446388, -0.4958990595167093, 0.19445776197886738, 0.007617565634189487, -0.06184761641226065, 0.10494128421786392, 0.12868192066630482, 0.10334384534158522, -0.340247090765024, 0.6300404973730326, 0.6880633504551449, 0.12380868485688507, -0.06194475754234292, 0.19988743759135139, 0.21370147154799546, -0.21221251509028866, 0.20215262553843868, -0.14423438088908985, 0.31760273053439775, -0.48642121313514397, 0.7012192824710103, 0.20849000738877474, -0.24316261102765738, 0.4087856013215208, 0.3410838262339759, 0.18971897013348252, 0.49311588632841225, -0.390868148993487, 0.4008250446458106, 0.2755119775705893, 0.4103064171973421, 0.3945797385264403, -0.2917325090134481, -0.29989818286448, -0.03405647803765827, 0.055548184599303135], [0.3189588527812825, 0.24483368937250335, 0.41286881880449616, -0.06784992149561814, -0.22006337803533518, -0.3593031257630128, -0.19246211763596588, 0.35712199212915097, 0.34514934495327526, 0.123616252129076, -0.06287844556346417, 0.18799847936643768, 0.38448610971485586, -0.11223117343912323, 0.03658904734952678, -0.18291152401445226, -0.1973835274351354, -0.20089279614184222, -0.2798456680694411, 0.0036784633716950765, -0.2247432570470046, -0.3085507865360889, 0.3086560986337555, -0.13524715087155115, -0.0007135534007080754, -0.5134786210676497, -0.20362385254974338, 0.0711877498803783, -0.010375449771747494, 0.3259595539583176, 0.07508548010514278, 0.4179711530912235, -0.29505498174499306, -0.15123740238619932, -0.03667055830858886, 0.39937839052591295, 0.717558867539218, 0.08283032337619799, -0.12465305060817264, 0.4199369135084336, 0.020140232577881636, -0.2601667846987938, -0.5588699170269148, 0.13412066115579727, 0.2815432448959755, -0.1672788834014605, 0.08208695602429171, -0.3952137463064897, -0.08505310188054391, 0.25048364290527236, -0.03427421761605955, -0.08430737771153198, 0.39204600702968906, -0.11893199561988711, -0.08333870752406382, -0.09376270336085862, 0.11765194722932135, -0.2118359535495398, -0.37496820197917513, -0.27593945092023014, -0.5702740408226886, -0.02356323007072129, 0.44669906828207007, -0.047751091749467484, 0.38567495655755435, -0.44542318265983155, 0.10737368110318471, 0.44399424233551854, 0.3280656436340973, 0.17115131937147182, 0.5451955168519644, -0.2809546484708748, -0.411707601793395, 0.3420262923825675, 0.34832677733113293, 0.20346050598703286, -0.08490987353508374, 0.04625184887129472, 0.07262009923893174, -0.33475535786216365, -0.16186417335097328, 0.02414201119903976, 0.23347407701766093, -0.35787560541369995, -0.08914461790328156, -0.063331058597502, 0.124724692196778, 0.10447273752697142, 0.3236471042681393, -0.26594323708359124, 0.11510796602091777, -0.40683100640521064, -0.04446224569235745, 0.4779371482423602, 0.25087974966661597, 0.24008313284075183, 0.024786158634279725, 0.03869236455132752, 0.14394930385896265, 0.13725748791222192], [-0.6726928981357597, -0.5736892653932919, 0.1306769365566844, -1.9214523368769976, -0.06525355387981625, -0.3972775127697341, 1.0047671642019773, 0.3226083970659507, -0.31826511617529607, 0.3279640602960862, 0.24937900966387136, -0.8736348312242447, 0.36261681228140447, 0.2858800595214208, -0.22520131966660187, 0.3641222404846172, 0.20640137582918427, -0.40998956411828347, -0.7783326676106883, 0.16431714373511694, -0.27995110300002046, 0.11438197202451417, 0.10293767942005465, -0.6560928930888068, -0.16402181275890454, -0.14956112883854172, -0.5304240630055165, 0.31833176925146034, -0.2511562904202416, 0.46159554778030754, 0.20696990850140212, 0.4224944536043859, 0.042958668607049014, -0.8101856621152522, 0.1703971033125289, 0.2355593615713496, -0.050033220875554146, 0.10193689904211133, -0.575540502420068, -0.42365954000916317, -0.3196186348459305, -0.9891088779645497, 0.0699460506992583, 0.1904363959279871, 0.10275270299771876, -0.08392597758863994, -0.3644917209136578, 0.06219416308702261, 0.18339561768375423, 0.03407754060028538, 0.6099649873420787, -0.13602273365267525, 0.1431446544301953, 0.5827393997009873, -0.3373087416304185, 0.026889371628346426, 0.24262369676761153, 0.11398748312280269, 0.1366465694265383, 0.168678483827585, -0.045866885339810884, 1.0563580189636328, 0.1489201856290954, -0.2414803253801347, 0.03377463222412011, 0.3567405799032399, 0.2860626194304034, 0.2584054775627702, -0.12497684346589899, -0.0521938969742903, 0.30926399235171187, -0.10961534444226324, 0.06168177858604945, -0.4130758538717492, -0.07049271209617271, -0.028441883778034246, 0.2035951007553353, -0.26648412424827156, -0.31210013127612024, -1.0088087860016723, 0.06448218933751379, 0.2644211091395921, -0.21238903895591685, -0.5448321837815377, -0.4266400805426385, -0.08965029339245198, 0.22997365514956636, 0.9307474107146431, -0.17910970191755873, -0.02252995554801376, -0.08402391309045043, 0.606893679574113, -0.017415809869741897, 0.3191239314609168, 0.25302607940094873, 0.6954520017729707, 0.05006321480758356, -0.11792067045860416, -0.14269751969336456, -0.14702327508327323], [0.25226109391791, -0.2430584285605494, 0.14556927815167492, -0.47389572878102837, -0.4907899800806048, 0.2773594471855905, -0.41355958463947495, 0.31445756222123744, -0.0194863139956684, -0.11539317890137103, 0.14136877929663386, -0.13048726766026866, 0.04629631295341314, 0.3761420260478447, -0.2781186210836183, 0.10229034305171159, -0.18074477651151677, -0.6558288066214679, -0.3881601848287477, 0.2939875074641793, 0.15061924293849802, 0.38595727737262, 0.23512538505892688, -0.13161290103029882, -0.2981723579719563, 0.14608720058736044, 0.32782640000291197, 0.6194471728889871, -0.9545981991500682, 0.1838171576504856, -0.24395666557729248, -0.06354397919553054, -0.1234336695749444, -0.5967042825263852, -0.3597819782439292, -0.5418619938486242, 0.7663384099794803, 0.4022831208984025, 0.14548763944478277, 0.5203299062285544, -0.38163602960322723, -0.2195719940078281, -0.35146691656612966, -0.2609649969977331, 0.5664879465859469, 0.10934252466426854, -0.013439219723660785, -0.3590460127436014, 0.5136358837546561, 0.43561862274207763, 0.3191666083810888, 0.42257329051166026, 0.33837970286033425, -0.3163269946803392, -0.19973475276910185, -0.3293493928849711, -0.15548921061870463, -0.3111225223276466, 0.38230198870773296, -0.3720277895241181, -0.4740376012022888, -0.2812293827366736, 0.3572189219618254, 0.16925526692285622, 0.3493965340169706, -0.505583600547424, 0.5131818880968576, 0.4123954719361894, -0.48195145877519824, -0.1629362778528652, 0.17276667251916664, -0.4734190611685717, -0.07085850702814844, 0.35395592979020946, 0.5794719218165489, 0.12802768465326755, -0.2548002519362004, -0.5979120330455637, 0.1639850506459226, -0.11135715660188085, 0.17700303948804935, 0.10432505294943636, 0.15520447229973397, -0.3346307261686408, 0.026927227457262656, 0.05436605028586124, 0.1676608891000874, 0.410981475533103, -0.008488131762601053, -0.17985313425429136, 0.017619939600226276, 0.2210165583759498, 0.19787611455056414, 0.3996318577321173, 0.06884446527105167, -0.04978694875684457, 0.0644204884630089, 0.02628535873442851, -0.232217887816352, 0.2768460005018066], [-0.5675010597411244, -0.19257584905830175, -0.07551426692253665, -0.33764112042191285, 0.260267373682527, -0.5989900648156637, 0.018691285979300587, -0.1407644433510317, 0.25053222045883555, -0.17485832369506105, -0.5443300281715161, 0.06357736038618685, -0.18086342652156964, 0.24609404054601877, 0.936067338556446, -1.077012267121259, -0.5673634875613169, -0.534386807768839, 0.01793350777566251, 1.0825275316989276, 0.5886449877956375, 0.2514981319557786, 0.2949140701869407, -0.3997325554740377, -0.11914275461721016, 0.4566337892487901, -0.16038072256736516, 0.1670844444306481, -0.31351281317474516, -0.5361377451180378, 1.451208962678669, 0.5116985079358181, -0.07263243951995034, -0.42139649611463287, 0.12035633490671242, 0.4341383922540307, 0.7375367154321866, -0.2372565364320775, 0.29841804326438126, 0.3212156452537388, 0.16147710156303982, -0.12636106019123983, 0.41819235152580797, -0.29089927282688494, 0.013508852518240992, 0.1709685726369795, -0.0643545644429148, -0.435269770525864, 0.28386089123095715, 0.1982278937431908, 0.528747639484151, 0.34361931665950846, 0.0695142021487219, 0.6503510858902775, 0.317046941739157, 0.3524516897475854, -0.006098595513889008, -0.17958712277180294, 0.40291803593576786, -0.049441475906618244, 1.0212131483057547, 0.027962686598476505, 0.004785242788245936, -0.31501949230108534, -0.47281468750660965, -0.14810813804722806, -0.3390341125220169, 0.11721962432804149, -0.17341821238549224, -0.12511017103735703, -0.1934344935971412, -0.7086709496669643, -0.10697450366673605, -0.3050712240318385, -0.19171190741094565, 0.10616347070607153, -1.0777213186255346, 0.03665288256352796, 0.14789831992527164, -0.4003587665563997, -0.2846851866450247, -0.29950724729410544, 0.43520618794016175, 0.4715301648705715, -0.169952372284629, -0.03281872003856769, -0.28521563303710257, 0.4982437475890493, 0.9109386729402094, -0.12726631317146114, 0.1375203343569974, 0.2999610976559008, -0.2074200996972149, -0.33051510162728537, 0.8564713933491598, -0.14743315312864097, -0.4966650595784668, 0.1095326230724444, 0.0303781956747685, -0.1772815934863282], [0.018873185008215176, -0.2958739201578945, -0.48853946527874664, 0.15695727287326944, 0.0837190456131847, -0.37120988428733376, 0.7379464484183574, 0.2521178557402264, 0.17043012972719057, -0.4187549724350067, -0.24228772156236197, -0.1764955654861794, 0.12351413828752142, -0.08733565240645833, -0.05334973856258847, -0.09937401188222109, -0.35657355676990377, 0.20955980946471658, -0.2206016080776983, 0.028914103611019443, -0.2633652992194657, 0.18995203276232475, 0.33353785122501245, -0.45993469171175844, 0.15864508224078333, 0.01050563370824253, 0.20707462280527672, -0.4007519049342424, 0.1100211992865439, 0.04925395072447657, 0.1441232726393448, -0.5083775511448286, 0.14756303613579352, 0.24052569629520595, 0.09316331373532008, 1.3003680585875608, 0.06096079680158043, -0.12326476907685935, -0.5160376475027398, 0.23226705631231043, 0.08840904181570194, 0.07468071475405222, 0.22001015879897923, -0.2688450117265107, 0.5276806792803626, -0.32419384439257376, -0.06178856246547845, -0.022730734523917915, 0.21249693577006884, -0.14287898884411634, -0.21382753323367287, -0.06363921788445955, 0.20392343154957637, 0.559112686179778, 0.4168698637110872, 0.188170591518963, -0.020207136352558042, 0.3732715774092928, -0.4002567475510019, 0.35542557552998383, 0.3051312886492691, -0.5087902641178197, -0.33969692723609396, -0.031360321760071475, -0.018311257588691572, -0.6613776975865382, 0.26678569217899517, -0.05003823157467645, -0.6552244672621388, -0.2622521725403275, 0.922140236066809, -0.04442885004956023, 0.3833277914120908, 0.07481221414908305, 0.08083530842445119, -0.041459762036433444, 0.5539879958237872, -0.48387454120969275, -0.08405456336225894, 0.6484336368552116, -0.3110134701633573, -0.02299512244682891, -0.44687134326557243, -0.3371817719636548, -0.8068474066783295, -0.44837292581515004, -0.18431293675569255, -0.40843251755077653, -0.12571415072686443, -0.23148824406363488, 0.26736275577147756, 0.199661905519127, -0.33968921156715737, -0.3415358811221157, -0.3520340763928336, -0.41332911261924554, -0.210784490763787, -0.012164211837876566, -0.3868737779971616, -0.14034551271672768], [-0.34659370144217233, -0.3183155704364616, 0.008720526878684248, 0.029313111238781688, 0.37264220211244276, -0.12409797284888391, -0.08444667493319574, -0.42603297824934433, 0.20562843388564264, -0.32705152488026634, 0.5664005668970268, -0.2587522100791705, -1.1373788060736136, -0.3359034270648439, -0.11927257538957578, 0.04999713117581622, 0.113044124947305, -0.03271386090021724, 0.5323879238686807, 0.25972154348581833, -0.38349391375502634, -1.3748793926270013, 0.23059451173329806, 0.16805334498037156, 0.029208975242480704, -0.14584613753014694, 0.1944240666796986, 0.7886909886903419, -0.22219086107674924, -0.42117362661821617, 0.0906056070026429, 0.12310712070717023, -0.38990779149135235, -0.40368641170243347, 0.6160912008447624, -0.05655156062250166, -0.13145905707406821, 0.4847176167966596, 0.2964446665118873, -0.4669281626942247, -0.9517541633485496, 0.28242854656790645, -0.40011286994168677, -0.4671929403325137, -0.07395059537478353, -0.4703896174263069, 0.9948084274446722, -0.06302608115378708, -0.018148448921138555, -0.5316111012878777, -0.30655279498884863, 0.2419721865461168, 0.12222859017925926, -0.01846316750577601, -1.2178460225599836, -0.18148343419287158, -0.003969037473411397, -0.3813419465297251, -0.28261377941471705, 0.22783137282594598, 0.08259827190415586, 0.5706559035725154, 0.2636365811506802, 1.040146342640414, 0.04091820462186131, 0.16575589578903374, 0.594734464704885, 0.3135046264852515, 0.09990353844769224, 0.17396894331145424, -0.05225216268383079, -0.3667841709197151, -0.08168015119484756, 0.43266404862002517, 0.6696564937137557, 0.19023007111694235, -0.23458084790899883, -0.06975482327768205, 0.8283617191310599, -0.19073092842130276, -0.15790955401340434, -1.006934551864375, -0.7251402749685387, 0.6773403633789262, 0.9167503227607466, -0.11297011731685838, -0.8979166505935866, 0.2713573270238653, -0.1713341595497857, 0.6718907066894695, 0.9698976545342813, -0.8398028746689992, -0.008794340697881771, 1.1002924076383627, 0.36366039835380237, -0.04426640043170274, 0.6925853533462517, 0.4147909939718153, 0.24359697403968764, 0.21250146835169736], [-0.0010533927026977691, -0.33890115450188835, 0.03937845940107833, 0.38056834068357753, -0.4543023158966517, 0.3092764934733971, 0.07771673461497099, -0.1202894390381917, 0.09267651754193636, -0.9312538015468668, -0.23240150767199394, -0.3611128317139202, 0.27007577620341283, -0.13165822421065076, -0.22463590649130077, 0.14850310168193256, -0.254989251464173, 0.8485560536890493, 0.405013756027101, -0.08353437335395532, -0.538235838163051, -0.25465753635593646, 0.23340471895922313, 0.06236563559796511, -0.3497082235692886, -0.3749728497315021, -0.13248026642703412, -0.13210812783026474, -0.08774280649053319, 0.4845591983935013, -0.4725487758072811, -0.4386865842536892, 0.20709188113139257, -0.26860265017191165, -0.5865653376275394, 0.41032926157355437, 0.2640224039128123, -0.17791039885126933, -0.5534106957560697, 0.8196679739845124, -0.20684916985758753, -0.04794945680810409, -0.026903548887495268, -0.6079582640993503, 0.4227758977645063, -0.13617185468882784, 0.25508090564090397, 0.30738250519465954, 0.5497505165641248, 0.12489797811935659, 0.04909284784895849, 0.1301995289889491, -0.2345187048269106, -0.31656246700748164, 0.019411461219044433, -0.3678376538672963, 0.10047199451260089, 0.39235208659866555, -0.4818964443596679, 0.23876995542751125, -0.972456870245077, 0.06429004875799414, 0.029275323250505334, 0.48510537167775, 0.19068136704341984, -0.10752926070294327, -0.3438683044097354, -0.0592322737487721, -0.12089261473140554, -0.22963180174378284, -0.3751504425961667, 0.12375993741812329, 0.007072545511385737, -0.1032882718060056, -0.17706371249691452, -0.034237958513354774, 0.3345942847561122, 0.32497724662547267, 0.16697930069583836, -0.06443523297475588, 0.12333225543956369, 0.06591943138077544, 0.01819935419081185, -0.06425357500381018, -0.17239635311135856, -0.22572921238578325, -0.042289888806116685, -0.38344590454194405, 0.531166845432903, 0.026779738353261823, -0.0990007335071116, -0.2825464628719345, 0.2321500288234024, -0.3798636287499477, 0.3813885472315026, 0.06734011035046293, -0.13079119244776247, -0.5112324249246154, 0.40476820772282673, -0.005217108689300591], [-0.21844237611528627, -0.04069096933405303, 0.21144940928534556, 0.285623657325763, 0.3646797696134855, 0.40770698836626806, -0.08230002279757605, 0.18227846323354868, -0.1604926874462984, -0.16337820781293308, -0.11882743428528163, -0.29265469919208903, 0.4962535643713821, -0.21136540517727512, -0.01317138668754641, 0.22103429195945995, -0.23429395409322257, 0.4045457760977332, 0.40816571349349584, 0.11271706808540123, -0.6876983189512317, 0.09112471908035807, 0.057592480974306845, -0.30641086059976086, 0.4845885103672634, -0.7566617320424003, -0.2095937623845076, -0.7996548759291312, 0.08444093259311941, 0.10273094205153033, -0.3795036474313432, -0.1161335679907223, 0.3280324273804231, 0.16643373719177265, 0.016366077193053413, 0.7757185524219536, -0.19068817558587733, -0.209639553424143, -0.12323712672520533, 0.3033703807982246, 0.18319213586952474, 0.3542935236234785, -0.6167663172276028, -0.15107682456151397, 0.4799179259294037, -0.10226882516942215, 0.29825410386527407, -0.07741148179368779, 0.21921120381751796, 0.17660731437971547, 0.15633676668604, -0.035775115938922734, -0.07835494149099258, -0.2705895306592967, 0.3174927364240816, 0.1649002818264907, -0.2146027477442672, -0.04349515064532525, -0.4222167177146701, 0.061693205507075605, -0.47195582640385153, 0.13239593641123598, 0.27158748058417465, -0.21815138840285048, -0.03542510269185802, 0.3127399109248585, -0.13266988930537613, 0.1139032363560431, 0.5374698410866389, 0.3285552264247994, 0.5213704875873941, 0.286628974485277, 0.02571600715926923, 0.277605343584618, -0.037734512045628436, -0.006623835053005085, 0.04349505686984472, 0.008093607436499905, 0.23379512785657605, -0.4538093650873203, 0.03063584116659659, 0.04435165023622828, -0.3425442440112284, 0.23716423350853527, -0.10648664826909653, 0.09562170636293665, 0.10312665287685785, 0.3224632079480447, -0.38852354477750584, 0.2592390332213929, -0.2949438967474919, 0.0038041816004246486, 0.274554677256897, -0.06497761084621156, -0.03221742854190003, -0.34829403660334085, -0.5492000804139755, -0.4126664845694888, 0.5054050979964243, -0.029137563214473056], [-1.2095928283698147, -0.7583476080368434, -0.31110224184381136, -0.27695617841408643, 0.15431804323181733, -0.12650577272583644, 0.6257506770794281, 0.5139928340604513, -0.7140763774855462, 0.44586357625646833, -0.21158496488280026, -0.43612582732105293, -0.26687696386390464, 0.10642802059076063, 0.15927443860287416, 0.22484396091848666, 0.17705769103016436, -0.323728009215811, -0.1317619473147747, -0.05269986675195427, -0.12942128199576466, -0.08922963054495951, -0.10113269214447762, -0.18803325873755183, 0.42899628290615466, 0.6811582717879276, -0.3041097043239508, 0.052147850667241785, -0.08749456329263063, 0.2661187510890198, 0.29030474777899684, -0.059145870952082465, -0.13659409281887044, -0.30874270052669095, 0.35747305126600365, 0.4394435495953073, -0.2532266949414069, -0.29736121263251886, 0.079102140367285, -0.4777039427950919, -0.6513153943758618, -0.6496915223679405, -0.09440613341818004, 0.26395319337181217, -0.7486596884171379, -0.48715264318509244, 0.03127428315236151, 0.20907076717995393, 0.047069632145290315, -0.3825306071567666, 0.48570476896674686, 0.24754272075623124, 0.3239448213255483, 0.2577929365337467, -0.12149590557088003, -0.13231679499552082, 0.012046408279443501, -0.276395015204401, -0.2520024287044048, 0.07794845681447002, 0.3098332592911147, 0.5969027271576725, -0.5928443670765194, 0.44127693011220726, -0.3593960654274359, 0.6227992029825202, -0.2805034310143163, 0.2611473612766118, -0.35762682618574115, -0.5110320538845642, 0.18716729890418773, -0.305389352647247, 0.6688825261358364, -0.238803781843686, -0.0627854752307275, 0.09192424074262358, 0.7808545594943851, -0.8039624261025585, -0.16960333706870387, -1.2355603535444468, -0.5250528861716788, 0.02945101030241057, -0.43450693809224866, -0.4999998362752746, -0.16652070669516245, 0.6899650979554159, 0.06139865334801835, 0.10933021340566597, 0.3050098521285186, 0.278392512092217, 0.349331097090079, 0.1724287444373192, 0.7236244161339395, 0.2840667374470847, 0.3366078677699393, 0.4110943931118699, 0.11659586387103982, -0.1322629731556549, -0.0072909785870886425, -0.06709463533510529], [-0.6053572739792936, -0.2364366660701642, -0.45788936060182406, 0.24255582631989542, 0.3449249062597687, 0.7446354270776103, -0.8430961432037826, -0.44657213155274356, -0.08188154879154846, -1.256782174422978, -0.3388434014197316, -0.5483916429841348, -0.39849027632338974, -0.12150230893443704, -0.18235519252714755, -0.20126954195007318, 0.034984836106021114, 0.5472997246895772, -0.2518929996630298, -0.5551328506718249, -0.44083742999215225, 0.330505939102739, -0.03892241997266031, 0.2036119612655173, -0.4378892829246593, -0.017606272821639755, -0.41922008438559355, 0.02418990958934441, -0.22156166217182355, 0.5799937745819771, -0.1629513357951501, -0.11902604692131395, 0.5301832148330571, -0.773177669692939, -0.21545270307037898, 1.0640986563513373, 0.3432522184986549, -0.34217515313412816, 0.06827210837168475, -0.3503694132082071, -0.3883100696927106, 0.038673745143895995, 0.8482099962250084, -0.4097926203877157, -0.05066596639570642, 0.39999874112200473, -0.15367692972588565, 0.23169244813633408, 0.4283520328336736, 0.1605538066829302, 0.20905781967373138, 0.4614066248918058, -0.877845691152798, -1.2942543432501212, 0.25406975150409183, -0.24773531532955662, -0.17924168237850027, 0.1739400031233489, 0.46238642079006026, -0.040326552971403654, -0.4559835196022051, -0.4969643774110352, -0.8879902075483076, -0.03610660452840785, -0.44590489167061026, 0.36112582514775904, -0.032791573932264104, 0.5915360137530352, -0.3691897768469157, -0.01980017343651156, -0.5739628593456961, -0.2397510487348774, 0.48149948663303915, -0.4734549148198178, 0.5870290606407922, -0.028968594678618537, -0.1282027776848696, -0.16532753141317175, -0.17790905785134742, 0.886926075592619, 0.21136909754143507, -0.1588099188365695, 0.06257299770448785, -0.546102434228621, -0.35096781919522274, -0.13462775374484612, 0.5917036908619082, -0.8698404643728344, -0.2568553955809828, -0.1638296711907039, -0.3053317786944098, 0.3275249888822826, 0.27247391923319103, 0.27150762233105075, -0.06890832645643039, -0.616244395963429, 0.05212699507334683, 0.2814845539558869, -0.6113132006840554, 0.17061655930684302], [0.5256360547875845, 0.015093962794476315, -0.10675715681092995, 0.11685366046477516, 0.7284862368705658, -0.31045245312317, -0.07203675555537299, -0.27950141136493795, -0.0037577472443921416, -0.3200837140199672, -0.041767796874106186, -0.12946501315532954, 0.1584011410845556, 0.6795465707458289, 0.18236079497916602, -0.8854631962829277, -0.5020161437514278, -0.38558292981322073, -0.5863793447051409, 0.45365203422913636, 0.7672658539562817, 0.29312161473136406, -0.19160831028318723, -0.24731569912722115, -0.21171448609039512, 0.3349827726918165, -0.15510490695394552, -0.0657595876807362, -0.09403247210500083, -0.912179796804266, 1.0928250287519883, 0.2194945739004269, 0.321015461624187, -0.5004510366396111, 0.8422240815948735, 0.5037066387811174, 0.7721256006291741, -0.20610795237286372, -0.42724831390291784, 0.4986717422600047, 0.4788960597356397, 0.2599958114222016, 0.7556179361062736, -0.5957488693673784, -0.042986445135569755, -0.005650546299522356, 0.4396485481558985, -0.2415093649305557, 0.4458790855864182, 0.10812203990769884, -0.15183668265385902, 0.6729512861304529, -0.36597165235564405, 0.8394868863632333, 0.3697387202849753, 0.6580610678676225, 0.6714535822099901, -0.08917697161320307, -0.0037231207640832415, 0.13255543724149532, 0.6781529562439601, 0.31725672455446546, -0.2895303795246092, -0.21930732772387448, -0.46451586452447113, 0.2368637025601358, -0.3543043726991698, 0.9261249253601316, -0.10521239613673716, -0.2037929146899179, 0.8501386314101165, -0.8157471076910889, -1.2022137248020466, -0.7749996755332046, -0.6037542692568899, -0.07403787877612494, -0.4526367631702509, -0.05785114614860986, 0.195809269336654, -0.18275083555280908, -0.23177164120382193, 0.1265016485337511, 0.6471317051080652, 0.10551516866148174, 0.19100129041624253, -0.5993330324734685, -0.2687943666286369, 0.33047061365444547, 0.70528430065452, -0.20520838277301484, 0.14634082054908998, -0.09429362457326326, 0.13539206667423054, -0.6936705193956575, 0.9888328109746644, -0.6020472567794826, -0.12876598253738591, -0.051012739599141814, -0.07531359429148872, -1.0014277045114577], [-0.4092227282082036, -0.6089282349441643, 0.03436123330830752, 0.9005479389986316, 0.015438003809602899, -0.015300617984304685, 0.37943386642184407, 0.4781317434981958, 0.36124397035362005, 0.20042894311802664, 0.0720355430070218, 0.25532033049393466, -0.16619680299354841, 0.5428102880648169, 0.04361201239175222, 0.22188329548365326, 0.21353558972864187, 0.5562057534307508, 0.18030557099024655, -0.15380307451300612, -0.08009144183581449, 0.0527406090625035, -0.18465493366319072, -0.4017536949452382, 0.015207908482741733, -0.19003574785755598, 0.3042009979571976, -0.12999830283377162, -0.1257604997195209, -0.02879075120316711, 0.3444054134015879, -0.4434259402314938, 0.1632265343271102, -0.029881006459219397, 0.2925579017341378, 0.6960674389333976, -0.3351980937162214, -0.4021253547851793, 0.06477678746070928, 0.07735142720506646, -0.12566471972988982, 0.03022100390011881, 0.20339378214793893, -0.38943666238293606, 0.4678347240042352, -0.35602702723066737, 0.4125129557042129, -0.03535721520131038, -0.021201100045352365, 0.037618484805650436, -0.35867556817480317, -0.3640975638923454, -0.4446039278108925, 0.38776371604524407, 0.4358978893545932, 0.3783200011240604, 0.12629224881454645, 0.20790000228589287, -1.001210207088972, 0.12387753938629015, 0.7021837146118717, -0.9803003063976716, -0.6469137155090147, -0.05750752025668176, 0.09405161668450059, -0.6517198598166514, 0.49148485832696553, 0.11850165871108799, -0.10218958031165695, -0.29330420794207607, 1.301481476625476, -0.3197223226169484, 0.40376313925322954, 0.17985827305545155, 0.04709909342428887, 0.1057565826524794, 0.3164796939028195, -0.4789972219168166, -0.3511424187103383, 0.15360091718721106, -0.3363411064087391, 0.005635601037690448, -0.3156495617658611, 0.34779662732252015, -0.5759175425150335, -0.41389649654136934, -0.06671036257815365, -0.09681272558747588, -0.9558892390528319, -0.413655231669334, -0.11636481418146499, 0.08920637849875229, -0.13319800989793656, -0.632619465834972, -0.39720631397881623, -0.23198620994411429, -0.3172345570476424, -0.20678557350389506, -0.1490969656646448, 0.09373471950185859], [0.31579394909481745, -0.2940023842579563, -0.02671623294535897, 0.02259899296356049, -0.27054191094221314, -0.16626706261632032, -0.16753277295205143, -0.1326359627010848, -0.05660139221324917, 0.6374328393557599, 0.6251853107976199, 0.4040037649424392, -0.3712848438401248, -0.547747629597876, 0.14143318548972145, 0.36297172383298115, 0.12530514492337683, 0.3880730022414862, -0.6053635123455162, -0.04068030999091299, -0.28639412989286633, 0.48458506824888165, -0.0030888033525734615, -0.4708509253932466, -0.054085204060863916, 0.43704079088398373, 0.5403713268345789, -0.4052417621881173, 0.22436034481921927, 0.41304047286021167, -0.6342131440280634, -0.7743445837889837, 0.5149123283433112, -0.841345186349162, -0.04573300222798372, 0.6314382554317131, -0.30749637505513516, -0.8832817370955115, 0.5274919640716073, 0.8102858070821136, -0.10886142311141431, 0.5388037686013687, 0.1534172470521076, -0.34130668636930866, -0.5731274617274638, -0.4056442234777854, 0.3742003507025762, 0.39806971701448246, 0.3389833711038257, -0.534533225369932, -0.5665150601278438, 0.14582951553899348, -0.7136238098097962, -0.31124609577761303, 0.8208099742563912, 0.4859041332433077, -0.0840175905641821, -0.22295095419414734, 0.260341466663466, 0.5713739350774342, -0.7975813615901304, 0.15084406268625292, 0.2542136270245914, 0.16126827379745498, -0.49188748661523396, 0.02429364286445731, 0.13428259982080348, 0.5782301266897939, -0.07194765356427686, 0.3940186229849128, -0.3144617248782715, 0.5347084257108217, 0.85563283864524, -0.5580553525092987, 0.11772822627753386, -0.04558781280727551, 0.0758651645932344, 0.8871299600681813, -0.12960077521270807, 0.1623984581270889, 0.10343083037348473, -0.12586287702241844, -1.301766668615786, -0.0304177279202025, -0.11190849147790226, -0.36856484954687924, 0.12001336385087547, -0.2038995074683386, 0.2304145592907622, 0.6083140268035011, 0.38824554136947675, 0.504548526251737, -0.32334836985946414, 0.48068929199180177, -0.6955862464622813, 0.4252683892625822, -0.12063114597156702, 0.4947775188786847, -0.5864242808027879, -0.09723459187213394], [-0.06574226209609703, 0.2049776038504615, 0.6515516637077884, -0.3150220726868401, 0.04160519974605129, -0.4043763362542495, 0.31101620601590696, -0.14317869054520457, -0.1692113555445888, 0.2166538270998001, 1.1157758685987107, 0.17934281741034527, 0.3279371183235001, -0.18750273018637903, 0.22425131681746185, 0.36761758227324454, 0.3860260163073026, 0.7265105537617224, -0.913653002616254, -0.29610942797211587, 0.7260676475397325, 0.3242732263183283, 0.7843072504818309, 0.5562735786011967, -0.16423618983034863, 0.10873305029982593, -0.7316129586823841, 0.3346336322302482, 0.1493850284420554, 0.10962153829979769, -0.4507938340568217, 0.47361959564551737, 0.8397747089762923, 0.09816176254202245, -0.04188069915038525, -0.14351078630219238, 0.2845563338558151, -0.15490131800814352, -0.14852157839095323, 1.036741281413959, 0.06648317631873857, 0.038511143283094504, -0.4603734132101597, -0.28212132200658757, -0.025552537213193394, -0.37093582933172264, 0.11220855156318005, -0.28399133347709804, 0.12594344651861744, 0.2642149007437197, -0.3197819823457104, -0.6682661017011309, 0.2710032452068042, -0.076671071273961, -0.05504515660848712, 0.21356624747005037, 0.0408645309215346, 0.04169310711776599, 0.022076623717204105, 0.7480510857442216, 0.25530075133840907, -0.8588347185406071, 0.6577045457255306, -0.10381310892440307, -0.2792000351454561, -0.3681093617262839, 0.11007588284353202, 0.5042872060960343, 0.06276031914647348, -0.6959392005086462, -0.005843961946510301, -0.02669215548358249, 0.646676044859018, -0.10183438005502267, 0.2511448889468236, 0.6788631849968083, 0.026352149841594584, -0.4234577337768508, 0.4097097218601448, 0.18427049993946995, 0.33375564315801554, -0.28400552485309455, -0.14379624927474874, 0.004807575644123184, 0.12397667520497767, -0.2620131100712022, -0.1330386833287455, -0.0067744796525308635, -0.16618849914946807, -0.31855340296412205, -0.07143541756098458, 1.3744605327645232, -0.08280998686092965, 0.46340805932616436, 0.04730218747782309, -0.20721118637794084, 0.19584631446280498, -0.5065764397281276, 0.0584906728282225, 0.08338272133654517]], [[2.0700258714038355], [-1.5096561886368323], [-1.5224042759221668], [-1.903746914685185], [1.4961553266127388], [-1.6764846812260472], [1.304340732336912], [-1.4839756001154907], [-1.889828079352836], [-1.7123651851164527], [-2.109507128150761], [1.3301880888821191], [1.546106078830923], [-1.9477135627367392], [1.539510292362349], [2.108000904347812], [1.5170013179940578], [-1.694621982090619], [-1.7003499646851286], [-1.8042207543525624], [-1.3692870596206987], [1.6618138114604857], [-1.5418880351322508], [1.7806641394476612], [-1.7442052720798251], [1.7145541742135875], [-1.703313366548903], [-1.5992119723742555], [-1.6566440782403895], [1.216059968269137], [1.2511924270483803], [2.0133033082272176], [-1.521531994819611], [-1.300164886296148], [-1.1911673077583678], [-1.5788334432482631], [1.6716607079714414], [1.6874478011148257], [1.7267359611344104], [1.302018487025514], [-1.5117098890636222], [-1.9903086334670024], [2.0273388643010386], [-1.7537602461239379], [1.4904230772671878], [-1.502434648948753], [-2.0294116929612134], [1.6680270642449668], [1.7462192412324924], [1.3860686408805085], [-1.6808266840299493], [-1.5389183986458193], [-1.730982371068478], [1.382226317950093], [1.612060483200385], [-1.788009553668626], [1.8690038987564186], [-1.265788352490371], [-1.4916675539918713], [1.6849041825227928], [1.4485354363428122], [1.3757712235756607], [-1.7815428771279382], [-1.8338291659388097], [1.6329580370379697], [-1.9367424410564242], [1.0591713021644937], [1.5164365427147664], [2.0383586981232007], [1.8895257589396044], [-1.8720271415994651], [-1.3180442065932156], [-1.9963359449152063], [1.597627420434399], [-1.473834278785698], [-1.6355183964222706], [1.8323057621466694], [2.193794368582686], [-1.595182848773856], [1.459665421342642], [2.1587687082043963], [1.8007234096615643], [1.5387007887821451], [1.6939860305731205], [-1.9640757731647844], [-1.5238202147397182], [1.417217008601156], [-1.7787662429357607], [1.517483018522712], [-1.4492070813123876], [1.6867261353971694], [-1.6654467896914793], [-1.3161822928241294], [1.4827877237553706], [2.036039359928074], [1.6429396786868138], [1.5537652314632113], [-1.7500202513842364], [-1.9281588186002836], [1.4241398748843839]]]}