{"bias": [[-0.3365704888740017, 0.7276167595893264, -0.677957670405404, 0.5430182462291127, -0.3016459060651016, -0.41871884489544414, -0.043265978817538756, -0.08412846369378998, -0.0011484556091199095, 0.03857251084995516, -0.00442473811156815, -0.2261403281688903, -0.11366357520043952, 0.36264297362413106, -0.5792565116995289, 0.010798572483491352, -0.20416283335678753, -0.07484725733812896, -0.6125533847072104, -0.4257156214431276, -0.14332814891566711, 0.40296705058276583, -0.2941086325773708, 0.7144688406138956, 0.178614504240647, 0.5197935378632497, -0.6509517393149582, -0.4669478663708999, -0.1069193782150165, 0.061873657996946496, -0.19048611338796262, -0.22742462818864626, -0.18494377691751676, -0.36509905434501194, -0.33227374272335847, -0.5979094106566673, 0.003340360838808506, 0.8511720660315505, -0.3806739392898201, -0.6835725182396676, 0.28829276282953803, -0.015026194558698096, 0.8103614131120993, -0.7029437834345645, 0.4210602363283145, -0.45723852514242136, 0.2458076995168247, 0.6289517865141174, 0.5036835590640456, 0.19745579872053665, -0.023654360592302696, -0.9029534541658449, 0.4330431749292237, 0.17385394680497407, 0.3494253620239726, -0.13826839303384536, -0.6276820758958142, 0.3781928852312517, 0.6625998956595244, 0.12456549618436573, -0.17358463294910875, 0.47863998053330314, -0.22099527084639514, -0.3152831544261524, 0.3396686855678838, 0.4238152719313434, 0.0175216477472753, 0.08291033650661717, -0.3561621705627854, 0.9894786540875579, -0.6135870719790304, 0.006289718254509988, -0.23941846632124508, 0.30335536450980954, -0.2192640829295097, -0.37899322273514285, -0.3926681111784319, 0.004732634358082905, -0.00023453687045026046, -0.4531301749507696, -0.6423727366138878, -0.5309556932753825, -0.42452863430419907, -0.3794421612641565, 0.444968245229864, 0.6615567093999823, 0.4730242747628105, -0.24251451192038337, -0.3065336724432327, 0.26097274747593535, 0.6873438951632584, 0.14195833793532445, 0.8103477944696559, -0.055930210123189335, -0.24428346638347379, -0.06863117528800629, 0.15828471022866666, -0.42099358553037036, -0.9129620930410496, 0.5247555912663252, -0.3231463243657092, -0.21149558937386628, -0.3006080177999273, -0.036164700526082554, 0.754998225334441, 0.9357219154608388, -0.6790781471901368, -0.19845359070296165, -0.1604444895773732, -0.09983485823920352, 0.6302238016939451, 0.6104041897096615, 0.6569240779225064, -0.3190814237165228, 0.5897607366627421, 0.0011005242507349698, -0.28911513027192026, 0.4086227983296275, 0.017289484905026284, -5.5949929375159954e-06, -0.2673197568073495, 0.11475853769953161, -0.29978437643146305, -0.22901224787944066, -0.03249307875076692, 0.03135061823330881, -0.21939856216093234, 0.08966568519784852, 0.5628607813676085, -0.5340454481531677, -0.2068654169918595, 0.013112169185309951, -0.12107906382152554, 0.05992017853871109, 0.09352857157414436, -0.04901777592115153, 2.417991650942593e-05, 0.6078704966027461, -0.32889012558729136, -0.2183157087813334, 0.08051100851213804, 0.5905451070657384, -0.03157309771258819, 0.2063785573590543, -0.1071570004941173, -0.29733251537380484, -0.25660605792970076, -0.31566079053418644, -0.20627393146887887, 0.043220933121241006, 0.6177239373622765, 0.318900525333972, 0.13525905235308272, -0.0610254387309907, -0.7192523941076485, 0.14115671352475784, 0.48212716782622483, 0.05802896410185732, -0.36508258506209385, -0.6662340592123915, -0.1348464124114902, 0.628118086095212, -0.08524562618267587, 0.4865309583310684, -0.612374381170634, 0.6880157609723694, -0.7000156237796575, 0.2598341804116715, 0.21932768858866394, -0.2503887860646827, 0.5009871504994192, 0.04373986960081659, -0.6616880783273746, -0.29199826752218605, -0.4617351841465617, 0.21259391261490101, -0.7014672444094482, -0.1885721393900189, -0.14068521837649303, -0.4972066682459052, 0.25385855539221897, -0.11854299981074298, -0.30159629708877495, 0.8507075033963899, 0.3255059459390484, 0.03352781040285965, 0.09809082786561328, -0.6541470435884092, 0.17301875302216582, 0.6779595770713817, 0.3427092305249888, 0.14284286885982647, 0.4380433965373348, 0.8941452749925695, 1.0408056911552006, -0.08520509114373045, -0.1770292766084788, -0.3111119951868226, -0.4217481842204895, -0.844859391149967], [0.14628996378518214]], "hidden_activation": "tanh", "layers": [200, 1], "output_activation": "logistic", "weights": [[[0.34709502361929107, -0.09711925159727616, 0.1019884730037268, -0.1904275785116132, -0.37543276992780544, 0.27247173994762397, 0.21541986724245965, 0.25019820916063057, -0.06848535551858843, 0.1230065756066255, -0.06453382088037396, -0.08399991678381352, -0.14199924016702004, 0.3850484711557534, -0.08795860646008566, -0.02618279048691551, 0.02341566390981565, -0.08293429079667178, -0.5423599272710284, 0.234298296229243, -0.19201829236542226, -0.3669689146809707, -0.17594668814238307, -0.19620770944858115, 0.15572832650398521, 0.02971068748500895, 0.07609044733893708, 0.15366485350070488, 0.0005912063148433649, -0.2901868925093334, -0.27354413254013604, 0.1511055215715855, 0.2485065583237715, 0.1893200914578516, -0.20440922691347999, -0.06780555738682881, -0.5149174071547464, -0.3648083959621932, 0.16523187343880247, 0.10340631964386195, 0.12724531722456459, -0.07028749988618074, 0.2432934644032017, -0.045923870562963764, 0.16626294132248803, -0.30288277432391836, -0.24559081884855996, -0.30365424088084786, 0.009641197440352325, 0.12028068087207615, -0.007722187530373081, 0.011638445081711322, 0.1322302974332761, 0.19542509045137693, 0.1138901495007927, 0.14014797926243894, -0.21907190368857896, -0.08796773463140783, -0.022518565585270656, -0.06431805780908126, -0.2777182899697818, 0.2890050227182939, -0.16006285466610298, 0.3238825806932379, -0.03503751529707601, 0.44955498479671047, 0.015454661938452238, -0.07217187813036036, 0.23581452975810524, 0.045716771620085736, 0.17385655935407504, -0.18434133572226594, -0.6620887951600873, 0.05877309433274645, 0.05539746771626808, -0.1278973900305945, -0.09706259743232275, 0.17989135454812555, -0.30475892599323884, -0.05200036425594863, 0.13727236395130474, -0.35853855658140155, 0.24827328214852748, -0.18128725701883858, 0.118117648569078, 0.05947331686265566, 0.03867813181679443, 0.07961493636663652, -0.10133982938157306, -0.07578189851077245, 0.010036638172397663, 0.2570257986914876, 0.31795576372246515, -0.3858061072710091, -0.03459394939196547, 0.3106766738988471, 0.2850661530991862, -0.15692551586906642, 0.17154148248210785, 0.006834540851598937, -0.11048250523951887, -0.16705612977676038, -0.29665402600779817, 0.08283997666352277, 0.05811262254450168, -0.2511388856650706, -0.38341206708149844, -0.20149446946622115, 0.6110509368232844, 0.14770391788955733, 0.023264306461571526, -0.1079871753718216, 0.046610134392434305, 0.11078619411922459, -0.5892902556088735, -0.002694351607857223, 0.19594247162537695, 0.1316882941260218, -0.13783302110253656, -2.674172817604661e-07, 0.4646155993079264, -0.052273751530184764, -0.1349685445645702, -0.11208332250536907, 0.12052545345694914, 0.078273492699411, 0.24202315804699276, -0.21181305442851642, -0.5278272546650913, 0.19471002798588563, -0.3037257457487712, 0.11943048993273887, -0.20422223259410752, 0.07946867721026885, -0.02207349573430502, -0.09664750531997007, 1.8669881234666153e-06, -0.2553059003853418, -0.10182471813856707, 0.36096825106482644, 0.07200378594338105, 0.05548828044958424, 0.3105892660263657, 0.21014438219735743, 0.44681228429819664, 0.04233321025493927, 0.36323895539824663, -0.07481698013992212, -0.20413544484450288, -0.17769383114808285, -0.6942881044589072, -0.14545267189682184, 0.5349917198406557, 0.2985920826802594, -0.10586532579318658, -0.45284849753980555, -0.04001861931284133, -0.2619882331196767, -0.05786338591456646, 0.16720371334516415, -0.28444969698220335, -0.384270400090915, -0.34596949913263736, -0.02239519711917955, -0.049585934780165375, 0.3258298981940458, -0.02993986398632184, -0.05170531158405514, 0.3331678928047861, 0.10068199188132465, -0.46915878665384597, -0.16956724512254745, 0.14349482622979293, -0.13148466282586843, 0.0006714959543234338, 0.3544037581870452, 0.19829721359524724, -0.26695857956623015, -0.15252786825844605, 0.40705922451168186, 0.1233463644927751, -0.15210234710914153, -0.22223337993670275, -0.0068182172555644235, 0.1951851290351514, -0.06298015305357411, -0.4208607663346305, 0.26631607361300624, -0.4309295093763711, -0.3221707222487912, -0.45135373691495234, -0.3468522028307833, -0.14732359419493543, -0.4006447730831436, 0.488653899811175, 0.4045512973208269, 0.09268867586721463, 0.08530435444915131, -0.22940539776802255, 0.16318972442196966], [0.07441245344246174, -0.04942212844552658, 0.0567402347139962, -0.03025594264254921, 0.12270046489428683, -0.02819459033457908, 0.06201142599307895, 0.3590243136887943, 0.1674504973514996, -0.29829609446058, 0.012702857053110549, -0.1414802070113165, -0.23278085756977834, 0.03431316268561213, -0.13314126207125868, -0.15057266498395883, -0.1142504191948248, -0.0025988434319315894, 0.1675099356339613, 0.1523460783698649, 0.21293908731999064, -0.2037209293262062, 0.01510426130690454, -0.2549602182419963, 0.3085869251169789, -0.07021107583096471, 0.06714430342112965, -0.21174307809052353, 0.035235499312719416, -0.3185804453568775, -0.24493829173234302, 0.18905858904082765, 0.16045336281199168, 0.10602756990984075, -0.19056102524346774, -0.2661632146769364, -0.24834089705161574, -0.32310152109351126, 0.06165514426511573, -0.34394172513723387, 0.1343573864609693, 0.2867184013812354, 0.028979867106852165, -0.22479010046768497, 0.2209630536125811, -0.43092945272280436, -0.2019632174718096, -0.2813007482281002, -0.06966211945009321, -0.2890302080275526, -0.07079462438445945, -0.16397878171640715, 0.06888489851087522, -0.08737945256410559, -0.09707761086947138, -0.20016870822199312, -0.4374497875812494, 0.06891312222419053, 0.14113679742227203, -0.038516308702032445, 0.07391056228937015, 0.2058033756039025, -0.4595328093901054, -0.03731077328699861, 0.013252447095242316, 0.7553950697519253, 0.12223951799229918, 0.1590956026058319, -0.1889265496215315, 0.006256725142545075, -0.33641585231895993, -0.4791734737021347, 0.11301410710524583, -0.24127338133529666, 0.09904093848017888, -0.2878789652504567, 0.2759754690697075, -0.1251279685031384, -0.10032550591325276, -0.35807366808689495, 0.43123475519513027, -0.1867132120902848, -0.07993742022755533, -0.05056157078443333, 0.22786750787865234, -0.04530012166742227, 0.3771201187290004, 0.15427941374544316, 0.35161793118655604, 0.21083131357911764, 0.08870084129658974, 0.2703208122064284, 0.04657479543923391, -0.5040931248251806, 0.22171140865079725, 0.29990322805658726, -0.10983736203468372, -0.08789047868933027, 0.0405864493812081, 0.16613735291611495, 0.36687666112234074, 0.01653172868743211, -0.10883394933743995, 0.018210612861845065, 0.12366517567585847, 0.03010457823765334, -0.4838655227027733, -0.2058230161120061, 0.22611776427790542, 0.00805944168378476, 0.0033426652286696946, -0.18190729170437195, -0.18722615923530683, 0.07154104522550511, -0.4813828544176655, 0.005396776495466641, 0.22288902110469955, 0.039999605096950316, -0.06636126066886652, -2.0735393095728474e-07, 0.5548606611979353, -0.009720330396072487, 0.04545803683012085, -0.05891671449987449, 0.30913746231007255, -0.006752815560623858, 0.33461896573498506, -0.17334015926653068, -0.046863345282626305, 0.35736500537641214, 0.11307022024863238, -0.08175973999375094, -0.1673663161778336, 0.17141629449789436, 0.07822546666665976, -0.09135567313855222, 1.7983814300264543e-06, 0.11616102656238694, -0.20139325747122627, 0.27436251461696937, -0.3139492648205599, -0.3645458264486187, 0.4382204712788663, -0.1705099250604378, 0.18706978488065545, 0.44046225649057863, 0.042886292824659424, 0.3843517189704321, 0.32478373135987026, -0.11804058781049433, -0.24577224027889896, 0.003353480252157603, 0.07972511866979058, -0.1002121831621565, 0.08327712716026628, -0.06562614667198574, 0.2926604143021092, 0.12398890577531821, -0.16906216031458862, 0.05014502733344148, -0.34891151082851846, -0.31886988626910073, -0.2772490003313637, 0.022296017030256597, 0.02073084527793804, 0.0221820380502872, 0.13039934501502728, -0.17601680290474275, 0.34939829822457424, -0.17298252218707258, -0.03344958995452824, -0.27609865712193843, 0.08272550742842161, 0.2530220323456661, 0.4341130761687587, 0.23031288739189087, 0.1698266503102389, -0.1414771306162049, -0.44630295648406965, 0.2855745891052118, -0.4232937097812866, -0.32581174521810724, -0.15853725998566007, -0.08853061708127416, -0.11258896381204783, 0.2135079158912892, -0.20916404309990197, 0.16619968677874264, -0.13100845718900264, -0.20642206240023642, -0.45973020759291783, -0.12950962555453885, -0.35255730525099727, 0.02340377880064794, -0.15332837894863272, 0.26310632414489515, 0.02879733701256074, -0.04815561893517176, -0.2576166712291952, -0.31300862431295523], [-0.253831133558024, -0.022583068097739554, -0.24557993411608608, -0.25542484717351616, -0.3915276990615279, -0.44908949933563735, -0.10295037253305538, 0.39807818416425284, -0.0728190821190708, 0.4885567253585975, 0.2911961099292584, 0.402339166506549, 0.0020295824652245722, -0.12467575625338113, 0.12525890972427378, -0.25844142461247294, 0.04104353700108954, 0.2141367696413477, 0.5684079648707534, 0.6077138665527201, 0.0384504774481623, -0.43197057325192134, 0.16628196537740048, 0.01343433732632057, 0.3855683829407508, 0.31832311335234464, 0.21681310207259416, -0.2774133116053067, 0.010130926477464147, -0.2791428537956791, -0.12749331975176686, -0.5029165288582021, 0.3506506143388327, -0.2783853417962376, 0.007091229651252178, -0.11483315641904857, 0.06126923376651419, -0.13206271853845158, 0.12262133774029896, -0.09644669721990673, 0.08405273126314854, 0.22895158335743143, 0.4283760933970725, -0.015732745723899873, 0.3369767053729345, -0.4292409888682407, -0.0021610027879117016, -0.6859730251653566, 0.2715125953528856, -0.372767816729818, -0.053249831584751196, 0.16632792912593924, 0.3739019429701125, -0.04969071721281524, -0.009234800022122801, 0.3580316170057209, -0.45798976294900906, 0.5379061388508277, -0.26458013136462005, 0.3115747407377983, -0.0076474715041540365, -0.302943269418635, -0.03650969592914677, 0.14305033336671624, -0.03520208701170424, 0.5574690821339772, -0.01657991907540787, 0.3750854394821772, -0.0033721218184611557, 0.24675501018971105, -0.07352205758494497, 0.15490231865181664, 0.31746658576018283, 0.17450774947768757, 0.020286611281861208, -1.3841395094068811, 0.5491344391078884, 0.04206913667496519, -0.10576609096239949, -0.27229145678485434, 0.027956966430804888, 0.042890598457199364, -0.295665659160804, -0.05257931554297542, -0.29190524140111634, -0.009345438767755648, 0.12570692558140706, 0.3564406865273889, 0.15809043070799286, -0.14033962138111558, -0.11226117461066208, 0.706615118584591, -0.20034365738048984, 0.2788586959884805, 0.011650742002975856, 0.08258910220721102, -0.1032645324414768, -0.2045008810136328, 0.4025892233713033, -0.2382253318142108, 0.6930135991492185, 0.4648557029116893, 0.4216976019472608, 0.16732522791735277, 0.10851660417911899, -0.12721036955918236, -0.01742319928337219, -0.24027256242193487, 0.2459404871701723, 0.003252574099201065, -0.09546329993169826, 0.27783367114091734, -0.3782562962022501, -0.34689640356292634, -0.15220508290452206, -0.007112869918551369, 0.12128176245433622, -0.0509232087634759, -0.3519910758582967, 3.1473326282275136e-07, 0.41219465272836964, 0.42316293912562414, 0.09550668032721549, -0.07683264745704843, 0.3754859974766008, 0.0772478509135501, 0.17212984970794493, 0.196725192977723, 0.07045487590074617, 0.29210586437308034, 0.19790769382192583, -0.13543859677693196, 0.08827595958879111, -0.1713049079903936, -0.0030393623045661075, -0.14037452694163513, -2.5511124546866673e-06, 0.0009627611709023818, -0.19867353421124181, 0.6788875245432512, -0.4271143154346945, -0.28809966506331275, 0.43343271394768035, 0.10512762991644468, -0.4579357154837829, 0.30313934457890623, -0.7542418354574547, -0.08749251055069676, -0.12150886047725726, 0.17587160243239078, 0.3254654063270063, 0.462093354639267, 0.18525762666422507, 0.014606559813492521, 0.7241593822099176, 0.24949722172150207, -0.34958912191704744, 0.29680842542900476, -0.046494356515412186, 0.4429407207627773, 0.28426171282882645, 0.02262516964132199, 0.11359170458689136, 0.036376249353604756, 0.3920550481727895, -0.3575778081288016, -0.06356485611259222, 0.0921939733356116, 0.09050079672243354, -0.36437248677387724, -0.047643740455701966, -0.10072896098542175, -0.10609871304331862, -0.05704701308582545, -0.0045947548176780185, -0.19459449855071978, 0.4442458668492527, -0.001133692085913484, -0.017112967755211123, 0.23010074437985636, -0.19881061640472553, 0.16375093325872628, 0.46682365055353786, -0.4072056602488356, -0.32043065102227813, -0.015015926733901102, -0.5838567332463896, 0.36056312903209226, 0.3752690623476628, 0.10304948980971618, -0.49404967211893275, -0.35864601001327673, -0.35076542243619807, 0.007297754107633705, -0.4790363864341823, -0.1511592044612889, -0.08164325746962012, -0.023355360975943443, -0.009637054116757776, 0.22996257623579877], [0.036519144788643404, 0.3990066780284271, -0.20236126590877893, -0.5296829312802032, 0.050680074132610255, 0.030453788779607346, -0.253660811977572, 0.4578932124538013, 0.14618198318784317, 0.3494363297329809, 0.30372520917499235, 0.1815862135993142, 0.1004359447545486, 0.07339628040265063, 0.31335936803117914, 0.01492177155921543, 0.6947013964437886, 0.1551246819812038, 0.609082898299803, 0.5615152504500774, -0.19899386910013978, 0.008976403138348181, -0.012668999026046141, 0.44657560776609545, -0.1317623788677279, 0.5681587917257659, 0.31811813658399124, 0.2777902845745357, 0.3563521199740725, -0.29180844526335303, -0.24863168450339124, -0.011498890940095544, 0.33518544153574814, 0.1092248281553837, -0.06756863919173899, 0.1733595554258411, -0.061721950732145474, -0.38140575270405774, 0.20248631100311976, -0.18993734277717184, 0.2305324017912866, -0.27347420956353585, -0.30470038934178406, 0.4096394604458712, 0.32502697627113847, -0.19344846131181143, 0.08618863536566433, -0.6761127531391762, 0.48467656057977143, -0.25532947520897004, -0.22077522219223522, 0.37942067230450355, -0.4619677029912005, -0.0985916921710743, -0.0345922940817729, -0.017739467337138385, 0.005444394083100789, -0.1662246178793818, 0.05104923183335428, 0.1980749943564343, 0.11914748785816874, -0.3079723468274471, 0.27947597264021373, -0.6160706342930782, 0.20432979018771885, 0.17933564293276283, 0.182166707191363, 0.24286342728201954, -0.37493051963356033, 0.29124959426658475, 0.7772062676316485, -0.18225784330408407, -0.19775241095713375, 0.3950882794371446, 0.7386069339874961, -0.7085351716069983, 0.033528487491395025, 0.04499750106275332, -0.7206908589145269, 0.1984118403542392, 0.3885990432663223, 0.0689699390752121, 0.15249954966932508, -0.09545241999941155, 0.2409550525070841, 0.09868253364477804, 0.592330821825839, -0.021468748647995806, -0.1754349134687801, 0.42695825446445096, -0.3917155948917486, 0.3503562861378429, -0.5330692632246391, 0.19588369803850406, -0.16753492738277775, 0.07099082066804181, -0.03466528576565409, 0.037034245790100576, -0.10972658437105341, -0.38095120415224504, 0.11573646599103765, 0.1504673353247999, 0.20944423654345717, 0.3313014497387953, 0.16017944341727774, -0.16055303417451172, 0.3154796880915474, -0.49989170567344077, -0.2383215588408641, -0.08174455372398558, 0.04928278969061757, 0.15543698798172348, 0.32929460423340084, -0.39269813309417567, -0.10565675886479478, -0.0012681697680475333, -0.4882989498401549, 0.19603445824341126, -0.6008111524891105, -1.1623876973138757e-07, 0.8274696325747364, 0.171940375630864, -0.03264446190762139, 0.27709586047676943, 0.4013792774552119, 0.15191695244605777, 0.4632483666868448, -0.04923307047277486, 0.018771999930484153, -0.38274105425181393, 0.12286435131950499, 0.022880997410351694, 0.32960640917309075, -0.1887666059183426, 0.4022471820126344, 0.16963973526222378, 1.323307590434796e-06, -0.11869248598164803, 0.15354606060636092, -0.03890188055586434, -0.17229518648339406, -0.3047422967436395, 0.314312730823365, -0.11220313082930007, -0.10211058965634717, -0.2833323305932943, -0.35812595341742387, -0.30490245143594774, -0.38774957335475585, 0.19968212302816515, -0.3715589880736028, 0.808631918891833, 0.4675187234630778, 0.15826518570420028, 0.21539185882044296, -0.21066400902312019, 0.34464841536037555, 0.27521014209395184, 0.00784908060686491, 0.016035996262419267, 0.0628078459450634, -0.021261066772359713, 0.22615488213119533, 0.47590130732883257, -0.6531742640406526, 0.116972373901829, -0.25978177673257036, 0.2376299996162366, -0.42186197944562254, 0.23013625338644894, -1.089984289235968, 0.22471532867139915, -0.26695092740992316, 0.6895594261443302, -0.022317799423522192, 0.10951287461794125, -0.3873900642036976, -0.13016199761758238, 0.15995818881603857, -0.1712711482395949, -0.011385241421507365, 0.4481837162078797, -0.22325754958336583, 0.017411906752542824, -0.7929765437639135, -0.48848537522251195, -0.1774434792322679, -0.1725100076475928, -0.03301547276331333, -0.07379474261599389, 0.055632526841084405, 0.2609693045914637, -0.1265413419444805, 0.27147354429837817, 0.21499670882530092, 0.0036864291274197056, -0.29087536621634374, 0.1461256486022477, 0.1886230468401256, 0.39592065218748845], [0.18548510386485645, 0.7847728301649243, 0.020696464926533386, -0.16440362616431875, 0.06932074707089839, -0.12835620904934825, -0.07910796077578164, 0.2079358724789329, -0.19073496844581267, 0.23553276530391815, -0.5348925156253079, 0.49024972436736686, 0.17270308846955834, 0.41076482330776765, -0.21597665091953605, -0.49564204830154635, 0.5001451694189885, 0.176129230231713, -0.43479886435058507, 0.34149889631335295, 0.5079766378449194, -0.6344505048278307, -0.5083648787495054, -0.09039472448352123, -0.22093051069225453, -0.11762022132223068, 0.6115436002682534, -0.2926719147652332, -0.3528173373151988, 0.14627120074155114, -0.5341025540197029, 0.11454402377742472, 0.16368693085025096, 0.06225746173689204, -0.1985665871738178, -0.016847690170173863, 0.4914012239520149, 0.5855088439658402, 0.030818322422426377, -0.5609622789645263, 0.3526614641483353, -0.04662660310006384, 0.09696437058304722, -0.0489618012135534, -0.17404091957111292, -0.2214977322652417, -0.10409188267048258, 0.5917470247956742, -0.09625034355920337, -0.1395389786871514, -0.3830014475371074, -0.20060194231991776, 0.13533481583220264, -0.20190244013390063, 0.1444104231619569, 0.7916822073240992, -0.19911951875084513, -0.5578285898165082, 0.1415961145369024, 0.06563258788498284, -0.029930112955029394, -0.07582050584930414, 0.27410850506044565, -0.9143726976732325, 0.17368214510549929, -0.04238786583867496, -0.35573435804820336, -0.44329769051202744, -0.03530016917584114, -0.2699926554567278, 0.4916281321623961, -0.23163401672502973, -0.3193960759775366, -0.28356123362591007, -0.4229774021671929, -0.18667179867719857, -0.029632462462560568, 0.38286496121864594, -0.04735661325830361, 0.2399822710482285, 0.4611283864130307, 0.30981119552357544, 0.003519078552168255, 0.01380318616229277, -0.12386799559627432, -0.17642090562854257, -0.13202799610326066, -0.3376555728426471, 0.24751269304580586, -0.3858830728873209, 0.3626894172323083, 0.5775153284974806, -0.24425702268736374, 0.2527294933580193, 0.1345862646189277, -0.07221080103796376, 0.08180468221937924, 0.24172007699802273, -0.16253679274911267, -0.1769961968107359, -0.12011297029868374, 0.7148461727891094, 0.4240832228404833, -0.06632007183315375, -0.14976474112542357, 0.2736252482413922, -0.28023508113378887, -0.057881974215676084, 0.17342266475386955, 0.0378001702181726, 0.6166828106945228, 0.5084123891256804, -0.2236402325979153, 0.1281722249601866, -0.32209509644142964, -0.01072740333182645, 0.7911794316204844, -0.17225293944242331, -0.29282635751070735, -4.5826519564981416e-07, 0.2517940463526243, 0.5192409792450864, 0.31973034812555334, -0.035885101449484556, 0.014274219042482073, 0.07107020823260786, 0.09649031020811018, -0.17010464678254353, -0.23807529007866013, 0.13224225642497775, -0.1991632150060204, -0.06249826859125299, -0.16100539648472656, -0.10010712192904288, -0.09347651336689616, -0.04041016175913793, 3.4145142176984484e-06, -0.4486181440695961, -0.1507194721847934, 0.9495540993291552, -0.5036869350636165, 0.14215899347288186, 0.10596745428999596, 0.20131778886138538, 0.3590033610622061, -0.10090975645921765, 0.2575659393405348, 0.5077381331775266, 0.39017184612846556, -0.9928809460296784, -0.36229068221158406, 0.09696859223997933, -0.370267085139783, 0.33211076668328077, -0.012047425442576094, -0.45085098228848025, 0.11548553892666909, -0.2953936421079343, -0.695808840405836, 0.0359632701828818, -0.18254970499796572, 0.1578419446572805, 0.010766028166296635, 0.3691803006601257, -0.17708121900172216, 0.41133487112737593, -0.2790618608930802, 0.4620127713367012, -0.45346662504425855, -0.414619122435578, -0.30894843915490683, 0.14893285488326855, 0.22152641297298076, 0.13374595753200066, -0.27041513603556017, 0.6172454119547492, -0.19467786533389292, -0.46917754303938936, 0.037403080480055986, -0.07716802550319948, -0.09538924329323206, 0.00045425396613234394, -0.09432546872532183, 0.20381085847326047, -0.3401176337622218, -0.7782544261629548, 0.22601308362461406, 0.11580768262892777, -0.21839673421934622, 0.02352630314193401, -0.02299037532507724, -0.5774765258206889, -0.41934597226048065, 0.02317534190117162, -0.4338299076247436, -0.6980618663888541, -0.20747233545627924, -0.32710372709722163, 0.5423173520790091, -0.14375258381465048], [0.04343208711011664, -0.030191451210622246, 0.22940108923664496, -0.7555139497233688, -0.4698139225199722, 0.17016890112030333, 0.4470969280374944, -0.34307242701010576, -0.08593414415806368, 0.2553710491000453, -0.1072374845294643, 0.27654284042058197, 0.7708285587653886, 0.13174674977118517, 0.17090713602504404, -0.6355292732909561, -0.3623656453473951, 0.16625991094211745, 0.349425842576724, 0.2593425007059539, -0.3047419442162851, -0.7074573757575764, 0.6933662915847567, -0.04974203125036201, -0.3498570295864914, -0.36549831147691364, -0.14600683436154363, -0.6436986063152984, -0.09188888212844763, 0.5786588778701234, 0.37267321845206586, -0.5184592305994596, 0.41777196196123173, -0.013915067501870661, -0.3851330881267046, 0.11501751888990874, 0.4398626175709128, 0.6997686895988603, -0.11892388544345105, 0.01890530227904036, 0.1181005681020372, -0.055096842654026104, 0.10503209075697262, -0.34961208255379445, 0.27891906189562043, 0.012561337314950518, 0.164744831088395, 0.5791212250383364, 0.11354910393571119, 0.28986209189324436, 0.08007369917673492, -0.35914978448654833, 0.17934558855800709, 0.4134455189221866, -0.3703020646330675, 0.01978891830476912, 0.04267368944765183, -0.5741777004872063, 0.221746318706027, 0.21055297403978548, -0.3558419806536637, -0.35296189524208305, 0.032262385325252746, -0.5834336295213045, -0.1614894370904055, -0.030501351635743395, 0.12529238774279808, -0.5937254300172968, 0.1993289641601926, 0.6477890045089691, -0.2786707715067496, 0.4557167293065719, 0.1798570573659519, 0.025706549235871977, 0.17782317997938696, -0.07408825247476074, 0.1847939043516122, -0.20861662788232552, 0.016938444386455524, -0.24010802824935068, 0.11651705784604456, 0.008731664060064587, -0.5337917697548407, 0.6267736336019919, -0.0824494817277333, -0.40288472276270465, -0.20944721904890629, -0.18617450368403107, -0.2996038053833209, -0.8355984582977118, -0.39775691635118315, -0.5537090867054287, -0.349672369649634, 0.28673972554091554, -0.14361514189534355, -0.2389835087567262, 0.5716171356103966, -0.5335106087469073, -0.027488222372638496, 0.09506912588886232, 0.2761519135017895, 0.6256001135809511, -0.12106044297346337, -0.15241359731356324, -0.5910940414537142, -0.3031429751769147, 0.20808572209475773, 0.5937148056691606, 0.39507250318996967, 0.09988455275276355, 0.058655643350704126, -0.08876188538079607, -0.328873356235031, 0.2635477718178594, 0.02758431246975156, -0.006455880534040982, 0.6864829541860924, -0.3057563132780492, 0.16185551752949762, -4.194895189824755e-07, -0.024995972899906405, 0.17783068664298737, -1.1015958373505659, -0.18268228402507658, -0.34953518485874874, -0.17531835950647792, 0.18124361757136892, 0.2593175993249341, -0.3387718601490353, 0.7070375860888645, -0.13863264121631183, -0.08955108739306725, -0.5361779516424552, 0.39399401397728256, 0.1413673859524818, -0.4070972490285796, 3.5291697344912644e-06, -0.1729017213381955, 0.11346768825544437, 0.2861884218897173, -0.06241077069265096, -0.1749148675393896, -0.5432218534976347, 0.328918911229974, -0.10907302433477613, -0.18137898998991475, 0.16258514957425688, 0.36027492485246476, -0.32888194112832747, -0.7846778723899642, -0.3804621375613589, 0.022472011085499274, -0.25706984390496146, 0.8538380901229841, 0.5741246420831181, -0.012712264578318798, -0.3739954891339586, -0.11892064303995958, 0.10223957343145212, 0.18257917620098812, 0.0162899249738269, -0.07621006793919873, 0.20236318865463832, -0.5872748002234973, 0.28688255146520986, 0.2143795292264714, -0.1822037085375472, 0.009945627992053339, -0.26454007863615736, -0.09783414781387358, 0.06402221038845944, -0.0052077031237750745, 0.019524240643071275, -0.8397542369058792, -0.49363099268312316, 0.30254594668106166, 0.2708103363735932, 0.09563654441444719, 0.3651234826116737, 0.04406946133651829, 0.05686861884080248, 0.367562261898429, 0.6589908255016544, -0.4962309280693375, 0.06760337696211477, -0.32053534959840985, 0.10214637794223191, -0.3129487729640802, 0.11683265895396452, 0.5315734362315532, -0.2847889661233584, -0.5861427321205314, 0.36641319718921883, 0.006826874669406322, 0.13367754019322975, -0.20426192167991364, 0.25768898181585187, -0.39175174289137443, -0.31460064272684457, -0.2080658876164101], [-0.04132716210507842, -0.4238351568143385, 0.01986341874412406, -0.6902496682042394, -0.44561565805100306, 0.7052177851210357, -0.1401426308832277, 0.10517821493705472, 0.0885116371941444, 0.5075551233474228, 0.12029220354754422, -0.6189498583387364, -0.43380795990254745, -0.005086318591345525, 0.3160162215472432, 0.3060597126470823, 0.13590793309206475, -0.29712370032827634, -0.02456064433349271, -0.3061533239432034, 0.13828488240891332, -0.13515374960160803, 0.08372392132499491, -0.026429510165551028, 0.03487803650002196, 0.4821990034952254, 0.3055705862310245, -0.43328878375995833, 0.040139858404509274, -0.43300796505828226, 0.09266169984822785, -0.003185408199579056, 0.47599993345122804, -0.023716298166700935, 0.3706512674360914, -0.7044523495110735, 0.22936290644558147, -0.33414294802339384, -0.14663384804014273, 0.018805090450248012, -0.053738390755423714, 0.3720984458891, -0.7918256946681972, 0.24994828488198992, 0.3323967436222286, -0.24358247444483078, 0.009161757191099365, 0.10629874486310807, -0.48373679494593785, -0.005749021615596997, -0.2190614875378817, 0.6098034972121521, -0.4345782595495123, 0.03049892663649786, -0.5458215592823125, -0.4511222552058272, -0.44440640834794926, -0.43804865552149125, 0.16291193888716593, 0.07725186046552385, 0.42127438482555024, -0.10985033784582528, 0.3021116646125193, -0.4812775409672411, 0.41844287744596403, 0.046473768367506614, 0.1566988201781451, -0.07482434503522356, 0.25027008497364706, -0.6376252627917234, -0.3417040779610063, 0.30809530747203034, 0.20110830236606672, 0.13321998019740047, 0.5705231472277426, -0.08048428058419249, -0.11289084720560565, -0.6851447708897161, 0.132161326376138, 0.05818304623543111, 0.6228835005125729, -0.13168656005403245, -0.1151421964144728, 0.13489870944591234, 0.05229661836763086, 0.002303295202833861, -0.4652787225931424, 0.4427380043330335, 0.15832579860263074, 0.3560034585085878, -0.20850718739167665, -0.22636099936385787, 0.21225567306163262, -0.06694118307841154, 0.24847111252509058, -0.24990409127583607, 0.08675176235531236, -0.317774520258466, 0.06768703324411585, -0.5977509793135936, -0.38371547041196574, -0.6203841486921721, 0.42247873638884387, -0.16069463381337548, 0.011762262543884718, -0.0505879042171985, 0.21494376071584684, -0.42575176293671346, -0.7026002642222581, -0.6336688147231724, -0.0219888781539914, 0.38633561224684376, 0.7195797846277387, 0.16213290227003813, 0.05881615001532417, 0.012154348640408732, 0.12986082611854188, 0.3410667460642427, 0.7503551910025827, -4.5943770970636776e-07, 0.618032732299899, -0.7090957046454639, 0.40704741729407673, 0.23389812167965804, 0.06265997043680328, 0.35233042419530514, -0.18082713559386357, -0.24565813963123254, 0.04041722911677777, 0.33674171067703174, 0.41820380447394734, -0.08548588597028658, -0.15409030082336497, 0.7181182957934743, -0.029969816991291365, 0.37272350489914885, 4.288423287357367e-06, -0.006268562160657515, -0.3080871257536221, -0.5113382617994711, 0.02809387249938353, 0.32987504418953956, -0.5418827343947301, 0.1221417235983463, 0.05036239250446485, -0.4293026320066189, 0.32563927189686326, 0.3075717747999687, -0.4118113400879317, 0.7934564320776704, -0.09789975455013403, 0.35731343017315337, 0.1674352841833264, 0.5009786243468518, -0.16869391742651998, 0.10936886546137757, 0.3336665611458805, 0.08669337244866367, 0.004320332157215524, -0.07094407733894327, -0.21713314295306552, 0.17069278716566288, -0.06076190479531859, -0.1422960671108162, 0.3851723946466519, 0.04851550243351841, -0.22615649167945914, 0.2558561685763328, 0.26242797491855147, 0.0019467565982518597, -0.5638396662549515, -0.3403456986253512, -0.5745590454560089, 0.13195372370624156, -0.218318078830024, -0.08092504898196434, -0.28037508565701963, -0.18271717253982003, 0.040259812285052744, -0.20996971659108948, -0.24093201559524952, 0.07018969204323293, -0.2192937217439923, 0.26095196988976127, 0.3882841480436314, 0.6445278713313968, -0.5461593752609839, -0.9202341160064288, 0.05554563769352542, -0.13475905614940514, -0.07658360925885493, -0.1305330014239727, 0.4964551088160661, 0.01873596691997739, -0.2211523171777942, -0.4577669179208271, -0.7279503537014591, 0.16981155092708025, 0.10962513113440388, 0.06096271334636616], [-0.42861423193149334, 0.529398598285281, -0.3566641641335429, -0.18518204409240493, -0.4837540322778509, 0.20591231131254306, -0.2956928981358069, 0.014272219435731983, -0.21824472610486162, -0.24232525718547734, 0.3755617994538354, 0.03005015830938125, -0.38417338091748654, 0.5477290194523315, -0.5660574144687928, 0.5743333300626732, -0.4313574610079316, 0.5615436222714371, 0.28207515942364336, -0.3865506051486507, -0.38743722981183454, -0.41800189320054243, 0.09622929805763772, -0.18730998787262354, -0.1386490515022661, -0.11532931423354033, -0.36190983783201675, 0.1676121221575504, 0.42281492467413573, -0.6601011531059889, -0.16118198582695342, 0.2897800216068994, 0.2878179617357208, 0.2436667924324273, -0.8571661044298232, 0.01947808487138325, 0.6521598841357644, -0.3630348770429544, 0.1860243274300488, -0.04084073409313479, 0.19298079424812703, 0.512248749801175, 0.10283622155289784, 0.48224615044939245, 0.11782332074449925, 0.2000922080668855, -0.0628673541083326, 0.24518309965823612, -0.16452729619476383, 0.13307300054524182, 0.15568267543303044, 0.4246236689048523, -0.28929348136904504, -0.7922267455938917, 0.04587976415880988, 0.12358959197962649, 0.11953205380563833, 0.15921332528266177, -0.7182042807345005, 0.21718605607644215, -0.5263352521028493, -0.5503940549052665, -0.3932795703663939, -0.1397500566898555, -0.10547104250391914, 0.32126136209195805, -0.6585298715231063, -0.39901343360758673, 0.13263076946236355, 0.4413261320854665, 0.007551832482018172, 0.30656469368136235, 0.22633464465688702, -0.21849803708431753, -0.28032956065919556, 0.09618180411546438, -0.3413648140273224, -0.2991379403276688, -0.37596116018460646, 0.30163172346387424, -0.03043850227114766, 0.5742276528232335, -0.15944111683943868, 0.6993661308422772, -0.011388111400906207, -0.05128430540942148, -0.299848829911463, -0.6666183065799841, 0.37570772059848206, -0.6335582280662188, 0.025747233355579272, -0.23042796132386079, -0.2475504916478273, -0.07189952582521952, -0.30063543307202073, -0.13456681523374006, 0.117531881928582, -0.28842418616800364, 0.326687319040069, -0.3425367871716347, -0.09166586141462986, -0.2075812566819569, -0.2561778524914392, -0.09931989450799042, -0.26475146369011704, -0.3528092284099793, 0.053510636842342384, -0.13848613732593507, -0.07760006469389964, -0.2898645062850814, 0.5477138954748447, -0.43614737747128196, -0.19201850938069737, 0.2420815491360121, 0.2687424971290586, 0.007689731287321316, 0.3709302159151468, -0.1113400865457282, -0.4227482362988178, -5.157091254283543e-07, -0.21352662650102808, -0.34960184473244466, 0.42729897213825485, 0.20500000084241493, -0.0005472469868788297, 0.45739097502051257, 0.2735559695586548, -0.49340399335527463, -0.2426936112425259, 0.340665732695114, 0.472218726671148, 0.011703864967079817, -0.32344470974674794, -0.058976316118807305, 0.5271822133215055, 0.07541667025588017, 4.80093517662379e-06, -0.04031862914877556, -0.27246357920918646, 0.1659682738372758, -0.8107487781842588, -0.17578073480026724, 0.33875778828555747, -0.22428453807200968, -0.4829556354934565, 0.06312358976368393, -0.42484414568234935, 0.06018850900263333, 0.1546925671791409, -0.16149557295010597, -0.2853321125906917, -0.11568654028341534, -0.0777527626077168, 0.7506601111863765, 0.34174847140528786, -0.09011462440493265, 0.1658156185963974, 0.16175553325287945, 0.18592768255778302, -0.04383327774362437, -0.10042054283044365, -0.33579703412800366, 0.34170905085987535, -0.16134192060509903, -0.18774621246520312, 0.7954802221727836, -0.707462071037035, -0.7837746219546919, -0.1630171932169864, 0.028501098048475233, 0.12713722831815527, 0.14364789708267026, -0.04806868541526442, -0.592615863865066, -0.16580165074782235, -0.16114256311342795, 0.4520892080288342, -0.6628462193913914, -0.1468462197166977, 0.2568424651608577, 0.0494908522274714, -0.5665641014143933, 0.14093354465733285, -0.059900281639410954, -0.0350575507973753, -0.10651720277890833, -0.3320694595458711, 0.5359831985710185, 0.2660285697511886, 0.491751849044402, 0.5818760009877967, 0.05922117501526727, -0.37395276497529445, -0.2675758407991527, -0.42456466218027555, -0.07085949870738611, 0.18117871940623081, -0.10388075508554849, 0.13370893623786176, 0.020042170366614136], [-0.39839753041008374, -0.2753514497667953, 0.24520232869981165, -0.3500433799186655, -0.09989675984211398, 0.1617460891010768, 0.7444863481219524, 0.48791588880324677, -0.6165291813697404, -0.9361958142426147, -0.2934735370885782, 0.46708758556642194, 0.02871189674915475, -0.18518504966192462, -0.18123261225422557, -0.3629369904929337, 0.38857440568117707, 0.23622063044678537, 0.30260823886513305, -0.1914112259588083, -0.046876262068161825, -0.17050922504752872, -0.13372244433556654, -0.35109265458849664, -0.2662601872360167, 0.3860028884024114, 0.124416063301276, -0.1334045558307674, -0.304016205497954, -0.44709038773030096, -0.6011200356897866, -0.5074461779854039, 0.5004581049163099, 0.2157744813933148, 0.028489562072599593, -0.21483932193833785, -0.3307658401643327, -0.18547533195995158, -0.23871556680198086, -0.1348321988688262, 0.6583654908238895, 0.5124240917683044, 0.6546023784756286, 0.41159217951057736, -0.07331828564039838, -0.6041401960551146, 0.040805643255677, 0.08212175483818268, 0.4535070315873158, -0.037990621095756925, -0.18218360215779358, -0.11833501844346864, 0.19366470753804685, -0.1494030090247303, -0.26535982700015204, -0.486797986747516, -0.9515670747165854, 0.14587848859206295, -0.0859499716777643, -0.19091069066538494, -0.19940857451011426, -0.0936235082810721, 0.30983401501556346, -0.3610200724534014, -0.10742884259605501, -0.49193090174003856, 0.09485109776374602, 0.05449943509213869, 0.023006412500678582, -0.42418184157313404, -0.26813345148161544, -0.26250061773043315, 0.3178632721936412, -0.15274468820680476, -0.17420953993610797, 0.18319192444551957, 0.005890171340412403, 0.09487276359136126, -0.1211026454523126, -0.1259127166720292, -0.28898954405527344, 0.19568814740218674, -0.24697892925803505, 0.0824940248517713, 0.08222384812565686, -0.12184063367340636, 0.736245223983736, 0.19045262803614202, 0.44369631083849415, 0.12751961873633938, 0.2035535817805599, -0.3403995245368271, 0.2193476659230639, -0.432374449799185, -0.44269381801508095, -0.013481204586894752, -0.1339799310134682, -0.23149163167485406, 0.11514804967465933, -0.13323035171922104, 0.41659237475567623, 0.21465780484243144, 0.11364792003356738, -0.3567835373426854, 0.25144608812546365, 0.2263534299453056, -0.6255622955371418, 0.8066120715423872, 0.20371723144527248, 0.11459625496528593, 0.1453969210844007, -0.5945809653907991, 0.5578457005261558, -0.1447911239624567, 0.3329894137494401, 0.003066787393716137, 0.29735539157452695, 0.1441765887756749, -0.44477989792772954, -2.581955739959849e-07, 0.36192576511572355, 0.04578869448006273, 0.07282320227368427, 0.27999438127068066, 0.21152582079652263, 0.030227120583919617, 0.2571380514983467, -0.20192767983992516, -0.14217005150514878, -0.11481051765013767, 0.09581823151646725, -0.017024434154028104, 0.6353976905125344, 0.09015734332705413, 0.02144943904067372, -0.5008300123487087, 2.281394295715677e-06, 0.29465757025869543, 0.12788836330973286, -0.06666120702266894, -0.3517206840361066, -0.23893865074028908, -0.1716836469341814, -0.09583527191641364, 0.36377349853358304, 0.05910177415428318, -0.21250822421555768, -0.6053072317819616, 0.1252675889929118, 0.06113052061390761, 0.24198156574228474, 0.35604157981704243, -0.5304909330199489, 0.39361768727045154, 0.6373867645812751, -0.25042924739086936, 0.056037641797541476, 0.29232933271549494, 0.25904302870785506, 0.10552920652747177, -0.737000757980545, 0.2984016224702346, 0.7001575703438512, 0.22242652022165213, -0.11472541473229683, -0.29319664327862643, -0.1393073344402903, -0.08510269210828923, -0.2174094361787382, 0.13414875103076804, 0.002214226210826902, -0.2100958048873938, 0.027696852444830094, 0.09339239743725056, 0.008788037200194502, -0.238426580487551, 0.20185031146495616, 0.03859522647157215, -0.07211364631624097, 0.31843194482210524, 0.028511344774485914, -0.3962994810383979, -0.08996913683561875, 0.1776099769588918, 0.13543443502297645, 0.30107791397925543, -0.28234147813646776, -0.4454187612143923, -0.6149550950615007, -0.21037793642834426, 0.7927511205217466, -0.03256175046053251, -0.15569962625361422, -0.24361918407508595, -0.35800748075760763, -0.10790868021009642, -0.320306221196201, 0.4570539915555296, -0.02158231769918566, 0.14884603534151136], [-0.13197692256624804, -0.4665355453242905, -0.0358464385303422, -0.3959593610146242, 0.04446958070360806, 0.6220328612090321, 0.48864521721802345, 0.0035806434812027024, -0.2767470737769602, 0.09261995122062561, -0.8926537760886204, -0.48984261208917507, 0.015582669825654953, 0.12057397517951236, -0.15946623790063733, -0.2520897755953317, 0.11907489305251127, -0.46922959148713705, 0.01012755559757626, -0.3364471747040598, 0.5513176684975581, -0.054175803439315176, 0.8937555444094744, -0.1172598111340741, -0.1577165701890068, 0.7607854211212406, 0.24215355985103765, -0.16421301577169034, 0.24668400123020637, -0.26017823762281406, 0.06464292740462897, -0.028142943156837814, 0.3864265860350348, 0.24306433400374103, 0.47253150959197143, -0.09633417132710945, -0.172184065108476, -0.18334459359263244, 0.16545781951297722, -0.3329963214554123, 0.41656138677665977, -0.2626265824061838, -0.2193681205304312, -0.26487887897761, -0.21592750059284613, 0.14999780460907908, 0.08179156021443927, 0.2103596357147726, -0.32453669935964297, -0.08979708537369356, 0.1219655913140546, -0.3707140387968635, -0.061722557648078706, 0.13184086616641513, 0.029215349825817347, -0.06900903449365298, -0.03327158481171138, -0.17790479703077497, -0.15372042813149162, 0.17376513692436574, -0.1587148402215033, -0.09246187442892576, 0.2771954717871198, -0.20721327756051852, -0.08220623807387596, 0.3176115006938231, 0.028582980633739718, -0.21858930791218173, 0.2702487332061621, -0.27800105344497145, -0.06451078956241796, 0.28767374236311577, 0.5961408858530649, -0.3598710132689973, -0.4242753299550873, 0.25976107424872574, 0.24958878623216882, -0.17983463511790407, -0.9271700525696381, 0.03887533414139672, -0.1331453182120836, 0.4026517274870772, -0.197898104553328, -0.09035244217343497, -0.5099843528903705, 0.3555689518633119, -0.4521718403980226, 0.1655288648150487, 0.22170258693977582, 0.009012391870841505, 0.17912703763952617, 0.4403502097916713, -0.5360152608029494, -0.016912502563344645, 0.2077940683323917, 0.23836480236331928, -0.05290311995071769, 0.4439171759321865, -0.5902523338636817, -0.1755414061495687, 0.015333380714973168, -0.6331016207591069, 0.30491001604131823, -0.1710786779925579, 0.27613403184742596, -0.14653247128643132, -0.3338061479372494, -0.02252593107465717, -0.2750834536380069, -0.4902145510534005, -0.5023731657913857, -0.0656065539851186, 0.057145407994920995, 0.16005948532632855, -0.4913491987162711, -0.010061820062825376, 0.08650883994305904, 0.9783145743831301, 0.48768998616354503, 8.877342728606286e-08, 0.05664746759236659, 0.19658920868009722, 0.9906092181048898, 0.10808695463323559, 0.16201621868709032, -0.46193382519639853, 0.7152164081194115, -0.43587593203128966, 0.21525803892286208, -0.3610560995712298, -0.16289868551636144, 0.008207807902762305, -0.10517950884778521, 0.1822846345600325, 0.06429460695115548, -0.07707886937513499, -1.6391062748697307e-06, 0.09544033992308383, -0.2855969492080315, 0.02911942211051758, -0.1759223598395912, 0.10685180257403815, -0.15704913157203382, -0.1001224747603336, 0.06845670785948565, 0.1607493745824659, -0.03449425214801349, -0.1328684374776452, -0.03906025722272691, 0.0035648129037970967, 0.18485674913447583, 0.49870654988019514, 0.8062560625776106, 0.3632729771338162, 0.33976641131574864, -0.2625493024862442, -0.09281490860845508, 0.09283537736790677, -0.09443244920342063, -0.0032761268629124315, -0.39800435393245726, 0.16140548566027538, -0.026888914891052183, 0.6032227368006557, 0.19863375441079573, 0.31867909451867693, -0.8725666632917602, -0.3832826811541506, -0.13750244361351005, 0.16228967509399764, 0.06665099259615997, -0.22921010159393648, 0.5840776464735485, -0.2728514560520015, -0.7166906563287078, -0.7760159612670913, 0.1939443797517015, 0.18844110513899878, -0.2363154810687164, 0.18787884924984768, 0.03085694316572629, -0.11898666410522794, 0.5575530818947183, 0.060914917707651686, -0.4243134406793274, 0.72934144828118, 0.432379645157247, 0.4132082174378538, 0.04295676319986275, 0.17171324036611738, -0.14176481280049552, -0.44736260277095447, 0.14758606007641414, 0.17555725079386109, -0.8063842469630307, 0.08480237022851728, 0.45647068509398553, 0.18472854860237872, -0.13583195009144916, -0.29356953922632345], [-0.8054426192335458, -0.2668327733615533, -0.08748718358535539, -0.20714595276850767, 0.3018130997177731, 0.4705543395803603, -0.05251548893231193, -0.1665206034753211, 0.4134257982226454, 0.1756569204357646, -0.122438892126305, -0.2997154135917065, -0.16532547172219347, 0.5435485383528165, -0.03137765664648223, -0.25273555217457283, -0.31692089172271615, 0.08239996477438347, -0.3195257190912368, -0.7092318974939638, -0.5481481243848189, 0.44720633362547685, -0.17042732150161438, 0.23559525160213968, -0.000728456596045242, 0.4502122779054509, 0.004007655997182123, 0.27604087162562413, 0.04543038724819997, 0.0027397026682826715, -0.11044378148183188, -0.17277322138340054, -0.2899150918651561, -0.24384622388779165, 0.009795814380790885, -0.5199951775260822, 0.0797823219019872, -0.13825997945407717, -0.4277900582109915, 0.43088747919463777, 0.28112825537992076, -0.4364585836342042, -0.07103457873178683, -0.6897984923428928, 0.22921956348369205, -0.3184109298902482, -0.3140821116083045, -0.1746580999938398, 0.158153789065585, 0.030092760598845036, 0.27000062992072466, -0.3458638358980811, 0.4489891037536108, -0.5556565361050033, -0.39552553151453124, -0.03614651035970363, -0.2788178875342226, 0.00018697617975796046, 0.3195451833544036, 0.13630009724192965, 0.24492787681178443, 0.39075000289303896, 0.21834047320732386, 0.07533109032683229, 0.007224331241051129, 0.8026676582159461, -0.08564362975404904, -0.19222552339323143, -0.6172665400154196, -0.6086661906612648, -0.33831966962463916, 0.27947260332686746, -0.2751126361594593, -0.3600626365849337, 0.11106066051574366, -0.0640171426035216, 0.5041827742649079, -0.1916715462356738, 0.10297350825645432, -0.08179665319218384, 0.09301724323398158, 0.5360715218592381, -0.23332735308097727, -0.26173501622153766, 0.1755544412909935, 0.16281803921220014, -0.050961095080731385, -0.8045632591583661, -0.09055042947711056, 0.4532469568564069, 0.3111639896174592, -0.36062726815573287, -0.08783601125485316, 0.4221539047178649, -0.17273632508620934, 0.5450265225056687, -0.33646441329277316, 0.3388389910328492, -0.5971289420877094, -0.2838823685477276, 0.22321245052577923, -0.46217476784521844, -0.061927942993085454, 0.3075353543853245, 0.3313652652839715, -0.11928977396181485, -0.18481433912063486, -0.4369128553548854, -0.3069159647084742, -0.015037664272769771, -0.46764067238190754, 0.3888146141172408, 0.20275433050115566, 0.24214713287376602, -0.46168087179317746, -0.010843696872043083, -0.5998104257093827, -0.07615232304576985, 0.18295104771559895, 4.203799441515228e-07, -0.7197652277404094, -0.048342921884693135, 0.7327647645904328, 0.14700295118311554, -0.098824155585981, 0.04917436713431405, 0.17322792549168528, -0.3038205421365558, 0.23603823455314413, -0.07222409749869316, 0.06261705873206677, -0.10494148268514246, -0.010759379108786426, -0.17824373781073566, -0.2183702624625379, -0.18899555640894963, -3.812085859332116e-06, 0.47027202177130784, -0.12665285714227004, 0.48665482711475283, -0.0822619582519547, -0.6771967768733812, 0.017819939071599497, -0.0673604087527203, -0.1718301341801832, 0.35319653167564363, -0.3212659346070074, -0.367717054007391, -0.08704811574946451, 0.28878449063175315, 0.3507370732368957, 0.6139085449419408, 0.4930693424480596, 0.5769223223215486, 0.3421057508608333, 0.3627963230004227, 0.6383625172266251, -0.5307554889817276, -0.15048878580450578, -0.09881954877131832, -0.16285419722783773, -0.48759796020332774, 0.8240739429424294, 0.253968054497808, 0.06554403894285035, -0.07532138051710029, 0.378091391429259, 0.02011995970959594, -0.3640426976430768, -0.1318473316220731, 0.0787009741794737, 0.12640754587971467, 1.1561345603621878, -0.339867548626026, 0.24659744967999062, 0.253131786847498, -0.5611650870007251, -0.09382470562250268, -0.0943287781478466, -0.5395355547210886, 0.17552105002901633, 0.13563438153474758, -0.5240285512603297, -0.0663382598227176, -0.5321199809465065, 0.1303122984464261, 0.1559779311455122, 0.01027548088087671, 0.4033052893270233, 0.22330751414265165, 0.1324910945684907, -0.13727607811417822, -0.37173421835565346, 0.05568592618650423, -1.1808098119884984, -0.35082587157824846, 0.6126800660312144, 0.4185876551344829, -0.3879534391379129, -0.34311184074149015], [0.10625319170414514, -0.20238069632940064, 0.4477228247367963, 0.06664288678399934, -0.315694317022546, -0.9619355356096164, 0.0666017834651066, 0.05436604632489182, 0.2751484210691948, -0.08256321332391758, 0.306071153479477, 0.49232010881715227, 0.10670213323264513, -0.33774011714055124, -0.02432338088974008, 0.6022364062076553, -0.34810531006535184, 0.6196672873206295, -0.2887342345474892, -0.26685319077050484, -0.694419113703454, -0.1932415362682455, 0.0769182588785777, 0.6909778760333202, 0.2454651468845048, 0.02567887954744318, -0.19596506413527143, -0.33207450917339215, -0.1254386139174431, -0.8090715372908788, 0.2879117097432579, -0.2145454392438108, 0.3547715787262177, -0.31274694330432584, 0.4216713617766881, -0.09638476123045858, 0.23018964372718084, 0.027645695085963123, -0.3559057779328475, 0.7191573960192555, 0.6215713309156827, -0.09367668762135846, 0.34442787887865034, 0.613346990029845, -0.0013681732009022361, -0.30532614237146255, 0.3203790157243614, 0.44997285734052683, 0.5182507239210032, -0.7497167308826661, -0.11340851050698175, -0.0509404077554575, 0.3183542133320412, -0.3856159198432147, 0.30078918079109745, -0.11845088873452586, 0.0686496710068715, -0.09105909598787189, 0.23672374536797902, 0.004920807373741191, 0.2566813871848832, 0.7261152089465974, -0.6301043858432486, 0.6920386335345076, 0.051599458010686314, 0.2580699759128417, 0.27701080745943046, -0.46712525446051717, 0.11672819424333608, 0.05172817700518246, -0.09625651788894307, 0.2498765329299393, -0.10911255161369011, -0.26287844008393413, 0.6751712818353951, -0.058346364461009666, 0.3437130284545772, 0.07977012137714082, 0.44378013033000197, 0.14566471458745595, 0.2991510781115531, 0.2585294741357868, -0.18876993611945048, 0.02133069713340334, 0.23892314224107986, 0.6992587945596898, 0.7286613931265901, -0.03864677758819234, -0.26741208584266196, -0.3260526504201529, -0.3593405438149289, 0.26809874372073333, -0.0066663940866202075, 0.6961128862269589, 0.04648421456194908, 0.030813619570818466, -0.14434098031109266, -0.2824549959462819, -0.762864040480158, -0.1959859892186924, 0.20177543232742723, -0.523693703591052, -0.04259560416009213, -0.270922175195188, 0.14003043225382752, -0.019706787815729526, 0.45073402177022936, 0.0650201094387907, 0.17489264355427395, -0.019323542823071825, -0.3139276408820822, -0.1631893557751354, 0.05358286424166982, -0.2615541067805382, 0.641683134306589, -0.007964222949309284, 0.1450159428411188, 0.2979486174451959, 0.3354186672287347, 1.2760080267488801e-08, -0.0443103765344882, 0.31985507529173124, -0.32730577224391916, 0.06876830648237722, 0.3116800320452162, 0.4313476576160687, -0.06404433442556537, -0.2103341964577956, -0.5870154402742164, 0.12082805498852928, -0.1557995712312182, 0.02795850774618045, -0.12681762388795956, -0.6970990790831745, 0.21692639834990252, -0.34785333234784255, -1.1162086473138088e-07, -0.09656156661083191, 1.003258809637103, 0.45292155225817887, 0.22326702210122026, -0.10698908149594591, -0.08577401269657878, 0.2818584612124424, 0.42189422718401653, 0.18985705209489545, 0.042522413295141843, 0.2649685690465363, 0.03724260319660988, 0.03101318742378173, 0.024335460926574022, 0.38077389078452145, 0.2276630021562765, 0.043532081704990504, 0.14929519914194925, 0.1801716568801577, 0.8665231881025515, -0.21125507204281474, 0.000873534375573415, 0.04064941357541392, 0.19848833488518122, -0.0040326857514425335, -0.2749998654235029, -0.7034925684492106, -0.561098726479826, -0.1342332112335694, 0.07848879715443499, -0.5554899315010406, 0.06386861242984847, 0.2985683736781654, 0.06242505120231187, 0.22224677450958027, 0.5156007355202477, -0.05952922806590391, -0.2321947327918176, 0.4931403864912286, -0.24719450794529796, 0.11971199258888554, 0.5197294413575372, -0.5842078178339997, 0.06062580783420659, 0.4084946007205006, -0.2606089608299008, 0.36805995379707956, -0.44399855427437135, 0.32395621311486505, -0.0954625849984521, 0.17900312277946215, 0.1040212340428429, 0.14048071415554644, -0.0950615058996877, 0.550317229648871, 0.5639472971380799, 0.7049110635590052, -0.6168346504151818, -0.15638669418520296, 0.35475702124103653, -0.5324071571515475, -0.11725406212214044, -0.08967732522558004], [-0.012374772562259545, 0.29382145826390194, -0.28675236088094835, -0.026436326940786382, 0.31245350184922166, -0.2587499303546931, 0.1112988070740345, 0.0627165397761896, -0.5054710011834984, 0.040514658099933334, 0.17326982445358718, 0.12668246092305915, 0.471553305821348, -0.465975693761912, -0.6174081825286428, 0.406491622359803, -0.26475298378409323, 0.5661601514041038, 0.5134551105116171, 0.01672564739575666, 0.5864416910109097, 0.10522268432211862, 0.2007910856617505, -0.09082195646234595, 0.13653300670007562, 0.057789253722516365, -0.09708412558381281, 0.02562148384428557, -0.615025204227505, 0.13474160611962183, -0.1792076209997336, 0.37700514894364345, 0.0024585389999616947, -0.4135876274864111, -0.18989384427268408, -0.01922196390535003, -0.5193055874667426, 0.03264134713395851, 0.4529239262919889, 0.38978554495640944, 0.43939285038686454, 0.38003525895450874, -0.43218738267744405, -0.3062564137854612, -0.0609753310463974, 0.06424709564752813, 0.14651395386313862, 0.3497747836872889, -0.1831492399621319, 0.5140657655088111, -0.2225189778198354, -0.27295034804524887, -0.22691709339034852, -0.1128967967701837, -0.3426463231163287, -0.5900817105631109, 0.18829117806712667, -0.5144762137779845, 0.24817361127140178, 0.20502907649698962, -0.1685468750101026, -0.561344437671609, -0.14270652847840426, 0.09372902442907544, 0.07377184815455601, 0.6288253608088837, -0.3016351356319002, 1.022256761272963, 0.6721855085304859, 0.5245722537850659, -0.5632901888091724, 0.31958607886114937, 0.709707517518281, -0.2304816668366683, -0.5137965878747915, 0.1715252764644443, 0.4411248057861204, -0.03857629324441152, -0.01815751267180319, 0.6685332864366665, 0.36349825265115066, -0.21773720455851397, 0.4017025636579074, -0.33553898499491563, -0.009401048677035442, -0.35032408568226386, 0.8653084244244174, -0.27623621838748835, 0.13282335264086692, 0.5570331527395166, -0.13261124620671377, -0.019977802458846283, -0.3970541400227733, 0.41014872423360077, 0.3684596849245826, 0.21912933330210152, -1.05737291750955, 0.3629982186899916, -0.2189869944811722, 0.3807939442685632, 0.1313509273702717, -0.5198958975176506, -0.04726283122030996, -0.40244841002845866, -0.5256890557150655, 0.12495689004743624, 0.09539751855648708, -0.1777411934795597, 0.35767370094691786, 0.26908125388799825, -0.2647713434801727, -0.09582554489459619, -0.13808854607256982, -0.15844919869502105, 0.15964426726576242, -0.010206426886928984, -0.20721572842437763, -0.1954594730391955, 0.42494260826224217, 5.273605131896438e-09, 0.40979807592209766, 0.47548337160206716, 0.2480616998481958, 0.08089680000103533, -0.7055942178208938, 0.5469562848532727, -0.03172769227425031, -0.0790889249438392, -0.3007409041985147, 0.04626499598277946, -0.0565155895202189, 0.08250850614733281, -0.26496191982114015, -0.24751318970265251, 0.01570616216789897, -0.3335297208768437, -5.519848939825321e-07, -0.5747370417388982, 0.1860682445282519, 0.28108505470424217, -0.3421243760815042, -0.22288525677704696, -0.3328549026618434, 0.11541739078678175, 0.31392864525744985, 0.11451393453732356, 0.269621613866238, 0.6193747727130476, 0.4839279845242806, 0.4377110248154698, -0.6472531142537999, -0.3985547328263234, 0.11581311771592924, -0.464854415741585, 0.06971905736373288, -0.10506501502758288, 0.22614618406474754, 0.6530337553197512, 0.004927460159965631, 0.22803073314352013, -0.06585934962797672, 0.678186034768916, 0.12208645155108594, -0.42434430949971175, 0.2663611249329329, -0.8131145644681337, 0.17991324297877168, -0.18234710393726977, -0.29791750594687033, -0.6039844510466632, 0.1854782773752796, -0.13613772230918486, 0.8280612131427383, -0.35868280961879756, -0.3293366050839273, 0.33600265878593083, -0.04058765468415552, 0.13742641916582604, 0.31135357747922504, -0.04345107414921303, 0.33194425407542066, -0.4588726868472749, 0.11150446677403551, 0.3443651957093771, -0.2600562027869727, 0.04240434446793323, 0.2316220238416155, 0.0849798392378645, 0.6166955829381003, -0.2546836871453216, 0.2936004101857781, 0.14052378847965527, -0.30874711074742267, 0.8788559520375799, 0.06808696399198158, 0.4223193680201921, -0.29671833810092885, -0.4489576722282631, -0.43674575871070825, 0.24454604242082373], [-0.06340466565932716, 0.8295470860360943, -0.2704796395445563, 0.16193554926519854, 0.09969935829733771, -0.2202368583412546, 0.058561115727522005, 0.05067541939461222, -0.048116966143992815, -0.047134909791639486, -0.19266642573617393, -0.2123921576198943, 0.35687115853081486, -0.06548831283220567, 0.10508201741649606, 0.22274119334304174, 0.09438810326230376, -0.7845387780343056, -0.3556477226981099, -0.418008583711587, -0.1774494772333929, -0.1291800811005239, 0.35715169163803073, -0.6605496945416001, -0.035530030187777485, -0.48866030929872173, 0.15528059118601867, -0.3593807704641339, -0.16860521498461714, 0.3067051943795538, -0.10436753296830513, 0.15174941362361136, -0.9210111005302523, 0.2792046816014922, -0.279009746660274, 0.09988803291527631, -0.896849164367117, 0.48002690587888736, -0.0933186045085076, -0.22537209265093647, 0.32559546228459496, 0.111623056683161, 0.7798393451925231, -0.25833345090392634, 0.1910033624927279, -0.03235246510238388, 0.10653352349128033, 0.21105925455099178, 0.09545410255670991, -0.18164263629544955, -0.5480847646288197, -0.16420109942035555, 0.04863136656763451, 0.11626401938275727, 0.17725413495560224, -0.0629314395832867, 0.022048067035816084, 0.2569443838840943, -0.19555725045328454, -0.21902604396078595, -0.27037813208296574, 0.13960699904939874, -0.1343294698840157, 0.43822404020099065, -0.14913489506165203, 0.1873612622283231, 0.47739946114173437, 0.029890151355234634, -0.20053152213035352, 0.3917745322317869, 0.019793366491176488, -0.5723555272184919, -0.8288032895171648, -0.27719722366154237, -0.014329104936276687, 0.16264803858837262, -0.08225225032723756, -0.07477545929353716, -0.01918873036584097, 0.34634300776364846, 0.13054414420615715, 0.08288946795516637, 0.13448139685020874, -0.2533912450469053, 0.17177168804998483, -0.19683876443306977, 0.06534309794250716, 0.18963337790132617, -0.08443183861117363, -0.5731257020206229, 0.22836920447522446, -0.09732366037092283, 0.27771086715548293, 0.15521041986635756, 0.14770363096344838, 0.09082884463415809, -0.2837870972951214, 0.043254142046043456, -0.02030611070926941, 0.6761526347140289, -0.0280594645750759, 0.05793734407169076, -0.090644148941657, -0.10773387110283396, -0.22436673026993742, -0.6024586062896888, 0.18770170578023918, 0.5793318188146478, 0.3471997026420162, 0.16786748307083682, 0.4671826576188996, -0.6523779726247427, 1.0137449736024722e-06, -0.01893975723378844, -0.37925179194445197, -0.035258547352812745, 0.28006079172678855, 0.3174986817171816, 0.06265376186054472, 2.75646225084243e-07, -0.3512905198084447, 0.16668095794187224, -0.273095837462774, 0.03365865170223624, -0.08103037274680047, 0.1285230375354665, 0.2740527026776507, -0.3618012831268117, -0.020672842195969328, 0.4601683039318541, -0.06235829097506794, -0.07405323700733406, -0.3033277708860752, -0.024803049207895746, 0.1635206047315127, -0.2676364235901215, -3.7683621274209137e-06, 0.16143128928444977, 0.15870892594825917, 0.1435462820649314, 0.18125772365414813, 0.450534779499894, 0.30867990118465793, -0.0017439757537811066, 0.6194357853810426, 0.5096965627232691, 0.4428308913890443, -0.04732353553139243, -0.6214245087319965, 0.24909531815721217, -0.07148814856368516, 0.002090458081108627, -0.11539644200102363, -0.33113495623275396, 0.6257274808785251, -0.3154207269096094, 0.09744339113092693, 0.22673333457496495, 0.28863616717617313, -0.6822183577887259, 0.05867065760055437, 0.20628882455303402, -0.08199517879673557, 0.08242373236263338, -0.2865153587541865, 0.333956637357703, -0.08342303083029556, -0.26914306799331805, 0.33791627308843825, 0.6070588658863559, -0.13854693528657727, -0.5349775121052908, -0.11146887260643093, 0.02565125836726672, -0.2369234352219847, 0.10944500738036067, 0.18833663554037738, 0.053824720233364945, 0.1547850207975417, -0.05957535007272828, 0.4203884288270351, -0.3008669180634866, 0.17574168703119716, 0.4111294518164279, -0.4136472966906506, 0.34758916109984295, 0.3094975092223709, 0.3967196577454961, 0.5944103672070699, -0.25328789370430704, -0.2042491002014578, 0.15329463567109922, 0.15485412615972885, 0.2943408762137272, 0.36306583478795396, 0.3188720844419212, -0.3941004879670513, 0.07379890925188709, -0.5455199662665492, 0.2584335955103405], [0.23276621480895002, 0.1584241212405672, -0.3119677965283479, -0.031116758160470513, -0.08324984791536937, -0.827942174193275, 0.3533620028493345, 0.29558448609550014, -0.4541766672097441, 0.06633575595621065, -0.14811314663836744, 0.1949312526520896, -0.04834953069060557, -0.15151019146086447, 0.2897661544190842, -0.2657284311424638, 0.31411533824481397, -0.35182826068087103, 0.13833549387857283, -0.012669119061000484, -0.1398059146745284, 0.0005405743717618546, -0.30195740534726523, -0.07183447542521271, -0.13718361031490928, -0.3336294791844416, 0.163594987879463, -0.4151600250327334, 0.19607465096322255, 0.41413878312284336, -0.2949450752448072, 0.25783640085471293, -0.2604616239043441, 0.42411244822981486, 0.11403540261018404, -0.23998899843242047, 0.15249915271745987, 0.5935096685940479, -0.10788938359321135, -0.2689642532665292, 0.42010844621592736, 0.17760617337202003, 0.8279313163401804, -0.7201476400279226, 0.18578066528427728, -0.4338440859953673, -0.3564009433055201, 0.7050806974547145, 0.2148722813686758, 0.42254554863760607, 0.00771828299475105, -0.09576272117597032, 0.21574523443437252, -0.21381057355979602, 0.22136634455021095, 0.17654855397287453, -0.5269829023042459, 0.3048409790668733, -0.5124410629837041, -0.13823566174869742, -0.5565073788677102, -0.6453681647729641, 0.5564538962639664, -0.019087312095433406, -0.32811627757933287, -0.4987250938820588, 0.2386035527308066, 0.07399595750696693, -0.5748154752222323, 0.39627276289439783, -0.61174539066326, 0.5244957795923, -0.407026260810459, -0.02071444295941536, -0.12459354538731955, 0.20859223387093856, 0.4480508999792667, -0.3274827572774242, 0.7222908049238476, -0.1500570210762014, 0.004089776624059357, -0.09294223331541658, -0.029337132749245896, 0.2508672329061727, -0.47276695667749097, -0.2571175583198395, 0.05993718081913785, -0.2424758569929554, 0.0088510453939165, -0.104919229598206, -0.029189551915184807, -0.19999032897602032, -0.22596260288475575, 0.48046498889737044, -0.3504088321326462, 0.1975730160878725, -0.22587038440269236, 0.33243712424251304, -0.1982836009843739, 0.29141622376442383, 0.2814560196952129, 0.125895046257478, -0.04420387020095442, -0.20601893723092282, 0.2081422880048791, -0.12300691232555519, -0.017083656561833773, 0.4228346243297163, -0.19219066557775144, 0.46369294221871804, 0.34908220726443495, 0.5284483885188671, 0.3189236297685123, 0.06830653324571276, -0.4023265030683558, -0.021661867533126437, -0.21230464526107826, -0.21987576479709348, 0.22093628131629356, 4.945450386163962e-07, -0.20830830625258145, 0.3113090695030178, 0.1979454305255511, -0.016105282301126813, -0.5238083648896157, 0.2946427517988141, 0.2360912098210091, 0.35032670757433876, 0.3554591110919342, 0.6209229505321924, 0.037390816487399364, -0.09346959129001936, -0.6703579380365593, -0.11398279106753306, 0.05183492388114514, 0.4341545965168765, -4.841572009477648e-06, 0.37720078476628904, -0.24118128606789746, 0.23575540614875054, -0.31182726299355273, -0.1717687281158761, 0.6433432001325796, -0.027083300908594468, 0.2151546088935856, 0.3947891662537318, -0.07190437878189081, -0.12095508353999415, 0.03562398335811565, 0.5014044346993582, 0.4198585360409502, 0.4501905766534565, -0.17597446475530834, -0.3038656764214456, -0.021140751549539986, 0.03432985103440281, 0.043717718304795254, 0.4474296871108196, -0.8135196598894985, -0.038346600556346776, -0.21398949080211463, 0.2049492357377657, -0.2953747926889528, -0.18663748669003935, -0.17550783832040864, -0.13518706433527444, -0.22446613362978773, 0.4408198142457328, 0.4308686298474547, 0.20609468378662574, 0.1140534134629475, 0.15173702018261548, 0.008283628408196356, 0.41632373218190255, 0.5433733016916262, 0.27547002930721154, -0.09137518955331675, 0.09752849661277155, 0.5030572993825011, -0.42043933990568516, -0.19322088017606398, 0.021888999740921913, 0.585328347557406, -0.4907101238529294, -0.15497945868760715, 0.7877821258055758, 0.6422543554735266, -0.3797417761381824, -0.1310644016960222, 0.41802284141063745, 0.4133721607835914, -0.22280680261459668, -0.2116239041612962, 0.08434996987896803, 0.4498098996353357, -0.011968841339491278, -0.10936192996034744, 0.03545255199889807, -0.3093239151048833, -0.36267579360869234], [-0.4131564728379712, -0.10964460945703713, 0.33623206737190026, -0.1898573789423794, 0.4509937022058981, 0.14834745673360128, -0.23441543167455964, 0.2379570962866193, 0.2992165511881572, -0.27330164182086136, -0.033677420883881114, 0.6206435695787212, 0.2232727665225219, 0.537986423271223, -0.08063348418954866, 0.4534881391905356, 0.3491888255699572, 0.4779043615526608, -0.42149572069628755, -0.2810353504979994, -0.4339319704688609, 0.6929556763736273, -0.07118413619211861, -0.9663113767028383, 0.3758945339586932, 0.11546584683073143, -0.38821203926069997, 0.051944413331434805, -0.06943746855164704, -0.27923366600124766, -0.02573142875164547, 0.2572436490474392, -0.14597642706132435, 0.41036581704902225, 0.3670507588817863, 0.10269737998693229, -0.351857414165096, 0.11240839770672187, 0.12095151655628651, 0.36529280536147085, 0.20952622256870324, 0.401825183360871, 0.12245891793403578, -0.5316089233087631, -0.04558719883291214, -0.1267434770165494, -0.8583376929745805, 0.21228770623260648, 0.2995433154730896, -0.34158247965771293, -0.10147666994300421, 0.5101187615406532, 0.17592717326292887, 0.056422366891338165, 0.08076207839128983, 0.3860849509849563, -0.015177033933755088, 0.026087255075065492, 0.35976419754295796, 0.07309977078931126, 0.10492738769412505, 0.3731790924286174, 0.4297172363145082, -0.38712941012428287, 0.20683346705372002, -0.41119062825574715, -0.0627414435590818, 0.5028523995194141, -0.011960071221919489, -0.6695511299120469, 0.311381382823198, 0.07022555391707919, -0.43984480358455125, 0.6857451688353238, 0.06095851316022084, 0.21716169059707094, 0.5152287026477019, -0.383951338821029, -0.2239423581720301, 0.19498106332881326, -0.03673738657856564, -0.36216478083438614, -0.05361870435078334, -0.7473069432863526, 0.23737282527172007, -0.0996321458349347, 0.32963251758311174, 0.6050577805358627, -0.13128887956157811, 0.1075332961735216, 0.21697517187462742, 0.28818131149480136, -0.21221914976686926, 0.05725022250637679, -0.4319311860748299, 0.04985725369216846, 0.1604971209690294, -0.5456940702592395, -0.37273737739427704, -0.0031359220759510594, 0.016076095935171487, 0.028836092531495407, 0.09052950306040863, -0.06987530415176803, 0.05938123606913043, -0.1058382123633661, -0.1477715133828637, 0.4250381759817602, -0.041649235568795476, -0.38420756303794995, -0.17013371825907023, 0.8186894958299752, 0.23975788610530505, -0.45037427122956314, 0.020651959670954196, -0.011973721325821762, 0.21252120519089274, -0.32261719274741785, 0.15679727931071163, -4.948549207973319e-08, -0.028989970544467596, 0.19035241456152382, 0.08324443965240598, 0.051106871755287935, -0.11520192389345858, -0.5112252079811757, 0.19478641812340233, 0.5017721035550039, 0.310905569801757, -0.10645030339454951, 0.17207909045503764, 0.05510495004960201, 0.11681158326460712, -0.6734071387674956, 0.27850106840920597, 0.40271847668847494, 7.947515871071995e-08, 0.4415730501473884, 0.13941805887348238, 0.4657875565181457, -0.2597773732719496, -0.13334122539881002, 0.2877911609125804, -0.31968765398983046, 0.3188750412891432, 0.11676023185595676, -0.4803511872303165, -0.4390475122131318, 0.2989542664103615, 0.4333418994834965, 0.2576628168495374, 1.125690694707323, -0.24734745793513868, -0.10309723461292915, 0.015982956332363234, 0.0941803018368063, 0.06808886385865354, -0.22768412374112929, -0.5174647607189571, -0.12878627676069973, -0.009147137831683886, -0.3188921621471115, 0.13530768541452673, 0.41855967408356437, -0.3815051394539239, 0.4844953152182261, -0.1962519191621166, 0.26773988132041465, -0.08921235073477594, 0.28648498494980207, -0.2559012428506717, 0.39260194644362845, 0.3218505548022287, -0.09590756540744823, -0.17412942810627557, -0.2797984719013198, -0.28057689084214765, 0.2104666073863305, 0.4219358602230391, -0.1402968379539934, -0.6109910416040848, -0.11851010530039026, 0.025143908616486185, 0.38001450329396175, 0.4036995573294604, -0.4803586206456326, 0.27709898240898884, 0.15272947989662677, -0.8049166370179411, 0.3731004600554651, -0.06085915388948937, 0.6619304276626901, 0.33933971168496463, 0.23963190667557205, 0.20859390674706296, -0.087815243870654, -0.5429440374847344, -0.2988857838306807, 0.43506414853406916, -0.20676960146426582], [-0.7087428451347318, -0.10031415014889, 0.035489981659324175, -0.08706772029433753, 0.13106275610855403, -0.14094084949605928, 0.3026073996206818, 0.002668173265317659, 0.04205942360883718, 0.4184452796703395, -0.21879887331374132, 0.0796929801582795, -0.07410452425477813, -0.1560191658670834, 0.2552192434215734, 0.5561273660560091, -0.13491359862253627, -0.17369314215409887, -0.4118109365653096, -0.060984419678418056, -0.3115215143833204, -0.12244995676148074, 0.10919486691265265, -0.07943153196104108, 0.07601132121412035, -0.3939907790204595, 0.2867791727513412, -0.5120995941785716, -0.6095387123250683, -0.1426697439730589, -0.5531069876765685, 0.0441552203898699, -0.19214764701194098, -0.08578420815253152, -0.2685110195032941, 0.10426798912717677, -0.8991927138496377, -0.16317106659621544, 0.2472266062982268, 0.35342015802176846, 0.2788041854337372, 0.02523692204559628, -0.06778117229365133, -0.08165446681457497, 0.011763737251970451, -0.47756858527990315, 0.18843626081894657, -0.4730105656829041, 0.2211244794249589, 0.16701604480359505, -0.3918341483506691, 0.43259534570033426, 0.25318073411506886, -0.3422779941311027, 0.0676629667791834, -0.2040831953178092, 0.07679231614976299, -0.5757430476857373, -0.0396405142308004, -0.2264950635869567, -0.17719843566938184, 0.26256361510987436, -0.547240097087333, 0.186020543913668, -0.24123562336817525, -0.10968874692337584, -0.005593222611618162, 0.16696979535966522, 0.005748329038886077, 0.09063623199508426, -0.0800597505596581, 0.31172325996909167, 0.06855913918241456, -0.1676402099275344, -0.09492997905534663, -0.5407174602122924, -0.29338711691180314, -0.13444595859901826, -0.058596107030191344, -0.5268691332986747, 0.4554193383170622, 0.09291986718686175, -0.19685597300138521, -0.39798794233817103, 0.0470456684827388, 0.05109265822092658, -0.06020548902399808, 0.3385125488255662, -0.2550502181703881, -0.05385013887128364, -0.2042677999648437, 0.2116552798515441, -0.3243966599152434, -0.2787551801427102, 0.48483974279827624, -0.09286765250120041, 0.2352680189398233, -0.09528317423259523, 0.3437668740260456, -0.01431399635915696, -0.5306201484940304, 0.1814756467403168, 0.6335962074500924, 0.1785993080687364, 0.04372618114130689, -0.06659144747558371, 0.09394562779953121, -0.24918411607571156, -0.6656570295080084, -0.16519946500809904, 0.2604551481000967, -0.09777451285822197, 0.40329232307986224, -0.21065199580392255, 0.012667880845110849, -0.011346079634703013, 0.19081285003877538, -0.31775821009819005, -0.2865238363654174, 9.454910238510843e-08, 0.36557311296366324, 0.10717391062711776, 0.22582269621176043, -0.10285162738402516, 0.09214809841122804, 0.41952408451424583, -0.14165829982613895, -0.2075767152099652, -0.3918228784039746, 0.3239661478977932, 0.06461216667407571, 0.018559981226316996, -0.1923922018066825, -0.14291892154115313, -0.28014375548831644, 0.42402506347045976, -9.173778681877696e-07, -0.6118606920671987, 0.13704902429997093, 0.33006467317871235, 0.16365332475100144, 0.25432565763887777, -0.6918550682602665, 0.050085577184945204, 0.18575674038972856, 0.37081695233071005, 0.07450428260345568, -0.2655477620982601, -0.021078698270093767, 0.49592859543495127, -0.17004924324051998, -0.08213643022932302, -0.5017937312201536, 0.5762871168807697, 0.10467481082097467, -0.1098234364770351, 0.43246543975950463, -0.4682928616925046, 0.12711363157975208, -0.5432265508255814, 0.39574376474927014, -0.36189652516681253, -0.2539382541807549, 0.28605656281381014, -0.1812599880345268, -0.9829963011710284, -0.24764456127573722, -0.35123223974595313, -0.13607225008474894, -0.17718962150714607, 0.059371038797785915, -0.2932024721076334, 0.2275704427938286, -0.1301125521561893, 0.3036031311444668, -0.313717325594294, -1.206837283433937, 0.3466763534248238, -0.2862232195234786, -0.10057468235085094, -0.43217675107067544, 0.2677664326715446, -0.10367783925715059, 0.1534431924730103, -0.4758986421294344, -0.2937871240472801, -0.3509111516075112, -0.1892831494480527, -0.14018044765575718, -0.4161340107975629, -0.2985483427830542, 0.522389314312986, 0.41258359450571835, 0.45050172971748853, 0.5959582309155969, -0.3036299768119581, -0.014508691099011211, -0.2895229142353531, 0.5177068726891046, 0.3455713862445605], [0.0910928646791593, -0.26816839868509784, 0.09710631138917773, 0.514651976522213, 0.10462523518856859, 0.6818249937413929, -0.29107086918047487, 0.4983740401431242, -0.6069763215919018, -0.44809439668827294, 0.2158495996351824, -0.5250630939334882, -0.28312661433151914, 0.3086868504848986, 0.35724688783827063, -0.28068704706004777, -0.2579705381184909, 0.06496838517847706, -0.27557525422142154, 0.02745393709554303, 0.0903399385254826, -0.0050030876193574636, -0.21614598379636513, 0.5524740357324284, 0.6811227557170921, -0.3851016926857919, -0.18019170534280618, 0.36487984073200913, -0.01181523618583327, -0.23864835774802415, -0.22430091707755098, -0.40151901169992776, -0.22406801686152028, 0.025479742206047713, -0.3821093630445238, 0.0313623400118319, -0.4480433118592352, 0.013486570491789841, -0.27278389664108904, -0.1553485115150786, 0.1123433598626473, 0.7011133770803132, 0.06262271123386165, 0.28697637974290763, 0.3235922332951141, 0.0459201086673289, 0.43953825711307976, 0.14895506925277438, 0.05779696411586831, 0.2794200972180238, 0.34718564357130366, 0.00499983627679795, -0.3208867865053725, 0.4661997051969197, 0.4922408371725153, 0.0389694456784221, -0.07211289509366398, -0.36657874880845065, 0.031572329023530035, -0.44939920552533913, -0.3910699724460421, -0.13303377031318653, 0.22742472514466422, -0.06360721067236823, 0.3816431566135984, -0.12438743773969224, 0.28697739063698147, 0.9194328148189133, 0.4597810649911516, 0.2893891712883353, -0.001523599787663208, 0.02217321212756049, -0.4443591573844744, -0.34649254840607385, -0.592936930719735, 0.30972635942096494, 0.3235078087994494, -0.09533835062686585, 0.09799095281231729, 0.15903945822638244, -0.05856926309087187, 0.10198789466315704, -0.5554667373457925, 0.2025109842733436, 0.5023876333385272, 0.15872648087315486, 0.33899674717379386, 0.24275963572189468, 0.4559976909012956, 0.33573479604965195, -0.2977428382747685, -0.20834078160134253, -1.0228740418423592, -1.0879416556023234, -0.004372568136373337, 0.10986123197385644, -0.1261702441622966, 0.2246907924528665, -0.3978563565211171, 0.16792697786887553, 0.6714802969741089, 0.5339674802729923, -0.5693608786848852, -0.17173064602109248, 0.375959029373269, -0.704569449403549, 0.04256180948410909, -0.00704623714293186, 0.06865834904015994, -0.2399292475814904, 0.23290425822247535, -0.2107926645961183, -0.15663707186803932, 0.009012646996701661, -0.10093156436778249, -0.0020524202488871684, 0.3331782189998607, 0.00969559237214609, -0.5389816170316276, 9.81065193174249e-08, -0.11268757340267758, 0.07123704386060031, 0.13205506365869443, -0.006089114236214099, 0.3339609856524551, -0.4436633256775045, -0.9132448876826096, 0.19182101332118182, 0.832271360538936, 0.08109382665098352, 0.12444448131775121, 0.12293106259414242, 0.22062784525800558, 0.44484175757856065, -0.5200249090177993, 0.2071925973288186, -7.489190206481453e-07, -0.3815904299839325, -0.047032186752843354, 0.1115615295011453, 0.8201101312260815, 0.4650470964136514, 0.20634558363261116, -0.6144819605603866, 0.26617446847548537, 0.33505197230735156, -0.3160178346330909, -0.16743075772076738, 0.3402521815774657, 0.15402341862686006, 0.3215987919704263, -0.7129582362044001, -0.1698729142716316, 0.3626192783480365, -0.28616055056362516, 0.19112709045590787, -0.36057674721190164, -0.5458413945670297, 0.14068954669661266, 0.01294323516074937, 0.257236849149049, 0.3448458029239158, -0.3214091248629062, -0.023332967353937566, -0.16083158725102592, 0.4304552846053885, 0.25060580080436423, -0.3420111080344816, 0.328529883947673, -0.6480741163711775, 0.1754983791520704, -0.02399394555206948, 0.7510373193984982, 0.4218285364795726, 0.03872795103109689, -0.13771963327235434, -0.04293903720978126, -0.2051627548569895, -0.04000588756611817, 0.22653503670608854, 0.14229710724665404, -0.542314009195643, -1.3750301729392724, -0.36437536173131674, -0.7895820462919856, 0.26119139252833745, 0.47238797686127754, 0.26513608063187194, 0.11350464791771525, 0.46324875851370423, 0.0795223204753103, 0.319246390883177, -0.20092875072315824, -0.4314338420185072, -0.06894646012185102, -0.05797313856148966, 0.14287763980594997, 0.28832617372231806, 0.19720176074899706, -0.050574119330652915], [-0.1370544705389103, 0.4923045110000349, -0.6527788296671031, 0.19384297134799686, 0.17109630172210766, -0.4737192897098823, -0.24412248846805176, 0.5772940231264319, -0.10520391837850442, 0.0680186470559556, -0.08128182184442675, 0.13346198070098012, -0.2779898027371235, 0.42960180246905805, -0.6023670943937177, -0.32064834123818564, -0.4443041073753517, 0.0959153322832487, -0.16973193384325014, 0.4145906191096131, -0.06638859311165152, -0.3399566251703049, -0.29295920453766044, -0.035349285475869616, -0.21448571355497695, -0.19921426589707764, -0.007271810210096227, 0.04933794597969912, -0.41568844976448205, -0.028783222231479708, -0.2815323854271326, -0.1828051168512241, -0.8865204679979446, -0.29392916105947786, -0.2616403106789837, -0.08820321437601746, -0.12887288180259518, -0.15584627350059566, -0.24359381137567798, -0.5503028242590521, 0.3020630908928057, -0.7133561806497368, 0.09148228500210111, -0.09414024833535842, -0.015912990756211616, -0.005282018496070835, 0.11031928828867096, -0.1572790475474784, -0.12412152687328043, -0.25540498370233683, 0.30730068197973553, 0.19988624380353426, -0.23994411230334953, 0.2984615414350709, 0.36515666414731734, 0.03442249243636756, -0.22422549300062952, 0.27067668947804674, -0.16027550101242635, 0.09246284730976125, -0.28195710545865454, -0.05901794128722978, -0.267213327522563, -0.15142623432424826, 0.17437259576815453, 0.1483985439343356, -0.16966108962458798, 0.1659138336838723, -0.1607504873344241, -0.1714338231206901, -0.1390739021735266, 0.5304082327594616, 0.5567250480674233, 0.053516316542523874, -0.023879262899678424, -0.1588981142878705, 0.2650937555568576, -0.05615142436086734, 0.3008038312554306, -0.40099343085182737, -0.5315132961960763, -0.23867140566845282, -0.14382621012313973, -0.468303380365397, -0.9312929062993638, 0.4775299333219959, -0.05199776940215403, -0.07254403778385625, 0.2359246267902958, -0.17345098070974532, -0.5904895521467313, -0.23604142607596035, -0.17168075189368504, 0.12933783150559777, -0.4903542306992195, 0.04517800215635466, -0.3616709105206013, -0.37106086431195817, 0.18979764596642543, -0.07847034723649363, 0.20090226973178918, -0.11124717315707142, 0.4346070897413295, -0.35903166207436116, 0.34159723784632223, 0.3346565670249215, 0.031055150993237034, -0.2693260115949245, -0.20242074164748294, -0.11554269157039114, 0.10406927266077728, 0.18558596305587569, -0.5094562874022712, 0.21915388987705536, -0.14124911729506662, 0.008968293510742093, 0.29046275801754784, -0.2684584031794053, 0.6485163876016088, -2.743816707866625e-07, -0.16292252892778442, -0.8121793911248136, -0.42458386399950565, 0.2823295293466689, -0.3409422857223575, -0.16065757842240383, 0.45429693591912734, -0.878985011150425, -0.07261738691366983, 0.39828428734473537, 0.14306621200078395, 0.03493433698244445, -0.5692453962402405, 0.18002822352165002, -0.01790404784419798, 0.10258598298809511, 2.526555407647692e-06, -0.22031815938046598, -0.3893389030191107, -0.04188054413077393, 0.39002173467573775, 0.37566172559088234, -0.18758046568286005, 0.3155584903347759, 0.4160651243062932, 0.18147182867327863, -0.8765318497297224, -0.08488431215568172, 0.02027871399818573, -0.4384807966687752, 0.040247843716407425, -0.38269011690603233, 0.20990310281162114, 0.22339285493265446, -0.35739707613386895, 0.3027084694437644, -0.581287094473543, 0.2760163954400491, 0.2869218015795518, -0.2737396992833669, -0.4081754471365669, 0.2858578648753276, 0.1395490076496696, -0.08302874803554978, -0.14484673142634832, 0.28983766116672693, -0.49292458642936215, 0.20069595474464821, 0.4540030847882666, 0.16939697954427374, 0.6638616118333256, -0.323572805559149, -0.24455933409806405, -0.12951932942907937, -0.7278534120307454, -0.39944729077333524, 0.08728665567571155, -0.16410555416927675, -0.6400876069543606, 0.29974246076811445, 0.6219392647525027, 0.14418976829523286, -0.6589110700277295, 0.6501246458048601, -0.29815525473923554, 0.1007104276238985, -0.5286418049272461, 0.3588396458887764, 0.29676253757381393, 0.6001606886712497, 0.13911066908603503, 0.6560146147778162, 0.19576293310355752, 0.2382591934815423, 0.5550308560367736, 0.2173301645498814, -0.4913455582200251, 0.6758075056768116, 0.16547236069622898, 0.2669329606634105], [-0.6392979374314496, -0.5115564000139415, -0.009611371812843082, 0.010545951365267946, -0.1314591512399969, -0.2145553832014883, 0.09153137285862292, 0.42844306689529443, 0.17037880056214513, -1.0336612146425452, -0.42881687763057313, 0.26884960531488006, 0.021980700025470503, 0.1032121765035037, 0.20550084514959677, 0.36170188812034204, -0.27831092226354653, 0.159469738814948, 0.18836981274662373, 0.021535637229751554, -0.7401068268277425, 0.11561620440772873, 0.2743206804380712, 0.3391210378173142, -0.07565740157928588, -0.07634900722931927, 0.2300622614140218, 0.12996461978917467, -0.7860707645718282, 1.0226913228850991, 0.326005294561002, -0.22050248026805677, -0.22966816980394905, 0.06915748754063186, -0.22657630599249148, -0.5300577850458066, -0.5423174850748892, -0.3091679739535754, -0.21569696678758563, 0.41065866635189924, 0.18849773613236642, 0.16851147243080827, 0.26600211900978066, -0.11505541191474764, -0.10051276076298142, 0.1845519028669871, 0.569770030972618, -0.11738949899048523, -0.39757902291348013, 0.5209358337721477, 0.2271130460163294, -0.5329712292536911, -0.7220500431958419, -0.5478804564105421, 0.009738412836144711, -0.03046159635765124, -0.04886625289382616, 0.03934309404397557, 0.3524460971554363, 0.1464094847380402, -0.11112401589111726, -0.15407212562088635, 0.039955760260519044, 0.43692343050527693, 0.2330789942320972, 0.5329678525485128, -0.03184604474782519, 0.22852522932362557, 0.4170836279534319, 0.35751028494405324, -0.004166643979384903, 0.2768777759816051, 0.2784875694476193, -0.20497125229956628, 0.5878678744838228, 0.4387911233035413, 0.3006341285615259, 0.19713737583643998, 0.5354547245591966, 0.5680561261361952, -0.17453527637807886, 0.49781232809363557, 0.5662536000630052, -0.3041376660247375, 0.6486819546524194, 0.16348470893408037, 0.3313073278579219, -0.30736840230031565, -0.05029220063246203, -0.24340202423236793, 0.08267799861285353, 0.673794583312448, -0.06239736429683621, 0.06608965380644077, -0.39888490174365904, -0.17444746448776116, -0.3204278200651495, -0.10499596679365354, -0.225889819499079, 0.8305854816930858, 0.9469667618461866, -0.03407614989763707, -0.48116318888971876, 0.5291189394358377, 0.22809795000537192, 0.4024787371443295, -0.2464292659573551, 0.11655766505199917, -0.15921116815404485, 0.3244226523942824, -0.6346198119001282, -0.24590218337162756, 0.446907768291157, 0.17446453561756903, 0.1869376173744807, 0.002839556440288725, -0.027870686892818648, -0.35686763029004065, -0.26426733898963467, 2.175850196157384e-08, 0.25336322876829964, -0.24057239851656928, 0.03519736970909956, -0.18174008707588835, 0.02721491956131112, 0.4691278812573063, -0.19816611330453432, 0.3011963364910586, 0.6902760700912154, -0.22371545402624773, -0.22187846710836687, 0.1002545585846437, 0.30815818491963215, -0.28636396834488026, 0.16921577914338323, -0.41973080937146906, -2.0955442530971133e-07, 0.07754200659886708, -0.22433773582487956, 0.08322225334124025, -0.10163384039803085, -0.08833393131974633, -0.32881232622625695, -0.16377614157937773, 0.2392089234225409, 0.3317634988121615, 0.11318136125489969, 0.5007783646953115, -0.0684228984907099, -0.20867618835646257, 0.35269222696095476, 0.1661596649426744, 0.07094460823665448, 0.6776371861977056, 0.8927412730617095, -0.4827942405304462, 0.35518140918469415, -0.08928628901566749, 0.08230600217034008, 0.25917667694916824, -0.3403464386756419, -0.6051235792595094, 0.30558781226431425, -0.09729449853681955, 0.33864670907771993, -0.3087582672944473, -0.17525636229656513, 0.5618380574610295, 0.014088030269753063, -0.716995562866519, 0.5802344037012811, -0.500900289005084, 0.2541755250855454, -0.035784786922941285, -0.2796547297538183, -0.29719158689954783, 0.392682775053247, -0.29423992205741745, -0.18253719798838353, -0.28476805594547905, 0.2978435356009155, -0.43815611515990627, 0.1483782458921957, 0.009007049568450954, -0.221143540791588, 0.0902052552911996, 0.5917196402461331, -0.6680499106443585, -0.0031875785334907736, -0.5576179535860039, -0.20734225218891061, 0.017851133995893338, 0.2779267909598179, 0.4528763760469847, -0.4007714664746662, -0.29039328040702106, 0.3444938172073886, 0.40022351451457844, -0.056070617385535246, -0.07160347488792859], [0.5892814574677365, 0.30257601487903224, -0.30755235606122927, -0.23989302159821727, -0.6316112498160308, 0.7215767766904092, 0.22975713784265192, -0.2884759934198397, -0.12168538319354402, -0.33541720087047794, 0.08538823031151047, 0.3155549537329396, -0.023077520814757977, 0.16074960224562534, -0.031830755867846824, -0.09057014336885562, 0.7304057918983645, 0.31189860037529205, -0.11008931580288998, -0.09847292856703135, -0.2397862621623821, -0.315911920413482, 0.69520333583307, 0.07334595643237711, 0.2526147960707514, 0.01487747338952123, 0.15471007438679843, 0.022760137787494365, -0.10795684381423648, 0.14277851460573768, 0.6674384590321519, -0.32800350102296105, -0.547933608368412, 0.06877345793551322, 0.31421445305701656, 0.34029452135407334, -0.33309105436326714, -0.7296889650056693, -0.4586083340749444, -0.11697414110155893, -0.0003813842657116681, 0.22495420110348635, 0.6081216422173049, -0.09359090908970458, -0.4250075409824927, 0.036372625378571735, 0.22528699307737127, -0.7733849656110402, 0.44593365595548656, 0.5101965670090383, 0.06325748971107935, 0.3659117167503404, 0.43085046998871845, -0.3462342308136897, -0.14807618616640822, 0.07541536238629361, 0.35747167694323634, 0.9633138290199084, 0.04801460619025575, 0.08719223551718662, -0.4528167831024476, 0.21289841731678563, -0.2700507353650073, -0.013185635505751594, 0.9086948341809572, 0.5839170252495978, -0.2686559523347623, 0.22486661404511896, 0.0010040388239767786, 0.18590986296696657, 0.5013438021538557, -0.22633243463697164, -0.5292346055919844, -0.04527962224605258, -0.6352358426720035, -0.44256197251543905, 0.7113253299578063, -0.43306630142124053, -0.05339178386676329, 0.6229019679234182, 0.060406219330016026, -0.2063711274032087, -0.4209254456069022, 0.0865346751293856, 0.27461189491433674, -0.8019347072597652, 0.22584529144047175, 0.2224156743101125, -0.3691385348425797, -0.3279044504116508, -0.14577568497142648, 0.2871999639567252, -0.04470478237304918, 0.7117176192207318, 0.0268087499204046, 0.098137362606967, 0.5544739638089876, -0.4846599552809332, 0.061532227880222085, 0.19675125110081979, 0.5101185103077758, 0.057069575431936824, 0.21347090334889773, 0.3742578440036303, 0.04672821813752454, 0.1216091305997102, 0.2542468283028812, -0.2972515610084921, -0.2652846206778018, -0.21912190180721394, -0.11720812518769223, 0.28202254756621803, -0.4128926156586707, 0.18354550323350266, 0.07172648391140439, -0.00988722488830938, -0.10910356998024609, -0.40078034495833775, -0.12923161768620425, 1.6178997603515829e-07, 0.12740482226696248, 0.0826488078893023, -0.17385238374826342, 0.15748249431786357, -0.3233718265153592, -0.4709653071261169, -0.15888236701768463, -0.060302989990449564, 0.26235747141346005, 0.7096458829205897, -0.5022091733077634, 0.007228115039890223, 0.5302419941718625, -0.11024057300750359, 0.15985972685564512, 0.35717888806854187, -1.3333205387805588e-06, 0.30181239999188636, 0.4648908248879771, -0.3925399698504352, 0.07261973104907392, 0.050902354719499415, 0.4324261948866747, 0.12491283225732919, -0.432005121554939, 0.2991221877272513, 0.15206035051425693, 0.0022876345074312496, 0.11325950149456504, 0.3283542407006143, 0.4733955049346768, 0.11583283705271832, 0.19601937166171338, 0.4616492915972009, 0.5021619394809324, 0.3463571273944163, 0.5660364947575939, -0.40751132016706515, -0.425720949388428, 0.820979845434762, -0.3583718004138545, -0.02660120569031048, -0.6626328175651407, 0.0242051459304431, 0.3113731240800796, 0.21230005850574718, 0.4698377532710974, 0.03466678685640535, 0.2549217346257788, -0.39668678039579847, -0.45657298243097266, 0.5919397807972826, -0.4623900682968191, 0.6189819935355049, 0.12520153529627054, -0.011458490811395303, -0.4582298384698983, 0.05899957388272308, 0.7424413209567247, -0.13639740622689883, -0.10531336803059878, -0.038918892065224905, 0.1019344922096002, 0.4270792098548165, 0.16050607194195515, -0.5164666625186985, 0.04318977504023653, 0.1193658003192737, -0.5477068486549764, 0.10602484254774154, -0.8019698647864502, -0.061387961388073044, -0.17091522295021513, 0.36225735682915755, 0.0520358840607678, -0.09470567629174396, 0.34360468897913754, 0.5622794449089252, 0.1588797736222664, 0.0236182376349506], [0.18025710543446366, -0.06767103568359512, 0.017840252033271036, -0.012333158740489568, 0.11494617594906764, -0.1378074513765969, -0.1608596592537914, 0.10909614460666485, 0.34255686917601574, -0.3703658384417296, 0.22344511459001495, -0.04988854487270793, -0.02881490033556654, 0.17939596899860946, -0.33501072238703716, -0.24419799096549977, 0.17947884967208294, 0.23029690868833563, 0.21643931821910622, 0.08461949578720639, 0.4526550264324873, -0.08532277067118034, -0.2714641308882397, 0.2742517777553731, 0.13321596411668926, -0.6301539370116253, -0.419272469173252, -0.24939774482294483, 0.3129602625645005, 0.24395625457753967, 0.17720908083558892, -0.11150792892943441, -0.7611212522855481, -0.08543461310969833, 0.03748189231918021, 0.22949204876003748, 0.5769628624349583, -0.2017964021358419, 0.38328821709625377, 0.1473027231378937, 0.09969947959722054, 0.15498223056251065, -0.12147448933345982, -0.0766842027929371, -0.27509007045782463, 0.3057328022113696, 0.16390384392668167, 0.3645966175961676, -0.32784920104803605, 0.008007627327174959, -0.1708835395301513, 0.34762068855686656, -0.27454156632511845, 0.2304945096008882, -0.1361268264894712, 0.3837550300853272, 0.32365664500223884, -0.2834080519717747, 0.14693954237586815, -0.16489183943760488, -0.5717072114575382, 0.2603261156837893, 0.3269005345290081, 0.36427482991590293, -0.04866889976607109, 0.21732609359886593, 0.24660422283815278, -0.09935626059508462, -0.2752100713941011, -0.012067170870503402, 0.05100818145157082, -0.060686390595844464, -0.07976893451723759, -0.18767106396583766, -0.3619633769748584, 0.24973413274650907, 0.12892792770807326, -0.223646557335572, -0.6351442305051452, 0.18605373350644738, 0.11321671200182791, 0.3844671021628832, 0.2421719533902628, -0.09020710386734929, -0.5545377675705792, 0.2875488459407622, -0.11823373847135579, 0.0815507904062668, -0.49647238017327733, -0.30865538611390375, -0.07838001819376911, -0.30867283645616744, -0.7590451303681217, 0.08849971906765257, -0.07187516057059962, -0.02148885190397004, -0.20378314070289652, 0.33304648182726115, -0.044021927514769216, 0.05268021978231948, -0.10584890025342264, 0.19388885841870016, -0.7632252046369371, -0.7334642127594924, 0.09423339761540608, 0.3010329975957713, 0.09395913223316961, 0.680500377694901, -0.043359540181527274, -0.06845539851022489, 0.33389675227149446, -0.037266024185146025, 0.1457688133770811, 0.13744901560996203, -0.023991841494655174, 8.8727813503144e-05, -0.4126104275725977, 0.26356121088787715, 0.5029647264747303, -1.808697538152973e-07, -0.2438780699925364, -0.1601986613976176, 0.8973815969029623, -0.17100955091422687, -0.6008050967281445, -0.5737459383493366, 0.11318616308842491, 0.516202783825611, -0.2943682522203676, 0.4302449881707272, 0.2194048032017048, 0.11576410423575474, 0.6128975262435825, 0.12302911051651015, -0.12568300083019124, -0.24838461081534274, 1.3036111719991468e-06, -0.3830621750829686, -0.42613566389476365, -0.1342554136851446, -0.2845475183048745, -0.0713764666634173, -0.26890381567016836, 0.46465691388637037, -0.23457613001029795, 0.03368134474062615, -0.006483685962045584, 0.621379173534138, 0.42981437144327955, -0.1050300919679738, -0.6662352697327295, 0.08762756538523443, 0.1394930307935447, -0.015413938112077015, -0.4504708442439723, -0.5459100572961951, -0.22770721096520372, 0.3372306617838063, -0.15534491763248012, -0.0073654900912983835, 0.08161886155449093, -0.013321853621947283, -0.3462201113026674, 0.3158273464724785, -0.042628767278272035, -0.789372738145577, -0.011041091371370418, 0.20387374230711805, 0.25940842696383887, -0.13451783718104365, -0.49434360395457366, 0.196785603239122, -0.1467415319897841, -0.20234282453995478, -0.4161179990346393, 0.4730585196456827, -0.04735352161637304, 0.0923941233052313, 0.1235613563303149, -0.08701637225896415, -0.3856204456174101, 0.41566729413364306, -0.2188561978360265, -0.2220473640476677, 0.11288726985007667, -0.19468218329226739, -0.14563225415319653, 0.13824412427987331, 0.10579898360348798, -0.18989502984283022, 0.16877874339428145, 0.048516554452229334, 0.005346250867905914, 0.03630451152120806, -0.036897810226266745, -0.1901602129944131, 0.038594897871755164, 0.023896102929066097, -0.3247699122131856, 0.14655396851719965], [-0.07923663444127689, 0.48654363291547814, -0.12152418072752277, 0.283451588862884, 0.25477892069943364, -0.3100737642514352, 0.31913035135767887, 0.22133127905174932, 0.05581037959233337, 0.2025282984473208, -0.27955152836098984, -0.22470260961176977, 0.4523839729709558, 0.16562167995224203, 0.05340877381357948, -0.09708761364824223, -0.06307965724450557, 0.32610781281903334, -0.0004140160474583662, -0.4448860441230279, -0.28983096327346675, 0.08001976822532086, 0.9187516833454502, -0.07613319269761801, 0.4303437918485858, 0.5987433701441407, -0.5568561150531492, 0.4787181290181425, -0.05173112400160008, 0.26843483647401656, 0.08952248965705398, 0.2625778777078845, -0.25426392112119717, 0.18414874363424513, -0.2395248177131516, -0.3661791427122875, -0.0190431448414937, -0.8838231428800982, 0.06467616095594941, -0.035662190571871644, -0.3475758442023719, -0.27817629759071083, 0.012900516403818183, -0.08055828793219327, -0.6241305616264826, 0.2688322231442556, 0.2886681744963144, 0.35437741684094803, -0.486232834871014, -0.3677716696156145, 0.3214240700414849, 0.19153249915996012, 0.1749545903844572, 0.10711775769639678, -0.38940740881085617, -0.25336269941032785, 0.09776233567520039, 0.19627722579126128, -0.2538758339243917, 0.02892709479823945, -0.6609997625510131, 0.25809335010387435, 0.36320850572736707, 0.04641707746042795, 0.015160136217751159, 0.815430026589752, 0.09966431484052762, 0.1306131853187241, 0.3990306518517959, 0.12687052673295926, -0.24614033910006755, 0.2440070603508184, -0.8964490800181938, -0.0316657052002821, 0.15605163525495058, 0.15949256072415255, -0.11344946046194394, -0.4025613352938458, -0.28010415798194804, -0.13597418382521648, 0.05200699075060332, -0.47415783478810214, 0.2193796648062027, 0.0949617164333657, -0.1786677983919326, -0.19679259290504958, -0.06072878139580088, -0.8525595679792466, 0.11214688696412647, 0.3215151057438519, 0.18207823170445878, -0.023233003996620545, 0.3971677649516634, -0.04331363287828757, 0.27604916296914295, 0.31503848328414813, 0.25645472622935667, 0.07566404002734654, 0.2289860794276888, 0.15932635932262848, 0.4284355768207888, 0.12813241008298307, -0.17940489646779315, -0.37291883452392954, -0.2853819530849814, 0.44301776994074527, 0.15864664436782705, 0.24636505577570444, 0.6369337548656531, 0.16020374240611, 0.11124776469383578, -0.050081962943134446, 0.5592621081124811, 0.18903459941879494, 0.041879545027416615, -0.0002295792369755872, -0.2830439315184608, -0.14599549373756654, 