{"bias": [[0.5251382113619225, 0.3288545857964879, 0.7206480513095235, 0.5442257949184608, -0.6829084911596376, -0.5704716970983141, -0.15882026916779446, 0.323875114696677, -1.3714774487548183, 0.0171969078632621, 0.6028890899671504, -0.5601747436381025, -0.12164496124097655, -0.7056648704228812, -0.4437697944692156, -0.24710179146632116, -1.0484379974561329, -0.4290196326905597, -0.2934814148210162, -0.08903966112168599, 0.330982007928122, 0.8314162863184243, -0.13524583375015164, 0.8329359503128108, -0.4254461145942461, -0.07639056332404097, -0.18401021675539658, -0.45439118822233443, 1.000937681436968, 0.07821602078767338, 0.6646753733839306, -0.6604920305711172, -0.11918286128466118, 0.36062300750067106, -0.8159012482778363, -2.0573284318158374, -0.6662422746613926, -0.1977574403967967, -0.1320656560130052, -0.08783297154802111, -1.0216277933633526, -0.2258885999208003, -0.846948836894737, -1.5478571006552104, 0.570123939044865, -0.03598139920814317, 1.8652449903413952, -0.0035162763928137924, -0.05747470297672302, -0.47389143212647433, 0.2264332024228763, -0.9379590135498282, -0.34436922699462685, -1.5922534511454103, -1.4091133129325666, -0.12840131415221892, -0.8324625278701514, 0.857041034554196, 0.18713779154544533, 1.6604259623379982, -0.7725319008428722, 0.1583999227116897, -1.1405927689872608, 0.2803580477181186, -0.0707132090386561, -0.430312400053812, -0.010470930538067804, 0.47349680041621045, -0.10653731140941379, -0.4150526645459776, 0.42617944189750545, -0.3534038580303694, -0.23045179793164794, 0.6046952329905189, -0.32809941548067745, -0.8632517453479216, -0.513197685701884, -0.6073727802825518, -0.19536337522411132, 0.10350714489801296, -0.3241043435681533, -0.03247199140371231, 0.370860047716338, -0.19961296332692968, -0.5103922525130961, -0.3844020971851316, -1.449613107742349, -0.3689573894623973, -0.3609716347663308, -0.23764197272555687, -0.1625048096247047, 0.4639951291267192, 1.1619993259748969, 0.1393987455059773, 0.08621990877852789, -0.28700547713191626, -1.0582113732716305, 1.50159532770929, 1.4818417185636177, 0.20558030043989794, 0.9190589133710381, 0.18103639071341565, 0.08912969668290618, -0.21875331862623837, -0.17203268913597342, -0.31425446354256403, -0.33148011259816795, 0.02115809277560106, 0.7538813500068089, -2.0382797036092084, 0.3340924386538872, -0.27086137100476093, 0.025566540628803956, 0.9727131188673286, 2.1007526385630344, 0.58390977951267, -0.14639001880073543, -0.2883869908733071, -0.21623960866237454, -0.044835768830241415, 0.6813682758753149, 0.5243382875878406, -0.646348952823624, -0.15008335666221312, -0.1672009057661238, -0.5555931941978952, 0.6830291272764237, -0.15043090994836458, -1.3664263655524016, 0.025172122757005883, 0.015843005194293058, 0.522179372712056, 0.5573484627599912, -0.17776398460344056, -1.4288486147759984, -0.36298833638049116, 0.7946281348977716, -0.162044030099796, -0.3233642628683117, -0.45944609404861203, -0.2699464662330795, -0.32309810640766395, -0.08129053236535652, -0.13913606625779193, -0.573055981900429, -0.552081213054298, -0.5573366304234026, -0.08381530542617681, 1.2161382721011054, -1.802624459390016, -0.2232336928244265, -0.17308875589327957, 1.2538597697940905, 0.05764001835692805, -0.3219872332083478, -0.4433830382842892, -0.07000270139624307, 0.14030963707998678, -1.1002319743137248, -0.0007981302534905569, -2.0305235374252297, -1.1265043739286047, -1.131171632103636, 0.09210230525791686, -0.0769108413377654, -0.4249223164361432, -0.28910050088808953, 0.6561041545760834, 0.12818679955785833, 0.4265195724747313, -1.2440294176526725, 0.5522567016619172, -0.6067520052774059, -0.2848702336135092, -0.6973952281721524, -0.427079953604162, -0.18752448304178873, -0.6545688167802158, 0.9409301008686269, -0.042913037706697604, -0.134017701579743, -0.4008127173964102, -0.4506896816210456, 0.06463240856826544, -0.8952442504782382, -0.3422246346256884, -0.5548244611626214, -1.402414085618647, 1.554430911135223, -0.28873553059918095, -0.12118243249234041, -0.5008113352161987, 0.14199896616334728, -0.14998425363692977, -1.0099743106946064, -0.5132398436163799, -2.291796639628686, -0.8486158919791046, 0.02245704627155338, -0.8395926841497842, 0.21461703476794988, -0.27476411995411526, -1.5375653901024975, -0.3344126540705849, 0.4348502960056193, -1.3737276690498725, -0.5373082746532474, -0.28503719652106746, 0.5297378399966086, -1.0051860378370086, -0.06133327146874092, -1.192664164801025, 0.07084174893973338, 0.021308855864895226, -1.8803904007359118, -0.9233853422718151, 0.6516667916065405, 1.0143880925882365, 0.6884216339780989, -0.03324786203150712, -0.14531622237416947, 1.5685872691750582, -0.16923017097641213, -0.8054171993220351, -1.111674993104905, -0.2029416147991679, -0.7352609965001907, -0.03131490589321647, -0.04722071604036632, -1.2086068759972084, 1.6052836576830412, 0.11256721078326536, 0.2329175729774928, -2.1456211636987916, -0.5498941579365499, -0.24031384988877547, -1.1473136708834393, 0.056830605638506136, -0.2901624367971672, -0.4003638912282149, -0.6006920934564891, -0.9319948135671867, -0.5478519431915585, -0.6170821145716586, -0.5037639048479176, -0.10433280139813442, 0.24422091781875999, -0.04615931354692478, 0.43338323539221857, -0.45940228138535655], [-0.11174026713631414]], "hidden_activation": "logistic", "layers": [250, 1], "output_activation": "logistic", "weights": [[[-0.20444855956680652, -0.0645497688210437, -0.17138241289566003, 0.34292019962261083, -0.18679814410664938, 0.006280461088342223, 0.024469399896355916, 0.10031466849225695, -0.0014955103718867113, 0.2918328694915268, -0.09245727031196949, -0.08345671696955288, 0.031071419620458826, -0.004144871439467058, 0.31788729550054146, 0.0012439679665295937, -0.12065488859140233, -0.04831980260670018, -0.12000067759500943, 0.07827832643218206, -0.21237303073726177, -0.10682874759935228, -0.3189753285456036, 0.2149554353049024, 0.03196667138453896, -0.03278869954106311, 0.062404512683688365, 0.010660231728538173, 0.026432886826819612, 0.10761469665136264, -0.1102680440690691, -0.0043219229364253944, -0.08875845012711649, -0.29235308846884506, 0.17434106076626177, 0.30122964192630397, -0.004263321133638204, -0.20828917713464848, -0.05708619444346341, -0.05581975888106862, 0.102560019880067, 0.0678937000329075, 0.1053776125596061, -0.12715834509659799, 0.021071713781305363, -0.021037919002334936, -0.12409186929805012, 0.16114592960051283, 0.038242783134143504, 0.01150407832016966, -0.03796971159313453, -0.06819140179922602, 0.0071909771368695, 0.2402429356641426, -0.0363626993729963, 0.05295588969693994, -0.409685755498633, 0.049015831824961324, 0.07226149001638232, 0.0695857031667152, -0.0625329148189021, -0.06083952231687347, -0.37214187590969705, -0.04880582148253423, -0.047885338577290014, -0.16274220823361965, 0.12274286966279367, -0.07771052351688787, 0.06127804638829962, 0.001346118302813446, 0.08421187012590337, 0.005338491724240199, 0.015899946297488827, -0.12884094858678916, -0.07083190019399328, -0.04461839807780747, 0.021144421799147804, 0.008652139149433257, -0.06972076329108991, -0.050090825944239775, -0.07678838983317551, 0.0515787297555348, 0.08979596124460255, 0.047760727048001196, -0.000255129176581031, 0.1851831007529789, 0.387555856587519, -0.05368863143873927, 0.04723589514913311, 0.037402657794557904, 0.5711173998443817, 0.045898670241277355, 0.3331062263422414, 0.08481269325797165, -0.07792631579334129, 0.022911213789447833, -0.45023830929473263, 0.36021618596517857, -0.02132204241828552, -0.040269976342866574, 0.04891439312117892, 0.34771649440021396, -0.04892872451876373, -0.6084490199652519, 0.1254998019285767, -0.31256422257967553, -0.12534899113711923, -0.3607971415057538, -0.11043640916406831, 0.0008669180360397278, -0.2050638941998937, -0.10156937866688248, 0.07770157616606435, 0.11698545870749509, -0.38664303813380346, 0.17949132713454274, 0.15546615070946446, 0.03685628559284409, 0.049112477427529534, -0.11914976950894748, 0.48259876430470944, -0.201256516943627, -0.22046083812191836, 0.04497777379419577, 0.3659788847155383, 0.051900109379342876, -0.0994529683076261, 0.0323599996166533, 0.19583511418965238, -0.03641580275729282, -0.10735493028876136, 0.07928350993081991, 0.2350889873725817, 0.04683381958606937, -0.17991606774635643, -0.4113374918276754, 0.5784335917421152, -0.08576499836517046, -0.0005132990772293927, 0.044300650111159724, -0.12096063813670724, -0.2749317042208811, 0.24474764146549613, -0.051435842991864315, 0.18024892836413056, -0.07872310015154331, 0.012008484627924237, -0.10154641475009592, 0.7617806267433036, 0.32236248435831, -0.050095691247675364, 0.05383627100473427, -0.2468607045787059, -0.0795112936233549, -0.0005823942306469088, -0.031343207753527384, 0.2749441033883805, -0.0667436414284958, -0.17354160133287583, -0.10308682466929776, -0.10148901841378792, 0.13784531265515318, -0.0027944582544285976, 0.047678205015762885, 0.019146775404873664, 0.0401888943127662, 0.19627609040374386, -0.10859854667074911, -0.05132347871136444, 0.07059606091968698, -0.011576948619522102, -0.07014916387196664, -0.004992552704268553, 0.021725844353466722, 0.0480093024067794, -0.24045726884014115, 0.02083997429240959, -0.27068093506611224, 0.14014526624240237, -0.07704625297331641, 0.29690513148724074, 0.06531350154375964, -0.40835522508065236, -0.040666241383191686, 0.11539990709760976, 0.004747661820216762, -0.14189430137968034, -0.2240735090040809, 0.09132544669264502, 0.31558284673137, 0.30065536998948533, -0.00378067362873115, -0.027185197909265234, -0.10459656324608839, -0.0026228163637183124, -0.03656786705572158, -0.3264782628895001, -0.1302828483215007, -0.2048270952702809, -0.41915587525364173, -0.05688510936886052, -0.36290349868034316, 0.11792529350536164, 0.03542337243541982, 0.1983669361866253, -0.04034553886489078, 0.2757338612477566, 0.005235010825176707, -0.03427926407151744, -0.24610194443046762, -0.765887559659621, -0.50871957320376, -0.07169488805343799, -0.19566065421585918, 0.4547785173370988, -0.3273967972458303, 0.1621858265490543, -0.08700500423716977, -0.23527019765716856, -0.03712534222793153, 0.22528926546195807, -0.3195589454753094, -0.1365814502933033, 0.0013269374438685604, -0.12828396726694058, 0.04057800393256427, 0.0033936221027951593, 0.2762896874841587, 0.08856729610480102, 0.03485187374277265, 0.38442817884178404, -0.10402739525428636, -0.2905664413926478, 0.0010288289496042562, -0.002661316679392718, 0.24471177381120493, 0.2249701298343061, -0.10556098376847911, 0.07363319788650997, -0.11921409488134331, -0.37092899919191974, -0.23262414264425826, 0.030579128780948553, -0.11732564192252254, 0.24137150398354645, -0.10611258555034343, -0.20558419570694017, -0.1124409464470475, 0.2985290960474246, -8.99859763496519e-05], [-0.029575348449151377, 0.04246008658328861, 0.19253737549803462, 0.4632499253865422, -0.3765855423543318, -0.015215882971860472, -0.03278757367609948, -0.15722195227043193, -0.003889359002981388, 0.2560430595867931, -0.4041400102938938, 0.08823043718740783, -0.029412014016835603, -0.008706535861249356, 0.15539059294867807, -0.009583648240617866, -0.1726879855306807, 0.16069351692766598, 0.04369077962111724, -0.055258161843446264, -0.0726142190253265, -0.6049370916360706, -0.23502189642263338, 0.37844576217312365, -0.04415948289446637, 0.06117959713965321, -0.021210845252301085, -0.019441650067802352, 0.13075348403682782, -0.030852346430694313, -0.12369766412971832, -0.00885300068290153, 0.03737688614835094, -0.4057284544697063, -0.0813677867523594, -0.03718607850953497, -0.008743146733361077, 0.012466717287699087, 0.03140513253243819, 0.03873879366649859, -0.10067210379483921, -0.0027112655822800493, 0.7670659424759013, -0.1558758971034882, -0.09521331043943561, 0.019725003304270447, 0.23674763703139978, 0.13718984740424262, -0.035789241203482314, -0.03313956634708268, 0.035495727645687404, -0.18338584816280978, -0.01568751237072735, -0.20921876679669918, -0.2631885237835536, -0.03903711077050822, -0.8087825528895388, 0.4110091763686774, -0.05064912676030226, 0.2827118100141737, 0.5245671347964433, 0.04775236305729598, -0.4397549779843193, 0.03871001837722099, 0.0775980653245097, -0.008121226517052289, -0.020322912887638704, 0.07289614573234347, 0.31388430025252817, -0.009532713751296596, -0.020984023203696276, -0.013967372623495185, -0.022432919120636066, 0.12245651003770694, 0.021612699951942732, -0.08918959482488434, -0.026937441989389185, -0.017769340185863163, 0.03679328076961965, 0.0414379459832217, 0.03249414187289203, -0.029646759518550853, 0.47192486938605993, -0.030937654101213848, -0.00789328908554815, 0.00774556546924775, 0.017277518481454972, -0.006146568435593074, -0.20343221337285766, -0.04076181878132472, 0.32446213324406176, -0.10931357427921372, 0.5678243501157747, 0.051312141574833194, 0.07772168037563033, -0.027429182472378372, -0.5390024232408279, 0.355737873763376, -0.6682941625348974, 0.13736109512813344, 0.43128166218205505, 0.5456200236117317, -0.09924108247359029, -0.48844863914012343, 0.27642019928548456, -0.08732567070415428, 0.014336099298752668, -0.14160354554523844, 0.09418662821655632, 0.0010288089357320988, -0.5281934244351014, 0.02810972740474727, -0.03373324111450089, 0.5211269898723596, 0.1507919571284057, 0.0643558650707151, 0.25287586485938385, -0.03827545588642249, 0.36684610133668377, 0.024553943818029843, -0.12590931226779697, 0.10041346028474198, -0.19888501498415517, 0.040743106804794156, -0.153118864831302, -0.035290841305683655, 0.04405179280024906, -0.8627530515423966, -0.3535986242197315, 0.06680150670551342, 0.07905873382124312, -0.16589134990395446, 0.5762298716989926, -0.04996170890292455, 1.2201524879829442, 0.11079234146563052, 0.07965372164837435, 0.056235330433664375, -0.00800148671393852, -0.04182127995548846, 0.06715138528292745, 0.047172150342217146, -0.24391873565054842, 0.033444467626990014, -0.23055322108868595, -0.6294792742031852, -0.044235830732564915, 0.038338251987461006, 0.45291928991747843, 0.020141987084084333, 0.030186479292588452, -0.03660500946430505, 0.010167943088040244, 0.03590323487369394, -0.00795864301406444, 0.03301245871604793, 0.08115653027699196, 0.026826190963357543, -0.8567734537940667, 0.025036310616428498, -0.19289270604695113, -0.17430917336814997, -0.00624583340795282, -0.028440623314158964, 0.0877309481004393, -0.04152815193966086, 0.01886912928996773, -0.06194763690599985, 0.1084839161156125, -0.30763630324706176, -0.5936853154913708, 0.022675536826569517, -0.11221134038628203, -0.026787308792120434, -0.055407380361590965, 0.23460481266620742, -0.02512356956090852, -0.2982157492369938, 0.4969194516860924, 0.031457767058439105, 0.11282526861211498, -0.1192872180719643, -0.31680789950541294, 0.07974171814344626, -0.07901525784225043, -0.013548251788053123, 0.3843305339908679, 0.015502698046604015, 0.1865923412875482, 0.47680464485293117, 0.11267079302602817, -0.008168396624472045, 0.025946976915556596, 0.06577407720532141, -0.006173214807862755, -0.24763274343285427, -0.1597457189858271, -0.5641346908419553, -0.11722567889096305, 0.14142276445330457, 0.0387442653924725, -1.0354034986998106, -0.12877941085288336, -0.04089272552857502, 0.2083617063658395, -0.5203595144282267, -0.03916997938885543, -0.013781682924095694, -0.4076083424691848, 0.03834461136310558, -0.735317280815761, -0.4287988733880587, 0.02895570706019107, -0.020455598007471234, -0.21600650480036818, -0.4507268620041692, 0.21292857904615314, 0.29270891001117016, 0.03130458574677441, 0.031493417991301974, 0.12585385239770205, 0.21341124275497972, 0.07293655519275162, -0.03879121258748207, -0.5618306617084549, -0.037018675467410535, -0.044635973171333124, 0.19669785792093022, -0.007229694452133816, -0.24757541309050854, -0.07984741671150213, 0.03893983349366719, -0.1222454488811732, 0.0014609683550867087, -0.0072113112185264745, 0.13781645238200066, 0.05934596000639262, 0.008595972541133364, -0.03096813618541623, 0.005557856036217587, -0.09115157504976808, -0.12115604515876602, -0.03631572856147635, -0.06587232992351409, -0.2633651771929293, 0.07385254467698427, -0.06517755991229592, 0.0560725609639361, -0.7598651291191479, -0.008102176580081253], [0.11838868587942118, 0.011530338394768547, -0.06383526142336365, 0.2660548823941488, 0.16745588960067492, -0.009810861199126107, -0.09531356104975588, 0.06834552820670604, -0.00728526309512038, 0.14158399336972857, -1.4521248880839472, -0.12922199321794262, -0.012876163726083386, -0.013199544979671365, 0.2383847288244338, -0.009802149010588332, 0.03841017105861305, -0.1884479809612975, 0.037212720844207715, -0.008267653973988726, -0.13215562092606326, -0.27953960851449156, -0.8479503546440981, 0.32131493741191136, -0.014913950085162012, -0.013131159732596842, 0.00881671364956191, -0.010705716477913668, -0.03701312644687592, 0.027781290223760722, 0.24644449246675734, -0.013238175340265123, -0.0014780286029867553, -0.4857671899713987, -0.964725114935649, -0.8082660043038964, -0.01310318054048334, -0.07139958423164401, 0.0072163342038985235, 0.002733883565746562, 0.06697839029928604, 0.0901083057318583, 1.0649207998528372, 0.4794202776309696, -0.4315074246894275, 0.002719912293723695, 0.18204103717463324, -0.24137200799259248, -0.010230102487278025, -0.02427507073031411, 0.005229892689741885, 0.08907078348721746, -0.010269816037923136, 0.15551441447837727, 0.14266281996272218, -0.012263518484286508, 0.38743437351829774, 0.04709641554934609, -0.0428900431898838, 0.016688856808870906, 0.874193352362735, 0.006251887363982945, 0.2984426911905881, 0.004143037535484446, -0.020137309692602436, 0.07019371152404784, 0.04764456557484849, 0.2682603358301387, 0.3193854964669797, -0.009499397272777533, -0.4979199868751739, -0.009945433530398558, -0.011738734384052697, -0.05180227511057574, 0.02417509273186251, 0.16742149608380075, -0.013848266509760444, -0.010135597335750276, 0.009298239590458736, 0.00725419243072672, 0.03214139149903629, -0.017298918994696322, 0.11146888331251192, -0.0023616878585116016, -0.009560129589978773, 0.020640200091413614, -0.8996249242471483, 0.07338237683484845, -0.7610813310457211, -0.010590369156784636, -0.6130948709498184, 0.004275200158459448, 0.1919924265834762, 0.00743085618807106, -0.005925249714446148, -0.01211054510402859, 0.21062420943043517, 0.3459338137911713, -0.45017022275275737, -0.496410914644089, -0.2486226669159558, 0.3576762671512363, 0.05265375310504501, -0.1975672491429481, -0.25464759532661063, -0.7219898548195589, 0.025122175026611685, 0.235108427889777, 0.012271937194794845, -0.0003368427675767404, -1.0532916512802901, 0.01417888336525183, -0.045533328663980036, 0.19171104551920654, 0.4437354854346847, -0.0011913550296692977, -0.15532190749922117, -0.01648901213885716, -0.0752775159551511, 0.07599262939100788, 0.12906424617327591, 0.16469036545535307, 0.009037562929426948, -0.09608157504238637, -0.4975374238116994, 6.393969065844157e-05, -0.08980771620539801, 0.8379546908561214, -0.9165951950863214, -0.0709100021386686, -0.011535180440714901, -0.31213366647708646, 0.6125860078360192, 0.004212838428865858, -0.08670251801890198, -0.053060970268932924, 0.020083642678744146, -0.0002809068358122772, -0.010049632909926191, -0.011460672758585708, -0.0759844789939392, -0.08628068378105617, -0.10806925915305324, 0.010589593220627386, -0.2371319238874986, -1.188941471199926, -0.01972330257319486, 0.0019524001906721343, 0.1372892633283539, -0.9366991946280274, 0.009199973411602905, -0.0003067005286489288, -0.2376478550869818, 0.004767223919602784, -0.010079146067053901, -0.12287129728680189, -0.2551750957427294, 0.023248557130311622, -0.959814472766275, -0.02082972414369807, -0.53854634361026, -1.1169519212331764, -0.010061997278029707, -0.009668737885824362, -0.060548189116807864, -0.045274616673856724, 0.5757583110905263, 0.06593729864494019, 0.051011651737574264, -0.8605739002406425, 0.39362887276828534, 0.02958658123084876, 0.1182055410844873, -0.01218198120017256, -0.11034373129476122, -0.14245001079318587, -0.011388578388738652, -0.01885629577518213, 0.26589168937783897, 0.031740689567762444, 0.30188394904928145, -0.109754759752227, 0.241898429935367, 0.04452797600963691, 0.041506796280007446, -0.009870423349090978, 0.34676387185927704, 0.06926149774936187, -0.15919185826119397, 0.9267658989777157, 0.7947289655824903, -0.012536059476591293, 0.0044280045696115655, 0.005742638236686438, -0.010412224035714757, -0.44962470349506517, 0.44961694810030123, -0.30766771745893584, -0.0922262075626591, 1.7153397956004042, 0.0023014211215792377, -0.629650940001676, 0.23121279921806154, -0.014368426874228993, -0.5190831371411915, -0.7289134167219583, -0.11463379856459378, -0.01002431074152102, -0.5967730465427231, -0.16917486837086262, -0.12740978388520588, -0.33842112049324985, 0.0037107034809619353, -0.09196981688634259, -0.6632783897419201, 0.15390713158411015, -0.058314140604900276, 0.0090386308524036, 0.12236218719000225, 0.004512437266719437, 0.6027519473074469, -0.4132041444741437, -0.003801577521149435, 0.0033835690572172157, -0.5178327180328143, -0.011151172660563476, -0.006189793554198273, 0.07920790918630391, 0.010297085201651237, -0.0897654862862616, -0.13182231948198816, 0.005948809103349105, 0.5486692777060164, 0.0004594796604216446, -0.011029309438989443, -0.15103663697145533, -0.10568778639371817, -0.007258659259686498, -0.030173062378065663, 0.0680179086345456, -0.3080183228025773, -0.2301548517633557, -0.008525912434764171, 0.28592306353349956, 0.04278454294933203, 0.006788633129731685, 0.343898972628958, -0.0007635562235743345, -1.2406235067854665, -0.00962587910291301], [-0.07985677739673853, -0.009532440956451107, -0.04260689852132876, 0.36232799965692797, 0.1919269236090057, -0.0012658739341601952, 0.0957314635351567, 0.6044463666481652, -0.0031660153665974133, -0.08796994145894614, -0.1979040341395783, -0.3171510208406791, 0.007447786195702593, -0.008241900708135215, -0.4829626216799238, -0.00398466236215585, -0.07568434168504075, -0.5404320720628493, 0.008554217143730596, 0.04570972579345608, -0.2712460818513198, 0.6948900953407411, -0.4399198541401741, 0.08673950305142127, 0.006297996915628815, -0.12032635232697991, 0.031001687913417765, 0.00018824263051716184, 0.050879310314137005, 0.05515720072205856, 0.5652411155095378, -0.008425842757060447, -0.040259663759750694, -0.9971118979763813, -1.1171628019276334, -0.11073404224165362, -0.008321660004116428, 0.033141490212205624, -0.03281105467649322, -0.039484630042780994, -0.15457655005269433, 0.0069055514221013645, -0.5683547368019131, 0.9988855061455544, 0.35018012185171, -0.01313497655984418, 0.12835422075969435, -0.1685614263698139, 0.017944781349318206, 0.003412561822578523, -0.018175552497876574, 0.06138687220486563, -0.0008637657580574459, 0.018219090901701256, 0.48118015968149225, 0.017541313427409957, -0.2509831373737561, 0.2329635107090538, 0.10383283050525777, 0.2976689296185563, -0.30608895794650975, -0.03451850599818306, 0.1080353148378291, -0.016346762631132057, -0.08090821842597354, -0.05933276244746048, 0.059084906873724835, 0.35740523030216714, 0.3772829706284246, -0.003767897536723564, 0.07564051014088218, -0.0016346610390363223, 0.0028281483220771366, 0.06915417073011448, -0.02330211836117717, 0.001430781102187707, 0.0012546690759538287, -0.00037911562836603706, -0.034913906020515556, -0.02702409522917917, -0.027464872301814918, 0.010815696436221744, 0.7433846350228552, 0.01933847018963046, -0.004661285652819675, 0.029507099595202944, -0.7213051103646287, 0.026181047511974434, -0.5705354437696232, 0.016195371468095326, 0.6697724755615074, 0.8466439343945229, -0.524281753317228, -0.0980200542074142, -0.11103451453432617, 0.005260549608594495, 0.05826632919611861, -0.6149680774755166, 0.08158849524382285, -0.49399186360679553, -0.051404646811960907, -0.9333139453165455, 0.0468025679795582, 0.5680931665096565, -0.38695013438392906, -0.4434169206388706, -0.04057768095289102, 0.21177807131640783, 0.11545940296731547, 0.002172397675453552, -0.7129532213432189, -0.03122025629570441, -0.016404083817910118, 0.386964535829534, -0.045464046602758976, -0.0566466871364698, -0.4161834595081158, 0.008259350490330615, -0.07637147116861684, 0.05063238909601199, 0.09166041396413548, 0.24178383578400892, 0.2743557944198003, -0.09691018832807598, -0.3786448904232937, 0.0022416446157073125, 0.003899621841191925, 0.4379249628793623, 0.03326298871276199, -0.14077829357506574, -0.09642342220731673, -0.017170360950012814, 0.1784815345008165, 0.04709778836826773, -0.9925680640750802, 0.8317893858330476, -0.7357985532794699, -0.06597544924973325, -0.005051829861962666, 0.011171877822785515, -0.23414987627705433, -0.05215068750456421, 0.2560972174150004, -0.037001740627807506, 0.5409458711044676, -0.12754671188039837, 0.05979315761853911, -0.030159147040339826, 0.4215601873745527, 0.23441719672533634, -0.02653288281253398, 0.022910062756436922, 0.2064446269472457, -0.03014666531009904, -0.005100874400931259, -0.08567328326323222, -0.2775210463397967, 0.020782873940975412, -0.8115293501641506, -0.025735524638588178, -1.304806318535614, 0.01808748531585445, -0.005672442782204734, 0.017919847383512235, -0.03403266989765543, -0.04850415717045774, 0.3634201867899831, 0.3923622889679815, 0.008971933609115159, -0.7497110098533388, 0.43368029051907403, 0.1582756217957309, 0.15084722564183783, 0.004972094715169973, -0.04248117406474763, -0.050767663749141205, 0.00542422332136008, -0.23863554516774937, 0.16558726852930045, -0.02164436778718145, 0.19375121539870255, -0.06488739076371444, -0.2174549293504688, 0.057706107816951104, 0.09273451131314837, -0.0017850445445709796, -0.8180561467791199, 0.2891385578857797, 0.3645899604148123, 0.21183474529846041, 1.0971097099041973, -0.00769415018676722, -0.014354242490877328, -0.051364761583577466, -0.0056199785132161765, -0.7577642378774327, -0.15950488850634087, 0.09368305974535603, 0.10464353973799827, 0.054926703722822656, -0.022322072509620535, 0.5950186576304498, -0.39412327348342413, 0.012536020543947089, -0.16311922498720408, 0.6727155759419721, -0.40228139722250034, -0.0017240998765234797, 0.6630486293012083, -0.05526990569217233, 0.4079493877291865, 0.1978821951996524, -0.00953901721616575, -0.06131703111138798, 0.1554077604005069, 0.012975402005634719, 0.046130201377251295, 0.3392652882181616, -0.35538405860561884, -0.024665200664473624, 0.9568150366956679, -0.5855805031604048, -0.1000031982471147, -0.01839205205325315, 0.012380841106524121, 0.013700435846391747, -0.0017729452883676277, -0.09028730580524517, 0.0154041913297522, 0.21438563949692213, 0.2926939261714929, -0.00762663217478983, 0.7728470727853475, 0.0026793286571683617, -0.006437160508599585, -0.23525957232748027, -0.46901747008109085, 0.012104923329958014, -0.015673895661089447, -0.024019569592053147, 0.3339303273056712, 0.12705869115174195, 0.0024937354737724427, 0.005719179974592122, 0.3009869510582743, -0.06625876074006977, 0.3349301862780101, -0.045634533119166064, 0.30778351356709077, -0.0046152662629550265], [-0.2348764906414269, 0.005645423760784152, 0.3166655130326249, 0.3757992226198602, -0.45733568861457935, -0.0008971389118925671, -0.10577326439215119, 0.05544615162420075, -0.0062008063279239325, 0.019754069710848237, -0.003086991852179772, -0.2761888642459262, 0.010965738348200617, -0.011626970957028257, -0.08813219587103581, -0.0048024213653451294, -0.1517760922445705, -0.3496879137038757, -0.11756113901476987, 0.03955437891897653, -0.4991506955218791, 0.17029119513095206, 0.6506793842540083, 0.5681867983377986, -0.008396052915448246, 0.006669067339681715, 0.012661529140739319, 0.001043346059626373, 0.08976799238076888, 0.06573880995843244, 0.24701373011477143, -0.011610704230942357, -0.05445872472437303, -1.232736725265029, -0.11964106846109772, -0.2917805776269618, -0.011475015303662696, -0.011749885361951503, -0.03764596792519257, -0.04458333582540743, -0.16509922317100187, 0.7384882400346229, -0.1293005105576031, 0.7397808518251684, -0.8006633767054037, -0.020187246999774276, 0.5440007559730689, 0.024621809596175392, 0.02028017791815187, 0.004317553719871726, -0.014933318713810076, -0.10494658962018304, 4.384290962518788e-05, -0.5828871385972768, 0.8763859932080104, 0.019092734766731886, -1.2594439981133494, -0.0707440246234787, -0.009968512338452366, 0.6021351433950631, 0.19816476033496033, -0.021419107340916062, 0.6198609245792157, -0.007167605369007019, 0.1174994263498787, 0.031059316576547664, 0.06772208893611484, -0.01840807310502705, 0.8697256374381049, -0.00460965314490218, 0.16985867569092455, -0.000992890484109855, 0.0044704424352330525, 0.1945473361031428, -0.03772732564026699, -0.06399996576201361, -0.0010444162402407611, -8.650573402176825e-05, -0.05722821363536346, -0.024079285956364212, -0.052258186169568274, 0.008530966101997571, 1.466832487190458, 0.01691058947241123, -0.006268824782412063, 0.1574642761463062, -0.7959896683102607, 0.0325525532819706, -0.12931422308410662, 0.010805525078584672, -0.29751124862764194, 0.38913154552481655, -0.2837474918514249, 0.23639002732928116, -0.04464919776071992, 0.004950832699102781, 0.5465739093985749, -0.0749041692896768, -0.6445530167161403, -0.528463232184558, 0.3609263052063376, -0.7770299374624988, -0.14737525415341068, 0.4763566529422254, 0.040865773397115786, -0.05076986371571759, -0.02360816521514325, 0.5001718194876684, 0.1974656463877658, 0.0001517305076169897, -0.33490998655149595, -0.06601510899989005, -0.0060513016986527115, 0.46187377054907813, 0.4604178430628392, 0.27701200456662645, -0.1607761841533767, 0.0016533193956243082, 0.2521800452418741, 0.04284923999268437, -0.08374241873898261, 0.3379721972831608, 0.08260866025377253, -0.09632407977402292, -0.14749897170089502, -0.01014625630599113, 0.13635388024137468, -0.8472111742070566, -0.022250311886511505, -0.07914255316471386, -0.1301714188870131, 0.10336296099434211, 0.7838925512330384, 0.04169716138253503, 0.5354873474158501, 1.2613326622170562, -0.43403262467804593, -0.10903332725400587, -0.006784472447674071, 0.0015579955977495813, -0.2065952721705287, -0.0980733756035767, 0.038392558397295176, -0.03131559708734498, 0.04494472980261865, 0.18699351688595436, -0.0887956861788976, -0.0831090315794429, -0.2838813065175264, 0.04209970315571841, -0.04340272465616487, 0.03135527659252849, -0.05672751996677996, -0.025183836393070484, -0.0068685228153104695, 0.14308179588249553, -0.44457167201006403, 0.0401736270301882, -0.47799611789574065, -0.06979249261354378, -0.844064987480528, 0.18583929419017972, -0.0088293761716588, 0.025507445444370055, 0.20045259089517473, -0.09246861953637076, 0.4893841309696221, 0.39555013563567265, 0.13619325556753323, -0.4716927941772203, -0.43993366202816114, 0.11369189069378198, 0.10849191488573498, 0.005297779958515703, -0.022501505028327137, 0.6360508499305445, 0.007515100030458986, -0.17518496218069413, 0.1685138944050039, 0.01786171513350576, 0.180065465199954, -0.08027473806525535, 0.2615528887232108, 0.03465948076384924, -0.005709425789236361, -0.0013720129626717365, -0.6058627428267213, 0.5682288856195872, -0.26389772194226213, 0.7080540215810122, 0.046385515033812996, -0.01076325491854027, -0.01819038065781747, -0.12221617596432757, -0.009066304275493795, -0.5607760285595795, 0.27022189407453606, 0.0768685571077537, -0.03877287877998291, -0.09744437925294383, -0.016338189251289936, -0.12050967845073318, -0.9886003165672272, 0.00376711262669884, 0.28550441279126737, 0.16218115143469497, -0.8325644343901497, -0.000958386956458082, 0.8258443349694652, 0.1459078304151307, -0.15433342541825007, 0.19745264717615743, -0.011339901864281186, -0.057286348996299905, -0.03051888310919451, 0.3283055653029345, 0.0527430385438399, 0.11040585748514728, -0.1935365350096269, -0.030020143040243495, 0.029972659337211414, -0.3547999465841839, -0.15659705786101527, 0.0006359289141947996, 0.003695647071693026, 0.008962620290911983, -0.003987431682622119, 0.027444271401770144, 0.016346641706194806, 0.12615789702260666, 0.3536163721456288, -0.016068709376318473, 0.39474102956714263, 0.0008443108487033669, -0.009092312820143167, -0.29025535436908134, -0.27660068855711967, 0.0040489888701386555, -0.05369488192394956, 0.008005831654786834, -0.28052440502170545, 0.6241223642051602, -0.00788558974826323, -0.06277327636034427, -0.1293929074984875, -0.08759295488049292, 0.4034971670439676, -0.09228792210142121, -0.45300216326685033, -0.006142643591234857], [0.035601308532784114, -0.05352685554786875, -0.10297497321869929, -0.04803495395054037, -0.8943592880367716, 0.0037728551201166045, -0.18678660478746176, -0.12376145268603372, -0.002117059589000112, 0.5542387802673793, 0.3578561976140448, -0.1414061290713792, 0.02467292162694711, -0.00517022806488929, 0.3813960175763477, -0.0006348686588288264, -0.10338993537482083, -0.0007843390566607662, -0.3382915786944949, 0.06878878909369479, -0.17740482412970637, -0.9346300961548855, -0.23249638475258416, -0.07972679918507361, 0.016677134780118914, 0.012322144064022343, 0.018054455604818755, 0.00725715826135007, -0.07276473684381116, 0.10808292993851691, 0.5714380892903744, -0.004887330745319756, -0.09956077148382195, -0.02182420578028046, -0.08981136392388807, -0.07818963496316542, -0.004777812640103278, -0.2049788115107393, -0.03590199799840476, -0.046141542849623275, 0.06108194344185657, -0.2841772566671667, -0.8107101297056305, 0.33438219331957325, -0.9185712913183623, -0.0178940351630513, -0.08780424297239298, -0.0951517883681032, 0.028470357345547502, 0.014976688511612395, -0.0337480439826984, 0.20841105189329806, 0.0042560376336778965, 0.13709036745460107, 0.549556346449328, 0.05210770110771473, -0.01922075838746706, 0.19873787174363663, -0.1357573845365906, 0.11624994093277052, -0.18197017395517412, -0.055956096105378286, 0.4118474636385515, -0.039733308742221675, 0.006793691218322731, -0.1284177827860197, 0.1364329933311538, -0.7963657975747204, 0.44633217924069823, -0.0004614396951044543, 0.2250213357013556, 0.003054290575300731, 0.010704911050394623, -0.10861819407884427, -0.04304542461871367, 0.06825499263753719, 0.015112405760410712, 0.005679042146333464, -0.0775820430709811, -0.04176673111460901, -0.06250054972998996, 0.03036872152209199, 0.13718549668493926, 0.03520863941922809, -0.001782302711820564, 0.16966625252809733, 0.5179883070309507, 0.12858217357677404, 0.13390625436103024, 0.030932550853147923, -0.3731167044493368, -0.3191469361232703, -0.9878483976903619, -0.0893748587743957, -0.06489034450982267, 0.015039820991498695, 0.44443983511310026, 0.43512853564068343, 0.6442936400143583, -0.4452871493665511, -0.28995174307628574, -0.04417986112770573, 0.2951402965373323, -0.11367519079825637, 0.24766369836350838, -0.6458602186365662, -0.14915211653670798, -0.08554202791312299, -0.1212998208011992, 0.0014192083602394899, -0.44084868163138696, -0.13727828438856043, 0.06115626046667726, -0.29208418946362935, -0.02614329806418208, -0.10294131897899761, 0.22565326993959398, 0.028546441564280822, 0.030738285171621808, -0.10834193231687214, 0.16375978275703915, 0.026939369989559824, 0.2527283569746266, -0.0904557371828064, 0.1955052237262027, -0.01741544766996081, -0.1922088898090445, -0.31528649753420984, 0.2519098586253151, -0.021746694724124993, -0.20830629162076847, 0.05972256665610471, 0.31426583854499607, 0.06823387792924941, -1.0113694577105945, -0.032740929854107315, 0.688540710565999, -0.14433984619228368, -0.0020814435457180386, 0.044116574032377474, -0.08286776052939342, -0.13640043992448891, -0.19610815623086755, -0.025765218734498833, 0.4573620953457121, 0.2711403940349725, -0.0829572754895598, -0.192982008273555, 0.21481408518696496, -0.19018483514351053, -0.04381294469731627, 0.07441751689602331, -0.358920246409266, -0.05705521798741426, -0.0021371114337891306, 0.07823345454767033, 0.08899996630760953, -0.03229697356187506, 0.2064049032121736, -0.14593126718593538, 0.028071697534971754, -0.3562285613101538, -0.003816459788493201, 0.035365945528336294, -0.260208261473251, 0.026889718160940834, 0.12157248037253456, 0.1713846443661037, 0.19712727035351715, -0.1819799497713124, -0.0038758468985317647, -0.1803622706154319, 0.19873343126810641, 0.013424095363374997, 0.04583582999993855, -0.07610921044818354, 0.01571027888597133, -0.15926322713908, -0.1959463946086357, -0.00226485132294004, 0.6289870453332858, 0.17092532059532406, 0.34830715855858, -0.01114782101475288, 0.014991024775217748, 0.0019669734033888617, 0.32171370031883556, -0.2985823096771009, -0.43613335566497413, -0.498042922320769, -0.10319432150481846, -0.004240730354834218, -0.02332758604321501, -0.18524942620059517, -0.0037071529547303295, -0.4689556174229771, 0.6317239739567442, 0.18416127299637092, 0.013702210423461035, -0.8576641223211554, -0.047630910708373844, -0.0023589806943977104, -0.004427786593780686, 0.021164512777636518, 0.0546102138520539, 0.11244922156694084, 0.035786766290309864, 0.002927474305184373, 0.010468370180172805, 0.46771200620622905, 0.015311533283838764, -0.9865005283646665, -0.04866185706400199, -0.23873995276480414, 0.21806667743508074, 0.4529001025240914, -0.2522954927345003, 0.09575797070017261, 0.12904329859272215, -0.03127622935568955, -0.020345142034483316, 0.29035210900706787, -0.19856710540964062, -0.0010013068632174491, 0.1657449745033143, 0.02695043511022747, 0.007263877909260695, 0.48886800924927637, 0.05018618717941119, 0.5499448272511409, -0.5045236892522666, -0.11011131629127542, -0.041118010702722016, 0.0016494852246297757, -0.003456204475377246, 0.037361862471729713, -0.5408134804557406, -0.024487666083501256, 0.026006824403656318, -0.07112838762221707, -0.3428983157054032, -0.4417538292985789, 0.025786307469061798, 0.09046860975075664, -0.574284079513302, -0.1659580053972232, 0.2072575535014728, -0.16278892528238945, 0.8029083004613267, -0.0016715573977426602], [-0.16306990778689862, 0.03615116655168762, 0.2883378377699501, 0.38839841481823384, -0.8344309845941396, -0.013803973238231846, -0.051359674061514, 0.015109162392964864, -0.0008210868481585698, -0.08903530698505614, -1.530717450889287, 0.3146334084301377, -0.03819416603942334, -0.0010426619121765347, 0.2175653191464045, -0.00671943785988204, -0.06014247802869174, 0.4471277634239294, 0.02640451073590237, -0.07374649402751529, -0.1698248007482106, 0.34822941991084144, 0.2641941219347589, 0.45706196697370216, -0.05996014161629351, 0.06684420155214568, -0.07599627619991159, -0.018914081374101402, 0.04776239286661041, -0.10842337681461707, 0.19911142272356547, -0.0008235710367906393, 0.08920366352971251, -0.5647831680488125, 0.4103378987717, -0.0550761456095833, -0.0007995107541405213, 0.1289286438040988, 0.0576247992253361, 0.06846560662026752, 0.04762844717892078, -1.8285019715584427, 0.755771965191867, -0.18969944224964325, -0.999853793299956, 0.025705456487550796, 0.08522660755648385, 0.32388162498027206, -0.04830651403511245, -0.019706981833937192, 0.04213471597015088, -0.8381178700419628, -0.014838947390627194, -0.3029178719348186, 0.11148519085717755, -0.05655753638534252, -1.06106893655645, 0.32794804236825004, -0.10311804118222578, 0.4302130869430423, -0.7871709529372507, 0.060527901819992846, -0.8410013476510316, 0.042348732393390896, 0.12315921212768492, -0.02158252077505139, -0.10782616877097817, 0.5177613694313258, -0.4157062096994418, -0.006797203462142567, 0.28026790349508807, -0.012425367455755284, -0.024304029767128078, 0.32625051794147686, 0.045873658548491264, -0.05488969128501686, -0.027423163406565518, -0.01698269816955594, 0.07090980461261939, 0.048628138800357136, 0.05918739187878888, -0.04629741996274477, -0.21083248588157533, -0.07254586853957437, -0.004463706374470125, -0.16292280445699922, -0.45937576408908554, 0.024498646137015405, 0.10822904566300016, -0.04563985095652769, -0.694599079530962, 0.34971581709266103, -0.3803864242802456, 0.26954289780307855, 0.06334900357823454, -0.03157022074555102, -0.607573807458254, -0.27296258158216996, 0.0073119310033980325, -0.03213082368023607, 0.022968693640184584, -1.0249789202854263, -0.029580619599529227, -0.05647142485227469, -0.5237401245955262, -0.26520916792138927, 0.03503909593970574, 0.025159189022036243, 0.30302204199948113, -0.0007912879732243083, -0.7348420526941218, 0.06583056766569069, -0.0416570712393572, -0.1526354540154025, 0.1466371372173314, 0.30573363358459443, -0.31442091187998317, -0.04062805373531817, 0.08020317685423231, 0.0210054993729975, -0.30928860125747587, 0.2235373362152443, -0.43719112123670756, 0.1626225764648955, -0.1516948095815603, -0.08387468488972956, 0.17591282622371957, -0.7057143446876337, -0.43997619353701223, 0.1282460636202434, 0.08454738183044715, 0.007700608572715958, -0.008316157847411161, -0.060697571517498626, -0.009680619427314466, -0.0242121274797516, 0.4144751032918844, 0.10212980503360218, -0.004270030777144937, -0.039882370342633484, 0.24103058961660392, 0.27971039677419296, -0.8707750624036964, 0.056542490580878985, 0.1933591876510764, 0.3633878360108731, -0.209840681938761, 0.07800119256154997, 0.61514673329107, -0.1438755499885439, 0.05414380945915047, -0.05783795696307518, 0.8720155365846607, 0.06014339003833527, -0.004180580567293903, -0.07047451082023894, -0.024074832139711996, 0.009667482810311951, -0.6323950254696323, 0.07698426010520758, -0.7563796683441552, 0.09767927987400644, -0.0009650942615345416, -0.0547272988288364, 0.02933235759745067, 0.0022942983102620744, 0.4400660942565644, 0.27027583339813754, 0.4220721208841588, -0.2548734624456926, -0.8927680916736871, -0.11246072838046275, -0.15259969759450653, -0.03084523134359552, -0.01786704920923881, 1.2570785812020544, -0.03139039737696805, 0.1411008862385312, -0.05420169878223294, 0.013713267636200519, 0.10314560645654021, -0.03265692668209153, -0.4785088661114968, 0.2135587126093633, -0.1471217195252293, -0.012289343495968323, -0.3519010560201912, 0.8748125711376911, 0.7140380350113231, 0.24936093738184603, 0.05385372897917372, -0.0009673991162674744, 0.031629885969970045, 0.09553855084407908, -0.000994896809181166, -0.4179326888204774, -0.42552022577694204, -0.21984591958341623, 0.1627621956528228, 0.2648840007514373, 0.04866155220396457, -0.2105108433230085, 0.33909490663754327, -0.04603856803675479, 0.48890699030358664, -0.23489000551141384, 0.34976498167899783, -0.012318163172880207, 0.5605794377539973, -0.4735494788740553, -0.019790723529341917, 0.44887918799338894, 0.06978761138950137, 0.15918298074375467, -0.16375780699396114, -0.3805990543411804, 0.6045094424596134, 0.08599487735303563, -0.10742693447814647, 0.04503529323206536, 0.6426185692423135, -0.5920399440974521, 0.14283463406810423, -0.022966235094548516, -0.4176185799597444, -0.0452608661854062, -0.03401702795197141, -0.06631351473098461, -0.07776873975477969, -0.20146615016673367, 0.45701082947192473, 0.059830052152118986, 0.1322788175433338, -0.0008046874894689319, -0.001659834393492712, -0.1238539576834022, -0.19832578621404012, 0.06163616805398271, -0.01273757054282483, 0.0019431802199702962, 0.6916637323690621, 0.503281105072831, -0.04297743839260392, -0.04630120647272802, -1.1881886618431834, 0.10694272087522165, 0.17096218128441215, 0.09272385881824734, -0.3097075109184118, -0.004734207814354241], [-0.2758667960171097, -0.019509353874767318, 0.19459493488415977, -0.41969395883211275, -0.814226883953367, 0.008331151525645605, -0.32726238837273974, -0.6866971479121817, -0.0027816495619441078, 0.024005441072633856, 0.6163628902999096, -0.22952658496277617, 0.013338450553799366, -0.0005008151225622308, 0.49488236395250007, 0.002779909118090825, 0.3774636429487567, -0.25577599646853344, -0.12195644561252525, 0.015757750625730097, -0.32299334044552575, -0.6448351747355078, 0.17319517347746483, -0.6645412817706243, 0.011423960965342178, -0.14717904053924524, 0.048380331197079705, 0.011441881818504312, -0.33295027854112946, 0.04865327468293831, 0.06263125029416136, 0.00022343615240595708, -0.05092818320327651, -1.4369203073441636, 0.48435917995506667, 0.5882058133752541, 0.0002620901621586751, -0.1896645136264654, -0.007849158245444732, -0.01849935530215263, 0.28612117693271966, 0.8030796511632355, 0.04207702781941028, 0.9592669887266548, -0.5681806814704444, -0.013375300483618404, 0.048869876834535905, -0.05353716024491189, 0.011962056367696042, 0.011214655090469688, -0.017280121560430795, 0.6259181671592684, 0.007892519976640701, 0.2771418057598941, 0.4633781464056024, 0.009821711612418222, -0.7523628457031305, -0.14593560772677666, -0.3218096448970822, 0.22702071624582307, -0.014332673749952922, -0.013187120252585624, 0.24949517367200247, -0.02162977417542741, -0.28308856074012245, -0.10466505950370222, 0.08097207995222487, 0.4403166127318037, -0.36770573457887, 0.0029644439840222658, 0.5122890960356743, 0.006603907011589507, 0.011265103197490163, -0.0038771239425270942, -0.014269543216198282, 0.09173540191907621, 0.017345836561984965, 0.01103817969743208, -0.02839727255276549, -0.012431514571862153, -0.019942951490440227, 0.014022297232893, -0.2958864418340635, 0.03414564037757915, 0.0014840918972809393, 0.20350041653145845, -0.14393619161900784, 0.1926362758082671, 0.2432879527497641, 0.01552082787976805, -0.25470537598285375, -1.0830909780585045, -0.7438369869506277, -0.07188179722717183, 0.05705298160829257, 0.014071114244998661, 0.08951926983185748, -0.6665108568493283, -0.25030002625297043, -0.2785530195967263, -0.4080673347743796, 0.17018362412586482, 0.34951429829262676, 0.05573403841869745, 0.33377955265129666, -0.468300661937849, -0.09775027067337541, -0.17532773907140156, -0.006548827209262193, -0.0033250017279281554, 0.00715663422763029, -0.06333342440378412, 0.007538189117132217, -0.49964010294074374, 0.05164231205973482, -0.2909298826799114, 0.41773995303218747, 0.008687954844673385, 0.7230198967348356, -0.008038102733396297, 1.0154508056804656, -0.12356554376904182, 0.03599589088539589, -0.23018591356514922, -1.2788239274730866, 0.07404022211237414, -0.2010549093718099, 0.13293750204095262, -0.6718505525079581, -0.04236381399798181, -0.058239150400586456, 0.29878737704187686, -0.9271763476818066, 0.012014569528286912, 0.3681663295229098, 0.3183105899517121, -0.37337657478376907, -0.042304632229530896, 0.0012828924383290843, 0.02295273718333054, -0.08855546774215806, -0.18914982471476957, -0.5883940081236745, -0.01699223337499541, 0.965983981748383, 0.18229615162029628, -0.065342798925196, -0.06651999655065892, -0.13574289001916326, 1.0019039045529192, -0.017641566061578698, 0.03619198684076155, -0.2846958543496737, -0.012808699370459541, 0.0012306940183178208, 0.2581913155966516, 0.10030488183282013, 0.028817896581030667, -0.43787915755209206, -0.08582963255629049, -0.7192537733265127, 0.5577953431455459, -0.0016380652400753257, 0.019361406242638084, -0.4210863319517094, -0.03052283715673057, 0.9205109531243142, -0.2771796599800584, 0.020304241175773133, 0.5707154029826343, -0.7086365581288916, -0.0619363443926357, 0.22657075752178296, 0.01390892502892648, 0.053386582758915606, 0.3692173998835313, 0.012899994276857821, 0.4463689443553886, -0.14848615011404173, 0.0733942631731537, 0.327276848614573, -0.09721797248757617, 0.3480821734939624, 0.001511588398808499, 0.020458537953774003, 0.00586093815698323, 0.9337417755271276, 1.0277270404092351, -0.3436202716943328, 0.9084917813745969, 0.14819890332729013, 0.0002690580745578771, -0.014767772411915289, -0.047318028502214504, -0.002145762429248235, 0.2142262032541312, 0.8756834011873998, -0.20137995909668763, -0.23769717574478463, 0.2764940788427052, -0.020345336899402894, 0.04836534160107787, 0.2554717838665158, 0.016462221519231525, 0.4023352968866087, -1.0376093578317007, -0.3764828228387208, 0.006341502338002453, -0.5259262146609507, -0.5820848639108188, 0.29727348732561365, -0.07458065960727987, -0.030236961239269344, -0.24197005874029232, 0.24422771985394182, 0.3226256433128005, -0.1811425739693497, -0.3650388585355303, -0.012855347831716386, -0.013436221951804512, -0.10722966166939694, -0.5960466358259529, -0.04153599467584924, 0.03463706906708316, -0.525877943476663, 0.015764936523444892, 0.017498099504230563, 0.1477095681550261, 0.04877189112306979, 0.6063428625860207, 0.22531560698996214, -0.006693316519783683, -0.552388379085632, -0.003160595939602413, 0.0002302906387434339, 0.19015274761664505, -0.1196717906073692, -0.039721062478530446, -0.027153110531853056, -0.04438603895728104, -0.42907325776209115, -0.20517366992387678, 0.03392058987511898, 0.01830002696973301, 0.2051993178846283, -0.049081163468672834, -0.4012146532880656, -0.04399464306574078, 0.051559800439210414, 0.00162600882636452], [0.010793481656195342, 0.01579295653848512, 0.253978911746214, -0.32673041408504566, 0.07919543695064232, -0.00020032218694779664, -0.04751385025467475, -0.15608264874330197, -0.0009653767555939688, -0.36564819610760857, -0.40765695211428044, 0.3330323062358516, -0.010458994735595422, -0.0015143608874464112, 0.16319952515281522, -0.002706653014896451, 0.17844550897120492, 0.3521155415122172, 0.018460415695423876, -0.01976138311606101, 0.14090285933267707, -0.37712247808515986, 0.8383683510684774, -0.9816229214663279, -0.0033855943326624345, -0.060324146549809374, -0.0015225408898201238, -0.0002058628296016875, -0.0028974843728809597, -0.028407085765916218, 0.3306197742247404, -0.001312038606128939, 0.008432249334652276, -0.8393490693477936, 0.009519716387260683, -0.446248670366811, -0.0012822003504698659, -0.06158456663155921, 0.024386296480575945, 0.022177254083773197, -0.25066100340267994, 0.1843664073333849, 0.1233309136512942, 0.3185201655109396, 0.9216121623729476, 0.004511803921082584, 0.34197935730609447, 0.6554194676435949, -0.013440615086997136, 0.0023178953723166675, 0.008820014914840014, -0.3070220798721829, -0.0015190693351821883, -0.24172565222211304, -0.2864723310884477, -0.02049687041854387, -1.2464752357179874, 0.4099851424501383, -0.015826949505499392, 0.27105668089257834, 0.050281880562428966, 0.023624587663591545, -0.49611374358000765, 0.01531355110148931, -0.08715746501130893, -0.08821649649165372, -0.005032318398923662, 0.3797500714926339, 0.167448544274039, -0.0023953306975511937, 0.7157131368154772, -0.001728869949249998, -0.00326027049062492, 0.049230767257206536, 0.015255275887302865, -0.13003475766058697, 0.0015328074278096134, 0.0010492586849683294, 0.020452475479905613, 0.018242014289130266, 0.02870832083079496, -0.012625077775549479, 0.27711892257820925, -0.014476007414339227, -0.0024379297289184097, -0.10540837448435465, -0.2702788393917859, 0.0314757659603632, 0.22231977417754004, -0.009880163639608983, 0.7631100728639835, -0.4038759109169018, 0.33751832973541823, -0.21307780544412577, 0.05561069891263763, -0.003775701402314963, -0.5314668806289454, -0.11305430511594174, 0.6020565782133281, -0.08421072099002376, 0.15458946554416175, -0.7289815930659264, 0.1295987262597311, 0.35296878322805464, 0.09030669316658432, -0.30748948293568645, -0.048294884152244436, -0.3365024240484063, 0.12623977062672825, 5.6522731293574564e-05, -0.5428009959569903, -0.00865401617579879, -0.018647569104746388, 0.24216762184731525, 0.39994984105343034, -0.08772907412802985, 0.1206458927007137, -0.007220907629324174, 0.11093028581754073, 0.012705875223834272, 0.3812650146262368, 0.11224802899961034, -0.07083185533501177, -0.1886148977781595, -0.01436627000482314, 0.0006812600584612935, 0.17811179588182224, -1.2330307226491461, 0.4915543084692755, 0.11511847112153051, 0.021518643514311694, -0.033141916073036494, -0.6686505252891012, -0.011128013617531712, 0.09790065371276027, 0.39344508366319464, 1.233681504417641, 0.03837783440180756, -0.0026082166378438507, -0.002125012192342208, 0.08370442710469052, 0.02836391865617938, -0.15547427640862638, 0.01419325266411604, 0.7322640730093872, 0.5365004707637284, 0.23358337545308513, 0.03047845950496978, 0.5184000322118278, -0.13199258977463513, 0.020859531553796797, -0.012346260845541586, -0.30882038452787763, 0.020173418783563043, -0.002601048703863831, 0.044043894048140735, 0.3014041674945217, 0.046849578282467906, -0.46144015911539293, -0.001650549258224492, 0.11120016565140106, 0.36773606503447, -0.0013184916756040894, -0.012067996931598898, -0.15859828048988114, -0.05836439166530153, -0.008010623573684398, -0.11337193499667768, -0.1824071499156731, 0.41629048927140533, -0.6466494545039085, 0.021187083860274954, 0.07366112884047599, -0.003478080745365573, 0.036561017417041757, 0.2218870509760983, -0.005128598404335177, -0.029292976456136467, 0.03681653082683577, 0.05087796974538924, -0.07106652466346408, -0.016645508491676, -0.13941580979120233, 0.05838930957149533, -0.11833501861192539, -0.0017942127405059652, -0.2965861544604178, 0.04346814498962428, 0.4741224876576248, -0.7251232879586935, -0.5924870824336732, -0.0013269271713853407, 0.0044574317418327675, 0.04935221854545739, -0.0013562773160836318, 0.3259063884662964, -0.5562736675149993, 0.20128509259110797, 0.14102437532500514, 0.13166117765550486, 0.01747294348704143, 0.37050907188431875, -0.39411799678044523, -0.0076310380502360225, -0.08646230310932508, 0.5504493635291009, 0.22213508194257062, -0.002127160104601726, 0.40280266083057226, 0.12158512593170005, 0.22212055227913333, -0.13036257488641323, 0.01954260260874539, -0.0010175285887167, 0.0346532515647413, -0.0021214933658957593, 0.2571148489902292, 0.4463097760776414, 0.07980687689821929, 0.014494821709656835, -0.18630769067439112, -0.8101845524807773, 0.02695929622471106, -0.006501707124004631, 0.21094492111905214, -0.01044842856974836, 0.008345647149406958, -0.037223556481154385, -0.020871292826575967, -0.4404987780522157, 0.19689544788215832, 0.015260314403681132, -0.48469020693410647, 0.00014742350129142115, -0.001737193469820004, 0.24651976336322162, -0.6930725141642249, 0.015006641621987367, -0.03740057371099923, -0.026336215455040612, 0.14773202320865553, 0.4387895432474265, -0.01150050330311008, -0.14386328562002434, 0.15820054371603248, 0.028732443463679952, -0.36468626322674375, 0.03239219515455132, 0.2604027375923768, -0.002491861716236829], [-0.19879775317209872, -0.02500144804604147, 0.10844761103796181, -0.013429869208697445, -0.2828726086233492, 0.007374410226028322, 0.16558207839382333, 0.3095881568444413, -3.4501516141515745e-06, 0.08476336540950172, -0.6895301626310275, 0.2189303729784527, 0.013221954017101743, -0.0012887387995526452, 0.18945438588903735, 0.0014526597682131264, -0.2834360288228109, 0.21288573533499439, 0.04438277497249, 0.009636516026723434, -0.10512979229252344, 0.4510199477885259, 0.38982061352876435, -1.1015486768262601, 0.01287936198191311, -0.019175559630231164, 0.01873278484889919, 0.010932148291609657, 0.05201106772527849, 0.012503672652285075, 0.2127441601909506, -0.001119890324981786, -0.02649316762166266, 0.0674669247131324, 0.27003950557026807, 0.29730376871533293, -0.001079240801559303, -0.22851010645675843, -0.005690843596291828, -0.011411110922377017, -0.12444841305052268, 0.10036043048746252, 0.5139572961533387, 0.22931433759557968, 0.06787899519829675, -0.010890203269086084, -0.04750166091280555, 0.025368296910727926, 0.013958526817104884, 0.014936627243844392, -0.018977820943154654, -0.11731886167125324, 0.007065721669718199, -0.244870855565161, -0.029438892261713555, 0.007459399216173093, -0.5886549548690045, 0.10537814086697499, 0.173356622804338, -0.10604340192918546, 0.020197374634042163, -0.01581514291237463, 0.13559243686440003, -0.023586775853859758, -0.011192493462238596, 4.8007835506461355e-05, 0.04175568313765255, 0.42352728658948646, 0.18681338033706385, 0.001756241188529853, 0.2013700880282662, 0.005613670557925009, 0.011902214689539697, -0.012389971656946197, 0.005190006403412202, -0.012524074499452174, 0.017643983552875265, 0.00970812955168415, -0.007490866420696185, -0.01698660618096127, 0.017064730844482685, 0.0158162730358218, -0.045771244865338886, 0.006570449733553659, 0.0003941482874762483, 0.2994771419746026, 0.16342495385079653, 0.00836831728221545, 0.23396960655816817, 0.015337703528172894, 0.14410074027009237, 0.08491067836229947, 0.2317234928079579, 0.331396975088974, -0.007371477124273824, 0.01464416583619502, 0.16739091240600606, 0.07253132773982233, -0.026462464151303284, 0.26050975313353586, 0.46010370730713057, 0.4879422369332175, -0.07453473307980195, 0.5355187285856314, -0.021268543976189814, -0.10622646441264286, -0.028126463665951174, -0.10953241846613278, -0.0015539698397033504, 0.0017615635186993227, 0.5199618466992928, -0.021469440547829375, -0.0036736331986156915, 0.18629773894798252, -0.02182240476193395, 0.2362024206733291, 0.31590015270421, 0.01707792497190392, -0.34764899148832024, -0.007244162366151887, 0.23913379946048463, -0.11104660341511102, -0.04808614972045108, 0.10594044091100126, -0.20185965173228718, 0.013508868601371108, -0.007375962877417971, 0.5035877648756556, -0.2863820667214002, 0.002106196056075065, 0.04569594977577842, -0.47258455422422846, -0.6578378569075415, 0.004503109301597006, 0.35527259069013983, -0.022673626040864103, 0.5425652956636376, 0.0177828575194163, 0.0001404367499819474, 0.017022943589539954, -0.020166495686342385, -0.31825241833817475, 0.22831008957321855, -0.007262618813504228, 0.6341049556092273, -0.4036308449554843, 0.030136500772615225, 0.003922611343957415, -0.0067680012191709705, 0.23623804868924775, -0.004631969500612308, 0.01354896064330717, 0.03960029319381307, -0.019421483440960532, 9.48755984020318e-05, 0.3680569675311764, 0.1543161951160896, -0.02778449501313125, -0.015230175136971315, -0.06143158498603889, 0.34750344399655775, 0.2243435122339839, -0.0008360078599529692, 0.02259611534484454, 0.14062570702480956, 0.0289675166753793, 0.3582056564774152, 0.08884474245060109, -0.04212377990333287, -0.2918264167457447, -0.15813844026828813, -0.0868650288815719, 0.17506152847033962, 0.01503781730006952, 0.024066001586625203, -0.3462874418595905, 0.012289059852272615, -0.3606334718471847, 0.23630767220206028, -0.009996801364129051, 0.06337867486081976, 0.052261105296318604, -0.5341225981647085, 0.1173358176918567, 0.0014517568056504728, 0.0050361381230974445, -0.23595648483557913, 0.13362689383897067, -0.048125454771579666, 0.8205458519419175, -0.13578668820370043, -0.000896824335386476, -0.016828380606988554, 0.030465265289334593, -0.0006971223838963459, -0.1337272067869528, 0.3956066004868545, -0.33113305379634117, 0.22798605905636346, 0.839188990555199, -0.02447315946274906, -0.4976379974215448, -0.7745834110421211, 0.017331780418186914, 0.24985838929606238, -0.36213288713324815, -0.3626107924158811, 0.005246977553505142, -0.2242313447750603, -0.24707674761611473, 0.5941488320590216, -0.1458936725775477, -0.0302987609324935, -0.12439871706743315, -0.14826508115098908, 0.04226079281881335, -0.08845672554017238, -0.03382090513342008, -0.1808435026612182, -0.011739176965900199, -0.10968909332860302, 0.36829364541183707, 0.016529949842491537, 0.03340435110470347, -0.1427238936719821, 0.016603083781881488, 0.0226418827738092, -0.04167881774605001, 0.00924913621579161, -0.247530049790673, 0.4982748494873541, -0.01883183307366397, -0.6689765928261618, 0.00185487834907553, -0.0007136439653233536, 0.08676486305464258, -0.30739797646893213, -0.06663371555538765, 0.029450743269498675, 0.008331034004894523, -0.4575038817743653, 0.6118440935074169, 0.018857368388346854, 0.19373719038562132, 0.1117041701966522, 0.022716231488185284, -0.15646703527494873, 0.0008051905378536075, -0.3636962155466989, 0.0005050333440911527], [-0.14271640098404728, 0.0029661705834537417, 0.11555965699292561, -0.22006486552553278, -0.2858416142656152, 0.0023027625953201515, 0.008651304194811922, 0.1579379504479677, -0.0007583016162027365, 0.11246849465163193, 1.5552326865216721, -0.07606910296737, 0.006091509226057444, -0.001961096587177786, -0.2083712948174435, 6.809550242133157e-05, -0.0017375179497122757, -0.058809291849953475, -0.038486378480168684, -0.0007717699566900264, -0.1505856723612154, 0.22931147339943567, -0.5040857132689465, -0.1318491430042074, 0.004230889888834278, -0.10755312528507642, 0.018297957399744758, 0.003717295546441207, -0.015296249234227911, -0.008621326574893704, 0.43384587054373347, -0.0015737964409812595, -0.02812993134044056, 0.110963521393297, 0.1682522816615272, 0.2732460765780221, -0.0014954712654683166, -0.1470524397516061, -0.0047481799693596775, -0.00863639642439702, -0.12793177685089552, -0.26155462556953585, -0.8825857956859958, 1.1993895447618406, -0.2284973917841178, -0.003980091592664701, 0.046612857329208786, -0.26143829555341447, 0.0038758465587641843, 0.008768039165072582, -0.007568877249433019, 0.25173109027060303, 0.0021611420419379444, -0.01147076741709735, 0.47166655773374566, 0.009533940943024862, 0.013497341769910383, 0.015182949221009604, -0.013262373533253217, 0.028436807812948786, 0.17999955172736287, -0.006819495904789731, -0.3106366763159024, -0.008832113990472672, -0.2504282080092187, -0.07381202916065958, 0.036906857299186156, -0.08613312562164992, -0.2086340378721532, 0.00023456103912086062, 0.25778698986995746, 0.0016279789069933773, 0.0037668850018624245, 0.02403718016848747, -0.004492232804382733, 0.013434936917123106, 0.004335039329686279, 0.003074760046450351, -0.011007983440909658, -0.007857721993427456, -0.0034027729993617232, 0.005335729707099536, -0.2421357866963429, 0.017549542479812753, -0.00024357188650575112, 0.2103684779221346, 0.08590589377985716, 0.06332533745904505, -0.1510330713801525, 0.003965645798257536, 0.8533490085479251, -0.20632426447953875, -1.542324800930021, 0.11641029367770603, -0.021742533687066374, 0.004955331167577063, -0.19935105451403948, -0.08827149778469302, 0.6117774564408001, -0.1181314966597197, 0.02295724423760925, -0.07701288830737342, 0.12261425548228762, -0.14590356393436124, -0.14756903238415506, 0.26958739038321666, -0.06505824362159332, 0.06373462768007716, 0.1762039177460573, 0.0011491142576491673, 0.4594869842666038, -0.029057954993696445, -0.00272754664179616, -0.19717458974474106, 0.1014619189987104, 0.28860299985353643, 0.26803842790240884, 0.003195970237201726, -0.26004767844313775, 0.014744809390108696, 0.0440786357363001, 0.2382486428513904, 0.03512530078180519, 0.00968561038678227, -0.36014802511990557, -0.0009627746552834629, -0.15790987486893757, 0.3227260568592293, -0.05361305448033795, -0.06388318001003962, 0.0018088139819916178, -0.27243963744088556, -0.6142551888654861, 0.004916618322591946, -0.11764972756523324, -0.06596366199499439, 0.21397608523338268, -0.012547152016680324, -0.0003882745128604291, -0.00032417928625532236, -0.0382394218763844, -0.08261976610296917, -0.04258908923689992, -0.004460751911212905, 0.06499087320132428, -0.4269614452874387, 0.07196539352886369, -0.025328581801181266, 0.7177835506967235, 0.6483740423634863, -0.0054218120326801995, 0.016041505155973225, -0.13693800248958723, -0.005565240916352846, -0.0004065546523266834, 0.37212219233359173, -0.13024323761063766, 0.0022884928723705114, 0.09618032130216642, -0.049541392721449286, -0.43787154658195265, 0.6387467674899443, -0.0015511718469501026, 0.009270818537071264, -0.10942533250767109, -0.006293519572055687, 0.14000572623876104, 0.14312281217201747, 0.08246644015088919, -0.03352595804600303, -0.4295937751838645, 0.04577272813321837, 0.16178464740509996, 0.004871534191847695, -0.014380195040802742, -0.31137336427429885, 0.005513199273969744, -0.0810085897436174, -0.11003246498219393, -0.006726795388740591, 0.18873134348618803, -0.053764033657709966, -0.06279037699201931, 0.037331925006848204, 0.00444450330539208, 0.001131289236859449, -0.021578544069734522, 0.4218011163697869, 0.4777760855765047, -0.6423624306694481, 0.4497940480245972, -0.0010927661112250658, -0.006050259396465255, -0.007951110091727578, -0.0014933718127100799, -0.5218950817958117, 0.3012837303452601, 0.14551587904845545, 0.06535876755160329, -1.018998152236923, -0.00795307275806742, 0.43221194107315536, -0.00049290210420894, 0.006194454390763638, 0.7154618155398548, 0.3805539350995296, 0.13478516926262407, 0.0014873625474391995, -0.12377607170819548, 0.09216535138995517, 0.26203860704053317, -0.480432901297391, -0.018177180885221533, -0.23464087600466027, 0.254919092167079, 0.0002743094537089922, -0.21403488823062874, 0.09041558986442126, -0.21875578321264236, -0.006550244075243578, 0.17498547893778663, 1.3254653676025752, -0.0008891950357016998, 0.002247588423552755, 0.1455487522215022, 0.003999772581822877, 0.009606330752680147, 0.008198581097458354, 0.027107950244627622, 0.2518354619697008, 0.13117757670261332, 0.002112377160939473, -0.03149877959788813, 0.0012548463955752718, -0.0007886308669422524, -0.07620971697913125, -0.4215473011907554, -0.016231221812755003, -0.009373132246891704, -0.03024098165590234, -0.014341850846662733, -0.7243436690517941, 0.010233231041639555, 0.1637078469006839, -0.0816200713907056, 0.006014851394135667, -0.04969781874524528, -0.004624956801994974, 1.106998743863908, -0.00021394738206255036], [0.02778854718390974, -0.04232311505674611, 0.08435952291392368, -0.6530841329026845, -0.12060593282813145, 0.006197432365270444, -0.2523840941335557, 0.027463108050517063, -0.0025704210989901883, -0.3463271732089536, -1.8062456579780126, -0.21442051615598193, 0.02813957780541769, -0.004789697417282422, -0.05713658644983889, 0.0010206611743002394, -0.3705989011323548, -0.21095179812399, -0.036920090778056594, 0.05377340081458533, 0.06197549432559449, 0.20176574659704483, -0.8704688608478626, 0.20010847883897895, 0.020238334004972266, -0.1213351704275631, 0.04746542509564489, 0.01037680246215391, -0.04058715035712579, 0.02269050984333966, 0.13160400645247147, -0.004286399030911329, -0.057117732413235096, 0.7434391287976415, 0.3143156766914607, -0.8263080758247372, -0.004164407756550597, 0.0004337668167357325, -0.06739154224064133, -0.06118762951773981, 0.13631671194111156, 0.12424660071225066, -0.1412354405070548, 0.40220831776121824, -0.6153776602855086, -0.024131164330965127, 0.22822068015490338, -0.20173260194937345, 0.03767956472116529, 0.010304223552848449, -0.037180159921019765, 0.3581840819290847, 0.007100248570221517, -0.17383366084761553, 1.0982040032545495, 0.03970641140849034, -0.5049522546812152, -0.11119782091407242, -0.014174179868256562, -0.19815265475159097, 0.07825142265981587, -0.053501041156409745, -0.0017634130261631486, -0.04413853628719533, -0.11064149541485108, -0.12113182380198712, 0.007680065374836004, 0.6200716642714243, 0.1474713251705486, 0.0011623091812791608, -0.8453245675428073, 0.005444066915009532, 0.015382151289154442, -0.07194958941491476, -0.07748395009378889, 0.049706976245348256, 0.016079211236773482, 0.008275689929986896, -0.06375118931358295, -0.048796013236005, -0.09623409139859226, 0.047126600507006434, 0.42693013386434153, 0.03953554457903025, -0.0005132881888147705, 0.2188352474201555, -0.0020752875964999895, 0.031517858204835957, 0.011415156929667467, 0.02999259900596859, 0.4644103282246939, -0.24970214838192445, -0.3924677344593677, -0.5003797410441201, -0.08223383434470942, 0.01900228858018514, 0.16051755171017226, 0.19190905350283716, -0.32165497729932785, -0.07763929187750684, 0.2315947506450281, 0.5347094479256248, -0.16362521356052293, -0.5455664901939599, 0.3175583958659517, 0.23978871250912004, -0.07167281262931217, 0.10980043760184209, 0.006623760522310482, -0.00013234399499906013, 0.2292202621355882, -0.059124518651799365, 0.056301739677022455, 0.3629644669629579, 0.3725184481945787, -0.45570099691468385, -0.2437734743441372, 0.022293967191413206, 0.6668870516386726, -0.04938529220853489, 0.7975382095854263, 0.11649390776988709, -0.07343474127579828, -0.20823195338846526, -0.30149018507889525, 0.043672653484386724, -0.13197609424641435, -0.8217811227530618, -0.5936863805105725, -0.11953786278900844, -0.05522804609182347, -0.08020327603405897, -0.12864310124065345, 0.04428034483586717, 0.3440951187114037, -0.3858763409128691, 0.4016434235450758, -0.08118259364553017, -0.0008151325874555782, 0.025034269815459913, -0.14534535036611895, -0.1004867387241395, -0.22515114582247622, -0.057879188362905044, -0.32762606701488256, 0.13372236564406012, -0.13244064993024637, -0.05551307797087641, 0.20861465590564865, -0.16865508636197546, -0.05646732211571, 0.02581853397609803, -0.20796719964648702, -0.06947351979221444, -0.0008842278145300048, 0.20795456676133178, -0.13106639850675553, -0.04317455726277461, -0.09741122229714698, -0.02673358724162769, 1.0189317334624233, 0.041686104071435366, -0.0038264289338195588, 0.03894065722794111, 0.15445065647939304, -0.009881175563057112, -0.1548009256105953, -0.03560194423112016, 0.07542281347803974, 0.1207700243499813, 0.28174970623909174, 0.023406423607623007, -0.15589647734066198, 0.019663257945449906, 0.004894093844516525, 0.8407137349027517, 0.01978681977257276, -0.44983893914518025, 0.38969774457134493, -0.06536780294946408, -0.24045238632554788, -0.18086136380974907, 0.6706337518579589, -0.029270950731349964, 0.10654502362146415, 0.0046712972367559304, 0.40130725254517463, -0.38508320491415526, -0.18775277646180694, 0.14291358331002751, -0.2359277874806075, -0.0035243099248888268, -0.029352045333696432, -0.07586081492951922, -0.0038045543823662037, 0.4288163693228273, 0.25251665178037414, -0.3946795431150702, 0.01807720891157119, 0.687066273399974, -0.04928794847717226, -0.8186241755991339, -0.5964551966525627, 0.027083478042592653, 0.7589752814790698, -0.4710137196005013, -0.9863459557280628, 0.005417137725568799, -0.6776796733968549, -0.4637727041555414, -0.09985619124816876, 0.061817184885226584, -0.06115545302959798, 0.025471291338651794, -0.5549744663626441, 0.026702604786565963, -0.311258169188594, -0.16839996723620404, 0.19290366357153949, -0.04313733358910321, -0.24137690993586988, -0.05331217776225648, -0.09373157672539804, 0.026323722150153186, -0.591984288298363, 0.032861395418731947, 0.012762674715671746, -0.3975794083519943, 0.05598766700980803, 0.3022130587932026, 0.26461322133228493, -0.06530023620165946, -0.3509994374253477, 3.427750168729595e-05, -0.002628491921676922, -0.08463681100516578, 0.06489667559070078, -0.0696325250408914, 0.032404902437603404, -0.1250013038562246, -0.26320888865064695, -0.2700989703252964, 0.03008957796773634, 0.1040573416713238, -0.35631607619374794, -0.06283755357374891, -0.10307877865024155, -0.06514770817270414, -0.7953065259578236, -0.000355746600483263], [0.11725618600638117, 0.022476301112754296, -0.05936594133988403, -0.7246448890289378, -0.28957963175808243, -0.00485458058869935, -0.1290927948549611, -0.06670245015157181, -0.0017646379865203026, -0.12522972022027729, 0.05887124176703936, 0.00016443766391757394, -0.014278214043953135, -0.002960865981857645, 0.042589454176407866, -0.0022584518015449596, 0.07323876209350111, 0.013162882871490597, 0.13938395554596836, -0.02740853001477306, 0.12053660622728384, 0.4790533465897547, -0.6992784514403106, 0.2068910865432655, -0.014399907577047257, 0.10682204904448198, 0.0033607021056874554, -0.007017140443609915, -0.0005642677820264339, -0.03727754417766538, 0.032582750192495465, -0.002203840038292571, 0.055680257293069, -0.7727512425388641, 0.00915081122812508, 0.5012819783842216, -0.002062847873129735, 0.090369040617841, 0.016407915493342723, 0.01931163722069036, -0.15490799444015838, 0.08215876337842047, -0.08269827968254616, 1.0074864738929679, -0.6447916935919364, 0.008665524827918627, -0.2682427106158396, -0.036926397304889426, -0.015593349532025591, -0.010427756045344077, 0.01853393767021845, 0.4738456331149395, -0.004829834005722603, 0.312739013601682, 1.1008646999414646, -0.026825050079829153, -0.3629355809563661, 0.037897152806532344, -0.11974486963919355, -0.02988788256454595, 0.4298345228607893, 0.022110714323021242, 0.196940865181112, 0.020293252020425378, 0.18638904935094347, 0.16142917778579036, -0.033743582866713084, -0.4378077233326759, 0.7530711135819625, -0.0022816540408863257, -0.06094332725539982, -0.004038102912154822, -0.00824396839471475, -0.07817465831679835, 0.03587481156619106, -0.015555591873519318, -0.012351770081274275, -0.006335064872367581, 0.03961136442976761, 0.019103654699068655, 0.03421622363441801, -0.019781924542692966, 2.2482175159020463, -0.019036852601894482, -0.0015809129553712156, 0.033856259737702885, 1.0525905591713096, 0.051118766561155604, -0.08397844595602551, -0.016653737068104257, 0.10958255874915497, -0.6772249183433273, -1.4523897009928775, -0.10452315570459282, 0.020088538264339754, -0.01134506799933931, 0.3261867773852316, -0.15023569533780737, -0.26708772721818275, 0.18542849964773256, -0.3375514772448242, 0.35451759348568124, -0.2873846037526081, -0.5027203669905795, 0.18638063258744006, 0.16448198136235992, 0.12326027684170406, 0.267349701413971, -0.13797654233326878, 0.0006872950014434955, 0.15334782695433435, 0.08449870579213066, -0.03702692313998792, -0.2745322500718084, -0.4832796166707162, -0.3435359229194688, 0.03128494154946331, -0.01880939898157194, 0.8557183565308221, 0.05321753790891178, 0.8526235365838097, -0.18027021130273063, 0.05627015886464316, -0.030240076193685198, -0.7741034973188207, -0.03394279224287227, -0.014194378289124631, -1.0402730859804619, 0.7948062645987671, -0.01148000433781938, 0.05947828728190732, -0.3104628723407951, 0.1997186505735356, -0.03088560969108957, 1.1353191367714817, 0.43516424716361496, -0.45744850295066547, 0.06370593993593358, -0.0015654587296343003, -0.024014677192789723, 0.05743420660490739, -0.04684653087306706, -0.001380786859419698, 0.019276321928084005, 0.7189949245919589, 0.03914979739893951, -0.028694401042566778, 0.07317322377313158, -0.3870606169504859, 0.506936255346593, 0.02119452077101149, -0.027512446012261032, -0.6603367235719031, 0.027726668413017207, -0.0015410355470965263, 0.07201384799527083, -0.19519868372021082, 0.005277003509794475, 0.43817305558176317, 0.0633795190798671, 0.39297823177456775, -0.2141854317291373, -0.002575635349614678, -0.0185091067772743, 0.2962521283761372, -0.016428640948837118, 0.08415337283592961, 0.12017583750498091, 0.16748178965549462, 0.27607645388024016, 0.1732319798209209, 0.02064652344289616, 0.12700614399555402, -0.010526780827412225, -0.016057239362079243, 0.2682124239692798, -0.010385684521212656, -0.0803714022751799, -0.06095542227402692, 0.01842932971355237, 0.10903233292978137, -0.08544567687351677, 0.4385658403696855, 0.030994862325795042, -0.05881483106991914, -0.0039157410762740395, 0.08382437954056071, -0.012657533827988086, -0.35505316833287676, -0.11537821753766407, 0.5551992142062313, -0.001299185444874025, 0.01310616008481503, 0.06973178098469852, -0.0026260830010016523, 0.23122761549942633, 0.3074636594760465, 0.10988939232835171, 0.236436042689661, -0.9559418648535815, 0.02374982781922643, -0.4777693879432348, 0.24561854916862114, -0.016150674038315476, 0.07616380618619024, -0.15790452086964293, -2.1040057258030647, -0.00392154312064605, -0.5376504829464184, -0.5792110081003414, -0.15811861196362773, 0.4844214349295126, 0.015945893384105455, 0.07243977120907187, 0.3013720993778404, 0.4707164234480326, -0.4586842330183641, 0.07935211776931517, 0.13200182504649582, 0.014459895357070403, 0.2099332047958603, 1.1658785798897948, 0.10487913693698041, -0.0186321413832631, 0.296966537608923, -0.01610092443705622, -0.01597287863061101, -0.18117387112270647, -0.011265606709982503, 0.2597820083680071, 0.8073650201384573, 0.03339205380572496, 0.07056898869548316, 0.000911652517063788, -0.00095555104711736, -0.15397270600060914, -0.1143853051475155, -0.012378966055443173, -0.014931725608605968, 0.08150970583624664, -0.515650808237616, 0.25233045188411357, -0.015611397100608803, -0.12403862972180094, 0.022413033526493504, 0.04944140227082624, 0.20921147763062725, 0.05386085999981475, 0.6165425003820898, -0.0016671648129671366], [-0.17374066365797564, -0.02279327587656851, -0.31357716053279283, -0.06173323087780832, 0.13132543151644704, 0.005805813519006591, 0.3097552123507361, 0.06205236264794823, 0.0016721236839521304, -0.15540510531640037, 0.48793294137911936, 0.08303095246516606, 0.009766755546683973, 0.004659790930038204, 0.16147283583886837, 0.005184791583266623, -0.17993519798957106, -0.07197986206707459, -0.04367511883865413, 0.027920944243046492, -0.07164157350670815, 0.40891749476896955, -0.07640063597763007, 0.12356650742466622, 0.01762299752143172, -0.04094029539704331, 0.010536940849207687, 0.006519941499360751, 0.08029703897671985, 0.0074994955894753116, 0.011522299668530913, 0.005090693467596167, -0.0228060163010287, -0.1859831272317722, -0.22051003094068644, 0.3575667528294288, 0.005091833638972844, 0.09602094142307072, -6.106646300855199e-06, -0.0051964072753111065, -0.0058276592301712655, 0.13857903733395097, -0.2023035414207667, 0.19593899845042778, 0.4628607874292878, -0.0030291912278093787, -0.013744587732007853, 0.20742605116325943, 0.010066140090756213, 0.011910932216573656, -0.008414980113999335, 0.2159555079472122, 0.005922157010217343, 0.10124563959075551, 0.15574550686615724, 0.031448126242325666, -0.23820247838671754, 0.09335578000583353, 0.07865552463973893, -0.13642786419598654, -0.6429983458366475, -0.014496900179293658, -0.15050788284315794, -0.011502152174264717, -0.08165926460818784, -0.06111454136976899, 0.013517969562576296, 0.4067583651667984, -0.2617135301622432, 0.005045398817770544, 0.1977542641812555, 0.005542129082578546, 0.00689406171662098, -0.10127387275560869, 0.000937270810009321, -0.1000138222890159, 0.010651458210278386, 0.00645956975938902, -0.00606611305582372, -0.007471766291380517, -0.010803864466428921, 0.009691542656445304, -0.09124575733470197, 0.020583664259623963, 0.004855079486424104, 0.060504753039039696, 0.41474919104920477, 0.011472516302860362, 0.2785135132239485, 0.011725749651185134, 0.6492881014572233, 0.2053090281952523, -0.3308255146988424, 0.13159416486673448, -0.04408677129142627, 0.010357016339296046, 0.009532559258289594, 0.0908021705151753, -0.26468859435081776, -0.21488868796845206, 0.10912654185373143, -0.27704704046825357, 0.025003978265423277, -0.24944597360656268, -0.44236008934690735, 0.2593133209360476, -0.017321217048063938, -0.29653048838213253, -0.16924986469419087, -0.001182248926820089, 0.010900123916938967, -0.014111295198074907, 0.03467178619781489, 0.12104925720048763, -0.3183717044846856, -0.04894660043315108, -0.23499312958297436, 0.023108422097647685, -0.28833275770731703, -0.09011883616851919, 0.09214693499821072, -0.2868590768959435, 0.13747931529753585, 0.19405257318276406, 0.2766019299487488, 0.025095734644046443, -0.03569380420679695, 1.0906882674410248, 0.24144726768728966, 0.03734121182257607, -0.08108913110383298, 0.17242169690413697, -0.07702422316858233, 0.029913658513609123, -1.531558927656426, 0.23277272816076408, -0.18823883603722127, -0.03797846053983918, 0.005063452055897462, 0.019285210956311614, -0.10539446283065688, 0.03918597078715482, 0.21190731702966134, -0.006244062596955706, 0.43644508184363273, 0.47433019301174845, 0.08130861684909058, -0.04071499809426765, 0.1784027980604541, 0.4621997877643405, 5.516914496492644e-05, 0.014398163311333147, 0.3503084415901541, -0.012136483626171958, 0.00506492716311808, 0.010102759017315345, 0.35974507756714, -0.04037471876165683, 0.40621985105552294, 0.0038175209176403704, 0.299883906488303, -0.16293084398549135, 0.0031331596325890896, 0.008946338108970574, -0.08340808538498203, 0.07961557450219003, -0.10440546160234736, 0.16418274514681927, -0.0720898424706085, 0.7232744804360017, 0.5682293662585802, -0.13324779797880132, 0.09456269160296242, 0.007613729235564412, 0.05214887195055375, -0.6400778835160206, 0.008276470889898154, -0.10526960278862668, 0.11249803964304277, -0.03177284586055786, -0.14851958886402034, 0.30453689796020994, -0.37378608335474284, -0.012241140334281395, 0.07424780853926478, 0.005613300421554949, -0.17642005805825411, -0.3108278279506425, -0.01984962127450791, -0.019568932666236064, 0.3390504231435123, 0.005238231480508326, -0.005070797671479742, -0.05561552542470893, 0.002994131521322791, 0.00665601582145146, -0.26284443380901934, -0.047835844866719525, -0.03848474988357444, -1.1258422380439115, -0.009871368708938913, 0.37322992110864384, -0.4911399714116965, 0.011341803840276884, 0.268053867234764, 0.09754199294611196, 0.1793656875207504, 0.005498219513834723, 0.03213396838264831, -0.7036719575395368, -0.016104492657356886, 0.07078552968441669, -0.00400659559808748, 0.01572158397955661, 0.4121183200279032, 0.02380628401167967, 0.035248057208149684, -0.03477825705709828, -0.3747908188949477, -0.002773610996630895, 0.3068906672477111, -0.33588647619605005, -0.08669615742849017, -0.015651571579292898, 0.06678366256837423, 0.012462558371351063, -0.000564071047438941, -0.022735058759488225, 0.020977046405191428, 0.15444356849583862, 1.2929106475181593, -0.047967762995490784, -0.15036774669007794, -0.0013643861043821062, 0.004945502934481536, 0.13060415899661507, 0.349910477889327, 0.0047754532534643075, 0.048538932358474826, -0.041293919706488325, -0.0743325878933314, 0.32329933470733696, 0.01250320430458465, -0.27675014378393115, 0.28404512677123556, -0.0846146752517445, -0.05713997138545756, -0.05573174852222493, 1.26781212319999, 0.004918419610791756], [0.03373332504951898, 0.0357032895510168, 0.1261880606696963, -0.8697915728459362, 0.7910391123481086, -0.010929721799263168, 0.28273718285600674, -0.20670133045064076, 0.0007609298500427933, -0.7889084607466562, 0.36633999248710586, 0.13213685878043058, -0.036104190655395656, 0.0003310118221819422, -0.4649495386641506, -0.004357139566596244, 0.24870302286714416, -0.021553015647392863, 0.01575736130769146, -0.05526664528366868, 0.27651759154961336, 0.6630091921253409, -0.05275419903128174, -0.16518464254530357, -0.02845199045356567, 0.06215724618163414, -0.047476218762882896, -0.015963604245617477, 0.25184969047116745, -0.07933092968983729, 0.3678644578570859, 0.0006538790227198339, 0.07747380518905116, 0.22977214082428765, -0.8265311793278212, -0.16349450467227886, 0.0007064894204885691, 0.3200315222401032, 0.08795896979195131, 0.07381572957196329, -0.7402493019157486, 0.583492302407232, 0.4622983242786159, 0.227925170426785, 0.28247665919366566, 0.035774898683485074, 0.23176164491709303, -0.07720749355349338, -0.04999781748685508, -0.019016152457331213, 0.04527050326790938, -0.3236033503414539, -0.012556437387710947, 0.35249808520571824, -0.4800286309561837, -0.01613516728601718, 0.7423620540127382, 0.7758367618630122, -0.16166189871285244, -0.2097706937646183, -0.21098321910867635, 0.06374298142511502, 0.24819330039596557, 0.04516128475621236, 0.06095141928441371, 0.04408792800815118, -0.0934544846887316, 0.49023599061501727, -0.39531346752817415, -0.00433859831861698, 0.18671866417512667, -0.010334302723910718, -0.02382132234486306, 0.06063883673741354, 0.10648340653010412, -0.03382636730538127, -0.020476483639186766, -0.013379788761291068, 0.08278924021196325, 0.05858704717293154, 0.09047850191867861, -0.057094561963649704, 0.8645196558726074, -0.019373531209648666, -0.0019700785406205346, -0.3125446294703773, 0.07449568574386012, 0.1972650789749811, 0.2629924202936189, -0.04094841997101378, 0.3581674672072701, -0.4946491639476047, 0.053988988572402405, -0.43881518516672285, 0.0608100916497912, -0.02643372537234064, 0.41299349074856523, -0.61505217578498, 0.7465612836449755, -0.6330421479285616, -0.2487719430419348, -0.2924696314803999, -0.2450146656226668, 0.4610170043570033, -0.6274716807916599, 0.7322045533113838, 0.07560203210108285, -0.40127934071058396, 0.32770736062053196, 0.0006680460904650592, -0.8723199167170101, 0.08014812807318392, -0.028946869907322467, 0.6971335941366781, 0.25420281839899195, -0.6839910977102353, -0.2075531275546882, -0.021218524658212803, -0.5594969458812503, -0.027400080003782596, -0.22734129457401964, 0.29260636595959627, 0.559876106093, 0.002102309777204083, 0.38669315747900873, -0.08637412081379815, 0.07455411381219214, 0.12007647211132959, 0.15095288274233457, 0.13084313360720007, 0.013833602084976434, 0.09132727530630183, 0.03426489377674018, -0.02493488854378015, 0.9449960158382248, -0.08346184108344046, 1.1495795739155419, 0.0440726989596248, -0.0017452541650754202, -0.02656467851587512, 0.033224033973480505, 0.4706811500939004, 0.1090992295693875, 0.07464393294019468, -0.061510650488981, -0.6187396355641692, 0.13241245042826874, 0.06034617995041932, -0.7614800427019761, -0.5420278466490596, 0.08043541919711021, -0.048355605926471916, -0.09248139925602904, 0.0704906256139232, -0.0016540609129450396, 0.04347614251146896, 0.45753123726817535, 0.04613502608975042, -0.6333483771011653, 0.09893200221708696, 0.5258310471001731, -0.4391695210809928, 0.00037766671959147904, -0.061586804828425344, 0.2619163757691837, 0.07496629968903205, -0.5549302476878685, 0.2440441419241296, 0.10493749820830718, -0.4382802219620209, 0.1949544892985228, -0.28312325396025645, 0.0651636734781112, -0.028890072398571262, 0.023133543129190786, -0.45144580098825376, -0.027551511236081322, 0.25476472316262927, 0.2334502041335403, 0.10185722807062969, -0.6596354670247339, 0.4885063270937306, 0.4855870501022387, -0.012289671696184118, -0.26004796698983756, -0.009532646765878155, 0.2141439829017073, -0.0762784795526598, -0.31560992729155646, 0.1768993428232921, -0.2437903874332838, 0.0009729395787698178, 0.03933329461651082, 0.025220557908380275, 0.0005416695200143797, -0.26156124595943475, -0.331428035681822, -0.05115227523532756, -0.28784049436044284, 0.11501632497700065, 0.05487084643251142, -0.1411128995360314, 0.0657591486155978, -0.04210386807969366, -0.9595269898097231, 0.12054622679584512, -0.6833410640149576, -0.01044587845815687, -0.4151272188018943, -1.3204953641567572, 1.1424788754907378, 0.014648534626600627, 0.08010915571065143, 0.29757156020548864, -0.4816370762863627, 0.2589971312815851, 0.25849652767790415, 0.842406147900417, -0.19816020873838622, 0.05834358083016291, -0.11009040893314942, -0.48403210773434924, 0.01624818659779174, -0.06674108162027745, -0.10273068747366375, -0.044273280450771495, -0.0237778916868957, -0.4189933535038838, -0.023972345841911432, -0.3661324354825167, 1.7761464764410648, 0.018485927456220443, -0.2057689579771854, 0.0006211407648369905, 0.0005708578613203173, 0.2164095192863476, -0.41116084100892125, 0.14509407887739859, -0.013595253398111162, 0.06318881640009594, -0.12332467799285976, 0.02299092552929591, -0.030825008484290574, 0.11693079626829225, -0.26309015617771186, 0.022261339431355005, 0.006829745912850018, 0.03355570929801501, -0.6652538012468271, -0.00222896349077584], [-0.055522729853041186, 0.05298754194270718, -0.5954432993372887, -0.7842885613895999, -0.8740923283857436, -0.010822004004109148, -0.004851583883449062, -0.5605043751325655, -0.0015070393961776002, -0.5507300422157079, -0.11992415089345934, -0.2141904062535025, -0.018198908813120817, 0.0015541021307578843, 0.24471672955255797, -0.0034126801306030153, -0.28546896341925826, -0.4007493221460229, -0.043929005606525566, -0.02846523015192312, -0.08392853859824534, -0.6966667888582313, -1.0922585690485414, -0.2603657073231289, -0.017185450498967747, 0.18424328889389907, -0.029826398665950847, -0.01567241261137888, 0.4073291885454539, -0.06063760220063709, -0.6680686718411131, 0.002401330268807796, 0.04581431914813892, -0.3744311377486961, -0.7066946058826126, -0.0563657130248616, 0.0024498390130583713, 0.10545058068600074, 0.020376783877655066, 0.0255684260085818, -0.17396261177980582, 1.1020331841439457, -0.19149029025031783, -0.433536562814782, -0.7493008873042665, 0.020904381769972193, 0.2213251581154285, -0.3385992050707987, -0.02561435960756211, -0.01688549331744589, 0.03557619278302204, 0.04786989266682648, -0.010853357462444, -0.28209217682128257, -0.3191586386182405, 0.0026466690915377482, -0.8564184023270647, 0.5806943249177076, -0.23387559110025596, -0.12108850990363192, -0.42462175860306417, 0.03819382153690505, 0.5129948065480531, 0.042364532661762766, 0.2608234990465213, 0.019578805813660453, -0.09800967367297486, -0.32074694573366064, 0.6332571561860342, -0.0035652652302420014, -1.1468636811903283, -0.009002873708360748, -0.018226368186480178, -0.25054873545130335, 0.0067084416558856885, -0.2489952697539249, -0.02726783645609048, -0.01435574486715696, 0.020162670209963755, 0.03221133346736982, -0.010042931377680229, -0.025726584960462217, 0.36425768824972904, 0.0020973064535293813, -0.0012385443360902971, 0.021314172182334848, -0.18538611886538578, 0.08277663103887632, -0.0819461135159618, -0.02876439055760938, 0.11713086562283058, -0.8466513735668476, -0.20738381490804536, -0.16661149182301466, -0.020835953232043153, -0.020689614371252753, 0.37329994132906574, -0.21134576853254944, 1.3818229612126136, -0.7076543236286591, 0.492179054577891, 0.017033883057448098, -0.30920574975105575, -0.4397207769177425, -0.06316096474178123, 0.20821166400310384, 0.025520049972981802, -0.3653263601962349, -0.41462613692158923, -0.0033244764322795787, -0.29958210987554956, 0.01223216216368481, 0.027184221374073465, 0.490986867812805, 0.07816239884198896, -0.061172581421057595, -0.9300715450541648, -0.021623451456081747, 0.6808908241800904, -0.0149326734968926, 0.6260960544102533, -0.3051968522255892, -0.22221714874370974, -0.18732935294493572, -0.4495985689252708, -0.07680258227896396, 0.21863194711796824, 0.8335768741941044, -0.0020460600494118164, -0.08125996671934498, 0.005875518155795557, 0.7139863697682495, 0.2687787202812087, -0.01040345654881698, -0.4231463938208797, 0.019876347193774357, 0.46150866829508314, -0.013372555235468105, -0.0009379713612329306, -0.03776240924184931, -0.03335987748797532, 0.30923987932547436, -0.3979540416953877, 0.026958138386485222, -0.407048016583317, 0.405897884856327, 0.10679562415558842, 0.01773104754223943, 0.5032208427602942, 0.08078768871931631, 0.019244904943124738, -0.04105645820533032, -0.8105029807745942, 0.042239346581742956, -0.0008431897779362118, -0.29455783263920066, 0.3090069178362836, 0.07651782754357372, -0.1292637222069015, 0.03846936403725929, 0.10519619409297908, 0.15856857089732915, 0.00010602841182395987, -0.027230945063220744, 0.25773454155816217, -0.10910460436956494, 0.1797313317269777, -0.27282304341883185, 0.1579551010266562, 0.7763088220782126, 0.007345315755622848, 0.2558354690743533, -0.19227408205754665, -0.023277697064715698, -0.034235779806146435, 0.6896873685269479, -0.01816360275144652, -0.26208856492141236, 0.09905593968280917, 0.027977349008248234, -0.6740054665562282, 0.0024418309571293535, 0.9475958530730954, -0.1945958608855372, -0.12321220841571305, -0.008284659058783507, 0.29329188493509245, -0.14575275150325176, -0.24633172462570757, -0.2709668605914541, -0.09796086742176197, 0.0025198215400103465, 0.027417714657043513, -0.02728850322151647, -0.0004625033168891301, 0.7304212317433593, -0.1720534646849242, 0.00968054877976855, -0.6413656268051201, 0.04204955487374066, 0.04243863775672819, -0.7013916552827834, -0.3429585998956522, -0.030890225249146204, -0.4330568801204673, 0.14126982552422934, 0.09471182936227578, -0.008749521665969104, -0.37451240079105386, -0.15445206761337651, 0.147521861121283, -0.449024338705334, 0.039913076120146954, 0.3093680352323611, 0.007554694763650814, 0.1807181851227449, -0.06444595275020451, 0.2462627488983038, -0.3613375762742601, 0.025652520350179148, 0.28259743083013616, 0.19376422977901336, -0.023274596237238265, -0.0570730671843089, -0.03893415761163371, -0.032318897353479425, -0.03265108790584229, -0.1769631798882098, 0.010017497041076061, -0.46275542718971974, -0.2626988020662295, 0.03372647593416399, 0.0653383289542089, -0.0031929838116820813, 0.0017026728651687345, 0.24252613175833493, 0.6270988950769101, 0.04752335146486318, -0.07525976334916767, -0.012399175493580938, -0.13632546869348686, -0.5809151021848586, -0.045227068139462756, -0.34337851600084646, -0.34157678009293496, 0.043796902350117455, -0.15199601194353973, 0.008779097546493878, 0.24851856186998775, -0.0014880697476824015], [0.10509149908606973, 0.040324893550541224, -0.3690238115780405, -0.021825773885543912, 0.15323706548976987, -0.002129983697224274, -0.2670588058955479, 0.16884110015594414, 0.000752854327162676, 0.22922555595698513, 0.7693849299899516, 0.03451608531043979, -0.008432403135756885, 0.0020833362794707966, 0.3373432923299529, 0.00108543578606484, 0.017342098313151057, 0.04639673550370894, -0.027138800393065238, -0.02224566373706258, 0.22189136127342995, 0.09883222226834232, 0.19695015973639377, -0.44285561108581145, 0.0006842160094558792, 0.051024764636020556, 0.009548438521491572, -0.004874946639655844, 0.14870530789248992, 0.013380838754295963, -0.14249206499463585, 0.002271506032274145, 0.003971916916812498, -0.07501685734638082, -0.032748924574087866, 0.1997301085617745, 0.0022769932749593935, -0.1553948122999571, 0.010645364501669127, 0.007469683305592271, 0.03527199764011032, -0.049453667211721446, 0.17890744384839868, -0.1452632075220941, -0.32530945615974327, 0.006933808800772845, 0.0016832517679835068, -0.06977024161736439, -0.011372828589387676, -0.00349916033839078, 0.020482342971474544, 0.4253472666913167, -0.0019365361504216064, -0.030338856987771175, 0.2642422483608785, -0.014336716453499031, 0.8962311960822422, 0.17461559586792735, 0.061638178028541234, -0.4483847740843674, -0.6360286917506454, 0.027049910192027137, -0.16990629369055016, 0.03037030860742923, 0.28841526908933635, -0.06248433157527677, 0.0024519558381101694, 0.5008691487793475, 0.1018781771530305, 0.0009012789515769995, -0.046799538628483454, -0.0011099241381935289, -0.0056528356951488935, -0.294921648078802, -0.012603630583619354, 0.04422452231483565, -0.012788529968996692, -0.004152957290782063, -0.002888347597788315, 0.023131025472408983, -0.021536648717140602, -0.011425006848452718, 0.10464473008885186, -0.0016818567443755883, 0.001570178556239545, 0.21741715493494174, 0.18358678178803975, 0.06086606450891866, -0.04976820364465427, -0.01685633774761629, -0.5243520268573931, 0.0651752447840986, 0.09276926489979688, -0.2609330752969832, 0.056914835390445236, -0.009365101874844663, -0.05384896301524391, -1.206105859818412, -0.5725331678275838, 0.7547779974148948, 0.24112494830446135, -0.4264120011784841, -0.0655441134641882, -0.40694616427038427, 0.48508300022342143, -0.34508664547989465, -0.03738978362884441, -0.27291564012796116, -0.3850698486954586, -0.0006591170949983796, -0.17735638519333954, -0.029057390927837386, 0.0020623293622072263, 0.30963704627977207, -0.07073233747193172, 0.31098039382430986, 0.1637021877406105, -0.014928923701425864, 0.21908748109386184, -0.013486429086685323, 0.38867603223262664, -0.3539244917396699, 0.0768821907877283, -0.24600304981468624, -0.015494401126178635, -0.04065126243814633, -0.0445607298645868, 0.3314009319674385, -0.4063664735830325, 0.002969361533113145, 0.05138566966875701, 0.49881998920777565, -0.4727181230230854, -0.03743597968754463, 0.2218092028315217, 0.1908370085225705, -0.5883939583438994, 0.01261608694810906, 0.0017503816087580375, -0.02573949140436192, 0.09694787058355173, -0.1620364450034188, 0.21072994521458036, 0.005477744445909693, -0.2587548941660524, 0.2814897078419586, 0.05143738413720514, 0.019951075051898724, 0.8993203407374757, 0.523622373776759, 0.0004158243285102621, -0.019075679913706407, -0.6230156439874965, 0.02942963760691742, 0.00177606863695126, -0.054655522908873315, 0.3478894990439191, 0.06676345948251257, 0.4159264891389624, -0.011529656417147779, 0.10804902308690906, 0.4353894467254987, 0.0014432563204169484, -0.0038326129872383267, 0.11788055979879844, -0.1112439760892541, -0.2928943567475822, -0.03292484934560144, 0.2762495889638552, -0.1457983755705644, 0.4521970090954539, 0.24585189982635636, -0.07101624029671051, -0.008510408948403192, -0.009110339012272786, 0.6156660406909941, -0.006291501719475448, 0.1495233257734996, 0.06548413281029396, 0.0577070277800903, 0.4641329227479864, -0.12385265324528084, 0.16247925910633357, -0.06321490959631326, 0.04004711303933309, -0.0007057571212178862, -0.20827132799504908, 0.4124347943333487, -0.0909639164781508, 0.26134908911832244, 0.5098554311764102, 0.0024018694209949364, 0.013380024102899922, 0.022175975783091034, 0.0013196785512299815, 0.722366185835209, -0.4725346885342804, -0.0028325754942003564, -0.4364079563857393, -0.41133154298369995, 0.029241543282709302, 0.5739235942820342, -0.578168871027744, -0.011386183041949998, -0.1313837970946687, 0.3088707177466284, 0.22040985231860216, -0.0008693582675171419, 0.4997452401712485, -0.8020724701902915, -0.5453206632255247, 0.5121661757089613, 0.004724669593634023, -0.07152546014222881, -0.6403874607830015, -0.009766646154312183, -0.4218585109074249, 0.13156278105228394, 0.15774204833574312, 0.01191768020850033, 0.5982526816367706, -0.36759206521459303, 0.0181945402354256, -0.016013270610424145, -0.2320610329043103, -0.01573570654697987, -0.010205778521789263, 0.11622728913699923, 0.020764827410494614, -0.15131587235795993, 0.8573252512889576, 0.038349492027861275, 0.29254698943430474, -0.0007356358024475492, 0.0022456301202250137, 0.12874437422760623, 0.29578588151718693, 0.00705298018280118, -0.08729103913437057, -0.05527074597552496, 0.3726513488357202, 1.8834208360922327, -0.017917682519975997, 0.16127440510057192, -0.05116134647725301, 0.020033488897215047, 0.242767643123396, 0.03988565245342589, 0.2594595712829572, 0.0015262955003737802], [-0.005877196685375868, -0.036688292504195155, 0.07115837650534917, -0.0074207160576083425, 0.15932635905413092, -0.0008374165175292225, 0.2755926114525069, 0.16102348084131515, 0.0005401800657018709, 0.08305439330789194, 0.3542721889450472, 0.046063361678410325, 0.003073447355192824, 0.002176017231422642, 0.7667346688139584, 0.0007851303399636657, -0.23740337639851214, -0.03535930087839054, -0.054655551737731414, 0.007869050550416517, 0.02564033402499847, -0.2209112430857275, 0.2702659862983469, 0.07585040573182913, 0.005062248882217042, -0.14368161174777092, -0.0020579087414559455, -0.00048171688024139635, -0.21562054676808867, -0.004261475709431396, -0.20568282357719198, 0.0024158337659326143, -0.015501764265502357, -0.33893454115901106, -0.10221011298588252, -0.04548941739173735, 0.002433806922105425, -0.06510284549099751, -0.00964472877076376, 0.0007190289929353019, 0.3725212828478511, -0.8682812081407508, -0.6660946804163622, 0.9668406711831622, 0.18020149323081613, 0.00398702313399785, -0.21983898344687078, -0.019203254328128676, 0.003620802979553738, 0.002827694865869988, -0.0071954835855379175, 0.039737527511317004, -0.0006590963462753882, 0.06658689413618395, 0.22297137257337593, 0.012702889464330895, 0.5907573626748609, -0.1502315025996628, 0.017161681903951925, -0.2471301227138533, -0.0612951382198412, -0.02089129881026397, -0.5510021636435298, -0.018892625551742, -0.31951638245599584, -0.15257377831276117, 0.005588383844441028, 0.021407556057676868, 0.18527965858718312, 0.0006663857052808679, -0.05039671433594759, -0.0004636804081934147, 0.00028576926339053633, 0.01298069566251915, -0.03276785665479475, 0.21167912264152702, 0.005603974752919294, -0.0010404825677559535, -0.007659509306173865, -0.010960092047378057, -0.0300964349386048, 0.015715109903946384, -0.46451222221525285, 0.002193142463428423, 0.0013701335890910413, -0.060593329903429013, 0.08414674212942161, -0.003663950990617994, 0.22214066438764435, 0.006519448600806746, 0.9248886562393623, -0.16938617253660515, -0.342597862886437, 0.20094032777285845, -0.0766196913229914, 0.0013534997737422257, -0.5148961461829494, -1.597029962415183, 0.21421307486753774, -0.0891544408867186, -0.3290251661834985, 0.009963817282265579, 0.5758945217908235, -1.090539599963191, -0.39389286716292365, 0.017061489588381235, -0.10208025700257023, -0.5556359523177532, 0.14061963926440899, -0.001109236720757411, -0.535657429733295, -0.042415972704261305, 0.04874818066354174, 0.15691280984744646, -0.15327234675102275, 0.15707066410016998, -0.11553363834787181, 0.014773312572966227, 0.7652616125599246, -0.07390429785114162, -0.21881515003657706, 0.15849000509049369, -0.16776355648777616, 0.2611366548206382, -0.9717097489082474, 0.03306729053776965, -0.25608353485451746, 0.686274272048544, -0.01942541030667441, -0.01749172709801095, 0.010611975031338176, 0.29314554401413156, -0.7122099370777281, -0.0018883208978227159, 0.05863276684195282, -0.2674349093545148, 0.36368473243219446, 