{"bias": [[0.23672208058905145, -0.49059650721216275, 0.13424068449408327, 0.5232465521640273, -0.09559760313445821, 0.035851536753071477, -0.4091858192656033, 0.12372430601922496, -0.09616883711186835, 0.9560540397204227, -0.6021548557432308, -0.030389608037383387, -0.47447298399463933, -0.3398261300857288, 0.007080447065175224, -0.4613936389183593, -0.6075159245374507, -0.03234829522118599, 0.337932059073913, 0.543329836768041, -0.18094956816801408, -0.003953523055749377, -0.7674989895112962, -0.213779015000732, 0.6631790229273389, -0.8108594072874409, -0.030313931914180962, -0.765536771574834, 0.4337639794030948, 1.2657038032222339, 0.09608466752824785, -0.9249641570651947, -0.4285688355057177, 0.3364265916537778, -0.24270432426986793, 0.13997693422374635, -0.36777475340834415, 0.23406015072499803, -0.7133087431604436, -0.17890046772117563, -0.6462264101368227, -0.40776834060443345, -0.3352943908273018, -0.3108586859891678, 0.14988468603081767, -0.3275125665902511, 0.15311474994038585, -0.07638092234500844, 0.3534985201951544, -0.14293520862401254, -0.5141411132709708, 0.5944189703536051, 0.011152259869118525, 0.09411072644864119, -0.033393516892580785, 0.471970538391016, 0.5066977851850856, 0.34001891691175895, -0.16446426355174676, -0.17077871536706424, -0.022871625927519082, 0.08041125355262747, 0.5392720352569559, 0.7962383389643984, 0.2042791371181684, -0.1417243531211452, 0.2617620195606905, 0.19104174789230793, -0.10327319492669237, 0.5492146858727871, -0.4269261036336429, -0.7003014612535146, 0.6617351302136072, 0.14258252907561436, -0.15192293036070384, 0.17501737557186045, -0.13365308429203338, -0.21590015643325622, 0.02384518567658291, -0.7621870196721464, 0.40520279786657304, 0.32265295892148504, -0.21096561847179926, -0.31921671727437095, -0.4218101260329679, 0.4702293001275688, 0.46599228416812494, 0.11319349565434515, -0.49524126187016576, 0.5861827625752185, 0.19053478447954544, -0.929927101299148, 0.5688440061020595, -0.13818753495472455, 0.30951752085468903, 1.1112137404293474, 0.34783916394181175, 0.012218528072161262, 0.6656976149247004, 0.48299134242440167, 0.054290077297548325, 0.5501163971503424, 0.09817275154006799, -0.4605341696286566, -0.12798133727865688, -0.37158727015354703, -0.3673902176866061, 0.3382539410166066, 0.12005635944586097, -0.5279269429378106, 0.14790720431919152, 0.3011025984672208, 0.22077235108894006, 0.08731261690219556, 0.49885871939651, 0.2195187447845856, 0.47615401552493963, 0.2448080425565812, -0.6894817809218223, -0.21808489262243258, 0.2740186748995496, -0.16869481520257767, -0.16668011920654793, -0.05400925945620975, 0.06993035252763316, -0.4277767433807547, 0.4486966698317646, -0.2773413316332526, 0.47667386377189885, 0.005667162247660395, 0.5802658937055385, -0.17524018752927295, -0.26645138327175466, 0.18996778210116938, 0.03815839797781619, 0.3004498717554968, 0.9536602543138947, -0.08830582930938896, 0.27660303802050107, -0.09722082256376152, -0.6740094477275139, 0.39760730571756486, -0.18013130829469787, 0.07919813875295158, 0.368062285829584, 0.5842509494233387, 0.1299100829615966, 0.3347820885624491, 0.21443223142047982, -0.5905999298541603, -0.08859772291442189, 0.5543998237714021, 0.4488775708966392, 0.45522425305990893, 0.1449495382905651, 0.10515990413489924, 0.4347663793511097, 0.09433898339211924, 0.48473241229788705, 0.30581075725692414, 0.8061708298160937, 0.39423729166762744, 0.24750029174721705, -0.5235951802573857, -0.1892728965628908, 0.23838998833909816, 0.5597227089073391, -0.1534409819838514, 0.18385394822719556, 0.43954140609462583, -0.1650926986563493, -0.5658942172421119, -0.333019853364779, 0.04444210852175403, -0.13876960293924892, -0.03474226392495251, 0.18085756312835966, -0.007516514686169832, 0.024019871172366477, -0.150406813071408, -0.4125086311946615, -0.3699966914414558, -0.028398783868588268, 0.40895488222053294, -0.41328630179969406, -0.31945630240033585, -0.5855961807381052, -0.06092219366196564, -0.7789782803746238, -0.370229242220708, -0.16447112320902604, 0.5790047956706924, 0.3396376072098446, 0.1401317539668909, -0.13153041260876935, 0.19123091641360196, 0.13772504694564164, -0.7743139245133508, -0.020178564676726927, -0.4482623705686286], [-0.04619477074961095]], "hidden_activation": "tanh", "layers": [200, 1], "output_activation": "logistic", "weights": [[[0.22298665097938267, -0.040262926478351786, 0.4777615026024796, 0.29918833366555864, -0.07698938590846843, 0.05360193780001572, -0.3097899877346518, -0.3646573134935248, -0.04523184731569826, 0.04521934694428201, 0.14927303048492171, -0.04064781262852675, 0.08276414478424939, 0.22344664328586264, 0.5474061455890696, -0.06460031355664046, 0.21178381112265976, -0.11975546700892745, -0.2436427645582867, 0.1832443327846421, -0.10256067257634871, -0.39927895670370284, 0.3009459784957524, -0.5396326647219906, -0.15766047450949242, 0.04665204264337095, 0.22708795803654125, -0.17395932404510492, -0.37007176610950815, 0.13652953070776624, -0.18546060905697836, -0.25257051913152634, -0.1349213232490556, -0.09655696784476703, -0.11842411398011092, 0.314649573299017, 0.1758645358131679, 0.11469301492304063, 0.5981933880126378, -0.21950091987173123, 0.09165979770618567, 0.23135468906275009, 0.061390953525858376, 0.1316364925160592, 0.016450504083206845, 0.06807523383254208, -0.03339083249416029, -0.5080751179920042, 0.27414774724665075, 0.28321143015981, 0.2863131662400165, 0.11007698808076051, 0.3788682422742304, 0.06256044280837147, 0.3914863898258679, -0.15468499849971812, -0.3579323399260867, 0.3795410115650334, 0.7110420063487092, -0.17973248050872156, -0.262128760139114, 0.20271581598004612, -0.34307131526431645, 0.3260308450657845, -0.030232092906790926, -0.07931114447842666, 0.18714907127618988, 0.038051296287362535, -0.24270954939764067, -0.16793725432306789, -0.25823699090380164, -0.3756378670083389, 0.014307190536699654, 0.0584382289489133, -0.16879613942932922, 0.08248350539215478, 0.451460329217962, -0.22850894657921567, 0.15576275948757604, -0.1662281961931754, 0.018235263445725815, -0.21005116602297016, -0.0031131600661320966, 0.07756021147064118, -0.1343902939589663, 0.16170058605203894, 0.693147142732664, 0.47522617183165633, 0.2769270591272069, -0.09691202706398201, 0.15979802553212363, 0.24866677376749124, 0.42462643484862944, -0.14604259461582825, 0.15799885109325246, 0.270182904980949, 0.25144870822766474, 0.1260099786663908, 0.0022345312394475973, -0.09134890490152699, -0.4118247574657137, 0.19532053795245544, 0.12603113413301548, 0.11453957795506907, 0.13520241658701718, 0.1191367530384008, 0.49862124715206135, -0.02647368890722903, 0.10068784112334142, -0.2052478915192366, -0.15202791750760827, 0.14167986707141367, 0.2927751724601195, -0.08143944646777646, -0.28723672547014467, 0.12289180428220692, 0.23458436645517855, 0.18910838387243428, -0.3317014982526598, 0.1680532763283141, -0.014892566171144744, 0.3970174239376505, 0.17838607803589343, 0.05776301474112908, 0.4112517460605336, 0.09390286624977792, 0.03356958255265053, -0.1853637403565999, 0.04256148929605572, -0.033384057045257355, -0.04475179109622684, 0.3099486587882161, -0.1886273925257891, -0.15061497268022978, -0.08686287469024787, -0.056420689644773224, 0.24223217749978176, 0.5747504003258405, 0.2574726271016925, -0.22096799501842487, -0.08435781250338652, -0.10104842138657165, -0.15467067231289935, -0.20243412531992133, 0.03356017426946286, 0.38432536283919533, 0.11006639878704441, -0.1745522651637664, 0.13566818836106254, -0.003175325957296678, -0.22821870918701057, -0.07322342402638785, 0.1743054170114292, 0.19153812875146206, -0.012908812030549046, 0.1736922284330187, 0.14711880551019313, 0.2665696739089445, -0.003486376204997897, 0.23651778212788513, -0.2063333235937094, -0.06422822789068824, 0.4697681602478952, 0.0346037846324827, -0.07347545931938038, -0.20913369191751086, -0.09894317063989852, -0.021786518639271432, -0.4379338136237813, -0.2763094897203645, 0.05695368048721363, 0.3059324447189254, 0.3570128356520304, -0.1473808250521827, -0.257906860653541, 0.37320609823979095, 0.177218158637578, -0.05526475641907814, 0.04966213545513349, 0.03715697585520773, 0.26062919425464476, -0.08933374253450457, -0.22491219307059174, 0.05478460299567288, -0.48271983520888906, -0.014319466800000942, 0.6086702294173598, -0.13818711574325862, -0.18799054516829863, -0.2893326999254125, 0.29434950495061885, -0.14319756924824512, -0.293541325957472, -0.06773733844637918, 0.28699118844384275, -0.3188141644278885, -0.08693549273449591, -0.10944398997397592, 0.08513053484951406, 0.10137703340390199], [0.2912219246993659, -0.12503382138837943, 0.13440970901556948, 0.33224982914667456, -0.4594785859898255, -0.14270283535128042, -0.40469460867404616, -0.38759462653669186, 0.14754405639621185, 0.6121971062878147, 0.19839808430634673, 0.23725985896676713, 0.2638236959189953, 0.3023813814768524, 0.027250491898063084, -0.168750602484931, 0.043599538249762884, -0.11939476490701598, -0.23364515481107517, -0.06921682208702983, -0.17531975391012863, -0.043728050028067206, -0.02142046886608515, -0.18712291318031907, 0.20199049882260217, -0.016663702248233134, -0.23577036142851238, 0.1435652653181066, -0.15512700321146625, 0.5070725585578854, -0.5193327846089687, -0.21577416567050306, 0.1547614161263723, -0.15170578676026902, -0.4158810704607179, 0.2758904674644854, 0.19902862091923632, -0.06489760630187406, 0.9506841085655128, 0.3393298687480744, 0.12345922922734796, 0.5335305522598046, -0.44053802154068017, -0.11672743726907668, 0.19969566861915505, -0.1835825185827349, 0.21393099617491007, -0.5053825280371832, 0.21339258678751788, 0.3772513114432807, 0.14836133695773437, 0.27789863466737874, 0.7651375348197718, -0.13380217418443088, 0.19039661867351354, 0.047286337042001254, -0.3828869489963191, 0.042568568788007535, 0.9490836477355034, -0.31545506082661245, 0.05101590365927249, 0.5087771686134734, 0.5360451503194231, 0.41079743760669474, -0.22814365262953967, -0.5585780299839853, 0.2261560884891266, 0.3327142836481338, -0.24214418527247372, -0.2787084616570486, -0.1459530353016873, 0.020443872617161487, 0.15958205526857197, 0.4324983235708642, -0.2466845377750686, -0.27079515286876915, 0.349412544951607, -0.035456700016361184, -0.011269847138902271, -0.22873385517596678, -0.0638691618563052, 0.19758179168836054, 0.45338196037248496, 0.3748979375537171, -0.17144575298826223, 0.22730858632293655, 0.4062731499236631, 0.08993134806535832, 0.3340481552619722, -0.07522451944321057, -0.019152299867566804, -0.15030881353100614, 0.7223009772628908, -0.11692210956854356, 0.06168140722555436, 0.3690913367412937, -0.19505398567739435, -0.18797861473166322, 0.36133033467747216, -0.028126163907211368, -0.26340759451318657, -0.022084310835326654, 0.07896496666585927, 0.4297393367697994, 0.08011069587492613, 0.12816589739215123, 0.4029681274259184, -0.12664538039394993, 0.25722690807446724, 0.13654380835555946, -0.32459568112484893, 0.134813532059881, -0.0835141271706656, -0.12828348000578607, 0.1550905825997429, -0.43138840542374035, 0.20231776553364827, 0.32259901271699515, -0.19206435238358271, -0.10446533202503767, 0.21188218089787633, 0.6258393865638404, -0.1169076035956893, -0.19067383918971065, 0.5485700084248477, -0.43385777035351575, -0.024898861168241665, -0.2057356245064749, 0.34624743388601725, -0.0021481855869722967, -0.05445274171683107, 0.7177451973441101, -0.29663249904223266, 0.3236072976616587, -0.3177705436324257, -0.2911447982461833, 0.2346587072874333, 0.5774705263065706, 0.0962192416091624, 0.0996211902682246, -0.41471670598961496, 0.5626937492438921, -0.11934077829238517, -0.2816602437185446, 0.15910932657969679, 0.30756234446830205, -0.027637838143928607, 0.3016078184329624, -0.2653185012502619, 0.11386448710213537, -0.42884448758177823, -0.277728447184401, 0.24890768008326317, 0.014566252540894463, 0.08792551452293751, -0.03412962384663253, 0.10563757010909017, 0.4567087192574086, 0.4336696760171452, 0.531484620476349, -0.10174129316758158, 0.02343586428187134, -0.0009541812686929515, -0.5264198225934675, -0.06750027709082805, -0.4568106444329738, 0.4161220014581904, -0.19981384415087752, -0.19374746144160168, -0.482136352727431, -0.49944562285676086, 0.5491965474023189, 0.9435157947437309, 0.315760829817859, -0.296713737368101, 0.2967837693703525, 0.1951210661522106, 0.521988735971306, -0.05094690559897567, -0.6151687252779582, -0.08963791868322094, 0.0760065863870253, -0.5426131498082063, 0.11099786937412126, -0.3696263720178166, 0.01171516212498891, 0.5095485757254951, -0.2075907936208205, 0.04286204666221264, -0.550749061913816, 0.27022309267707406, -0.4944261910166661, 0.040366377964216625, -0.12349760383971262, 0.047875776220425485, 0.04878219404772608, 0.45555988642095013, 0.2833285552325961, -0.22111145980285124, 0.3782181883521305], [0.1681856530417269, 0.28386464522297716, -0.1011561515673722, -0.3807509062402319, -0.028552567974243923, -0.1466894071855066, -0.026028423838110215, 0.2299655212921558, 0.29443541346123586, 0.4632876911105285, -0.036822576946684824, 0.12259744608269156, 0.07241584633651135, -0.4080691843045417, 0.10086142840584011, 0.13251822390133441, -0.216419141382375, 0.029634070349051255, 0.05802334067038829, 0.18443381191799074, -0.2457205851611066, 0.34613869594113406, -0.29770256279914586, -0.5287111155906526, 0.40299924354174294, -0.025811666001680226, -0.32257831435313233, -0.35205289197858386, -0.10297467605596104, 0.5971916733924406, -0.1045451820176686, 0.04917035893291388, -0.3633311099455543, -0.04977406761097586, -0.219666144180415, 0.2377778979157673, 0.07639141648056655, 0.4383964377902416, -0.06865715439512443, -0.039084481184926294, -0.0010858199461925412, -0.04195201212737421, -0.15684446114113396, 0.04113848243958931, 0.08322572192819029, 0.13626988796142625, 0.31930799433314894, -0.03942941802953217, 0.5737408923833667, -0.08248401373663548, 0.1797301525216659, -0.08387803844688946, 0.16992449320586664, 0.08560397593479574, -0.05971914083585757, 0.17181556915716492, -0.29086936203228125, -0.17256448535999605, 0.5201977451720086, -0.21217779425965003, 0.360284573087251, 0.10280851583508509, 0.35189341846315925, -0.1821985049210163, 0.0002567811997926184, 0.019634481987737446, 0.15057387790626006, -0.2778987113074081, -0.22341036963152566, 0.10761055488894355, -0.07709914596018887, 0.0603566086684793, -0.050481454228583834, -0.047775177834961706, 0.06433226330474837, 0.23303427155125075, -0.11025282924236976, 0.028392354574905968, -0.2789724340300527, 0.06628947346512089, -0.36993736749424055, 0.2505038538038249, 0.48336229174166095, -0.19006722610380486, -0.1911714676038618, 0.3083072643089055, 0.2193990843538694, 0.090744190215746, 0.1192932058673447, 0.6388962701178142, 0.2246316270747464, 0.0205328509229443, 0.408929193172996, -0.20262782235265683, -0.00999991738321041, 0.24853737629215092, -0.19902054953099393, -0.11579014178062312, 0.8027454691740981, 0.11084028449322623, 0.4739871008382585, 0.23178612868340098, 0.061652790623699986, 0.3396719171870946, 0.8242243233763021, -0.259775938155696, 0.13026511756112807, -0.5308786136261202, 0.07791319865187983, 0.20709763341844237, 0.3392831399764996, 0.27403812492775187, -0.12694769514452706, 0.1213258998879873, 0.004797938620499906, -0.1531602227526485, -0.12004468669830332, -0.1095831488738572, 0.09071993400576615, -0.1372454285523841, 0.5083801115517623, -0.023079822568072412, 0.48888197363168817, -0.1741804063318968, -0.1569404611924419, 0.026850388753854343, -0.03853797865011408, -0.408694141679227, 0.783781640846213, 0.28545635752981663, -0.1864946506601981, 0.02584562980331838, -0.7329134227907751, 0.7992297763404523, -0.12667937180333055, 0.08101840217862999, 0.06434975861408919, 0.2828182726367623, 0.036223847174418206, -0.059511920808852155, -0.27791568626875807, 0.4996136784916626, -0.10265101188369169, -0.20899418418654542, -0.1940435596701892, 0.06541717096524469, -0.429867718082823, -0.09791525895690568, 0.21059575513045536, 0.4487973993269059, 0.09707593967591897, -0.37239721275965526, 0.05854325455556679, -0.06098775388029206, 0.05403837682131491, 0.16982611818697857, -0.1390605023863106, 0.1784706924158615, -0.3464049498198611, 0.023459244501917366, 0.4759777278524848, 0.15055882781340474, 0.05598578294407351, -0.09670375621414358, 0.2555530494456417, -0.15906992612775123, 0.05049262547455259, -0.7819044813462824, -0.16679008737484166, 0.2859943138919933, -0.1010838668132097, 0.18040554730010636, 0.28986978557316667, 0.2179124402039516, -0.37347789628452227, -0.29470440472333437, 0.36055386055981953, 0.385062378759132, 0.01692794642954015, -0.13911558067313204, 0.02366144954948621, 0.3847872158232902, -0.15112003034939708, -0.15169378723143265, -0.3513565044862815, 0.17366253620255087, -0.3605035776645679, -0.12285587958713078, -0.4166095405870045, -0.5032690846370808, 0.5279641916449869, -0.2921103029843713, 0.06529086707684231, -0.1554489166997036, 0.15422235811538143, 0.16800460092738448, -0.21769580211988984, -0.19911330245701583, -0.2601118715384214, 0.5832856486695602], [-0.4810616954755489, 0.32238772446826996, 0.05079003844278719, -0.3100806971815864, 0.4626180833122923, 0.4350412176708749, -0.28234355586689347, 0.17246243194467373, -0.15716840219712125, 0.12323696684357388, 0.13319270931629018, 0.06984091756403692, 0.1813297192161887, -0.2185248259239491, 0.25077653082828816, 0.20878992005084948, 0.25590249147954885, -0.17251626142475276, 0.29757462461770506, -0.043431939042811424, -0.1888212226074502, -0.033591790172580585, -0.5505175183838333, -0.36047893290520144, 0.24857469037312802, -0.2686188296531044, 0.15867931118080617, 0.16463255842515842, 0.25091305144462367, 0.058799197877335556, 0.04157968149740589, 0.10424558871029252, -0.6593378328530597, 0.20113161834664564, 0.14877078708079056, 0.02098116295568047, -0.20226586705525537, 0.7145406951128573, -0.27086840274085994, -0.6995218180276539, -0.08024987423492615, -0.056917140509959475, 0.1756495000278493, -0.0650782944539253, 0.3172651056952693, 0.09420945829571495, 0.23629318134489402, -0.6930921582713065, 0.03927665453085663, -0.03311015767243172, -0.1126350692302596, 0.021131935800242665, -0.17784571133276353, -0.2843754843364373, -0.5860473842761179, -0.31582145275879514, -0.07338999813511234, 0.5794083908879591, 0.11839466067616831, 0.28329309059202673, -0.12947634011994688, -0.18257385515508975, -0.005368594075555991, 0.07629148643801636, 0.48476651147511857, -0.09873168855591961, -0.12541348931139534, 0.21087832928813635, -0.22242224486251966, -0.27975828181152457, -0.3937551408599246, -0.481451914501096, 0.12103429285718502, 0.12635813171204482, -0.1008848708470021, 0.7888185064532568, 0.2298847071676471, -0.12105916492843098, 0.053574990455115996, -0.43173983947120215, 0.039437124023539744, -0.3270412672526518, 0.3616180914373286, -0.6247962714567582, -0.190513545983891, 0.12818517005506655, 0.1477391782281218, 0.5466560210785973, -0.08523189613255441, 0.1349321179738999, -0.15326641710322414, 0.1065466139706999, 0.29597343310078744, 0.04129855377801775, -0.20237175807078397, 0.47431525001565683, -0.17064598518710067, -0.20718840227716967, 0.2373327866004313, -0.33587575873563535, -0.25212218034290845, -0.29904167267848375, -0.0596064514089808, 0.03909563815274048, 0.11545701702382402, 0.3425901409193673, 0.4691110651058532, -0.06586334891657043, -0.09226908954609207, -0.3218512437832123, 0.5135355937243405, -0.12059159891468067, -0.022715527254263207, 0.5327508956964622, -0.695943596538549, -0.022616000354733663, -0.3126594432293407, 0.004668567314585831, -0.3433987752870728, 0.25879816044503773, -0.28476464916455013, -0.3056067081910815, -0.053809834521510225, -0.5009120251893365, 0.060126515330747546, 0.1233665280984558, 0.543719194888499, 0.06573437870328289, 0.48161077408538083, -0.08951443605712096, 0.063295232451298, 0.23778534416128697, 0.45537672453800515, -0.3448614251543189, -0.01590116502663924, 0.6827548470698697, -0.2880033494059887, 0.3099045334332993, 0.2053153300972841, -0.3882053540923568, 0.1995382525764529, -0.4119742625367227, -0.1835459999257877, 0.0976151900568289, -0.08266782072287564, -0.29383677089137034, -0.0849649923101415, -0.2650446679777247, 0.6827726633589384, 0.1623076975337328, -0.11990798673207839, 0.05435681467702061, 0.013974097597961787, -0.4473222698965786, -0.28199101755356026, 0.6328670006393459, -0.3428211341957854, -0.21526230342712402, -0.10209485502796181, 0.24861853238065412, -0.24475140131531134, -0.14744068015587974, 0.3438293604569286, 0.2126222503503738, 0.4947908090525757, -0.14393456601878332, 0.3563565483629959, -0.01925347964671447, 0.13523011034626725, -0.03127053545208592, 0.31516793777194124, 0.062084733628666795, -0.1334832405168323, -0.404972517405596, 0.09292413979677888, -0.07303320189776234, 0.15838031830697208, 0.061451057776796006, 0.11516855750168138, 0.03812443201480445, 0.17472754332573806, -0.23594385013067107, -0.35119989678036795, -0.021328956635884598, 0.30520801430158995, 0.1587104263895945, 0.14757146675904903, 0.08576538650794742, -0.023133324920556333, 0.19589194409315905, 0.528563755435676, -0.08721476628704766, -0.47424364347675046, 0.15579692407195972, -0.03410998772693308, -0.09704526618229774, -0.38665205127004026, -0.03580307890193181, 0.18979062438261882, -0.03010119614869168], [0.009618045064640987, 0.1244559074375951, -0.1369573077280324, 0.28293995383862475, -0.28895588396299343, -0.3992297426057245, -0.057108485180218556, 0.19985530479949812, 0.20787564504966838, 0.3338799058029991, 0.1307512005758959, -0.07220554996156589, 0.1681046036851364, 0.20920973223491676, 0.09830157457708108, -0.10580590152654573, -0.022380459663503497, -0.01811318503003632, 0.06638736377469123, 0.3799679202925115, 0.39091284174089047, -0.08479857108888532, -0.39631068814852927, 0.07844301107490129, 0.052777782784010324, -0.1429704700527172, 0.114622963603318, 0.5828518304289069, 0.14137505906039535, 0.0634730219748679, -0.35031855527888467, -0.2900825838551316, 0.5149919513508566, 0.3777550606383469, -0.3980325266609935, -0.34598330683702017, -0.26050706993218753, -0.33466831254051405, 0.19579057642785533, -0.1502624084733093, 0.298265106991389, 0.37950173660673525, 0.01400266224650582, -0.2908097873895317, 0.08133721843317626, 0.6247308726489822, 0.231153032192128, -0.5416241224223031, -0.18226453900306588, 0.13374621099221795, -0.04960918719845169, 0.10524251790098428, 0.08796670172940849, 0.19697106770968137, -0.40760795069175954, 0.07605759169285094, -0.6695568036279662, 0.2375723108734768, 0.0521175565971395, -0.147758832163306, -0.1039728931329086, -0.20369150576237297, 0.43704713079979257, 0.26134892149782063, 1.0483068878905593, 0.12288250561276665, -0.10879376946153137, 0.285382059657714, -0.5544706407275743, -0.5428322393015352, -0.10286024102856035, 0.06432335538999683, 0.12370170551549181, 0.17376058447856566, 0.0789255356375564, 0.11106121858568177, 0.07096384305793396, -0.1520455130210879, 0.09937069768387953, 0.6637828310821648, -0.2977443465787013, 0.3640142565052153, 0.1791649155757727, -0.2983057383020192, -0.9102937579738343, 0.14857904007001782, -0.3060658394466214, 0.4511019549590624, -0.24057618587140073, 0.08003302571794567, 0.08408073764656462, 0.24444364495116988, 0.37197905581658874, -0.21823863367631458, 0.27934149443506634, 0.6046834153060813, 0.005172845717699921, 0.06663631587989012, 0.20012602858092443, -0.24603778022750925, -0.28040590551921446, 0.023037033986842252, -0.05536277583308003, 0.07310685543517272, -0.18889088064035783, 0.28750315398306203, 0.35306609750577356, -0.10213391174352869, -0.5427662060815556, 0.37599952196993186, -0.047317316968253545, -0.13333547462855694, 0.14743354152228239, 0.8041727557140279, -0.4135108523711056, -0.05905522109311833, 0.02625264549346557, 0.5200308603483966, 0.18827669509106065, -0.10492787842933336, 0.26073967740124554, 0.018541063123480632, -0.34916480054747506, -0.23294215363407797, 0.4105772196567357, 0.3758986829918891, 0.42832193612810443, -0.19283092876719615, -0.29993454365119177, 0.1415209045277087, -0.31800181777817177, -0.2618810813870486, 0.3577501087366064, -0.17215864862997446, -0.024205351617812447, -0.340011623899204, -0.05043146780037851, 0.43165000633819495, -0.34545235475180497, 0.11546741390282594, -0.17749685324468553, 0.22186251267953971, 0.18641277088985989, 0.20158173175436825, 0.006088166921050716, 0.05181542251121565, 0.27959503723575924, 0.22995705851076864, 0.021783910399794, 0.03272530568821573, -0.1013959778362192, 0.4132412388553473, 0.329629375743709, -0.05048388933903173, 0.2569441633352477, 0.29856214082135285, 0.11471836468580222, -0.31000069152276044, 0.19514790246242347, 0.9530192474830116, -0.6423368007396214, -0.28229956874991236, 0.12021161548106976, 0.40921657396957045, 0.3663598204561233, 0.0319522310227589, 0.5836519351321091, -0.3712068580178974, -0.02810057708592994, -0.3829055906676948, -0.42043507019827797, -0.4187429415855143, 0.04852077725553359, 0.10946489640544034, -0.07115738886048507, -0.027560511491505454, 0.21220729757311727, -0.08234990027603849, -0.19252005586323273, -0.990181002286832, 0.13821968489412165, 0.01616320131767891, 0.15146064252834876, 0.24504736872376884, -0.17799992078897434, -0.27174158541338755, 0.31285462020914745, 0.47022989473439464, 0.3996334276164284, -0.38415001136652244, 0.19113836435190013, 0.2788806823802008, -0.42230501463422926, -0.1638928342756203, 0.10031147726199553, 0.12355641654512009, -0.0680202554604732, 0.4939824620737464, -0.12482836793325283, 0.07581512497264507], [0.23793447672708154, 0.5213982385255486, 0.08350590633738587, 0.07727054595296819, 0.16245315506491081, -0.25468051679783693, -0.6584299193179081, 0.30846489579831343, 0.5362648766313312, -0.029961886838173735, 0.9624035691583616, -0.021806622452422843, -0.31856503924077995, -0.13683538452390448, 0.4261913674883923, -0.1559066254446113, -0.13589166359897453, 0.21597659332284794, -0.2387171793202185, 0.4345930337172188, 0.4471666806949894, -0.000369776700497609, -0.47544902389008786, -0.4359885761729149, -0.20903284174497982, 0.029824883368685457, 0.2634083645344029, -0.035511490531141894, -0.0905131437931553, -0.27156608636235646, -0.26289438085463107, -0.24551501868893327, 0.2904250959529027, 0.42993647669886703, -0.12944642766847772, 0.1578549094748129, -0.20001094728343477, -0.287733946267905, -0.511313662879599, -0.07163256464429128, 0.40233541171730747, -0.20360449734737712, 0.6618994025791822, 0.5898364579814861, -0.25464116782287927, 0.9972004362652211, -0.48007049885052105, 0.29612865911857755, 0.17819432140621155, 0.12067821623575041, -0.46081729322133447, -0.1975261992326698, 0.04417178858268077, 0.3326678898284161, 0.42797222842502075, 0.5546213744439135, -0.09484545058900065, -0.045914364242395735, 0.30342354953455725, 0.106349204229247, -0.2535821300782146, -0.45389177856185375, 0.049809334825525596, -0.5429409806851466, 0.6043222694537873, 0.3733151315256347, -0.3415915949721323, -0.04799706639084765, -0.7297502445362677, 0.10144683217294205, -0.49375299301929887, 0.37023520994418907, -0.33797991615492967, -0.12862622496467313, -0.19277112345046746, 0.34829407681803054, -0.009797878575824795, -0.04844663008636749, -0.03306363816946679, 0.8043348974851393, -0.8426243975504254, 0.3349889811258369, 0.691248708913852, -0.2907900413861529, -0.24214217189179457, 0.28995561656918156, 0.30793931260551055, 0.6687861437194087, -0.19218373372904832, 0.2222616990225481, 0.3585732127820753, 0.33503286867899135, 0.0687462977503948, 0.37312676511979914, 0.5443246051930801, 0.07315614434393546, -0.016470104250845545, -0.5364455012090699, 0.1486311990041878, -0.31508196518802833, 0.37499453656443843, 0.05027899656559296, -0.24881602995027374, -0.5761379398381784, 0.0727044703080617, 0.23294361031905444, 0.14608087418146765, 0.11794990079148888, -0.11806879735370047, 0.28420593926059157, 0.7678456071410942, -0.3236147911553586, -0.09149529456927132, 0.36339148792057147, -0.7449185767689239, 0.35561096710845225, -0.3324546353465553, -0.1924644577774059, 0.49037158142958803, 0.05601031582842689, -0.301017484087965, 0.15134819316936682, -0.10785792055192646, -0.3362063098654137, 0.5477138154092973, 0.7699644458824989, -0.4867692196871269, 0.03651699664654519, -0.17168721609432686, -0.13557648936496117, -0.23986269664839324, 0.06348104011144581, 0.4996738702519711, -0.19465869452796025, 0.20399802719687843, -0.37448711936869716, 0.0028662118655423644, 0.19158612266595104, -0.24136997497971546, 0.45576943746271176, 0.2012955533964241, -0.14777058955085673, -0.49200192713067575, -0.11734593650937725, -0.5061346014193305, 0.29274917205278234, -0.09239848644004788, -0.003322489968046934, -0.2698704480209413, -0.05613484486629093, 0.007153964540730739, 0.6270907229836209, -0.1210994791679543, -0.15806418396653582, 0.47200110608270485, -0.016525034180196154, 0.07968547874638074, -0.11242987166347657, -0.27385132530598416, 0.2050384873437276, 0.10649046545678366, 0.09976419856332257, -0.014014194508971517, 0.668953185062279, -0.08796855715685759, 0.23161253328658735, -0.47758811494402814, -0.4885689004019722, -0.2713245151188017, 0.47097720324397435, 0.23598846203472734, -0.26197259730897837, -0.08820682933733197, -0.20587757795452358, 0.10040607535382226, 0.0997495079557939, 0.31998346039553616, -0.23802147953585961, -1.328104039334747, 0.0775729304616719, 0.30156970474180633, -0.16629748505997308, 0.1282190236055628, 0.2306542832292701, 0.07613194379041152, -0.3732552763340266, 0.08652737028078157, 0.14959191325639615, 0.02364137985446262, 0.0120634588387641, -0.2717679759827894, 0.048750940145384974, -0.3996315739725401, 0.3672781901849726, 0.1534702904436086, -0.34115222792716293, -1.1338784565179385, -0.08892953689721361, -0.6010280154831309, -0.35123336474561784], [-0.301970057125933, -0.1110005209202248, 0.36882229940065325, 0.19087461621572732, 0.1539412074679195, -0.09532312064618859, -0.6970226102027254, -0.3059498523338798, -0.1102533485290678, -0.15111438916068978, 0.2840404202830369, 0.11476094294293049, -0.21604579200623006, 0.16080923662270602, 0.3103700752444374, -0.178223515996552, -0.125946775649577, -0.11258327293723752, -0.19816368565544734, 0.4915410410679603, 0.5508570282357658, -0.5894192546790175, -0.16332668115943805, -0.16434935039507073, -0.6744696529189861, 0.1927838549244141, 0.30745886050017585, -0.10819938195221636, 0.08259178993646844, -0.10646911317277717, -0.42351094707734827, -0.11722190155840309, -0.5079776684564551, -0.12629636716980955, -0.2869019012822558, 0.009965175304460738, -0.3611795485882557, -0.4917363163428324, 0.6373742311748454, -0.01581181973067504, -0.12458362704837757, 0.005245851034773064, 0.546362880762763, -0.01198695510311652, -0.3065564851284726, 0.2599233192933908, 0.05814413800003846, -0.18298798360564064, -0.39695570383352385, -0.11187380697624717, 0.5379565000290881, -0.08034163367883015, -0.017101789385171862, -0.048434582403590734, -0.48092426399835075, -0.8086448901821254, 0.26445158007899267, 0.9646379885890667, 0.1765546494962152, 0.2913848401432671, 0.9451306547970292, -0.09131167764692705, -0.16111483980359592, 0.30174311596608516, -0.23960060588212237, -0.30918961187755745, -0.5880203515181256, 0.5256222198763294, -0.1937699635823067, -0.307825904780878, -0.25810035890919253, 0.15482100877316685, 0.42334193303999146, 0.4878449003830886, -0.5178854335576868, 0.3044243514866107, -0.20473159654073858, -0.05067374086805359, 0.7088184132795456, -0.5415187555834531, -0.6109261733616765, -0.2568645732591264, 0.6549989455397109, -0.48169255176386194, -0.3153359813099645, 0.37870748185304715, 0.1698721494274163, 0.1822136540922837, -0.033353771457586105, -0.17007649761240917, 0.13574425398517478, -0.059599733543059426, -0.07864899608332826, -0.6079805725817443, -0.7414937566587456, 0.2045909073330109, 0.031984417643192625, 0.0367013953195346, 0.048283466271922745, -0.36210291484830287, 1.4157492706962593, -0.5542647663377219, 0.134313249802241, 0.2383609251513401, 0.3463765406277901, 0.22049327903202437, 0.2681893830727134, -0.5805475170985551, -0.2873292861956816, -0.29888779058135256, 0.11757765351793203, 0.5445992527017288, -0.29836009701585897, 0.49305619676717605, -0.23938391360350644, -0.22398440147065263, -0.21659180047171675, 0.2995069344174455, -0.3208933051720023, -0.005693547594528327, -0.30559521480516444, -0.2750196577354178, 0.317050574824695, -0.46089143865416904, -0.2203211943200239, -0.24896747479188053, 0.5277562418337243, 0.07857860245151421, -0.4271130864992844, -0.6575096272043726, 0.004429606304145462, 0.2427775914348797, -0.3380716254033137, -0.35449064819674203, 0.29513815588759473, -0.1794634847179908, 0.10232532865288005, 0.18197425601794603, -0.365880463321494, 0.06662736448570955, -0.6013451624131466, -0.5539379462735151, 0.36671280211850327, -0.0901896120100686, 0.32535921022970565, -0.8464114014590626, 0.11920936774033031, 0.3415072556509561, 0.3482024687652822, -0.37475016363816166, -0.33755922646436676, -0.7762993441747881, 0.15114631257435632, -0.25414171146271364, 0.15943979927130372, -0.0669108270099626, 0.30734012304126174, -0.23639056743026582, 0.47738502334314015, 0.4377994457431249, 0.18749577260859823, 0.0333695617361825, 0.5403091882994719, 0.0666326551482391, 0.16459800880637843, -0.732694853289513, -0.23994023239645942, -0.03305931210884623, -0.3231631109120951, -0.14961898706051513, 0.29208524360867844, 0.6575295814700364, 0.5147637619230675, -0.46967131913249205, -0.05416461977787446, -0.013384209987122838, -0.2928747514224347, 0.38102454268096514, -0.3243624920893263, -0.0974169940860312, 0.11948496264307834, -0.20897940296074927, 0.3575151768963188, 0.44343575424339776, 0.9043367888977071, 0.12406262399292078, 0.27092745111987604, 0.5301758257436248, -0.40439665104453004, -0.5859679316137371, -0.09860351785677138, 0.43323325682192687, -0.2888674937960057, 0.42722332805583296, 0.14244382772733613, -0.02732902922864427, 0.06999075314374935, 0.83544479321339, -0.09611887018912439, 0.008737518956516343], [-0.1397682168890141, 0.20861562750241863, 0.14284255669476978, 0.09631967241224898, -0.14741099243577227, -0.2901350894318782, -0.09525792590534693, -0.016321700715916206, -0.1511576258165202, 0.2764186774134537, -0.26132751068525617, -0.4917631308620757, -0.607151388900605, -0.2582835841040752, 0.26121000565446306, -0.37351997011993576, 0.11652189771839623, -0.15957767284648547, 0.35215598133391807, 0.23483390274684895, -0.1091652594989127, 0.18732351998755498, 0.3202239130436053, 0.17415822623490948, 0.14031342802425867, -0.10409547603333308, 0.1638602987715544, -0.22480128100383817, -0.1720719211983304, 0.6383476050256328, 0.5629372578196897, 0.537122959097165, -0.06539083665105715, -0.28292711522127884, -0.45400938601368634, -0.5253368293826092, 0.20223581154248438, -0.481834528001656, 0.059997817779865466, 0.7453109577127849, 0.12350250071607251, -0.7480367181935553, 0.5554608916889976, 0.519022367417299, 0.014235329554368301, 0.4899589073394161, -0.0590729155617218, -0.007928925790201578, 0.060633236816321205, 0.05841162204050592, 0.5389039138397751, -0.02525174179285016, -0.3573358381875721, -0.07205573160322107, 0.9346347678464164, 0.23129380716478914, -0.10902631047088086, 0.006803671951375295, -0.5735911830846872, -0.08964879655492697, -0.3829217109093544, -0.5952191882482895, -0.08198002152870756, -0.28391532447207746, -0.014586455508325092, -0.06360458555319133, -0.38845820890341914, 0.47721358265899516, 0.09507212740063482, -0.3952864665496014, 0.08239820434146014, 0.008150680177647952, -0.1818592952562872, 0.020859078286497922, -0.9620767604197535, 1.034337008793589, -0.020006895521089207, -0.12181583746035751, 0.05086241309747671, -0.24896708129400041, -0.37295508822597845, -0.05094946077756731, -0.8383406604347436, 0.5012350713768077, 0.10673816769506865, 0.042401189979254975, 0.09173670475143293, 0.09872028692342283, 0.21873106412473065, -0.7039201307276923, -0.2769275649076052, 0.5175716360133623, 0.22269924984423237, -0.2884499422809948, 0.5314559878200092, -0.08958539947522984, 0.4497065356495517, -0.3337876504391278, 0.19383954353522764, 0.46685590351626804, -0.20403752408226283, 0.26131086435150735, 0.0504454332454549, 0.18507262719271395, 0.05628211170933045, 0.12458530441496195, 0.1350655232767748, 0.26923856093028864, -0.13500321806588048, 0.10014209912503622, -0.3558749940355599, -0.7920295380954049, -0.07835610924802391, 0.6223187737102696, -0.6692518053168448, -0.1355227418816151, -0.11811915619053773, 0.26386287597707364, 0.1313949023055058, 0.41823039252830263, 0.21828104895743103, 0.1391940883961109, -0.4983107383024788, 0.10010404864745612, -0.15252605734260255, 0.18434037125343503, 0.3698576688172287, 0.010449390784983853, -0.5858329352990633, -0.37644881369168626, -0.3274779362257311, 0.5758730797789511, 0.5561726239228049, 0.06848705954452484, 0.3461997348038196, -0.0909981342351536, -0.05032247681749622, -0.28766448395100885, 0.09214699706571754, 0.32681457211050996, 0.29900198940087513, 0.7502869863910601, -0.01785306884212604, -0.0028817587467455086, 0.073878909971956, -0.1663662502812941, -0.2089158846057898, 0.14666174491989098, 1.1448044320636763, -0.32724508236788513, 0.19075385934051708, 0.25897930261437213, -0.13924178045120753, 0.23083718343989496, -0.5068402752155479, -0.016505482664382048, 0.14792040028612527, 0.20556440713379984, -0.3804566660152858, -0.7230384823371683, -0.22526616945712874, -0.062058350043325675, 0.23242421106562333, -0.004976236228993062, 0.7342562498436686, 0.20914234898659034, -0.5144495890642492, -0.08425851913351898, -0.14776782846018877, 0.7517922649483576, 0.14117524367943812, -0.21831320945366853, 0.5595602636024806, 0.768712894129173, -0.723477217913165, -0.061254565109761704, 0.33318614659495843, -0.853500811212171, -0.3444450778762132, -0.09536559544630023, 0.08982509292674534, -0.10441539199375369, -0.5003585056142439, 0.13415439597330686, -0.16626751618654265, 0.08769395369205753, 0.0994389041187576, 0.16171666077980124, -0.6917775346748827, -0.8562915074377289, 0.755201608854805, 0.3273471984143568, -0.6451111909594252, 0.28521425123520333, -0.12355536998366178, -0.6637638848344493, -0.7788032423869165, 0.2918326052457291, 0.07782122542003059, 0.28216954751103873], [0.08836546120136098, 0.05649701739175209, 0.3705659800627947, 0.25918591199625657, -0.3734049846688996, -0.007039282259527668, -0.1481527446503445, -0.3560955527518298, -0.18467784077846872, 0.09357837290590473, 1.0174935656024808, 0.5245395767110445, -0.3109008975401178, 0.04652019436788679, 0.11940604093667857, -0.44740788344008847, 0.24417891359021562, -0.14095127894765028, -0.6296046484977542, 0.2475592267860806, 0.6018486126595108, 0.41991637936317233, 0.035938570591903723, 0.8084268680191513, 0.5849546133117438, -0.2740998028216155, 0.09429859264103739, -0.2549109832513639, -0.7348932894964973, 0.4178046182122787, -0.11274931739006898, 0.22993933268007563, 0.08129040573181792, 0.4206418153693971, -0.015503008994189708, 0.13020907064044043, 0.3368938371305592, 0.5010329144062791, -0.18002699161101454, -0.3152041996919005, 0.20198832858893093, 0.40595331721746214, 0.275016175268172, -0.1719968616098851, -0.24942580082059065, 0.0195348378960079, -0.38814844215256655, 0.09180306499123887, -0.4792429409595094, 0.36086866105030285, 0.22390471583348054, 0.10683746903163328, 0.14501996841915132, -0.2723580631361291, -0.06488191007209192, -0.048306854509389256, -0.03876779767182942, 0.17708578504137165, -0.035394055660428164, -0.13345899988409213, -0.1102173406882388, 0.059902427160287874, 0.3906119743481289, 0.5921846937328983, -0.8824672160797666, -0.07218921384977613, 0.05688193141194618, -0.3525697563362148, 0.04538565847746011, -0.3761054852220595, 0.0398127662310132, -0.34381006937116937, 0.45001092712816293, 0.015584974380036422, -0.20404727874308576, 0.25338558554918594, 0.19070553608039964, 0.039909240723948795, -0.2055893317910567, 0.0427984532106678, 0.2608908118395269, 0.44602874448201446, 0.5862215871839945, -0.019456307103242525, -0.5319882049923288, -0.14197031020181228, 0.15405059427042825, 0.09878468028170796, -0.9275645710993085, 0.34792673536334917, 0.42903650510238145, 0.17446359005952544, -0.1925788220138543, -0.07250246362065682, 0.508429926507132, 0.5311200082040463, 0.5422548276555529, -0.2452372575374478, 0.6509522275654133, -0.5378324450901611, 0.05784006796953377, 0.046639921915563085, -0.010812666972250265, 0.662906964112768, 0.4057367180640078, 0.10193750927414741, 0.12529366180632517, -0.17281013062342204, -0.05934925310570326, 0.021110184036777405, 0.15393644319289027, -0.6899105009648384, 0.3630737376026593, 0.2585151065434813, -0.09537806058682058, -0.25150442454482475, 0.37230372256141847, 0.7012140644103173, -0.36277029665428445, 0.510686290980033, 0.18531530999612417, 0.17610347955116762, -0.3354671041614746, 0.25840977284053734, -0.016408143940629578, 0.12910659163335153, -0.19344045984119104, 0.019312446574219273, -0.03602306148089416, -0.2560719932988839, -0.07318625670478926, 0.0757502236941245, 0.07860617498361619, 0.20522767170023806, -0.28577325507748125, 0.007290015157762908, -0.1044549305506879, -0.3995507380782666, -0.13177364399166963, -0.07006619280898743, 0.4363694228973225, 0.45704855229163766, 0.039375130494639636, -0.07398590575540909, 0.6600525068508484, 0.020756179296019354, -0.09256888079280455, 0.3587028054592139, 0.046033866769758146, 0.26748352485545535, -0.8476267590450037, -0.37669867573093085, -0.20633277648582246, -0.1769607047302052, -0.042603464862947624, -0.4914393087580439, -0.35013430376840926, -0.4292649115730279, 0.07360698100561013, 0.29602683597982615, -0.7776225185439027, -0.2663775177207244, 0.4069920199497452, 0.17881532800542785, 0.26854173220380806, -0.7743080870704563, 0.24793952129015392, -0.3374546860362332, -0.15942966001299289, -0.6362286855293033, 0.1668273708526664, 0.6602082856804694, -0.1219240373573693, -0.07010148979588549, 0.004300302729042887, 0.592138329289125, -0.3181992177786529, 0.748719646025688, 0.37692051588751857, -0.6713729894008078, 0.2728855128186412, 0.18908364408452993, 0.08183463553870357, -0.09721217011410488, 0.4732147774485967, -0.07321923130875978, 0.2503641848765567, -0.3506410657614721, 0.0008783431451158491, -0.08073499866347428, -0.27576236106447954, 0.1891831756559102, -0.2960885985364555, -0.520476555629548, -0.20451829709996372, -0.5349168268575412, -0.3606909187707055, 0.013061205708263704, -0.16223859034676236, -0.3551673270311916], [-0.09185552100770619, 0.16521511096306776, -0.09442205795759842, 0.2705712375152528, -0.022545027886119413, -0.0342054151656356, 0.18240502267238062, 0.3968109795508592, -0.07721918305903969, -0.024369102742332085, 0.20043748390585225, 0.00952186577583883, -0.20786231375601727, 0.25419005482243917, 0.03284326734052222, -0.010736329919279435, 0.29978313714158517, -0.036661010926906996, 0.3903487306210654, 0.01217054045853904, -0.170547471147039, -0.22308670179328802, 0.3185544424439634, 0.41084007216919016, 0.0919509058190658, 0.3883220062274372, -0.1896646379175504, -0.059526793381753, -0.7612435125565852, 0.5293919234009853, 0.4973927646760074, -0.16282806727496535, 0.4538391354970653, -0.23550669712474792, 0.3489885438755558, -0.5340846737014561, -0.009131194963841106, -0.5944521258967784, 0.5815789145729566, 0.27198718516264364, -0.013195171484136525, 0.2165077748476814, -0.425060349462857, 0.13553708038916892, 0.04735786492056471, -0.16806107951804974, -0.0009806466967029134, -1.0670914299610363, 0.3021149441105395, -0.09821724639796885, 0.26214124154176327, -0.15925756166812882, 0.07877447057891084, 0.1659986621533294, 0.41470203402858125, 0.5817272100529844, -0.2331612092670714, -0.32112773852407495, 0.11972497894296512, -0.08573620276891303, -0.41028269037629594, -0.4287565682004515, 0.38188884300998827, -0.09443797653424363, -0.05972340390109005, -0.4661793258837685, -0.03542820978104735, -0.29886358231223126, 0.10396767512283497, -0.25360609785919214, 0.39225175898920533, -0.1320564545657973, 0.43612380232225006, -0.11545173036032584, -0.45185051612600274, 0.0825234727196349, -0.3237640869987237, 0.02473151174992712, 0.14806750255638224, -0.0795453771634753, 0.07722683638986863, -0.0889357852127057, 0.22681569481907354, -0.019684050319599966, 0.3110899933946436, 0.07749214097494189, 0.445379883968891, 0.07341031407929363, -0.4152266608605016, -0.3218379759586798, 0.655955041147888, 0.31308176001262394, 0.10337043471436098, -0.32091248124966526, 0.14343038561288574, 0.11588798390076077, 0.42666408888050283, -0.01239514081031958, -0.1894452452770065, 0.36019287643585707, -0.028210789631400713, 0.2255489362867597, 0.19583565512247317, 0.179924391262287, 0.6415805171163208, 0.4764654458550307, 0.192184641599215, -0.4355895992903493, -0.3046439955940972, -0.21058159608319554, -0.3393416731711641, -0.5210593382572842, -0.050371720030861475, 0.12335246508202423, 0.4476977984699134, -0.07426778988288112, -0.07143758778736346, 0.49682803236459133, 0.20748894194442233, -0.17688520307274325, 0.25951623324898276, 0.3096143633871192, -0.29170838151649114, 0.11880335995653502, -0.4756024095411258, 0.3995454987694737, -0.5984339793568305, -0.13942450894749855, -0.03235260434328424, -0.33656754055511257, -0.02169618208029008, -0.687679528334394, -0.11733791225997081, 0.23073074292436666, -0.08648744331695302, 0.3006432388046734, -0.08178835099259772, -0.1304864436579276, -0.1640565792398528, -0.019269840983185727, 0.12050661855592112, 0.22019811595271138, 0.6512564566445297, 0.2725290577722524, -0.08952897860067668, 0.11856264289878816, -0.19206685770518328, 0.4319680166045571, -0.10346127223525092, 0.12024622573485622, 0.5073465532250516, -0.43445742365728457, 0.4414474098929269, 0.22089015058140676, 0.2038772473165451, -0.34024416255240914, 0.23762255463496892, 0.14453226886675544, -0.36016806078579716, -0.17579176998389429, -0.4139094766047646, 0.44662460256532055, 0.20724879587903045, 0.21331243959422028, -0.5454121313087664, 0.5429037428483512, -0.7850288234591057, -0.2825019346861835, -0.5668876778295341, -0.7378302153015549, -0.33595527350890525, -0.3765241455705599, 0.10260852325451625, 0.1972197286434532, 0.18399521659822185, -0.0428735040302826, 0.6203642163237244, -0.024077946373373366, 0.09677192868512725, -0.4150753712331575, 0.02364148566972139, -0.0028874535280996485, 0.36792627720610527, 0.023261475411854044, -0.07423931014836573, 0.26466199429674014, 0.6582236052593241, 0.13496800455300692, 0.04437572337860528, 0.0295609364941458, -0.30002591845554594, -0.38311392315073795, -0.14930207591288833, -0.6475055163516701, 0.0594838341934671, 0.2435931949209317, -0.005604505951161122, 0.038024606565706394, -0.13824536846226762, -0.13737380989599848], [0.28338392784617084, -0.19388793382128516, -0.22182192627623604, 0.4539097386187551, 0.23791532298938817, -0.09111618232134552, 0.029110615585331928, 0.5429521778979391, 0.04309947462473877, -0.11250584864716463, 0.5732467687266776, 0.3103897029088076, -0.21176664785939067, -0.11043974991963752, -0.03732645625383481, -0.046192989990600196, 0.23150724964561276, -0.039882483644813775, -0.15754521018860565, -0.40499460310398394, 0.05177722660335607, 0.035483144580502786, -0.006320515380605434, -0.16855020971686055, 0.07476292858467234, -0.013949429331769053, 0.0431566962426252, 0.054283665225866334, -0.4948045835068669, 0.5996603870128737, 0.1477242941467669, 0.1112413762040396, 0.0768194533487789, 0.6737956811462468, 0.12138560169939773, -0.37135460816725946, 0.08275919663602622, -0.1374126588791461, -0.2551078013687327, 0.09714174208598196, 0.2775735049988246, 0.170367923708812, -0.07344892692665407, 0.11956957256053824, -0.07236377959383805, 0.43980232067648817, -0.06838711826031736, -0.3241277045015584, 0.20603467088683175, -0.15114042882451967, -0.2808426260871408, 0.09264503467036272, 0.08982166792773105, 0.02634677589768104, 0.10628429460043524, 0.5902677948802301, 0.29189241455187875, -0.0242471233380925, 0.19029002898106515, 0.19394178602625098, -0.07608715390536333, 0.14922730757232275, 0.11070282860809415, 0.038442497276287194, 0.07543845013934214, -0.06722340656128346, 0.020127637537894427, 0.03587656147600668, -0.005359609950919871, 0.08683007987188854, 0.26080670332969064, -0.03687858421332192, 0.3123989439393879, -0.1172695052142898, -0.5162367843047861, -0.05034429812739335, -0.3633079540931019, 0.06649996390149554, -0.06281308429940372, -0.38968305478948195, -0.24357729660089286, 0.10831325876620317, -0.26662886386467266, -0.05859689930296921, 0.005369294898508373, -0.03925667364278494, -0.013358217941508805, 0.2516434393473333, -0.06875878574630408, -0.05169618977997153, 0.3036610697978931, 0.16859985516946133, -0.41641099647299296, 0.2706569134968027, 0.13994255984607046, -0.21697163726796453, 0.0643768650819135, -0.0338413467589643, -0.07403533019716742, -0.8762212836509793, -0.1772610277992825, 0.04968918105957826, -0.11243500836291304, -0.06879704320377346, -0.2718958468236564, 0.7561436145205306, -0.1030444556874687, 0.48466386597044453, -0.08267800691530766, 0.15556955088733165, -0.22075900092319442, -0.06074847567344207, -0.09813184733337577, 0.35855314248177816, 0.19846815059219347, -0.06906300400949017, -0.4419018812366134, 0.07333924128449631, 0.05146652209844672, 0.1770287228345262, -0.2640055291394819, -0.022856965478950945, -0.3930642036627221, -0.5467397448082768, 0.07766599983306785, 0.14102172032564564, 0.13093156733638117, 0.17879309704613694, -0.042543052393071996, 0.6364298503082652, -0.02559934736152681, -0.022867560378362118, 0.2970771384177826, 0.24709099754847746, 0.6580590145372438, 0.3149907871499869, 0.3191797194317283, 0.3044716068244839, -0.23474485144661647, -0.1262135035760842, 0.6524610559362243, 0.31665160367274625, -0.12390170913950532, 0.17755929795521214, -0.27285709675211717, 0.276276575382197, 0.3273070661183572, 0.261701279359114, -0.03743824275926477, 0.3315997404386737, -0.09285905427978183, 0.2903887496166902, -0.4964769887993117, -0.034870990119110795, 0.1271286890665085, 0.07897385327085149, 0.07987350297645154, 0.0785468432347008, -0.5134385652839705, 0.2707537895519556, -0.43821720586140595, -0.3009697156828831, -0.028430055633320652, 0.015912606351450167, 0.3875197443511693, -0.2909153675457717, 0.34630209989949784, 0.07919204966014662, 0.004208496054096704, 0.09090844212924447, -0.22284926276440092, -0.030778891175932827, -0.06039632880917389, 0.3080452036923183, 0.197842986953985, -0.18883897186418624, 0.42005593527775104, -0.12338896674409724, -0.27927323549987176, 0.2228470333967785, -0.20815896982935314, -0.30567264323992077, -0.0851348494370375, -0.23693308840191055, -0.2478407845477759, -0.0272774838506971, 0.11159040455278739, 0.13403255054138888, 0.21095280747838982, 0.4540680380204339, -0.27943803817023294, -0.022830971494906586, -0.3215641454266842, -0.21160153871111803, 0.00308778760338554, -0.17124462957784645, -0.4474261495949787, -0.2436449885233477, 0.29781731226097585, -0.19631483697540006], [0.18057744743488163, -0.005336913298860492, 0.24311766030256216, 0.2052867067900429, -0.2286256598768293, 0.14313980851184505, -0.33293923461053604, -0.020255963751902074, 0.6764825063199112, -0.0041647055935308645, 0.4868503370542782, -0.641604557114528, -0.04349382463802061, -0.06301479408442476, 0.3816554298380847, 0.8469232758758128, 0.5484535711740809, 0.20547382644241372, 0.1900988856425504, 0.40269424713414637, 0.05034667753055505, 0.26694303744456815, -0.34063643760466594, 0.22512888454499225, 0.09600847138489062, 0.19803145404410108, -0.06989145612475836, 0.02288355202261379, -0.24972668804914047, 0.4913583725299679, 0.08460662698244059, -0.15069343718676928, 0.45383512595455683, -0.4725274521305327, -0.6182279346450013, -0.5198204636354077, -0.2509220007096059, 0.09501377286443125, 0.47665162716867143, 0.3871722922676614, 0.23619318587002192, 0.22491445072157462, -0.0610437573612029, 0.4957653276942651, -0.0052598440309133175, -0.09260932737345284, -0.0554793367009083, -0.5032884274629108, -0.7680843342590785, -0.12417522715812145, -0.309997654947002, -0.015455629719778145, -0.018975274217822132, -0.003154035617851646, -0.025332748879987148, 0.1233191459667046, -0.31263154683536865, -0.5326694823439495, -0.32372687004925715, 0.1743393206149183, 0.22804977068020982, -0.21559316498727762, 1.034083367115968, 0.3695422461018861, -0.019444240886012532, 0.004530536056892572, -0.42021051580066027, 0.14601475787781829, -0.09090875127625445, -0.5451986846698946, 0.23492598161229283, -0.4037839121092763, -0.40979950883885535, 0.09145084607564949, -0.4323572262070646, -0.017013796521202662, -0.7578197525876634, -0.22872394883279906, -0.2382520739550835, 0.7661578004997118, -0.8021172387877897, -0.33683970908682925, -0.09165797761583286, 0.10366725247809618, -0.3842375654570467, 0.5225667313256629, -0.4917725203263268, -0.4702360618916605, -0.3938124854365971, 0.3682734478984626, 0.26776862032885407, 0.8477378952152972, -0.4864156599824584, -0.4655976555143077, 0.5347864050356491, -0.020313725941308234, -0.03498450961386659, -0.1732617796885459, 0.31963564518987747, -0.05231186476656866, -0.0442794124911184, -0.43987497894273486, -0.0916798097355292, 0.41053376671175296, -0.0002353618308231707, 0.0026547657852864517, 0.40167170651678574, 0.35767532252215467, 0.07658526470970425, 0.020156488691885906, -0.44808825941263425, 0.33752500173320293, -0.31960878670519877, 0.426366776921337, -0.0368246631096407, -0.15090839903605321, 0.35010464158426424, -0.42299959558754396, -0.19560301733345534, 0.09513109244066116, -0.08479783161128784, 0.07672150660397312, 0.48007090536460617, -0.11795159626216911, -0.7690200957681577, 0.5060582685370911, 0.2858009640502655, 0.0762182985832847, -0.19973418587440592, 0.44386681811195244, -0.2214011818694432, -0.48936856934249356, -0.346248981458132, -0.17885242051803582, 0.32090990530006924, -0.19996187340682461, -0.43028197990697875, -0.15474734213762342, -0.2710963567199197, -0.01499976188434879, 0.15583957181156313, 0.12357319214416096, 0.4682387079613887, -0.10103445910809274, -0.45984078335956863, 0.3535300391714328, -0.16716449172451706, 0.007630424174602424, 0.7477171092544869, 0.6501162123488909, -0.13712738175053524, -0.33867911431082215, -0.18565516508710148, -0.51131000075391, -0.23538477023238602, 0.23177620664148424, 0.01070036797169927, -0.3728864949189315, -0.07902444140204, 0.04056574698308461, -0.21477747054447252, 0.03795418769027567, -0.3177076871203277, -0.48690213262481546, 0.7024304163719308, 0.11871880427204805, -0.863368037576271, -0.0977958349012626, 0.3326093100642124, -0.030186833863876474, 0.10275288886314832, 0.21779949959490827, 0.19457795343977685, 0.34984830965111413, 0.30589557728254746, 0.15260217782438956, -0.2644525678876633, 0.34258073726985766, -0.33505495902000515, -0.6511828198709196, 0.12622319222181924, 0.3368968098160394, 0.12438940495200566, -0.02042695957199652, -0.6626369191017588, 0.03878301081595201, 0.0589758130486527, 0.12118420998958214, 0.31648736824370316, -0.2768612165236891, 0.40628178032229745, 0.10785887080309683, 0.10475154467134026, -0.5281477985425661, 0.039734299554000124, -0.0931052467267991, 0.5870825520369667, 0.6317798024952501, 0.14428477636887965, 0.06602760712818051], [-0.21988092364193526, 0.16034028530864264, 0.40942446440842434, 0.10944402346865358, -0.02868881607721887, -0.14672601458052187, 0.20386035572854042, -0.39134710254313315, 0.19678005334755394, -0.3625111914624102, 0.30857757651028633, -0.4832045523490966, 0.3400001813289456, -0.10180588984289221, -0.1407323007182208, -0.07291496438786628, 0.5017629349359894, 0.25126073737956234, 0.6371341351169361, -0.2369971163781775, 0.027971549284350732, 0.153256009880856, -0.16763336940534074, 0.0475595923701051, 0.09895667369980998, 0.4081052362447768, -0.28060236509283004, 0.07242040061308856, -0.35509894349068294, 0.03762755704828178, 0.28605915990533837, -0.3461498513050222, 1.426405987730693, -0.5260578810830676, -0.08803194188797107, -1.1252599536454957, -0.3608966763885796, 0.7332985015051683, -0.46348655469868777, 0.09416588022392991, 0.4479633022516522, 0.7778706267539657, -0.25403289086409697, 0.368131071357179, 0.47054143832773576, 0.5260021061183677, 0.02509752968374672, -0.4977402749226303, -0.05030776455924709, -0.17825975595831264, -0.7006246852449712, -0.4324718765579625, 0.33327966093585265, -0.5090416445882079, -0.34607619969793285, 0.8358340887067434, 0.26321865337866684, 0.3042154527833544, 0.015712614057046284, -0.16357427033857483, 0.25031114235555957, 0.026820262144733407, -0.23697745854080066, -0.5340507257380808, -0.20030439624840518, 0.036898798438768435, -0.13320771100565953, 0.19701052677399647, -0.559824796155747, -0.15199095078856686, 0.16862026646032524, -0.043369242007368115, 0.022739217468467222, -0.3966685051163155, -0.4435665479072204, -0.1250400152654, -0.2953074088250982, -0.30341942746994616, -0.10320482589910299, 0.540140831988598, -0.08927359151643559, -0.19061124718480124, 0.35139524342212075, 0.1687589456192855, -0.9611479276853442, 0.16179943849742726, -0.17435857645814357, 0.20326235005750054, -0.088376602755341, -0.39548143637307914, 0.2367457959647436, -0.0016247164212580077, -0.7594548325460688, 0.04284614928109122, -0.6956551737562401, -0.2938281140826261, 0.09303611337061263, -0.18329342330980697, -0.09982862875409419, 0.2118771268952623, -0.1695908550443893, -0.34356120733346207, -0.15780697051317175, -0.2314218484926422, -0.057462143010437707, 0.29380810649216776, -0.034623996383077935, 0.02595537569520591, -0.09499299043986656, -0.05937004620318935, 0.28637192416427726, -0.06384636560596212, -0.2937662357363974, 1.2811823888959377, -0.05870527450618417, -0.10012620473730646, -0.11940782676882673, -0.09696601373544296, 0.0811303878799061, 0.5410579888214994, -0.4686502560856003, -0.18853046636232462, 0.19552615174537216, -0.12582717285921602, -0.16321356394118866, 0.3591798674570123, 0.514844414702913, 0.17682818911396533, -0.005009912382452509, -0.29544855668467196, -0.44922184184842706, 0.030267326898772137, 0.24969463279851256, -0.2563171799741933, 0.12896111311047817, 0.13954281139082778, -0.24315880272898455, -0.3617407902318591, 0.08758737739988919, -0.12238191636523517, 0.41244554975988085, -0.02422844247603054, 0.15570309262032836, -0.09647348492512862, 0.38652729407267217, 0.15796514499072903, -0.4466240039902792, 0.18190421530556525, -0.17166040916345685, -0.2767230944890279, -0.2037145481623084, -0.30749406493423675, -0.3164548983700817, 0.0877440526272873, 0.5018224079671988, -0.11965217512240059, -0.3732945116031126, 0.013544445526616232, -0.6406048605635887, 1.4102843812727026, 0.06589456304450066, 0.06580659065078584, 0.30418225861401776, 0.6146137478750187, 0.23167295118604866, -0.2195878800479184, -0.6728837888687837, 0.1769217198572394, 0.236748824978817, -0.9198733487885266, 0.007197339316574076, -0.20774652780233732, -0.42748354879929185, 0.11860250592617566, -0.2537363173239044, 0.19443680302883673, -0.01452621583276236, -0.17695397694243467, -0.07881795748694108, 0.15388322141588287, -0.032331053425465966, -0.17380840115485383, 0.10457657819723216, -0.1141486379100838, -0.569638192093207, 0.4203054801782209, -0.1998628554324243, 0.3565314880339105, 0.07618969224048044, 0.1920570723111268, 0.21678150703187574, -0.284291857591154, -0.2361344900664155, -0.04189458160603607, -0.2369431126651172, 0.12401111516176351, -0.2843224746141305, 0.1348779378230143, 0.4362743963772806, 0.3219007283006247], [-0.05468532256341854, -0.30775897608250635, 0.2260949884959378, 0.22810539384151737, 0.12978164526214733, 0.18504494961192586, -0.06494513758556805, -0.1603689866594787, 0.11263551443115064, -0.15321084985705247, -0.09940549686831693, 0.2789510614098848, -0.058266454814880846, 0.04438977243721771, 0.28044699886528585, -0.21041830619861085, 0.07001152867312203, 0.6653322829948983, -0.5234473800613739, -0.18135222773264034, 0.10353334148530972, -0.04399315222005493, 0.4696051222136398, -0.09544152639250676, -0.08271137792373845, 0.1402615422791495, -0.0972715689664288, -0.294290258703883, -0.07900463703298088, -0.0307466140599149, 0.009298191982734556, -0.18098629851578749, -0.18876134158368227, -0.6401126834784685, -0.011554642240029101, 0.3723564924089709, -0.5464867061181224, -0.42589741213051485, -0.15298215962180667, -0.21114923138730132, -0.06844092866941547, -0.2879917858378811, 0.28513685835451014, -0.06598598517432452, -0.009135202023451347, -0.16810762902609658, -0.01668137969126903, -0.23511849458865644, 0.705631106440347, 0.04158475991625491, -0.1368288498148564, 0.09839891020718282, 0.029426775256308768, -0.010384573868253649, 0.11793169009838919, -0.08287901540102476, -0.2827215634112068, 0.149613282587526, -0.13964205147701286, -0.010765506784956452, 0.17379879462254375, 0.050078501217696365, -1.0112941449719905, 0.06557457638464005, 0.39534995137356377, 0.04398459317916659, 0.08021730710068115, 0.3647945538900118, 0.5315434114675468, 0.004202777128863635, -0.479715418946207, -0.48746746202135344, 0.22272071180226816, -0.10146813276211528, 0.1321827747652368, -0.3550784093961189, 0.23958852391528318, -0.2509770328520192, 0.0662214796608681, -0.008890130354282192, 0.1410397449180845, -0.029825714758240644, -0.19043898234176945, 0.6597439889203571, 0.09383917308494746, 0.27876304685933667, 0.5573281632373154, 0.09922447594013459, 0.09505515709020097, -0.6655297150831543, -0.05359525904540139, 0.05657676336739382, -0.09258622175504244, 0.4969917237944462, 0.2681264851283519, -0.14666374776566263, -0.06125808434184039, 0.10215794858034949, -0.1907038985186509, 0.24979107413237384, -0.26155401303673426, 0.2966302615919931, -0.25522228021440163, -0.06845978221291942, -0.5666930846902672, -0.40073331180577326, 0.09052690680941332, 0.32200205392064973, 0.20354338543000838, -0.49606859850292234, 0.04977571948329062, -0.06850610850093032, 0.20086215189203543, 0.09310614118860598, -0.2165382647810442, -0.32890078831597136, 0.005721136929035994, -0.36189126195594157, -0.2680609056420179, -0.2236720143249446, -0.439357498453701, 0.16326181833914155, 0.20736612308125602, 0.04222318230378379, 0.49107342337532695, 0.24675491104500935, 0.4269533687266464, 0.28397227559900456, -0.3406471550927156, -0.5051371619875479, 0.02883017881947905, -0.11282740232601723, 0.3678368668312905, -0.3614643389693193, -0.2948853673265802, 0.0036780805659051407, -0.027410963464696993, 0.2123501296963541, 0.1735821239290568, -0.008892123993836801, 0.3165271803373127, -0.12417519068431283, 0.18136462796011704, -0.015709123832054, 0.2575004650152248, 0.4983364579028932, -0.22995894705991574, 0.25789794055168663, -0.007751129942709329, -0.12056787121794767, 0.12612836435077965, 0.2544887452067608, 0.09727228630161924, 0.11150984834943217, -0.682360773811513, -0.15872180751619097, -0.03805250244300624, -0.07923716712010953, -0.28951260391378, -0.20120346287424154, -0.38849881655460256, 0.04545133399096932, 0.1318430393661742, -0.19649809532337129, -0.5153931484246237, 0.05591939376039759, 0.14900178383863202, 0.45749081495101485, -0.20655980459613754, -0.242889715000116, -0.2316458389464079, -0.31477316113259635, -0.3158746346169951, -0.16774338070174963, 0.35757243736583816, -0.20286441721021212, -0.2178152036653393, 0.1170118680908321, 0.3058584198973116, 0.22834797003806165, 0.34961413125231733, -0.10205108012274587, -0.14040115799746442, -0.10623713206216712, -0.4429959635385287, 0.12058670344420579, -0.05319473667449644, -0.16059947230952193, 0.64078891693705, 0.05275694940429546, 0.2420688035105014, 0.4166783597843098, 0.18122054049183925, -0.12799208812659138, 0.02141350365576309, -0.379619891916091, 0.1454972081029584, -0.2548367353781648, 0.632130933670534, -0.7389334647252878], [0.14567719246348504, 0.20028608295054803, -0.7997081346063978, 0.2355637425509644, -0.22258696723568294, -0.2281261354320966, 0.2189291604040811, 0.5237086612319376, -0.08386779478087934, 0.5822645026288019, -0.04544116104519719, 0.23919827909280006, -0.5401621466642971, 0.21865638154096936, 0.3804938144257599, -0.3098609760485467, 0.05705051314739759, 0.02825391915429605, -0.22982493501855722, -0.03049773692100522, 0.09797967945805366, -0.16453194753627087, 0.5196350873005906, -0.01846005275373053, -0.008090979238651331, -0.47152002448743324, -0.22635848399491315, 0.2858538090958958, -0.8235448639400751, 0.3290090817946318, 0.014515515545886403, 0.10611490323764422, -0.010446781130542404, 0.47925423314593546, 0.07747069131724944, -0.3317821202938414, -0.5140473215402964, 0.029906185829345077, -0.23282403221420664, 0.25105031162606956, 0.3993962424877739, 0.06259220301042208, 0.1683578429736184, -0.0673059388896309, -0.39656165192192616, -0.06697581463015298, -0.06097095427341629, -0.03867479650800598, -0.07409662556776297, -0.12440481732666532, -0.10230020497390795, 0.8452156255245405, 0.6680225440987794, 0.2573558001978166, 0.20557248846174317, 0.3405895283139414, -0.48247769970930193, 0.045710351540036324, -0.6202446143410079, 0.16461848800177709, 0.06121160883763632, 0.5023661997456363, 0.28227336268790904, 0.5074775992403393, 0.1537424521697064, 0.340788674211405, -0.07041460849379647, 0.5075238620972417, -0.5333485526026753, 0.25609671789404853, -0.45888843857094824, -0.2744974827416817, 0.22169220128412434, -0.4455728836293983, 0.469845567040857, 0.1386033596237725, -0.33898328341229056, -0.18843978001145323, -0.11881189905172754, 0.03937003000237834, 0.1802172742516279, -0.17459449763569856, 0.15551388798445503, 0.7080193532015051, -0.6338421842672624, -0.28523300531634166, 0.3475458917962652, 0.10393219176873579, 0.00013569289277864856, 0.03634017006149924, -0.012033644586831637, 0.039863670713564815, 0.28100762321937456, 0.5667960645956229, -0.210155590298668, 0.23739222822929598, -0.38131997395141115, -0.11795871899830705, 0.3350019596865987, 0.12845950655165694, -0.18334304220933081, -0.29477591574137957, 0.3263116643636118, 0.10838491446719935, -0.1746426313029119, -0.2952433197681868, 0.01351340579317329, -0.24124451321989915, -0.04286522173070111, 0.12117284320525093, 0.18467849346426635, -0.5171483898463587, 0.3259633858362288, 0.16402883539842025, 0.2755217500453579, -0.3309823085216606, -0.029086105854861054, -0.4674320393332826, 0.11567585756569829, 0.4805404707724457, -0.12554848105363753, 0.6021427719659447, -0.0857742411244338, 0.5427152671037508, -0.0141508639345307, -0.17513387782646728, 0.222651923907436, -0.26367962450231025, -0.03916652428922301, 0.01572296878393905, -0.532776185589255, -0.1923367624203081, -0.8186060854535525, -0.3032070593797906, -0.03366457296671011, -0.23209866556983297, 0.004141274742103058, -0.20935663629145404, 0.015748251538185046, 0.6135699065923094, -0.29522304532039173, 0.7546810544106891, 0.590573046197679, 0.22531658213085307, -0.06785407406293284, 0.2510309681734973, 0.09988984305090857, 0.32471533606274333, 0.06459431448370162, 0.03353464305996494, -0.7521848870187766, -0.3260671180914307, 0.598611079139953, 0.14506497594194231, -0.2886328018075013, 0.41173093342760714, 0.07617956753826326, -0.30613949513678074, -0.5053188330881825, 0.6286951047084086, -0.2487532339382216, -0.10724845313543174, -0.16529553157445334, -0.25267001678684575, -0.2333918272469045, -0.19403927963875456, 0.7933833547479018, -0.4537963904455202, -0.3169593144999094, -0.023585386204498106, -0.5421858944711097, 0.569927527934476, -0.22679850601737236, 0.6572517462498287, 0.33221194865727366, 0.10800552247402895, -0.39246602840335254, 0.44012582283388957, 0.28904079597383253, -0.24449344917711302, 0.21031375642384215, 0.4672982029503894, 0.05952248915150735, 0.208483014154968, -0.4455945439570187, -0.21969866135672572, -0.31557995668499206, -0.12015828958396241, 0.5862687690192295, 0.027015937099876874, -0.3058550596836671, -0.165662393473375, 0.2358639892623997, 0.17560775024438693, -0.2923600596293605, -0.030481548461171216, -0.0818673122183336, 0.04533163257212822, 0.0025700825646304843, 0.27089472287231187], [0.11789517532524725, -0.1387795310802342, 0.027538435351747277, 0.1029432371053556, 0.2800419247455925, -0.18107564685263183, -0.05169075634702966, -0.22355754782956105, 0.3305224157307817, -0.04541007515036245, 0.4849299524774594, 0.19307065399342568, 0.03119698612068049, 0.20804328635070443, 0.3438536570583514, 0.4197504910046101, 0.3994202681154132, -0.12677538073813177, -0.606264743755092, 0.8007298401323264, 0.06928866722322367, 0.05779070405973219, 0.4651844362296237, -0.42960102171822034, 0.2508378844268507, -0.11013055995623668, -0.1703115381744486, 0.708360103728898, -0.08063973704155533, 0.15179098230420612, 0.3956101671935994, -0.08845055407101278, -0.006322915976920698, -1.0223632743363782, -0.006505345824842595, 0.06309128562016586, -0.33527211753348557, -0.05191193710644083, -0.45553601581333086, -0.05138735839187919, 0.19934170804605073, -0.13669572419491577, 0.26817555416882666, 0.21089665534776342, -0.2472963697103367, -0.5836891245677784, -0.22905049278985165, -0.13546347522339638, -0.3061248987805222, 0.07980174700939209, 0.02616039454165599, 0.1628060029791614, -0.22042868518338474, 0.06497342287510605, -0.16649507257925272, 0.07413547605157507, -0.4518740132051235, -0.551733402679175, -0.22171487671292717, 0.039870232994847835, 0.29329104032459563, 0.28270489422140854, 0.016340115266337944, 0.7222936857979645, 0.49013089562405704, 0.08351949000150205, 0.1605188092225206, 0.7960241858234024, 0.3422911514447201, 0.11468384984680774, -0.06113953902589428, -0.0736097440831058, 0.06072159821570687, 0.19785399775852308, 0.08054397825894032, 0.4527765372623854, 0.17245410069676564, 0.040770740779672805, -0.1465288021734672, -0.4238286727127881, -0.24251958557834533, -0.021044415549228097, -0.05295724190369886, 0.5374325031789438, -0.18730477494766584, -0.1011205199157174, 0.4766768504838279, -0.04309861086935402, -0.23200312794717967, -0.22587212882898994, 0.07291303300310477, -0.9084130920662923, -0.07921206536242038, 0.10692584357862879, -0.06347503974423795, -0.143874675278283, -0.7019384780885395, -0.09313004991352007, 0.0245551897727294, -0.2109977460302849, -0.20276634816415923, -0.2697595784548994, 0.6868676879177557, 0.0335760096189512, 0.18901478089333604, -0.24638994573221074, -0.11395559951528493, 0.24162571026621182, -0.015401943854490178, 0.02825631666926196, -0.1042536974781942, -0.5077244656163747, -0.20933808061983714, 0.08516166624003497, -0.2953140310096898, -0.2768302985871598, 0.11303082643329238, -0.01640422933712849, 0.5535030988541612, -0.1199092406316352, -0.12723682364454714, -0.5921736209647361, -0.7130953220991046, 0.06490411309825961, 0.5499652169821285, -0.6708991110938073, -0.1396477159589495, -0.4356160058624314, 0.556447670746478, -0.4133316265726305, 0.22143409514358534, -0.01739331187679056, 0.21722659457207863, -0.2837578585295249, -0.7667251954744513, -0.27219021021851403, -0.4526491255518226, -0.07187941514880726, 0.3905971171996984, 0.19201993659940755, -0.4772127081600933, 0.5596580876330723, -0.23594000901115833, -0.07513884395821416, 0.035008398295955194, 0.47417405500927445, -0.5527069230149122, 0.19069290792071233, 0.4389268787164674, 0.610960852926801, 0.23511440813305917, 0.12311024061485, 0.23737012191554147, -0.028443562822821667, 0.20177617320998759, -0.36501707496631863, -0.07212729040150545, -0.2922224272431613, -0.0720445143088487, -0.46677962966853, -0.22540846074617935, 0.08139931159462684, -0.014658827104649538, -0.06313625826330237, -0.059676940112763185, 0.4940468704212537, 0.05005794711497427, 0.20882462603109395, 0.42415307699240107, 0.4352727109858578, 0.12857921281964452, -0.26822465526457817, -0.33677899001577777, -0.2521509718931055, 0.6030199087454117, 0.21930029124913686, 0.09868561522282078, 0.026015768802081576, -0.2493416484611241, -0.0792235454306053, -0.43807898781973875, -0.3978470778363262, -0.13430666204767466, -0.06572705130888942, -0.05310100542147541, -0.19034680936906737, -0.3995058185381752, 0.3194598638547244, 0.27930570481917877, 0.20217092448951504, -0.49098848971782355, -0.3335135896263321, 0.14877075890733332, -0.459372911693666, 0.014171527027028811, 0.1701250561363455, 0.8517617817185679, 0.09438292931223553, -0.24845795165948067, -0.13556040180363504], [0.21361930515120345, 0.027172870313022863, 0.39608154899506026, -0.24532668191486906, 0.3056976796131995, -0.001178477214043368, 0.7417273520942497, 0.966047354333006, 0.4283033049414714, -0.2749064711791219, 0.30869382169030996, 0.2923930979563607, -0.7293251409215895, -0.05244129624202253, 0.9840676873391014, 0.027797979342796847, -0.24080417292120665, -0.15991704844709864, 0.11755525960501884, 0.25901049217665667, -0.043749482022857084, 0.063713966857276, 0.2164372490261488, -0.5213732878764793, 0.06760821538988201, 0.12685176391423394, -0.6768312922372534, -0.006601422265551769, -0.5493038518866522, 0.0670828120687742, -0.2592178921741724, 0.11523637047019474, -0.07554458766209804, -0.0975182156884358, -0.21838854095371935, 0.45182602098718777, -0.42569052168461846, 0.0012245809183418354, 0.34463105668543165, 0.11771620357168028, 0.1327894327764339, -0.041936545581768105, -0.03988094889114262, 0.0990859390476025, -0.6190460153566005, -0.3377666877924198, 0.11321611631003639, -0.766351310340248, 0.03983608383359947, -0.06739956712223526, -0.030641476275428303, 0.14443691625276003, -0.20083853911568444, 0.20347093842009054, -0.04625269302757836, -0.6491512364746312, 0.6620636946375204, 0.09253665212290889, 0.8609818160622575, 0.01007042111350528, 0.5300649839663629, 0.30811635611052657, 0.19718685095091693, 0.16645684081946044, 0.06243030307692169, 0.3242617677683368, 0.36820681902881686, 0.17381901236676764, -0.1409266468838031, -0.1892274649592704, -0.5675629517046448, -0.7111233901397606, 0.1206967797136339, -0.4221404897956574, -0.0004487918355464117, 0.14039426714158826, 0.49871414603709685, 0.12627364929823356, 0.25412051290007487, 0.3038995578558092, -0.05090727422614528, -0.4666186665067843, -0.23527388825094658, 0.37780971938632696, -0.3417427093983846, 0.5145769387255333, 0.4555746139713243, -0.43558659139173395, 0.49098358965437394, -0.051301906555071754, 0.00043204025329226603, 0.46338285483649505, 0.05125500140550422, -0.2917900077368553, -0.47754457610637496, -0.46116775641006125, 0.39932043043549015, -0.33469339684157845, -0.00046497253882124594, -0.0838337962539263, -0.19896400990149624, -0.5788139912583146, 0.008813103335403376, -0.5028541582526069, 0.4813895422276236, -0.061015854896925945, -0.16502791923616073, 0.06408307569040497, -0.38443053088143925, -0.5898755266709202, 0.14151541787909722, -0.3141779537296335, 0.04663689397528363, -0.15024342439318814, 0.4936509711546563, -0.03582464596168643, -0.033312777927769176, 0.18112506346224216, -0.11617404277763625, -0.1943162163440637, -0.06345146696993602, 0.44090375274101296, -0.3858611934647437, -0.43163230972896677, -0.07399445634973549, 0.3275008295659994, -0.28871689184057203, -0.22239782775492015, 0.32381650526713446, 0.21675845741598898, -0.38332759312262427, 0.16869368186787828, 0.05954371116712663, -0.08643880411859607, 0.4691712383041222, 0.5273337278852793, -0.6050398812680157, 0.2891642737438802, 0.2755572636183004, -0.09275313300352227, -0.6630933795427987, -0.01585162582719636, -0.008695537939670385, 0.3172605495689559, -0.5128328287380303, -0.5832403201787357, -0.06376053051758195, 0.22377803432884824, -0.03968241591772934, 0.770441941184418, 0.12835734883537742, -0.11316759155921981, 0.21157398243977554, -0.2519241589992034, 0.7388767295686332, -0.3081663138582985, -0.6118987937249263, -0.47226966643645274, 0.6978306606096113, 0.5188011425462107, -0.16497010191373374, -0.27329691221141167, -0.07926111192928917, 0.08831709787485002, 0.12610804356723715, 0.5421897943960132, -0.4194481873059991, -0.7083613908691839, 0.5478979586148532, -0.4493401142472181, -0.14582646519836343, 0.025044999045268954, -0.08174048716418493, 0.21200753910169587, 0.17447178479545072, 0.5212318725525963, -0.23689349513877136, -0.04737957546992826, -0.203930317297122, -0.5549389182587854, -0.06643665832510214, 0.0716865827262523, 0.009164219549952463, -0.27717931967574383, -0.18788488630560846, -0.2729582657728569, 0.25044116063306665, -0.4085501007763748, 0.16997505921540107, -0.06575497546165064, -0.35290822919094533, -0.5613090017642982, 0.382035436508563, -0.625383604479561, 0.46890038931378447, -0.4073801552635699, -0.1784278439620855, 0.18672722688929005, -0.6018510121119218, 0.02115206224208956], [-0.31587097160439326, 0.1552646358699163, 0.5476701847561, 0.41699048199185573, 0.05901602327294622, -0.2067291387834346, 0.09125111131425673, -0.07118219106869235, 0.20264401799240642, 0.05331614997931449, -0.3536496244688581, 0.7011267707177001, -0.2412301234959239, -0.38688879930985104, 0.6532462745962798, -0.12978951257658464, 0.23235336180935373, -0.23822833247355732, 0.18952622530182003, 0.21210666169821576, -0.14284448928052515, -0.41178191290098975, -0.1970780107418165, -0.8058411403338647, -0.3851508644788051, 0.32742794441102674, 0.22982921692383076, -0.12657837861870877, 0.018293306418200924, -0.11451420516000567, -0.025440485809177904, 0.34314860003843256, -0.25587169663345055, -0.49019704631147076, 0.07755555867691825, -0.07339652287099183, 0.40421874795153373, 0.5332883624357561, -0.33625886278726735, 0.21336675586567752, 0.1330220647023881, -0.5735330897031893, -0.1722823513391119, 0.2661395199680272, 0.19243918728494644, -0.31146232386065037, -0.12741345921521502, 0.3586631337936734, 0.13712141989922524, -0.3752000210392118, -0.11454903940536582, -0.23484348928722892, -0.11937281016666504, -0.050735762800771564, 0.28594607104372716, 0.27454318589893634, 0.11771094734262905, -0.27036363559886734, 0.7621277569664038, -0.02954833103322348, 0.3697093077051553, 0.08812440150467873, -0.31711202905001856, 0.3430257293999144, -0.39186437945013797, 0.11749123732516714, -0.13593681213350986, -0.11392837957315124, 0.45817293336710735, 0.22655773654200015, -0.11587796746874146, 0.341607285327015, -0.11553794783122891, 0.05667300524095225, -0.18269693037106408, -0.033242088431801674, 0.2681857997867761, 0.4433699437260556, 0.3331830014293516, -0.10467140074640173, -0.26263572587293627, 0.3915987706210879, 0.4385615796221328, -0.25969791757009336, 0.09958338764644878, 0.04598744639447283, 0.6222994248224122, 0.06109453397664465, 0.019447738464908992, 0.37639751915677794, 0.10795856938437345, 0.04398990285333814, 0.09151061287571632, 0.1300458776807423, 0.6659958903700497, -0.807187121870574, 0.3523710419646185, 0.026843247705338347, -0.19927825233967633, 0.40302386056125483, 0.5240762240296686, 0.21113603514456433, 0.001787527330994551, 0.25684770156413533, 0.5099139473919642, 0.007661608206916403, 0.39744454093716364, -0.025666620998546576, 0.15837766877200005, -0.06713848579311718, 0.5147898452605847, 0.06113300456141856, 0.101239222447179, 0.17724769905953502, -0.1601913140431992, -0.18374011598305934, 0.05076470497245087, -0.5198654411439475, -0.37014531706858494, -0.041672490963682834, -0.2623469277930564, 0.33603062708161, -0.3729558730948538, -0.23071572398776913, -0.15166694959434837, 0.27977607056518317, 0.16907639514971315, 0.38761646648434717, 0.3665041708613501, 0.13995109043424955, 0.07237654226114626, -0.21961012013103165, 0.5676480516743692, 0.11015277757090548, 0.15199336125622404, 0.29725929307568905, -0.21940648799102944, -0.4083143519299055, -0.163678615404959, 0.26741112358702745, -0.35971290699489994, -0.16375116015008984, 0.18405021207716848, 0.003583365880565944, 0.10409041390468796, 0.30185066992401044, -0.054076404583453606, 0.1895012226809245, 0.11693832901013718, 0.1618957459704948, -0.0026142630450170135, 0.07200682831795548, 0.025442571745346917, -0.06566025525930741, 0.08332645438214391, -0.47755022633282096, 0.10992070693825572, 0.3971535717410509, 0.27416244496176573, -0.6164702692757112, -0.04527694377099387, 0.3988550624511369, -0.3990290537025959, 0.3589645152090263, 0.18760791292048606, -0.2680864567245072, -0.2431103885056517, 0.37239597508519656, 0.10942948018717374, 0.3738454331988144, -0.16590668904355757, 0.11051198771852043, -0.2586024605409027, 0.013571278350139482, 0.46424047142955893, 0.05244848387443573, -0.3922598936402742, 0.28187378528853513, -0.391633804458975, 0.38657266107981164, -0.28186019683228997, -0.3537499220973344, -0.40097266059881, 0.3524356685246785, 0.3650245668683194, 0.19191340886270875, 0.13342997688450703, -0.26734717381034967, 0.30502963813506123, 0.2323815135074768, -0.8106996256052368, -0.19480097713371874, -0.09030028900151682, -0.31336877730584256, 0.33436868678778836, -0.24331730419585998, 0.08117602104922904, -0.1953691640893564, -0.256226837129599, 0.3836805597106325], [-0.4939518470016868, -0.08905124537319133, -0.05377683389829369, 0.09663790170579023, -0.01961793561628733, 0.11190146891662235, 0.5609022662146477, 0.5468484696563889, -0.4513167629547683, 0.15913178548935328, -0.09186193190388921, 0.06046578946526142, -0.1671837677662083, 0.03239451249916115, -0.2765634209022388, 0.13991096638939482, -0.23859925491797465, -0.29025830126439467, -0.2825196749011621, -0.11685359587469611, -0.22094196781312866, 0.21226754965150746, -0.24677547007137715, 0.05882159313704929, -0.33835722430494175, 0.08594432857111733, 0.4342590742038607, 0.008080916638565153, 0.06259221460215789, -0.7781211785874681, 0.39941409720842413, -0.2073142871620991, -0.3165875034892512, -0.009308494210100172, -0.1598091201968344, 0.005589244964876542, 0.02375179157080232, 0.4881469212676986, 0.5157526805029222, 0.09071490513624828, -0.2574544746163699, 0.0695230609933316, -0.3682446897336555, 0.043882036045715056, -0.05143509605704936, -0.32467675849304645, -0.05505717798837712, -0.40261233624532133, -0.30306016655259554, -0.09026785187177332, 0.9172829385357744, -0.47803564685342864, -0.35593423418904435, -0.2765573728102028, 0.005499716587212184, -0.10449799303700039, 0.8381824340936037, 0.19081298633021285, 0.1678802286301016, -0.19555440005372782, -0.0011553598117816557, -0.11065455356202684, -0.25550822875102436, 0.15280536001147701, -0.1339826884171221, -0.22346036647533649, 0.6496769690959908, -0.20941423746948126, 0.10933160507282072, 0.047035326397896364, -0.5075615780541134, 0.026865609125993624, -0.519643808960619, 0.03947458471274411, 0.7028572804158707, -0.07515299742644707, 0.22159069430554057, 0.24123937483362273, -0.09776305356581944, -0.10470751005406922, 0.3078544728993675, -0.1879412701945397, 0.10988066629388875, -0.06057330457554575, -0.10178754566285579, -0.029586229820139795, -0.27442495378065856, 0.03004374894549649, 0.9418358227624907, 0.5376180526363319, -0.3363615036878847, 0.16162411759556297, 0.18626763604168636, 0.11937151903026577, 0.20320958352657825, -0.1634053143776297, 0.19863488110071492, 0.14011008534980754, -0.4239015812530324, 0.3023282151849673, -0.4081873824149562, -0.11013100414252219, 0.15145935338838448, 0.14621372071596797, 0.1251951406635071, -0.053058916075056785, -0.02837332731080889, 0.18546389930057022, -0.6697041864423687, 0.09582260091280918, -0.537592988943902, -0.39374109724412815, 0.6861949455325219, 0.7401621644292743, 0.23824945549277318, 0.21977405164623462, -0.14862845464919863, -0.1726948820755285, 0.12417804415535356, 0.17978506564688626, -0.09943866062244745, -0.4001062118457231, 0.09247104821950554, -0.122335470007641, -0.7435717952982118, -0.06427707357817819, 0.38483388096254173, -0.377533738656457, 0.24203706805252684, -0.2635346900780735, 0.24508079666031335, 0.20252136743406468, 0.05430656171496973, -0.4082017201044486, -0.17886922883601936, -0.2983852788566614, -0.2982973505131989, -0.3066968233759106, 0.360273959122012, -0.47724578638612036, 0.28115447943486066, 0.4810220846355344, -0.24947637000423248, 0.10445007930253142, 0.37654533415267855, 0.045230383844346474, 0.5598219847014325, 0.04133292201973382, 0.008555031591396525, 0.009673782480520612, -0.05484666480077047, -0.39818820422680495, -0.4904068831034921, -0.4302450413186214, -0.44185132087417756, 0.4088113902410905, -0.14297023632003816, -0.1781887193053442, -0.3915711452700147, -0.011816850090108287, -0.027639213835364444, 0.33120529342069743, 0.18106752130861076, -0.23208068575013863, 0.19199711663614907, -0.029035301558882745, -0.22777833509961418, 0.32660764624715716, -0.03619565710410433, -0.0204710579517561, 0.18994183072601056, 0.31298317955706545, 0.03528292638693886, -0.04880372479852004, 0.1783969677173954, -0.2049942488688956, -0.0737592390433931, 0.1378714365566774, 0.22487885890062537, -0.3719807173014033, -0.5453025125609589, 0.224274667413731, -0.07377897188318555, -0.07156109017984967, -0.20876387247493414, 0.27833006381640196, 0.07700505601130146, -0.2368236540357101, -0.12708826744901705, -0.22138341687794286, 0.17660077066556532, -0.051471276554225925, 0.24568486220482302, 0.18426556385772097, 0.17904846486870457, 0.13725818709491047, 0.1761980301642897, 0.7034717217698999, -0.16184686113659943, -0.07806973362822225], [-0.365298343141839, 0.19697831181098502, 0.7250842120093998, 0.5117024982057067, 0.2322573414991356, -0.18916171286068648, 0.5788224936985852, -0.24170071328290466, 0.033245315579863766, -0.11298640342709926, 0.5134119702895756, 0.2040914327177876, 0.31243262562697366, -0.45358519572815265, 0.8056156509114375, 0.018082875106470293, -0.22932754559404275, -0.04613708250110932, 0.07109088827626359, -0.02069024432294719, 0.15520225095944748, -0.08153683681658744, -0.5022768090150898, 0.24447937014522308, -0.12690192794688868, 0.33874921842341593, 0.057593649527208, 0.33104088429214307, -0.05512831354667346, -0.06318649509980998, -0.345772738972672, 0.17161591384427383, 0.5266405171835301, 0.1524381844160252, 0.22311551780661226, -0.6629735609308275, 0.5317310024801376, 0.6358046810491108, -0.6786903570142564, 0.3629056707817207, 0.10334349813164748, -0.46182043869642353, -0.10167061339413924, -0.3509731974949843, -0.3229875858293407, 0.34868567007841117, 0.676669777412186, -0.30297835902761694, 0.00229585253886091, -0.07700248802289118, 0.02390819047108844, -0.022346360557277647, 0.40555994368970655, -0.3274382882548855, -0.45052474792107833, 0.3792671575943496, 0.383666810296979, -0.21635206305870486, 0.5734806343817721, -0.03743721445586912, -1.3372264218699519, 0.04795257173356995, -0.26475292984380344, -0.06774235494003794, 0.36706474456249555, -0.12390492933114225, -0.06327374776176457, -0.38591266382545947, 0.2349726067611954, 0.25215701124901657, -0.39269377624579266, 0.5333744340166984, 0.27777931513019716, -0.8669230807412946, 0.12441264715604143, -0.24507143768605627, -0.2792862591581968, 0.28728729196262204, -0.15563158446625838, 0.2891603533276705, 0.11730368986231222, -0.035902347871279515, 0.06114812028582726, -0.056875629782425455, 0.03852725199687636, -0.13782975083894314, -0.09707731043979306, 0.16422691077670873, 0.06622436630018715, 0.17653516433062302, 0.28944315209080973, 0.24262221041090862, -0.5243848119422072, 0.3193368094940889, 0.504689099148826, 0.0867764415260489, -0.20296942042370936, 0.08899306073269826, -0.018329066758802248, -0.07816572484890646, -0.5333273506224387, 0.17709474560439442, -0.11522918213486226, -0.15633328775073937, -0.08789375278228774, 0.5288514143271027, -0.12821459048461376, 0.7380762055176998, 0.05906473713761538, 0.3356019825208683, 0.5424902091739795, -0.028322947716509256, -0.23796166206144992, -0.4657852903389141, -0.03357565159285267, 0.16475257818624406, -0.15743798783541696, 0.14015167471953788, 0.02854270892273832, -0.27907726863367954, 0.08315300558332468, 0.23108661057529384, -0.06110191667962313, 0.1788193733524618, 0.11863025176856419, 0.05992374510111358, -0.5110777628465488, -0.21099499068362, 0.10798358294513224, -0.21208179080379838, -0.43340210885019803, -0.4750264056933898, -0.19737423117415154, 0.026782492067588204, 0.027681135122887272, 0.4956768208051782, -0.10277065574336207, -0.04418457650896361, 0.30531600543834553, 0.3092754921918632, -0.0033105768679594, 0.30986083526079583, -0.03218625272578784, -0.0727342020754826, 0.23431971829906573, 0.49371041561912393, -0.04603794941131591, 0.1232384814801509, -0.6736701272324502, -0.11098351773616415, 0.3282994417662958, -0.22016845803414806, -0.35866030130174903, -0.028342611567091287, 0.1204672034401575, 0.49231080503222585, 0.06840309528448964, 0.15598809423977414, -0.458175097951533, -0.08096346207117788, 0.08922979289157916, -0.1908094516425271, -0.18088317275782903, 0.014229465330913193, -0.5717900147521898, 0.27714220237164494, -0.32837527808051736, -0.1508739639781351, -0.9433891019282591, 0.3538268889428748, -0.3769021333321587, -0.21093879472810093, -0.192786118232724, 0.6084428181219386, 0.06416643896505032, -0.07495571651289994, -0.41077468366272224, 0.3798228477120498, 0.6683273689857272, 0.16466767873542307, -0.31487013802177893, -0.01199417633139178, 0.09956086929142494, -0.28016280469193183, -0.5762339891768484, -0.12924178554855548, -0.3593778720543981, -0.003178310191784795, 0.13599462588734426, 0.2642824134275685, 0.5327819067682146, 0.5003555897296325, -0.3605428668074828, 0.5281055191824267, -0.04404781449367311, -0.0463911076832907, -0.4245579429107352, -0.19327532236538641, 0.32944265200987444, -0.24595035791342507], [0.04990082621972368, -0.1877969887101614, -0.09538281916297431, 0.16469220754659847, -0.13912537625728516, 0.1558898698954996, -0.19508906409280463, -0.6275814453598975, 0.7267988852711441, -0.2333464723463763, 0.20216206556453795, -0.3948502397608134, 0.353769716472224, -0.21261687874841598, 0.30120532996963534, -0.09650846142872033, -0.7165101560917638, 0.06056994619661186, -0.4135431717354832, -0.5159138417773385, -0.7387150686281082, -0.14302616663315718, -0.42425453858912904, 0.2348900203233176, -0.3102431210066282, 0.3314781059355361, -0.11353838160443688, 0.1315402031683418, 0.4114172624962854, -0.5215112536155567, 0.1806374963045594, -0.34770672097345345, 0.07501749780750427, -0.4848466984684254, -0.24345417121293314, -0.1957192986532256, -0.19382146104167658, -0.08219382775656563, 0.1497277382252199, -0.4789076109052179, -0.37030602851485456, -0.01992923590738113, -0.5460097935244583, 0.2077504403306234, 0.3005595963451439, -0.01573270416256811, 0.2375129802550391, 0.13043051928548383, -0.2372464977427067, -0.12843382500586023, -0.004234764986941372, -0.7183338948996689, 0.2835391073180541, 0.05671405853143273, 0.30340947619088443, -0.6801280932603855, -0.3083771673642991, -0.0026224836854989086, 0.014523956928263932, -0.14115195115520626, -0.08326329261809952, -0.4908980825036361, 0.046936803945161754, 0.2896500071483506, -0.023133601125727214, 0.15840626571967553, -0.1727174965383953, 0.0743739698473717, 0.35787241414708915, -0.21868875651179814, 0.03470752862449526, -0.6317333449875882, -0.3248025128475766, 0.3045562738532297, -0.15146368254060022, -0.011349525746320834, 0.2917205458640415, -0.06454046440757498, -0.08966030932319982, -0.39880517813538147, -0.08651430609251234, 0.5950780588634943, 0.1673164967926018, -0.44178746851467876, -0.15415156875276606, -0.017532279800947678, -0.22865314664346237, 0.2699320930196057, -0.23340531677627843, -0.1047611668160469, 0.32717126961945403, 0.09101298132391404, -0.3100314621280547, -0.3591077626735348, -0.46673654009688714, -0.42471163366897946, 0.041592488404301846, -0.15202911283573423, 0.0387016135028559, 0.06008952667077874, 0.21758284610114276, -0.3667451607362466, 0.10778859390757528, -0.3321384536693851, 0.1193931476834116, -0.06342170431936973, -0.09203864357440394, 0.4661359853780298, -0.2128768955488063, -0.40274911776243166, 0.12753954776515422, -0.06702389839643275, -0.17054699475677765, -0.41706435069728154, -0.24485724553328478, 0.33313848741440266, -0.04316884215148004, -0.24559395965077196, 0.0528395911987713, 0.25595472019235654, 0.5103042097773162, -0.052783488866444774, 0.25505158290948876, -0.32008213854632844, 0.558857768797759, 0.12237238405275254, -0.2800891418694127, -0.011749038025236582, -0.08470578545276776, -0.7000847509191965, 0.7040135895083184, -0.18277265365156267, 0.49040621682216917, 0.12660295948475353, 0.4926872358105238, 0.2423455767981982, 0.5256236346457038, -0.3160433528414862, -0.07645723814299311, -0.01935324698450034, 0.3381191313826583, -0.4319208728706622, 0.43873621818861386, -0.03821987948706072, 0.3094751258429573, -0.31267550942070965, 0.4374161760713508, 0.11494181628324791, -0.35928051323895777, -0.217572184818221, 0.22757409516351776, 0.27570242393094646, -0.10774040683395296, -0.09261453624936766, -0.4564996570708104, 0.03098308705825894, 0.22600730770479252, -0.0493314594173107, -0.2950916054066577, 0.06336475598052983, 0.5027581334820393, -0.1468428802532173, 0.27251580607497383, -0.13688891365341166, 0.03698984491749635, -0.0587426411333696, -0.45772235814753726, 0.047562302082219, -0.3623794062614725, 0.5033307028879025, -0.1405159292404708, 0.47066219365116246, 0.4547776782570711, -0.48083049211660417, -0.05622491855569006, -0.2808193418507625, 0.043549429388878735, 0.15070191345551004, -0.431725853264071, -0.21211833015413634, 0.6275127552985269, -0.14496893844078187, -0.3726375368133463, 0.2857272246224992, 0.20780216568314372, 0.17147284455475578, 0.2804391628767194, 0.18551291276989695, -0.26616131596711057, -0.23197886152463604, -0.6302714589085275, -0.7126737996490126, 0.4593548509475293, -0.10446773309039796, -0.13500193162849541, 0.20320878376569124, 0.6783095453901399, 0.4211870776709565, 0.20122751421564705, -0.3941206547016575], [-0.050624306763540114, 0.6761606120476598, 0.595030126341464, 0.033556844265476025, 0.07016674691661175, 0.08592220548465324, 0.20197133148063467, -0.44974122985965054, -0.6429289933964115, 0.014026379446422202, -0.5564724632985669, -0.31856493070284675, 0.5537449102803234, -0.48217634073840143, 0.29398073462580393, 0.5368814821161436, 0.06342259994562018, -0.3062792671310674, 0.27775200707200565, 0.33376487393965193, 0.1959988570557373, -0.1739830764359734, -0.2194462192005193, -0.162631245751187, -0.08407674450422874, 0.32711876490354974, 0.12773524072851725, -0.24230814726505767, 0.021231803729009048, 0.19377979425056926, 0.3438104450954153, -0.2922247795405243, 0.09881782379206891, -0.19163389572173747, 0.13637306921792172, -0.22921858984720458, 0.24683688165865963, -0.08513868500804714, 0.6626458937262929, 0.24455716853721446, -0.32785601711806983, -0.09101669206388971, 0.29631253978529143, 0.06030032885587475, -0.06654811606931436, 0.2025450062801091, 0.05528067042030497, -0.1467413804270212, 0.05918725994888329, -0.06518795257093069, 0.014286680673111101, -0.04565366750219037, -0.05309477419167868, 0.2947731808424642, -0.16831087198047492, -0.46250022306354194, 0.6404358026179955, -0.6805738313576363, -0.08147358375932615, 0.09687500157784669, -0.12626403736364475, 0.07045593862769847, 0.2830101039624221, -0.17773925944722263, -0.06611483246240576, 0.6432062026073039, 0.22352883581220373, -0.05219567156404651, -0.058389612089733256, -0.37878867601969135, 0.0055252856824230655, -0.1945231402506997, -0.6306422508567494, 0.30535818710896695, 0.16975200396314058, 0.4147504747635307, 0.25298649153271596, -0.45424672130069715, 0.16885111914014597, 0.7054657341875823, -0.09617879009760645, -0.13020211751447272, -0.09678664850783768, -0.4570228927826282, -0.31457694424175003, -0.522404866044258, 0.2473777101486358, 0.3203898182070186, 0.43553574735753214, -0.14941627848212008, -0.0853827849703881, 0.4377313991561507, 0.14804580169527246, 0.4640268753512917, -0.21996041983610504, -0.4874714822791633, -0.019348765386297442, 0.18654506808558938, -0.41161696567241424, 0.13470513692359568, 0.10253491406743341, -0.26214909162350986, 0.1144738777474706, 0.046164906750680065, 0.3083875745380323, -0.025356300353200505, 0.22651342040773945, -0.5171923517753159, 0.11595947350588232, -0.038360897895106806, -0.3541286615917575, 0.01635182244142782, 0.5957651775593611, 0.22011439049780612, 0.5631415457577158, 0.18782317281470726, 0.005855456175391983, -0.6789294293860189, 0.103880446259938, 0.10113791016038347, 0.0022161661822546214, -0.5789437209378613, 0.42140159000647787, 0.45842854319068754, 0.09748736367764445, 0.6898250824642493, -0.1666009235951301, -0.16521999720282357, -0.1593836279073139, 0.08091674633157547, 0.23167591250575126, 0.7650689631907222, 0.6782447965275652, 0.1995797911545431, 0.20740930777893613, 0.21730355473178628, -0.20360435381914185, -0.22416256325036146, 0.4887328725936143, -0.2617622698421655, 0.4350394859310405, 0.19132097745735827, -0.5136417632421403, 0.08631419220109075, 0.29547290897819317, -0.1853935527025016, 0.48951034209154115, 0.06417526153717983, -0.1541195819786151, 0.33973665354279176, 0.11336802937129721, 0.2586065932410328, 0.08429013807295017, 0.1586133764838083, 0.2535409897412997, 0.00884056528989771, 0.34782786148211003, -0.2129419080840564, -0.4322340415267214, 0.11208436631132823, 0.4198350448148365, -0.3805927218864319, -0.48106050532345096, 1.04145925059289, -0.3491358010552675, 0.2111890880535268, -0.1679270651116518, 0.6466159949070859, 0.3520748914690779, 0.11784071309004927, 0.020703242032517714, -0.14569204233953853, 0.04261746806317752, -0.09365753745669123, -0.12715519316202217, -0.11201520818129872, -0.07027036386196411, -0.144952498105494, 0.17682669189840242, -0.12944804857882408, -0.36038363548882413, -0.17576355450308193, -0.6909753041923717, 0.35840830180299393, -0.03478011195783529, -0.30884716765612974, -0.4008677234328066, 0.2324264165958218, -0.5000287710717348, 0.17684426897434977, 0.04229856989104645, -1.0616520455111902, 0.19901276011729574, 0.4977483439414143, 0.14219548487886466, 0.16752908642927308, -0.051676153815478805, -0.08626128506240281, -0.059386596980728186, 0.11301758615644317], [0.07263567592085546, 0.2515298727866163, -0.5655842683277249, -0.06637468268294001, -0.4910925925148191, 0.46241840280433516, 0.2006562717616772, 0.2882890864513493, 0.15069288636783434, -0.4951450150409906, -0.18991310853459983, -0.7440023946337412, 0.29841172920506875, -0.3796663609353116, 0.11369329900267, 0.1796575493741245, 0.578265603394531, 0.17975622620860163, 0.23477828248803817, -0.2301690978772277, 0.036351264277598216, -0.10071531866753276, -0.2551287270185797, -0.5020301041513505, 0.40500995207023266, 0.37320032100775935, -0.24779598054173438, -0.5337074298877041, -0.40026542124463643, 0.029916040370167492, 0.5231641778482946, -0.3729940252469985, 0.34846721865103464, 0.15923164424823316, -0.07017043277018854, -0.15927602944650243, 0.5187886072014997, -0.014871220664629373, 0.23353402407961432, -0.8780087238714298, 0.498235473648842, -0.7791475526884006, 0.03148310082235402, 0.5016796309295694, -0.35319611073731805, -0.2135341273787891, 0.5338363348647203, -0.40200514513644225, -0.10969884502386841, -0.2557134977195869, -0.13532571760732276, 0.22634210473267163, -0.5519802162206984, -0.31563139784005123, -0.33746732847158273, 0.6250059389262997, -0.08191485883450529, 0.057709963947423615, -0.4164622258963745, -0.18379768119589696, 0.36409257269276757, -0.18270741713188415, -0.12331684949701306, 0.22422614878285063, -0.6092461525450559, -0.4939379568269836, 0.14152303861779042, -0.31967214163749497, -0.0369950734630288, -0.31676790605640964, -0.536550271168849, -0.32995841268730114, 0.011510861927858404, 0.12286438125070347, -0.41692789021163196, -0.13547798814789436, 0.2950700259234899, 0.23629224688140546, 0.3875561977314708, -0.010699830302951673, -0.5725713131046868, -0.26709527638333047, -0.24680399534293362, -0.095498438006167, 0.38608555012490386, -0.2371285423797182, 0.49215690184280286, 0.030184300422475947, -0.09260106109240551, 0.17226153943631786, -0.06042747127195791, -0.005807545710748734, -0.20313532720553396, 0.05630739212887896, 0.022141206860690578, -0.2794158712792077, -0.01703228357105247, 0.22481394056628817, 0.1053945841591235, -0.5292715323082123, 0.3817964275155963, 0.3564092100509617, 0.09564992120321378, -0.12191781998849463, -0.36073931176723883, 0.10322699619995222, 0.4434850062719884, 0.3258438439729828, 0.7086339317128715, -0.5074346489565369, -0.10436935392496528, -0.1167604617945164, 0.06515203212395085, -0.5612003439676274, 0.09894318098295589, -0.4116670748751105, 0.33751627454846317, 0.1750005755812639, 0.0938379238039277, 0.25175401489257443, -0.38644994397637733, 