{"bias": [[0.5674403714888027, -0.6595915570683833, 0.17786580527647575, -0.09005052895086893, 0.28655360768195753, -0.56524512776246, 0.5825281894829445, -0.36437114703826473, -0.03213989067699081, 0.4519955095245842, 0.15998836768307206, -0.4081859334944725, -0.3235476231967445, -0.19518521031209843, 0.7413972900681671, -0.3553557561289111, -0.09608756960545684, -0.3622423502512667, -0.16450573597616816, -0.2853518844761799, -0.9966238900219323, -0.07140491024680769, 0.2632441411922181, 0.21238342509263017, -0.5509542678764452, -0.08192147509248648, -0.5989418754597134, 0.057606817182580074, 0.30698169743092585, 0.29146145396409046, 0.3756110701350466, -0.4596235472081269, -0.35540452986260646, 0.5242032520724044, -0.8917302127716636, 0.0745208033885563, 0.46258413629305706, -0.07997023654227153, -0.11397503996603259, -0.04965538804499915, -0.3668806317332734, -0.10325434764352036, -0.23078774836469523, 0.5672782174145237, 0.24834380899033456, -0.052193305528649564, 1.0619328336381946, -0.2216900487208585, 0.7467505041080555, -0.23221426174868703, -0.45897657337205544, 0.2084108133285154, -0.9301137815361655, -0.3965063090208755, -0.009023569272445355, 0.5020428098579436, -0.2124512630168793, 0.46402356944431605, 0.17074301235123387, -0.13896981705409928, 0.10437218799754489, -0.353334706867965, 0.35296875866595556, 0.96585154809914, -0.2603414284501298, 0.4847469004691382, 0.7585407077099529, 0.2630877910053061, -0.24485039387078325, -0.6157217874502661, 0.07664818595680532, 0.18352657383334572, -0.12614368285037045, -0.38802423001532066, 0.028526366294662805, 0.28846381980811636, 0.5282220884398876, -0.5837185353347523, -0.35827666958145643, -0.15133745749117725, -0.14544735415940513, -0.6537082768744017, 0.6179613066660122, -0.5175839851008007, 0.31442199275565297, 0.2802314192443703, 0.5710637710596319, 0.14216267875053645, 0.6050793296102562, 0.14694942129909552, 1.0731708210848865, -0.7809414255137387, -0.5455734878477215, 0.5336506980483756, -0.22404370080225555, 0.712683100002433, 0.6456656561808427, -0.9498014560882249, 0.2237667431371926, -0.17410682208264605, -0.11572112733601678, 0.040472348265822036, 0.41522129441815087, -0.5302672279572225, -0.00029794752352809437, -0.6412900388182491, 0.021855115677286343, -0.07183987665970007, 0.18545516121003935, 0.7144426347076939, 0.6240801355926601, -0.10586985991247673, 0.2607378572416292, -0.23929014667536014, 0.3544906994046283, -0.0546682805210157, 0.2413208782176674, 0.18806169463723899, -0.38755743781922036, -0.2065093359826858, -0.3400281677711556, 0.5657931031164626, 0.7412084540344774, 0.33715326469775275, 0.29323105508845276, 0.4194923080734126, 0.17850634086138745, 0.2469120684334087, -0.6150685425082187, 0.28753944877261567, -0.1045976575177313, -0.5239722370576777, -0.1262440899269441, -0.3842803235134129, 0.1833825097386756, 0.6717610983481541, 0.1827717452921961, -0.24252129416495927, 0.17461360987632102, 0.030687469504617586, -0.5297445708516321, 0.3419700903157087, 0.3521884943965796, -0.2798486568710339, -0.006925981823657263, -0.19499961176472405, -0.08512795370455092, 0.15778750852146975, 0.13955419360034066, -0.24496672935675573], [0.17776104624373903]], "hidden_activation": "tanh", "layers": [150, 1], "output_activation": "logistic", "weights": [[[-0.18648596107746632, 0.1535979632209083, -0.18659816686439254, 0.11532020770609515, -0.03771432632375828, 0.05562199792729008, -0.30960275051841357, 0.25441225681862023, -0.05578084026347793, -0.08545891052662591, -0.19991843692545688, -0.1253583502582527, 0.4374266003346169, -0.005621507803898768, -0.030994241973522747, 0.05452480192456257, -0.07764841478138149, 0.14954987181091753, -0.09891290918695533, 0.00828662181410146, 0.007559248406765211, 0.07973563767929748, 0.2698292207840641, 0.008984095434387288, 0.4470354455027865, 0.2896967440828176, -0.280050225042402, 0.07209394576870583, 0.43197772213684493, 0.0447837456230098, -0.15139838246654463, 0.1390717019014409, -0.17146395573206857, 0.07181226786349619, -0.07534113370418892, -0.06330942481905771, 0.24191556009709403, -0.0031324450133952174, -0.12180302141398294, 0.025372352930498995, 0.11205424881955656, 0.11826955923852507, -0.11101322539935154, 0.1358149079409652, -0.4533031945650964, -0.23836904093540762, 0.21360208884012688, -0.07954988204913906, -0.08394454048371348, 0.04545404065969571, -0.252282670158352, -0.39866335117757046, -0.1295811288676555, -0.026499034692387378, 0.11019944091125111, 0.13177329236861515, 0.1533824203519652, 0.08171064350004019, -0.2298982033127081, 0.11450123114619763, -0.2983656432138075, -0.308601207325409, 0.012826515275425028, 0.22614437961962616, -0.09400433475633865, 0.018704846930908625, -0.13846003401860962, -0.1773430935975772, 0.2772451640074474, 0.1061894764977492, 0.2768054118044292, -0.19822790670769547, 0.08328151447386314, 0.03578565078740525, -0.10101340809903532, -0.19794507329047306, -0.5248637131331861, -0.17589137264281368, 0.5078323740699995, 0.1008595785885423, 0.19487432602143953, -0.3843891857236949, 0.015101495684012234, 0.07974764727643896, 0.15904997772049176, -0.46160452317003314, 0.25068410903599936, -0.11717534364755972, -0.40830123272596913, 0.0552283709808009, 0.5135679861257147, 0.1680276384609507, -0.4194920171851652, -0.17199767334923471, -0.17566101815272586, -0.6383076047181182, -0.20280440343888376, 0.008304545823919221, 0.22653820824267057, 0.35207033724996006, -0.15186979671513587, 4.197927881865093e-06, -0.06817860368813078, -0.2847830613282446, 5.721845413874208e-06, -0.09894521807117947, -0.34828082500468527, -0.27341539928870445, 0.09768799120119873, -0.03166752009448288, 0.2930869710445797, 0.15140197822173293, -0.19266386619846063, -0.0024075347455903328, 0.3947265567191966, 0.2670409342904144, -0.2026971076683517, -0.025310200972154324, -0.02970025937017666, 0.24952342758088414, -0.18667709751545314, -0.08574682153726534, 0.010985842575081142, 0.0708886771613065, -0.5107032091935754, -0.4795943224894618, 0.09461214132007163, 0.17461945946438662, -0.28272997575808906, -0.05634896540267641, 0.019937934205817943, 0.23359270572935156, 0.08989377411422772, 0.16581378822332307, 0.02005896497418171, 0.0020756519585017146, -0.2876689481257195, -0.10615066643170849, -0.0528838955440178, 0.21720298294586282, -0.14953000410030573, -0.12853894393379173, -0.386568329447572, 0.09377688286568182, -0.12960327612929165, 0.2100197094497851, 0.3344337428695973, -0.33718825350406517, -0.1966826933659058, 0.02161095589682738], [-0.09927882724294958, -0.09969436757556965, -0.0792512996690847, 0.15657211530260084, -0.38436088491510245, -0.0837220257719385, -0.04160069051057484, 0.279911443052759, 0.20873741222965805, 0.21731671907607264, 0.3714017898948148, -0.04900996843589527, 0.034155040033516874, -0.18573836855830828, 0.16938203375769442, -0.20397921787252196, 0.24990145478210624, 0.41063457053239466, -0.5166687011207775, -0.125546793194401, -0.20025175317690125, 0.21919905805742662, 0.15846462946999224, -0.09444609645591796, 0.12243855656825138, 0.05785354877466578, -0.3810334275549854, 0.026510855563823425, 0.2933151028657108, 0.11254177308316862, 0.06449481954866713, 0.1999009599485595, 0.07430970645043446, 0.0010309798298790472, -0.39433432404607416, 0.14119083063951102, 0.24163811867684143, -0.04987588483596284, 0.060206852137885465, -0.15300637376908555, 0.1787676183195863, -0.6185835546424431, -0.413201514384063, 0.4017751116305118, -0.15038228931028033, -0.03587364279124085, 0.3294373313030733, -0.38646143669133715, 0.20761600860461654, -0.14738773139027364, 0.1182532910711054, -0.29389724271652323, 0.22725255121114715, -0.25679670559990875, 0.06284999845253729, 0.19199603059099796, 0.5074642416406627, 0.1005280002794714, -0.00790316432938947, -0.15049335060063204, -0.41764467665804644, -0.3583957405156413, 0.355214858124062, 0.3559681711896204, -0.1670361428470137, 0.15389911231476988, -0.40241901551349235, 0.15869028039151034, 0.20958804687591373, 0.14548942858026864, 0.29650756177328746, 0.2140060135873121, 0.02480139585811421, -0.22813734720701406, 0.14070404860395083, 0.15940395584514105, -0.3248056385754251, -0.11667717662650172, 0.23920841001001747, 0.06718217285168238, 0.42232406335505995, -0.17548522729568816, -0.32286030328567444, -3.788100843857918e-05, -0.18558999118082253, 0.13194540790876116, 0.054725218594372196, -0.1734378255908062, -0.1808734559250287, -0.07822515544156099, 0.17078413229613623, -0.014064333982569338, -0.22691886377399392, 0.07421936384533767, -0.4082886550442663, -0.1702146849377766, -0.16437910886785081, -0.1100770372631254, -0.06203754276718777, -0.5000295416786908, -0.007428868561214191, 0.18062260683732906, 0.0049303343234132525, -0.18104004093827056, 1.259256191343925e-05, 0.023138797529979396, 0.04887695603496229, -0.06541111731823625, 0.29106152655209955, 0.03991930070178165, 0.1846501496706694, 0.08621267742176307, 0.17050239716687196, -0.036779071112454105, 0.292459907380924, 0.3792108043112333, -0.021196639672393384, 0.2972349644242586, 0.13272226823923294, 0.12874439253558875, -0.017023167135065208, 0.011209390688774114, 0.09375841219924756, 0.09808363514215311, -0.1308789734245771, -0.1729513223900467, -0.15749953575029038, -0.13156865794940203, -0.09428349917067151, -0.14574981440697354, 0.17856622360558896, 0.24609737307153676, -0.11329137369778972, 0.21517359743872116, -0.018849946532593247, -0.1926224629540901, -0.37650703773738947, -0.05029856568211966, 0.04230991468566399, 0.38133084420910585, 0.07113088395631642, -0.3058105421305373, -0.1637788609015512, 0.0992066426453958, 0.2996810793151519, 0.16855871088891541, 0.786577717756554, 0.4754413985743906, -0.0644633976762325, 0.2828611939581348], [0.2659564304174451, 0.13665650636318868, 0.14053165154773128, 0.32160301966240473, -0.4353272757563455, -0.2857558540765054, 0.14039267786854412, -0.1433903556540983, 0.005193244948381406, -0.01816142065071915, 0.24825957225915463, 0.17237961551817088, -0.48091475204139433, -0.03929545928487502, 0.09794491448106785, 0.20079738340695674, 0.09495711299715923, 0.21833748373086756, -0.23582954695277408, -0.352680176743373, -0.2646716228758518, 0.38553912948831504, -0.047970538882085, -0.02986908873633109, -0.1600971507423465, -0.1909048575633038, -0.0011282064885107083, -0.23496781115198362, -0.12798478025983492, 0.41344980679531074, -0.26776304167410964, 0.17433116161158677, -0.17445804807442344, 0.03389481871133496, -0.38028185104358514, -0.37816971378643255, 0.32193517261561305, 0.536889767817961, 0.18992397469500505, 0.5101672773747311, 0.35905696988724206, -0.47359531035585234, -0.12164052623574931, 0.21758145706693363, 0.31519461511729874, 0.29444058192422773, 0.005863808629235307, 0.10126666405626895, 0.4170801877416954, 0.1165406476900295, 0.09854637855464335, -0.10794123877702848, 0.27186113687463, 0.1775951691652635, -0.44873669801311017, -0.29465569213149856, -0.053775017291750604, 0.02128336272044848, -0.17857452929376427, -0.1202120259332524, -0.13508320034978766, -0.17846843409313815, -0.1895628940673179, 0.22974339861339999, -0.2855286669239821, -0.05878185960755564, 0.2796450073769129, -0.12201987429744025, 0.27336567727687205, -0.1687454113783427, 0.26794527768339577, 0.17034573681160536, -0.0677690889691839, -0.3991751031865273, 0.34855186714009556, 0.2850331364518584, 0.38210295752666945, 0.28574965629463034, -0.012923490924824222, -0.06633311266145574, 0.1705993723150385, 0.26145054109768684, -0.023239811740641266, -0.24716166523650956, -0.19678098070806732, 0.109342378254283, 0.026960551836008855, 0.0026233439504268936, 0.23760297629917396, 0.059256301606967945, -0.3390454322008426, -0.1457312491475376, 0.0770364227178237, 0.3329302033373645, 0.1547934620495668, -0.03600885676930815, 0.00857792390576519, 0.051561262014747616, 0.004417488140303534, -0.19197154407849784, 0.018445113317498638, 0.08009712285528002, -0.35170596458998044, 0.19814603696954827, 1.0734179196968517e-05, -0.26543537291541114, 0.3655950326444768, -0.10654485059581631, -0.09821905740555266, 0.2988372926294101, -0.087433725125598, 0.24396415100720498, 0.23943784922773115, 0.11625659556653112, 0.004797387840628184, -0.090651408014178, 0.28990052438979014, 0.13195322195248582, 0.10951600983500295, -0.3226857301033865, -0.010761906457265838, -0.19525213852628856, 0.2069334240395158, -0.023965539890307294, 0.3981110738116502, -0.1830325405760878, -0.23469232044060348, -0.44495414743765244, 0.061841422853230896, -0.16148046336116617, 0.47740429403951634, -0.29703057265123006, -0.2609377519846686, 0.25534822021509007, -0.19812762747828297, -0.7756244211257667, 0.42714171175572313, -0.06397166610639209, 0.04046805784229793, 0.20069357292688286, 0.31844169257835153, -0.24829067700296845, 0.5710320450919856, 0.027793432339852295, 0.44014696814391796, 0.6230014052250858, 0.019029693448488094, 0.3106439562058869, -0.17581844267967872, 0.07634918718572606], [0.24423868458365122, -0.28171427052366427, 0.0413024244686463, -0.3639508030662019, -0.22562363678299363, -0.35830760307888193, -0.02664468586260918, 0.11785267419589411, -0.30613792180832067, -0.5573311343164981, -0.5241684202715604, -0.06127522727198211, 0.09929703136627643, -0.49873231284509056, 0.30754479860744033, 0.6291212738592855, -0.10800638679539948, -0.09903799214741897, -0.41754414589079414, -0.09565756710479709, -0.15516381565164367, 0.22400554013906662, 0.031964561614148915, -0.7027025493979256, -0.43627295092431867, 0.027450185737622187, -0.2316368626475602, 0.25193843934932864, 0.45071996989512264, 0.0774776489313473, -0.24543419931924862, -0.009905672362216168, -0.3292093382014567, -0.20412400494733005, 0.06938231703295458, -0.2909423691264914, -0.004973330000442255, 0.7802918003828593, -0.01728465932920193, -0.26870491306742544, -0.08604703684477241, -0.15679561437811773, 0.17252527778054427, 0.27601017924793897, -0.22480980992068164, 0.2281412625613774, 0.09096077530704913, -0.24298316861527933, -0.15154399277317634, 0.46192783562949513, -0.09117832258444512, 0.05733598023028232, -0.10317606119378303, 0.40635086368048196, 0.24791430730892952, -0.26903146090991154, 0.35406853228370705, 0.5583220758498852, -0.2492921814937754, -0.07603128324885093, -0.12920998344809037, -0.19436735934277727, -0.4018035791229471, 0.5438266459410315, 0.19039066522631107, 0.3538332820289082, -0.22774814784696412, 0.04198077179431588, 0.7299477186541283, -0.7422851394785928, 0.08674238755797634, -0.23589082457147112, -0.04396959207448183, -0.3807807762012712, -0.07229056419611578, 0.24457946718295456, -0.28068208749012413, 0.20274988533120578, -0.23638186837958064, -0.29530741349653805, -0.14975260627605308, 0.008487574191972368, 0.20929163711878146, 0.03767672831553265, 0.05302743589660944, -0.1958764742099437, 0.24001188041859567, -0.06566336645762505, -0.36922703337855495, 0.2504842713225032, 0.30712917390490757, -0.06262068005937528, -0.31310634547905447, -0.035473621894765786, 0.15137531558767237, -0.48852403839142716, 0.15949592691034287, 0.13165534683647762, -0.28997661335811253, 0.20897044377124815, -0.15627047323501211, 0.14468036972662465, -0.41474112189472906, 0.4086701058982213, 1.0606458697328894e-05, -0.3551678362242732, 0.28360350449061505, -0.22617442914834623, -0.29494318738922926, 0.23251757860213376, 0.04696462835406481, -0.12645350603058433, -0.10458853738044291, 0.31549057627358773, 0.11881566049191933, 0.040729655947044974, -0.29377911854462707, 0.13758061103067828, 0.28123640219983315, 0.8843476133452107, 0.2727353469219291, -0.18339950207946693, 0.12353734957707452, -0.4661787146730412, 0.3389184343953945, -0.2515612145747771, -0.1501937979845187, 0.07664706513191974, 0.056278805437266426, -0.6516901903344621, 0.02124422763406999, -0.5984394878056227, 0.30866333425911074, -0.11399473320283442, -0.05561588651847315, 0.1963852997531394, -0.31653582093517224, -0.1113091521239725, -0.11368969140483558, 0.4396810792806352, -0.09999916577087227, -0.059388738649983765, 0.221551393755301, -0.17719661414357546, 0.37454676018980504, 0.4708026506469216, -0.37579585193375664, 0.14364678559935096, 0.06537133748702362, -0.05697927109976487], [0.14803810933345998, -0.10800595599960003, -0.319542561034848, -0.1009254964794743, -0.05761937560881056, -0.03597098467393854, 0.27271950261969014, 0.03441383846038241, 0.10492290881786176, -0.5464879806908525, -0.2319272545114356, -0.15954360601718162, 0.32088147314705817, -0.4212788502981078, 0.11459148400523461, 0.039405906178841626, -0.1217682331315609, 0.31316305632085933, -0.29289979280884076, -0.3912163602791275, -0.5598859246987009, -0.25354045616266563, 0.287546612340579, 0.1665962893513987, -0.04124157472811325, 0.2630436839372965, 0.3143903508872744, 0.37592431100709195, -0.19920418619040944, -0.6682931567975655, -0.11329411071011486, -0.21745319241190877, 0.03634434810340787, -0.09156967210146592, -0.16643427552479167, 0.18187179068409132, -0.05742121032305964, -0.0625507886642489, -0.10654398165222907, -0.33372448111503195, -0.2513171260977072, -0.06835089470594292, 0.35043983056948197, -0.08458878120035934, 0.22696933570603603, -0.5219220852763508, -0.20149136122293568, 0.2305609587812224, -0.19705505934699202, 0.0744570081661997, -0.09563762119795997, -0.1470982357335414, 0.025170262070549735, -0.3496445589733313, 0.3419966218687112, 0.5849246491937183, 0.10357987428857143, -0.661592271222946, -0.19387431619324386, 0.05797156462690944, -0.09751953732555643, 0.18406596065799752, -0.1853187673930081, 0.08693108040375491, 0.08226675616608026, 0.28149228204121335, -0.031984244312957676, 0.056474611807680875, -0.28611354199867833, 0.12277846776283254, 0.3737325105955244, -0.23164076292868455, -0.39502106584844293, 0.05685992747033045, 0.17814907472548025, 0.035833149454788736, -0.4974578617042129, -0.03712223733577755, 0.08732025138457597, -0.11983475159820706, 0.2094526944296117, -0.064847459073797, -0.5047649368199428, 0.2432089116396129, 0.012359246840029021, -0.29399522616295326, -0.21073944821300758, -0.10066507448227723, -0.012543973244801417, -0.11709555044347063, -0.33762155811100414, 0.23363258229188333, -0.005882787661086894, 0.1949790758503167, 0.2644085709515444, -0.11529515659562721, -0.18487440119260592, -0.2116727378702797, -0.23742295880096115, -0.2440714580887466, -0.7463481872179694, 0.19704533660466136, 0.20723184078548104, 0.09717322327063084, 1.6455990308705175e-05, -0.40251560137833886, 0.21950447345135274, -0.20045675778081112, -0.14912615528820833, 0.049368188062024816, -0.2803538938120844, -0.48928060484057945, 0.415978893206092, 0.008496810769779387, 0.26238889907703483, -0.01591058590862301, -0.1668981198530629, 0.15399531127960275, 0.34374950178761277, 0.3422377439554217, 0.23917694761776245, -0.24919622642453548, 0.41213941392423276, -0.21709366981166361, -0.2709576822438581, 0.07192803286843581, 0.06967496422755601, 0.318833921473217, -0.45446938234072887, -0.31792573878213404, -0.06378562167771315, 0.11618970338629575, -0.04629774856263714, -0.302194979072388, 0.15520659658220565, 0.1036741107443821, -0.004660590127406005, -0.6521946711698046, -0.18728310149190816, 0.36136277194894867, -0.09397575332200811, 0.10697534092125567, -0.1388846299367647, 0.14955170238336946, 0.05561647837614976, 0.18816184779476702, 0.09633939240403948, -0.07267542675608918, 0.2024957805393074, -0.17279430337413137], [-0.0950502275872262, 0.10939918874373179, -0.03427026454621936, 0.8094362682774555, -0.20265983110717162, 0.07500676214996801, 0.10295674379426997, -0.2946101768373924, 0.1195609498892449, 0.025073614141463682, -0.21613930608346216, -0.18250338576404296, -0.11608375789464424, -0.15547094627692531, -0.4059036427821318, -0.16708281674960163, -0.24618382856642781, 0.37611167423819813, 0.2049527158733077, 0.18565215502179608, -0.1878426916049382, 0.1583906409081479, -0.36609104749440907, 0.42452096251893745, 0.16351115691619525, 0.34108631018044955, 0.3225250270402005, -0.7129523284980461, -0.3142519614556165, -0.11919653135569762, -0.16076938350911632, -0.27611658085309476, -0.45038092874607405, 0.27512000414417837, -0.1022161542826531, -0.05824947382796697, 0.07367454750506074, -0.07999029898707709, -0.04063111884843056, 0.07981395441070106, 0.7102519299998865, 0.2602551496396906, 0.3855317363001255, -0.1702973184228756, 0.37845071280287884, -0.032424547380832267, -0.44063024666400363, 0.4025256922308487, -0.24402628742344637, 0.23820842496076608, -0.4738887474444901, 0.4322568006560286, -0.12020673773201182, 0.09823171285935989, -0.6912156423146654, 0.15338446726319235, -0.15119469268143798, -0.3641852427111462, 0.05622616380027148, -0.27927259973355417, -0.07228585989750883, -0.38889688589472726, 0.050568651227914166, 0.2971213555585206, 0.0559975558927545, -0.14963813908004622, 0.6013244586777464, 0.15965523571927828, 0.2332163346164005, 0.14476307606195044, 0.475598969267634, -0.08354948528022198, -0.4243440345756711, 0.16474902524632307, 0.3326209660813962, -0.1787965020415637, 0.2760038786387179, 0.5208583007148728, 0.25515120411738323, 0.4874155158557637, -0.08074996422449132, 0.35495470520151456, 0.3702351814710254, -0.02402872564489773, -0.307064293007056, -0.6117498234446485, -0.09315644773261457, 0.04091279618000703, -0.5386139673989628, -0.3695258447029682, -0.7682839750006274, -0.09498602814381886, -0.04424269759477508, -0.03786388211695498, 0.202118913519681, -0.44184631552973824, -0.06383839638917485, 0.03228163121602547, 0.2999276879950996, -0.310534053375302, -0.04238106868415497, 0.22507818245988326, -0.17818343584039148, 0.016085862052465264, 2.0276250068034307e-05, -0.1721572387100587, -0.1243513044768669, -0.9887284207106911, -0.32170997801677326, -0.07642173017055777, -0.24868819719167015, -0.3112060972195654, 0.5208309670921965, -0.3832000098909036, -0.15101685907472712, -0.5279705839989339, 0.18548813910176218, 0.14033594339869176, 0.011983608663841936, -0.22769634963361066, -0.18154074077287527, -0.6326583732792442, -0.5881837082334377, -0.15040558071785878, -0.23463100968742484, -0.29693726704296003, -0.15951976535372972, 0.18698744525972355, -0.21051950179822562, 0.21275453733295896, 0.2037018981933091, 0.4127539755822432, 0.08385604574486835, -0.19637170033802395, 0.5064208316055829, 0.33000881561853357, 0.24368028052857504, 0.08778594709457492, 0.019150175151570994, -0.30317443911006925, 0.15868380508604546, 0.31909568342155914, -0.009185637121017682, -0.5328618084028705, -0.166357862872934, 0.623506489502147, -0.1886354182516316, -0.6585452355488745, 0.18067790739376116, 0.013518671482935224], [0.20462078298059097, -0.11645839305779752, 0.35807453890919555, 0.1804602522900355, -0.1784203609984227, -0.29458784312861436, -0.2692299060974071, 0.10835703960128569, 0.16406556520782228, -0.3766524555143003, 0.678893695326909, -0.9869072930996523, 0.23895088832014108, 0.2625674735390264, 0.12286121294718685, 0.1851849951781448, 0.11961032547378675, -0.2856179202900071, 0.15202505498470614, -0.45258073050863284, 0.0426227702664787, -0.22120946338921332, 0.18333452836944683, 0.5331498916544731, -0.050987449878670356, 0.008889991852479252, 0.10212000892127579, 0.05378430986664551, 0.36782555163369085, 0.12244994173560772, -0.27115937814425317, 0.33671867219306295, 0.04889617980887449, -0.3913932769353803, 0.2286319557021179, 0.35144442364649137, -0.022045879051954403, -0.3163508284067536, 0.17661850740555757, 0.20503969565514593, -0.2661575172279962, 0.23833842596417468, 0.09018382194227115, -0.322659562442775, -0.04526173300416656, -0.26889218921781, 0.4443743539413513, -0.32978831219547583, -0.22150874336652265, 0.24648161515966682, 0.00473950699022867, -0.2844632575582687, 0.2020545694744804, 0.2121332669775565, 0.8654354922585176, 0.13886925474249412, 0.2955595028269779, 0.16128238688493854, -0.03301231332766331, 0.2564133066346231, 0.18790320048373876, -0.07186800058092044, 0.4884326376802936, 0.2842954281498968, 0.12291132951766967, 0.0028825971008729617, -0.1863285944668355, 0.45115177276700763, -0.06414456491130117, -0.23084334674693155, 0.06523326435632588, 0.29251914675343155, -0.28240540288583005, 0.09122605305629862, 0.05198480692538918, -0.10391478791460843, 0.7310298947483314, -0.34783502296950636, -0.1934808640044127, -0.36163639594842195, -0.2119455979713875, 0.19347363998768993, -0.38709767231226755, 0.10976913442767798, -0.6002185445387289, 0.06287008335588325, 0.031193773206047746, -0.4644136799178711, -0.26679524978830993, -0.46208712907403543, 0.012969847635219977, -0.5197728575504132, -0.19018132003128274, 0.015009089611209872, 0.21552436772719674, 0.17479224575276617, -0.33110038312530155, -0.12480884057739336, 0.12957063701604704, 0.3563116461090842, 0.4083925465501109, -0.15551424975094008, 0.09377432488822755, -0.22233967774540878, 2.20492830168774e-05, 0.16339879371356344, 0.30537187716212044, -0.249618822151304, -0.2192385702558356, 0.040154907771174496, -0.11577709415300905, 0.10744096338039841, 0.06534969780588869, -0.054508930211274405, -0.20075727340876856, 0.02201373725171272, 0.1609820806644656, -0.10312173271528578, 0.10373038919004943, 0.4997409802632645, 0.7477129733115218, 0.07370975788743199, 0.5369414992906876, 0.0010203783008761007, -0.29769898703678677, -0.09394521139722892, -0.0005515089465675219, 0.0025758619635185983, -0.07994387582681652, -0.2255262873724731, 0.36076777514100544, -0.16090297587311694, -0.09254055080190453, 0.04460782192095358, 0.5540871392873196, -0.3675167673841303, 0.03692244824509941, -0.0704573493321028, 0.07565922412094865, -0.3738856247616872, -0.3006712885860857, 0.29611017292021996, -0.2045075366355964, 0.13127054755093193, -0.41164722471679777, 0.6778846086523425, -0.5887157584537375, 0.15004380225423622, 0.32082933050659823, 0.07483074324828388], [0.2709349326388212, 0.21897435886116384, 0.2593439640063831, 0.21197263708669922, -0.11512306924734722, 0.748325811756396, -0.1025730117332921, 0.27926556363472693, 0.19190598082246052, -0.051353401698535084, -0.41415321701099295, -0.12252185289029932, 0.15611102325896847, -0.14513000856461064, 0.1837119940828443, 0.4009223929008887, -0.6234427759265394, -0.13106271743006342, 0.1367903104969789, 0.06097353937347564, 0.4067542501580338, -0.5964919942806077, 0.11153828577467206, 0.6097408774249633, 0.059534930502380415, 3.569776912453284e-05, 0.14381336413390358, 0.3494420267003318, -0.2990094815466946, -0.447860913036968, -0.3402956598287676, 0.18185059179260737, 0.20951074335204645, -0.08321623700351555, -0.2865661494125482, -0.1946966380019701, 0.3647039605155942, 0.3533903165431438, -0.07130520182725109, 0.7644740476709722, 0.2004472878846858, 0.35844714340195566, -0.3118859105101093, -0.28601057798857005, -0.23616987451831992, -0.30735946339658077, -0.1328820824573412, -0.23359546293863576, -0.0822877260609943, 0.34779662892122715, -0.020703437399448892, -0.19904232725039273, 0.11692681203977025, 0.6538791462920321, 0.06542479612801111, 0.05481220625951249, -0.17635772335183825, -0.0926965768662709, 0.008888838917186332, 0.48248908621062947, 0.45213894578304126, -0.018647131628371727, -0.15564027070191133, 0.03104872617383111, -0.10645938467336398, -0.41344948191357533, -0.02911778523301628, -0.315385007902446, -0.4387289237935292, 0.4307641029845485, -0.3717280272285092, 0.00591879641276218, -0.18784675621918473, -0.3374344093961312, 0.14984285517301874, 0.2508809320945946, -0.3106951594476216, -0.1634466117332031, 0.03334645532040727, 0.16469053877566675, 0.4733150503825812, -0.00656474645279494, -0.5844661810553732, -0.757559022186545, 0.12271758375799585, -0.08658354080828631, 0.3126880032410518, 0.13242854701376863, -0.7619859919234259, -0.6869921806355893, 0.09061606892368322, 0.27173044253085565, -0.015894419808362103, 0.04396587269148188, 0.39042147516961934, -0.36012556771514875, -0.17489897705569757, -0.25695325670991515, 0.4189173338604822, 0.05411270977798921, -0.007588650671415707, 0.5453954435426706, -0.3663950571337378, 0.5013044161178084, 1.0197699522254421e-05, -0.004508649788841099, 0.24071012693636784, -0.19941801272288667, 0.24114736732762626, 0.014125606065942771, 0.02409237404147213, -0.38045996445410774, -0.01689374661389021, -0.45668149763746235, -0.6160297070968479, -0.24540370347285462, -0.034352767413927586, 0.02481722125057004, 0.014032630835062275, 0.14994578743520692, 0.1106772116900405, -0.02944901895513954, -0.10769947002557499, 0.23195620213944107, -0.024126971016487475, 0.29917585659931173, 0.4748905825945646, 0.34473222111917895, -0.48074998579432304, -0.6659764819218986, -0.17537807236138347, 0.33436392576989576, -0.19006665439455397, 0.3501222484272263, -0.3985528661885312, -0.23148682533944182, 0.04965887891822585, -0.20985738964834236, 0.49159706261855396, -0.3522584920688773, -0.09232158449138907, -0.009917514075562817, -0.3458921938090651, 0.08052455001542157, -0.4117085424381767, -0.08588097203312826, -0.4700510640659576, 0.23295700123941704, -0.5152551677891039, 0.1798162159405431], [-0.2994554189440059, -0.25993273062664246, 0.0577872200155498, 0.3988057012462021, 0.5222929211247265, 0.34006286250353984, 0.18928801637330137, 0.2697399438625403, -0.19348808627829667, 0.15584458559730527, 0.3732631839429638, -0.2216680323938178, -0.13034919916984872, -0.3322046553919972, -0.3921285396538425, -0.44052417767248164, -0.3073204031340661, 0.11776958941839565, -0.20380957566790653, -0.37464549865626834, -0.24199682875564907, 0.28603401442893006, -0.14155218764855873, -0.009405510871871987, 0.10457543455687483, -0.32203863590835496, -0.5944958345987679, -0.8829453181207934, 0.5856436231316446, -0.692701514434892, 0.2029446119759622, 0.11890491877896807, 0.4470802634385978, 0.025101512089216273, -0.3031972627938482, -0.4298874791144664, 0.5244734371259712, 0.24279173375330096, 0.08213040377558672, -0.47333220791146136, -0.034798663548833556, -0.12277573166970034, -0.6677316402531152, 0.27893533680248084, -0.506354286669462, 0.19928340485158452, -0.009793167193560345, -0.26556206933606724, -0.13001827176870623, -0.3002466849716937, 0.31820556945742595, -0.043926810260565156, -0.003426911124860657, 0.2406496303439374, 0.08265839090657298, 0.2284683954252021, -0.034070104254064225, 0.6883091303657618, -0.793232063147622, 0.18112397279879083, 0.2641026187820553, -0.45550230585177676, 0.04618900124198165, 0.1387614632398, 0.006752735467705005, -0.08031213940206439, 0.08874780412375964, -0.18644182408160184, -0.21839579115940722, -0.12060451202461059, -0.4618752020622357, -0.37860658643070016, -0.00218262661607232, -0.7250340114674194, -0.0740871646633613, -0.5070872757338379, -0.1580973445719381, -0.3039031047188753, -0.24211723404133934, 0.7122461953656044, 0.39157899380774974, 0.0770432652438135, -0.3110003596757943, 0.2803837400847968, -0.20304821548875826, 0.38280564616674695, -0.32084051586620344, -0.173565799351573, 0.08270769294115687, -0.22713244921961112, 0.294371473767852, -0.30939520583717534, -0.24765674978893804, 0.5633183538412955, -0.10618046609966032, 0.009330314358943737, -0.28358876295419094, 0.14916833732109205, -0.12909445041310122, -0.28227432897731247, -0.22848228306473367, 0.44810011157994173, 0.03343011731891509, -0.2817445627563675, 1.2612926734141778e-06, -0.00287849898391312, -0.30195913116332773, -0.16048637595112059, 0.14059315864864477, -0.33612074338182907, 0.1500360051937208, -0.04566024517097151, 0.13905481382036392, -0.09428862064826019, 0.18384205203415344, -0.33015544930071283, 0.013178704823024459, -0.16173826004536138, -0.36883911336281894, 0.23293096508806158, -0.12396599501299228, 0.15239816671032005, -0.08173890018021708, 0.05445401748398439, 0.1629592988466472, 0.33081942717596474, 0.2673682648179307, 0.3363577381964956, 0.2829784051696856, -0.05376219417359393, -0.06284137002475164, -0.3111815263168555, -0.20168394906818057, -0.1475772732714186, 0.65763979426502, -0.11596941146642263, -0.2849631525098597, -0.10295990379146827, 0.31285247852228665, -0.0029221570808962267, -0.17851593932641102, 0.0951832324884707, 0.12545537955880998, 0.24092065741095325, -0.25722197180844797, -0.2770311031845136, 0.26891153146697766, -0.24538048438146973, -0.1649317445456517, -0.2122327141953378], [0.20171268552101235, 0.20696086306388672, -0.04887438026586231, 0.0626159370957653, -0.2856445240159953, 0.19082805252498958, 0.180364825797124, 0.26476839472093566, 0.2033167382495641, 0.010413126642870483, 0.5939578873910735, -0.2548773647999474, 0.2725488933422374, -0.05838287657033172, 0.12852644198969732, -0.0164103824718208, 0.13549067546092314, 0.3904078653417079, 0.17331520035284728, 0.04257945517303531, -0.36518992266497335, 0.06439308269046062, -0.5007228397953337, -0.2257450334388703, -0.0025182403169276917, -0.6134191767618793, -0.20338298827702367, 0.03629287658696984, 0.1361220500980707, 0.31799654561497653, -0.16506437514822325, 0.13520298324337218, 0.3948765415455824, 0.1959126622747283, 0.013836592793422203, 0.3833513597882205, -0.5682955498118054, -0.08090934421948959, -0.1294611315278893, -0.10990637670127822, 0.4950678691596554, 0.21814504771818094, -0.42771711384652517, -0.3088717746565321, 0.06406939692686511, -0.3388167465579628, -0.3067826461089056, 0.6313042873682178, -0.23104371352481484, -0.05916780253532506, -0.2817987213246689, -0.41384589411110073, -0.3617266800495753, -0.28621983554173597, 0.007114659503580447, -0.12466005532060814, 0.04130980314125231, 0.13724725334388624, -0.5690729204159793, -0.30440879760947115, -0.07543937938139, -0.23917883137225085, -0.03839763145411832, -0.2229798566281775, -0.42429220177322463, -0.23558055761104635, -0.51756189661614, 0.32899634516566223, -0.1472025692862596, -0.002845665495033762, -0.09773647039366945, 0.17045069151508485, 0.3418617625237636, -0.0018652210555307094, 0.25310293887680774, 0.4924037596136201, -0.21034290919504697, 0.27908863623775443, 0.358678810357887, 0.010488576814270746, 0.2328556371022112, -0.0029329293439116066, -0.38548162397344293, 0.09336195195671816, -0.014943508344247396, -0.18025550282851976, 0.017488622159537823, -0.534024447977559, -0.06033741422825304, 0.0921251765834831, -0.0968471997774593, 0.4250448397477995, -0.00474166622867351, 0.015740236486067618, 0.14751529171881153, -0.1124705115268598, -0.255170257125257, 0.0629266316549063, -0.06529082184326726, -0.04014380474260448, 0.23296003021784484, 0.04682352026540101, 0.18105906532218863, -0.3211672794937462, 1.4976457076276091e-05, -0.2156386841486604, -0.3557972692167885, -0.30037374312733817, -0.15834279931684594, -0.3060844902545252, -0.07185954705461634, 0.09332193621954636, 0.5856312405190952, -0.01889996908519147, 0.28616232623561727, -0.04653821555463321, 0.024311675968843857, 0.013958026201196324, -0.008044264657370216, -0.12018074756033813, -0.4610579577847724, 0.030012131400905917, -0.09255661117629112, 0.12604451040649367, -0.3281046047062397, 0.10418765540133366, -0.16375355997915148, -0.1394595113482684, 0.09922095031952746, 0.4247304249166832, -0.40469725878423374, 0.014179146815480785, 0.3225500413511659, 0.4978458492840652, 0.24545118148690157, -0.6515201159026341, 0.14848434739427452, -0.2626920348007015, 0.13824033358909046, -0.24606967859545126, -0.24194072755492346, -0.014831760904067013, -0.34578898127325314, 0.19603277395980123, -0.4835337983538964, 0.18504041723587578, 0.4076544761285082, -0.05848615194007144, 0.1008809464155609, -0.1289113559486268], [0.20934025658439342, 0.015553810835538162, 0.166721197679334, 0.11220978357969714, 0.5115614140183813, 0.0006711623673718309, 0.04215797826714937, -0.16741933564401737, 0.039667116149783854, -0.1038460197997636, 0.5637640425817206, -0.2638154019289185, 0.5615010254257325, 0.06715487633927952, 0.20981854377778048, -0.38117689867051185, 0.27603939372774616, 0.27389066033081816, -0.024441600246334735, 0.3676374678678769, -0.2694551725001885, 0.41479362781838514, -0.08292599070741674, -0.04039549250880081, 0.15500274113578152, -0.29744808252856497, -0.01917274808878344, -0.281131238872784, -0.15818508578416232, 0.3867875442533221, -0.15936093978417445, 0.08413003942008922, -0.18460143402796403, -0.3143747091676616, -0.1734847973539016, 0.49854471843603826, -0.41914515842686645, 0.19522959183163968, 0.017162519625316452, -0.2040000736428884, 0.06549840181393468, 0.44307381222311265, -0.6372915335860869, 0.03593173247141456, -0.29497073479819685, 0.2284176345869945, 0.20149416682400695, -0.1026502410222649, -0.20377174315794302, -0.26740312215361906, -0.5288152094252023, -0.14794258628883203, -0.3847528280077552, -0.18644633585374332, -0.6468106674084357, -0.2705964053355331, 0.09445728865900893, -0.2550310101719986, 0.3408139863892286, -0.2301342108593194, 0.2631839862227467, 0.5990156091584498, -0.12133749398338062, 0.2958253809321187, -0.058583999257212235, 0.07815853928523378, 0.05883155524707969, 0.516173471674123, 0.517714556192185, 0.1102184055518585, -0.04661664973322081, -0.3439604061267842, -0.10833344507858622, -0.26518846920458417, 0.006546565196899044, 0.6608678063621121, 0.10448586858788524, 0.2724086289965663, 0.08235340567065387, 0.1183853482790189, -0.1849131700596331, 0.17470575173277897, 0.3302669236322095, 0.12482035338700004, 0.1970782885663457, -0.2123699120724692, 0.2920090251333433, 0.09112343781289223, -0.7079038411027262, 0.0661366909239266, -0.1345780952033149, 0.031086095221262277, -0.4988700972654647, -0.04850194948215775, 0.1117717316162942, -0.552831395561789, -0.016031486627284392, 0.11328563809038013, 0.18440525269924038, -0.13133821937811485, 0.1263377691432351, 0.4008129110650632, -0.5396148302505797, 0.5894297392357202, 3.198248358149797e-05, -0.25802003087702835, 0.6435287552794849, -0.34829495702756064, -0.24249885238430027, -0.07234666652003792, 0.1282360204513981, -0.23480278601725002, -0.051728536975271064, -0.3990574823873932, -0.07206415874913133, 0.16661207157807967, -0.483506652542871, 0.20972886632839238, 0.01004495563322219, -0.277797582834433, -0.495848685903571, -0.5081584881636662, 0.07645827312226368, -0.22954126836428268, 0.08737839283233473, 0.00583646346063164, -0.1614492726222609, 0.07677524038831625, 0.018312614041327984, 0.23089736019725238, 0.1204390831781291, 0.2712132806988095, 0.2937784752967226, 0.41799235890113745, 0.05414503430667787, 0.36307887435567315, -0.6290215296191678, -0.2343365379005493, 0.41219403738895316, -0.14078854305653749, -0.3265734247971568, -0.014183535503410971, -0.17957745316804583, 0.08647629126269742, -0.19183844974077532, -0.07453875096999546, -0.08294878712130356, 0.39180878167451216, -0.15876031743177246, 0.18013671496351846], [-0.0066633310760574865, -0.1736341667362982, 0.05831259708322733, -0.021190322949612206, 0.023899271838375223, 0.15329249062856332, 0.5525008842548869, -0.6066968997881662, -0.19148259581566535, 0.16951144769427332, 0.07129965979524835, 0.16880233191951424, -0.07256388545958209, -0.2075932220766778, 0.3300384266871961, -0.1000406463565456, 0.666719453750408, 0.8356362820579063, -0.14315723590714866, 0.3969943532933688, -0.3479820635932965, -0.11566196130660963, 0.38446079263151073, -0.2639631266721214, -0.12767758692451917, -0.12801159198233686, 0.29737426415078194, 0.33639250454349245, 0.07154156816068713, 0.08158576103628586, 0.10982834246779385, -0.09726800108446634, -0.10492229106534078, 0.12063581101329753, -0.4304782537318545, 0.5235708281993026, -0.06416087519484556, 0.13175053688962807, -0.3575544811849723, 0.2697148003116663, 0.1565093986183485, -0.3802836473831397, -0.3401832070939255, 0.4125924195806171, -0.6463900951689876, -0.23421118879553324, 0.02131475683079131, -0.13170529456379887, 0.22568541993265862, -0.25037359077758325, 0.01533136710163147, -0.11783460687817068, -0.23011020674478888, -0.025454410059519164, 0.6106217152536011, 0.3813425997389043, -0.27520479807472253, -0.2998486221571843, 0.0953969756575295, 0.36711488229243633, 0.25127892925186407, -0.0004527600823170871, -0.200201555632004, -0.4516313579096347, 0.0004168000308944441, -0.5651306679908854, -0.14282574863732983, -0.4096385387716668, 0.6800765770543674, -0.06335517704089871, -0.3036639864787022, -0.1806964113077648, 0.28193914611827636, -0.2484872407647097, 0.220456250226882, 0.06146493602303328, 0.30417615471347936, 0.12862357895702392, -0.18760853710332345, 0.004217134610213817, -0.6253622005509518, -0.26197853017587763, -0.3181989946700902, -0.08599749087887525, 0.11448318700110467, 0.15289101225178378, 0.21160935916255305, 0.232055898332381, -0.30816429257022765, -0.12285930950984415, 0.7214944060359707, -0.057169315086323585, -0.16972815104197278, 0.3197478872107451, 0.6809363097179998, 0.07703860107506917, 0.05944881821281425, -0.07903769335392005, 0.37345985787480196, 0.7918158038935285, -0.12645166873282987, 0.035650990350673574, 0.03414416182486697, -0.14442697919922076, 2.1403058057673318e-05, -0.09031844626632002, 0.3049729140473205, 0.6304860615026443, 0.1866408961383693, 0.12406181344773044, -0.2264405627037617, 0.06903596391761474, 0.08314853840901223, 0.15163839538975943, 0.829838914904258, 0.10486690553242896, 0.0283806714282346, -0.2139449308421574, 0.07262211927044089, 0.004473165443120876, -0.04162119990269212, -0.18503815645590127, -0.27152275832368655, -0.06184767029763968, 0.582156154880717, 0.09289980519978312, 0.14422020174252434, 0.5929782163794298, 0.16223019751586737, 0.18667070542474806, -0.030034579899449035, -0.0323317285674499, -0.027532948369336913, -0.24985131258403304, -0.28300459425448193, -0.3025967339918686, 0.2921101588247645, -0.6282032634539734, -0.17185723953507762, -0.11235852637321102, -0.3041752564451017, -0.011988175169728341, 0.039904778082221, 0.21226822792362363, 0.09730488770192483, 0.11170364335223235, 0.1523632173178505, -0.32649153543530596, 0.5127574307344316, 0.12196405194883843], [0.11903169656092596, 0.2517685879087232, -0.15246822535453827, 0.033115207941428665, 0.12685507082544473, 0.5725903606075124, -0.1398938955178209, -0.7260958976048114, 0.15378845313820796, -0.003941213880283962, 0.6196188744428492, 0.1954798066425934, 0.10070052570548023, -0.9307879003030437, -0.3411128659833839, -0.09268376380201256, -0.28337273855581807, 0.06318332006846462, -0.07774644723778529, 0.023687436205701153, 0.3960542074427895, 0.07444321143743961, -0.4558558135821071, -0.3084301097297541, -0.21270329949326958, 0.24313526072575817, 0.3677751439438602, -0.12946636945168374, -0.535325320213079, 0.48952808308576057, -0.21667637889587546, 0.14319831748662074, 0.4219247928376889, 0.26554850349666725, 0.16187594752879575, -0.09879618223506448, 0.33984973091597503, -0.05004190407583964, -0.44460599288832553, -0.335398316609503, 0.41876351428073083, -0.6392862804819262, -0.607862856345896, -0.16784774915598416, 0.41702484432915865, -0.11882866750080975, -0.23422458683451158, 0.2764321248618979, 0.1019996226266237, -0.6884233884942909, -0.18214490290258073, 0.09483170456111818, 0.18383964820660773, -0.16286072123597659, 0.06355602708328632, -0.059426027622062415, 0.7401204540694147, -0.16990701889656987, -0.1805585752345374, 0.39234008790407526, 0.36013529788908677, -0.17779779846091506, 0.46995466856847745, -0.22477319366420717, -0.5835559552677666, 0.3822919703692302, -0.39047994190657836, 0.5869646365573933, 0.37486260254267284, 0.15619783003154164, -0.29686291125006287, -0.17061572284639678, 0.17518349006452583, 0.20322441038325118, 0.13609531339744083, -0.34512711998477774, 0.568229229447087, 0.2775233696817024, 0.03152637765641269, 0.18310773649127754, 0.2651601653236328, -0.547726494704797, 0.36784499479363875, -0.3429037569695174, 0.2813253871441358, -0.16738084374294185, 0.5576374482349195, 0.47642836043570364, -0.3037705405577906, -0.1967438822025806, 0.49560527778641567, 0.14405599681152348, 0.08542161553770843, -0.06405984716149896, 0.5100093508851825, -0.43118125914014266, -0.38178634633357167, 0.33491685661217635, -0.3263867441095879, 0.4551727470619319, -0.05006768398533884, 0.2014575774408113, -0.32648494260879307, -0.1428726158892058, 1.7584576378753024e-05, -0.09869335597372333, -0.12486619586674087, -0.3511576466688997, 0.9331962650605413, 0.06302711847634396, -0.21320330564427703, -0.10211584708904095, -0.42267969432682934, 0.09467259935058774, 0.028084794176322186, -0.12810436075123596, -0.2385464161885605, 0.5585315030812376, 0.042849993558764794, 0.3153011906889379, 0.1689626523398312, -0.434891559034927, -0.1810781225370948, 0.24998014221017198, -0.28125193697513706, 0.25879657061477257, -0.2530630813198679, -0.3475379855279304, 0.2420675226817897, -0.257474186309162, -0.0248646143486194, 0.5805141884177711, 0.12478616171822925, -0.11051571524663552, -0.6432305334884176, 0.041443542732460856, -0.10442162809909634, -0.36325125259971186, 0.3381019493268852, 0.16576786983045913, -0.2715221307766791, 0.13727353969124864, 0.039271778843096294, -0.1290986920475434, -0.0841351261519983, -0.16881830989334345, 0.5628274818178594, -0.23711839043579103, 0.32179470629667, 0.2560745908785971], [0.25874642021490507, -0.5091027858290853, 0.5726583732463199, 0.09007352266527135, 0.6365855347983158, 0.03116513054113676, -0.24307614525282534, -0.0033424308230777864, 0.06692463588144826, -0.021106314130746682, -0.3277098905210509, 0.6637953577852687, 0.8271004714870694, -0.1455582050058913, 0.08021764061841537, 0.2599933745619701, 0.36050000044661795, -0.008552487531556116, 0.32868613254206286, 0.09753497209534558, 0.011258573402246643, -0.04221920160872824, -0.35915548175505435, -0.3907218964281297, -0.14848255913452374, 0.04127041635126223, -0.40018137840999496, 0.0733804779255573, 0.009187611819796436, -0.09057802975029834, -0.191823292054727, -0.11613658483247434, 0.28832499601239076, 0.3293077176594457, -0.0001407988426041616, 0.11297260148274586, 0.14248137751929263, -0.19672415988283234, -0.04130089983218365, -0.15169234201575593, 0.06058547161452699, 0.5346110649343206, -0.03059779496936419, -0.4989516400085798, -0.13110990004565437, -0.0521788878010995, -0.18298533417282645, 0.1470047907139255, -0.07074597773054322, 0.13851499663130187, -0.1149980226156074, -0.21758469387863738, -0.2572314194283413, 0.11073237830547897, -0.3217393729284799, 0.08086484267085568, -0.23292993322989486, 0.5796828017575353, -0.12628250325142928, -0.093906933991445, 0.11269741127246756, -0.006700221771239316, -0.559765627252741, -0.11792153757624638, 0.007907303449349404, -0.24820931086722559, 0.5838206692152407, -0.06950413214597977, 0.13396341383238958, -0.20769202007129034, 0.10403427045560619, -0.13043600931618798, -0.28074397736757567, 0.3484455932766798, 0.14001559909725392, -0.6551097186989895, 0.05825909678592645, 0.48175314892913235, -0.1133428769714012, -0.09684204208537815, -0.2652785850795984, 0.04539790135569173, 0.12441941446399098, 0.13912763666061367, 0.18117913470798228, -0.13586653427517675, 0.28317510303218185, -0.315118012706377, 0.012145930848160126, -0.0029808274249674715, -0.11060656165307468, -0.44685720684325136, -0.5770139140265742, -0.07780028099002771, 0.047464850891609796, -0.2204973153310074, 0.24744335980695492, -0.049922229557477854, -0.16305158098435618, 0.03893778962787742, -0.3665302483639194, 0.2548866676048914, -0.1251503624320987, 0.20811084090025406, -9.193057553022154e-06, 0.034495871482267536, -0.25671635073405724, -0.1531222647644213, 0.04528258207032133, -0.03153112583777973, 0.13769118750692785, -0.20913492605476497, 0.31221409662242233, -0.07162252682876408, -0.011558437390026315, 0.1065897920058497, -0.5895102067254877, -0.05632567082319408, -0.564578268070533, 0.23719843220333361, -0.2688316434727818, 0.18133700565965732, 0.6485591383875807, -0.21607112877751597, -0.05493153538365218, -0.01576562590202332, 0.19552393262355044, 0.1916148103799695, -0.049937182769835234, -0.11550551618077312, 0.11502001035794117, -0.22569216404505035, 0.01680428454394025, -0.40159440468621904, -0.014053338472340604, 0.2795700183664849, -0.45387968021382874, -0.20426299113944626, 0.11563140416954047, -0.2267045051463506, -0.22352254046944892, 0.08139160372024619, 0.14264932866284255, 0.45080181519200824, -0.023326307943416787, -0.05944787146819318, -0.29951316597528205, -0.4329873808434787, -0.33879443595755576, 0.06838196877503003], [0.24962728781210114, -0.26795966597236087, 0.25828127215537283, 0.03606888345000799, -0.04098974032372129, -0.029424971160532432, -0.0330634668224897, 0.43404096973466566, -0.004006254415634532, 0.5573894570146443, -0.28104080769287626, 0.5836067167931062, 0.11408766298318888, -0.11836246020114605, 0.116775909767136, -0.09208681496636725, 0.04481214333025856, 0.06178074106480791, -0.1566617919462501, 0.5261699053551092, -0.1589780354869501, -0.1026671833964133, 0.08271346561735125, -0.09025805842464558, -0.2507818274072046, -0.2439765252612868, -0.027013813932525076, -0.16786673331866508, -0.3461244995959729, -0.3217513805723756, 0.3645192164076651, -0.12994034802140597, -0.21678655051438211, -0.1995533508184019, 0.09339322148928642, 0.25179283454154483, 0.44558151224559095, 0.0037911624898991875, 0.38479853089029004, -0.18244897278341246, -0.26028892261145126, 0.3423523259609544, 0.025330687528479383, 0.12035034580486619, -0.14951509901962273, 0.029982124088011552, -0.1771176455757055, 0.17717500809405745, 0.17168741653295752, 0.7681188118663803, -0.10679437513161222, 0.06665752848439664, 0.21142142294582383, -0.1330820471319634, 0.11065637020956011, 0.3991559172617227, 0.30579009510184035, 0.1664793442327508, 0.16166558809852344, 0.046571853708852626, -0.3633946937407311, 0.2120600804918478, -0.09808980748414477, 0.1207886885719202, 0.3159268901191343, -0.1374163391965385, -0.27409976973396055, 0.43694937009939544, 0.09922448450504927, -0.11247692013948263, 0.1582958871267695, -0.08219904728681651, 0.2874750462071569, -0.1350090961412941, 0.3482546438698401, 1.0249982258888182, -0.2707206037865263, 0.3497780860553264, -0.3136679461972046, -0.19864801469971163, 0.38049292988854283, 0.4544967365257836, 0.1801240783062827, -0.28835084803330097, 0.017409434148768412, 0.44721855246401504, 0.40432085216478053, 0.1963431012819646, 0.04500304163412311, 0.3100136507457317, -0.1104593374876084, -0.07309357229889495, -0.0350977781377516, -0.3588789810619775, -0.5150247137090285, 0.263246896662991, -0.20984827172460346, 0.05733453361869956, -0.06377787434089102, -0.04048155875123791, -0.721592897058473, 0.7467293250107663, -0.04926259652190928, 0.35731868570499525, 2.4609034002572304e-05, -0.22840827553077034, 0.35746098580940705, 0.3234576748691866, -0.2589624788252105, -0.021484818437505656, -0.24708086118606742, 0.210644567603106, 0.31199939945907723, 0.06534485185092616, 0.038662547501574565, -0.38757455239198924, -0.06268637152487258, 0.019281418032395886, -0.2693322343860452, -0.1016565118598249, -0.40613531257561447, 0.10265388308953886, 0.26293075192266124, 0.38230815098029763, 0.7262571993200184, -0.17356045051062516, 0.04905930283917656, 0.6264575723008379, 0.17769503483464907, -0.37822726419189195, 0.20004678450477126, -0.5041940372449211, 0.13210715332717918, 0.22566072335464737, -0.3941260539902285, 0.08624802846771297, -0.37177262658607235, 0.04358781856502481, 0.16810618811269032, 0.05537610083873666, 0.19619202599273194, 0.03410576735553753, 1.0180193326047926, -0.13889592343359342, -0.013704015085126824, 0.05278817312368497, -0.28267515111283925, 0.8270021438945571, -0.048351786899008355, 0.09221547450688104], [-0.07411010220356122, -0.37843927598280347, -0.12293700443197855, 0.2595692449508637, -0.2511063003712954, 0.3644422875681037, 0.3547016141294079, -0.40852443432655056, -0.2731996446535571, -0.4271205414497119, -0.29804434661366536, 0.3995982923260726, -0.26647570481346083, -0.1941200323207259, 0.5641182157287737, -0.05196210589671227, 0.12185358164370887, 0.48871478279866865, 0.17934852925171485, -0.11006640262804696, -0.15016719707559745, -0.3292740288753957, 0.21639850985942788, 0.15888516250815976, -0.512236279159051, 0.36943427494256137, 0.16598197445189813, 0.1798109869352713, -0.17016096579438875, -0.2798459313275858, -0.12301585959215977, 0.19410631728201286, 0.0011232430405882406, -0.4716055507764297, -0.11294838383987153, 0.380957060350312, -0.35728257023653504, -0.290657774600879, -0.18438602325065415, 0.2814807927697392, -0.22453814015313003, -0.273182843996291, 0.0907281827624168, 0.03568255547115285, -0.24979772547091664, 0.016312139807264144, 0.2123679488210387, -0.04577641021276042, -0.0021105881647772674, -0.1567202765977275, 0.3111343899831879, -0.4668488120052391, -0.5472720911060326, -0.0823101143369813, 0.1747446942065035, 0.5521109750474485, 1.0484745020654587, -0.3651898226188466, -0.4237620556035566, 0.576161109099312, 0.0931098995050187, 0.04464874678149932, -0.21208181633122367, 0.14944703730463307, -0.17052318668867583, 0.22569004140058224, -0.31329840123362845, 0.20617906286844032, -0.043793494532458885, 0.3867220015514993, -0.514706608206887, 0.7881339971944171, -0.16043363036707825, 0.38392467799308677, 0.2622791904526342, 0.0032682155422232057, 0.13671016393182467, 0.2520958775156894, -0.1831168957203915, 0.14891391261275627, 0.44692941248630275, -0.14167824834587578, 0.10374886415675048, 0.15021051200624586, 0.28077182694820796, 0.18551491347098514, -0.4839512111988106, 0.1595021310466258, 0.29991760225957315, -0.036940395743032144, -0.05951888263825305, -0.09288125556200398, 0.15833171940294796, -0.2020348892623504, 0.004858029345836133, 0.11045847813356523, 0.17329060962053808, -0.44530683153361444, 0.18000360634652196, 0.10793988254204182, 0.08390050573096226, -0.36597787783148034, 0.33166338570869686, -0.2570190748631599, 7.636473313708583e-06, -0.7888726520488447, 0.4223564285285889, -0.2607090123186942, -0.6135622963115346, 0.04349398669205737, -0.3071399877237795, -0.27845319613651337, -0.037374591885832205, 0.5297975277626047, -0.10121251635508259, -0.04869959527549261, -0.13303001810447268, 0.27576764938786474, 0.3751262894304236, -0.04566618828959973, -0.07896981233789414, 0.21700355879436148, 0.39176463210331947, 0.10074852783526983, -0.3395753828983905, 0.014657152550145094, -0.0475859786933259, -0.19787200012112408, -0.4115480131318274, -0.3122491868533625, -0.44986816741036223, 0.2441718761998859, 0.5975884481554978, -0.5282265793417091, -0.1593103763364959, -0.14442077765596908, 0.19260767571951518, 0.049815297905922276, 0.1817473489453713, 0.22122230664681086, -0.7105456295972238, -0.17850053626194837, 0.09552365740382668, 0.1084007193934391, -0.28292450039643174, 0.01747810209787702, 0.32686284198616866, 0.2269264384938376, 0.03303039678326251, 0.04395376781532811], [0.07875286810034844, -0.20365604138666318, 0.3470012657849454, -0.005349011937854862, -0.20760018873925729, 0.32420202438648477, 0.19644668534339535, -0.45426446903705586, 0.30850665212129075, 0.14791097688216717, 0.054975747768623906, -0.24968050915828677, -0.3143751505926773, 0.01689628324937079, 0.1800597796139442, -0.3550549567280514, -0.1259954719021813, 0.303009424168853, 0.3766342316355147, 0.05810633373550069, 0.34750430847532987, -0.3104669934904452, -0.04373993748481128, -0.11433817666713353, 0.1950135002544132, -0.1081766913854926, 0.13558188335066468, 0.10388222396218448, -0.2747517784333825, 0.3025773467268793, -0.4576346648170669, -0.08691768873801917, -0.12876908254555033, 0.06467797319895253, -0.27708157791015303, 0.5551110141335462, -0.09061930410488796, -0.38685616676006257, -0.16104557098448027, -0.10163554555509463, -0.22157870447870417, 0.24116979256649718, 0.13947247254172407, -0.22123840726558533, -0.014963131547534718, 0.2947985154046228, 0.6152505581390187, 0.14365383299664478, 0.09811478570684284, -0.20405285578457566, -0.4204903739210285, 0.5000435254674022, 0.5454963086843331, 0.09521592519599476, 0.4500938273204369, -0.11064140396430294, 0.2943888622360143, -0.06934614383720293, -0.352728394235425, 0.03702597407484813, 0.11301960916595288, 0.4746860736335388, 0.17873260436727353, 0.01974011833645629, 0.6228923069329494, -0.05161757753348388, -0.13162602337438073, -0.11066852857548602, -0.05496353859300416, 0.29478839023052095, -0.37408834905659927, 0.3764420083555536, 0.0574355494756714, -0.17324216458101407, 0.646866736810456, 0.2140071021145718, -0.12918408116172583, 0.1691353642766915, 0.308676097275051, 0.6284129388459525, -0.7900541389489473, -0.07898326529611181, -0.05703077890205788, 0.059044607343980565, -0.13091518296357396, 0.050172944515029946, 0.27006759537891534, 0.1136922014670434, -0.039100034315609884, -0.15118669957396055, 0.15184522161992897, 0.006717018348264374, 0.4067660566614543, 0.2679196952221614, 0.14891056733965433, 0.18928576485272294, -0.2461761379061965, -0.15186680544009643, 0.41282451747991816, -0.23754899251623712, -0.005876329153122621, 0.09572540463389631, 0.27290257902012655, -0.5337301486200465, 8.926708518258038e-06, 0.9115956688725446, -0.18214481553848655, -0.27706872336267463, 0.17065824875587499, 0.04845408216278164, -0.003987883119577082, -0.30600070488048403, 0.1716722039357863, 0.3961460769913608, 0.13536202309719944, 0.13207474376227155, -0.19217479368958584, -0.15108695024751656, -0.32460175081527776, 0.04406602418022185, 0.38452200216024307, 0.10961314753380808, -0.30893774648286937, -0.5018089850939486, 0.03039166566239475, -0.6348739996024921, -0.33711581692596093, -0.5407813808391413, -0.31892901968420384, -0.09800886823662894, 0.2605602361262385, 0.4178006374234444, -0.10981097109177694, -0.3689211573494645, 0.38024774109177084, 0.10290825697013896, -0.24441736791959856, -0.05893834287877289, 0.3056273942586312, -0.10594099013521767, 0.5641543014680515, 0.05801879321019338, -0.11705665594609306, 0.05297018405473364, 0.03226872420259427, -0.055494652738691856, 0.10337510614883776, 0.04498447354740831, 0.6773920573468406, 0.20395456723877003], [-0.26403506870371735, 0.19883882514222329, -0.13761358640230753, 0.5278782947945667, 0.16203680527836922, -0.595403654176828, 0.10471168215493155, -0.1686671659970305, -0.072646428317415, 0.22818009048891105, -0.1630946991821681, 0.09058520977910735, 0.052219274602523916, 0.411764460034175, 0.029322772728514686, -0.4614620467789916, 0.2057520495794451, 0.3130851416655622, 0.05650338318394986, 0.47164298586891396, 0.4820043889579697, -0.27681539819783696, 0.24677802724929992, 0.2362223052193279, -0.19186096240796616, 0.36202877931664257, -0.39166499912617314, -0.16286751633727586, -0.05134577320816608, 0.04078829657580973, -0.4346622885836957, 0.27337047155314986, -0.3565034427459985, -0.5263752200583235, 0.2732765158075754, -0.3653738676921892, 0.45403964495765353, 0.3136841842499965, -0.3334048411617065, 0.2285148656096072, 0.2241899771837937, 0.19161058614555884, 0.5381462298616554, 0.004561753621947294, -0.2308104532024744, 0.8554300946488245, -0.46020798572574423, -0.18042192508019733, -0.05608889672742253, 0.219267735123454, 0.06142305359662575, 0.10557397722513484, -0.6264585893754029, 0.09312264595142554, -0.4945864388309428, -0.601711023932351, -0.06057310687075541, 0.5373070417565698, -0.0489251678186188, -0.0970728884694405, 0.49822360593286563, 0.36301236871353015, -0.12858411406895962, -0.2879948539764583, 0.2665884089111852, -0.41859819429543044, 0.23566541907672567, 0.25071958408897044, 0.34648891064396425, 0.42864785691751783, 0.1152431387405475, -0.05086475105128866, -0.07137350062492373, -0.005146765797734833, -0.046824574679810986, -0.23508999444319847, -0.029251389313759847, -0.2797588673111316, -0.011015262477015479, 0.588548873425753, -0.143706711516992, 0.18239549093612767, 0.13148005243708205, -0.44376312006826946, -0.435424076191061, -0.001898423174513508, 0.030136871208203596, -0.17248806141975834, -0.1602112656934298, -0.0776540939136949, -0.04838602083215441, -1.0235536451632052, -0.18981590448294278, 0.05012178397508338, -0.10680104623520524, -0.5360326008758898, 0.4749746026685858, 0.16856032954339806, 0.06038815801078805, -0.19249729622081058, -0.06258671941792988, -0.36773020093974335, -0.18039841156149394, -0.10054843761240209, -1.2167118420104933e-05, -0.7901910475855219, 0.3844791451125468, -0.3763521582478909, -0.07853718535098748, -0.20815156011420768, 0.41125270805960146, 0.26567521584469406, -0.2653438129443291, 0.23473413118583278, -0.3005126281338759, 0.1180931960767196, -0.10115993070897536, -0.14394359509596602, -0.2405217776855844, -0.21241106674437157, -0.2278947275099576, 0.06423538501914831, -0.4597770915547399, -0.012261976402881488, 0.23401416582981455, -0.5893512551736765, 0.15693142289025416, -0.1812078288401487, -0.19881138675261084, -0.01903081751543702, 0.38989474450760037, 0.008607482607347672, 0.2737053927270695, -0.14976830618037987, 0.22932599595791672, -0.15671364958948703, -0.10213527030574246, 0.13366850299338828, 0.44781205836330323, -0.13475767514104317, -0.13039921459346318, 0.1524721475276315, -0.23296496517970225, -0.31043572145553716, -0.2731683607312229, 0.2782049985028593, -0.104191410383028, -0.20900965302675467, -0.17248073183509433, 0.2606135705701328], [-0.4602579323143637, -0.1971352715078492, -0.24016604003068306, 0.11316102740462206, 0.29004057696569946, -0.3105083033171869, 0.5498526641502218, -0.32428455956055213, -0.2822516248575082, 0.47355126049811197, -0.3410424788604043, -0.19398263586745196, -0.13014297956198098, 0.07898148148715703, -0.12788261477175414, -0.23623850959942666, -0.08189253766399793, -0.2636349499993557, 0.19242662427146842, 0.20106798404599774, 0.06175198320269486, 0.027869209297655215, -0.5459036380991081, -0.026516389229275492, -0.8921206092303795, -0.2906999921627687, 0.02688502486398069, 0.12564208865186596, 0.090839236015426, -0.3370749671318008, 0.25819488754718073, -0.4342904376090534, 0.11261480513786754, 0.024613605577084054, 0.03259413781895125, 0.21028105961241927, 0.3740088530772896, 0.3757100896568979, -0.3307609241769385, 0.023747174188018597, -0.5780739277198448, 0.13442096674184317, -0.05748514411518314, 0.0811806820873264, 0.4384661539248318, 0.04228423902283879, 0.3094004672847822, -0.23220425841537784, 0.16710901419358798, 0.3019283794266418, 0.3636205879278189, -0.6666274680366134, 0.3936756953084251, -0.15592366955470355, 0.07588121247584557, -0.04577808347280359, -0.1408555533703757, -0.0032980910537485247, -0.7183918343727732, 0.06220022339290639, -0.18447919950149094, 0.08039411723044118, -0.07235940623861657, -0.30874627311957664, -0.3418103431520729, -0.15509247445458926, -0.5296818045833058, -0.5426324373813879, 0.08422631299091557, -0.46112520516246897, -0.4396322980105615, -0.50590356242925, 0.42653528553006886, 0.29610757554635986, 0.7515248124364752, 0.13067197415378662, 0.02587014093080007, -0.014101014079366187, -0.42580885469165264, 0.6233778663612898, 0.25597253399189773, 0.6579424061879896, -0.7091331355386298, -0.07003265550438718, -0.12419137039751992, 0.27663833106859526, 0.2515734989938053, 0.5674742190852347, 0.26200968760804577, 0.2689156480141406, -0.08729891082726617, -0.180199383911116, 0.03887722146468329, 0.35284357698799146, 0.0791889721637149, 0.40470112146159665, -0.16056589205882943, -0.3079544454820858, 0.40355002180104727, 0.3842528198797727, 0.5087272679706688, 0.8414600741383896, 0.5706051212834444, -0.2701080890102542, -6.144336507360748e-05, 0.14994539001586976, 0.3403231534079119, -0.03003204259415898, -0.04717399310104513, 0.2688699322996803, 0.02062993571402287, -0.11410849731996572, 0.3817739010189638, -0.2548273297825333, 0.3388243899404035, 0.06708941900928615, -0.06892806488872302, -0.3757736811274777, 0.040358808868535975, -0.1052883031750084, 0.2760361913310548, 0.3316077755388906, -0.3925692529380433, -0.10305204832825363, 0.3869775156468772, 0.7298085185632127, 0.19226278513307915, -0.035668694874810065, -0.019201563126821173, -0.577170805901364, 0.30951325324041773, -0.27714927609841966, 0.41952108357464024, -0.7509332751204641, -0.1478457027772907, -0.29702410544798596, -0.002931476695193401, 0.0015386088442305294, -0.06994374930750151, 0.29330238802811553, 0.6399429352488889, 0.07592399588919652, -0.14434690323978067, -0.007888654350680533, 0.12559262142549607, 0.28943382154933434, 0.2628251270311778, -0.22814480170099127, -0.14707035593255183, 0.4525169411164878], [-0.2994703184645082, 0.8844407164499257, 0.27432187416428555, -0.20378933116799053, 0.7797780030885069, -0.39374596870500844, -0.03333897844846119, -0.4212046841316638, 0.30230007770655226, 0.11438030465438712, -0.2518456827798832, -0.18075426217858911, 0.019816263197174076, -0.13109737031323868, -0.5094865997126252, -0.5406976172433389, -0.4474988277076623, -0.1918713542044134, -0.005089874080733798, 0.3495428634136086, -0.47904171104693877, -0.4761264251239622, 0.13308650841174505, 0.8018882677508663, -0.10299403829104908, 0.0528128813412457, -0.08562582674357183, -0.20297408280863047, -0.400711923187321, 0.38079995389653715, 0.4483910061051805, 0.43034569539006146, -0.31792311194177186, -0.2530335691571299, 0.29174846568547863, 0.1333584649827276, 0.3339508161860029, -0.3815888034054933, 0.07290096286269405, 0.8258740207745111, -0.1668449020561454, 0.3913422799343135, 0.08422818988015751, 0.07579653724512522, -0.12085061950377829, -0.09400785128605013, -0.2810976477923512, -0.44478782532605593, -0.06671417675137485, 0.26913114378490743, 0.21372245810662957, 0.00035315245118010464, -0.5293087579873417, -0.06776005819505271, -1.0158917151533584, -0.30997595050455506, -0.07233113412812629, -0.47858227368768724, -0.21554519153637625, -0.38688084228919334, -0.4943459801132705, 0.13812092307941617, -0.5870089432526719, 0.0248481621219137, -0.38049294615566537, -0.456843235803628, 0.628642627170848, 0.7148516084382658, 0.24949902389671, 0.3209026484976064, -0.347014850866839, -0.4666211753963948, -0.4037295548590605, 0.10571882709777286, 0.3202771377836567, -0.055194325538147244, -0.11847560413744128, -0.06947563879042179, -0.31324058430269336, 0.05950667971439466, 0.2621051962677185, 0.13435169861902785, 0.1352047600482673, 0.3323849526476621, 0.31696585052138077, -0.45205393201310784, -0.18363303851016125, 0.9780209483834921, -0.3206190226855797, 0.11583267314241395, -0.1741496247853722, -0.16835979510943583, -0.8035574585989763, 0.29270738617557074, -0.0446619993065669, -0.30767400824240626, 0.11214615170780169, 0.24913588972923834, -0.0035104114358181283, -0.25822426703813733, 0.1923820987033324, 0.3749515296874365, -0.2054114904377144, 0.4241181544388276, -1.2089998260846482e-05, 0.025105915723001755, -0.1727237364005905, -0.26194457060536536, -0.33894943340987194, -0.10975126456299679, 0.17218780140540343, -0.6365139498969006, 0.30653655093571053, -0.3498457874607964, 0.07150679095782844, -0.2493903903501847, -0.06194889985900763, 0.012414496629791275, 0.2240701868533455, 0.14922367599350872, -0.339699073716702, -0.07190452973123816, 0.10106810609498748, -0.5324048783615736, 0.4823123581367718, 0.41681109502410935, -0.23413765853166826, -0.17681564191545573, 0.09166360502291256, 0.10833322981310714, -0.9442563230720676, 0.44560267091746564, 0.1742220103003447, 0.4357850902556753, -0.26844699462587096, 0.5265653525632034, 0.04818488200799658, 0.42529433922108495, -0.5497145380736558, 0.44920209887039375, -0.32426551610974225, 0.13572339672477146, 0.14885614721467683, -0.6585593113004604, -0.1952368295643043, -0.44164135528380555, -0.5169907453689124, 0.20837569916417578, -0.6484607645043999, 0.6003035572874033], [0.10104699305318744, -0.8235460863918127, 0.13200704602017546, -0.3253865123749769, -0.23169750343543302, -0.2162068526523677, 0.06883079994082432, 0.08808963025966124, -0.056076591597938416, 0.12120231898120841, 0.6163740756505919, 0.01684150406680391, 0.26937554965376986, -0.10115573683629202, -0.3303623570023723, -0.41441189211420854, -0.21221096904303974, -0.3680885990644085, -0.28239221923352564, 0.47745859639391797, 0.4280041277035979, 0.5218730245635937, 0.3360891808467174, 0.3101486468456745, 0.40687975557868494, -0.3256064244167807, -0.4167207892460009, 0.1553283518765555, -0.027826634381344646, -0.0853120520262144, 0.18835523159588882, -0.38289635099041336, 0.05007129620867348, 0.4704807294107383, 0.4583319030977821, -0.513754723176935, 0.315380396356783, -0.07582471091404254, -0.12339953686209133, 0.1837580708847384, -0.1847590988754297, -0.14341112634153, 0.13743938311613066, -0.33968902229039066, -0.0961896632175187, 0.3588555534233005, 0.08052333682715318, 0.04220084787369448, -0.1887957654652365, 0.022586027037365064, -0.20351417017308726, -0.038079284130201174, 0.1307515785835705, -0.050849728309946135, 0.1281092098869684, -0.04658594207668972, -0.30656669244726914, 0.28037755980483087, -0.5506514233664385, 0.06862003794357112, -0.5227772641103113, -0.08476012496377229, 0.39774926343621675, -0.2517342881941014, -0.23875688027489192, 0.09322570996655472, 0.3584593001752717, -0.3713453758312093, 0.09322674372773958, -0.10568340687609461, 0.1717576361046386, 0.058503564943217505, -0.022699781499089706, 0.3535456154271787, -0.14825641257466907, 0.026974869409302386, 0.4045683958459533, 0.18274837771613026, -0.08672577890512306, -0.25738876316707143, -0.3071799942107472, -0.3514930173151228, 0.10150470913405772, -0.2093855659093659, 0.31132663554838885, -0.11650361763325971, 0.2845062196439747, 0.2142412676959438, -0.07456786240112952, -0.1359624235274476, -0.070414603024018, -0.6695278779960413, -0.14977434372713008, 0.4554581520289818, 0.7793254299333033, 0.1519763294360274, 0.6117476553433667, -0.48685840742615266, -0.3083437341970307, -0.1580511708683272, 0.07464561670043646, 0.30534544000383207, -0.05188209233315684, 0.6623943695563713, -2.306851516533171e-05, 0.5424098519527645, 0.318270039451361, 0.0671059818293473, -0.05878891715766285, -0.27715918394684463, -0.06026513293985206, -0.025060438583908, -0.02829655107376511, 0.0677350895489583, -0.06958997975899597, -0.08668215685197267, -0.3284600325546831, -0.22069291944099315, 0.24885109297037195, -0.4148742787716924, 0.10341788034599678, 0.37328030677966595, -0.7765557777384656, -0.37347935475573335, 0.2551968295528375, -0.17674363851146796, 0.00771379124893708, -0.364500661230661, -0.2567031069760249, 0.36475566875538357, -0.38631919295139244, -0.3897206296784383, 0.38077786600916425, -0.15304201148337054, -0.031709482280914546, 0.11158583969268163, 0.09490815498951068, -0.19691612260697672, 0.33049231899608267, 0.14958507039909813, 0.7671959865831174, 0.11228041321267422, 0.38626173782597467, -0.9377792345402503, -0.41281457273809535, 0.022981577334390643, 0.5078260473647721, -0.2754033763750748, -0.007349296311330059, 0.05208878232382361], [-0.14722867213623042, 0.22210876082113626, -0.2770039323963569, -0.04786205276494162, -0.259701959908871, -0.0764828272945328, -0.20544448088294645, -0.43260389975055835, -0.16727265945923225, 0.006193006655816496, -0.06653612175369951, 0.09351690053104347, -0.37361579832501407, -0.002918541770153956, -0.28394692727726917, -0.6168782210768835, -1.1351658608240254, 0.18740895064558757, -0.23426836805779863, -0.12392087154311535, 0.3806226286115601, 0.2039401117675931, -0.08685827638631921, -0.6249749989052128, -0.10052820998976868, -0.4398778194343025, 0.04584702661112461, 0.1979021939179427, -0.3939762255347457, -0.05428007671735238, -0.21246419807181993, -0.350519581318836, -0.21079461625058743, 0.04691208258718652, 0.13800967925943802, -0.6300640019737839, 0.2491404780530425, 0.5010706550146506, -0.21065718304883224, -0.5224251268114477, 0.2835991911241439, -0.4088707773124605, -0.40667062855107183, -0.042382918835782595, 0.696417013284152, 0.32876094193803107, -0.49732573635838734, 0.17662330118564984, -0.13885254574684128, 0.02559670520653911, 0.3188519620379965, 0.09409607968736321, 0.20452940077894882, -0.16319200266150496, -0.3104259442807126, -0.19858323295695443, -0.5367469543541056, -0.4162936674973082, 0.2995905822751761, 0.22661103906663402, 0.050943760988050146, -0.2128278471708163, 0.510239849519309, -0.6969207378206181, 0.1441996477256459, 0.047232402626683434, -0.02545575821407054, 0.088604915759583, -0.4271204970929466, 0.5379812782795518, 0.02535432915966489, 0.3251046509124609, 0.2090012223390135, 0.2608574949333792, 0.3262800617941016, -0.16287940738802595, 0.4853392252717638, -0.21934783144623518, 0.3239569754730142, 0.5258984829256061, -0.5384952447462036, 0.024837755831680092, -0.21624474401046656, 0.2957429216360612, -0.01909878805850082, 0.22570332403335652, 0.07978905814189696, 0.3899080636165214, 0.008456018700651319, -0.12651589783885878, -0.4081986329969631, -0.011937715345648043, -0.20873718186672685, 0.004158320753162584, 0.18500643214140172, -0.01719438710164861, -0.5003150908463454, 0.22363233451856912, 0.25279332479901245, -0.539665263817466, -0.04730647384718877, -0.09364048235411829, -0.21644220330475114, -0.2705628037657297, -3.22580606805377e-05, 0.4138099964827792, -0.02582417528361193, -0.43534484817287505, 0.41598213779592885, -0.11565788875658124, 0.03541223025856419, 0.12078502254783317, 0.0796065357361179, 0.6365807704398042, -0.027155700051042262, -0.014648778131938038, -0.2673915817567321, -0.2483221019211662, 0.33558149674740334, -0.4873097463177896, 0.23725805371667777, -0.0391784233098932, -0.18950727999198325, 0.5436118950837616, -0.7280746380930112, 0.09491727663865843, 0.12096927802084602, -0.31662128398836165, -0.4110709219659806, 0.44347787060050176, -0.2514632823944374, 0.17190279750639936, 0.4173150892883253, -0.16433604031280505, 0.3748180696473905, 0.49146837656708975, -0.2633118492236254, -0.6263674119347874, -0.03523425940373175, 0.12294202463161502, -0.03374833247740176, -0.11042937825261642, -0.6627021444699069, 0.6567805699819909, -0.32476786981947636, -0.13170596090532874, -0.07610609150817685, 0.1501201750139973, -0.11953424759037153, 0.09914629884731876], [0.2708437985555325, -0.060370964642698546, -0.2189594466994467, 0.12755089357060267, -0.15735476189507056, 0.028105206858851168, 0.3973037116816509, 0.1655192001148197, 0.2218056035751866, -0.2775431014825135, -0.06949378376900336, 0.35825531742118955, -0.04509002753951389, -0.03983041390111636, 0.18139392184536032, 0.1487312738526851, -0.22610800259351477, 0.2271794611035743, -0.2855958033436392, -0.36741872417601834, 0.1453702436182124, 0.3054805705077047, 0.2946991941727947, -0.15487881047752391, -0.330925018810141, -0.4629126213199319, -0.15104293791043794, -0.156723404634706, 0.18302452070901876, -0.25335549905251664, -0.5196852789882402, -0.47393653611066683, -0.23193459170244518, -0.11504331239884243, 0.5970587000429887, 0.23745283319119148, -0.4717552394740698, -0.29467816548952497, 0.2006873990354929, -0.38991605711410027, 0.32871687351530954, -0.14838723318954147, 0.17203055320133898, -0.05533941783947225, 0.4962177645820512, 0.05937938891824125, 0.4004877590378653, 0.11587304846899947, -0.3807428219442386, -0.00486360611346087, -0.20503810664627561, 0.12670437027534692, -0.08956871218484726, -0.484296997727149, 0.33331527883804624, -0.16206503774366549, -0.6163662552227744, 0.3789586092863318, 0.10153302084422798, -0.14927152435692911, -0.214295324355074, 0.40289916074713944, 0.33623188747074473, -0.4066083014027667, 0.10016574471040517, -0.125393166257337, -0.18323009705848234, 0.3669844109796186, 0.2097434555269683, -0.18765986892516626, 0.22755852065887688, -0.13971471751577022, 0.429554739005742, -0.17401430780007882, 0.22803035195160423, 0.12453993560313097, -0.167529289810555, -0.517831829609032, 0.4987650373094657, -0.3561031132484859, -0.204525493400836, 0.6853303836349403, 0.030886358383545268, 0.4353893455210907, 0.18683789181902574, 0.0011346304493825028, 0.3915261460144948, -0.04384956449830783, -0.022332320045691075, 0.4980031766189777, -0.36616001772415113, 0.07917419943154641, 0.2691247742142632, -0.11198173654395742, 0.026658704317264713, -0.021645330676201936, 0.27088064292536373, -0.20036254145774163, 0.5947077885693421, 0.9003143122647388, 0.40520583845698777, 0.3360797613669794, -0.2016237121091945, -0.19099663097384242, 7.375106905665789e-06, 0.47121104959041366, 0.19525648300547652, -0.10089840669171306, 0.08263227042299594, 0.12326216685200203, 0.12020329638423048, -0.19992369441895141, -0.4343644057971197, -0.5049527502247514, -0.5131122566373637, 0.06809684123483743, -0.3146133833010858, -0.10265361136814533, 0.024268851259400797, 0.21005290293597573, 0.18614946842333652, -0.268139195721358, -0.0233991067999857, -0.25626076487868626, -0.12193070254663697, -0.6077606859294988, -0.26988996081955996, -0.24595845007179343, 0.2043941989432502, -0.023198203890045357, 0.005405513678018952, -0.16653566550515247, -0.8609200331027108, -0.3244556656711513, 0.07458678483300485, 0.2114010485510521, -0.3396904354099181, -0.007165653398314865, 0.2535746447026645, -0.13897633257247105, 0.16647030526221684, 0.17728700271555742, -0.221080622082119, 0.07836408917875207, 0.5969480023562233, -0.6921617478808962, 0.07892057729185693, 0.5416384221843455, 0.39001516579865925, -0.1701719866063156], [-0.31906137973373055, -0.26753733441517513, -0.41864397952525184, 0.22182670710448826, -0.3094155019611594, -0.4343189803931418, 0.12911895419781313, -0.3490963807010647, 0.18249734649368562, -0.4933488822744712, -0.20989323189684495, -0.03277624062729233, -0.025322644590341496, 0.14958546519012023, -0.14040989357920816, 0.48570736490398636, -0.16751980643203765, 0.08072608263231354, -0.07814604899602391, -0.19044646693364245, 0.08046098417461593, 0.12537038893366736, -0.510126976006837, 0.39533604170964903, 0.11470812638237861, -0.3241169741086054, 0.261076126914612, -0.049065004589342626, 0.23615631378775861, -0.0318557328973184, 0.0037518947466593307, 0.16836970902402326, -0.6343339395138555, 0.15999393773705642, 0.6646333503847832, 0.32303421246993846, -0.22553075384398422, -0.22837491677149158, 0.32095955706084867, 0.4450901195032871, -0.04199608778649743, -0.10214154518417586, 0.009261644327305241, -0.23908822748616684, 0.008852460741620114, 0.2926929269511856, 0.027613615322593217, 0.03386331097320854, -0.26115255275501315, -0.11376659071826864, -0.16741448536857992, -0.30410471887629886, -0.07349939934305544, -0.25792299364488736, 0.2285389898024371, -0.13256675233196932, -0.5469466672221874, 0.0994681767799172, -0.08604674940250615, 0.3260816852056265, -0.3007654186872374, 0.04289707619280984, 0.5410491563480748, 0.20146793493312512, -0.14178153325308027, 0.09131708415770545, 0.5009374220311335, 0.18300254470537938, 0.41019276407076527, -0.012025461317401202, -0.013647435512175286, -0.4020764695642819, -0.41245876143320803, -0.30176328512822825, -0.21359270268861077, 0.07691439431814506, 0.13846659975959383, 0.47967302971598236, 0.1330699991939215, 0.22944847074890032, -0.02947878135318064, 0.13669161037136526, -0.3187689053097937, 0.12625401895353472, 0.12341913482156158, -0.1460211327453169, 0.029085785939481898, 0.5243266691721528, 0.011920164551103268, -0.3087507105286655, 0.25349743741022057, 0.3951763740632984, 0.044140542496607905, -0.07053807569086833, 0.0534847828211472, -0.39737303305284377, 0.34626634047938604, 0.04754794472649872, 0.21943410630740695, 0.13916814736306657, 0.14162421079197338, 0.39727855040625165, 0.09650340455943916, 0.1208768778072001, 2.134583382086201e-06, -0.04473531905394873, 0.04903098215128648, -0.4391387739417808, -0.29891539309283177, 0.07465503925551266, 0.11349753386182547, 0.05244762347514149, -0.051821939230936705, 0.2550735464093928, -0.35191142628902267, 0.14659943747113727, -0.2007761129678975, -0.11423080783111601, -0.39421987666027547, 0.07146167103460062, -0.6931920696321199, -0.33812820428842627, 0.12382809012377421, 0.2540820169848591, -0.07997724582637279, -0.39354255141994254, -0.09623438503651155, 0.010273576513844813, 0.3602692330980458, 0.5825600605862528, -0.10073493333190413, -0.0756979773304479, -0.40435715168013525, -0.18582235396208188, -0.12970513171021056, 0.5617273560789011, 0.08986097045403978, -0.05238697146165606, 0.09116671685900911, -0.5075928450447659, -0.07158445046064238, 0.2904233195970839, -0.1620676123713807, 0.2552435869399662, 0.07566419697418336, -0.7161747910522078, -0.01807711093314677, -0.4358074990235061, 0.47972712794003913, 0.2734742734906004], [-0.16807073768281128, -0.0660260668379121, 0.30479686208881873, 0.07996327752131889, 0.16644430247675096, 0.04897587892593894, -0.09395726538016971, 0.09143870353517024, -0.3556774624893935, -0.7718121645807613, -0.06842864383830385, -0.1677407952430412, 0.3148733919670162, -0.028440507462549284, -0.19126970759190431, 0.06901318631953482, -0.8280648198034276, -0.1725414557738304, 0.3433115473795708, -0.2143594492574975, -0.045643081561605875, -0.0003165512603668445, 0.1250797812721154, -0.331114970571011, 0.043087821439795865, 0.020957414390673765, -0.40066035522923765, 0.6386604240483832, 0.22130860328907295, 0.12510519623620533, 0.11383440403165232, -0.20265785298578987, -0.10045714069878822, 0.2810965768875561, 0.18950165249642803, 0.28748691995162795, -0.4232492461894696, 0.0303481687359341, 0.07595712552293289, -0.2816534790332599, -0.10835548048351082, -0.11200996940528074, 0.37632795141489356, -0.1749612815495815, 0.22169218806352062, 0.045232478387407474, 0.3069727640078658, -0.3246165328036179, -0.2995161220012401, -0.4860758469408562, 0.1834637230514471, 0.34030011500573076, 0.38142639315400667, 0.008361018052935288, 0.1590281819570191, 0.09263729817600698, 0.3570320770715899, -0.1603787392630291, -0.015922562525413655, -0.10264788010748047, -0.07773854755475289, -0.49821959101662766, -0.11940665399455624, 0.18270867036978686, -0.04070774568255151, -0.0042164235652968965, 0.11377476386221595, -0.029364220691788616, 0.10362291184809605, 0.04589208339472477, -0.09208770592143478, -0.49396556217683074, 0.25533919893119095, -0.13800730271772563, 0.23568976024572677, -0.5220688716577813, -0.22632425388428207, -0.2842080918513636, -0.02939561921582994, 0.5165046167725004, 0.35100250770449426, 0.26541922102960674, -0.11361011091054793, -0.17922679442805417, -0.3223235180882953, -0.17910588175749695, -0.10260097545648185, -0.5239059731096214, 0.01994495157598825, 0.016478326108578432, -0.2074677921735855, 0.047505409735574905, -0.04012139943812431, -0.05360596689490599, 0.1369149326900679, -0.2734628816545498, 0.8374546939980912, -0.23523122177605482, -0.2810186461038876, 0.15383623960086384, -0.4106145949136947, -0.06247011230042575, 0.0682133067686668, -0.2147318396288824, -2.559897577414556e-06, -0.6949464165587801, -0.482594377252667, -0.05002415100343862, 0.014815754430263539, -0.16890609951708668, 0.11624227829162402, -0.049335545744381724, 0.327627096179406, 0.559885361177731, -0.07374123353868668, -0.01731931029078208, -0.3468649347263044, -0.1146714110913675, 0.17238481373794265, 0.7732998248177038, 0.26965347890466035, -0.11994975787270522, -0.13666072837653956, 0.49064114911566326, 0.1281868365326315, 0.07056983230918389, -0.08422435255418947, -0.26463445127846263, 0.027475453934093966, -0.11325660428792121, -0.005133822351872741, 0.5538030588129212, -0.5309356910654208, -0.2869847111957426, 0.3109932712606928, 0.44436512354319985, -0.38439655787044114, -0.5620947787427143, 0.5348211044333708, 0.2398102040220942, -0.10427716379541802, 0.19517267198016355, 0.06242803070954085, -0.24303158069154865, -0.42808832132913033, -0.7679279156792459, -0.06199435984190632, -0.5427384628427098, -0.29889692536108387, 0.5820739705743365], [0.20735642964845766, 0.11648227877516536, -0.662988929017352, -0.8298360660678261, 0.6733003765314641, 0.3575993858776574, -0.31471258807115593, 0.25388663787384536, 0.06626801815601245, -0.09812326062036178, 0.30232448823727004, -0.1799433551067854, -0.33260532090301786, 0.34638141366640784, 0.05927602867879152, -0.2699564134927607, 0.8505498949421225, 0.15816068348874476, 0.06243770938327476, -0.25895711233810415, -0.22332221568215613, -0.8355597923948997, -0.4039502636173905, -0.33591382621755583, 0.5959903257990732, 0.17255015767939352, 0.020533674536931338, 0.7405418827881707, 0.25607824252192674, -0.41210643992044227, 0.12545535625748575, -0.20310431197383647, 0.28985510615394844, 0.24558589800086816, 0.12636851870859142, 0.17649619885032722, -0.1271450743475708, 0.13013310946355017, -0.0519921937123619, -0.18810284739496166, 0.15163837691101575, -0.3081070916672594, -0.24076557472135987, 0.3145177016400774, -0.10739651476601825, -0.2099105926847792, -0.23054733651882386, 0.2331197260821083, -0.6084974217528624, -0.3441453802261912, -0.30354762792229284, 0.33164169241061664, 0.012218589582118154, 0.5619500114204363, 0.5015382911370571, -0.2844469760892001, 0.32854757479101493, -0.11213768666327416, 0.554284438836217, -0.0048190109377585855, -0.6266645980838008, -0.36498975520572174, -0.3254728879748874, 0.3326801221992312, 0.2396245206121121, -0.19771438659250798, -0.04580186535099409, -0.228816882017037, 0.2416516235607946, -0.2901442093158111, 0.1770142029326154, -0.1555310658022664, 0.36866657637474687, -0.2853879705171133, 0.2426158587156368, 0.03518952426732145, -0.4050083149184389, -0.09187418688965586, -0.14252641580224654, -0.004172708423303359, -0.3998124814850909, 0.03972517455159477, -0.19667621313555816, 0.4815514329403601, -0.07070952738050225, -0.07113577743341455, -0.17181304767683814, -0.2438719032653722, -0.18728009197984832, 0.31257637401337357, 0.24129314299326457, -0.15389743657491903, -0.333044933036684, -0.16593089360204913, 0.1503891859647658, -0.15145440355007025, 0.18448062439185664, -0.0033338061870467274, -0.567203706371391, -0.254670645501784, 0.2529786890733445, 0.2515534891573752, -0.45105755872314535, 0.27163581506074247, 1.5281765750982017e-05, 0.2546494397263231, 0.08224610683857878, 0.03188434162195521, 0.15610434636350526, -0.40490979907125685, 0.3141593959396139, -0.3044834112609343, 0.3909498580463048, 0.26163492976310965, -0.1988575668677571, -0.09674226179094635, 0.305839691036599, -0.2705962257031481, -0.22249000686941733, -0.1019684080304344, -0.05966974506649644, -0.30076428624000556, -0.23741365039239148, 0.2293357024695578, 0.06301536766816138, 0.8246195766972684, -0.001065211161877138, -0.35002706191917243, 0.6727717371269099, -0.3282530286841082, -0.06648624289988864, -0.034389721125926406, -0.41968305528382716, 0.05054737129590879, 0.4001415245049487, -0.04964418296447342, 0.05810342445330747, 0.027907638751936477, -0.3413934636334816, 0.13203719508356915, 0.1970791025356575, 0.25466852416745145, 0.5709419806826914, -0.09327467856478201, -0.11320024194124254, 0.4329244256484808, -0.12618746413316198, -0.11324059145596808, 0.24041604501318276, 0.20955918083832134], [0.16261360974869252, 0.15469333906632554, 0.31628103529546414, 0.09608477827921548, 0.11732535549962812, 0.03730927318056514, -0.35673658607782915, 0.3467069104980605, 0.06294096669165664, -0.02253584175081272, -0.10489708925752693, 0.12851384588483813, 0.6909156801026008, -0.03306152737456632, 0.39128820700456957, 0.23597771853513036, -0.3819536597146125, 0.15816199254887725, 0.0837310155234979, 0.11743145537525367, -0.41023645730079855, -0.18287408278695735, -0.014182507519474679, -0.12493882100360965, 0.33001817788222715, 0.07382382807568251, -0.19824263013931612, -0.044759267806601305, 0.23257420189224068, -0.07298444419989787, -0.002168276457025851, 0.20605062351911846, 0.312344199619911, -0.1337221339899156, -0.1947105741208393, -0.245550929972883, 0.1972341577502567, 0.14985367765773477, 0.05544727542185101, -0.09988092853111252, 0.24340688541225372, -0.016681485101262817, -0.17909991733704678, 0.23549311463812606, -0.08399540878407917, -0.25487877166002826, -0.12412014996534569, 0.04898605108251232, -0.1589133573949294, 0.1747882011033241, 0.04963732726091661, -0.4479733975157866, 0.17660882770665218, -0.06417404289034076, -0.21798165177858153, 0.4127823417699221, -0.4227140499361478, 0.00023685755566197855, 0.059593878423108246, 0.15155224096705014, -0.1599100858567135, -0.18833249270012395, -0.0630368694802912, 0.47170751366999414, -0.07253266833835495, 0.06277442405220575, 0.23542028203790744, -0.4334866188244214, -0.00022624362029806893, 0.14922575528544155, 0.09438267920307632, -0.034538605511253276, 0.015748622418944907, -0.08199338087977782, 0.20862682791833867, 0.08358412606696757, -0.47454699304906783, -0.01786332936557012, 0.236876850910196, -0.1276544100479077, 0.04921365195149528, 0.1314089381392563, -0.20641425917937015, 0.18998188230272336, -0.06729491416219079, -0.2228489110294148, 0.18452258594451626, -0.18951508886564694, -0.3375596195232581, 0.1644643141939227, 0.189594896923451, 0.16041423358967333, -0.6755451343826934, -0.17855363750311265, -0.24134462414497102, -0.2900286910899966, -0.21038588030783975, 0.0350977651303923, 0.2141896687838085, 0.282276606191681, -0.1301953591976293, -0.09270051699041935, -0.25427001359178725, -0.08522929476754534, 8.325984781869524e-06, -0.04130285165768173, -0.04005228655072977, -0.007063403512354793, -0.24041992611439048, -0.055730024757797474, 0.1105469486945802, 0.1690850282125275, 0.16457312451901307, -0.3306279465576976, 0.48095971577587276, 0.32526308535049353, -0.23284414730830558, -0.1566619484237058, 0.18620491779921214, 0.1549963852787799, 0.07112526461911085, -0.09102997630445053, 0.2184054599375099, 0.20744857995746221, -0.3669460236697885, -0.33375115154761703, 0.13096389367318775, 0.13073039069878695, -0.14500716987649848, 0.15644329986055186, 0.18825100246035367, 0.12418602171143228, 0.26163755517538284, 0.01828267083374035, -0.12761959969572892, 0.28299347233049343, -0.418790869990788, 0.20465376281985703, -0.02438587366154118, -0.16294314679724672, -0.0061584929126923624, -0.27657034027398786, -0.20055056881974478, 0.03959327882639106, 0.4464269082637979, 0.25019134948747207, 0.11876834930498993, 0.19851433335276858, -0.016395908834642568, -0.17988901861764148], [-0.11210024390491992, -0.22714614927787324, -0.05950561842604033, -0.1487644405308177, -0.26797379794009846, 0.11848863446897989, -0.014772075272545015, -0.22722733235676368, -0.21088596094800816, -0.034311691102891284, -0.08748375772886587, 0.11597859079760596, 0.07952023557650041, -0.11831278161055162, 0.07426004566799334, 0.09854282274238495, -0.15056070848165212, 0.13920715368995193, 0.05486639207178953, 0.250892668030156, -0.047530094478768006, 0.041841165930833334, 0.017866882223572845, 0.003116949187834348, -0.1970399467124985, 0.07106637053546641, -0.0242021612537505, 0.10286713701907413, 0.20626818190039808, 0.050648237483567816, 0.09133063198828935, 0.05498672802360794, -0.13291314396916765, -0.25876146015698115, -0.07278554532035907, -0.1399274732106123, 0.052465260754490185, -0.1439657388384111, -0.09632476426265571, 0.035295289969867104, -0.309403636822449, -0.17142580212387887, -0.020805285695115583, 0.1107394172392578, -0.12839082490792875, 0.10179554781531026, 0.16453091416199545, -0.0787698482241641, 0.35508157864973905, -0.157431383615102, -0.4070408517108534, 0.19949946064126403, -0.23489989361627955, -0.0093746349265495, 0.0787001881736835, -0.0882347392808736, -0.19121921411204312, -0.08828398802532063, 0.11563884691076516, -0.01937411635233531, -0.04300342593292372, 0.34659230134947056, 0.22076420653702916, 0.21256115305357876, 0.3781186459575682, 0.43365279344714264, 0.08263180583771709, 0.2677204029734987, 0.6073309551155971, 0.08438394674228952, -0.09599385460599064, -0.181938038576394, 0.07286298281814675, 0.20620346101662307, -0.18736865191496363, 0.020176532697598004, 0.033234090408984916, -0.1760899190118227, -0.4382196614858559, 0.3299332266111465, -0.3065444272526739, -0.05645924647902423, 0.24443045596620852, -0.05281111966273746, 0.16098648852979022, -0.39462568576778934, -0.008510646059827444, 0.13198307853987648, -0.10306820908059167, 0.16668820399295647, 0.3034796697863763, -0.2121597809558331, -0.11408528678382243, 0.14082349830986204, -0.37190743272640026, -0.5332059960018386, 0.04399455487253232, 0.08785597784390543, 0.10993549208651753, 0.38142313004713896, -0.07479639454279954, -0.10264189997857065, 0.25465433314560904, -0.1423970085108227, -3.750227735030004e-06, 0.3246245570963236, -0.04566569134812655, -0.022728262595376213, 0.19829727935688493, 0.032497812104878225, -0.030072980084924858, -0.11200680624779116, -0.33192928903060587, 0.09743622813763113, -0.034071241349690584, -0.5696241244329132, -0.004113054649069235, 6.883949854720208e-05, -0.25163988032715834, -0.15541201204258653, -0.134611617566915, -0.14050372203977407, 0.28530344907918725, 0.08256868447297684, 0.04216877149355633, 0.025825418096045945, -0.09245916364029329, 0.0762543066556347, 0.23585198814618155, 0.3916895663237949, 0.1388976489451336, -0.18041195063197982, 0.4196793689562467, 0.10464118618382229, -0.005675635160794943, 0.3166927245025324, 0.02430985535647311, -0.09983192261863497, 0.1475817449845787, 0.12127860321427415, -0.08339481334512623, 0.023885136902822603, 0.2777594193443094, 0.005648611137124671, 0.01383652327764612, -0.18569963535008271, -0.2666579424985112, -0.13138307603793448, 0.1657981872206342, 0.1403236871865331], [-0.18648122473735587, 0.04817550514430809, 0.04670622491435078, -0.2791888209040368, -0.3530502876801657, 0.053435011469658886, -0.1731491511786289, -0.09569944941205233, -0.20891542582774766, 0.08292319351953915, -0.24729144796837488, 0.02637390594327683, -0.023740710216477976, 0.017258437215972085, 0.10161604841393634, -0.1563562688653274, 0.10360320730095803, 0.07872644905102569, 0.04860622656736333, 0.3493802078816398, -0.027426407330322842, -0.17640940243097725, 0.06392355605086679, -0.05591298784197468, 0.20865628676719836, 0.1577778655592864, 0.09442662514752245, -0.031768360639680436, -0.11413251276512057, 0.029457402511617086, -0.09041481971388414, -0.19361342286428607, -0.13962157716332618, -0.0931564345911515, -0.0237258500235931, -0.012008364217002692, 0.08166625784004976, -0.06239697543020092, -0.15997880086167102, 0.03972095267318756, -0.3852084719105297, -0.10800181172462968, -0.11120028546727172, 0.07780508388249162, -0.11399271768261678, -0.004107596741397366, 0.030548206471420224, -0.06543574446735528, -0.18361046793450844, -0.04509358624942366, -0.009859396637676165, 0.12693170467518144, -0.02337079802761532, -0.21416908843085672, 0.0028223853992799274, -0.2884133154954536, 0.10989070537130134, -0.013050723985747123, -0.07335812263674923, -0.013844709733848522, -0.27346465883074794, 0.06777664217475309, 0.20000120485320116, 0.02413783004125485, 0.3251206335641328, 0.24600407163945692, -0.09418041725374984, 0.04786698980277092, 0.32785611711603857, -0.010751771618230422, -0.03298067265281097, 0.0968502556544955, 0.14569528231812942, 0.26327379582806293, -0.03849215571453039, -0.03431705509535465, -0.18107629998635402, -0.08809595461643281, -0.07392422974671814, 0.11931933051558438, 0.10706027132520006, -0.2678357457343865, 0.12268618887929987, 0.17524872145044884, 0.04574800066888769, -0.34847341870296733, 0.08529881626829525, 0.2241117125752486, 0.05864138460560025, 0.03805871790883328, 0.29665022143650566, -0.14581193188187136, -0.010459096479396192, -0.13175370598546918, -0.2523297199087309, -0.2676666485678439, 0.04072770063408783, 0.09475792943636932, 0.11752036597119667, 0.19955125218401767, -0.25845226032103474, 0.10959377462886505, 0.31694884089067504, -0.11463481990617812, -7.662915159783457e-06, -0.25688792461898186, 0.002007934146389331, 0.004119400017521698, 0.19002327991543405, -0.1625288698718816, 0.058401138983806035, -0.08972672179089955, -0.23689926455912097, 0.13306775060749784, -0.18976141999855436, -0.5903713296616457, 0.04923379200950926, -0.004476245521681219, -0.06693209520876459, -0.06876725999165614, -0.35555770134680514, -0.10932219249332793, -0.1527300461322042, -0.15462346548959086, -0.25697168948154986, -0.10723583865954268, -0.04955440875506196, 0.3429855044657065, -0.1835201222637198, -0.12120672165132161, -0.11897353620518693, 0.1102308379040544, -0.013315295980807704, 0.003992792839818362, -0.19150217669201472, 0.03367968468102548, 0.20584554770447136, 0.012447895427947293, -0.06488742859619946, 0.27330530064003505, -0.04703312233854252, 0.025746009018792784, -0.0900305300368865, 0.010186611821515867, 0.06739703551072994, -0.2287027028792004, -0.11197178114197574, -0.010490928476120334, -0.21325733857233317, 0.17666822368449825], [-0.03731016982577164, -0.2561464413950624, 0.08448375217765483, -0.42302155482275466, -0.03539251241102589, -0.06948739213629047, 0.00813810320774695, -0.1710097871052738, 0.21088821353745205, 0.18465542747213118, 0.11062364924025314, -0.13200329132469255, -0.10840640798613406, 0.028584375626582895, -0.04674043562527926, 1.0856384551137992, -0.4973579644162704, -0.02127184694515291, 0.055462427423380076, 0.1808001602422292, -0.0029209657103186925, -0.0005686650346985888, -0.13456868992629245, 0.0954273939922553, -0.24211442066853614, -0.19384742194760007, -0.037104142293075945, -0.2094910828413983, 0.5611925738396342, 0.0799664865217271, 0.08024717078613071, -0.2530998461637485, -0.5442127762716865, -0.1822473689021529, -0.05792539913705071, -0.024970636573928652, 0.13421913093592375, -0.19314044424591342, -0.01211144241395063, 0.022694264140881302, -0.08658489289261947, 0.1634303577856549, -0.05703367651190033, 0.09943758880658742, 0.10299677639071468, -0.09272553321960245, 0.2796920924039236, -0.20859125088141303, -0.0794932764522066, -0.02990465846893417, -0.21692637190862749, -0.112290749300213, -0.010559398137947233, -0.1919371345334719, 0.1861188258525388, 0.1919630683484447, 0.050843777380095885, 0.2945674357597432, -0.3167131486405825, 0.32710994177089014, -0.5892211733579847, -0.3403324893642235, 0.049218956527691204, -0.2177777854030873, -0.1682627450409421, 0.07414950612455871, -0.02723516368627923, -0.03889291839446516, 0.3359582475750733, -0.7254498863740837, 0.5032347882847995, 0.5868427496050539, 0.26362844432044036, 0.2847701122117982, 0.06380694735662265, 0.3128182683491474, 0.04812435462861588, -0.21262644743022863, -0.27963256791652497, -0.3491434255609874, 0.05127000247309449, 0.02248007720586593, 0.0720352413570417, -0.02776282087013699, 0.28249799399170783, -0.42933161556313404, -0.03820994523228338, 0.3636457924477053, 0.27061820058544866, 0.13659457752912973, -0.2688834010044863, -0.5213016632785719, -0.12637912529444947, -0.17287043534991742, 0.2623433172845115, -0.4507048495867194, -0.09622211686403394, 0.2901280753070545, -0.12051407307377629, 0.5489055364263375, 0.07290741751844043, 0.015244229907059792, 0.07612539407272016, 0.20362781282430786, 6.203625365035506e-06, 0.012922035061765442, -0.05552248799310513, -0.4620981713287966, 0.07556684581936393, 0.018435365285022005, 0.025777810265662487, 0.029056141064724157, 0.12912681060615347, -0.6614245587120001, 0.09602907504392656, 0.21753206712949105, 0.08421721793830986, -0.1731376891389997, -0.07199713012319266, 0.11517565410801155, -0.0271878802057255, -0.14479751538730692, -0.3153296770197132, 0.18566557911239698, 0.2669343942449911, -0.20967540614149557, -0.008821305519991048, 0.2086005206472694, 0.2846353272760379, -0.33202828238333415, -0.1261045093760282, -0.4293952116526669, 0.2842676078612251, 0.006941567778093507, -0.5069745813695198, -0.13472105477536417, -0.1678149096092993, -0.03875020038540198, -0.34394378693376415, -0.1663176808651166, -0.2655628866702688, 0.03940300890442932, -0.1814059282541123, 0.19145152249364292, -0.09565065535605838, 0.01695214506312071, 0.08411193815856093, 0.1795282708407932, 0.2650803928647878, 0.03670418367166892], [0.08435066256410818, -0.0453716863598254, 0.11447788291115837, -0.26120609220691315, -0.063666735887469, 0.04217604583966692, -0.05299764848896393, 0.18858563714717103, -0.3421081154719231, -0.11534962634022586, 0.019761419758380035, -0.009084269961678812, 0.026133737659138755, -0.13039636770477853, 0.22338510981452103, 0.2241705650049328, -0.20614248688138945, 0.04741734879391919, -0.0018386333670148852, 0.3257799958040707, -0.03259634151128401, -0.3145069291135284, -0.010408341182240198, 0.0499604091562423, 0.0846520434561204, -0.07703239964461858, -0.03806861231145007, 0.0718198286146401, 0.09312385149577455, -0.10913824581388312, 0.0703966463475955, 0.02986566108754475, -0.11890613594584605, 0.3036846736358458, 0.018579624533862922, -0.1304619083061943, -0.11339997874181726, -0.08859414926440407, -0.12186305417185467, 0.0342583058564156, -0.27056216569220504, 0.021813583608252092, -0.2856202016292198, -0.008411727491388332, -0.09860355974966845, -0.18191315614258405, 0.1516552806741866, 0.06891712416615027, 0.19172674213671884, 0.055453280370442774, -0.32684005848619346, 0.1448807282482161, 