{"bias": [[0.10700752446297455, 0.09368628860990721, 0.5516425068131439, -0.29181037529910525, -0.060332275759928666, -0.7992224428680307, -0.21280394507149383, -0.7224405177157291, -0.3500895077810724, 0.07028985257906421, 0.6738940532584378, -0.4358125456697388, -0.42686053111419614, 0.5935909494446916, -0.8242253957853258, -0.2352863604120939, -0.6936727203992363, 0.31826835430251177, 0.23195075573518525, 1.1098688121072206e-05, 0.007823960868826281, 0.32954267742310833, 0.0506910759685575, -0.00222148956663962, -0.4618749998075575, 0.06499973935838137, 0.036367214025660136, -0.15916657399719503, -0.5748025654107679, -0.26779927092197753, 0.06656803560708335, 0.02381329564160647, 0.13608192538261607, 0.1323685131824581, -0.44928258921069864, 0.024797983205526893, -0.11304471863444929, -0.17889715866731654, -0.16993841195293538, 0.31342711379345184, -0.853301883310508, 0.5174581830762975, -0.10608143869059004, -0.21184863088152198, -0.156446077177692, -0.26873078150918245, -0.1053092059604376, -0.1335441828556262, 0.2715582089113895, -0.19705836066021448, 0.17977285305266288, 0.07521474077706443, -0.36108721593156806, -0.3683446111791769, -0.2425983098962036, -0.24277675820805728, -0.56141591380467, 0.31859722312055866, 0.6952400440195095, -0.20747594468466551, 0.0807739779699899, -0.16442810262564686, 0.002117376062964221, -0.03961991008731375, -0.34341706066761923, -0.4386581550694325, 0.11837006204229705, 0.5794750426098567, -0.12242480512992186, 0.06366432028393001, -0.13922271523319135, 0.3968449992056353, -0.41367013030195077, 0.18149367604824315, 1.035566253411498, -0.10131798566939344, -0.01603538790197134, -0.006193791860497765, 0.7268440936290469, 0.148837574660357, 0.09650394623132909, 0.6163512379532055, 0.06314877087661314, 0.7081587000215699, -0.47602394772694584, 0.503995366044649, -0.702615828422832, 0.681171387750733, -0.20048325243451579, -0.24662248153207192, -0.07677385347138305, 0.4948282915655466, -0.14354904470340085, -0.09066176775776393, 0.3742268758269372, 0.7156516207347758, 0.8289848136075126, 0.635000805662639, -0.6548329427680091, -0.3396391350945766, -0.26422398840298755, -0.6906249307250468, 0.026371874561554966, 0.2005869296632392, 0.19320028150554744, 0.010197196482997984, 0.1325968526065677, -0.5355914000338556, -0.6031634404211811, 0.3470891205320454, 0.4695023581780349, 0.14055330312193898, -0.2067551666583325, 0.19374462403911907, -0.6918370996951666, 0.32117825396708327, -0.41305876224297405, -0.0427459132988505, -0.586034818286226, -0.04566909763863239, -0.6293246255280024, -0.5073648867969206, -0.34450735500292945, 0.02172302181560828, -0.13648393088296412, 0.4611553973558965, 0.5157788229168152, 0.4460686975303308, 0.6303106044280563, 0.8833216212215199, 0.6188861379546353, -0.42090591320808424, -0.5437325679318026, -0.8718262466791965, -0.4166718796511182, -0.1287268261027877, 0.5005957371989453, 0.485763330637851, 0.3834483616259056, 0.5583580918064719, -0.09651634783314084, -0.018092670486286083, 0.012028621038569028, -0.7178726837892703, 0.3752287625201878, -0.3175707230587876, -0.368668645139587, 0.3990367015902687, -0.4703228115924752, 0.9325409125893311, 0.21226846106579753, 0.28645077798604796, -0.6008648961130485, 0.6696733319966395, 0.20890099280396562, -0.693300699959663, 0.22535995455219193, -0.10632900802238016, -0.2402623750356858, 0.039143241234565265, 0.43987420359535656, -0.12167737139632782, 0.5105384640155091, -0.3229451188267666, -0.3352665821710559, -0.7127661292094509, -0.46922423878100483, -0.903792475219194, -0.17095509287777455, -0.3243443250261878, 0.28371785805133276, 0.09713715055037339, -0.0790498765501814, -0.04442841701281746, 0.11837042394471195, -0.48110217964210983, 0.04829498364620825, -0.16188097204039187, 0.3662037881750782, 0.4953099771853244, 0.2770721045831079, 0.4049054485056086, -0.18155087859010155, 0.2640864981584586, 0.3460662500043249, 0.2153392207310508, 0.15510244133816722, 0.13124887295137366, 0.10459860699134457, -0.1453800364076825, -0.849458912473408, -0.20703863192913527, -0.25280866284290243, 0.7567907058423274, 0.08242317234348437, -0.6054355010807869, -0.36374530613685696, 0.16711411458722522, 0.5828083163093623, 0.434468425550786], [-0.07333890869834205]], "hidden_activation": "tanh", "layers": [200, 1], "output_activation": "logistic", "weights": [[[0.0855599954245512, -0.31234309436924873, 0.18142893062301577, -0.03387227741224106, 0.023979010668154742, -0.0061058794383001755, 0.28586006595341307, 0.15055327943736602, -0.09377737476097033, 0.31680582323212697, -0.49644616204132763, -0.28634919567612893, 0.027941391930552364, -0.012567590364468067, -0.007067582123515111, 0.21566857010954082, 0.03271045461761925, 0.0003778756712836893, 0.02091838145087894, 7.006282494993513e-07, 0.036137333999673615, 0.2515729596292573, 0.02835339778714105, 0.21589460307035058, -0.10028608440592242, -0.36855675234401325, 0.0536448148633333, 0.16686542843326232, 0.05149817623047657, -0.10514026706265914, 0.22371712217229783, -0.38022685685192914, 0.09657883402990908, -0.007285067009140027, -0.11838162998439226, -0.1500055404107899, -0.07654220561923938, -0.07373827637239355, -0.02692556315841113, 0.020635308122947563, -0.12100076841288518, 0.22025943634348452, 0.11749260267658398, 0.007325445009133267, -0.03598263600899509, 0.13311943680993188, -0.2252701249599341, -0.1612976682257167, 0.21422962137612087, 0.13842096567383014, 0.16325754641698642, -0.1333905110835854, -0.20428456185680416, 0.1473191322081666, 0.1932917120945663, 0.059448077524314476, 0.02540896130936013, -0.01418517045278426, -0.056628432422207796, -0.19124769397421174, -0.15421105432869628, 0.1521513795309293, -0.02875268676056388, 0.08424289290937409, -0.04276406758421266, 0.04922119655721514, -0.014353446835776445, 0.08301540931190954, 0.43450794801953413, -0.008750282246494075, -0.023943068245086865, 0.11663834956901876, 0.0552963762238511, 0.008089337932882237, -0.052440072518826764, 0.04780592087992287, 0.1297652151046155, 0.29778033894393097, 0.05079168259423877, -0.13284343284024425, 0.10153471453840478, -0.21161398759342148, -0.14717465583240827, 0.21294845442038424, -0.03328009267507834, -0.23338871321249266, 0.004975549458318437, -0.0569864246112392, -0.06412554837654591, 0.22057519710279685, -0.026708756793644442, -0.1676150960120316, -0.3550132900413582, 0.16329296360967688, -0.049057426130820155, -0.29821662397823645, 0.20500036126029142, -0.03448144958838948, -0.23091371437757402, -0.025525756984511885, -0.3498353352766606, 0.2948092815741173, 0.051579782560899436, 0.10463209709588141, 0.05450442938628702, 0.3244008423882278, 0.027100742441415616, 0.05585495448608482, -0.12650963955645966, 0.3050357706011537, 0.05889964731639904, -0.007339699200519002, 0.17911722588004103, 0.0613249613320264, -0.01893379235055773, 0.14749002895188487, -0.42049825857541084, 0.15946546726535402, -0.4482952600504472, 0.13194288893101971, 0.034999969886275566, -0.16417323263585698, -0.06862097286482148, -0.2804601754419194, 0.23111566342994064, 0.3675687903108576, 0.16214901528128853, -0.007707927632480978, -0.12604224373882886, -0.061309230642691705, -0.10926592794577908, -0.11597530714567572, -0.23724102193750535, -0.23873534782172348, -0.14570607535357383, -0.06599901640405394, 0.05791964939384158, 0.15751427049333658, -0.1720207013131501, 0.22094875289385257, 0.19121867963736716, -0.03474166659633797, 0.09380613009183691, -0.05703912170758218, 0.032085394129600375, 0.30697731077708573, 0.047141544467834244, 0.14464267374993967, -0.17460072258723766, 0.029942961685580593, 0.03532563970437442, 0.1730626712683308, 0.6046500443214067, -0.13213427565399974, 0.059263913214082205, 0.17743331007859264, 0.016362207798638655, 0.18677684101214212, -0.20124674428669476, -0.04776636641816586, -0.08833382200034119, -0.30056689371547685, 0.2657566917567149, 0.11737951672720179, -0.02949379723795917, -0.07852426684423927, 0.07828482235528846, -0.16779914677796745, 0.3367752388260384, -0.1784975478426709, -0.19454858214166718, 0.058366539256990674, -0.15058145037941656, 0.001279286192331059, 0.0657610650248665, -0.33466366344903886, -0.06846975352360095, 0.12742110688019292, 0.05351867126042471, 0.1797309731851637, -0.06940457634154948, 0.06439217943548409, -0.23024513034153352, 0.08431591296229289, 0.262421849703915, -0.20368294633226133, 0.04191147954920837, -0.16062090234285328, -0.03948219593927536, 0.09348855255808913, 0.268462299515926, 0.11394801493786533, 0.2233201409441169, -0.016211268413926356, -0.1658164731651228, -0.10339904000071165, -0.30621629260492494, 0.02223611738067417, -0.038094365340127154, 0.15331363851235014], [0.10880450989026308, -0.3896207159945632, 0.12432448032355789, 0.08069030111358369, -0.26312167078616827, -0.04504789615524216, 0.10995449022368405, -0.11214402076882447, -0.13347972724255894, 0.508221571276408, -0.2510137984158744, -0.44753119626423427, -0.09327145962964446, -0.0374851065767014, -0.1915463869762032, 0.432931399206438, 0.10384349921388915, -0.03019725744684388, 0.2141150457653215, 5.258682040841605e-07, -0.1879625925629652, 0.09994270544896695, 0.1176719250257698, 0.27542940661729637, -0.262550290752293, -0.17476766534227323, -0.2661071432953818, 0.08728658752954369, 0.08994263905000903, -0.16861300627007367, 0.26463151507657934, -0.15593454682539554, 0.053884122151322565, 0.007903655643140373, -0.09243316588598467, -0.07025520386184275, 0.03172258848771642, -0.13641428811919318, -0.36882773416509096, -0.05098404386185606, -0.15214558683413879, 0.39431012888564376, -0.01685905313824959, 0.005160112989282751, -0.06532454456497752, -0.1786041151288138, -0.05814396446590461, -0.2560615886830952, -0.017227886314694768, -0.15234255771156507, 0.03984680262201672, -0.05812978372496442, -0.07501806424681175, -0.04866988762817071, -0.14793452071131208, -0.1561565201958106, 0.06530843471371608, 0.019985729254504158, 0.044468141903628036, -0.07769656539103345, 0.002904297030922143, -0.07573482630357435, 0.09257789009256133, 0.04785067111444502, -0.05474875743989227, -0.3069255235835791, 0.05332079255781307, 0.11207434766428445, 0.17529396025418573, -0.24474369570279084, -0.007695132695064574, 0.24308090502556184, -0.08008796282548984, -0.06539974075347237, -0.02063990183797602, 0.35561885754123707, 0.39827796308332114, 0.1030701906648119, 0.11473287317398251, -0.16535851512890012, 0.022713637530188756, 0.08275849143733818, 0.008821382619875893, 0.28870136373444416, -0.06949099038529308, -0.022437165634195178, -0.0251386402874615, 0.1154744867462837, -0.09511711039927721, 0.37907083391530766, -0.10079941663764537, 0.060276182527491895, -0.19989224882981943, -0.05717368820380593, 0.13832576099301436, -0.2147889000929306, 0.2606513228776709, -0.1606972259045482, -0.15164053701092722, -0.13802277520102876, 0.06872558204448738, 0.15360636494862276, 0.1828632549573495, 0.17140038469910215, -0.07117207435852423, 0.13223267315621287, -0.0349791797701402, 0.3210441860085938, -0.11967345567783272, 0.20676173238140322, -0.024925363421210676, -0.09796580761928328, 0.17027762207259203, -0.05549295320869173, 0.07523458696199117, 0.431545690555347, -0.43869434267102764, 0.094443009762061, -0.004802835466223054, -0.2372510461122478, -0.05135887998124993, 0.048325699811486475, -0.09003424710334235, -0.16189176580211806, -0.20449462143673747, 0.23639158677701336, 0.021141699056388512, 0.15180909109862645, -0.2710019093854582, -0.17918433440707757, -0.4884243642522728, -0.024013344346818653, -0.13406004953075767, -0.1485314199669264, -0.06707695777200924, 0.014965222719761877, 0.16569064130232652, -0.12098967752616928, -0.1631862578194607, -0.20948230744318483, 0.031011329941731888, 0.024773291637190675, 0.26477010054508204, -0.03621410613927478, 0.0983875924007959, 0.08595002314802118, -0.06956935260919318, 0.12944555793323365, 0.07813251763756274, 0.22324024556651853, -0.22137844110153862, 0.11294063075406854, 0.42678276675307136, -0.14715108380699513, 0.05446792465420531, -0.11261995032292617, -0.07329191192345885, 0.15922020087588623, 0.15144421952512518, -0.17661969616692746, -0.5017879873091468, -0.17449817262030082, -0.06692688523478696, 0.06028204433450511, -0.04632115768808199, 0.016066389717807335, 0.20178036447404415, -0.17268504441418803, 0.33379309053614764, -0.07971835137128162, -0.07421265091355297, 0.015547139850840273, 0.3482292700330941, 0.1194186478159529, 0.031115204930378115, -0.35995389804067607, -0.1390898144577922, 0.1325748414746752, 0.09090048377894715, 0.27105439160901956, -0.05614647672523105, 0.20985360035420267, -0.007937497649645053, 0.10115190782709202, -0.0428982876913521, 0.16556804055159538, 0.06736021976543957, 0.18503142409272288, -0.5424322187807785, 0.21841601175689754, -0.12403778885817099, -0.008114202395794762, 0.3152590515618012, 0.36896335199924324, -0.1617632632236336, -0.13456436197704294, -0.13709741321658656, 0.0442021230627271, -0.003596906821324136, -0.2741371779518402], [-0.0055747015628937234, -0.3238446925528429, 0.2806288278680861, 0.27508868437455614, -0.011031006746059566, 0.1660440354824215, -0.07906400920042805, -0.040693525710083736, -0.18907692637056783, 0.05392652690811068, -0.04959772480780777, -0.5066062353344502, -0.5878942427070446, 0.015230345491756512, -0.328427588471845, -0.07599517610468969, 0.025253589634982435, -0.3416527284383958, 0.03460232121429468, -4.6611847335119046e-07, -0.11828176691292988, 0.028339840907277408, -0.04498931389220447, 0.2672836278681273, -0.10193601874400605, 0.36818022486436663, -0.29410429362733337, 0.12335940920462618, -0.0924685607307074, -0.5606149034975294, -0.013422740071839658, 0.18055512080142128, -0.048035385254058934, 0.009979800294831292, 0.23263673635593327, 0.3975083199108478, -0.1488354887803229, 0.4013542757931243, -0.12587781625759564, -0.04758080757157289, 0.10398813050703468, -0.34493369603245005, -0.14914723725538834, -0.1037356074499526, -0.008070404677603548, -0.03870091346718309, -0.20894035031369723, 0.3041899360299879, -0.32985029470555205, -0.6698403978322081, 0.02410890709654836, -0.11763791331794686, 0.002378586413432608, 0.25427704537622753, -0.4261333594402537, -0.3083114606022697, -0.4890234709026643, -0.36940671462635255, 0.0788397780780197, 0.2451500470134481, -0.25371893050814825, -0.09227688530873429, 0.07226767308988588, 0.3014499347586539, -0.14452525906890404, -0.06127057007626494, 0.0773830071593286, 0.1256193811155733, -0.3430472489491038, 0.26311012316905363, 0.07200636080670363, 0.029388477490459343, 0.2726304691180971, -0.08100411333453754, 0.2961416047933708, 0.22531708320737634, 0.6518587257245505, -0.3917076804964449, 0.07833502719442803, 0.03777386421197329, -0.1911044372889269, 0.007211829702757344, -0.2494626115164814, -0.12605638519655044, -0.10903143237392518, 0.23628903353041958, -0.19798967702832404, -0.06579334983792072, -0.058124315826656496, 0.2627758334010137, 0.25207262487263715, 0.17912103511319274, 0.10391025453182433, -0.0007479927874050228, 0.6304177251605975, -0.5480670661809798, 0.2921761832369134, -0.03386907442791125, 0.09363510297903443, 0.427554857399942, -0.4737807438770694, 0.03498520430616479, 0.15545312431594047, 0.014168640688965463, -0.01984136452946917, 0.001268989668490319, 0.01414890378637792, 0.3665881007542966, 0.23110078227615294, -0.15067648699472147, -0.1631176662925162, 0.00716161359919228, 0.24161412740366245, -0.04886839132517076, 0.3273020618552681, 0.23625228766294584, -0.4376751755378823, -0.031030893101492818, 0.10893372822616902, -0.06089301987567543, 0.21042277424104364, 0.1657549311676781, 0.10330863812509604, -0.06927237422760033, -0.10634504399360492, 0.038932218299659316, -0.23227319931555088, 0.323473163881158, -0.31749709152262934, -0.05009429777678966, -0.19601713404581317, 0.03469959307379181, 0.08709070258269838, -0.17210322839174097, 0.3588653946337126, 0.05853797649434633, 0.049738071107238435, -0.34909001465915257, -0.1646943446752308, -0.44724978757352274, -0.37930305313541923, 0.04427664445115642, 0.12228072181371795, 0.34892036527387976, 0.12193112217682357, 0.10954639564963664, -0.5574547292624558, 0.08593320150980509, 0.105699599970578, 0.13434214169790878, -0.0789999316638936, 0.20511032005026614, -0.24704280922491823, -0.06305062110145125, 0.07338025942736136, -0.5262639779790659, 0.061110555781241006, 0.12179238277762784, 0.32015291163068926, -0.4071410626424919, -0.181904894265464, 0.06823528299447691, 0.060708299786907845, -0.11455222798614151, -0.15765839540144286, 0.11410871516604001, -0.08229247671441482, -0.31055455461515374, 0.2935632264129826, 0.16565059652776526, -0.20254761245552894, -0.21176885481380106, 0.5580785400626197, -0.0021336309822194053, 0.24489417131176588, 0.10133789498460145, -0.240875449015587, -0.4662634755750889, 0.024495063305413012, -0.10599281778301257, 0.10462442032147351, 0.24595112771973146, 0.29330546828016235, 0.21904517101628448, -0.12124009100980691, 0.25941424835335486, 0.13554255752003996, 0.14879453495020725, -0.7825923671494036, 0.5395542769932871, -0.3696756777746014, 0.23892608074220428, 0.08972430958020779, 0.057285504971849734, 0.07626746688138782, -0.10785535292811324, 0.03259349437561976, 0.08970416023785009, -0.04376288078807083, -0.08134491907894482], [0.1347797947260174, -0.3941190654474133, 0.10639193032776033, -0.08302609267877652, -0.25917238295496364, -0.09326327411043007, 0.2216746222870475, 0.28183787559855095, -0.2828244584618794, -0.027435584153124595, 0.10161192868402341, -0.38061015561103595, -0.552830679154741, 0.27341283145965845, -0.216675509081119, 0.007028715611288505, 0.05703590082150344, -0.02264370095203364, 0.2533726640443123, 9.902847561161452e-07, 0.19563109345211485, 0.5973839569951639, -0.2138583877045329, -0.1389544680213185, 0.14692811072450412, -0.13509823259231996, 0.15643019559900675, -0.20808340410326034, 0.5466201727350833, -0.2498065846426449, -0.2155537735202056, 0.0739250703541895, 0.1621317859822536, 0.007833024602500245, 0.14703647540619655, 0.024082555013809154, 0.03949270128556383, -0.04280664600797362, -0.2854543936606036, -0.28820120489570505, 0.15909401909324494, -0.08485751464164246, 0.11853286867521776, -0.3602440190376872, 0.15395135499063634, 0.0075449317718925485, 0.456873033256713, 0.4771056973888149, -0.24020735228184908, -0.3032448280983506, -0.220747211183802, 0.05265957565172437, 0.2874428070153527, 0.41549314512357255, -0.1521611383150252, -0.09800172395873441, -0.13817123296136324, -0.5048304367867128, 0.3466256945501087, 0.05017815715726953, -0.050251610051492944, 0.14103304942120057, -0.1400358717133374, -0.026458830498794033, -0.2076051324293964, -0.011599900520063353, -0.21790384799443002, -0.12908420713323182, -0.20759471682264258, 0.3954732189666061, 0.06758476133959461, -0.11043117297866034, 0.5110144132697629, 0.14346055326067825, -0.0750637862368322, 0.33012740091705534, 0.12968285793630469, -0.09000963484183454, 0.012861014117757743, 0.04134368458088872, 0.0653696520473056, 0.21056337735105934, 0.02994464810407809, 0.41188069774469493, -0.04626834430593371, 0.5478842439248796, 0.3335757862054933, -0.19336203960798126, -0.2549773771584556, 0.6520093431415794, 0.009724197832853129, -0.2768359388264296, 0.14385061972827223, 0.052415104651018854, 0.19904650861222295, -0.22601444358125508, -0.3936050431040237, 0.1535017539817304, 0.016644611852429738, 0.01992393827828729, 0.34108729869665394, -0.027530468962345685, 0.0618107273016547, 0.07619858192239201, -0.04686416759655776, 0.1686123761264644, 0.3072004993947143, 0.2714462047745502, -0.18066673151283624, 0.0009741795443891648, 0.0922055255738096, -0.23070829231341564, 0.013472724232459396, -0.21517586067155006, 0.684754723089168, 0.011993791251704413, 0.3561987679795734, 0.14378934021670656, 0.0069116875852008675, -0.18120603489709577, 0.6342306101844479, -0.19690362951032317, -0.30738750663547004, 0.05973727695739448, 0.2215963333170305, -0.14952001290883726, 0.22642281413602597, 0.35529636288301947, -0.5452381975131034, 0.1037588765304645, -0.11460195633615552, -0.4155879570056312, -0.10915220624147354, 0.17515336979107682, -0.030735936917906582, -0.02045181202143598, 0.17752961283584867, 0.07275482618147837, -0.09612776599119884, 0.1664818549967741, -0.2167160778133196, 0.01961346306244927, -0.2756855587976058, 0.08823860531621024, 0.29958740715870635, -0.2600228075636979, -0.13767880487459422, 0.22118649868340545, 0.13998269846582678, -0.061465598520812126, 0.08805249958120798, 0.08090421412606362, -0.08600183476025225, -0.06456698757714105, -0.2697355468758438, 0.10323762009642498, -0.44066154530276963, 0.13404259047027609, -0.166088847242277, 0.11172943876552893, -0.05184135528594857, -0.05229687602200299, -0.06158651117354004, -0.10816095455226746, 0.254982720523115, -0.303972876585567, 0.32345893999625913, 0.05035215870254709, 0.1634467221399568, -0.07494981569664343, -0.16546072536774423, -0.11616765037765463, 0.0436792698238243, -0.2712674534397288, 0.22398022260959208, 0.35682230959384886, 0.09941934835953857, -0.4460630089276363, -0.3149735265542079, -0.21359635634317975, -0.07715150247943812, 0.10110511907036425, -0.10635388257804207, 0.0338999627323659, -0.041915931412542004, -0.36530417505697577, 0.302183562819704, -0.04835812166842087, -0.06289639808473733, 0.1108603736971712, 0.33772081135557525, -0.4767073260116066, 0.012178377361117022, -0.3492874321126715, -0.28430833929278837, -0.05575249324962656, -0.19077884301221526, 0.18658750442055919, -0.07679861869149054, 0.5669110168617654], [0.17381245373087614, -0.340385818357241, 0.1271799227044857, 0.20305157090847797, 0.11460316506298189, -0.00967975760901871, 0.4133063837543722, 0.05523345997761654, 0.12572179155306662, 0.11306730497198055, 0.8215754572732561, -0.7140513801981423, -0.08937379547722434, 0.3910327832292186, -0.4240547171299476, -0.24786029532273068, -0.06689237734888152, -0.2052702091396428, 0.016222296038259563, 1.49776716120699e-08, -0.060733450746975705, 0.5331734213906987, 0.04304445602928992, 0.05081346064650572, -0.4046052494307911, -0.149266490675058, -0.3750427638010797, -0.15595590484343785, 0.3682074879979292, 0.2523272200722445, -0.18066099096418975, -0.08018017089663533, -0.19895610766534655, 0.011949473381569814, 0.238185507947152, 0.1351352848585932, 0.16646709637597798, 0.004303877415696874, 0.0936088623038397, -0.2963539669563697, 0.32832451436923554, -0.06016443848378988, 0.3546227652437927, -0.03556282418388002, 0.3655116799590411, -0.3228480051387815, 0.7328050898825677, 0.20198019311941132, 0.22032300802778113, -0.20861697598723172, -0.34302882831395753, 0.3834472138799135, 0.2763502459660103, 0.09711163145880666, 0.021979137532745496, -0.19896120305382797, -0.22538230436205064, 0.08837928454892577, -0.019248549236583656, 0.026533899167585737, 0.14747826766526353, 0.018528493933366596, -0.1781745759747367, -0.09270276904327265, -0.1315175812959095, -0.2069002737830465, -0.2616437733381569, -0.2553020625040816, -0.003032806974512927, 0.20506411953135653, -0.24015066195557805, 0.17486431252864973, 0.428437357424326, 0.1063395672055564, -0.19019006895042218, 0.1223265486002235, 0.18842759593601238, -0.025293325004080578, 0.5413578858619479, 0.10560173290478406, -0.1655529711915703, -0.06406568756934551, -0.020843569706458533, 0.0233308913665536, 0.28733868774071164, 0.2526766356484745, -0.3266331208818761, -0.006794482683844305, -0.19487220337478728, 0.272446822355044, -0.35122204707051885, -0.5256654294578672, -0.23524947842798433, 0.05793863364054475, -0.11871906759437698, 0.2728987045031923, 0.13520418323075645, 0.3725372536286395, 0.08387313047357653, -0.15246537232969923, 0.08869754000550432, -0.27745567719668524, 0.20070412438749646, -0.2733096802996072, 0.054041243905306936, -0.013156917226225124, 0.022743295530462365, -0.06575132408558, 0.13745139470639509, 0.4596705451234304, -0.023430162010504837, 0.19358757162321077, 0.2006711789485573, 0.09017707020517957, 0.15663507063017815, -0.41750006491908137, 0.003891114115159623, 0.013205816797938598, 0.17602733002249224, -0.05794658079427735, 0.1089527311400035, -0.3076122200916913, -0.2209118711800562, 0.262048233741199, 0.40958990169626486, -0.17450098277047704, -0.04699764228403895, 0.2700410710114096, -0.21501881812645618, -0.12092174521869296, -0.20449316145815916, -0.10146463683235003, -0.6460510263436635, 0.4427149070699555, -0.06166493077165073, 0.06425189077259391, -0.018411409918531768, 0.046213966640109704, 0.08423190681963841, 0.6355468734840694, -0.005020194520406681, 0.008371701328160897, -0.26855036579134384, 0.37534337799076767, 0.20152219899273155, -0.40997640708173544, 0.022549044466439943, 0.35633052276113947, 0.2938852258347566, 0.531964952809445, 0.03981852888710192, 0.06609293907335896, 0.09996564546553773, 0.008492473730585733, -0.42954114828197676, 0.19113250635621043, -0.460162498303618, 0.5111492591572054, -0.4283226580015193, -0.11397309563452085, -0.4852181617765322, 0.26993867109530856, -0.05905296303915941, -0.05734626231271286, 0.16403375082522167, -0.25005559524634635, 0.018818680039394655, -0.14396753266072415, -0.24291465178264243, 0.05526406804751346, -0.2653231570345064, -0.06051226114682359, 0.3382104484812266, -0.019603791801032677, 0.04187072309070189, 0.37408405006574835, 0.05210289698011689, -0.17239308951632967, -0.09591264087187132, 0.023394840411638283, -0.1670145367735684, 0.3349627198034358, -0.21434528491071742, -0.25870075406480464, 0.3297165398943598, 0.08962738508563417, 0.3763194153910884, -0.39409604525370284, 0.0929973526564768, 0.32056759113498945, 0.0076814479527305265, -0.22409250554040472, 0.13236047765394315, -0.35513922718534807, 0.0446013235477454, -0.030985139602339812, 0.0411356220252919, 0.1951763878665124, -0.3919048345793555, 0.39781305242911075], [0.21334644069823472, -0.07323948086404417, -0.06268910347851497, -0.013055645044127127, -0.06243781946743051, 0.26783617854449115, 0.07643731320491225, -0.029082971447349407, 0.038653932406916225, -0.23926961014449458, -0.19256043305858017, 0.09842802037487311, -0.13090205732918153, 0.28476169480571356, -0.041809942820266226, 0.2769759292911376, 0.04950708965009239, -0.30358215283979983, -0.06992862328013608, -1.0805246839791552e-06, -0.11463359138126157, 0.2634598731350641, 0.10354674508212405, 0.2712977291535693, -0.16988454980201323, 0.3680459115042279, 0.0786795438954796, -0.04824559214986107, -9.690889262956688e-05, -0.10094288063764702, 0.0884805373767992, 0.12650203688800768, -0.19353077302142982, 0.00044688089757186, 0.2554023921363399, 0.26702624324326574, 0.1986526445980846, 0.4495088127305373, -0.3072538766302357, 0.3722727374300856, 0.33512440447951397, -0.05649274749147551, 0.4245676237439386, -0.23526181670088092, 0.29234120874470304, 0.35992230490728816, -0.416021476160625, 0.3990669563757011, -0.032687786024018464, 0.08494307299948688, 0.22323955595946054, 0.01856996638936329, 0.2635304511286671, -0.30620635227404164, 0.2218838564559017, -0.477501581539387, -0.10177943504676604, -0.08886577221280507, -0.7562781346508175, 0.2577156663223011, 0.12997971667559277, -0.20338510927430486, -0.09757514221820758, 0.1182247893665211, -0.018026039647293487, -0.02235241320195819, -0.22033029431574602, -0.3158320002706524, 0.1196666905060688, -0.2123127070950096, 0.21944465511210437, -0.16792825490194757, 0.36215473425323064, 0.21647621258151598, -0.5515359904942422, -0.16399287511439012, -0.009804155268252823, 0.25277090847418704, -0.10234792430203254, -0.1079345594480722, 0.0006331965510693961, -0.16365265394777634, 0.10168273155214316, -0.5790907733054178, 0.07942407520241865, 0.16728096604815393, -0.5502824385776593, 0.1348418177486767, 0.20924755519630675, 0.2175995799562001, -0.10207577479359409, -0.25989264621124863, -0.17036082893430637, 0.0783109903249514, -0.21589985889264923, -0.18068248655866798, -0.2533090921606347, 0.24953794687431258, -0.27335144234001935, 0.006751751014733042, -0.133170735826734, 0.020006567342135875, -0.20017698934651673, -0.07909731541885508, 0.02066676068645937, -0.06510071266783886, -0.3770607595207999, -0.26046492072501265, 0.24355505930674665, 0.1566784442536967, 0.13817902427292378, -0.15899855259396242, 0.027793653970548626, -0.0703511539152278, -0.061081886562170666, 0.16549479748317864, -0.18608136152452687, 0.44859423334907367, 0.2630019810498278, 0.17022124396516533, 0.4035915538296098, 0.017282062755202606, -0.1022979434868538, -0.040577265765616925, 0.4832424694119372, -0.012482571569778724, 0.09218817435960279, -0.19246995469465247, 0.07197181882171949, -0.5010254856143759, 0.5769900413321994, -0.06067029069399248, -0.4439856931518709, 0.28932086970105625, -0.059851684929008483, 0.23475050450944918, 0.08153300623215039, -0.005088847175758179, -0.5135306724436788, -0.09204133003964649, -0.2655608089507831, -0.006332357804558006, -0.083873312278781, 0.6969246091168766, 0.24063723324067962, -0.10554076804577184, 0.22609671634369535, -0.08839932889071253, -0.08551818575080829, -0.2056773896990465, 0.09992797834310622, 0.2361567025830695, -0.1996774935616227, 0.27387974064753007, 0.059928393061433334, -0.23750060312818286, -0.14730792616503285, 0.12369023771718964, -0.008996083152773946, 0.0973763629660725, -0.13018999657938674, 0.1988166331651571, 0.18558807761020388, -0.47826388573499323, 0.06855645920171968, -0.8333270371172768, -0.3306037772502345, 0.1732429001008392, 0.16517590961787906, -0.2563094035653159, -0.46364796845971257, 0.024312684531206472, -0.4013317555758562, -0.37396971288510694, 0.17007864459649, 0.055547596711135426, 0.04278919354310384, -0.21421098078985765, 0.2973766077757758, -0.1912089189253476, -0.3590636696555105, 0.06585943793808734, 0.21063364627511613, -0.31286670700060454, -0.2525096777875262, -0.8079629000550576, -0.14858567429629171, -0.2756524207648766, -0.04564553433556441, 0.3674289764098784, 0.13165484639860642, 0.0030322558503595954, 0.2360396924652515, -0.5471535016451681, 0.18817454924667634, 0.10263264379763953, 0.12462335629233416, 0.07265620670254512, -0.5078170527634772, 0.3367967189098751], [-0.1556794524639498, 0.24866028334163562, 0.20820260382446903, -0.4726352465786957, 0.25848359574791835, -0.2696531015223594, 0.16714642287074186, -0.05545198618825089, 0.3123627261516439, 0.01713548850462853, -0.230860924317169, -0.2567432482841152, -0.01588239694912298, 0.2022406014141963, 0.12602253283580933, -0.4374395157902669, -0.07810285157062281, 0.3269085090440233, 0.11580996928411749, -1.3428077914405036e-06, -0.3806117111496855, -0.11719188573060457, -0.11739663765447353, 0.608977026450815, 0.18247879796639546, 0.4305379877498255, 0.15932467502852274, 0.5853516071008181, -0.07998904850732269, -0.10550697406954893, -0.25402291832555784, -0.15645249333415198, 0.017967057474265604, 0.0023699082627192504, -0.5544894566238956, -0.13219904068649277, 0.2500021108760531, 0.18451730052954288, -0.11696762887413471, 0.013730065363906677, -0.3836180551254495, -0.7111591525346939, 0.03386894186513924, -0.3716288030564367, -0.15430333715022818, 0.0032505290548628303, 0.42028943441246847, -0.29262331265627195, 0.15649540906905465, 0.027618468723470582, 0.07220969347115595, 0.5144329908840035, -0.16705344658466187, -0.3875253797707247, 0.08150133239735594, 0.2786310968304049, -0.08393088259876384, -0.3443852073318573, 0.16815849275321487, 0.5443265216472256, 0.5384870288347681, 0.21570112865602709, 0.05422024740594815, 0.8498035206987479, -0.1917254561480078, -0.35463312478594905, 0.0659286442697066, -0.15117566188941892, -0.23925410607511158, -0.10946079967087756, -0.2522862223321059, 0.5053112399775357, 0.15732114229601218, 0.3607168562593566, 0.30188285399562304, 0.1604502983201543, -0.03344904231884685, 0.15655472809715823, 0.0664731443585749, -0.29521676158686283, -0.20841061529450375, -0.13661110202243812, -0.17227418921905677, 0.2126946860601796, -0.2946488718588227, -0.29224064825220913, 0.11585537116764019, -0.012818443233460548, 0.12851304332191563, 0.27450615601285594, 0.11839039686980286, 0.09383119666515585, -0.24100395396786686, 0.24346587234042205, 0.34835258102171685, -0.11937624656340545, 0.1515412682181684, -0.006761662862896603, 0.3727183509261412, -0.06691671388158289, 0.9295233971591396, -0.10141295714147112, 0.0053721743625441505, 0.21488756607871193, 0.017769878151131187, 0.2829616174603346, 0.0789447481292374, 0.0718840880057344, -0.21299514426446847, 0.39909725548583785, 0.0195651444499289, 0.09181591622302249, 0.12302643442117397, -0.005677623301208044, -0.00647964527200535, -0.007350145805052379, 0.1589062500786043, 0.1687511157850963, 0.44107058517481595, 0.6295969998102668, -0.03954510109371687, 0.12093553133056185, -0.00027696441827456845, 0.12911241518635597, -0.4346682831303435, -0.4568213940165701, -0.9161904763773769, 0.3460923058278376, -0.10005478307689619, -0.08547564637991946, 0.5677841517227478, 0.06018415424283149, -0.11222662040426529, 0.2100075480617574, 0.0700352013571522, -0.10184689031651094, -0.13767982422093716, 0.15339581978646757, 0.0504815479769979, -0.31655809025050546, 0.05730103698788009, -0.0009015978056792103, -0.28657548303594793, -0.3847876922592952, 0.027217926491458093, -0.4309683154264342, 0.01009648969267232, 0.3043688510856899, -0.24052780980821642, 0.06932127687794275, 0.9153486315035069, -0.005195093740518022, 0.2948300938560358, -0.030187459839978028, 0.09507286437168573, -0.4437418704324473, 0.1753062170126675, -0.5370199603278049, 0.13293304089291563, 0.32536263395513687, -0.6752012125954849, -0.2907265464463879, 0.08605911549516153, -0.43417041887621205, -0.09437860686042956, -0.6687368335664426, 0.1381130378215803, -0.4102927043689836, 0.21157082388202061, -0.2859649297661791, 0.3250294407111669, 0.20414647320484047, -0.2289056279648066, -0.45223081835441725, -0.2297928494807713, 0.07176525693659667, 0.4201538278529683, 0.025233818640405276, -0.2625691861927209, -0.269025260277136, -0.4583676791715788, -0.050986031090678854, -0.25462907969947907, 0.2557674595095569, -0.027361717708685406, 0.07503968954399637, 0.10423654367607396, 0.008661432265804703, 0.34568230420880863, 0.09783335022272441, -0.39640484584502295, -0.4202514987386495, -0.24465424796874277, -0.13694583046395015, -0.032706597112283756, -0.1747805085727026, -0.17511139974451792, -0.21556503534558938, 0.014491525715253192, -0.1516853556133863], [0.1184371028399758, -0.01690575567052717, -0.45544248132897497, 0.4509277056807672, -0.012713501884199348, 0.6702071910350303, 0.08367967652928922, -0.2539172936860756, 0.1519436746273534, -0.4498483577640355, -0.11639971740697597, -0.4130359655340633, -0.21736817509715858, -0.08049783345421721, 0.15620734917051166, 0.18232967937072767, -0.011478543759773906, -0.27836257673066495, -0.3616751371214249, -1.351281219935347e-07, -0.6262894695346999, -0.03037653241123563, -0.11510269663947348, 0.37607812390814466, -0.14364990667079938, 0.048682160247194316, -0.32322138279396234, -0.4540371188791836, -0.3370149531011462, 0.27319040412430967, 0.03696123188820917, -0.07912179582032763, 0.00742291138917981, 0.0010779912044658032, -0.27018496203626685, 0.28400930417820663, -0.09381582780419992, 0.2620222047667083, 0.4896923882054069, -0.09236767835921149, -0.2826145050249283, -0.3948772304152585, -0.26235686744875786, -0.06059227408816179, 0.11691654413080207, 0.36775520348461876, -0.013220810333206242, 0.31491329666589335, 0.0754184328730091, -0.051645091923008514, 0.08780075575253002, 0.22758964186664551, 0.22765284168842542, -0.29488628489626784, 0.14356681737952637, -0.18720330500722215, -0.1408764362018687, 0.07669772152608412, -0.18079814097838373, 0.2678939127722392, 0.5450591642646125, 0.11859236816397595, 0.1770310998775367, 0.2150256617440299, 0.4166514276004934, 0.06665228087741679, -0.1806283797894265, -0.17955741666211728, -0.22164276452731088, -0.26065758705342557, -0.26193926066479695, 0.10010104216710113, 0.19232605984372977, 0.18753207371522326, -0.11766793211172412, 0.44538048797736796, 0.3037573097839536, 0.1091007929392894, -0.06950012731777783, 0.4688017059286205, 0.20297226216962616, -0.15007850765428404, 0.43095541318205904, -0.0676210823129317, -0.04969771684336025, -0.33264987676200475, -0.19015749110853603, 0.3870338268610943, 0.2890849697882199, -0.4132398051024569, -0.08406950744861616, -0.2510319110707357, 0.43459732303255943, 0.03814333423489355, 0.06228639826342016, -0.16786302519107518, 0.3610570857230033, -0.18504091225707744, 0.07990837164817957, -0.06294355219724404, -0.15089154772242616, 0.21070459783724244, 0.6172493627483224, 0.1288391100079186, 0.04463165373048474, -0.2776471394011946, 0.0463891432524481, 0.8494522177130431, 0.48195296141376687, 0.16317050945585282, -0.20733746111958434, -0.2373909998602376, -0.45937098517584496, -0.16083446234829887, 0.19200710375818, -0.02915952055301505, 0.5555076461927267, 0.3189328162905888, -0.15064222205398362, 0.30809855288532245, 0.5462281887198311, -0.046575467757991054, -0.049924715603579174, 0.20375089772771318, 0.023522036766773224, -0.13133290930961466, -0.36760183224622484, -0.4784022889838935, 0.41269492607242986, 0.1824801989273127, 0.22967068261942905, -0.08541460622711936, 0.2029713593241494, 0.24306378243285076, -0.10911259290587672, -0.07267532146878994, -0.46960638232365554, -0.22694704207838254, 0.17849033009576987, -0.0750865209546789, 0.09908734527002304, -0.008429823221363271, -0.3954483848863974, -0.17877061545112424, 0.017102207587595092, 0.06527203311041051, -0.057414040213850936, -0.0388603413194705, -0.1474667780525809, -0.11008600704003119, 0.038958536902544263, -0.016108280522815304, -0.005373297232703064, 0.2289632560873807, 0.03355400011802343, -0.23502498433304184, -0.3515171762704848, -0.1859359819701892, -0.05592020379253792, 0.24632238835103137, -0.05221270990189178, 0.14937001970044556, -0.25668219541898335, -0.41036000264616357, 0.08768557653957161, 0.08938719883384877, 0.2657786626779114, -0.21667613134255836, -0.29951435214400607, 0.08079256978414068, -0.288577682485268, 0.19080867463354145, 0.11857169661858162, 0.04756895341241435, -0.2700810089599992, 0.054022106363266376, 0.006532393446469581, 0.019892616864231365, 0.27335521903655796, -0.4055581923187528, -0.18790382622206941, 0.2927094902698308, -0.1332354300560555, 0.1357198087999409, 0.3032276473441569, -0.369023334195599, -0.17547486374226354, 0.13737513904650642, 0.2220056018569646, -0.22007991796603546, 0.1425686894604062, 0.1841330196699375, 0.2696017405169609, 0.05683888477673307, 0.05306146420043639, -0.2703438422303582, -0.2033394317481555, -0.026451803972268286, 0.1316130844518228, 0.012247895955182947], [0.02565643585524468, -0.029781191880577883, -0.48727507262293784, -0.14139275534724136, 0.25920395193138157, 0.15032235429018817, -0.1255446496742199, -0.14122073484289932, -0.031611766558810296, 0.21617311414255524, 0.5413436398538987, -0.19379626537067932, 0.10671150675155323, -0.08312268943170346, -0.35044841582199854, 0.17932649744647758, 0.23406850349095576, -0.14983127552470693, -0.03490164475415564, -6.839704834495275e-07, -0.0766526231789245, -0.16917891159755744, 0.11989508575073017, 0.2345795603158369, 0.11345143899855369, -0.15798008309623185, -0.6061025859550255, 0.13874588151914527, 0.1866523227787417, 0.21123627054795732, 0.09918392689555247, -0.27082627170856094, 0.12276075673047414, 0.005495039451430444, -0.038876065616750215, 0.09353823424786181, -0.11700546237805437, 0.22474557093335507, -0.03581375951292223, 0.2169091632867829, -0.4029050208930193, 0.17424383688385833, -0.3895991293464618, -0.16668435065059986, -0.5829963805953492, 0.012783625886308133, -0.3148466058555176, -0.210419849351972, 0.05277504837848005, 0.3402400764086664, -0.03701987313937602, 0.22698089319685857, 0.08535525084438235, -0.03232944851775088, -0.07551110964050833, -0.2981366259047584, -0.18483728118210743, 0.03923027180583656, 0.16109076533126715, -0.00731869690555387, -0.20228496958775333, -0.2134738369968532, -0.3047891890158811, 0.15237859888081562, 0.25635981285599097, -0.3972449537768787, 0.033473278744972086, 0.34264118684901157, 0.08414909964894698, -0.009396596893206557, -0.09035997502994939, 0.2821439754279411, 0.3683377317191277, -0.023509489738174797, -0.02736508445223468, -0.02513877574298851, 0.13799204491952916, -0.31840412331497875, 0.38175524826519897, -0.029222636861019755, 0.28182050078927284, -0.33580138350469596, 0.48037422017265824, 0.4053443273591596, -0.05491891870059373, 0.20524292737821162, 0.1300908485456859, 0.04919683194661331, -0.37338109417452714, 0.08927779122868758, -0.18587822642515667, 0.07386510013843023, -0.13158386043528644, -0.18110586283097127, -0.281386343429077, 0.1783758205325597, 0.3698287127990795, 0.013680033491854171, 0.36809749703242417, 0.176191070846228, 0.23172979815344497, 0.2797954000620427, 0.14558956261308725, 0.4288162504449083, 0.03212213743732326, -0.4233230530272754, 0.22422123060557125, -0.09930899368594619, 0.05734133620463354, -0.2862635236328006, 0.2597045784835106, -0.026203755888846686, -0.076437806249774, -0.34897113605306673, -0.13911569724095416, 0.10614150645343665, 0.35148317097752624, 0.14093475172119935, -0.4293530897083489, -0.06538135981618481, 0.5117816840447914, 0.02856797423101391, -0.17167869331823157, -0.18571887702903994, 0.13640076672752607, -0.28422810637924234, -0.20784738418378385, -0.1232993889676957, -0.3019555487776508, 0.14512845803423338, -0.013207590529485459, -0.15078454647598757, -0.2512618244174809, 0.045331625930173494, 0.3821777018735252, 0.010158878814066633, 0.20222515493711438, 0.06472945864205241, 0.3233135365834142, 0.21076601928396171, 0.30641702560343576, -0.02281099305024422, -0.240404910495879, -0.1257957154323654, -0.11311296843292143, 0.03181332570521828, 0.2211538774980314, -0.2878313538273854, 0.04059379322323663, 0.2557143038912667, 0.2883929304955948, -0.26771793713023145, -0.18519168701729782, 0.1835777780775544, 0.28050201345393055, -0.1192854218201668, -0.25145072851694383, -0.2435084948895169, -0.20573662953458496, 0.1335696391797189, -0.11127638702239397, -0.25294682145477726, 0.024470824843672443, -0.26877928341755714, 0.03939850716342674, 0.18072914790408046, -0.06416997623246362, 0.36428787729847956, -0.22816590799152012, -0.21525647349936314, -0.07568061625560793, -0.05951437440289996, 0.26836646955004484, -0.1436289233248338, -0.03233361933749873, -0.1270105225614418, -0.11549234806288078, -0.1723796674698033, 0.32603341046395956, 0.19931941715294782, -0.17643506241941928, 0.22852804913463107, -0.4036745210845373, 0.3029005020491862, 0.07985230192791204, -0.0699125703346717, 0.19473021958381573, -0.19279254417876512, 0.1174656214642658, -0.17199062784007077, 0.20243988160800022, 0.16795998392783926, -0.1930787105579661, 0.15623485799138676, -0.28340129492030963, 0.1905001901433416, 0.15013526900566948, 0.0714998465751692, -0.21355521789911638, 0.16963107189292476], [0.429564005559249, 0.02648643638971015, 0.020255815244449322, -0.019477743711010718, -0.06410772071136887, -0.2980260908768685, -0.40597747716261484, 0.2858562124617152, -0.18869156272393786, 0.2766279582009281, 0.023630291807208742, -0.044594008986970295, 0.02157406053423325, 0.20018461067342058, 0.14843729320076704, -0.19635093907781465, 0.30923046122963643, -0.28366046407880063, 0.196369737649363, 1.903754877341236e-07, -0.4657533208456252, -0.45268132288392793, 0.059105031967382614, 0.0886649678928576, 0.04972337273554586, 0.17486618745128327, -0.3310865468000256, 0.11045260470528209, -0.4336145560723593, -0.2843273383600162, 0.07453930802204882, -0.22023795415795727, -0.16693063718945952, 0.00898328215498708, 0.25407101418583705, -0.06908178260234903, -0.16422878456984724, 0.002307767579858963, -0.02032601418242012, 0.09379824936530738, 0.30326883147893147, -0.30013471569979694, -0.09843873935764895, -0.0058520634043778275, -0.44966118668185334, -0.06890004520743767, -0.2526092828183188, -0.17905747573357442, -0.1328185657464743, 0.5198873962516006, 0.2529538764524036, -0.21659753952013738, 0.1001569972568159, 0.298384318774124, 0.09785892332576948, 0.23060991348959495, 0.3278503493101702, -0.0931424575290077, -0.2721509489452475, 0.163534434768231, 0.023152738586510416, -0.02666878530459549, -0.022256298210019742, 0.5490500885260844, 0.0371449739779859, -0.24938632862855858, -0.05094383666750553, 0.2722362615024327, -0.13984389315272303, 0.04421554716266481, -0.1219863754527767, 0.4341751568037526, 0.02885245361930106, 0.20305641469699556, -0.11358791044734949, -0.13946702442172787, -0.005800049651226956, 0.02546117484455874, -0.248985213706195, 0.363747834246417, -0.2553692262848113, -0.05271392535635564, 0.10146221058660572, -0.0068885203793938, 0.2027678418253953, -0.5130092013586476, -0.22526913942727664, 0.055121758693317896, 0.2208029383142332, -0.14259996382137063, -0.1888204719266631, 0.2377978435562449, -0.28857162060195274, -0.12551193425022708, -0.08719925280347987, 0.14414209806082667, 0.0015455677499973488, 0.1145371790121365, 0.08203178802647997, -0.1668158571567666, 0.14147299027287163, 0.4018888381509975, -0.17755124685830936, -0.05664763766446645, -0.08070451273704497, -0.03315830906030213, -0.2165232324888017, -0.2011754069766079, -0.030944816014060815, -0.048088533678924864, -0.31315747519963844, 0.011293608861492535, 0.007917423770629796, -0.41430892108672374, 0.006861146029759273, -0.07953504059009987, -0.08589589325124539, 0.19494318671777375, -0.5564152205212392, 0.267631730992189, 0.16455377321746856, -0.0036718854139567614, -0.36614853343736137, 0.2481503521590848, -0.6829960227140613, -0.19570011049656244, 0.12242285290186833, -0.087554659817396, -0.09207837264776238, -0.28879632907469205, 0.03971161412255031, -0.10142348200257523, -0.4880416737437991, -0.5276472529936104, 0.29132981718832146, -0.10674030995104018, 0.02919156156407947, -0.3372695911473522, -0.12253504401959206, 0.40978578537081106, -0.04435174344999789, -0.009042090247513814, 0.02851826074481875, 0.2076028048787914, 0.05090177712207007, -0.045972518411346856, 0.0066218452804154134, -0.23255416407985718, -0.007210073777030901, -0.27710125571752414, 0.2171698691000903, -0.2545083338652962, 0.3615203126098738, -0.04190380243829376, -0.10634017195596203, -0.1686274333550105, -0.07469839057682759, 0.15143321434829005, 0.011857937782272922, 0.1443874423132334, -0.19653954212677993, -0.21496203714784579, -0.1106145837583104, -0.3876576693268761, 0.12404625623591813, 0.24056215037462295, -0.16949420220924652, 0.14378357655759638, 0.2669500890869029, 0.04612836643062523, 0.21044099425461138, -0.07638615362041208, 0.4501801495311385, 0.16935655058998295, 0.18696084823332776, 0.565739679873043, -0.02416284662904272, -0.2117180484804959, 0.29889484307521264, 0.19902290475608753, 0.31889030578579336, -0.0858147271327083, 0.0833877297539054, -0.026437616875140606, 0.016901279974900492, -0.09640681152667348, 0.01138325733431103, 0.06768673877015982, 0.3218912157154492, 0.22693927475296788, 0.05030713271763065, 0.05505764417638753, -0.721218872071654, 0.4307878292733024, -0.33149487528789423, 0.010383842699344009, 0.6980254244014292, 0.07473242648936439, -0.04528634558726259, 0.320386603565054], [0.4126679707717187, -0.05629108131898649, 0.25892787794346195, -0.22889677751814705, -0.39720298492819106, -0.05933469944671055, -0.005804518320167581, 0.3454383968558622, -0.22860310112285323, 0.017836421043380707, -0.22886318269468497, 0.3870766177171886, -0.4368790129541346, 0.04978184527056535, -0.10470318424961171, 0.008169846109120221, 0.11893268110038843, -0.4414888809127614, -0.03151322463598083, 8.761367357434995e-07, -0.5429756015637188, 0.17983442731287386, -0.22792007219186214, -0.09437517264072341, 0.3820658757237928, -0.30201197145610736, -0.1836335479138309, -0.11986361739296161, -0.0034968961314057506, -0.5237729296603867, -0.19426662748352114, 0.2322595899496017, -0.11356113295791427, 0.015279708491835329, -0.17984808825706533, 0.23898315485832242, -0.3838688364719425, -0.3987406904098212, -0.8827433389367892, 0.09519109048363132, 0.38643936002428625, -0.09548359921379135, -0.024674437899317243, 0.047212585768830896, -0.26476294044655885, -0.1013254636325676, -0.22092256868862134, 0.3096628613711546, -0.1584059954193572, -0.08723681619735289, 0.04363873238477135, -0.2276775463749529, 0.01118545432097726, -0.0020977084912821038, 0.5157157395732165, 0.36889084006273404, 0.07496357266965849, 0.31089694783846156, -0.12777609388726696, 0.06799277472087804, 0.37444102272140506, 0.062283910302763, -0.26118444210754854, 0.04928009392075671, -0.16006317239401013, 0.25581815396445284, -0.011017778981053928, -0.054893457467031066, -0.2380304570195127, -0.30282676226401173, 0.15825090492019606, 0.11353776894501846, -0.006294059210776212, -0.09742934196997989, 0.10237522609927122, 0.0393139010727415, -0.28517230202401556, 0.37602811271511216, -0.008319875094832604, 0.17866141751778494, -0.19477600332810005, -0.12403917418554913, -0.15303106240782713, 0.052238352660289436, -0.0926237272002569, 0.05004829638434826, 0.06803110865466346, 0.20915575556370158, 0.3466951722528348, 0.1511582642637792, -0.3046733000746391, -0.0780019366173714, 0.2484935482686111, -0.05692085584815334, -0.08513840046789505, -0.09065634988427537, -0.1536347643683971, 0.3805969170337063, -0.2001776970266224, -0.29340341351492905, 0.002912894239129655, 0.3200369352607624, -0.2624085323541764, 0.06399660623905969, -0.11427833257668758, 0.16844586308384887, 0.05861659828948146, 0.08997815310421631, 0.0011215791589951468, -0.13400449751466964, -0.29209102113032887, -0.37678018599666047, -0.12656412874350484, -0.2892670510290893, 0.5502744777952825, -0.15047965041570785, -0.1944372341974773, 0.22060287704235423, -0.3553864757259549, 0.043762434292656846, 0.0973907084482457, -0.010824998610040314, -0.05105145436310972, -0.10751108023964671, -0.4575116434721544, 0.16369349360065213, 0.38878032031851545, -0.39645828073697886, -0.01864842443689082, -0.10366551997654846, 0.16158417169235523, -0.13374610388940808, -0.020016752215449924, -0.3455535993786473, -0.23250069150402922, 0.02017089207926588, -0.1783517187454838, -0.32997404225475696, -0.5605328349822527, -0.12412112618758422, -0.43529652845172834, 0.02588344828159736, -0.23055687626147556, 0.02722836087581541, -0.03774231346950901, -0.213738086232234, -0.05032617801246935, -0.22363480919289014, 0.05996355628371972, 0.021446442358238157, -0.14338368985063069, -0.01743511362361371, -0.312256266092647, 0.1367609770284872, -0.2082274640317895, -0.2895238126041976, -0.20474030269128893, -0.027060377692248547, 0.15790014183609566, 0.005584108300863367, 0.18067870629739513, -0.09052125704687548, -0.20977409961330867, -0.1854491785243099, 0.26995327559371546, 0.14276192780805172, 0.11032689144206158, -0.06708575321075166, 0.15478475187340615, -0.19032808016362743, -0.0769897459207708, -0.07173616016846453, -0.31944048310329465, 0.2192381824720525, 0.08310930662439152, 0.12069409215543303, -0.16520996833417073, -0.39808249793837863, 0.20343748709929296, -0.32098585668105534, 0.35575317363823566, 0.018446797664064544, 0.10453368122428335, -0.07523221050250525, -0.4131141940453298, -0.3145355936471609, -0.8208636577991493, -0.1642203603446309, 0.14487184608028064, 0.04777093394388951, 0.5712035524525351, 0.06290322937182748, -0.3486699182156969, 0.045362010180053695, -0.12821024530973027, -0.3707501711236361, 0.06264711925001783, -1.7593993951685347e-05, -0.26237487532247844, -0.3309895551647051], [0.196433283533507, -0.2018678949666746, -0.12847965230672473, 0.3997015693847934, 0.2669533015976575, 0.2704101086682805, 0.05042688632807416, 0.11773547031294546, 0.09364770498386099, 0.1510825860160634, 0.1762630913349733, -0.1229185750484255, -0.3275805514254231, 0.39862759984570456, -0.5503753402231246, -0.3238854955680774, -0.21142145131858023, -0.0859219894018273, 0.08756922188660396, 1.2495567046374784e-06, -0.2547957372265632, 0.3384180155023584, -0.16952666657794535, -0.4713883332791063, 0.223570665764617, 0.05045232882253792, 0.12982270095471926, -0.036942232041369524, -0.1519517863398844, 0.3673312366107155, -0.24093373784479236, -0.4183891852367739, 0.05397498293621701, 0.009898245078366582, 0.031852382878776654, 0.3852943121010932, -0.5182540951504365, -0.11718113975240706, 0.40043914830110416, -0.02200431119452147, -0.28287432922574324, -0.444145628336859, 0.23213090199643474, 0.18952383362297423, -0.614514906419398, -0.2789029373851103, -0.019079538163678883, -0.48857019601026797, -0.1652886813901786, -0.11495900019393764, 0.08434845020536431, 0.17815080877356076, -0.006912800361506316, 0.2096156533538986, 0.02526087875511244, 0.7262797970192229, 0.3819621556988845, -0.43056290544160997, 0.07783668620363526, -0.36950755920046174, 0.3016583345827083, -0.28989271462719807, -0.2585269064847381, 0.14715312785589174, 0.15981840858007304, -0.1690164496489982, 0.04590119357064873, 0.4067002674978119, -0.21787407361262276, 0.28263152136918995, -0.2866533854111219, -0.06672753007331389, 0.46027317580968413, 0.0478631120732198, 0.23788746099434618, 0.13437389767342522, 0.35912518051529824, -0.3598187602144127, 0.22717479528720455, 0.32643526801264083, -0.27675778555199054, -0.06231621901971944, -0.1749865721244356, -0.011334040287497321, -0.24533612375651193, -0.24043534503754116, 0.27683898455320183, 0.06643614055307792, -0.07648138749688732, 0.020128298496185266, -0.10138549051147225, 0.11580436591275595, 0.3273187232276288, -0.13248391479951693, 0.1016360969761596, 0.13350073941617402, 0.0738536033776162, 0.46083973340184115, -0.2603457283407221, 0.06151437502906176, -0.5441606459983389, 0.020306715928427577, -0.11992488815144951, -0.07706585001506505, -0.01531543478349501, 0.194096129830308, 0.1056078549319863, 0.07770008102764966, 0.2477896906299561, 0.06542698456045266, -0.23935202547134227, -0.3618073032467779, 0.1869415128809859, -0.27351917870771547, 0.46537842168186344, 0.5751018977755503, -0.29195889198376446, 0.025923647829287407, -0.044601076251823565, -0.10670522205075426, -0.09678607639686904, -0.30475687277322494, 0.01890791737611261, -0.14798930031404145, -0.03157927275541923, 0.06597748837089468, 0.017529421390918, -0.08813240829854406, 0.09165699047534066, 0.19406438675276563, 0.3959057687294434, -0.5451637998399169, -0.2778088932582594, -0.2897561654227512, 0.6571366292092262, 0.11361533736533189, -0.038902836851940355, -0.22031661438248318, 0.1536029340960172, 0.07681291591189428, -0.33818631832176127, 0.030443308849172037, -0.10192520017012462, 0.12326350465361265, -0.19498973053044294, -0.497478942441774, -0.13714668587651782, 0.008494864501592873, 0.1351156039966064, 0.37038244105357937, 0.3369387104739357, -0.05536304529678618, -0.10469702918190442, 0.20878526520484278, 0.02727527961607618, 0.09078677168728418, -0.3530204955846453, -0.2897617182451968, 0.002452858141017458, -0.18515068972988, -0.3713063608403736, -0.712230996221289, -0.09110613988311392, -0.3232357638891681, -0.024214323009260793, 0.09717560054111726, 0.043575378994036844, 0.008454370008519181, 0.20485854363390427, 0.08899233161876208, -0.29452371221592916, -0.2442469757871835, -0.3499133634647267, 0.07410525807027298, -0.16078326710421628, -0.11059314759892655, 0.2095065431008444, -0.265446719957577, -0.0075648491903067125, -0.19636494654331219, 0.3905774546098246, 0.050838948713249114, 0.37404012971117667, 0.3235962526606687, 0.5619062552412871, 0.17474815135689, -0.016459368882273465, -0.05512208312918564, -0.0696348624392641, -0.40019295706832136, 0.12550747533211243, -0.005228323124881762, 0.02828335461552091, 0.31797282163803026, -0.14597395997260273, -0.10762768801109136, -0.20600111998402512, 0.07288937456510078, 0.5175332350198794, -0.2772883220350422], [-0.058893964420824, 0.027562025642948584, -0.49973707415121316, 0.1853413454926122, -0.26629707291747967, 0.18342317703200625, -0.2151164879088265, -0.1006861260829976, -0.18589803154082846, 0.2508951173852875, 0.30906176682727154, 0.2205889162996013, 0.041842817480280826, -0.04829536645910565, -0.002269962843382182, 0.7032347756015126, -0.02006152657311283, -0.17021542036360587, -0.13900898848930762, 2.0214016339815733e-06, 0.004265490212219828, 0.21816684698062988, 0.0019136382252196414, -0.39598890859097724, -0.05942620267742416, -0.20608903533523484, -0.3271111991825624, 0.28965590408386416, 0.46409295095267505, -0.25058156361805184, 0.29331714911189066, 0.01177953483078668, -0.05442155232313504, 0.004745401361287223, 0.3512263721301569, -0.23916016600039805, 0.03648101216394209, -0.41168953757863, -0.527714298335981, 0.32429367142812077, -0.23691209334799207, -0.24569494947097187, 0.1708610772025154, -0.22361180243304077, -0.1481900228132689, 0.014949539286910882, 0.11572316671462128, 0.025183010935562234, -0.0877371143400944, 0.07243476516968746, -0.14143899389888984, -0.007593196637996493, -0.1328549567364646, 0.07189639365658525, -0.2986396688787361, 0.6811526468449666, 0.11765606824135551, 0.08412416010115424, -0.25253471743270295, -0.03970205061585724, 0.5707044918625589, -0.35685412260124183, -0.1142545965699262, 0.22961585183147606, 0.45270505167324476, 0.3573469760452517, -0.017959708807846888, 0.2690679545688899, 0.3236351069832867, 0.2381476814109133, 0.1854477492992826, -0.06821033938763303, 0.3754664963812333, -0.10219115025414027, 0.03310699240124663, 0.07065148780951491, -0.1059579710027856, 0.02793367435860294, -0.11242170592995805, -0.12435218886837054, 0.15937305599106008, -0.007604413338492139, -0.13089631242962713, -0.42449857281084913, -0.23192805554504037, -0.00023817803188891292, 0.09321080354301686, -0.04865049032343721, -0.23324512975056513, 0.4619123963109054, 0.028084108281382986, -0.08088179440112259, -0.04158781378584679, -0.10645866527870294, 0.06726664937072192, 0.137028341102834, -0.19927156114200534, -0.04148247931585473, -0.2000060418036954, -0.7402998192628776, -0.18906361451193412, 0.19336306340358578, -0.4936830963351106, -0.005953457082250242, 0.04526711100253672, -0.23385529612655737, -0.38896195277998574, 0.19652154451073175, 0.24289371761244394, 0.3144397776252246, -0.11519583389491048, 0.013175109113176316, -0.22489327775498574, -0.6210855423224209, 0.17085393098307078, 0.4265229784784014, -0.22203217402812223, 0.07938640383441947, 0.2707993783903718, -0.32558658574539434, 0.6602194147174988, -0.5203915003125223, -0.20037706666654923, -0.0035678321084802347, -0.09469510657240968, -0.16338602094464272, 0.2996068046803859, 0.11507076060255203, 0.07249803050554827, 0.1475980526291727, -0.03504990685661587, -0.7270803341349726, 0.4856115831679978, -0.3295339997524223, -0.19687068635952606, -0.06455075266534213, 0.02393509718483456, -0.1557361926915728, 0.12518302452702032, 0.04370436395981187, 0.011175520480390624, -0.004568585720143447, -0.225327780399678, 0.15548192651018328, -0.12154001186717978, -0.014990993151707559, -0.2557560979705758, -0.12489301404846499, -0.04852706325772593, -0.1619402481678722, 0.09603285326769968, 0.25310333018039854, 0.30698063415577886, -0.15859332463724946, 0.2532242469031151, 0.37759124243272135, -0.8167038467699125, 0.06986566230040363, -0.22899054053427886, 0.09280549666326406, -0.2323172705500966, -0.22654213641558157, 0.18315071188761614, 0.10205999353977027, -0.04758707470935151, 0.1541676515492723, 0.0987460777944236, 0.23254709123713974, 0.11610069998255373, 0.2551195258091767, -0.29262890340040887, -0.058003979214632406, -0.34807919522634534, 0.1487472917960662, 0.0025381129063515896, 0.3391040887033185, -0.24887260881179604, 0.0743306374229824, 0.17224127200127506, -0.10770853979015695, 0.38730112638811376, -0.16697553885578315, 0.4248254062974905, -0.03644654170453964, 0.4145775965078054, -0.15337465004875322, -0.2572797199885586, 0.05822099520181218, 0.1041394298053405, 0.07093740777758026, 0.6265928609623491, -0.26991531618635545, 0.08931622487407448, -0.12601557275417183, 0.04383444112277976, 0.09783990254862186, 0.22286127780622036, 0.2196689298172461, 0.21230269173151728, 0.11304035836582538], [-0.036589829345853586, 0.021663141597443827, -0.19534299557609935, -0.4917556359100036, 0.2933608645018595, -0.4215809482546712, -0.30771211979759666, 0.024046478609866636, -0.028655384394095786, 0.010995721107062132, -0.0011327208072497341, 0.2192180248036316, 0.3023535540354179, -0.19848715308851342, 0.0926243773189574, -0.10866817024033, 0.34520756351049264, 0.21687679253151268, 0.6963998693764673, -1.1819795002833264e-06, -0.09974350683841715, -0.252910678958694, 0.07444701366792851, 0.08616810087292108, 0.2644752702782756, -0.46084070276651795, -0.09964679922261264, 0.17137916542057482, -0.13129689055167257, 0.32162738457830664, 0.10808845799926539, 0.03496794252733083, 0.07308896603990325, -0.0054731879356180275, 0.176587090611405, -0.0678663153036492, -0.14552145131152958, -0.1591605266209596, 0.24305858785603288, 0.2099480003230518, 0.02409293517284509, 0.19998986191511098, -0.07073744882051401, 0.030674646554678508, -0.16227145995997186, 0.2854564534411065, -0.29303490446339414, -0.03697232836566681, -0.04330373967828053, 0.14266999689896773, -0.1000821545529514, 0.38199827608540254, -0.07641329410512719, -0.07705427684549115, 0.011359162707848881, -0.23096619125493353, 0.0721535863827125, 0.2648240266591139, 0.18008261529344516, -0.36629592333838634, 0.10529294698262665, -0.05159627865218272, 0.13937283720176852, 0.045170764551196445, 0.22044022302957123, -0.017244438465406728, 0.2606216502841116, -0.01099667297092069, 0.13815435368357706, 0.7783449095770063, 0.04419856082854251, -0.3165215383765392, -0.16278038280937784, 0.1428927095276962, -0.06880090124724578, 0.08092406375537273, -0.027399167201707725, 0.6555071178841647, -0.29418542492631966, -0.24622254790424197, -0.10895867615374041, -0.10686583095921275, -0.19243435724472785, 0.08540096900485437, -0.09740789038556232, 0.13067211533914241, -0.15226010191046677, -0.3205869966439516, -0.0021903418723871046, -0.18565451466599278, 0.436211187136713, -0.009004309593638049, -0.26393669342418236, -0.06852337405414605, -0.014738626217207357, 0.05546243831782817, 0.006375929467312829, 0.14126707028192959, 0.058636628155046014, -0.39134426444122883, -0.23612661485860909, -0.015207537640913782, 0.16183621678567295, 0.005076699058851691, 0.02773795360353383, -0.2179951038577029, -0.12301769679170747, -0.046175876896385346, -0.16118196644443958, -0.18905627290559684, 0.26628033506591575, 0.1298778326284817, -0.419193541863644, 0.1938148047502368, 0.13745732488526788, -0.40523600494020756, -0.12000389219421681, 0.029035654010790134, -0.3800971953582108, 0.1708168448070423, -0.41403296818425767, -0.20870703017688047, 0.035158756385524355, -0.2848696747458789, 0.26362872755191047, 0.12022047735402193, 0.4355110021348114, 0.21961965266284653, 0.016077379396693094, -0.28012278092298387, -0.2640169013615483, -0.25539969875962504, 0.026083358162635375, -0.17325054699087808, -0.20612748297152728, -0.08683209934754975, 0.021633175829867377, 0.17141782740162936, -0.27291890700868404, 0.5819517302658003, -0.12136940891236178, -0.01752147307373142, 0.11412747966619503, -0.17629970651216634, 0.3465998951104877, 0.2388787266378495, 0.27138681811414467, 0.001805219771277576, -0.03007083821019301, -0.20625369883050468, 0.7511318435941252, 0.43117264454110044, -0.12308058069223164, 0.017142019569762537, 0.10544338729966567, 0.09238079338657335, 0.12039825135994484, 0.005357632378801011, -0.4183614853662123, -0.22632779978381656, 0.6158540531915958, -0.19724763972558762, 0.009002965051339093, 0.4418983029906069, 0.18293196885289054, -0.1596026539737461, -0.04599133700924206, 0.028602659265963823, -0.3480521794655718, -0.3148983624515506, 0.1389468197543522, 0.24369271282935404, -0.5980958520911035, -0.647749443520566, 0.169086473759902, -0.045173358804063826, 0.18942184780176288, 0.2355837235654594, -0.06268970599217331, 0.07164332732351021, 0.42000389191839455, -0.19829307319429842, 0.5428537392342554, 0.28354582110963206, -0.30611517329520305, -0.21687838601836454, -0.02298826121374403, -0.08587771543571554, 0.0976825511411791, -0.2784098596453874, 0.17235654914557538, 0.2375146422308982, 0.12139587894013756, -0.1026137000798923, -0.062157077638777154, 0.13534383182966825, 0.07676520899634781, -0.23525947796128335, 0.47579973658074404, 0.157531814430651], [-0.307193391988407, 0.16920135189972593, -0.2892693936845752, -0.1041020421462531, 0.1919613362606534, 0.1448711168706135, -0.49418896805726603, 0.08065454568675177, 0.20609655501704877, 0.04331765475361184, -0.4991623059847701, -0.21090261753609219, -0.5307446646706675, -0.25893173493265015, 0.05844154493320096, -0.29813650071887765, 0.4775560828442873, -0.042516900620365075, 0.21092327399803595, -1.6263362968477372e-06, 0.19364417067146236, -0.09125698714754674, -0.12257730764596514, -0.08508560735294295, -0.0486163478437034, -0.2395703504588588, 0.04441268576680869, 0.13597863628394585, 0.14216660785344856, 0.37079535679880526, -0.041451931354151345, 0.09602166569437497, -0.09258379306364907, 0.012767448092537072, 0.2759899915733646, -0.039534177224525104, -0.13509760397851786, -0.05700890180911716, 0.06186298142666688, 0.2720016743242058, -0.12539961414119238, -0.003049929138879236, 0.1627895233587009, -0.1803117159873963, 0.2529461895701541, 0.04406189328769276, -0.5838298855126018, 0.1882039355768469, -0.5833274801924414, 0.3932474120577555, -0.11599262441067427, 0.5945948540587875, 0.19385737100014921, -0.01741595577832547, 0.14582398066833005, -0.003236055817980353, 0.29042715130562874, 0.02964904955140478, 0.0795715666896164, -0.23913419450493228, 0.1929980567581943, -0.28374296162114443, -0.07319132066507723, -0.14428339867021228, 0.16484479042870717, -0.2653284505100726, 0.0828572793363695, -0.21078615047202276, -0.40090427631654785, 0.3965387061534256, 0.02078947066684057, -0.16764032390544348, -0.03749831063942638, -0.024751613667318217, -0.20934688875346794, 0.2533865370686357, 0.16646458802756461, 0.22654494948554024, -0.046969146436417426, 0.2589558862963127, -0.1763246191082853, -0.04976143340969417, 0.08344571512084349, -0.09605311232006813, 0.018617392620539287, -0.07337305109742481, -0.042371898758368824, -0.466878807098614, 0.539090368264699, -0.07658870909621358, 0.15624244549265864, 0.32857016530671823, 0.45189008940634223, -0.0795082672926437, 0.534832754889363, 0.23120675157861081, -0.002942861374801112, -0.0685807471291501, -0.0946022031266806, 0.21537945718958512, -0.1339697460273041, -0.01571334278370992, 0.45475370577049135, -0.21243998338767867, -0.08137979061086173, -0.4347620953875531, -0.1687827561805653, -0.3369976682822338, 0.19153523691865856, -0.22021048896763082, -0.050758966682612455, -0.06385878988982399, -0.028981947816194197, -0.002331743760205742, 0.20144478766818744, -0.10807180257361759, 0.0548335655030359, -0.29591790791174133, -0.2496839189392003, 0.307941043531724, -0.6160114152264812, -0.13023356799825722, 0.06029655574746502, -0.06635996074474153, -0.057717287944887646, 0.2104685784101226, -0.006082482276488959, -0.25136420796448017, 0.06037408003283794, -0.04781316543074558, 0.3086865168682209, -0.21553550425269966, -0.05146733260263503, -0.16381615490417065, -0.0195937453519517, 0.01266507342367139, 0.5323647860697446, -0.3724520289268504, -0.24370824475369585, 0.2830478079280492, -0.40787043077364843, 0.047959014539520714, -0.1985549369835779, 0.19591336665528508, 0.15989109101400598, -0.04115164644542614, -0.18227891073821584, 0.1818032594864808, -0.04882696919206112, 0.1043364024083357, 0.3914469044821042, 0.05923251182963712, 0.06894708830200932, 0.4315593157167079, 0.01161495391483804, -0.11547964511427469, -0.09254777408895004, 0.07293558828524144, -0.31141385768934404, -0.1559378141315586, 0.009084598055673193, -0.21941942415763702, -0.26670848900699945, 0.2991156465049323, 0.36388494520857834, 0.0037233687480629435, -0.23899199032145194, -0.14070980852353135, -0.3270602864119737, -0.11479499082332278, 0.08897118771926486, 0.08594526992871997, -0.028089423827547887, -0.6413323171014799, 0.04141602555507787, -0.045312483969176386, 0.33179830555453477, -0.35076025032693314, 0.13660062291862388, 0.04205124122106818, 0.09690227285234893, 0.33933320620183116, 0.8111058026311133, -0.09405600507727288, 0.11569885556573409, 0.0941293551184011, 0.1606057033845586, 0.32051145870765163, -0.19283507710903633, -0.2504404939760265, 0.077066999529028, 0.011338828238994727, 0.16884120762195637, 0.3472803468995023, 0.09991424305872744, 0.26543478772094603, 0.20547323541479784, -0.13831259397437506, 0.17514294070518469, -0.27199438327583686], [-0.280646513084904, 0.20846507231489306, -0.2897363710556077, 0.02846725720990807, -0.11948423969621377, 0.18978880202922935, 0.2546738534071086, -0.2135866257765375, -0.1662035530211477, -0.24994478705068826, 0.3756406947482863, 0.26927532763041606, 0.3142224080520161, -0.2302979090940004, 0.2741100253535152, 0.4320064856888296, -0.15550861606810698, 0.101238440177524, -0.28809286214294666, -2.2873175615246135e-07, 0.10230485108620116, -0.2008826583019149, -0.21338211926252884, -0.2609829668320845, 0.1141130070208689, 0.5892393332410328, -0.21446475212434105, 0.12005036796486815, -0.4538260332395468, -0.026137686016005753, -0.07015863409953423, 0.1051261234808918, -0.04842657890082008, 0.007440365271170719, -0.32873268443354126, -0.12948142922804323, -0.2779793609444909, -0.4703641984711506, -0.6759801531369185, -0.055223196078329505, -0.2933570668487269, 0.3994175834624073, 0.28364441395956, -0.45393862695355586, 0.11103792627460851, -0.31880258161956104, -0.03371210606725532, -0.7734183417028043, -0.07031958843129749, -0.10897868318821807, -0.160433355914249, -0.43570712932973593, 0.285283497602423, -0.21932066018245658, -0.353733690215903, 0.2627867960146379, 0.1248335867733385, -0.19081702469750858, -0.316263819745061, 0.064225962204172, 0.02081388059989708, -0.21519925095553816, 0.2696276151426422, -0.23518463564361514, 0.28056474833381273, -0.3496389393078435, -0.26984516987974455, -0.39625513447909766, -0.1517118382235264, -0.18483951141647037, -0.3449468772802123, 0.20613673192957513, 0.08217838677673658, 0.13712643158127705, -0.18790071477663337, 0.10491029538093027, -0.01898855817102078, -0.006159106514259168, -0.049594705871656763, -0.20847500974859523, -0.11802879252150665, 0.33750677146122193, 0.41489240527509935, -0.21378949155267268, 0.481303444667378, -0.49465112157336394, -0.37146474805373086, 0.31465069779936483, 0.26908661127029776, -0.4340997311347247, -0.029953130728572145, -0.23251388137693405, 0.4848587996868262, 0.1289235957511751, 0.03933449149406619, 0.10158192653536213, 0.04616538132707796, -0.3042901022313558, -0.4211886371569845, -0.6218197551373924, -0.22943429964569403, 0.36566820439881237, -0.20185835614440875, -0.5327485436235782, 0.020206887105239178, 0.1352326140109923, -0.08533279463849264, 0.12506754198013245, 0.5027836906344059, -0.19887549741125368, -0.24465698663570115, 0.20051917098265784, 0.24419860441479346, -0.030293518702043047, 0.22792206028688572, -0.046342067828603076, -0.01375673270852327, -0.27570393286437417, -0.5275362012734575, -0.14749198056064758, -0.1457290560872174, -0.14826555522852153, -0.1851552720419249, -0.35402765206625086, 0.4480493066366357, 0.01729577028384991, -0.11942224493257954, 0.4044320281239018, 0.020195175710516454, -0.11567558652403229, 0.02524737332279888, 0.019522803884930735, -0.36111811633513274, 0.2195317514478017, 0.16353519019224294, 0.237676911801394, -0.14247963635986383, 0.09247926518635602, 0.26600177010039144, -0.03921482910634857, 0.08897806040137131, 0.029708375131719245, -0.32050519594863763, -0.14375611779192005, -0.16468517444201414, -0.19012540168209066, 0.17208366320012236, 0.1540269499373678, -0.09339596191095687, 0.19996317859438895, -0.39977367689186477, 0.12875374080777757, -0.1570751552789028, 0.10014046478122195, -0.2624275820004649, -0.10847701471951617, -0.32275075168867745, 0.09608636321448648, -0.1493028534259103, -0.11273975373952362, -0.2418298631420613, 0.028895277801414068, 0.27225579463996347, -0.18421833208041805, 0.050574796597906715, 0.2996234544944397, -0.09543114108169093, 0.0061367608522459, -0.3242368353252169, -0.2062699808465566, -0.23157837020773622, 0.0412109117237402, 0.20705147562180806, -0.13120064861849212, -0.04607908939548571, -0.19588820789681485, 0.10861319742899427, 0.48331116730890816, 0.16489649186457112, 0.4038938849289995, 0.05549946325026276, 0.4587909611256257, 0.06560237384684849, -0.7041805725227568, 0.48331858774807757, 0.03201677211657394, -0.10610045070898519, 0.1846021051870956, 0.10295824784615595, 0.3593077307171865, -0.06689962683329566, 0.16348371415927418, 0.1430790737280219, 0.1019838778385014, -0.10348084779406465, 0.42313525403018704, -0.14104463718087548, -0.18207191240285306, -0.02831144703096723, 0.45822229665666514], [-0.3265788126609306, 0.21172363553769108, 0.05315164753040833, 0.3855363403913392, -0.21701581283621071, -0.05042361404770786, 0.42095602635116025, -0.33260415916754915, -0.017610669319384906, -0.21397541943895923, 0.051094334649616074, -0.0882567081337907, 0.006501949515956376, 0.029674174276063833, -0.03658020111448273, -0.10702261718607063, -0.035974825720375365, -0.07307582986344767, -0.1667174574572959, -3.0077285907120927e-07, 0.5766651157289174, -0.1300354034162502, -0.008167282896019364, -0.36179723898148053, 0.5908780841644866, 0.3298803909035835, 0.20844286165738776, 0.05608902386063005, 0.09496201880602854, -0.18797146500932477, -0.23704692002068245, 0.4456234036016098, -0.05085476331341827, 0.009875510494943342, -0.035804661370051206, 0.05146231668589513, -0.422383592018342, -0.23668903717574516, 0.1274154648765719, -0.06346528806662655, -0.7083451151501053, -0.06294226542829613, 0.41034753256556583, 0.353479024634667, 0.14940882805395828, 0.030504533383569545, 0.20834519965919657, -0.22086535936062177, 0.006620156905063619, 0.6091599458630558, 0.18326842327578152, -0.520166742693978, -0.0060062741329423575, 0.012702714968356506, -0.36685390787750816, -0.3066919612503859, 0.3006101220542613, 0.12717116102342574, 0.1877380422609204, 0.12366112357248814, 0.275339015935386, -0.15652605478500686, -0.259635477139324, 0.40517345043783415, -0.00701352342096212, 0.0006816713767350275, 0.11794427239320594, -0.24513848325285376, -0.14094806103518442, -0.06989982989335491, 0.1893327230487901, 0.11293961639735828, 0.2387453220590186, 0.10703909323370883, 0.4028579797917701, -0.010564884021850912, -0.0016087234450078635, 0.12250016864717281, -0.11530243864229309, 0.4128815332560959, -0.35482406484371726, 0.062061125281368035, 0.12575788970901158, -0.18389412500063285, -0.10194041172336968, 0.4491412778729998, 0.7168543230041199, 0.3076261265012239, -0.21262459262948666, 0.2874545287733753, -0.1990213073689104, 0.010128448475141058, -0.20976927874588397, -0.14690550515401846, -0.023729284803661575, 0.22625341128724244, -0.24069233028069797, 0.1814336116630155, 0.4144250103167782, 0.1926480427832239, 0.3658628051998898, -0.05190135611742053, -0.2189843008237939, 0.020613412013717882, 0.03755476166790067, 0.31948507811247673, 0.03277730051456774, 0.07457712295984423, -0.0006732728656174358, -0.048152143283785864, 0.052865870545124545, 0.0837417494834604, 0.20351887426157397, 0.018411241693855978, 0.3080702568935093, 0.19312265993461783, 0.14539514952760707, -0.02061266739327375, 0.6731164681985459, -0.10706300413304963, 0.14584606667932148, 0.3811601966439596, 0.19848873423491495, -0.3817310117158094, 0.011922044753114246, 0.1694649966922602, -0.33118288213489255, -0.4116206367079425, 0.09334030246023821, 0.3100456580313882, -0.46075019768328457, -0.0015912604606780636, 0.02049882608549442, 0.1723763338976653, -0.238628322789392, 0.13010600876840261, 0.23164188068343383, 0.16473717398619825, -0.031524091895819215, 0.2549776139379454, -0.2673221856490913, 0.015840714118164696, -0.5206466966128885, -0.2635900221526809, -0.0097734556976339, -0.3625469483435807, 0.26855465754786606, 0.17993317582593424, -0.10130509845584154, -0.005458475867454742, 0.11073524269117056, -0.0004491879727877056, -0.27025669463832036, -0.25582975688568727, -0.14049087575111724, 0.07822957524390438, -0.43777859436512184, -0.4585498489095133, 0.06748326438467778, 0.07360527564104266, 0.13919655090096553, 0.17518230772341975, -0.05381422326094068, -0.17117194298673288, 0.03683801478120183, -0.003784071789001207, 0.20022141676610672, -0.1653804541971841, -0.04739259611424551, 0.11106525330436884, -0.013608017383402535, 0.16284938032642757, -0.31391634925498285, -0.1630734959901515, 0.14389142541411296, -0.515625114283552, -0.2937300376105138, 0.3337643397014247, 0.2631345832984452, 0.09989860849489084, 0.1723014228379295, -0.05813585071603563, -0.12672339036539895, -0.04841282354287957, 0.2046731175122253, 0.19783369620509048, 0.19738953627983505, 0.24407224219352205, 0.07387801582343263, 0.4153759212842861, -0.27492173215382826, 0.11168648180749906, 0.12339835894607651, 0.2132272596352709, 0.2216622135569547, -0.20943210268681078, -0.29831497250350786, -0.11498748696450277, -0.32900259255930575, -0.15965419852035886], [-0.06070362392251005, -0.5463729688808454, -0.24789580527674154, 0.09815083186043634, 0.06275464386759967, 0.4000968591403921, 0.17048516478683623, 0.22571993744178928, -0.0757486852991286, 0.1546498286057803, -0.10387461209964867, -0.3187650657711741, 0.3989434818904936, 0.18873392221827934, -0.006020921382351819, 0.23321419407435257, -0.16491435510815566, -0.4310615022385237, -0.5047824304413085, 6.639888634934739e-08, 0.24073883627238288, -0.2143399394971204, -0.19430536706055188, 0.03564013852966631, 0.16038488490804967, 0.15670267154743028, 0.21724318862512274, 0.20823276206622537, -0.38779780459581176, -0.29783187908659536, -0.2331208797033785, 0.0939556066445869, 0.350559752138736, -0.0051064926861635555, -0.1746991200245626, -0.37628133895996646, 0.022710708519711624, -0.04983948579833138, 0.0731454272981534, 0.11852476463281152, -0.24518995742195301, -0.3456848568413639, 0.1686589005463062, 0.14066027796688826, -0.40136718175498737, 0.04447282953032763, -0.3879558540484813, -0.1452656665324002, -0.07275022992880781, -0.17771420008294328, 0.3887385836312408, -0.12965236521856838, -0.05497127095618199, -0.03907100039995638, 0.011249536016280155, -0.0666591097700632, 0.07180972065467603, -0.293903443702789, -0.276998666579889, -0.04108684967673285, -0.20675107266273024, -0.09902593245945297, 0.3253945020651318, -0.2259720427705594, 0.011202814346669329, 0.2999701770518878, 0.11859741690574709, -0.11420045195408098, 0.17847615446331314, -0.36779646647702025, 0.2512887460593666, -0.03429254193232172, -0.09921282445618988, -0.017526825137419735, -0.21657371093209896, 0.2695344543602268, 0.6455286812968467, -0.05398192930700557, -0.14536753330701982, -0.12452895935151898, -0.03927471195954874, -0.6761524484854643, -0.27335796157068937, -0.11491001343129646, 0.015107097233161677, 0.16412411160867987, -0.37251797504005196, 0.2945825319520836, -0.007863241434639755, -0.20862323714804554, -0.47496831544996565, -0.06028734110941197, 0.026954587824681082, -0.25327324051162703, -0.350158734256869, -0.5071254208328976, -0.20190841195370465, 0.09778856005389609, 0.04294192984744, -0.23078302373338744, 0.17775775305357872, 0.015822464039626925, 0.1158133329765074, 0.3998826144157134, 0.03869646481914061, 0.3010227647954904, -0.04484055069103739, 0.23480543648083974, 0.28588416848938203, -0.41681046696905494, -0.0008750283116923158, -0.1406433344018436, 0.23169495887978314, 0.450462231849157, 0.5318540159446563, 0.49067730740192916, 0.042286427514694185, -0.009285143980131064, -0.5470512067068488, -0.18426722813687293, 0.13555020103496873, -0.3088586313705563, 0.264481723380885, -0.17316952587925283, -0.19211495455029806, 0.2611418800510813, -0.290067524495585, -0.17687454265301195, 0.18646184553512557, -0.014162268922091199, 0.18690009378499828, 0.17520897135785768, 0.26487391842058805, -0.21314538603636612, 0.1100486233170951, -0.028590720335218273, 0.019079584917758036, 0.06783052927473081, 0.28799313027697065, -0.23804362766356693, 0.06292279734130773, -0.018378778763286377, -0.21789115168161957, 0.1415613395215492, -0.19691929679577866, -0.03349395375100771, 0.3026933304273556, -0.06787712363475507, 0.03343690659721132, -0.15408908593465856, -0.03649418155374959, 0.057321203629695124, -0.10459309061342359, -0.08269067708765694, -0.0812177929859215, -0.3236934426852387, 0.23130227990643, -0.37077237971648563, -0.14279900903144047, 0.3734782824401757, 0.10421056962703734, 0.4818821167980869, 0.3065815521818878, -0.1447974290741304, -0.03368466151663906, -0.009498805764742047, -0.2662889761909146, 0.19894035788386125, 0.02830144399655984, 0.2637202637903384, -0.2665933213875049, -0.22064196444950146, -0.06354601060162107, -0.38471137773494246, 0.021075588736649862, -0.2327803308062279, 0.050939193155805446, -0.15478811149100344, -0.1295645925361016, 0.05762894468013718, 0.4957830691565716, -0.16541921821291258, -0.1465061359891836, 0.1550466045268385, 0.42490388465320894, -0.08037540545142212, -0.29569530053197635, -0.5928538905190033, -0.09673227900671219, 0.5120664695155669, -0.02229957935255446, 0.219661548899805, -0.3745705474544528, 0.35812653270824996, 0.17972607039348742, 0.37885243605317626, -0.12401791489369014, 0.2957256255073025, -0.06811037722972596, 0.25205254225598833], [-0.2063415145507017, -0.0520830652292772, -0.09600320835618194, 0.5262224187721686, 0.3338928321735081, -0.31224743808938493, 0.1341622369414489, 0.16374530205034413, 0.21020658162228192, -0.11260029709488388, 0.33567389895775673, -0.13490622180945, 0.10291829432279219, -0.3511843328166173, -0.1728754186874953, -0.29268870235378164, 0.04363254708476493, 0.26726188931523914, 0.02037434706816171, -1.1096232365569246e-08, -0.26731296721742553, 0.18172955838871108, -0.07817597588771344, -0.07686717722381978, 0.25692941615103226, -0.07486666360320941, -0.002806412426957718, -0.17742030506024312, -0.20328592575768967, -0.20335817348452453, -0.5335529118287192, -0.24526713612973772, -0.08814485866737377, 0.00041993133347888086, -0.3475201268522758, 0.14103388080817975, 0.16193701421491768, 0.19708380085234847, 0.6874359879138153, -0.30451897544140455, -0.1451610454121189, -0.5779458428229023, -0.28008721180127993, 0.17333366813738144, 0.00464816570085783, -0.5078591526414531, 0.03497051186519437, -0.14971699640962222, -0.12446255374619455, 0.22787756536076703, 0.0009667027754347941, 0.27375953765067795, 0.29870915129173, 0.42519138699568254, -0.07145570722897067, 0.060338020846772616, 0.3846155050928833, -0.09372293286612451, 0.28492423489908186, -0.3057220936793127, 0.20903076765747705, -0.3183284038809914, 0.3601057225517931, 0.12827894850275132, 0.08228105182289416, 0.1287221147760687, 0.3526355821738825, 0.4837108452906403, 0.08977601166354106, 0.25947076658883333, -0.15104158145456176, 0.004511520074320371, 0.08615695391396563, 0.05522877937307313, 0.3121164801864386, 0.28892064898110015, 0.14661707882743058, -0.22105719155647383, -0.349357025438284, -0.1461538354886668, -0.09351363760062592, 0.22754113205660023, 0.46730671068327356, 0.11543986598556966, 0.008311057908696552, 0.06736927943114338, 0.14029065084487463, -0.41511526378127067, -0.11467773395272945, -0.3621205140746569, -0.2591891380013401, -0.08228656614311493, 0.06627788422740556, -0.1179530062384823, -0.11662054538072875, 0.06843360322523304, -0.16291631369134713, 0.18279694575002528, 0.33946218246764365, 0.6441769588815552, 0.06820957165436987, -0.19759923495924592, 0.43371957438045877, -0.01085593171437931, -0.026359037544000884, -0.10469499214995318, 0.03854821756878946, 0.29710278162493214, -0.3068310418233171, 0.1462209166901532, 0.004279357423314229, 0.37362705691217935, 0.3992186168018773, -0.12431453218074245, -0.15602406820017817, -0.4425911712570353, 0.399478042214379, -0.4064382483435023, 0.14766442551035378, 0.03417494070448638, -0.332350825536522, 0.21625915962759434, 0.29042665790282407, -0.05692592955961399, -0.13818757057036318, -0.2690748140846314, -0.4386460718140384, -0.12268793794876952, -0.1673913974921228, 0.16153798046975565, -0.01728631399150481, 0.24740743162865825, 0.022166672379978443, 0.3279777017090629, -0.1380405002710574, -0.12904816055462337, 0.09168141907611586, 0.12821507376263833, -0.17833649195977314, -0.07722854615796995, 0.001028848984623583, 0.006759445723472422, 0.3544407327618366, -0.7078819296141711, 0.08626453945505191, 0.1609012656880221, 0.5600146716668674, -0.4471841778898224, 0.07394367393269391, -0.3040713907801862, 0.2480484006567654, -0.10673537670589399, 0.3127482025583519, -0.06475742108545164, -0.45945099789885036, 0.3057446481388163, -0.08935134122163949, 0.14835655399455483, 0.054638225057639295, 0.0234238345329503, -0.07226468812243002, 0.23556817323291712, -0.20990530642016944, 0.1417910233677512, -0.10945261190848189, -0.32863376143789885, 0.1728725692487197, 0.5737576554373164, 0.05726548711273876, -0.20798308027856832, 0.6420801570070024, -0.1124368447471479, 0.24461000447394374, 0.23080359403149542, -0.4236606965208955, 0.020659396038244442, 0.41497120856820907, 0.31945256633015523, -0.2635728539607298, 0.521553428392834, -0.2616446483688473, 0.3569226309192087, -0.40962127752393657, 0.2652566714517677, 0.1700692048400079, -0.04255514633546394, 0.6919490354423115, -0.4124215010847527, -0.07936042425859767, -0.058096698438927265, -0.2134726181956656, -0.3710515306020379, -0.640514187940161, 0.3891200239553679, -0.1446563043124991, -0.19134243593574327, 0.10621906705312657, 0.0016354273047961524, 0.019469069703339635, -0.27233153091525275], [-0.08044602610600303, -0.2516957881593584, 0.07604764747138043, -0.23096955763579977, -0.03365286655625283, 0.3882323955525334, 0.2400337391353145, 0.08358177483686373, 0.012852628749435073, -0.10881142973021783, 0.013088415923307254, 0.021438168038232668, -0.15640254470403323, 0.04268551483494247, -0.215818868736468, 0.32444028618732174, -0.12340663685058342, -0.09560625238656582, -0.5921484683874702, 3.367737948469358e-07, -0.4394094190252379, 0.22189580399205475, 0.0744027114933803, -0.12561938675115428, -0.35689885402218524, -0.49928106369849584, -0.7050665933146487, 0.027083765573113015, -0.221683370726213, -0.08263766409683937, -0.17400668514238946, -0.17960973427553578, -0.13236959134226273, -0.00043573722683005545, -0.15082173022060447, 0.21733531345566157, -0.1622418976137491, 0.02576774488855704, -0.1346472400162488, -0.21795914524492782, -0.16465958020752822, 0.5885333968779444, -0.22185055484882626, -0.3911439284146613, -0.016286607332367486, -0.00349090508686586, -0.3446401062658148, 0.15168215383895509, -0.08036721873592702, 0.1461543076968703, 0.20737889457101083, 0.21379905627521123, 0.22306736790983264, -0.8523528536005827, 0.01944824369613277, 0.04722080910178815, 0.1740576562401948, 0.5061334301589855, -0.31910671687996034, -0.2074867411904886, 0.6532059090303739, 0.07168118045412111, -0.03095300009914566, 0.31127013036968243, -0.0665849649544826, -0.1368766793958196, -0.3235440214125118, -0.07583363227620764, 0.3011369234513918, -0.4102502977742475, 0.18642594697201778, -0.5276915512107583, -0.17249735328749613, 0.022488618413755088, 0.09028949683036375, 0.03901575838016232, -0.021074589451108704, 0.4450328238565148, -0.0408325832058353, 0.5842665930779791, 0.02942114137927679, 0.20762174464295854, 0.1385927137575402, 0.0038003131799533166, 0.08791471257970213, 0.24057730635035238, -0.6012968957566995, -0.4119158130192597, -0.08313739759546042, -0.16458548633178835, -0.4812521505167573, 0.26707199419285327, 0.2607639680648241, 0.0642345978439149, -0.0644096000576071, 0.019580737634889475, 0.038092793849197025, -0.0489594603521181, -0.4763622741138248, -0.31191707372981475, -0.754342984114924, 0.08318069173550084, -0.23958478250913615, -0.36267063900677965, -0.03989964420877971, 0.2737747806127387, 0.06995564111207654, 0.3515909191861169, 0.2378919888181856, 0.252201648390191, -0.16114910661446227, -0.05762272216465131, 0.4124359074334603, -0.15949013389110367, -0.020153846117191884, -0.3417298119488679, -0.07680943652148288, -0.05390318143728309, -0.36862292134969893, -0.011279984787739228, 0.09955985005156458, -0.017494526842251668, -0.057563577586609425, -0.14336310845358155, 0.21010930243214898, 0.1142534793224354, -0.21457310691027542, 0.09685929674709765, -0.083831740473475, 0.19719045493846954, -0.24464719726295225, 0.004070299169297734, 0.12186969600307462, 0.023724667618290247, -0.5107095395541493, 0.1175737068774689, 0.3661455910392192, -0.1919900488526947, 0.0010416365828482999, -0.34938666479607544, -0.010738370057859695, 0.009015075233511237, -0.31869616379831534, 0.01150577482414487, 0.034206056031470276, 0.46709403757707557, -0.09418867164152003, -0.10920320293551715, 0.07008008320604038, 0.07207990599887834, -0.25172468977291257, -0.4164362305586241, 0.13310527448582632, -0.02199071228612886, -0.23690997059602964, 0.18121371739038597, 0.13841812967418082, 0.39132809736829127, -0.013510638743875151, 0.31141859563925584, 0.3970554751660468, 0.12592588057680384, 0.10585898425972644, 0.25370005147618124, 0.11004631887071446, -0.21170221622191213, 0.3893678859137664, 0.22245928892386418, -0.04409693010533833, -0.01199985952029559, 0.0015632160128069583, 0.2508292399229517, -0.22248082125337712, 0.31977483240074067, 0.025016223705165194, -0.16101581807403717, -0.6421179825461767, -0.24367650250207368, 0.14196856768860366, 0.07116784543368754, 0.11572522525391474, -0.20371665878536024, -0.21106982217331002, -0.3076482057231945, 0.002131658133626278, -0.43640923309643825, -0.15282356811417036, -0.29143437524743177, 0.002953379423006112, 0.24570953702246784, 0.44663255870675533, 0.11747890806903499, 0.24044042670136265, -0.12957429909637805, -0.0438793768568508, -0.32546389051433394, -0.2998229139010171, 0.15104881739989612, 0.02419677165178302, 0.023786376918488585], [0.18706538277819165, 0.4007328496041308, 0.010443122772238314, -0.05914452826700438, 0.11722537745870354, -0.3755204537240595, -0.10220008787534962, 0.14241931884757514, 0.34823529345775567, -0.22530759723616697, -0.13030082626314202, -0.11357547178801276, -0.4081640110489556, -0.35121256244408244, -0.19948277982511536, -0.49227648623353776, -0.12717435874255492, 0.15184662111408012, 0.2935087748928896, 1.833370546726707e-06, -0.18690595735417231, 0.45733453259078694, -0.27470329995858067, -0.33196859343377266, -0.2101785770475232, 0.0518326533154355, -0.018806606436228515, -0.4374387879749426, -0.3734541366479973, -0.02277352885436904, -0.16572600800665216, -0.3636970614197266, -0.05855343730186312, -0.0003522524453935345, -0.3364384843823658, 0.4805414540468272, -0.39053705318259635, 0.59435112657999, 0.13814627476534427, -0.26226680414447934, 0.08377773042302473, -0.09736499224186575, -0.05501815422171461, -0.4084562760098812, 0.47009422244025467, -0.18224435075555107, -0.15733849483433807, -0.05455268594984627, 0.4952698428765553, 0.18370671607392855, -0.26444910318657183, -0.11514591168359435, -0.1508618576309565, -0.5275093135840492, -0.5641941696800267, -0.21412280679623769, 0.45951647921305494, -0.4028408939788265, -0.09477464530572072, 0.5996847410454736, -0.30280688273091727, 0.1148794369634136, -0.012128312773265182, 0.3521987728097866, -0.10698243666304097, -0.26213461810980715, -0.06938312700735702, 0.015367934618372549, 0.1159808610630015, 0.3552337746760091, 0.2085171744039539, -0.2799397817465723, 0.18061049055793973, -0.3471712362425887, -0.19925133978143933, 0.5171535289507954, 0.38407608911385527, 0.10240166061465797, -0.05951780718942933, 0.4432136552999839, -0.08414031652761841, 0.12361325103485486, 0.08664069947616249, 0.2506522402180844, -0.24689813625492935, -0.05099581654480075, -0.02558880793176548, 0.08256642648897314, 0.285275008883057, -0.034532312526681715, -0.008282334685295472, 0.00422404308370731, 0.3469079448495934, -0.29104951141650875, 0.13162175062282055, 0.11180486776804908, -0.43201379514817806, -0.10067229330412238, 0.19890966879945063, 0.593711108904401, -0.1597156079017223, -0.2967948203910777, 0.39013475626465555, 0.2027130233867511, 0.06197123935218088, 0.016882312973603538, 0.029214595407512745, 0.41926985790212606, -0.0824219749675116, -0.10450021001524704, 0.15371263942312233, 0.04434420665254148, -0.06903491045643356, -0.2825172006002779, -0.009341321223851213, -0.2084450923564704, 0.35713790772139786, 0.09182269715685899, 0.05628994593481401, 0.1875215658849355, -0.19176822708211058, 0.36016638770233406, -0.20139967498040995, -0.5577728522697292, 0.41851254221348827, -0.06507933342687411, -0.2015546577984319, -0.3774663201842367, -0.04614817644679269, 0.022390589652506943, -0.0862796090796899, 0.025648472431883805, 0.0366951466411419, 0.19435986853218665, 0.014357813569282228, 0.0447890397362202, 0.30093595736614276, 0.3591928569864368, -0.14172791844671184, 0.2351376516087249, -0.14595762578124155, 0.003007987492846621, 0.4329854172116072, -0.2609556108765002, 0.1119783990505658, -0.3811585821044806, -0.4614889269988736, -0.21911929253910328, 0.053863909957957985, -0.10613327083797601, 0.09692574377737449, -0.1857359330482702, -0.05021029799361182, -0.21368369385860178, 0.00011003562169936691, -0.3106250510036411, 0.30798467803357144, 0.2689279924890778, 0.15672617329568841, 0.37074854553037745, 0.2092486510695862, -0.2725729770789401, -0.49147836396462385, -0.2672649280415361, 0.0622390005349416, -0.13232121634886465, 0.0927029380703558, -0.06333580904599681, -0.012014034600675254, 0.29174962364431223, -0.33855221882379233, 0.17052465858739216, 0.2834550089408532, -0.06773571481216839, -0.33637835502537156, -0.46441586151871356, 0.19894517084047444, 0.3662013719285247, 0.03686311613922577, 0.006437089318235742, 0.27546116481139116, -0.16190576253934433, -0.018867319312320514, 0.5320140539288811, -0.04176939728344457, -0.458494837914888, 0.11694983273310709, 0.3006363641514045, -0.07636624551737935, -0.29204306220537246, -0.1395434494786004, -0.18412244181010315, -0.13405273129063078, 0.24823006855889537, -0.5740821400237165, -0.6531776129126788, -0.11587697258570355, -0.21400716462431665, 0.05133428796502626, -0.19014005691817143], [-0.010241664928119499, 0.011603031064476507, -0.05852857830165155, 0.26601737698996963, 0.025868200990516187, -0.010605358217404512, 0.10081848057284551, -0.1784790628843353, -0.34902385851857753, 0.1708999991354233, 0.0780863796155987, 0.271570305861519, 0.4014442437093034, 0.3263351699282998, 0.0013678002939620983, 0.12109782670650833, -0.18162893017224915, -0.002629937888003284, 0.07688790994124696, 1.6856289666621052e-06, 0.1238407108380572, 0.3074979621428387, 0.07640315249580186, -0.33223568061194464, -0.24027136347123512, 0.03561720420550725, -0.08073097957011426, 0.060475580928261094, -0.32362471194492676, -0.13390688770617606, 0.04449500794057238, -0.04123312906463081, -0.023413434907537983, -0.007076943080337082, -0.4261465066112234, 0.16006796556786032, -0.11725294955624341, 0.2237432297208614, 0.20783727169152763, 0.037042317015289095, 0.11563333126779994, -0.15736066390064715, -0.16737347598987998, 0.25481824525041863, -0.0010386306951985487, -0.05709674825601826, 0.00793748215204893, 0.45958394153841386, 0.005004537114107887, -0.05935639433535374, -0.23437181500043713, 0.3681889962067315, 0.1476716792999935, 0.38245779790949563, -0.008510385123981008, -0.018162556714712147, 0.2742592623529009, 0.09533452350438365, -0.12361240402864591, -0.260228404836275, -0.13095491305411508, 0.02335228277978581, -0.34578074814414367, 0.48024591469244526, 0.1504444469611017, -0.060228754332066016, 0.23983097685147356, 0.6078773025068929, -0.10760980949565639, 0.08145397841985808, 0.7295228304586023, -0.2705910850617464, 0.17592916320649496, -0.21951254582135848, -0.29353570076984187, -0.10023405111215836, -0.04291202026079195, -0.15054326791454906, -0.3865304984602008, 0.13832556707065174, 0.24760731805577385, -0.036727501175502025, 0.0035158681094817775, -0.041094003392591415, 0.05672055910943704, 0.09652588914755551, 0.2284053173162304, -0.008397297410317523, -0.0646836383837021, -0.1911440716171323, -0.20247249730599465, 0.12115422156089273, -0.04122329978220833, -0.07339982060560926, -0.24291077889269766, 0.614237799036895, -0.33618828643953796, -0.19970941772158754, -0.23274443523067703, -0.03350199429670996, 0.44178754603831893, 0.18072228451098382, 0.32838809219605286, -0.3074510991408976, 0.07661495132484195, -0.10313238665435095, -0.13353449352490393, 0.040913404262387834, -0.09321869914387916, 0.09002957387092698, 0.14934821267254028, 0.30526849087466745, -0.11394225827348765, -0.15411733387220242, -0.2147808962851227, 0.3198330191291563, -0.14314087346039941, -0.05971824209761243, 0.06868614308219809, 0.3129218447434096, 0.15331290697859118, -0.1736917152516369, 0.03594049719243675, 0.1419785809535932, -0.033011621852696876, 0.3156548064505856, -0.06371898926245786, -0.07903085675559414, 0.19810038918114825, -0.1463774063680066, 0.20650117241194457, -0.385502942219504, 0.11185081211435127, 0.015257989682892584, -0.6888597795931817, 0.1511422709914749, 0.37557436899762536, 0.026374361841712407, 0.1547776892362264, 0.4205707128059981, 0.21293091904907727, -0.025917248719760717, -0.3560931168347916, -0.10505351561806749, 0.05339898841138709, 0.1537036327414262, 0.08623170810276914, -0.275300790697341, -0.24636639993459825, -0.2217304610949777, 0.2702250501270212, -0.023609857702019534, -0.2519968951557563, 0.012968390441279084, -0.026221017035926625, 0.1253848243180612, -0.1746220014833654, 0.09437989946941713, -0.09994628536548857, 0.2656519811132055, 0.012249039510314171, 0.12374260999706888, 0.03967557546442856, 0.004569350400367505, -0.07463760057861951, 0.41278057338582475, 0.0668779792962711, 0.08612404765844815, 0.13147144553572593, 0.17317793691292793, -0.21863282582844026, -0.025575559245715338, 0.12667626697184362, 0.08263199987655308, -0.16520879850066456, 0.07003759424969913, -0.04293434269891802, 0.1303932563298971, -0.06141243146413786, -0.3245987410143142, 0.07766300543496918, -0.3786371445479174, 0.05163053167048747, -0.4746664269589141, 0.3636685502542128, -0.2871398190150059, 0.08339028297633251, 0.5044815419681238, 0.19288066374723944, 0.12529704172654524, -0.028641962117400114, -0.02224035863712898, -0.4063212697370163, 0.5225092714198807, -0.35572709642719513, 0.2388822923468465, 0.3273613748794677, 0.19414012010278703, 0.005656711631175511, 0.25340140346666473], [-0.15668907950152774, -0.06114750322127527, -0.07157300662508077, -0.011184285295233649, -0.0707520194895976, -0.34360282020739713, 0.1674995481589925, -0.11929976257816796, 0.31198507739542775, 0.1209499525308619, 0.43044959419048817, 0.13871479411220072, -0.1433644037766659, 0.18161312611552813, 0.19483814067948288, -0.08749730461312577, 0.13769126892689698, 0.03774552887961599, 0.33063473070205807, 3.232147801049469e-07, -0.032355154642444546, -0.05051163026662946, -0.18241366994186978, -0.2682525209502666, -0.04877818456629474, -0.2459076817164576, 0.2539749256485059, -0.11177038881116433, 0.5250840893686854, 0.009066742851751127, 0.24415192228918373, -0.1481784054972068, -0.03495692178330774, 0.00282614026036098, -0.45117712283132205, 0.4584674136985279, -0.45710234732695865, 0.024494584147511482, 0.05436206100354252, -0.1055262124210228, -0.08700978517894609, -0.08195809554531526, 0.05740709287256346, -0.02380513890683322, 0.18622285788251447, -0.1481214274856628, 0.14375057557090842, -0.12724718868042192, 0.3191328644333118, -0.43808398376554425, -0.31520013885581, 0.1317969122128971, -0.2968594197461672, 0.012955365989020813, 0.2697501744329021, 0.605449471074504, -0.19446463301331116, 0.5649734781177268, 0.33625839799705665, 0.09460031759167915, 0.41768951639815566, 0.6141251318786973, -0.2186917507445084, -0.6156428539425435, 0.10437636010446237, -0.06238689308568437, -0.12185444565483403, 0.12235657910709341, -0.02149858669721925, 0.29733155205331474, 0.15701694982259037, 0.08295239690001205, -0.44887977300303844, -0.039606899988864214, -0.28330213893858347, -0.37359783907517086, -0.02136143254996602, 0.11817883944692974, -0.06616687668380045, 0.38078760601112865, 0.056811635173835355, -0.02225525282214115, -0.2295284252503983, 0.11742994498856385, -0.1653052786392261, 0.06718757882960566, 0.33998364119841123, 0.07988885405504947, -0.05987021626344039, 